layer0
kernel
0.25816697, -3.32895708, 0.53793180, -0.11742061, -4.31497335, -0.62374753, 1.76008534, -0.71359479, -0.83569497, 1.26378071, -0.69094557, -1.51272106, -0.54149050, -2.57843971, -0.85448295, -2.75469685, -1.02574301, 1.76166129, -2.17494082, 0.52638197, -0.21712223, -1.68491805, 0.43754983, 0.10990392, -2.00471377, 0.90319538, -0.16630200, -1.31536841, -0.02288605, 1.64668298, -2.32810307, -3.50698972, 0.27543616, 1.67437494, -3.54654980, -2.52985883, -0.31752729, 0.82211572, 1.28798127, -0.05033970, 0.01492133, -0.10827503, 0.38007960, -0.36161175, -1.15453637, 0.88450330, 1.46655226, -0.40884098, -4.26249695, -6.73371363, -2.58375788, 0.82588810, 1.94719684, 2.41729069, 0.90126550, 0.85641253, 1.02881634, -0.83912539, -0.88958508, -0.79614127, -3.33781290, -3.43125653, -0.65083611, -0.16104449, 0.41471469, -0.11518838, 0.18589084, 0.94050711, 0.05457974, -0.23275177, 0.66317809, 0.18634757, 
bias
1.07795072, 1.96861672, 0.08320892, 2.78617811, 0.12944147, 1.52133942, 1.29251122, 0.06733048, 
layer1
kernel
0.91590762, 1.10172808, -0.05068141, -0.02944676, 0.61793530, -0.08596942, 0.40600106, -1.01376569, -2.05231524, -0.13283797, 0.50913757, -3.31924725, 0.06346305, -0.02147532, -1.30347812, -0.97456306, 0.22751468, 0.06829049, 0.01287776, -0.12774020, -2.24591827, 0.17203429, -0.40703657, 0.74912053, -0.92595679, -0.79777062, 0.17993195, -0.48673055, 0.00980837, -1.36857617, 0.10697892, -0.40793374, -0.19077970, -0.09142538, -0.77088588, 0.01517014, 0.44240177, -0.01689954, -0.06654635, 0.86603302, -0.24412939, 0.05122453, -0.98760468, -0.08832367, -0.37077817, -0.03142233, -0.06311118, 1.33386326, -1.80960739, -0.05418348, 0.19699422, -0.02373045, -0.11269761, -3.70623064, -0.07644100, -0.79965955, -0.10332292, -1.92848206, 0.51398569, -0.06018540, 0.14928848, -0.05046652, -1.88769460, 0.06839069, 
bias
0.67671168, 0.42660177, 1.34822690, 0.13775963, 0.36729658, 0.50666869, 0.41232610, -0.14344466, 
layer2
kernel
-0.00020918, 0.53945237, 0.19389378, 0.44708776, 0.73029131, -0.74897987, 0.02639309, -0.43882167, -0.75329256, -0.09046046, 1.90426254, 1.90958774, -1.93834341, -1.20241189, 4.59664297, -0.49044347, -4.69462490, -0.10676864, -0.00707803, 0.01584040, 0.11849439, -0.86237586, -1.96996927, -0.55914545, 0.79284269, 2.03909111, 0.41863906, 0.47488594, -1.90305817, -0.29345402, -0.84829301, 0.99809515, 1.97158933, -1.67198515, 2.20354104, 1.47869205, -0.07297599, 0.44237590, -0.37530506, 4.34152412, -4.19921732, 0.14624357, 0.89758271, -5.75759363, 4.65646553, 0.37251532, 0.67378569, -1.28414607, -2.70035601, 5.64746237, -2.54917765, -1.71856630, 1.20073736, 0.31234813, 0.06093416, -2.94351673, -1.31362522, 0.38692802, 5.27442312, 4.35550833, -0.60078120, -2.37697697, -2.85635662, -0.43862933, -2.83782959, -0.53247559, -1.60864758, -2.47060513, 3.17445230, -0.16486852, 1.79838026, 3.01328135, 
bias
0.00937625, 0.04389138, 0.10287482, -0.17562489, -0.07848742, 0.03191591, -0.06587519, -0.01754159, 
layer3
kernel
-0.11541554, -0.72224146, -0.32911316, -0.02064018, 0.07531194, 0.43718579, -0.17566510, -0.15486017, -0.04075198, 0.03136971, 0.67380422, 0.12146810, 0.13311835, 0.17513561, 0.94042289, -0.00051514, -0.05665060, 0.04051958, 0.18445051, 0.03984745, -0.02794123, -0.01673113, -1.19139087, -0.04239193, -0.16277464, -0.52505666, -0.02442947, -0.30802378, 0.42875496, -0.31935340, 0.03788339, -0.43866837, 0.15825357, -0.30206496, -0.68468058, -0.13943806, 0.17361107, -0.04289424, 0.61714822, 0.10546847, -0.08502173, 0.11666595, 0.03875887, 1.58348548, 0.15432754, -0.01626457, -0.14908889, -0.46298262, 0.07233083, 0.31378430, -0.07890636, -1.47081459, -0.12289666, -0.05523445, 0.02174857, 0.04454922, -0.28336045, 0.35105821, 0.06797343, -0.62405449, -0.03999572, 0.38038659, 0.03084439, -0.18688558, -0.17359261, -0.51205856, -0.05206788, 0.00119673, 0.02339587, -0.50294298, -0.21203664, 0.09601098, -0.14256205, -0.05525948, 0.08997282, -0.00150086, 1.10904670, 0.82777965, -0.04602484, 0.04035055, -0.45717645, -0.06694220, -0.25561655, 0.01993076, -0.57157534, -0.14404620, -0.05903275, -0.64029849, 0.20013294, -0.71246445, 0.36878183, -0.21917750, -0.05735383, 0.11118497, -0.13111019, 0.15720013, -0.41048184, -0.49114555, -0.03457017, -0.18608718, 0.09989534, -0.14668964, 0.05454145, -0.54409087, 0.33154979, -0.78007978, -0.16990735, -0.03627816, 0.02888743, 0.05602651, -0.00307947, 0.60556316, -0.07715575, -0.10004462, 0.05926513, -0.08362176, 1.00219166, 0.10789904, 0.04339763, -0.10091734, 0.02660894, -0.00565226, -0.45072636, 0.06241551, 0.50959116, 0.65606868, 0.36824721, -0.01663059, 0.02604448, -0.03459800, -0.58428377, 0.04769490, -0.47541314, -0.39213908, 0.61772996, 0.03197435, 0.41894409, 0.80647492, 0.01364891, 0.10715242, -0.01583877, 0.14181273, -0.04436367, 0.67236447, -0.00855377, -0.00897262, 1.00315762, -0.00346440, -0.03221667, -0.01344380, -0.15179783, 0.02059969, -0.07718956, -0.10910101, 0.10464545, 0.05388819, -0.56693989, 0.47975543, -0.02069728, -0.15449955, 0.02145343, 0.06237579, -0.66612160, 0.01092516, -0.02838871, -0.02310369, -0.69185734, -0.05940949, 0.01794368, -0.03578839, -0.00874421, -0.02678191, -0.22217309, -1.06668425, 0.05514738, 0.03964832, -0.35509101, 0.62269145, 0.06018747, 0.04710160, 0.04178429, 0.01575396, 0.22717376, -0.47094056, 0.53981382, -0.07418907, -0.12254936, 0.07163760, -0.17554155, -0.10166651, -0.12035117, 0.79637456, 
bias
0.07932944, 0.00192474, -0.10316752, -0.01627777, 0.12302433, -0.07834226, 0.03571753, -0.53732783, 0.04486018, -0.02248421, -0.03442165, -0.08368457, 0.15404978, 0.57881892, 0.00058267, 0.06105999, 0.08092324, 0.00533956, -0.09455467, 0.05855341, 0.00448137, -0.01622882, 0.06941357, 0.13033220, 
layer4
kernel
0.53406787, 0.00868290, -0.15275028, -0.00983668, 0.03696402, -0.59691960, -0.04834087, 0.23784052, -0.01885766, -0.20933400, -0.04765397, -0.08981270, 0.11185681, -0.75219649, -0.05680651, -0.10179240, -0.01449714, 0.02423226, 0.09301136, 0.01933515, -0.00407811, -0.01892987, 0.12286687, -0.19453359, 0.15790774, -0.32261416, 0.43058389, -0.57076645, 0.40241787, -0.12245741, -0.16122615, 0.08733083, -0.07320736, -0.40144664, -0.15669368, 0.53483051, -0.08482867, 0.14738099, 0.06353926, 0.12303681, 0.30641711, -0.27558741, 0.49026740, -0.19738527, 0.39176273, -0.19418950, 0.46996492, 0.13948558, 0.16868462, 0.23426752, 0.04686101, -0.16133092, -0.14032039, 0.24387233, 0.10775405, 0.18504283, -0.17273664, 0.14699875, -0.51715940, 0.10167600, -0.07799626, 0.50349736, 0.07590926, 0.23046954, 0.30609235, -0.09551063, 0.45504639, -0.12489223, 0.25469503, -0.11777189, 0.01529439, 0.20427981, 0.11206874, 0.12926199, 0.10276875, 0.00455719, 0.06072344, -0.02934575, 0.00411026, 0.04986043, 0.03042033, 0.09557884, -0.01835575, 0.02616110, 0.00324378, 0.21077168, -0.30196682, -0.03272147, 0.19881403, -0.30456004, 0.21941577, -0.58405221, 0.08017392, -0.38869584, 0.15199189, 0.30052614, 0.18677483, -0.15015911, -0.02871793, 0.01962175, -0.03727989, -0.09633284, 0.02955535, 0.04227556, 0.01388972, -0.06318233, 0.10412957, -0.02756286, -0.36530024, -0.07752997, -0.16893210, -0.00538028, -0.00766822, 0.38872877, 0.02396801, 0.50741285, -0.04839843, -0.22133803, -0.10589083, 0.19898844, 0.00042538, -0.12926243, -0.05470434, -0.33555403, -0.48535189, 0.09159994, -0.84527576, 0.04844146, -0.60532653, 0.04976220, -0.39162171, -0.12559843, -0.21038049, -0.19122952, 0.05446351, 0.06539358, 0.00439947, 0.19375184, -0.08225579, -0.10827309, 0.02282937, 0.12723723, 0.19505972, 0.00448997, 
bias
0.63048697, 0.60168076, 1.06170881, 0.08122218, 0.46068102, -0.17495161, 0.87214035, 0.66417557, 1.13724351, 0.45659745, 0.76736343, 1.08103156, 
layer5
kernel
-0.03175245, 0.10292301, -0.10388353, -0.02883396, 1.41151559, -1.19517779, 0.02146384, 0.04625255, -0.13284679, -0.16374016, -0.35444927, -0.05018154, -0.25337985, 2.86230636, -0.26635066, -0.01243301, -0.34289116, -0.15243888, 0.08931020, -0.22074209, -0.13564406, 0.25053251, -0.57187831, -0.81410855, -0.05539918, -0.00363414, 0.00811911, -0.08131598, -0.11737160, 0.33352575, -0.18768680, -0.09420262, 0.38614988, 0.09375360, 0.20564726, 0.44182730, -0.00219901, 0.84302026, 0.37796074, -0.01801656, -0.34360066, -0.30144966, -0.01603137, -0.03443498, -0.09149367, -0.05555664, -0.35355529, -0.19598949, 0.30022091, -0.89693505, 0.22050610, 0.16444765, -0.91356623, 0.08451778, -0.04978036, -0.18220086, 0.27655005, -0.16974731, -1.16738498, 4.14540815, 0.00231601, 0.11614290, 0.00948399, -0.09827945, 0.02060285, 0.04807333, 0.18376209, 0.31343636, 0.80193299, -0.06603151, -0.02198917, 0.03979806, -0.13337983, 0.03216063, 0.06513803, 0.15943505, -4.12440157, 3.35074973, 0.24650358, 0.01364019, -0.23768237, -0.00430517, -0.04447787, 0.08535602, -0.04405078, -0.52421653, 1.23293376, -0.04222042, -0.00152340, -0.04917580, -0.85169363, -0.58594263, -0.78515512, -0.01827290, 1.64531732, 0.37261596, -0.36797845, 0.70329249, -0.49359518, 0.00842754, 1.93356335, -0.89045680, 0.08060369, -2.54416227, 1.04356909, -0.17658800, 0.29280996, -0.04854146, 
bias
-0.07160866, -0.26427430, 2.24779701, 0.05818492, 0.85200500, 1.06963658, -2.28959394, 0.05709642, 0.70831931, -0.20660800, 0.96060526, 0.29474467, 
layer6
kernel
-0.04949114, 0.05979622, 0.19560912, -0.25160450, 0.09330780, 0.24453816, 0.13147673, 0.28650793, 0.11691579, -0.01201144, -1.14431870, 0.08078110, 0.31006652, 0.15000437, -0.06584243, 0.07449930, -0.10395418, 0.02528809, 0.01450294, 0.12701520, -0.47673804, 0.14152712, -0.02841319, 0.07281103, -0.05342338, 0.44690657, 0.05728189, -0.18952107, -0.07166620, -0.47663984, -0.01541987, 0.02893885, -0.00855398, -0.00866038, -0.26578343, 0.31980261, 0.20412661, -0.03230444, 0.00358743, 0.59103084, 0.09185697, 0.06268934, 0.48540932, -0.47304937, 0.26255551, 0.05679027, 0.05969299, -0.02418151, 0.06027857, 0.09550399, 0.46908009, -0.54832619, -0.06041183, -0.01066646, 0.14534375, -0.07587015, -0.00996684, 0.04162198, 0.55721027, 0.21250750, -0.10244697, 0.47554588, 0.03637150, -0.00741277, 1.31967509, -0.20108394, -0.25004965, 0.43998578, -0.11133701, -0.09355695, 0.02437702, -0.14717934, 0.14407910, -0.04539514, -0.69566703, -0.05528142, 0.47004530, -0.04470539, -0.51337123, 0.19547753, 0.45696577, 0.24544539, 0.24360609, -0.33209723, -0.10441210, 0.04362321, 0.11889098, 0.33167076, 0.05724381, -0.05123582, -0.36659917, 0.49795392, -0.06963295, -0.27062064, -0.03268942, 0.03017054, 0.25882381, 0.02441028, -0.08391813, -0.12076227, -0.02185282, 0.06154551, 0.26481202, -0.31937128, 0.27961624, 0.28227764, -0.08138146, -0.05888408, -0.10861813, -0.00946275, 0.09880012, -0.09399447, 0.39168668, 0.10696457, 0.25216767, -0.13765875, 0.14148261, -0.07539193, -0.00549033, 0.12825413, 0.00387530, -0.45616829, -0.21605136, -0.12921774, 0.34230581, -0.34535891, 0.14897306, 0.11907070, 0.15678540, 0.00303065, 0.45940098, -0.08283765, 0.46739170, -0.06976887, 0.40970263, -0.04753837, 0.01791301, -0.14955065, -0.48576403, -0.21844684, 0.27484983, 0.59122109, -0.04510403, 0.28807789, 
bias
1.06854010, 0.88673079, 1.34682143, -0.17189682, 0.14227796, -1.44398522, 0.81992102, 0.59125149, 0.99369109, 0.28759176, 0.33998364, 0.31580853, 
layer7
kernel
-0.03130814, 0.33584517, -0.34177792, 1.11226141, 0.20764621, 1.07408547, -0.69542134, 0.54890823, -0.39130345, 0.18694788, -0.36219972, -0.00833578, -0.22033817, 1.85476446, 0.05649938, 0.12799610, -0.93945551, -0.12450615, 0.11118398, -0.84877992, -0.07474925, -0.06087198, -1.64271426, -0.51970631, 0.18499334, -0.67451245, -0.06822528, 0.09158761, 0.14434206, -0.00808719, -0.11371517, 0.65649998, 0.03945594, 0.12463242, 0.02271373, 0.02229242, -0.11878217, 0.70896602, 0.13065349, -0.51626420, 0.65375060, 0.12395862, -0.03283592, -0.60074377, -0.12223314, -0.17687127, 0.16581681, -0.11822125, -0.09078982, -0.68251020, 0.00818849, -0.09094336, -0.45609862, -0.06898799, -0.00061987, -0.05970505, -0.01236716, 0.22546452, 0.64282870, -0.10772389, 0.12652725, 0.26658589, -0.03417993, 0.37648004, -0.40542448, 0.00204781, 0.48578072, -1.61764979, 0.11972471, 0.36554998, -0.74445891, 0.21900614, -0.04342058, -0.10012275, 0.01984941, -0.34366718, -2.59521270, -0.20686196, 0.17679594, -0.21328384, 0.09764157, 0.09808869, 0.29900983, -0.04135486, 0.04403279, -1.38334131, 0.13351385, -0.18806708, -0.87652421, -0.01644057, -0.07798091, -0.07969163, -0.09993531, -0.15040192, -0.41684857, -0.11112636, 0.37949756, 0.97568792, 0.34613827, -0.00527159, 0.00369740, -0.02065963, 0.11881626, 0.93254530, -0.16252932, -0.00106486, 0.08792570, 0.01436286, 
bias
-2.39563799, -0.51366806, 3.06348109, 0.03326130, 0.93056726, 1.28291130, 0.01235688, 1.11365080, 3.37807465, 2.97092342, -0.28985590, 0.01215988, 
layer8
kernel
-0.14766079, 0.11588787, 0.01157730, 0.52997011, -0.07204928, 0.05952396, 0.09974285, 0.50422996, -0.53226829, -0.04297676, 0.07486460, 0.26291665, -0.22251309, -0.27661774, 0.58706641, 0.21144341, 0.31716514, 0.03457722, 0.14005017, 0.41965300, -0.65721589, 0.02282345, -0.39950368, 0.30621982, -0.13176444, -0.05503910, 0.13002588, -0.07027437, 0.15134610, -0.22692765, -0.71445608, -0.07768612, -0.08358806, -0.23351587, 0.03872868, -1.00506985, 0.29062909, -0.14493743, 0.10207216, -0.13576099, -0.11332272, -0.10125507, -0.06099817, -0.16907272, 0.27579594, 0.11344843, 0.17120969, 0.04783061, -0.10361466, 1.07078493, 0.19381447, -0.16017725, 0.07713535, 0.16858655, 0.60186601, 0.07343126, -0.42246750, 0.97948390, 0.14926517, -1.10522306, -0.08498003, -0.28994426, -0.03611124, -0.95481277, 1.11169899, 0.08561263, -0.92613465, 0.52506268, -0.10965164, -0.15287970, 0.19895448, 0.34477007, -0.26293528, -0.43961406, -0.61016667, -0.54302382, -0.29871213, 0.92480683, -0.22287013, -0.20865740, 0.65280485, -0.74053162, 0.15891288, 1.18014562, -0.04325125, -0.00132479, -0.50055504, -1.01149964, -0.42411742, 0.11920185, -0.82597142, -0.31799528, -0.25454465, -0.93283564, 0.07082538, 0.97142553, -0.10873061, -0.11241183, 0.14518365, -0.45144302, 0.19268033, -0.00177187, -0.00222641, -0.11878662, 0.45216131, 0.26163584, 0.07492626, -0.30221900, 0.02536344, -0.10003340, 0.14903557, -0.61115742, -0.00193079, -0.02179988, 0.05681410, -0.38390100, 0.50321060, 0.24064831, -0.01725982, -0.34433404, -0.36204278, 0.41464099, -0.47240072, 0.21481697, -0.40284327, -0.10525786, 0.17303336, -0.04476378, -0.48198637, -0.23632325, 0.13850042, -0.01082995, -0.11344816, -0.21839276, 0.03539772, 0.00476637, -0.12971288, -0.10582196, -0.61333543, 0.67542487, -0.55826485, -0.18194897, -0.05355212, 0.44002497, 
bias
-0.12714702, -0.42418849, 1.51935148, 0.89346254, -1.59901345, -0.03669155, 0.31942475, 3.05721641, 0.25915837, -0.53546911, 1.51685774, 1.56624484, 
layer9
kernel
0.12067790, 0.34327903, -0.01483926, 0.39865929, 0.49920785, 0.00363617, -0.49292356, -0.32540810, -0.12303451, -0.05444441, -0.10247548, -0.29046211, 0.22522537, 0.13399048, 0.20026164, 0.42617661, 0.79608136, 0.22384617, 0.13836128, 1.14006305, -0.48032942, -1.30998933, 0.33088231, 0.68275154, 1.09944320, -1.55032325, 0.04569730, 0.01977177, -0.30267403, -0.25008079, 0.67792672, -1.96593487, -0.35500431, 0.08059912, 0.65899318, -0.36210439, 0.61764061, 0.24669553, -0.05681412, 0.85611969, 0.37715760, -0.81323355, 0.07600266, -0.24669553, 0.33146581, 0.51073140, -0.32259536, 0.01117894, -0.33721825, 0.45937294, 0.27801335, -0.23396634, 0.47328252, 0.64804393, 0.42992797, 0.36144388, 0.45465833, -0.00287332, -0.01808210, 0.24143817, 0.11025623, 0.06329231, 0.34685928, 0.25418404, 0.51105309, -0.56266558, -0.29416135, 0.73808837, 0.31952009, -0.17557195, 0.08301257, 0.12187110, 0.05752794, -0.01526384, -0.14389767, -0.50919235, -0.05176996, -0.16765583, 1.16446102, 1.10802245, 0.68597794, 1.00040042, -1.45931435, 1.37515366, 2.36126256, -5.20843410, 1.01469195, 2.18500161, -5.78961897, 2.96150303, 0.02227233, 0.64929754, -0.20305093, 0.60566193, 0.09847097, -0.06068983, 0.37439331, -0.21512343, -0.05945348, -0.01647560, -0.50253940, 0.07779524, -0.87917572, -0.85127670, -0.32423627, -0.07564917, 0.33711272, 0.21854205, 
bias
1.13293552, 0.18022823, -0.02899477, 2.36120844, -0.02017875, -0.20923486, -0.55414385, -0.37579870, -1.91432405, 0.07545099, -0.67912096, 1.22292900, 
layer10
kernel
0.54106748, 0.34788695, -0.07487264, -0.05229441, -0.18224578, -0.19561048, 0.01749053, -0.09441344, -0.11977598, -0.05340814, 0.10352573, -0.34930441, -0.08713418, -0.08018737, 0.02597003, 0.40006274, -0.12844701, -0.06560367, 0.03365293, -0.06068109, -0.51783651, 0.17021988, -0.29535452, 0.08184356, -0.18870604, -0.10678511, -0.04001170, -0.06605366, 0.05937959, -0.00108883, -0.02810307, -0.08630488, 0.22875047, -0.07171353, -0.08107031, 0.28240475, 1.29227567, -0.67089635, -0.16923375, -0.03766621, 0.00392749, -0.16093059, 0.15323128, 0.11005478, 0.83635592, -0.21286316, -0.57216412, -0.74154884, -0.42580754, -0.41559836, -0.19131562, -0.01478203, -0.38029164, 0.37816471, 0.49089098, -0.12463696, -0.42729637, -0.79759151, -0.31903660, 0.17791608, -0.54031599, -0.13573314, 0.19918428, 0.22240610, 0.77515066, -0.12624817, -0.11586377, 0.42420694, -0.05392530, 0.23009220, 0.97073722, 0.15821905, -0.40901858, 0.22938204, 0.29294574, -0.38712206, 0.70919228, 0.85927916, -0.33652622, -0.13637497, -0.31590521, -0.16475540, 0.51531237, 0.45238647, -0.01389948, -0.19214889, -0.14464627, 0.20329903, -0.01220978, -0.16969588, -0.28303012, -0.28196093, 0.03140749, -0.07801276, -0.10989756, 0.07304866, 0.22719330, 0.07346295, 0.42011228, -0.50705814, -0.23853406, -0.02609951, 0.11567578, 0.61895365, -0.11933003, -0.10282292, 0.19657323, -0.52520335, 0.18976845, 0.06505480, -0.05526324, -0.20262177, 0.09785504, 0.11671063, -0.37032130, 0.23572515, -0.46951017, 0.86578065, -0.18467562, -0.74306774, -0.20352527, 0.09166340, -0.10980779, -1.01882458, 0.04110303, 0.79013681, -0.35467145, -0.04784299, 0.42622197, -0.13462794, -0.21345332, -0.00992271, 0.31095037, 0.79891413, -0.37356415, -0.62660855, -0.44912437, -0.01090886, -0.00652840, -0.60495263, -0.06202530, 0.04328236, -0.00955537, -0.42534998, 
bias
0.29568309, 1.01834846, 1.15371549, -0.89243728, 1.43996108, 0.20200410, 0.42752361, 1.20765698, 0.65941608, 0.36848837, 0.93330818, 0.94199175, 
layer11
kernel
-0.56798488, -0.97438788, -0.27874628, 0.01058523, -0.10387409, 0.07195991, 0.60820550, 0.45921439, 0.46341133, 0.39432585, 1.12285745, -0.98041922, 1.34668911, -0.87806100, -0.60829157, 0.01101237, -0.89162654, 0.28009775, 0.13675959, -0.37135094, 0.04126477, 1.38808429, -0.30758104, -1.00751352, 0.76626348, 0.10577100, -0.79699600, 0.18083009, 0.29205400, -0.08317454, 0.50476664, 0.37017843, 0.34632736, -0.07988893, 0.00009935, 0.07130985, 0.31641844, -0.82108587, -1.08657980, 0.74841833, 0.34903300, 0.37220651, 0.28437608, -0.30869395, 0.27364761, -0.10438749, -0.13768868, -0.17760637, -0.12675233, -0.06753198, -0.16787301, 0.11231635, -0.35040075, -0.28106427, 0.27476019, 0.09587377, 0.06822237, 0.12627277, 0.47843346, 0.04679692, -0.05685197, -0.06968386, -0.15655485, -0.35312927, 0.54877383, 0.49910554, -0.55119663, -0.12457447, 0.43934208, -0.33536178, -0.78903902, -0.24430327, 0.30050266, -0.18374684, -0.39811817, -0.38918602, -0.78156209, -0.20719370, -0.29220852, -0.04952551, 0.36717469, 0.45158231, 0.45973161, 0.01977605, 0.21469128, 0.13362004, -0.29787010, 0.25726423, 0.48305538, -0.19291304, -0.29960719, -0.28803325, -0.28645498, 0.17913300, -0.29908109, 0.25646797, -0.10061435, -0.19570477, -0.36563125, 0.12794127, 0.27890462, 0.08534306, 0.10689878, 0.23975240, 0.09964022, 0.13849917, 0.08563633, -0.01250085, 
bias
0.35912830, -0.02483438, -0.05573360, -0.16160861, -0.57529539, 1.05033350, -0.11678696, 1.03902423, 1.27102184, -0.96937323, 1.20295048, 0.02081394, 
layer12
kernel
0.04095141, -0.23920256, -0.34151423, 0.10409411, -0.36379465, -0.03255169, -0.07691200, -0.02186823, -0.01389184, 0.08836413, -0.00440317, -0.14304028, -0.04117421, -0.04941797, 0.03036821, -0.21407025, -0.24472810, 0.15364575, -0.27110812, 0.13198920, -0.32048151, 0.07909548, -0.31459948, -0.14419886, -0.04647695, -0.00160140, 0.08435366, 0.15435873, 0.14509007, 0.27271232, -0.02172341, -0.02428566, -0.03152679, 0.01023785, -0.06122659, 0.14018838, -0.08555681, -0.01960677, -0.07481764, -0.06577180, -0.06131571, -0.03547043, 0.11104560, 0.04585310, -0.10462884, -0.04400383, 0.01600848, -0.00812121, -0.13542075, 0.02569577, 0.06164422, 0.06835117, -0.02123158, -0.22948906, -0.16805844, -0.05489454, -0.12439913, -0.05861113, 0.09757130, -0.10987451, -0.06493361, 0.03763586, 0.13747129, -0.07659603, -0.00358844, 0.00046424, -0.02945508, 0.02554625, -0.03206097, -0.09500813, -0.11474453, -0.01452462, 0.24093789, 0.02375203, -0.09458093, 0.08629335, 0.02595209, 0.06177237, 0.10927644, 0.05583436, -0.06736863, 0.11585524, -0.06762494, -0.02085779, -0.01780334, 0.17497900, -0.11013082, -0.08014175, -0.06395107, -0.07035899, 0.00795650, -0.16634966, 0.21957815, -0.01915969, 0.02381611, 0.02257725, 0.02851893, -0.00737599, -0.05516162, -0.07148495, -0.07744204, -0.03410076, 0.13358869, 0.00647305, 0.02600945, 0.03712621, 0.10900986, 0.02043935, 0.33603558, 0.01282883, 0.08152287, -0.00651995, 0.01629988, 0.22214746, -0.04212171, 0.04350544, -0.08241408, 0.03815814, -0.11942302, 0.04897001, 0.02464917, -0.09367156, 0.23696981, -0.18640499, -0.15600981, 0.19100179, 0.08687016, 0.05112769, 0.08208574, -0.03522651, 0.03487471, 0.00708283, -0.11764059, 0.25723326, 0.09385918, -0.05624046, 0.01638197, -0.12251883, 0.02955087, 0.05469256, -0.07617557, 0.29419529, -0.13443299, 0.05169056, -0.04669110, -0.05244606, 0.00019638, -0.10344432, -0.01284005, -0.10337193, -0.02283883, 0.05505207, -0.01121129, -0.06001074, -0.16258639, -0.39698297, 0.13167615, -0.36484212, -0.02725458, -0.03338957, -0.12356855, -0.02003374, -0.13030076, 0.03833014, -0.03320860, 0.03396868, -0.05027438, -0.43086118, -0.22426209, -0.00284807, 0.02805086, 0.22310385, 0.14644358, 0.07731178, 0.10344432, 0.10279282, -0.08498505, 0.10395105, -0.27869883, 0.02450378, -0.23772649, -0.13290678, 0.06272534, -0.04755978, -0.16258639, -0.07702222, -0.08795301, 0.09099336, -0.08042452, -0.18184194, 0.29274237, -0.10568839, 0.09749808, 0.04521080, 0.08927794, -0.03020010, 0.10764817, 0.48062837, 0.33738339, 0.20886318, -0.14238723, 0.07805565, 0.04478193, 0.06894201, 0.06947810, -0.03817007, 0.03852747, 0.04320938, 0.11508205, 0.16411701, 0.02714435, 0.07948524, 0.04678335, 0.17240863, -0.06962106, 0.03888486, 0.45918450, -0.06150814, -0.08913498, -0.30679014, -0.37969926, 0.01799497, -0.10593267, 0.12172964, -0.13252304, -0.12766245, 0.01585952, 0.00112189, -0.05100065, 0.06157961, -0.04406713, 0.39714026, -0.03856321, 0.07877044, -0.05243023, -0.03588273, -0.14453161, -0.02383842, -0.37855560, -0.19285178, -0.38800135, 0.03964732, 0.00997907, -0.00231827, -0.39732486, 0.26141679, 0.12362613, -0.11035806, -0.15016226, 0.28131890, 0.11376472, -0.07041938, 0.03310293, -0.21031681, -0.09986911, 0.04049899, -0.09395227, -0.11161314, -0.07006078, 0.09646244, 0.09682104, 0.06275438, 0.20206910, -0.25478277, -0.04509350, 0.08494253, -0.35429329, 0.34999013, 0.16549227, -0.02175112, 0.09009735, 0.03680096, 0.07378122, -0.05042762, 0.14003190, -0.01901682, -0.00088879, 0.05683754, -0.03438044, -0.09843472, -0.09565561, -0.01053937, 0.14657630, 0.23344629, 0.06553350, -0.06871604, 0.00360558, -0.15446542, 0.11036140, 0.05587509, 0.15674652, -0.15433931, 0.28256962, -0.68846256, -0.89103872, -0.21461219, 0.16785672, -0.11730529, -0.34089822, 0.14517339, 0.12860066, -0.39033866, -0.17859660, 0.12387882, -0.01988264, -0.07596605, 0.13591488, 0.00764405, 0.23220335, -0.02689596, 0.11656460, -0.21072362, 0.01152684, 0.05814342, 0.10258426, 0.30608624, 0.19424348, -0.05689352, 0.04934784, 0.05925445, 0.10258426, 0.02925688, -0.26331192, -0.17563388, -0.03441850, -0.06152278, -0.12286039, 0.04464915, 0.03603874, -0.23923981, -0.05707870, 0.02830788, 0.02012568, 0.11369447, -0.17480060, -0.34441647, -0.07629609, -0.01207585, 0.08305049, 0.06740122, -0.10902160, -0.31108257, 0.04252413, -0.15630235, -0.06721096, 0.11967642, 0.08300292, -0.06083710, 0.01900267, -0.13023610, 0.07172974, -0.08647525, 0.04832720, -0.34723285, -0.06231165, 0.03208336, -0.10074509, 0.05598535, 0.06226408, 0.06231165, 0.19292828, 0.18959865, 0.07696202, 0.16381779, 0.13404140, 0.15278246, -0.38471496, -0.10921186, -0.33258247, 0.15934658, 0.12728700, 0.33448511, 0.33106035, 0.24144575, -0.62635100, 0.35693634, -0.24239707, -0.28977296, -0.01632708, -0.09969864, 0.12053261, -0.44331646, -0.32573295, -0.21537949, -0.10424066, -0.28384563, -0.23993076, -0.11476193, -0.37098923, -0.01675398, 0.12522602, -0.06295609, 0.05074799, 0.08628587, 0.06164094, 0.26417544, 0.05089094, -0.12328187, 0.04297139, -0.13883506, -0.24610630, -0.05743814, -0.07342019, -0.11619145, -0.25022331, 0.02061369, 0.17165685, 0.09251858, -0.07593615, 0.04523004, -0.23718609, 0.00948487, 0.12293878, 0.32776052, -0.17199993, -0.07622205, -0.02032779, 0.34582967, 0.20299195, -0.05334971, -0.02800431, -0.00184587, 0.00317354, -0.04551594, 0.01197224, -0.21465684, 0.15873398, 0.08016752, -0.04657379, -0.08868746, -0.10052390, 0.06238429, -0.32383993, 0.01648133, 0.07392939, -0.45774570, 0.16949138, -0.08853140, -0.10091606, 0.23687692, -0.20194027, -0.22433001, -0.22497898, 0.11724866, -0.10345788, 0.11735683, -0.05016058, -0.08117631, -0.08296100, -0.79391623, -0.03774888, -0.46683139, 0.16029753, -0.26694623, 0.03536929, -0.09058649, 0.08058142, -0.03453103, -0.04310295, 0.09199261, 0.05894882, -0.03017747, 0.03704582, 0.06738553, 0.22908919, -0.02087545, 0.09334464, -0.05135037, 0.05370292, 0.04934936, 0.15878324, 0.09815790, -0.00156245, -0.16678731, -0.01658950, 0.15597101, -0.02010479, 0.06938655, 0.09664362, 0.19674845, 0.13197853, -0.02887030, -0.09125730, -0.01806352, -0.00539360, -0.11099143, -0.01661478, -0.11297528, 0.10702372, 0.04797795, -0.22824767, 0.14315076, -0.11255763, 0.10561414, -0.13605064, 0.10075892, -0.02340165, 0.01157031, -0.02308841, 0.05523468, 0.02991444, 0.15808187, -0.08953448, -0.12174601, -0.06040315, 0.05967225, -0.30071056, 0.01540098, -0.08248658, -0.02939237, -0.10472663, 0.10044568, -0.09700004, -0.17499684, 0.24015079, 0.13239618, -0.13594623, -0.04560255, 0.13960071, -0.04338376, -0.17959103, -0.06196935, -0.10561414, 0.21613571, -0.35834676, -0.03959878, -0.23200655, -0.22386231, -0.15012620, 0.11367898, 0.03037852, -0.05299189, -0.00780887, 0.08926423, 0.13571522, 0.00668083, 0.08317804, 0.08065961, -0.12997879, -0.00797939, -0.06446473, 0.15096569, -0.16565651, 0.09234231, 0.09968772, -0.23127551, 0.08898441, -0.18468462, 0.13529548, -0.06642351, -0.20063466, -0.03830107, -0.21938294, 0.17922802, -0.22777769, 0.00007528, 0.15544289, -0.07205498, -0.12802002, -0.30109191, 0.01678951, 0.24568650, 0.25478083, -0.08205874, -0.36265343, -0.03606247, -0.22120181, 0.00159588, 0.14816743, -0.07212494, 0.09066336, 0.10906187, 0.02649595, -0.30892700, -0.03924548, -0.38755786, -0.00990617, 0.13360713, 0.03200060, -0.00778894, -0.15223466, 0.04586821, -0.12132616, 0.13764584, -0.06404240, 0.13673919, -0.01181735, -0.02107959, -0.00851014, 0.43651041, -0.18957211, 0.09305518, 0.19204479, -0.11621595, -0.06573207, -0.12454063, -0.03165030, 0.03577143, -0.43519163, -0.04154102, 0.02792068, 0.11011668, -0.13904703, -0.09709390, -0.24875158, -0.33562508, 0.23737726, -0.04084043, 0.17292275, -0.33150393, 0.15536672, -0.21446376, 0.13591497, 0.13624465, 0.02307834, 0.57531017, 0.11242451, -0.15132800, -0.08234023, 0.20572695, -0.02594253, -0.15594368, -0.01535122, 0.07467493, -0.22380863, 0.08144235, 0.20502639, 0.10685363, 0.08231044, -0.08010076, 0.05906938, -0.06561949, -0.18955866, -0.00040661, 0.20076486, 0.06794754, 0.15002123, 0.03470375, -0.14686455, 0.12232136, 0.06763188, 0.02111030, 0.11829659, -0.23027983, 0.19492501, -0.12966065, 0.13479026, -0.22507131, 0.48044676, -0.17598493, -0.35260120, 0.00206664, -0.45834997, -0.21591693, -0.07291932, 0.00433550, 0.12271595, 0.27542037, 0.35638919, -0.12824014, 0.20944574, 0.08917622, 0.02262945, 0.10993139, 0.13384324, -0.00701375, -0.03346081, 0.34407815, -0.01386966, -0.24211738, -0.08941297, 0.06337035, 0.07572141, 0.02100373, 0.05265511, 0.07001963, 0.09088297, -0.25347021, 0.05399416, -0.11654100, 0.01767769, 0.01385490, -0.00935179, -0.01466481, -0.31791764, -0.30150342, 0.00030034, -0.17623694, -0.07183383, 0.02078775, -0.03308762, -0.45303261, -0.02498850, -0.05230955, 0.29701108, 0.26746547, -0.11576349, -0.13839784, -0.12820373, -0.25692582, 0.30426791, -0.14539549, -0.03764473, 0.08565634, -0.25329742, 0.18746774, 0.18591270, 0.44301131, 0.24604060, 0.03971811, 0.18228430, 0.03038792, -0.30167618, 0.05027936, 0.16137776, -0.04747167, -0.18694939, -0.16353752, -0.20059912, -0.17727363, -0.49344867, -0.13232769, -0.11775871, 0.12060355, -0.24517260, -0.05879315, -0.01536639, 0.03510779, -0.39758652, 0.38103479, 0.53448319, -0.43551758, 0.36448306, 0.23241398, 0.23982778, -0.54241425, 0.31775886, -0.30896577, 0.01604527, -0.11827596, -0.12534493, -0.57103491, -0.17758635, 0.71103507, -0.05439660, -0.00255792, -0.01133622, -0.15482771, -0.05987074, 0.05530177, 0.41310379, 0.27120712, -0.09655180, 0.18620704, 0.02655175, -0.32741407, -0.09491387, 0.53206939, 0.16956910, -0.13172424, -0.14517252, -0.53586251, -0.13991390, 0.00314386, 0.39344859, -0.20568982, 0.08956904, -0.10922422, -0.03668731, -0.00823606, 0.01802319, 0.09055176, -0.00464680, 0.01507487, 0.01171635, 0.01840775, -0.05119815, 0.00464039, -0.01466467, -0.03520033, 0.01471594, 0.07404119, -0.04091750, -0.01225474, 0.04578863, 0.02588109, 0.02467612, -0.00944743, 0.01676694, -0.02827820, -0.00755025, -0.04317360, 0.01498514, -0.00948589, 0.00334890, -0.00141727, 0.03307242, -0.02139452, -0.03725133, -0.01739506, -0.01903587, 0.03994327, -0.01235088, -0.03445684, 0.04801910, -0.03827684, -0.11885560, -0.00609853, -0.09373081, 0.00407957, 0.10044785, 0.01308155, -0.00052156, -0.08132225, -0.04845493, -0.06778564, -0.04840835, 0.03564111, 0.04397400, -0.00243658, 0.01812542, 0.03508682, 0.07083879, 0.02719736, -0.03364565, 0.05395129, -0.00468148, 0.00223912, 0.01475346, 0.07087574, -0.00447362, 0.01973287, 0.06921286, -0.01821780, 0.06518499, 0.01694292, 0.06758693, 0.03527158, -0.01514147, -0.00373225, -0.02874939, 0.05151240, 0.07338854, 0.10819821, 0.07405369, -0.01669349, -0.00543208, -0.03902230, -0.04973866, 0.00784788, -0.10945461, 0.04944304, -0.03708228, -0.00866546, 0.00867932, -0.01707226, -0.03116981, -0.06045501, 0.00010285, -0.00794026, -0.02542362, 0.00602795, -0.04541516, -0.00510413, 0.09635341, -0.59064704, -0.59368378, 0.21586201, -0.05776143, 0.12773311, 0.01953323, -0.10906979, -0.02002354, 0.00924468, 0.05924818, 0.07224924, -0.13703315, 0.02294957, -0.12602495, -0.12052085, -0.26622137, 0.01377607, -0.26090705, -0.00966381, -0.27280098, -0.09629015, 0.19650276, 0.06642881, -0.04792364, -0.12140656, 0.23091921, 0.26318464, 0.12925150, -0.18903743, 0.13336375, 0.00774212, 0.04346342, 0.01339648, -0.18878436, -0.06070328, -0.07256557, -0.05156141, -0.01571358, -0.13121273, 0.02883327, 0.07952478, -0.06067165, 0.16676795, 0.12849230, 0.01523909, 0.26419687, 0.06889617, -0.12598938, 0.20151871, 0.25679976, 0.14230050, 0.11136560, 0.09875060, 0.16809297, -0.03475153, -0.20071521, -0.02810254, -0.00791451, -0.00239419, -0.14358610, 0.13370301, 0.05021898, 0.05809331, 0.23944409, -0.14278260, 0.20135802, -0.04047650, 0.20826815, -0.08830505, -0.01708450, 0.15194254, 0.16584316, 0.17034277, -0.37282568, 0.00484864, 0.10766949, -0.08999241, -0.14631802, -0.15443340, 0.00949139, -0.00554920, -0.02195574, -0.00918003, -0.02247801, -0.07344023, -0.08276088, -0.12864093, -0.03127638, 0.02291994, 0.39628801, -0.31706253, -0.03903019, -0.11739188, 0.02938815, 0.12486447, 0.15041809, 0.04929470, 0.06770841, -0.09980571, 0.07710110, 0.04034124, 0.12203732, -0.03329673, -0.12764589, 0.07649294, -0.07264126, 0.05007179, -0.02236675, 0.00389391, 0.00517780, 0.07608750, -0.00002336, 0.00135674, 0.07933102, -0.01316834, 0.05818058, 0.10804965, 0.03800996, 0.03300954, -0.00601402, 0.04412534, -0.06966804, -0.07926344, 0.25556210, 0.00101202, -0.13595740, 0.14555281, -0.34056926, -0.17609593, -0.09615676, 0.11115802, 0.26245457, -0.04145620, 0.37030149, -0.20204407, 0.01819410, -0.05878874, 0.06966804, -0.06405946, -0.19717880, 0.07385758, 0.06939775, -0.21704534, 0.37350971, -0.23517276, -0.20016506, 0.22359765, -0.01826259, 0.06281625, 0.13876040, 0.04471247, 0.25281778, -0.17574435, -0.39016658, 0.19028385, -0.04072469, -0.01568642, -0.75661826, 0.38367322, -0.52765656, 0.28994289, -0.16416922, -0.20397638, -0.26947469, 0.23587857, 0.20030622, -0.52963281, -0.02203863, -0.19536561, -0.11751580, 0.07876735, -0.06468663, -0.01486593, -0.26142856, -0.05325266, 0.24660674, -0.02165043, -0.18280236, 0.00851813, 0.01669219, -0.12782049, 0.10184703, 0.10848156, 0.06440431, 0.13459618, -0.17955568, 0.21922168, -0.14850046, 0.01755679, -0.01978006, -0.06863911, -0.18507566, -0.22610898, -0.24960525, 0.43178645, -0.37968603, 0.02822106, -0.06201822, -0.12659039, -0.19495089, 0.15868492, -0.00277475, -0.42429489, -0.03660650, 0.03562749, -0.06082638, -0.12931459, 0.32605326, -0.11748133, -0.15544993, 0.00024874, -0.09739032, -0.29813015, 0.02107002, 0.19018354, -0.03686189, 0.01587700, 0.04861003, -0.00999762, -0.03356305, -0.02873185, 0.08010864, -0.39296654, 0.00467159, -0.30357856, -0.32860720, 0.12991051, 0.12148250, 0.19035380, -0.15604585, 0.00742239, -0.02154888, -0.22066058, 0.24824315, 0.13663588, -0.31243223, -0.13859391, 0.13340090, -0.45936900, 0.22447884, -0.10631227, -0.11929554, 0.16379617, -0.05616675, 0.05381471, -0.41659358, 0.09897391, -0.10113779, -0.16097373, -0.05743685, 0.05169787, 0.36146173, -0.04445358, -0.28412661, 0.12258840, -0.01238350, 0.12070677, -0.12127126, -0.22843027, -0.01708758, -0.36861196, 0.06684502, 0.10273717, -0.19258516, -0.21751679, -0.10132595, -0.19249108, 0.51594383, -0.27453029, -0.17828475, 0.08552023, -0.00291506, -0.26229966, 0.03866756, -0.27565926, 0.07263104, -0.14516801, 0.21939844, -0.34810215, -0.12437595, -0.08208625, 0.24592946, -0.22222088, -0.20547435, -0.04668802, -0.26436946, -0.26568660, 
bias
0.35756895, 0.83977932, 0.09706216, 0.49663442, 0.69436264, 0.49003574, 1.48973465, 0.80910414, -0.34129494, -0.00467446, 1.82298112, 0.65118420, 0.57518852, 0.20455138, -0.21991119, -0.06566197, 1.55351949, 0.36525095, 0.11074080, 0.16029415, 1.05727816, 0.92592669, 1.53567517, 0.59421730, 
layer13
kernel
0.13779506, 0.26656723, 0.20968387, 0.24577537, 0.48645088, 0.36856499, 0.16300027, 0.32658899, 0.25165987, -0.23928681, -0.20289429, -0.04956400, -0.42909881, -0.35393515, -0.02720520, -0.25070408, -0.31968337, -0.07112004, 0.07844045, 0.16488646, 0.11004135, 0.16123481, 0.36235696, 0.28244179, 0.12991481, 0.23412754, 0.18188073, -0.05928523, -0.09215085, -0.05342934, -0.19120166, -0.30977210, -0.23568828, -0.17004782, -0.26764601, -0.22533832, 0.07757362, 0.11867654, 0.08187964, 0.10686761, 0.26097095, 0.21725832, 0.08135770, 0.22965445, 0.19690259, -0.04563772, -0.19385846, -0.24408032, -0.08241276, -0.32109398, -0.33555952, -0.05065482, -0.14679456, -0.14047861, -0.08115059, -0.17207837, -0.14743988, -0.09705481, -0.23413087, -0.18837367, -0.00677477, -0.10233448, -0.09685926, -0.08015709, -0.11490306, -0.07521744, -0.15425189, -0.19556534, -0.12506303, -0.11030021, -0.16929537, -0.08251466, 0.19647537, 0.37330320, 0.28595132, 0.35870031, 0.55278611, 0.44180408, 0.22900002, 0.35524872, 0.26723304, 0.19574998, 0.37106615, 0.23928289, 0.34322879, 0.70896441, 0.55200905, 0.29658639, 0.54608619, 0.45013613, 0.05602420, 0.13574868, 0.13610066, 0.09908363, 0.24568518, 0.26516166, 0.05174172, 0.17763484, 0.19558606, 0.10860318, 0.13410847, 0.06742822, 0.21780473, 0.24503031, 0.16963637, 0.16006254, 0.17188025, 0.15841703, 0.07921896, 0.19197311, 0.14350528, 0.11541165, 0.26094168, 0.20614646, 0.07282829, 0.14578314, 0.12901555, -0.06486224, -0.15134524, -0.13777167, -0.07436374, -0.20922679, -0.18324311, -0.05822089, -0.11586006, -0.11586006, 0.18969306, 0.25250810, 0.16223750, 0.23919630, 0.43679324, 0.27039582, 0.08169074, 0.25708401, 0.18002121, 0.07346755, 0.15004483, 0.12127976, 0.16281697, 0.27632239, 0.20568691, 0.13749482, 0.20279931, 0.13194172, -1.11471307, -1.48202753, -0.52956378, 0.70045143, 0.88636208, 0.90664327, -0.22102717, -0.12994970, -0.07342534, -0.19201446, -0.41937742, -0.30114868, -0.36652625, -0.74197543, -0.52679569, -0.16198538, -0.49247676, -0.43413454, -0.11827406, -0.27328554, -0.24267103, -0.20511723, -0.41921470, -0.31961548, -0.14011241, -0.25879467, -0.15817498, -0.23879120, 0.13305840, 0.28630325, -0.47216651, 0.01729390, 0.42046946, -0.35104769, -0.22143576, 0.14598267, 0.04014900, 0.00954613, 0.00725015, -0.14655000, -0.19703707, -0.01348122, -0.40625390, -0.34751603, -0.04722112, -0.10494167, -0.17525315, -0.11672480, -0.13896336, -0.26752660, -0.21032591, -0.04901335, -0.14250383, -0.15677634, -0.13177969, -0.23123808, -0.21713820, -0.20878674, -0.33470953, -0.29154220, -0.13232198, -0.18622692, -0.14110729, 0.16012098, 0.51589662, 0.44816324, 0.16055967, 0.55379921, 0.44219711, -0.04347394, 0.15485673, 0.15555863, 
bias
0.60051680, 2.48287106, 0.17574084, 1.45632195, 0.29234800, 1.40068793, 1.86575747, 1.49908113, 0.44561169, 0.62325031, -0.19294500, 0.28171927, 0.22987366, 2.15814996, 0.30742189, 0.42713028, 0.29337788, 3.45852876, 1.71006060, 0.02243423, 1.27809286, 2.73325825, 1.17897034, 0.13988931, 
layer14
kernel
0.61638826, 0.10172874, 0.20916478, 0.04423157, -0.14067720, -0.22227615, 0.37051168, 0.16211814, -0.13581829, -0.14838977, 0.26454100, -0.26068473, -0.14198834, 0.88725358, 0.21302107, 0.40074492, 0.10257713, 0.68549287, -0.06798627, -0.46182844, 0.15409707, -0.44516930, -0.15949586, 0.30048156, -0.25334221, -0.00716113, -0.28916219, -0.25579143, -0.08572304, -0.03855624, 0.32544142, -0.84131044, -0.17190532, 0.52535981, -0.33860603, 0.29268298, 0.09544343, 0.42892137, 0.00172929, -0.74089199, -1.07643652, 0.25716913, 0.26543528, 0.14863764, 0.08174305, 0.15391879, -0.46657827, -0.29911220, -0.30091143, 0.09021363, -0.91723424, -0.06909901, -0.08102036, 0.04817124, -0.23170030, 0.09776258, 0.22616939, -0.27400431, -0.57342088, 0.22736527, 0.33813298, -0.39792660, 0.02701925, 0.41197810, 0.29149392, -0.10060278, -0.02748638, -0.31092685, 0.08909251, -1.07508945, -0.21361274, 0.59076107, 0.16154547, 0.33860469, 0.05005436, 0.20763707, -0.37345445, 0.03603015, 0.40583101, -0.14490752, 0.66506821, 0.05991909, 0.26688164, 0.24911952, -0.06857532, -0.26935488, -0.16952719, 0.20752466, 0.02210430, 0.25069338, -0.14906701, -0.03841904, 0.38896820, -0.02339711, 0.08909171, 0.23697832, -0.25656426, 0.12193700, 0.24994326, -0.52416354, 0.00833230, -0.36663863, 0.68030912, -0.21890725, -0.22718352, 0.51478380, -0.39063978, 0.00244624, -0.26994422, -0.38512227, 0.01836297, -0.16787028, 0.47064370, 0.04900240, 0.21325180, -0.03177742, 0.30180785, 0.01336272, -0.16759440, 0.03934675, -0.43377793, -0.52053350, -0.24590138, -0.30082780, -0.01694445, 0.17365201, 0.53011042, 0.00339769, 0.55940449, -0.29603934, 0.07760118, -0.29181424, -0.19914350, 0.36899289, -0.44250980, -0.87938613, -0.01804474, 0.03630073, 0.73178899, -0.20773456, -0.11583842, 0.88952643, 0.10358560, 0.08196712, 0.33564368, 0.00235691, 0.11418466, -0.39250565, -0.03451865, 0.03803962, -0.22613169, 0.62337583, -0.13886434, 0.08706991, 0.49359363, 0.11286841, -0.13886434, -0.16979621, 0.15439609, -0.76026583, 0.22560519, 0.05653292, 0.49806887, 0.30905542, -0.31353068, -1.14039874, 0.10042985, -0.01109763, -0.57029337, 0.40787435, -0.19779249, 0.40355644, -0.25475538, 0.07896753, 0.05085974, -0.10612040, -0.14199208, -0.12563393, -0.29627353, 0.28099486, -0.24844463, -0.04384317, 0.15511182, -0.07768046, 0.20128001, -0.40455288, 0.09482746, 0.06015980, -0.04620970, -0.01102307, 0.12330891, -0.05991070, -0.18953432, -0.14574249, 0.00528835, 0.40642124, -0.42741922, 0.32988918, -0.01747528, 0.23816121, 0.14822909, -0.46223167, 0.57247102, 0.06575681, 0.73879701, 0.79516000, -0.13310227, 0.00888442, -0.09822077, 0.31524587, -0.21923539, 0.10761460, -0.08875787, 0.19284979, -0.00114941, 0.38873875, -0.07573612, -0.28002989, -0.25425094, 0.47143418, 0.38078672, 0.07889530, 0.53883004, -0.40808204, 0.30277598, -0.19612201, 0.74876821, 0.10218900, -0.56309259, 0.44413885, 0.13647665, 0.33175620, 1.01902568, -0.19241524, 0.55938578, 0.15846457, 0.10715945, -0.33563149, -0.25964263, 0.02106121, 0.22883336, -0.02862321, 0.31658837, 0.16560711, -0.13856454, 0.01729200, 0.24224038, 0.03054667, 0.10078114, 0.06566390, -0.10413289, -0.48722312, -0.00100457, -0.03717399, 0.28200436, -0.41196099, 0.06120759, -0.46437025, -0.12378636, 0.22807160, -0.32268247, 0.18647939, 0.05991260, 0.25808504, 0.18656294, -0.17699088, -0.30520114, 0.27151489, -0.46313995, 0.86663866, 0.41785681, 0.13658579, 0.29249975, -0.29452461, -0.61997432, -0.18720721, 0.08964593, -0.43994614, 0.18509032, 0.32066369, -0.01755643, 0.89388222, -0.51652253, -0.34496197, 0.56990516, -0.83497727, 0.52020413, 0.37735966, -0.25578889, -0.72268856, 0.13821484, -0.39531010, 0.08164865, 0.12175447, -0.37545314, -0.52359647, -0.58055454, 0.15023352, 0.60354680, 0.04059571, -0.03680721, -0.24390085, 0.05855841, -0.10000326, 0.46062902, -0.33991966, -0.01863222, 0.19033933, -0.22992259, 0.07172018, -0.22339071, -0.04471080, -0.40520209, -0.04749991, 0.50307697, -0.00865581, -0.30708250, -0.17764294, 0.10252396, 0.62248439, -0.43016019, 0.39712742, -0.11292317, 0.30781657, -0.41645771, 0.37045649, 0.13310987, -0.03863000, -0.44263923, 0.14057283, -0.01896326, -0.02494281, 0.36042431, 0.35063684, 0.30732718, -0.06471978, -0.03400546, -0.16510044, -0.39910758, -0.49502569, -0.13243866, 0.29078627, 0.20947635, 0.25660855, 0.55869550, -0.44155410, -0.11590106, -0.37623054, 0.32882273, 0.02999164, -0.03893228, -0.06001773, 1.23260295, 0.36520547, -0.12816645, 0.12795973, 0.27576458, -0.34205282, -0.44513726, -0.01433259, 0.36371982, -0.39690217, 0.04212102, 0.28989550, -0.09729634, -0.24205117, 0.10713530, 0.26147187, -0.03430773, -0.01208970, -0.69863015, 0.17401446, 0.27060345, -0.40770575, -0.35908973, 0.49722096, -0.05552901, 0.01496743, 0.39844555, 0.12700613, 0.11555950, 0.70840478, -0.46043739, 0.02091582, 0.18786086, 0.15797637, 0.19446577, 0.49720871, 0.28758413, -0.06307144, 0.05727861, -0.26138106, -0.16772132, 0.53922021, -0.18796915, -0.02417287, 0.52925873, 0.11997109, 0.17530072, 0.01310830, -0.04477260, -0.16945376, -0.21222323, 0.17291862, 0.26462936, -0.03711199, 0.23907596, 0.26224726, 0.72420233, -0.02192461, -0.37130490, 0.22759518, 0.13831897, -0.01681325, 0.46334225, -0.43757179, -0.59692788, 0.27374533, 0.51435721, 0.13240229, -0.69895780, 0.12852357, -0.33764553, 0.33738258, 0.01544912, -0.62795758, 0.20918772, -0.38340124, 0.10288459, 0.31950104, 0.06784467, -0.37419751, -0.31943002, 0.88488698, 0.38928953, -0.33613557, -0.36397812, 0.22400600, 0.13174590, -0.40827307, 0.06713852, 0.00892227, -0.16452418, -0.32018936, -0.25994819, 0.98056412, -0.09453812, 0.32094872, -0.25121576, -0.12383609, -0.25336725, 0.11617938, -0.28222224, -0.23299155, -0.12972099, -0.21793126, -0.34828550, -0.29133317, -0.00937797, 0.53350234, -0.73551279, 0.27283582, -0.01904496, -0.28451833, -0.45732248, -0.27137551, 0.47460288, -0.27161887, -0.04940738, -0.94531161, 0.65276152, -0.03970236, -0.32394689, 0.68440169, -0.64594668, 0.25555539, 0.11445231, 0.33830667, 0.04146691, 0.41521668, -0.16410011, -0.05192596, -0.83784825, -0.19481027, 0.13760966, 0.02159675, -0.02685674, -0.27920461, 0.25365189, -0.40016982, -0.09851867, -0.01166283, 0.46135572, -0.05605777, 0.23606972, 0.20348413, 0.10631342, -0.62639356, -0.56497324, 0.02167000, -0.05315671, -0.43908501, -0.30639833, -0.25951260, -0.08085842, 0.19320627, 0.15304391, -0.04303109, -0.52758121, -0.14036809, -0.25458395, -0.10914553, -0.33757725, -0.61270934, 0.16358486, 0.12235507, -0.81445515, 0.47420931, 0.02028132, 0.03896149, -0.03277368, 0.11494973, 0.13903379, 0.31089130, 0.00820176, 0.07919055, -0.36586434, 0.45766401, 0.54380953, 0.64117730, 0.13638398, -0.23927619, -0.21182676, 0.30142584, -1.13319540, -0.34026939, -0.02716890, 0.65706003, -0.53068906, -0.64083207, 0.45162085, -0.00012628, 0.34372213, -0.52447408, 0.10013001, 0.07794603, 0.25843900, -0.03748401, 0.22201239, 1.08347571, -0.00105673, -0.08873590, -0.31597927, -0.03404891, 0.25213966, -0.27976772, -0.00828591, -0.27105013, -0.11829105, 0.01606049, 0.29747114, 0.00779554, 0.19299413, -0.42971036, 0.08590183, 0.06149257, 0.20546700, 0.26045489, -0.02221310, -0.31034636, 0.23322919, -0.10829934, 0.04144210, -0.13733564, -0.23886210, 0.06008434, 
bias
-3.80886292, 0.53429502, 4.17647886, -1.56253624, 1.17186964, -0.64357793, 1.91131306, 2.71822977, -3.03950000, -1.73781300, 1.65893269, 0.16135740, 2.64464617, -1.46257329, 1.24374354, -1.46988213, -1.46594346, -0.54640830, 0.36815989, 1.94140637, 4.14772081, 0.72940600, -2.44154143, 1.83181691, 
layer15
kernel
0.52870417, 0.40919784, 0.73073488, -0.13594271, -0.15854275, 0.77935922, 0.36023104, 0.01522721, -0.48624343, -0.05611489, -0.63485587, 0.53931934, 0.02634532, 0.42803121, -0.43796152, 0.22463077, 0.04507168, 0.50131011, -0.07541910, -0.05864028, -0.24021111, -0.01434975, 0.14998212, -0.36742198, -0.37081856, 0.00042415, -0.38165787, -0.20138301, -0.02304542, 0.24607140, -0.25158614, -0.18645518, 0.36112022, -0.31091711, -0.47845104, 0.31700233, -0.10763247, -0.12531766, -0.28429422, -0.41569713, -0.28011063, -0.12398651, -0.19872072, 0.13881926, 0.02671795, 0.39896274, -0.05956867, 0.62753910, 0.19136421, -0.05864483, -0.27982390, -0.17512870, 0.04990034, -0.31826389, 0.05906266, 0.31730884, -0.03784308, 0.28459907, 0.24472654, -0.33712572, 0.11633464, 0.12009507, 0.65133071, 0.23207238, 0.13346550, -0.19243862, -0.17966509, -0.23672816, -0.45435572, -0.07359703, -0.26167834, -0.35264498, 0.00478470, -0.12579367, 0.20842475, 0.27452961, 0.09876844, -0.18898214, 0.16788691, 0.75126237, -0.52378386, 0.09186632, -0.36454889, -0.12812679, -0.09609509, -0.07796486, -0.08306854, 0.07145158, 0.06211913, 0.01848263, -0.08501280, -0.24983750, 0.32177514, 0.32333055, -0.00984890, 0.24264374, 0.02393485, 0.11538626, -0.04555678, 0.15582342, -0.08451264, 0.38212603, 0.05862869, -0.13513707, -0.33243716, -0.70104951, -0.19615664, -0.14688359, -0.50270987, -0.10473122, -0.08939836, -0.07588466, -0.55094337, 0.03180918, -0.40166894, 0.31954718, 0.45364472, 0.52890569, -0.31019154, -0.04082698, -0.48629537, 0.56404871, -0.08505674, -0.23483303, -0.26404670, -0.04311826, -0.17775400, -0.61168945, 0.03143279, -0.07707916, 0.13820317, -0.47011548, 0.19775413, -0.31056386, 0.03755643, -0.24764210, 0.10168607, 0.68809450, 0.24494545, 0.53393614, 0.01867990, 0.36899123, 0.11606819, 0.08915789, -0.24169265, 0.28931460, 0.64192611, -0.26468256, -0.05807192, -0.28259677, -0.23169054, -0.50219524, -0.18197860, -0.14824015, 0.33051732, 0.17197649, -0.20138566, -0.00108523, -0.32156020, 0.01880993, 0.04515876, -0.68910021, -0.49532810, -0.28812033, -0.29886886, 0.48517671, -0.32723305, -0.96497917, -0.44733894, 0.30327260, -0.34277847, -0.42439240, 0.55970591, -0.45845735, -0.41090837, 0.01294438, -0.69076133, -0.06671052, 0.43740332, -0.21077684, -0.06333950, 0.16630316, -0.24365896, -0.33923006, -0.55970591, -0.01652978, -0.24070194, -0.29759511, 0.04065911, 0.71631002, 0.04373442, -0.07203316, -0.06661329, 0.35918447, -0.30605304, -0.30147615, -0.46723831, 0.26884112, -0.12118745, 0.26406527, -0.32256955, -0.31301782, 0.08646297, 0.07367759, -0.04260962, 0.12029197, -0.30883893, -0.17481637, -0.12377437, -0.01640458, -0.27500993, 0.45251274, 0.37032816, 0.09432323, 0.01204537, 0.08561724, -0.55682427, -0.13163695, -0.40061510, 0.19197054, 0.26502904, 0.55024242, -0.10262197, -0.04494853, 0.46731114, 0.55594671, -0.18308505, 0.12351933, -0.73102385, -0.05035113, 0.07613003, -0.18319474, -0.23255859, -0.55419153, -0.35147065, 0.12977208, 0.02128131, 0.36660889, -0.22422159, -0.15302795, -0.14276968, 0.03383578, -0.39821857, -0.10781351, -0.39258462, -0.57363963, 0.42946145, -0.86660558, 0.29091725, -0.06779959, -0.13393460, -0.06018094, 0.66378301, 0.09641755, -0.15864721, 0.13047740, 0.20038973, -0.59976071, -0.17900629, -0.39053589, -0.28656372, -0.14507449, -0.18284763, 0.14276968, 0.22961377, -0.16807218, 0.42640534, 0.27799818, 0.20061141, 0.00951419, 0.11699974, -0.01675593, 0.46743307, -0.02514716, -0.57410514, -0.79735255, -0.23555571, -0.10660134, -0.04951622, 0.26187003, 0.29058945, 0.00971756, -0.67172283, -0.24376126, -0.32765585, -0.01725109, 0.36302459, -0.48695660, -0.11827856, 0.05390269, -0.04698698, 0.03494852, 0.13865571, -0.14411998, -0.26911503, -0.04673084, 0.18396357, 0.24042763, 0.05592333, -0.39297166, 0.85242522, 0.38819045, 0.27640072, -0.45558304, 0.16472480, 0.12545040, 0.02669521, 0.14764898, 0.14799049, -0.03790833, 0.22972678, 0.38568598, -0.62798560, 0.57575643, 0.01278686, -0.38970956, 0.60357076, 0.22174196, -0.20366265, -1.07734144, 0.57853788, -0.24909270, 0.09935894, 0.20319907, -0.22174196, -0.53063542, 0.18002047, -0.06752699, -0.84493726, 0.12670968, -0.06725658, -0.20891646, 0.68917710, -0.45615488, 0.00286352, 0.12021968, -0.17020486, -0.10820909, -0.28540736, 0.21301597, -0.35874385, 0.31810638, -0.09649038, -0.42338577, 0.34286687, -0.26839635, -0.12503111, -0.29901621, -0.10187721, -0.05854632, 0.01738906, -0.12446408, -0.53717071, -0.38293731, 0.17256750, 0.06686282, -0.56741256, -0.11841571, 0.08883541, 0.50919700, -0.33456495, 0.46124488, 0.03198231, -0.27085018, 0.09213654, 1.03442788, 0.02303413, -0.36279932, 0.08070536, 0.20313764, -0.37229407, -0.40377668, -0.05425124, 0.14267109, -0.10138142, -0.27359867, 0.49372691, 0.42501491, 0.36779657, -0.62015700, 0.25560862, 0.42601436, -0.28534219, -0.03635489, -0.01442429, -0.01490966, -0.07651469, -0.11390085, -0.02625992, -0.20669420, -0.29829279, -0.24333364, -0.23696156, 0.31123605, 0.61251575, -0.27977395, 0.09478462, -0.48029518, 0.08373305, 0.07467276, 0.81801522, -0.12973148, 0.07312952, -0.18259978, -0.01452385, -0.05809541, 0.07367712, -0.22441654, -0.52948302, 0.02904212, -0.17328309, 0.27950498, -0.19517805, 0.02225468, -0.25185475, -0.30477804, -0.14550774, 0.26048765, -0.66260445, -0.28375885, 0.68212229, -0.47368214, -0.42939171, -0.05423698, 0.37984651, -0.21644746, -0.29326755, 0.31378627, -0.53348666, -0.38410041, -0.22245294, 0.08169953, -0.17224960, -0.45166424, 0.24546970, -0.62671924, 0.29736900, 0.13044961, 0.07378118, 0.18599589, 0.00471652, -0.29400256, 0.07090568, 0.40986428, 0.19721738, -0.23691332, -0.52348167, 0.26973614, 0.35572067, -0.49262261, -0.31925088, 0.11537076, -0.91006136, 1.08062780, 0.08500265, 0.04870820, -0.51921332, 0.12730493, 0.15433308, -0.04781032, 0.12071823, -0.19328544, -0.36340389, -0.20657240, -0.73271310, 0.02025693, 0.29640129, 0.36840069, -0.47424206, -0.38838789, -0.53965479, -0.33978263, -0.45629901, 0.05391437, -0.11265521, 0.70000672, -0.05405633, 0.05928026, -0.04147915, 0.31457150, 0.11228892, 0.54626209, -0.16415608, -0.42079446, -0.34002659, -0.06751207, -0.25263080, 0.30858260, 0.56352544, -0.28469133, -0.33016181, 0.89399552, -0.38041052, -0.21733339, -0.20931827, 0.00610287, -0.39520767, -0.21995373, -0.49971268, -0.18234426, 0.53793871, -0.19606246, 0.53146493, 0.15953197, -0.22542544, -0.19281738, 0.03952809, 0.24283037, 0.21231930, -0.36298737, -0.47769222, 0.12172973, -0.17121848, -0.54689258, 0.55779690, -0.17279121, -0.30091673, -0.43407503, -0.48901591, -0.22395754, 0.06799460, -0.42568710, -0.65425801, 0.11344666, 0.27197841, -0.14427228, -0.06490155, -0.03237214, -0.30031049, 0.36792353, 0.30598605, 0.34028611, 0.19037761, 0.16952614, 0.11122839, -0.52905977, 0.35040337, 0.37088469, 0.22332045, 0.18285134, 0.18050709, -0.08982171, 0.32227239, -0.13757034, 0.36496240, 0.29093349, 0.79852486, 0.49846113, -0.44960207, -0.53794318, 0.27982917, 0.20740426, 0.34979427, 0.06558643, 0.02744649, 0.12214284, 0.01511509, -0.09437384, 0.05380667, -0.19662349, -0.54587460, 0.08337487, 0.56542832, -0.11426703, -0.74195492, 0.02821031, -0.04375823, 0.70827907, -0.68057799, -0.80061609, -0.13056180, -0.47254816, -0.29792261, 0.13823391, -0.09254068, -0.22608985, 0.01453784, 0.55552840, -0.01918932, -0.32241839, -0.08312743, 0.21973898, -0.17117439, -0.63726825, 0.05575467, 0.07700956, -0.58227044, -0.09977815, -0.34184423, 0.30072200, 0.14619832, -0.22945189, 0.04266746, -0.29719004, -0.13093516, -0.09593082, 0.08760546, 0.37388423, 0.11933012, -0.15010871, 0.01372103, -0.38403991, -0.06923844, -0.03260763, -0.29324517, 0.02149422, 0.07092718, -0.58410621, -0.59841084, 0.04934605, -0.70688772, 0.55430490, 0.03377485, 0.16142391, -0.00493274, -0.17235106, -0.40569553, 0.04115068, 0.96317923, 0.29662263, 0.30298027, 0.02251243, 0.95364279, 0.12039740, 0.05385230, 0.02602626, 0.06800353, 0.12598474, -0.07664954, 0.20425761, -0.11271576, 0.24731122, -0.02147387, 0.11271576, 0.13071358, -0.16854429, -0.05988686, 0.00260483, 0.13290155, 0.05413462, -0.04298303, 0.15993357, 0.13868909, 0.27116716, 0.36193264, 0.23785354, -0.09062432, 0.30970365, 0.23107076, -0.54080391, 0.30461189, -0.35971653, -0.24295205, 0.10483196, -0.10370529, -0.02588791, -0.08214483, -0.16428967, 0.16203631, -0.15773447, -0.06498865, 0.40109622, 0.31096223, 0.06037952, -0.06160862, -0.00309035, 0.15988539, 0.36606687, -0.11655962, 0.09965950, -0.05930406, 0.04337698, 0.38081843, -0.06680243, 0.01399412, -0.02120611, -0.57160974, -0.40323448, -0.30847567, -0.47608671, 0.01795833, 0.17741808, -0.16595532, -0.30465475, 0.25893107, -0.25167131, 0.29344672, -0.16684687, -0.63885796, -0.43456605, 0.23001942, 0.10991515, 0.63732958, 0.04922619, -0.04346297, -0.08718067, 0.04440502, -0.17576711, -0.29329813, 0.06220673, 0.12370757, 0.00540449, -0.25817999, -0.05722137, 0.11726630, -0.22535601, -0.16676699, 0.00990455, -0.27847439, -0.10323671, 0.34853417, 0.70589197, -0.02697831, 0.09008946, 0.00367836, -0.03575784, -0.05378015, 0.11117799, -0.01760318, 0.12008987, 0.05650872, 0.05561255, 0.18640411, 0.14149585, 0.28259340, 0.01832177, -0.15991719, 0.14816736, -0.58191538, -0.29374579, -0.36344817, -0.14059968, -0.05471637, 0.01242818, 0.14159542, -0.11132468, -0.09384929, -0.11202170, 0.12128216, 0.42140073, 0.26466992, -0.11421234, -0.01123329, 0.00201328, 0.33946529, 0.09069048, 0.13267989, 0.48545754, -0.14111106, 0.07061100, -0.08802801, -0.56621921, 0.43886426, 0.17672163, -0.24783184, 0.06850321, 0.04978269, -0.09041314, 0.01475454, -0.30884683, 0.02856611, 0.15486717, 0.66783690, -0.01913652, -0.02056483, 0.02496068, -0.31616864, 0.12790963, -0.00695534, -0.26267701, -0.33566293, 0.35372877, -0.41768175, 0.33783084, 0.04493873, 0.11869244, -0.07596678, -0.45020023, 0.85415196, 0.48163477, -0.14398459, 0.06101731, 0.19456889, 0.14777841, 0.33295307, 0.51632112, -0.16819279, 0.18643926, 0.24316594, -0.23991409, 0.34487650, -1.10851872, 0.67070639, -0.59709227, -0.07770379, -0.06419009, 0.45590964, -0.22457640, 0.78948474, -0.33268601, 0.34922251, -0.44879717, -0.48151454, 0.57717735, -0.39545360, -0.00981299, 0.11397741, 0.52312255, -0.15309602, -0.26653999, -0.08606095, -0.11246601, -0.21035145, -0.37589431, -0.00876835, 0.38442928, -0.58895421, -0.33794400, -0.13396113, 0.33141655, 0.55097634, 0.07847778, -0.43259206, -0.12246390, 0.00553999, -0.74412954, 0.45395464, -0.03248891, -0.10043375, 0.47947103, 0.22074656, -0.60823989, 0.14479075, -0.47591060, -0.44327334, -0.17757638, -0.39758119, -0.29714742, 0.34714177, -0.09531564, -0.00487314, 0.20021142, 0.18677834, 0.11283795, -0.22030266, 0.16610307, 0.05484204, 0.31445110, -0.11289635, -0.08030651, -0.44317511, 0.03235622, 0.06658140, 0.58731800, -0.58030945, 0.02207699, 0.09309714, -0.07388199, -0.25207484, 0.00779703, -0.14005455, -0.23198360, 0.22929698, 0.07014409, -0.36861870, -0.01450021, -0.22973998, 0.58429295, 0.16038147, -0.59302342, 0.10201684, -0.55325139, -0.31526598, -0.05711165, -0.18527940, 0.44783938, -0.31526598, -0.45365965, 0.07764436, -0.11195984, 0.38284609, 0.49246162, -0.79285353, 0.00466331, 0.10128930, 0.01661209, 0.20920727, -0.38737297, -0.10217366, -0.20006870, 0.03919224, 0.09798060, 0.05536546, -0.14418980, -0.09558457, -0.44189680, 0.16070531, 0.13340765, 0.19887067, 0.00508622, 0.42546687, 0.08428899, -0.00856261, 0.08873877, -0.16233119, -0.16823569, -0.34828040, -0.06302421, 0.14187934, -0.26972479, -0.19801496, 0.54321474, 0.08170035, 0.08858696, 0.37970313, 0.06068833, 0.13115878, 0.12129840, 0.06366210, 0.24259681, 0.33431405, 0.05822323, -0.59350133, 0.04092843, 0.00337483, -0.42352706, 0.00252134, 0.00218997, -0.01161139, 0.08248291, -0.05063230, -0.23633625, 0.12184621, 0.03149846, -0.06816188, 0.24228378, -0.12559043, 0.28335521, -0.12793791, -0.23916726, -0.02404446, 0.15810999, 0.05630511, 0.26761323, 0.06089651, 0.07429098, 0.22093973, -0.25297600, 0.07746699, -0.07960735, -0.29495454, 0.10114897, 0.17440429, 0.06828418, -0.06265713, 0.06151791, 0.08112630, -0.19870767, 0.00286531, -0.09838722, 0.39558300, -0.51407564, 0.26296243, 0.00000697, 0.04967575, -0.27222916, -0.05692962, 0.12791125, 0.11309967, 0.26007608, -0.25399953, 0.19277836, 0.08286887, -0.13877307, 0.76078331, -0.02050834, 0.01520085, 0.12555659, 0.05719547, 0.02155274, -0.34089410, 0.05776514, 0.55023104, -0.22361682, 0.23792416, -0.07262748, 0.10161029, -0.12449344, 0.12252337, -0.20428139, 0.67467409, -0.12032598, 0.08387963, 0.00657796, 0.22746763, 0.04262177, -0.16260678, -0.13449535, 0.22246666, -0.07486276, -0.13972361, 0.08274306, -0.04315217, 0.01397047, 0.12578157, -0.13957207, -0.34400499, 0.01887671, 0.94419229, -0.10930958, 0.94722337, -0.10002679, -0.49710283, -0.15487102, 0.82597882, -0.18736078, -0.26730645, 0.55886179, -0.80097210, 0.53499174, 0.14464101, 0.11006736, -0.74072868, 0.68578970, -0.12853821, 0.84719658, 0.06957356, -0.24987753, -0.12162348, 0.10438402, 0.51566839, -0.17760438, -0.13114072, -0.00398956, -0.06523042, 0.34598184, -0.18885472, -0.23297118, 0.03493812, 0.33570814, 0.19701324, 0.13756178, -0.25397182, -0.28615266, -0.03189756, 0.14806210, -0.04101925, 0.00632191, -0.23538852, -0.19701324, 0.07278461, 0.47198573, 0.17858103, -0.00876758, -0.06625023, -0.16362374, 0.06742023, 0.00148926, -0.10754724, 0.09745131, -0.19592933, -0.00702116, 0.15409115, 0.34839487, -0.16820833, -0.13620938, -0.00391163, -0.17539525, -0.06600851, -0.08923768, 0.14339632, -0.26232287, -0.03214867, -0.37440470, -0.01838442, -0.07978345, -0.10788947, 0.32751855, 0.17342740, 0.47023040, -0.21207771, -0.01252837, -0.39630240, 0.05115525, -0.04698826, -0.19146208, -0.10817717, 0.20363407, 0.25484416, 0.07972104, 0.69742203, -0.16426700, 0.48205459, -0.16459598, 0.62943435, 0.13696228, -0.50486338, -0.17424585, 0.12479030, -0.15384954, -0.41099650, -0.17194304, -0.06283378, 0.12522893, 0.08664591, 0.21754473, -0.35222748, -0.14609873, -0.24999686, 0.43714178, 0.37069827, 0.05044190, -0.34196594, 0.10934958, -0.01572101, -0.12826930, 0.32144287, 0.62236261, -0.12262545, 0.21215741, -0.11492929, 0.17713989, 0.34658363, -0.08427293, 0.11210737, 0.59568262, 0.02004208, -0.46330869, 0.13619418, -0.18767184, -0.06609424, -0.07921933, -0.02247886, -0.50523102, -0.25789964, -0.05531291, 0.01709885, -0.07495794, -0.04205997, -0.20386514, -0.00401903, 0.14019990, -0.39341199, -0.22909261, -0.17829677, 0.16048415, 0.11002923, -0.41250306, 0.04005712, -0.01263504, 0.24988821, 0.43909416, 
bias
-0.42769647, 0.70440543, -0.11730559, -0.84410298, 0.45272464, -0.38222462, 2.11098027, 0.36767960, -0.62667143, 0.80151629, 1.97283030, 1.37191248, -1.29574513, 1.03614354, 1.07383680, -0.56728792, 0.00936219, 1.80460048, 0.27958351, 0.21223578, 0.29693824, 0.80563593, -1.89347553, 0.82795048, 1.65867805, 0.29942816, -1.06318390, -0.19956750, 1.49068332, 0.47794697, 0.42448622, 0.23391345, -1.39620447, 0.69232082, 0.45411193, 0.11513951, 1.28463066, 0.45824116, 0.61434036, 0.28256309, -0.19106092, 0.24161690, -0.56022131, 0.49761620, 0.14408493, -0.80017352, -0.82794255, 1.01151228, 
layer16
kernel
0.09773409, -0.13981405, -0.14524372, -0.15175933, 0.06090282, 0.01088197, 0.02708049, -0.23908655, 0.00725653, -0.10153487, 0.05750928, -0.00211814, 0.09244017, 0.08085687, -0.04230620, 0.16126126, -0.45319661, -0.01589310, 0.00543816, -0.14008553, -0.12316306, -0.11700943, -0.09737211, -0.22750326, -0.48662370, -0.18157601, -0.07296666, -0.55199105, -0.15454136, 0.43901044, -0.38359612, 0.06183672, 0.18144152, 0.26308346, 0.24600187, 0.09805104, 0.48285767, 0.55145305, 0.27653354, -0.68326378, 0.12643071, 0.33463785, 0.21520120, 0.49711478, 0.02683290, -0.10968536, 0.02493308, 0.11029062, -0.09286623, 0.13668233, 0.26080304, 0.15447795, 0.25123230, 0.06834117, -0.18184432, 0.11499859, 0.27366376, 0.14341177, 0.11073662, -0.15141232, -0.09039877, -0.27142060, -0.10288560, 0.06523815, -0.06800470, 0.11724174, 0.12965381, -0.21728602, -0.01548705, -0.02144073, 0.35112703, -0.24405423, -0.69103241, -0.15545152, 0.40889671, 0.36305353, 0.54181123, 0.28921214, 0.30998003, 0.13345294, -0.43781793, -0.61996007, -0.45289388, 0.47350794, 0.53504246, 0.12083837, -0.70887738, -0.44612509, -0.51565909, 0.36797628, -0.52427393, 0.02982500, 0.19767956, -0.20952496, -0.13176075, -0.28613541, 0.20162675, 0.08124253, -0.09933379, 0.01018054, 0.19221121, 0.08621931, 0.01493874, 0.17176607, -0.01216452, -0.05084383, -0.03381182, -0.21359791, -0.02567412, -0.03631702, -0.22059231, -0.33868989, -0.01382065, 0.19893660, 0.02320254, -0.15656672, -0.13605434, -0.07411363, 0.00240852, -0.16127449, 0.01654784, 0.09125275, -0.20176947, 0.05304437, 0.01881888, -0.07125840, -0.06651089, -0.09659371, 0.02471904, -0.06509576, 0.13311307, -0.06966068, -0.15584637, -0.08499882, -0.44151908, -0.09421995, -0.05336392, 0.01822544, 0.13311307, 0.07737540, -0.04548943, 0.11485339, 0.05692456, 0.03793449, 0.06792033, -0.13856572, 0.13897862, -0.20677508, -0.20297650, -0.42676261, -0.25500056, 0.20198555, -0.06139667, 0.03193701, -0.25417480, -0.12171984, -0.19108528, 0.30983230, -0.21420708, 0.11503103, 0.24476092, -0.54798698, -0.03732521, 0.22609831, 0.24855950, 0.40991673, -0.27217677, -0.04727585, -0.08397023, -0.20301037, -0.24417225, -0.07355627, 0.16736418, -0.07474996, -0.08207678, 0.13591652, -0.06470647, 0.07318582, -0.10578602, -0.12867202, 0.15732068, -0.07129237, -0.27446738, -0.05667990, 0.04585433, 0.35827297, -0.17139804, -0.14480747, 0.24384294, 0.03185929, 0.03939191, -0.17287987, -0.22602154, -0.41392544, 0.16361061, -0.04224482, 0.22360565, 0.77040601, 0.09274400, -0.09771003, 0.04261392, 0.27702403, -0.19219884, 0.01369853, 0.01285128, 0.37956589, -0.27568185, -0.14629661, 0.17139520, -0.51888323, -0.51566201, -0.18897764, -0.00751616, -0.05929039, -0.05361972, 0.12421790, 0.20393820, -0.07088244, -0.23369431, -0.02178788, 0.13462825, 0.10039663, 0.00881494, -0.02263460, 0.13075754, 0.03586458, 0.04793032, 0.19813214, 0.05146839, -0.05818166, 0.03147979, -0.08739345, 0.19619678, -0.14648230, 0.09592111, 0.10499310, -0.04780936, -0.21748570, 0.12640297, -0.09785647, -0.06900439, -0.40311944, -0.14797042, 0.30248499, 0.30161244, 0.08980024, -0.12281182, -0.12848341, -0.00899366, -0.20504993, 0.37490690, -0.26598319, 0.43278623, -0.59013659, 0.14666159, -0.10128885, 0.60264319, -0.13590011, -0.03726528, 0.00743033, -0.06769556, -0.38450497, -0.13313703, -0.21130322, -0.28504482, -0.08011020, 0.03048545, -0.12864558, 0.16343820, 0.01521759, -0.17429833, 0.24978292, -0.16652195, -0.08855696, -0.22900119, -0.02562521, 0.17523687, 0.21009654, -0.14708097, -0.15284623, 0.01638237, 0.09894782, -0.27391654, -0.32017264, -0.02026218, 0.23650943, -0.05604362, 0.37970221, -0.24513014, -0.11642585, 0.41483560, -0.24513014, 0.07246467, -0.09554155, 0.07230023, -0.34993532, -0.04571524, 0.02491316, -0.38984025, -0.30564526, -0.13254130, -0.09126603, -0.05566406, 0.41023120, 0.04492043, -0.24293755, -0.32296664, 0.10233855, 0.33371025, 0.02041838, -0.27604547, 0.26530185, -0.23270185, -0.09437551, -0.18910737, 0.00418350, -0.04294115, -0.41575113, -0.05585913, -0.25515240, -0.22260503, 0.15988600, -0.20561863, -0.12329991, -0.06640140, 0.46492857, 0.11409399, -0.01068332, -0.28389862, 0.44901124, -0.53073603, 0.02256935, 0.39294422, 0.11350006, 0.00786958, 0.01795154, -0.08849689, -0.00839773, -0.18236557, -0.17396353, -0.11487378, -0.17644282, -0.25054604, 0.06284312, -0.10061786, 0.03214469, 0.06057044, -0.04056394, -0.09600363, -0.36500663, -0.15412921, 0.03839456, -0.16294447, 0.22795697, -0.01633921, -0.29090339, 0.22864565, 0.18002401, 0.08202318, -0.13457036, 0.08442321, 0.08037428, -0.09143330, -0.04326916, 0.15530971, 0.02808568, 0.08690091, 0.11596861, 0.04393391, -0.00163544, -0.03133388, -0.25743943, 0.01424679, -0.05517422, -0.05121594, -0.37395191, -0.13947657, -0.04520298, 0.09082898, -0.06665626, -0.20691845, -0.02214825, -0.04737853, -0.11155708, -0.08866027, -0.31280452, 0.26417989, 0.26127073, -0.46186459, 0.18895720, 0.51395249, -0.18951133, -0.35990527, 0.05555120, 0.26542670, -0.15737198, -0.12731060, 0.33496958, 0.38899693, -0.53971940, -0.19145077, -0.15418576, -0.07501490, 0.24811022, 0.72590595, 0.11671294, -0.13534544, -0.19283609, -0.19493300, -0.15017338, 0.25416264, 0.21802507, -0.04322264, 0.08547062, 0.00625098, -0.03951142, -0.37457126, 0.02832152, -0.12978040, 0.05915467, 0.00474446, 0.12490707, -0.06987599, 0.23152043, -0.12723127, 0.23586893, -0.06222861, -0.22897130, 0.22807162, 0.26031053, -0.15639625, 0.18908501, -0.05862843, -0.10139228, 0.05506771, -0.13227531, -0.17500392, -0.22196306, -0.19418243, -0.00303851, 0.24466704, 0.01020621, 0.05221209, 0.31926581, 0.11478903, 0.13171124, 0.05950979, 0.30685619, 0.19502853, 0.00699804, -0.00494446, -0.10703301, -0.06448069, -0.04322216, -0.21350196, 0.20673306, 0.22564147, 0.50974548, -0.03713974, -0.12293155, -0.01964602, 0.06622086, -0.01063013, -0.24826568, -0.03991772, 0.13624580, 0.23064682, -0.12273134, 0.30072182, -0.03849119, -0.00562790, -0.02133533, 0.17859112, -0.42405379, 0.10701452, -0.05611005, 0.10661409, -0.46169409, -0.32294559, -0.16517676, 0.02526161, -0.40219757, 0.02196877, 0.21074119, -0.48152372, 0.17823535, -0.61194468, 0.96066171, -0.07256654, -0.31650940, 0.06118453, -0.58450860, -0.30120084, -0.04281923, -0.12853225, -0.08817331, -0.35845885, -0.02073862, -0.58609909, 0.64454997, -0.05611481, 0.30656877, -0.86443651, -0.96781898, -0.17967138, 0.14252697, 0.46522954, 0.04212361, -0.17681412, 0.21967305, 0.03037942, -0.00952771, -0.20471445, -0.03840497, -0.02884574, -0.21311815, -0.15311565, 0.15807384, -0.12857680, 0.03159796, -0.22068150, 0.01241649, -0.11227360, 0.01467498, 0.02040001, 0.36135966, -0.17034326, 0.20975667, -0.01121369, 0.05325780, -0.00419789, -0.03830621, -0.16226535, -0.18011454, 0.14661834, 0.08536316, 0.34840688, 0.46825144, 0.16052680, -0.08970956, 0.30807236, -0.15948366, -0.07365688, 0.20816326, 0.40589517, -0.35373846, 0.29833645, -0.13815735, -0.20827916, -0.37251487, -0.25406119, -0.37576020, -0.13513021, -0.02081859, -0.01949678, -0.05871911, 0.23182611, -0.46243209, 0.02400875, -0.02432649, -0.06441309, 0.04372159, -0.16197324, -0.41769370, 0.23507981, -0.19573037, 0.03485018, -0.09588247, -0.05714310, 0.64585942, -0.12211542, 0.45145085, 0.28124169, -0.01487042, 0.05449947, 0.11367614, 
bias
1.27063024, 0.20973706, 0.90996170, 0.52587950, 1.46996188, 1.41384363, 1.17791760, 1.23502326, 0.86134195, 1.02853763, 0.21425113, 1.01012170, 0.60218638, 0.62802094, 1.66366875, 1.65334952, 0.27069926, 0.35002100, 0.62573481, -0.35639879, 1.15011108, 0.57579494, 0.89077437, 0.42473826, 
layer17
kernel
-0.19110247, -0.03513101, -0.08453099, 0.65994054, 0.61407596, 1.18738341, -0.28869215, -0.01500951, -0.16982640, -0.19454889, 0.10003877, -0.25984678, -0.09854454, -0.11064781, -0.17721581, -0.06428929, -0.21576697, -0.09458483, 0.05338014, -0.14270434, 0.00677077, -0.20380208, -0.63684577, -0.15949728, 0.06595699, 1.27140486, 0.25525281, -0.19969249, 0.00329874, -0.12597488, -0.13928308, -0.35813656, -0.23745708, -0.33751234, -0.21641482, -0.45902795, 0.55250907, 0.13326174, -0.43321326, 1.39262569, -1.15691733, -0.48006660, 0.32977548, -0.22940120, 0.12154840, -0.11536088, 0.60906297, 0.01319216, -0.09631107, 0.82518208, 0.04609789, -0.09982898, 0.94359624, -0.27877775, -0.08726802, -0.08856597, 0.04806231, 0.18446153, 0.55246836, 0.19469242, 0.09711716, 0.20751922, 0.15506679, -0.10238550, 0.06949308, 0.53976327, -0.52627879, -0.06525511, 1.17507350, -0.03903266, -0.99014390, 0.31611404, -0.18153872, 0.31337541, -0.03885603, 0.85026950, 0.53268206, -0.66381675, -0.01404012, -0.65763909, 0.05837179, -0.13842264, 0.08328819, 0.19916175, -0.94002259, -1.51717460, 2.41079569, -0.05813229, -0.50416076, 0.63345951, -0.01751593, -0.41752249, -0.50639451, 0.08969694, 1.11485982, 0.42038223, 0.46679807, 0.35614800, 0.42368194, -0.06891415, 0.33096236, 0.08330760, 0.05421537, 0.60190833, 0.08950115, -0.11924764, 0.46652257, -0.15632170, -0.13136436, -0.98042059, -0.22498178, -0.05887023, 0.84243178, 0.12580231, 0.07174419, 0.19773398, 0.14836298, 0.18233524, 0.18940251, -0.87421978, -0.20353702, 1.42263889, 0.23127601, -0.11440123, -0.59788996, 0.43534306, -0.11285931, -0.80431604, 0.31053334, 0.28032196, -0.48338205, 0.03460689, -0.15378086, -0.11923589, -0.55222440, -0.34816670, -0.01308098, 0.43177947, -0.30517340, -2.29790020, 2.21771646, 0.21470280, -0.43626344, 0.67048466, 0.00900475, -0.16288595, 0.01018871, 0.03191684, -0.43889824, -0.04935938, 0.03178344, 0.95623791, 0.36686024, 0.12751786, -1.32065010, 0.36416730, -0.64332271, -0.62552947, -0.49939555, 0.25029087, 1.95329690, -0.26788637, -0.09198741, 0.60074675, 0.05761806, 0.10872648, -0.83075398, -0.06684005, 0.24659134, -1.07936025, 0.14677687, 0.35885474, 0.24144535, -0.00387081, 1.27977931, 2.13002038, 2.29313612, 0.22649308, 1.36337614, -0.60828596, 0.14036648, 0.31178322, 0.09131023, 0.10459463, 0.26792872, 0.04909626, -0.03591189, -0.28841549, 0.02432805, -0.51971513, -0.00988298, 0.10476401, -1.65052390, 1.45420301, 0.42048383, 0.08245481, -0.10512096, 0.04189668, 0.42774084, 0.21489102, 0.47446120, 0.10568782, -0.24607572, 0.20377791, -0.07115784, 0.00876716, -0.15705754, -0.19783750, 0.00467838, 0.33565876, -0.01841219, 0.33133626, -0.26284125, 0.18121250, 0.60348749, -0.21329875, 
bias
-0.17907369, 1.44349504, 0.60975885, 1.29004920, -0.02211588, -0.63036895, 0.09287632, -0.42184937, -0.10690583, -0.22247076, -1.13414311, 0.05475867, 0.36971793, -0.75331718, 2.50497675, -0.09478422, -0.25803775, 0.77572083, 1.81760418, -0.64130706, 0.06633469, 0.06829859, 0.20309412, 0.38558269, 
layer18
kernel
0.06939124, -0.56888676, -0.02466879, 0.04028434, 0.09710727, 0.91361755, 0.17843461, -0.04784556, 0.00495019, -0.09012768, -0.26805651, -0.07338680, 0.08481713, -0.08046753, -0.16579042, 0.00185237, -0.02482052, -0.13301672, 0.13170174, 0.28585953, -0.23184361, -0.08648616, 0.02370783, -0.41756126, -0.00565038, 0.00931956, 0.06421787, -0.10912484, 0.03124359, -0.16733083, 0.04791291, -0.08603373, -0.02048368, -0.24229723, 0.49115288, -0.19146946, 0.11641198, 0.03607132, 0.34103790, 0.06139411, 0.19748135, -0.12889120, 0.34249532, -0.57313311, 0.06317035, -0.14692685, 0.02596042, 0.00910892, 0.14649044, -0.49900621, -0.12639844, 0.00798225, -0.08045034, -0.08415584, -0.19795561, -0.19844967, -0.10589472, 0.19087400, -0.12837470, 0.36330289, -0.11083537, 0.10894146, -0.10383611, -0.29940373, -0.16641775, 0.16600603, -0.18725085, -0.56356412, -0.29594529, 0.24324495, -0.05191806, -0.30138001, -0.09353428, 0.05508697, -0.30598825, -0.22795784, -0.06951181, 0.01996193, 0.39503607, 0.03762383, -0.19956249, -0.51247925, 0.28463495, -0.32734156, -0.13822855, -0.20035757, 0.37027532, -0.10426772, -0.42184126, -0.09682813, 0.51520514, 0.22102939, 0.66694993, -0.19592789, -0.63514709, 0.48521969, 0.09641327, -0.00228513, 0.30159104, -0.13211507, 0.31658456, 0.07779427, 0.34067252, 0.16247080, 0.03201486, -0.20413314, 0.62432051, -0.60564005, 0.24960530, 0.17672694, 0.49847320, 0.19430132, -0.67692071, -0.18520689, 0.06550449, 0.12646177, -0.11214418, 0.02273608, -0.30060786, 0.43333742, -0.21169654, 0.02557396, 0.08199616, 0.00667895, 0.10164334, -0.11766557, -0.19009189, 0.17211218, -0.14434513, 0.13811024, -0.06662641, 0.26737562, -0.13992271, 0.13064286, -0.43731284, 0.17211218, 0.13158534, 0.07887871, -0.09055102, -0.20212670, -0.16529730, 0.11701308, 0.03550629, 0.03574191, -0.11303826, -0.23746614, 0.37476587, -0.03196510, 0.02755746, -0.34699389, 0.06311107, -0.05406177, 0.23356558, 0.04856198, 0.11974722, -0.10757747, 0.20516950, 0.08081962, -0.09369147, 0.07180932, 0.19315577, 0.25712496, -0.10960576, -0.19518407, -0.09213125, 0.02757696, 0.08885477, -0.09743601, 0.13996996, 0.46674392, -0.19877863, -0.01872697, -0.29537386, -0.36855206, 0.27435175, 0.43640822, -0.14542507, 0.59979522, 0.32996720, 0.05122475, -0.22379227, 0.86164016, -0.04360756, 0.04696710, -0.30681628, 0.10191729, 0.45955914, -0.16937429, 0.13664368, -0.11442411, -0.08335663, 0.43348110, -0.29048908, -0.26792893, 0.02932823, 0.35967362, -0.16597842, -0.00913150, -0.55003852, -0.28855535, -0.19584379, -0.12483296, -0.13750963, -0.54144418, -0.52124745, -0.19745523, 0.25740084, -0.23118806, 0.10818140, -0.38438240, 0.20261185, -0.10275622, -0.31412357, -0.20852046, -0.65059245, 0.19369520, -0.48189268, 0.00158002, -0.32935658, -0.16088386, 0.14542155, -0.00589322, -0.17074937, 0.13555603, -0.01794054, 0.35591757, -0.27262983, 0.28818700, -0.08456837, 0.08874224, 0.02774677, 0.11108195, -0.04619719, -0.00896434, -0.00557011, -0.37621778, -0.03310641, 0.29103282, -0.16638578, 0.14940570, 0.59952199, 0.02240407, 0.20997137, 0.25492397, -0.54775137, -0.13347107, 0.54590243, -0.30184105, -0.25538620, -0.20835353, 0.41601372, 0.33211762, -0.05249284, 0.02394968, -0.00800249, -0.50892341, 0.21182032, -0.05463069, 0.15750742, 0.02293853, -0.26855996, -0.12699974, -0.40630671, 0.05341732, -0.10263341, 0.14309649, -0.21116966, 0.10891709, 0.23116319, 0.76089633, 0.29876032, -0.14366773, 0.11253496, 0.36521500, 0.16775516, 0.21821500, -0.01717301, -0.06383646, -0.21516837, 0.16861203, -0.12929145, -0.31247017, 0.18603495, -0.15737757, 0.06145628, 0.29266706, 0.15528302, -0.40177459, 0.15383191, 0.20406933, 0.29324880, -0.31626981, -0.05480934, 0.20611325, -0.66696352, 0.30142450, 0.05037188, 0.04588064, -0.11026413, 0.61446702, -0.24742195, -0.03931858, 0.06976224, -0.02727020, 0.04891963, 0.02669199, 0.33972111, 0.11090958, 0.35585731, 0.07852958, -0.18341497, -0.13382301, 0.09371651, -0.04913974, -0.10924818, -0.32941177, 0.21393338, 0.08994328, 0.04190040, -0.01365602, 0.29045099, 0.16286315, -0.25657967, 0.14987622, 0.01230687, 0.11258266, 0.13829328, 0.23165879, -0.03937761, 0.15873891, -0.00839653, -0.31677583, 0.08129995, 0.25868565, -0.20340343, 0.19673447, 0.17071845, -0.02969501, 0.00022066, 0.04294733, 0.22149669, 0.12101109, 0.39016259, -0.03516104, 0.15590440, 0.11378255, 0.26022738, 0.18098117, 0.44727695, 0.07063442, 0.27450597, 0.12957825, 0.01298460, 0.09834382, 0.11253317, -0.24148673, 0.02073743, 0.24023734, -0.06818029, 0.07023284, -0.12494233, -0.27317142, 0.67173296, 0.30019000, -0.10411862, -0.05437305, -0.39826304, 0.06142625, 0.26063240, -0.31168410, 0.13740672, -0.75293803, 0.37169224, 0.90997428, 0.37706611, -0.10688018, 0.46334648, 0.16479850, 0.29660743, -0.23227035, 0.47707969, -0.08687747, 0.20778941, -0.07549533, -0.04876819, 0.24837975, -0.04046311, 0.04464784, -0.31546417, -0.17060818, 0.36696854, 0.38705525, -0.02019936, 0.25829434, 0.00116187, -0.00373407, -0.10893171, 0.34636679, -0.32421991, -0.11305206, -0.30645093, 0.72981673, 0.04387527, 0.59230012, -0.36027297, -0.41564015, 0.17344092, 0.13133611, 0.06918419, 0.23795322, -0.15210423, 0.10130182, -0.40702525, -0.31168234, 0.19422072, -0.47146249, -0.37490761, -0.49772218, 0.15765916, -0.13271245, -0.07913257, -0.11029071, -0.04201551, -0.30097649, -0.18533283, 0.48277435, -0.00724667, 0.24300316, 0.19997767, -0.46984652, -0.00480376, -0.11635064, -0.01948422, 0.31343672, -0.34027591, -0.26538894, 0.47034276, 0.19275419, 0.30949530, 0.12190249, 0.21471354, -0.10585528, 0.17285942, -0.40164945, -0.16225512, 0.03493318, 0.45420173, 0.43468231, 0.19275419, -0.18008535, 0.40052333, -0.10425994, -0.09665863, 0.04150221, -0.12640697, 0.55179876, 0.22594786, 0.00387209, 0.12244916, 0.33236200, -0.17379358, -0.30191168, 0.13573068, -0.20683542, 0.01375731, -0.21541981, 0.26546848, -0.19938481, 0.06458545, -0.05474579, -0.05555564, -0.13589264, 0.05705386, 0.04065442, -0.20537768, 0.01699670, 0.03296085, -0.10511839, 0.04043171, 0.02077262, -0.26652735, -0.01234197, 0.09181832, -0.19037668, -0.02690105, -0.19534303, 0.18694754, 0.23471908, 0.13326368, 0.00745691, -0.47062063, 0.26250699, -0.34102258, -0.02366406, 0.51035142, -0.07183468, -0.28379133, -0.17015655, 0.19735323, -0.05865021, -0.00095706, 0.54913622, -0.20314729, 0.30956906, 1.19986379, -0.35471854, 0.31776056, -0.11683811, -0.18039022, 0.11175394, 0.31795609, 0.09400824, 0.00834121, 0.02053222, 0.80095214, -0.06076559, 0.22526778, 0.04438870, 0.07636031, -0.02368538, 0.01740350, -0.01305263, -0.02041001, -0.06604531, 0.03358484, 0.14098792, -0.45913956, 0.05030394, -0.13744310, -0.17688727, -0.98885638, -0.23972276, 0.00694191, -0.03309948, -0.31402460, 0.38465717, 0.39535910, -0.02836006, 0.20838146, -0.39321873, 0.55130118, 0.20043147, 0.28421214, -0.18957667, 0.29124480, -0.04540667, -0.45253786, 0.01055858, -0.13828395, 0.07751240, -0.12903444, 0.32656112, 0.14246929, 0.00731308, 0.21624325, -0.15610144, 0.02624522, -0.48861885, 0.29188830, -0.50519127, 0.77141905, 0.02287060, 0.31380665, 0.40442032, 0.11460358, -0.42954624, -0.17828707, -0.01787549, -0.00239523, 0.45039541, 0.83503574, -0.13164376, -0.19018179, 0.37287927, 0.01989692, -0.84412384, 
bias
0.21838957, 0.45402980, 2.05339050, -0.33308604, -1.07458758, 1.43531060, 1.12177682, -1.15370011, 2.83877778, 0.98206925, -0.75930393, -0.60560572, -0.40915799, 0.05659670, -1.13571405, -0.14970946, -0.31068575, 0.92676193, -2.04678297, 0.87193209, -0.17308557, -2.37441349, 1.72458160, -1.01971042, 
layer19
kernel
-0.05363338, 1.32272911, -0.02249396, -0.11888164, -0.51294643, -0.10169584, -0.29893845, 1.30759299, 0.09686068, -0.13573031, 0.17439611, 0.49278903, 0.30345991, -0.77118284, 0.34239239, -0.06826515, -0.52478832, -0.29199350, -0.04895405, -0.01064435, -0.08927305, -0.17668626, -0.50534928, -0.45539886, 0.13404243, -0.77104288, 0.05921646, -0.06521881, 0.56108320, 0.11177830, -0.16112186, 0.76106387, 0.02002176, -0.16337283, 0.20720746, -0.01273574, 0.18105684, 0.22511147, 0.22829460, 0.24624750, 0.51414031, 0.54189730, 0.05296740, -0.32187885, -0.14298652, 0.38507825, 0.69161624, 0.17648457, -0.22603424, 0.08275602, 0.20986418, 0.06398721, -0.07068623, 0.05601768, -0.54474473, 1.07651162, 0.04870744, -0.40198851, -0.33320597, -0.02824707, -0.25095892, 0.07040477, -0.03053847, 0.05588805, 0.43376747, 0.31532291, 0.09288213, 0.23260224, 0.03600175, 0.04132064, -0.10375807, 0.14734122, -0.04822312, 0.07896367, 0.00664023, 0.14372556, 0.34731427, 0.17949964, 0.12368128, 0.37931323, 0.17662333, 0.27777228, 0.32613778, 0.41891673, -0.89203292, -0.42493889, -0.95827675, -0.34853271, -0.12317206, -0.25801206, 0.21041560, 0.26085079, 0.12316273, -0.08180588, 0.37281692, 0.07883020, 0.13980635, 0.30765465, 0.12528101, 0.30651581, 0.11537909, 0.39548060, 0.13087913, 0.19058643, 0.20801254, 0.16151237, 0.12326668, 0.02341058, -0.07772076, 0.10150877, -0.12475051, 0.05830298, 0.02709053, 0.00679746, 0.05547226, 0.79538381, 0.03645178, -0.41983613, -0.43837592, -0.12626483, 0.02844509, -0.43060118, 0.34836832, -0.17179193, -0.44465551, 0.47814670, -0.12460296, -0.41224948, -0.43884620, -0.03279572, 1.08935809, -0.27469444, -0.05745311, 0.05991193, -0.15348536, 0.08905422, 0.25278869, 0.24459797, 0.10864775, 0.30289677, 0.09596013, -0.01883067, 0.17473578, -0.06327748, 0.57558191, -0.13194349, 0.09168421, 0.45480403, 0.29439598, -0.17078741, 0.28275853, 0.38497937, -0.07293063, -0.01356966, 0.69428253, 0.06474880, 0.36498216, 0.17931600, 0.46960837, 0.34169829, 0.04524478, 0.16495258, 0.16465934, -0.46452159, 0.15565287, 0.54759294, 1.51139045, 0.33906683, 0.01399975, 0.20524140, 0.35199377, -0.16437408, -0.36545420, 0.72586131, -0.51067233, 0.07863115, 0.83506167, -0.74742609, -0.10329300, 0.96628565, -0.31631941, -0.52978122, -0.30362359, 0.00929323, 0.57884300, -0.27844715, -0.02007929, 0.01931270, -0.12878719, 0.75047463, -0.53341264, 0.90680146, 1.58861899, -0.87194479, 1.19568932, 0.01871565, -0.41748780, -0.03825651, 0.09402788, 0.32960969, 0.16296117, 0.06765296, 0.37283385, 0.21694013, 0.05484959, 0.07318401, 0.03502999, 0.44817072, 0.33745736, -0.19398576, 0.31979638, 0.26548418, -0.11745491, 0.19066246, -0.07002667, -0.04465090, 
bias
-0.84041405, 1.18782592, 2.29797411, 0.16542581, 0.21982750, 0.16162109, 1.46474874, -0.01691443, 0.16758031, 1.13098538, -0.15577769, 0.15433240, 0.07341594, 1.62510514, 1.24015832, 0.34487712, -0.55068982, -0.40900540, 0.22101972, -0.62296933, 1.33833098, -0.59544647, -0.06666189, 0.51929170, 
layer20
kernel
-0.21503271, 0.17318459, -0.12279309, -0.28989595, -0.00821758, 0.24037325, -0.17130215, -0.04412876, 0.00890539, 0.10237584, 0.06092593, 0.16999891, -0.08702671, -0.21691515, -0.27020273, -0.00046976, -0.13915585, 0.14798884, -0.02984755, -0.00870629, -0.42398369, -0.23269869, 0.11258446, -0.11019521, -0.04834470, -0.41244298, 0.47414705, 0.50721335, 0.06985993, 0.64184040, 0.52315605, 0.37081489, -0.44728070, -0.37140536, 0.20400724, -0.26718748, -0.26024947, 0.48448029, 0.43192849, 0.07063492, -0.16680765, -0.27884924, 0.13093662, -0.58426964, -0.01770486, 0.05638985, -0.13329850, -0.13543896, 0.30218488, 0.29077667, 0.07494928, -0.20640898, -0.49559379, -0.33773604, -0.01308296, -0.21675596, 0.12794438, -0.11852598, -0.19513342, -0.10685246, -0.28600112, -0.01511422, 0.03900015, -0.29077667, 0.18080683, -0.03065956, 0.78743166, -0.03588279, -0.22537844, -0.00768562, -0.18969463, -0.46720594, 0.33408725, 0.36026785, 0.00756783, -0.04460662, -0.00794578, 0.10742584, 0.12414443, 0.00104491, -0.29595461, -0.06573608, 0.01860388, 0.06459779, 0.14427789, -0.14968474, 0.23576769, -0.18241049, -0.00183082, -0.09348182, 0.09234353, 0.05922650, -0.01849716, -0.01360609, -0.17871106, -0.21115224, -0.12234713, -0.27875903, 0.04664403, 0.59132278, -0.30866322, -0.49432921, -0.25028503, -0.12962815, 0.06214870, 0.20750906, -0.09023263, -0.04531134, -0.29982197, -0.37757286, 0.00594021, -0.06903967, -0.55075711, -0.11032045, 0.27563858, 0.07508551, 0.50473064, -0.25509572, -0.07970116, 0.70573884, -0.44663426, 0.38613483, -0.34622645, 0.05044271, -0.26449919, 0.15623708, -0.14328808, 0.05413105, -0.04073096, -0.10831518, 0.19158147, 0.23520473, -0.41309422, -0.26152727, -0.06272834, -0.28933579, 0.11356907, 0.15124853, 0.40651360, -0.11972515, 0.13734429, 0.02013994, -0.06485113, -0.09669292, -0.17386676, 0.11180086, -0.15441123, 0.06836841, -0.08350811, -0.07405437, 0.11310246, 0.14482047, 0.13180444, -0.04850184, -0.18948601, -0.49871948, 0.12337827, -0.06336752, 0.02402828, -0.05884616, -0.20003584, -0.16756427, -0.13625729, -0.00322618, -0.10597789, -0.05281768, 0.00314055, 0.17715503, -0.10189978, 0.33149824, 0.00423723, 0.22594656, -0.46485147, 0.44953704, -0.31759745, -0.02342811, 0.11862783, -0.08953044, 0.07798573, -0.42432716, 0.27283224, -0.10802554, -0.15184835, 0.21440184, -0.19743818, -0.29922014, -0.21970299, -0.01883379, 0.19190143, 0.04900613, 0.38073999, 0.17894308, -0.06015641, 0.00941198, -0.04983405, -0.20013906, 0.01998523, 0.13201149, 0.09152491, 0.08057174, -0.11859243, -0.21573728, 0.03882354, -0.06835695, 0.12880009, -0.23924933, 0.04343992, 0.17616825, 0.07156835, -0.16676344, -0.04799896, -0.01896733, -0.01905335, 0.02501738, 0.07890870, -0.14267793, 0.02812709, 0.20569712, 0.14707534, 0.12273641, -0.06510901, 0.09839747, -0.32635003, 0.25816315, 0.17889589, -0.24111643, -0.03165482, -0.15986039, 0.31062919, -0.20209837, 0.02732211, -0.22482733, -0.24338932, -0.20001489, -0.30759865, 0.11553890, -0.00838131, -0.20588653, -0.14167722, 0.12226289, -0.10825038, -0.07626063, -0.17634811, 0.48653838, 0.04629322, -0.16708212, 0.01427589, 0.35063711, -0.07221594, -0.00769868, -0.08074655, 0.01577426, 0.08434999, -0.00937171, 0.04721246, -0.08280566, -0.32769272, -0.44300291, 0.20620520, -0.11119197, 0.01759436, -0.04485919, -0.15958107, 0.29327616, 0.68364131, 0.49271932, 0.14386755, 0.52814537, 0.08518474, -0.24189760, -0.09316235, 0.27232072, -0.04658118, -0.22242680, 0.06324629, 0.06676184, -0.19186847, 0.09079611, 0.47649366, -0.34695879, -0.27718842, -0.31099188, -0.20538986, 0.08782140, 0.08984961, 0.17104554, -0.14048721, 0.21512526, -0.14107232, 0.19687426, -0.01716380, 0.04506477, 0.04870914, 0.14146419, 0.11709002, -0.05991655, -0.14522611, 0.08973767, 0.21568389, -0.19264208, 0.35989115, -0.24624956, -0.10070996, 0.00178055, -0.29844633, -0.12265454, 0.15870635, -0.35518873, 0.13166749, 0.11332809, 0.25236270, -0.02568692, 0.27680632, -0.29434857, 0.44500551, -0.16678032, -0.49144086, -0.20160684, 0.30595741, -0.12479502, -0.08177782, -0.37767422, 0.16936006, 0.21463454, -0.28531948, 0.11183181, 0.19812419, -0.05894710, -0.08971053, 0.02510411, -0.20444456, 0.02726465, 0.11092891, -0.25849015, 0.31060094, 0.50485551, -0.15896927, -0.12153755, 0.25023797, -0.18946919, -0.37339294, -0.08115982, 0.13794281, 0.51202893, 0.73800558, 0.10195522, -0.35051799, 0.19131766, -0.04956236, -0.11714741, -0.20159984, -0.36091569, -0.08410583, 0.08722515, 0.23198423, 0.02706290, -0.02531551, -0.16127987, -0.14163977, -0.09421471, 0.04811330, -0.17795125, -0.00289693, -0.00893155, -0.18902913, 0.24230373, 0.29890168, 0.50555474, -0.00602675, -0.01475374, 0.16113299, 0.10554211, -0.12890638, -0.08912668, -0.27614164, -0.03393864, -0.21229270, -0.32407871, -0.11792921, 0.02787097, 0.09703227, -0.02698977, -0.11017468, 0.52690488, 0.03222387, -0.06432260, -0.16134876, 0.02204571, -0.32436609, -0.01120014, 0.05631356, -0.16885725, -0.09969585, 0.42214310, 0.09051882, -0.33821505, 0.09018512, -0.23009302, 0.03766751, 0.04467542, -0.08396977, -0.27113935, -0.10578606, -0.07571045, 0.32620150, 1.10724962, -0.12530810, 0.08505432, 0.08533158, 0.53577042, 0.14716201, -0.26508746, 0.14590302, -0.26676610, 0.21388851, -0.28313297, -0.55507493, -0.21584693, 0.01811548, 0.19276544, -0.33125439, 0.33712968, -0.33573082, -0.42749724, -0.05560542, 0.08008578, -0.10155857, -0.51059061, -0.22214189, 0.13275355, -0.27376050, -0.01453959, 0.04708220, 0.02623839, 0.08570531, 0.04551195, 0.03272200, -0.03517869, 0.25569764, -0.00664824, -0.06427898, -0.04946290, 0.17130931, 0.09583596, -0.12339133, -0.09462028, 0.23341021, 0.02219879, -0.05156501, 0.10373787, 0.07668903, -0.14790751, 0.22692658, 0.00096637, 0.04649969, 0.07035737, -0.28165856, -0.27888045, 0.00730592, -0.04955203, -0.02957094, 0.08211480, 0.23250723, 0.00519896, 0.13409770, 0.10717130, 0.24618413, -0.45689380, 0.16081038, -0.17213656, -0.48595721, 0.40688765, -0.01216095, 0.17662428, -0.12661813, -0.39684367, 0.09611225, 0.21220559, 0.07901613, -0.05807338, -0.03953920, -0.21123458, 0.32018945, -0.01815465, 0.68516666, -0.22544609, 0.04532608, 0.11519929, -0.18959434, -0.03676688, -0.62961257, -0.30231741, 0.27152580, -0.18948668, -0.27841625, -0.41708604, 0.02267650, -0.15740314, 0.33956876, -0.00326017, -0.01405001, -0.23061392, 0.26678863, -0.27303308, -0.01585003, -0.26383555, -0.55155277, 0.35538194, -0.04236152, 0.15935326, 0.05981078, 0.04385413, -0.21010180, 0.07239130, 0.05284529, 0.05753633, 0.10313184, 0.60102189, 0.04367644, -0.51174998, -0.25615931, -0.16802457, 0.03118476, -0.15963756, -0.04278798, -0.02720449, -0.51402444, -0.07484344, 0.09847524, 0.04380365, 0.10735212, -0.01137609, 0.02256551, -0.07329644, 0.10195962, -0.05608194, 0.09067687, 0.13315313, 0.13763304, 0.17936265, -0.08644583, 0.00103054, -0.01523380, 0.00031273, 0.04674878, 0.00825985, -0.09001318, -0.03567342, -0.00541842, 0.02799949, 0.04260071, -0.15215130, -0.18552618, -0.02711462, -0.01138279, -0.01850160, 0.08741792, 0.12789547, -0.05029324, -0.11739949, -0.13188006, -0.25287539, -0.09708782, 0.20680970, 0.07313172, 0.05291724, -0.03863104, 0.12002349, -0.08872991, -0.11040217, 0.05155665, 0.03923845, -0.03761060, -0.35297596, 0.09286027, -0.02993298, 
bias
1.57636452, -1.10741687, 1.78008330, 0.42547157, 1.29846442, 1.13291550, 1.67367578, 0.28430128, 1.12957096, 1.11544275, -0.04009539, -1.15544653, 0.60863984, 0.01593867, 0.39432943, -0.50616503, 0.25461984, 1.37799704, 0.03763574, 0.66552699, 0.99957895, 1.42037511, 0.51941139, 1.27605140, 
layer21
kernel
-0.38073805, -0.51879907, -0.16909800, -0.08220785, -0.02384630, -0.15933205, -0.33230969, -0.11157257, 0.35103887, -0.17075716, -0.12463260, 0.31175655, -0.18607368, 0.29565233, 0.05776511, 0.09399959, 0.32891104, 0.15080194, 0.24648473, 0.20679258, -0.03746452, -0.22449782, -0.13979040, 0.29068998, -0.06584498, 1.18960702, 0.46565941, -0.03334803, 0.48841783, 0.21866749, -0.05643829, -0.00167873, -0.19131346, 0.00689515, 1.30706143, -0.20746222, 0.25723365, 0.04227464, -0.04043456, 0.07412217, 0.44652590, -0.26553759, 0.22458403, 0.29044944, -0.00948349, 0.29086703, -0.39701921, -0.11557297, 0.09673137, -0.40341190, -0.01919908, 0.08874052, 0.95284611, 0.64599735, 0.88439173, 0.80364949, 0.55802703, -0.43842286, -0.07819548, 0.12394312, -0.33787236, -0.64669257, -0.54218042, -0.27232984, 0.05390412, 0.00142424, -0.06517409, -0.44313091, -1.13691103, 0.56845552, 1.47639787, -0.74507332, -0.33357757, 0.32979369, 0.07134577, -0.05123154, 0.19218051, 0.83722991, -1.15268481, -0.32720473, 0.78624731, 0.28249502, -0.12794378, -0.52545899, 0.63432145, -0.13159281, -0.01086154, 0.63553774, 0.05511542, -0.35942852, 0.17370576, 1.52456307, 0.95309287, -0.37391308, 0.22369735, -0.41679743, 0.00223607, -0.12124468, 0.00196315, 0.10373318, 0.73082960, 0.38283417, 0.13358094, 0.43841949, 0.15462115, -0.35171419, 0.09541495, -0.26970628, 0.14811216, -0.40371144, -0.03134159, -0.15678731, -0.38085985, 0.16302918, -0.19942245, -1.10026181, -0.24269237, -0.14635414, 0.28454047, -0.25536963, -0.32871342, 0.37371981, 0.22519869, -0.46973348, -0.57441503, -0.53907669, 0.33697331, 0.13016137, 0.00083752, -0.10458104, -0.06928381, 0.18159319, -0.02197603, 0.52426106, 0.77735263, -0.12758946, -0.75292027, -0.23279481, -0.57995206, 0.46314770, -0.40820488, -0.16431975, 1.32351172, 0.38928011, -0.31273124, -0.20064241, -0.26599935, -0.38062796, 0.49407136, 0.49440998, -0.74432409, -0.14087299, 0.55401009, 0.33044407, -0.41725564, -0.03948964, 0.70394385, -0.63743496, -0.61573207, 0.14728214, 0.02078402, -0.11647803, 0.22652438, 0.16955876, 0.39302459, -0.48095810, 3.19619226, 0.00144565, -0.45725429, -1.23489249, -0.17710957, 0.31594267, -0.13987964, -0.11825787, 0.54363322, -0.23069111, -0.60999882, 0.74273002, 0.01166031, -0.84086639, 0.55081832, -0.50901514, 0.28254029, 0.96786642, -0.18872903, 0.80311275, 0.70475233, -0.52180201, 0.83753890, -0.48771629, 0.20031205, 1.28990602, -0.31612113, -0.00551682, -0.26268891, -0.05216705, 0.71038985, -0.11274908, -0.32101822, 0.37152988, -0.25666073, -0.36101732, 0.97484928, -0.20640549, -0.78869975, -0.69639421, -1.11792290, 0.16487153, 0.35595825, -0.03103185, -0.34237689, -0.08058017, -0.05851044, -0.90142399, -0.24572806, -1.18379021, 
bias
2.17686176, 0.43537816, -0.77073443, -0.43880868, 0.42533731, -0.46209717, 0.38491940, 0.16402268, 0.35847646, 0.09762985, 0.10651837, -0.10848472, 2.36243725, 1.46346593, -0.59775925, 0.45016393, 1.00769389, 1.29750955, -1.40075386, 0.62333357, 0.08368641, -0.91586471, 2.99586272, 2.99474168, 
layer22
kernel
-0.20993806, -0.30025330, -0.06494523, -0.01049815, -0.42027488, 0.01427998, -0.13248229, -0.05632241, -0.01181898, -0.04194275, -0.34351689, -0.11045174, 0.07974856, -0.16198924, -0.01568804, -0.35527980, -0.02801168, -0.26297086, -0.24462868, -0.05051572, -0.31062061, 0.11264483, 0.26994884, -0.02925775, -0.22719403, 0.16089626, -0.11044373, -0.65966678, -0.12991525, -0.29971951, -0.09869775, -0.04122917, 0.62182736, -0.10421599, -0.15435319, 0.21946847, 0.64957625, 0.23176628, -0.02650728, -0.02471385, 0.20543636, -0.53416610, 0.29766989, 0.26093414, -0.19660717, 0.02763064, -0.55718505, -0.41055742, -0.00613569, 0.01966025, -0.04637735, -0.07457874, -0.06702712, -0.10541017, 0.03080539, 0.07838059, -0.00248194, -0.07879723, 0.03835701, 0.07041233, -0.04939800, 0.11988845, -0.08994238, 0.01274010, -0.24415164, 0.03728937, 0.12978368, 0.10228537, -0.18196796, 0.01985555, -0.13395008, 0.38143483, 0.07125682, 0.08284330, -0.10331274, 0.15757605, 0.14045383, -0.03255478, -0.36922234, -0.00109126, 0.05538979, -0.09159752, -0.23623535, 0.32699606, 0.01346123, 0.00112546, 0.11129453, -0.06655786, 0.03543530, 0.06713719, -0.10440701, 0.12352470, 0.01089451, 0.02809720, -0.28168008, -0.06765214, 0.12750824, -0.04641943, -0.12616792, -0.18272905, 0.15905023, 0.39101335, 0.29057938, 0.36742389, -0.00303525, 0.49680856, -0.02765508, 0.14341326, -0.36295617, 0.32328299, 0.19961697, -0.32006624, -0.11035226, 0.30362508, 0.02205928, -0.41889182, -0.00085445, 0.03290463, 0.27306598, 0.06496040, 0.08575240, -0.15810356, -0.14338544, -0.02864223, 0.12006885, -0.14516711, 0.03582700, -0.19629321, -0.10232964, 0.12061109, 0.05387605, -0.05871754, -0.12556878, 0.19923683, -0.17413856, -0.04082341, 0.02352962, 0.15221632, -0.00418546, 0.01977263, -0.14013197, 0.46261364, 0.28723568, -0.24695452, 0.66661656, -0.07861670, -0.33436978, -0.25727895, -0.40389743, -0.23326272, -0.07118626, -0.10687891, -0.21216558, 0.17979009, -0.25223687, -0.58328950, -0.03066715, -0.29801369, -0.32906231, -0.11185465, 0.08299536, -0.21986139, 0.32216263, -0.02305426, 0.47528273, -0.11981583, 0.01957125, -0.09002773, -0.29508486, 0.42336452, 0.10250919, 0.06393158, 0.75510073, -0.05229583, 0.01401757, -0.08621392, 0.17940411, -0.15243623, -0.29237768, 0.27405199, 0.04448659, 0.12900852, -0.05737183, 0.35984942, 0.02433877, 0.26717988, 0.39775026, -0.02454702, -0.06669085, -0.11245295, -0.00003569, -0.02189188, -0.10714202, 0.22374332, -0.08582713, -0.13432167, 0.03072687, -0.00774084, 0.52215183, -0.11767335, 0.12088950, 0.22222984, 0.12940285, 0.19914922, -0.55040354, 0.39022651, 0.00056115, -0.29866076, -0.29185009, 0.00117748, 0.15298797, -0.02336440, 0.34381303, 0.11029512, -0.02959176, 0.13797925, -0.21859357, -0.16150782, -0.18677948, -0.34713274, -0.03931862, 0.18677948, -0.00612149, 0.02142320, -0.15470883, -0.19575927, 0.01661260, 0.10666699, -0.14880782, -0.06875948, 0.02148734, -0.00269995, 0.27862984, 0.08614177, -0.08851501, -0.19652896, -0.15907043, 0.11314526, 0.12507555, -0.07254381, -0.17635520, 0.08611352, 0.19798678, -0.01445890, 0.10865330, -0.16141124, -0.08537045, -0.02664730, 0.39168027, -0.08792991, 0.53335887, -0.05267538, -0.28715515, 0.03981615, -0.08305868, 0.09313140, -0.05473946, -0.01042878, -0.12648697, -0.21367382, 0.12714748, 0.09635136, 0.08016896, 0.04022897, 0.04614427, 0.00528028, -0.17652135, -0.01879252, 0.01310316, 0.18155620, -0.05699435, -0.03390962, 0.02005124, 0.03005797, 0.09873313, -0.00635019, -0.11449217, -0.01954775, -0.24106795, 0.05077632, 0.02368890, 0.07970145, -0.02378960, 0.01059833, -0.15446877, 0.05618877, 0.21750492, -0.13886078, -0.36030239, -0.27542347, -0.42587942, 0.08760100, -0.07269151, -0.07225845, -0.03119548, -0.11834796, -0.03241732, -0.04509966, -0.00130400, -0.26404029, -0.21467194, 0.22308558, 0.26973188, -0.27814552, 0.13412356, 0.07801191, 0.07498051, 0.19524629, -0.36401430, -0.02737531, -0.52115166, 0.49516833, 0.10199822, -0.02873041, 0.13454828, 0.06304686, -0.28987062, -0.21969777, 0.27416930, 0.01733185, -0.08049949, 0.07234687, -0.02263105, 0.08285469, -0.37224218, -0.03002878, -0.28334853, 0.12440281, 0.42224488, 0.00659003, -0.03155363, 0.08810859, -0.09046379, 0.03191596, -0.38890976, 0.69713885, -0.04266141, 0.06799699, -0.00256965, 0.00295424, 0.05073992, 0.07782871, -0.03815807, -0.02270577, -0.01194588, 0.01997283, 0.06321864, -0.07961630, -0.14231929, 0.00314117, -0.04939923, 0.04843669, -0.04884921, 0.04187075, -0.00698705, -0.01577888, -0.01770397, -0.00034484, -0.11392419, -0.17353328, -0.33037019, -0.06162478, -0.26634181, -0.00817615, 0.19351716, -0.42671967, -0.04472271, -0.11946514, 0.00901358, -0.07400088, 0.53022885, -0.07891040, 0.25120410, -0.07819443, 0.16498053, -0.25038585, 0.02477776, 0.06852880, 0.03955748, 0.15587746, -0.25161323, 0.08673497, 0.11148716, 0.18594831, 0.06044971, -0.01166253, -0.17014609, 0.31905311, -0.44462046, 0.15964325, -0.01053202, 0.36199808, 0.74546862, -0.10100237, 0.17026280, -0.08635673, 0.01658574, 0.30901706, -0.25673622, -0.27400756, -0.02892659, 0.35873052, -0.04688353, -0.04101945, -0.13723718, 0.03967742, 0.02999146, -0.18333301, 0.14311033, 0.16796078, -0.05022961, 0.08433288, 0.16699143, 0.03844328, -0.04450167, -0.06084833, 0.01153298, 0.01592807, -0.05860122, -0.04212238, -0.01061321, 0.02313206, -0.07243639, 0.00941805, 0.01975037, -0.09499566, 0.11226759, -0.20303339, -0.23087998, -0.08741715, -0.13059700, 0.03128336, 0.21026404, -0.25323156, 0.38803163, -0.14154008, -0.19678403, -0.00974893, -0.69133180, 0.30161518, 0.02304841, -0.18474832, 0.49779743, 0.12685651, -0.45807955, 0.16151938, -0.21471727, 0.27561802, 0.07967647, 0.00171791, -0.07426040, -0.07510290, 0.26406372, -0.17259224, 0.09821148, -0.28163588, -0.23412710, -0.06468987, -0.10193736, 0.03455706, 0.23556200, -0.14372869, 0.28315270, 0.06283646, -0.05898018, -0.09984481, -0.13619548, 0.03996782, -0.40846688, 0.02681461, -0.28267440, 0.47208059, -0.09691522, 0.24106242, 0.86476362, -0.06289624, 0.15963212, -0.14958784, -0.15927339, -0.01952056, 0.03952038, -0.16100714, 0.08606226, 0.72477591, 0.00607982, 0.04598114, -0.09337634, 0.04973570, -0.07211676, -0.18090141, 0.10327472, -0.08762260, -0.21259573, -0.25413966, -0.18343696, 0.08747631, -0.03488813, 0.18821548, -0.00416597, 0.31889358, 0.35049039, -0.00110549, -0.29041746, -0.09659453, -0.51161933, -0.09563485, 0.34638253, 0.23791201, 0.14417541, 0.11976954, 0.02519680, 0.24966298, 0.04368198, 0.33264294, 0.14074050, 0.10874170, -0.09545406, 0.30064413, -0.07312721, 0.04854056, 0.14715834, 0.17527029, -0.15005089, 0.10169111, 0.05717301, -0.10322778, -0.03161464, -0.39410958, 0.21036661, 0.47401938, 0.40154010, -0.38411477, -0.13586703, 0.43992633, 0.19319382, 0.29042208, -0.62680662, -0.39699438, -0.04678321, 0.01573646, -0.48588878, 0.43133995, -0.02476480, -0.08333851, 0.04637283, 0.15038814, 0.27122897, -0.08081310, 0.13132130, -0.01766208, 0.15783809, -0.08624274, 0.70599568, 1.00034153, -0.00471795, 0.01366169, 0.52297986, -0.17568430, 0.47220248, -0.17229009, -0.41083515, -0.19469188, -0.39019835, 0.36983311, 0.04385319, 0.16414399, -0.26366222, -0.38042304, 0.19401303, 0.41137823, 0.02392918, -0.14187798, -0.22116672, 0.03933889, 0.09164367, -0.09469845, 
bias
2.43282342, 1.11004567, 0.87743312, 0.89745468, -1.43966413, 0.65978146, 0.83996975, -2.25520587, -0.13098478, 1.57784212, 0.68538135, 0.83669227, 1.06287956, -0.43579477, 1.72138166, 0.73242378, -0.17988718, 0.92115086, 0.85273695, 0.18983126, 0.37689811, 0.08505544, 0.04141286, -2.54654384, 
layer23
kernel
