layer0
kernel
-0.62692171, 0.89356703, -0.49868774, -3.65772200, -2.10873675, 0.74752277, -2.60538912, -0.92104572, 1.16733646, 0.10592034, -0.49448296, 0.09153435, 3.11414266, 0.25626799, 0.47332710, 1.76129591, 0.49420089, 0.27389789, -1.84010315, 0.02618248, 2.39624476, -5.54207134, -0.57850814, 5.62911987, -2.14477205, -0.66313833, 2.23423815, -3.00526428, -1.96339357, 0.84071755, -4.48841143, -0.04975105, 1.00519335, 0.98513526, 1.31809843, -1.48543954, 2.21272135, 9.08735943, 5.55038357, 1.44418073, 1.74652970, -0.77909750, -2.94747996, -9.83732033, -7.23610544, 0.25488937, 0.39582822, -4.59640503, 4.25415373, 1.82001007, -5.10498428, 2.65484786, 1.69206560, -1.50174820, 0.08996093, 0.80144483, -0.49972117, -3.57062864, -0.40962118, -0.22330333, -2.18130922, -0.50111157, -0.49165666, -3.77949476, -14.55063820, -6.78028584, -0.68414694, -0.70674330, -0.50372404, 3.53197813, 15.57407761, 7.17519999, 
bias
1.08198905, -2.75456214, 1.09692430, 1.96203852, 0.87077653, 0.65784121, 3.18318295, 2.09756517, 
layer1
kernel
0.01050296, 0.01309929, 0.07703292, 0.01522509, 0.37669504, -0.06957162, 0.03586131, -0.59421557, -0.00280449, 0.04865648, 0.09257528, -0.10248628, 0.26966634, -0.09360994, 0.08092169, -0.47703496, 0.00711729, 0.05407838, 0.00417612, -0.18719439, 0.26222071, -0.01319460, 0.01447599, -0.46471751, -0.40156874, -0.08472505, -0.59202504, -0.17260103, 0.05330326, 0.40156874, 0.07045833, -0.06805137, 0.71022624, -0.09084498, 0.23039220, 0.37703812, -0.02204855, -0.21799201, 0.26292029, 0.08976670, 0.06792877, 0.04529367, 0.24262956, 0.10846085, -0.13829696, -0.21748465, 0.00463844, 0.10189316, 0.04161723, 0.03756525, 0.00364309, 0.01856103, -0.25611901, 0.04355880, 0.07622790, 0.29545701, 0.41241193, -0.47748598, 0.08678266, 0.16869514, 0.02984287, -0.08103170, 0.54919177, 0.01070535, 
bias
2.60131669, 1.77259541, 2.00973535, 1.99091411, 0.74678832, 1.08867359, 0.69315821, 1.98604763, 
layer2
kernel
0.10386754, 0.27168167, 0.12935482, 0.78489876, -2.02436638, -0.16224164, 0.75858927, -1.21461987, 0.10880056, 0.18526600, 0.00103184, -0.18973438, -0.43583912, 0.69912994, -0.00948994, -1.52062488, -1.21127534, -0.09340637, -0.41876149, -0.50189513, -0.07554527, 1.94726026, 0.44080159, 0.44853494, 0.53746861, -1.27832460, -0.13726716, -0.17013277, 0.06409111, 0.01387427, 2.54733038, -2.54733038, 0.41018310, 1.17752850, -1.74677408, 0.25097495, 0.50647175, 1.11850214, 0.22125369, 0.55750340, -0.06536247, -0.08607224, -0.97589308, -1.48760784, -0.42922518, -2.15860510, 0.94042575, 1.16569054, -2.60038662, 3.95853639, -1.73103952, 4.09850693, -2.83439946, -0.20694834, 1.20714355, 0.70771229, -0.36670750, 1.02633786, 0.41922092, -0.64079648, -0.87433708, 1.07508457, 0.37490579, 0.79599744, -0.40182564, -0.48550740, 2.14306998, 0.15039758, -2.31247449, 0.29722339, 1.34196997, -1.53178477, 
bias
2.32240367, 3.04956341, -1.23598695, -0.01621561, 0.72129452, -0.86428815, -3.43708372, 0.05267158, 
layer3
kernel
-0.08080843, 0.08604377, 0.02581313, -0.71782315, -0.29434240, 0.10509458, -0.05065675, -0.19157463, 0.25218850, -0.19762951, 0.41148794, -0.32286963, 0.07516541, 0.61669803, 0.35532740, -0.19357230, -0.34897685, -0.28061002, 0.09192105, 0.05718492, 0.32703826, -0.07580723, -0.21309356, -0.03365195, -0.29786518, 0.53511220, 0.94397140, -0.07404824, -0.07932620, 0.06103624, 0.15259059, 0.11569712, 0.53272718, -0.79442513, -0.18058009, -0.10184802, 0.13668099, -0.01797318, 0.48310211, -0.04368702, 0.16271362, 0.07584732, 0.18805727, 0.16969231, -0.21633932, -1.11267221, 0.08160167, 0.12286164, -0.35181186, 0.11776007, -0.29327446, 0.45420343, -0.19714777, -0.20615353, -0.05026583, 0.19244912, 0.40738314, -0.07308805, -0.77352881, 0.06174774, 0.08909471, 0.04742313, -0.49354783, 0.01318515, -0.55195457, -0.35697061, -0.30920529, -0.06380244, 0.44927070, -0.19371481, 0.67148316, -0.04245804, -0.58932924, -0.06999415, -0.64401394, -0.55272216, 0.27025989, 0.39092776, 0.09524628, 0.06112483, 0.09445284, 0.04765880, 0.02052644, -0.47927848, -0.02884991, -0.49503663, -0.36974010, -0.04292656, 0.20180178, -0.09545591, 0.23553178, 0.49958950, -0.32033864, 0.35753801, -0.12354818, -0.29528207, -0.31170496, 0.04409742, 0.53703851, -0.04280185, -0.36295202, -0.21170603, -0.33991966, -0.03857925, 0.32645601, 0.79429197, 0.09430952, -0.05255352, -0.09633405, 0.00948473, 0.07549822, -0.00030777, 0.24095562, 0.42419183, -0.27554145, -0.06006712, 0.35662347, 0.19113828, 0.37655044, 0.52405560, 0.10951672, -0.02527799, 0.06978508, -0.79463303, 0.01857115, -0.00198977, -0.04145081, 0.54028255, 0.15956135, 0.33971757, -0.26106471, 0.07041490, 0.29793939, 0.05281118, 0.30578506, -0.59117132, 0.00075518, -0.09570686, 0.19951113, -0.04999025, -0.59425974, 0.02271773, -0.85787535, 0.07709407, 0.03102300, -0.11424092, 0.11010981, 0.06379378, -0.30363616, -0.23690294, -0.14808419, -0.73025209, -0.07240341, 0.01047000, -0.03406971, 0.73289984, 0.04546850, -0.09178135, -0.02628054, -0.02334641, -0.88488835, 0.43838504, -0.60196763, 0.42539588, 0.10979922, -0.10376128, -0.10969774, -0.04391461, -0.00183853, 0.00416095, 0.03125359, 0.14504817, -0.07077441, 0.00778059, -0.05782681, 1.01061308, 0.52449167, -0.17407012, 0.25490612, 0.26601487, 0.02275062, 0.62843782, -0.09764788, 0.16325894, -0.25956631, -0.62802380, 0.08530868, 0.04704639, -0.43176636, -0.09029425, 0.07822600, 0.07331956, 
bias
0.03800496, 0.09272468, 1.02339315, -0.08014774, 0.05021890, -0.05811837, 0.52024454, 0.05213811, 0.13744254, 0.08442103, 0.01450461, 0.04259086, -0.13656443, -0.11673583, -0.05619247, 0.08416332, -0.04218515, 0.19962758, 0.38362440, 0.04588320, 0.00689189, 0.90691364, 0.07126825, 0.38447955, 
layer4
kernel
0.04493620, -0.00947754, 0.34212440, 0.12483123, -0.15689588, 0.10937013, -0.24037057, -0.25301364, -0.10830384, 0.37411287, -0.10883699, 0.10898931, -0.01216877, 0.02912287, 0.09652840, -0.38437349, 0.08004559, 0.04507398, -0.00102338, 0.46828604, 0.06960486, 0.11794157, 0.09227478, 0.08333249, 0.09085573, 0.00624854, 0.04015894, 0.28744414, -0.03258763, 0.10139357, 0.12512587, -0.08948315, -0.05835665, -0.59755790, -0.02831493, 0.14673288, -0.00988203, 0.04721978, 0.02621233, -0.12595798, 0.14365456, 0.03163407, 0.27366075, 0.11780367, 0.08426114, -0.44345537, 0.08333583, -0.02090625, -0.06276484, -0.35168156, -0.18159629, -0.45607463, -0.41082439, 0.08901195, -0.04073512, -0.06321139, -0.13644530, -0.26733354, -0.42828938, -0.10856084, -0.14362429, -0.46163648, 0.09729680, 0.03615637, 0.05561118, 0.21552745, -0.04682807, -0.12232639, 0.10931101, -0.09565850, 0.08769455, 0.61927736, -0.29047471, 0.04006836, 0.17920774, -0.12207066, -0.00276706, -0.41722324, -0.09043921, 0.02845716, -0.02971017, -0.24302752, -0.06777371, -0.26775351, -0.04804758, -0.10902887, 0.15168740, 0.22838201, 0.10375328, 0.14624164, -0.50373381, -0.22157480, 0.18731183, 0.34104139, -0.13035813, 0.08060875, 0.37880707, 0.04142006, 0.06817251, 0.18187840, -0.05264398, 0.03395871, -0.06348526, -0.22460580, 0.37702143, 0.10407628, 0.26784337, 0.38748008, -0.04912516, -0.01134730, -0.02113330, 0.65842217, 0.05311205, -0.22861880, 0.02966468, 0.39768520, 0.23107228, 0.08921710, 0.32698065, 0.09981162, -0.12452581, -0.16856286, 0.07300878, 0.29856697, 0.08407073, -0.17751776, 0.33354375, 0.15202263, -0.31626606, -0.28655684, -0.36641350, -0.18468168, 0.09195453, -0.02792235, -0.02857664, 0.63660830, -0.18037236, 0.01812565, 0.02908946, 0.69772267, 0.02933703, 0.37970150, 0.16240585, -0.09542051, 
bias
0.59378994, 0.40165791, 1.15683198, 1.33540583, 0.60874784, 0.64472371, 1.04826808, 0.23409358, -0.15902293, -0.05901188, 0.88497710, 0.15124989, 
layer5
kernel
-0.03781967, -0.02620726, -0.18656012, 0.00262747, -0.60308415, -0.89599621, -0.01478521, -0.00653198, -0.11529923, -0.01393828, -0.15133536, -1.23953795, -0.10490641, -0.24066314, 2.26297021, -0.06116343, 0.07160036, -1.06947756, 0.05058816, 0.04295151, 0.10713663, -0.09566303, 1.11457860, -0.34569815, 0.05237625, 0.13254246, -0.06671826, 0.00830770, -0.02015255, -0.50746828, -0.10890729, -0.67787737, 2.45756650, 0.02774891, 0.08066239, -0.11673859, -0.47374129, -2.52194977, 0.60071445, -0.81437963, -0.40959793, 6.31888533, 0.38201410, 0.76577955, -2.91075039, -0.17611022, 1.48290980, 0.04064929, -0.04332987, -0.32666317, -0.14761533, 0.00048970, 0.01931484, -0.03848280, 0.03901451, 0.18887511, -0.10500275, -0.08434454, -1.00009370, 0.17234853, -0.27410498, -0.50618529, -0.20729043, 0.02356435, 0.01451814, -1.35984278, -0.06718735, -0.24436200, 1.26326859, 0.02763400, -0.01640054, -0.01761992, 0.10288004, -0.42098388, -0.47623995, 0.03461135, 0.06689492, -0.35168487, 0.06842133, 0.74366701, 0.26162669, 0.07020362, 0.09484168, 0.12103818, -0.04975849, -0.05280114, -1.23012185, 0.05807012, 0.00333254, -0.27398708, -0.27249432, -0.01086830, -0.14559624, 0.17426673, 1.21163988, 0.26177406, -0.10988277, 0.45149791, -0.03032216, -0.03713129, -0.00536716, -0.07971749, 0.01786352, -0.36099711, 0.80797678, -0.01047777, -0.05263191, 0.02057748, 
bias
3.15420055, 0.24887285, 0.61855704, -0.55814779, 0.40700242, 0.18667644, 1.60603356, 0.48069945, 0.39152327, 1.62799501, -0.95008534, -0.07069483, 
layer6
kernel
0.13615893, 0.10292474, 0.30859008, -0.23678213, 0.06085264, 0.31466615, 0.46067566, 0.15365061, -1.04360902, 0.66210622, -0.04356810, -0.23549327, -0.16463344, 0.10237709, 0.18896630, -0.23519062, -0.18733868, -0.00999967, -0.01485200, 0.26855677, -0.04850298, -0.28141493, 0.03706897, 0.38053679, -0.21280664, -0.08518654, -0.07866181, 0.61724877, -0.16033502, 0.94905198, -0.40298206, 0.19254804, -0.07875306, 0.44970462, -0.00069119, 0.33472332, 0.26947656, -0.33878717, 0.19531226, -0.01891723, -0.11095522, -0.06314643, 0.03858679, -0.01934193, 0.26928240, -0.17735362, 0.55759126, 0.21200894, 0.82960951, 0.08739852, 0.86424422, 0.32226515, 0.29818320, -0.14733280, -0.01415491, -0.17790876, -0.11513335, 0.47054499, -0.08022806, 0.19062619, 0.07926182, 0.08005773, -0.01643290, -0.01415055, 0.00905331, 0.81200069, -0.14906654, 0.14813019, 0.07275421, -0.10150009, 0.08029181, -0.03209332, -0.37702364, -0.66241616, -0.59910166, -0.13458312, -0.12734489, -0.06100783, 0.02612917, -0.00203699, 0.01520224, 0.02009401, -0.13681026, -0.05122431, -0.24249929, -0.79653889, 0.18344359, 0.00661524, -0.55308861, -0.07507969, 0.18972003, -0.59150809, -0.13342217, -0.55004543, -0.14179076, 0.56107682, -0.24190259, -0.01866214, -0.32308719, -0.72873497, -0.62250704, 0.18672459, 0.01462871, 0.47032028, -0.00969227, -0.32033518, -0.09177988, -0.38060442, 0.31947738, -0.00478232, -0.33444074, 0.58221060, -0.11067054, -0.01234598, 0.09206351, -0.16236213, -0.02375676, -0.32025468, 0.12573107, 0.21162461, -0.79651922, -0.14996918, -0.35553667, -0.29686579, -0.06145078, 0.03509644, -0.11624440, 0.15684581, -0.04824618, 0.11097719, -0.22327118, 0.02975608, -0.05800899, 0.00988054, -0.35792434, -0.26245627, -0.04830037, -0.00621958, -1.00775445, -0.05141522, -0.41649967, -0.06929526, 0.22006199, 0.01962961, 
bias
-1.25682437, 1.06754792, -1.27241266, 0.23173922, -2.62117648, 0.21539348, 1.26325405, 1.69634032, 2.31084633, 0.84168077, 2.29595923, 2.54291153, 
layer7
kernel
-0.71229768, -0.31134549, 0.27742654, 0.20477927, 1.08338106, 0.06897695, 0.61205965, 0.06027573, -0.31564862, 0.31735110, -0.11552849, -0.05036760, 1.61458099, -0.16501553, -0.07929375, -0.03315280, -0.04759386, -0.02661470, -0.14590316, -0.10497193, 0.02430903, 0.00443095, -0.44064710, -0.06624395, -0.26810926, 0.13836318, -0.07114003, -0.00132759, 0.73196852, 0.03237446, 0.17298800, 0.28900805, 0.10893381, -0.10483489, 0.28650704, 0.01940036, -0.02222064, 0.01836604, -0.06707761, -0.31350756, -0.53873718, -0.03197052, -0.04614184, -0.09591155, 0.00785092, -0.08740343, 0.30063576, 0.02825139, -0.33696851, -1.69980311, -0.52860600, -0.04697433, 0.56885701, 0.07805309, -1.03293097, -1.57295454, 0.53795254, -2.75448251, -2.36719823, -0.55400306, -0.86828333, -1.29129314, -1.09868646, 0.33007783, -0.04033022, -0.05396298, 0.77458817, -0.00861729, 0.05608018, 0.61264759, -0.01129608, -0.08468831, -0.15220509, 0.21066165, 0.07201467, 0.09783640, 0.50444335, 0.10335502, 0.86771888, -0.52842551, -0.16106214, 0.13314785, -0.05418517, 0.00059099, 1.29844189, -0.16868731, -0.00657371, -0.09798381, 0.03491377, -0.01770716, -0.29312807, 0.28464228, 0.16464241, -0.79692459, 0.63052970, 0.21915427, -0.38001499, 0.22247478, 0.15163705, 0.09476341, -0.89993256, -0.27889869, 0.18715088, 0.29790619, 0.13816999, 0.04952919, 0.67440110, 0.30265805, 
bias
-0.45807925, -0.76203573, 1.80617976, -0.85539591, 3.23599458, 2.12985897, -0.11936438, -1.17054963, -0.08622283, -0.42312026, -0.07621288, 0.03788942, 
layer8
kernel
-0.02851471, 0.14690146, 0.09610422, 0.07132387, -0.04476290, 1.19103944, 0.01927773, -0.09694507, -0.04157262, -0.06944433, -0.21228991, -0.44990426, 0.28583521, -0.09104270, 0.18417834, -0.23246536, -0.30407366, 0.05460320, 0.04563347, -0.18911168, -0.16848132, 0.66973943, 0.07960630, -0.01950915, -0.14744337, 0.55432796, -0.28233314, -0.23310329, 0.09864429, -0.93536693, 0.05479896, -0.27002567, -0.50657505, 0.34436274, -0.20479614, 0.47752944, 0.01366728, 0.26738167, 0.25366467, 0.10436831, -0.25167671, -0.01610254, 0.04000785, 0.06177610, 0.16182058, 0.33636412, 0.25187552, 0.03382030, 0.07142060, 0.66665328, 0.28256717, 0.20157191, 0.20450386, -0.24151979, 0.02305479, -0.23052497, 0.45775148, 0.48743752, 0.22814275, 0.35330057, 0.33344969, 0.21503715, 0.01223596, 0.75026178, -0.04768078, 0.26208639, -0.22987820, 0.14793672, -0.40765488, 0.36944711, -0.05482500, 0.04176015, -0.01066240, -0.27166992, 0.09441925, 0.38711894, -0.91157496, 0.07880788, 0.12231585, 0.06389394, -0.16770147, 0.16555557, 0.32081085, 0.00056665, -0.05692326, 0.44791687, 0.14541543, 0.16980694, -0.13514532, -0.09715758, 0.09015523, 0.25395182, 0.11227098, 0.39586607, 0.35922045, 0.02838869, 0.07988210, 0.22552538, 0.08888674, 0.19278122, -0.07190071, -0.13670686, -0.06453327, 0.10430378, -0.04853639, 0.36564308, -0.01817983, 0.03187439, -0.16261524, -0.23809642, 0.30318451, -0.62610537, -0.32858986, -0.08157007, 0.22654854, -0.31137300, 1.33955479, 0.56857592, 0.05758196, -0.20859681, -0.02416345, 0.34510145, 0.18935394, -0.07653232, 0.69754547, 0.04447911, -0.87489712, 0.03542444, 0.27619413, -0.16958545, 0.24668257, -0.07815616, -0.09525805, -0.23825598, -0.10257422, -0.28762168, 0.77507091, 0.02697377, -0.10752557, -0.00426315, 0.02998522, -0.53031170, 0.04282548, 0.15327013, 
bias
-0.75285852, -0.41506109, 0.67556202, 0.59126306, -1.95269823, -0.20923662, 1.76756632, 0.01418549, 0.79201496, -0.23796423, -1.93975472, -1.06437957, 
layer9
kernel
-0.32725319, -0.43394467, -0.12098714, -0.30101353, -0.31512356, -0.06448522, -0.16672090, -0.77679318, -0.12934175, -0.01364192, 0.02865950, -0.06542009, -0.12854743, -0.10646050, 1.30106497, -0.19014625, -0.02539232, 0.56463045, 0.05535903, -0.01455983, -0.09297552, -0.01535191, -0.29793644, -0.25023896, -0.28918037, -0.64656585, -0.49679115, 0.52915263, -0.36559206, -0.82795155, -1.15271246, -1.59170628, -0.23708020, -0.36205181, 0.96342599, 0.77838778, -0.77766478, 0.10745688, -0.09720810, -0.35429713, 0.58883888, -0.20423019, 0.36249614, 0.48647529, 0.25267896, 0.17291124, -0.03008107, -0.17774178, 0.32123068, 0.05261442, -0.02025532, 0.40752161, 0.15852942, 0.10758922, -0.12759909, -0.29459330, -0.00465741, -0.11296435, -0.44679457, -0.04631696, -0.02826086, -0.28953046, -0.06644961, 0.11827663, 0.60196233, 0.33395755, -0.48988065, 0.38084885, -0.43993953, 0.07943882, -0.80210811, -0.92181432, -0.02939108, -0.36834398, -0.05259457, -0.20728448, -0.93105125, 0.09417886, 0.05491492, -0.78182101, 0.19800308, -0.45662776, -0.60865951, -0.38527137, -0.38766766, -0.67096323, -0.35571703, 0.21979372, -0.30672607, -0.27091473, -0.04588331, 0.23423085, -0.06253688, 0.69876248, 1.05954087, -0.26075867, -0.07923958, 0.18923180, 0.10041272, 0.00078473, 0.31615737, -0.12783228, 0.75087374, 0.54252881, -1.18628347, 0.82436651, 0.42327648, -1.32217562, 
bias
0.91247404, -0.45213541, 0.86362672, 1.97216749, -0.17909721, -0.12253112, 1.25401378, 1.43007398, 3.48854160, 0.75296354, -0.61880267, -0.22670224, 
layer10
kernel
0.33027196, 0.25263116, 0.51282734, 0.62630230, -0.32609129, 1.09811938, -0.48973417, -0.04904807, 0.53233707, 0.83613151, 0.41886207, 0.26457590, -0.10757075, -0.44661072, 0.85960561, -0.32319251, -0.72178054, 0.26220372, -0.00943195, 0.40026885, 0.29750037, -0.22426581, 0.33855975, 0.36113039, -0.86896694, -0.54195714, 0.05249908, 0.98006332, 0.09376776, 0.22448714, -0.18318827, 0.01494367, 0.91920179, -0.05566895, -0.04440836, -0.37241438, -0.03759348, -0.19377153, -0.10525354, 0.21936709, -0.02625186, -0.42331120, 0.05008362, 0.87549943, 0.13462281, 0.40165341, -0.52208382, -0.22904746, 0.40201882, 0.51551980, 0.35934764, 0.05374511, 0.42259631, -0.19017915, -0.89154607, 0.35566536, -0.50338995, 0.27335545, 0.76721478, -0.03698530, -0.06292097, -0.43047673, 0.11343902, -0.65258443, -0.09082754, -0.67013931, -0.52397567, -0.00713764, 0.41597486, -0.40681577, 0.94796473, 0.11534715, 0.06459460, 0.25097826, 0.05271045, 0.19240414, -0.24884602, -0.01471409, 0.00376867, -0.32560700, 0.38530996, -0.15753558, -0.50822788, 0.27643985, -0.21502681, 0.03935050, -0.13925168, 0.05018615, 0.06838606, 0.08737943, -0.19806667, -0.17575069, -0.36379996, -0.25846857, 0.18467708, 0.13528439, -0.03946698, -0.28819761, 0.19672145, -0.07218573, 0.23625660, -0.33918431, -0.02695888, -0.02716338, 0.10551795, 0.21621637, 0.66473585, 0.45697179, 0.02228267, 0.22911906, -0.01453077, -0.05513907, 0.06227472, 0.27504668, 0.20537683, -0.27556562, 0.53815734, 0.16956887, -0.24806096, 0.09886111, 0.19339366, -0.12531398, 0.13415432, 0.15894370, -0.00380784, -0.00109223, 0.22346902, 0.13725299, 0.30366996, 0.24807613, -0.20177831, -0.13615935, -0.22523753, -0.08092112, -0.17724229, -0.53286064, -0.73391157, 0.23884249, 0.23657499, 0.34598148, -0.10742243, 0.39492151, 0.15088269, 0.08847943, 
bias
-1.21392906, -0.69757712, -0.63612139, -0.41864228, 0.39467752, 0.23271593, 0.57908207, 1.65911841, 0.17263445, 0.15448487, 0.08640003, 0.70277423, 
layer11
kernel
0.02271537, 0.06683993, 0.16382688, -0.01873680, 0.23036654, 0.10713606, 0.03582212, 0.22099815, 0.35407746, 0.34699017, -0.48823297, -0.36608204, 0.22891714, 0.42372841, -0.07845277, -0.07534803, 0.36367241, 0.33308834, 0.07234061, 0.06467317, -0.03036416, 0.11623391, 0.21846640, 0.20979887, 0.08206380, 0.12612379, 0.19357501, 0.29687059, 0.05132744, -0.30726245, 0.83640552, 0.91729361, 0.91617018, -0.61789525, 0.21471860, -0.57408088, -0.23407108, -0.43461472, -0.25036913, -0.14295720, 0.13969760, -0.11672510, -0.23919332, -0.29010534, 0.01879127, 0.01984440, 0.01329170, 0.01790046, 0.01021379, 0.02332729, -0.00010340, 0.00800661, 0.00702249, -0.00472621, -0.00320825, 0.90417975, -0.20870408, 1.23626471, -0.36308372, -0.29817060, 0.41894275, -0.42293268, 0.02179116, -0.12584868, -1.13207543, -1.70899129, -0.32915711, 0.50001872, -0.41862035, 0.31771633, 1.28887057, 1.51468539, -0.01663900, 0.16502771, 0.08374637, 0.02413141, 0.75092798, 0.22198303, -0.02254211, -0.10139085, -0.00363674, 0.38259694, 0.68715870, -0.45978999, -0.50863218, 1.23172069, -0.18428092, 0.04459654, 0.19719321, -0.29417577, -0.76914108, -0.68924642, 1.57471073, -0.29246402, -1.52751911, 1.24768090, 0.61100763, -1.28659332, 1.27417445, 0.29132450, -0.07527860, -0.23955655, 0.23288159, -0.18482195, -0.74996775, -0.09085349, -0.60638213, -0.25246146, 
bias
-0.25495929, 0.25233173, 0.22240454, -1.75443411, 1.25442266, -0.34574139, -0.96728122, -0.19990170, -0.48488605, -1.02177203, -0.40850139, 1.44444644, 
layer12
kernel
-0.01066676, 0.06261448, 0.05327353, 0.07189516, 0.02113766, 0.14764723, -0.17368135, 0.14945515, 0.09039626, 0.08268245, -0.06876142, 0.09702532, -0.01577415, 0.06400055, 0.09256577, 0.11618933, 0.04637328, 0.00134747, -0.03028275, 0.02671210, 0.09853192, -0.00070481, 0.04537892, -0.06466346, -0.05776321, 0.07448652, 0.00310925, -0.03326583, -0.09491608, 0.09491608, -0.01601520, -0.08075399, 0.00101790, 0.07081041, -0.01753687, 0.06315685, -0.02523562, -0.06345817, -0.03549560, -0.12944745, -0.18091305, 0.01056883, 0.11745487, 0.24238251, 0.13631757, -0.16331591, 0.20875511, -0.00776655, 0.06600731, -0.03549345, -0.12349398, 0.04465038, 0.10606539, -0.03989210, 0.17561375, 0.01672314, -0.03137146, 0.07380868, -0.03848121, -0.13500237, -0.10877651, 0.06512205, 0.13068673, -0.01955875, 0.09129259, 0.17030218, -0.18800741, -0.02759526, 0.05253474, 0.07148486, 0.04240956, 0.37468693, -0.12083820, 0.10944045, 0.06412613, 0.24234034, 0.20493804, -0.09262048, -0.19686003, -0.03275467, 0.01994605, 0.01730410, -0.13544501, 0.02817621, 0.07320006, 0.07557920, 0.17140876, -0.04301818, -0.00894252, -0.05198145, 0.09367173, 0.57276422, -0.04005808, -0.05657374, 0.03416556, 0.09167989, 0.15800868, 0.15495938, -0.05142212, 0.07960495, 0.14091417, 0.14220780, -0.04421471, -0.02483323, 0.03901706, -0.03908636, -0.02274262, 0.03887845, -0.07419939, -0.18101695, -0.02327394, 0.04063410, 0.15634543, 0.06763880, -0.15311132, 0.03234095, 0.21733123, -0.06066240, 0.01887326, 0.07369118, 0.05636567, 0.18166378, 0.15643783, -0.05835233, 0.22768034, -0.03301088, 0.04541595, -0.15754665, 0.00391557, 0.10986685, -0.09803930, -0.06731539, -0.10506191, -0.06232565, 0.05077530, 0.11578062, 0.16761856, 0.00218446, -0.02788253, 0.04569315, -0.20273159, -0.09766969, -0.07720248, -0.03515924, -0.02986221, 0.01621976, 0.03528944, -0.07251188, -0.19260503, -0.01781820, -0.06002180, -0.01097219, -0.02324544, -0.00496258, 0.07731957, 0.03702418, -0.09798769, -0.18933381, -0.08138380, 0.01379113, -0.08371330, -0.16108243, 0.14323945, 0.06715898, -0.10140759, 0.06081482, -0.02740880, -0.16762486, 0.01541435, -0.00388766, 0.16316412, -0.04383921, -0.09788856, -0.01538957, 0.04146014, 0.04817604, -0.01750842, -0.02231611, -0.02025921, -0.12609038, -0.01613303, -0.01858643, -0.11478982, 0.05427239, 0.01222987, 0.02572363, 0.01687648, -0.13501187, 0.05432196, 0.01529044, -0.05377675, -0.02320826, 0.12051647, -0.11286464, -0.52531540, -0.14929405, -0.14829598, 0.13407354, 0.04150291, -0.01824589, 0.16551262, 0.03611752, -0.20094396, 0.16401552, 0.27962485, 0.30940047, 0.12226309, -0.09173890, 0.07672632, 0.17066929, 0.10346618, -0.19229406, 0.07123696, -0.18497491, 0.10321666, 0.33468482, 0.18031727, 0.01098912, 0.02572099, -0.03058656, 0.19961321, -0.06978145, 0.04341587, -0.02542989, 0.29176798, -0.15470023, 0.29725733, 0.50834829, -0.05859479, 0.01820431, -0.08159190, 0.24851844, 0.04062961, -0.03688686, -0.07880563, 0.17981823, -0.28045654, -0.04828145, -0.14704840, 0.14696522, -0.34152213, 0.01320366, -0.08245691, -0.33242643, 0.20952609, -0.24385156, -0.53534728, -0.19783162, -0.06177501, -0.31423500, -0.24146935, -0.30275708, 0.37205771, 0.12008498, -0.16188192, 0.37985402, 0.22479390, -0.05977178, -0.01403608, -0.09647946, 0.35213378, -0.27590311, -0.28781414, -0.12993866, 0.07173697, -0.32203132, -0.36729330, -0.05950108, -0.63799882, 0.10822808, 0.01038156, 0.06588973, 0.22977488, 0.07092486, 0.20216291, -0.15668437, -0.14498989, 0.47340986, 0.11434603, -0.07964157, -0.03419011, -0.01021913, -0.20216291, 0.13719358, 0.23930371, -0.14314909, 0.00692668, -0.02977761, -0.09487711, -0.20776992, -0.03798873, -0.36469176, -0.50342953, 0.46133679, -0.31266510, -0.02382451, 0.48490873, 0.50443977, -0.20440251, 0.37176335, 0.29262894, 0.06936889, 0.41857052, -0.19547883, -0.58694160, -0.04322928, 0.34297189, -0.18655516, -0.41688681, -0.15852138, 0.31249675, -0.24211763, 0.29953218, 0.02350881, 0.34179330, -0.30340469, -0.28286344, -0.08338578, -0.12669924, -0.17005479, 0.13638058, -0.09731849, -0.08629018, -0.08965760, 0.00637705, -0.02283533, 0.10481101, -0.03895686, -0.20255041, 0.00991811, 0.36233458, -0.04253475, 0.23672974, -0.24464320, 0.00338058, 0.16525622, -0.07630078, 0.06161361, 0.22716165, 0.57704282, 0.32580146, 0.11307312, 0.00953760, 0.45664424, 0.19408831, 0.04692643, -0.21106015, 0.00626925, 0.09320010, -0.11184012, -0.09987280, 0.02623746, -0.04913858, 0.07985472, -0.08391636, -0.15651815, 0.07332709, -0.12221181, 0.06585657, 0.14339036, 0.16812283, 0.04750667, -0.07405238, -0.02598361, -0.07811402, 0.46215647, 0.07049844, -0.10306408, 0.09602875, 0.01593831, 0.03767895, 0.01319126, -0.01739796, 0.03873063, 0.08145037, 0.01158655, 0.08609223, -0.02070710, 0.12794162, -0.09044399, 0.02993645, -0.06955557, -0.00228354, -0.21236569, 0.39390802, 0.11100814, -0.10012251, 0.07455393, -0.06657957, 0.03784656, 0.08455352, 0.02186620, -0.05031441, 0.01283176, 0.32910052, 0.19771348, -0.22783883, -0.06778205, -0.07784493, -0.14088035, -0.10157815, -0.13290599, 0.06803521, 0.31416443, -0.02580591, -0.03961864, -0.05135867, -0.09290762, -0.08847741, 0.35036549, 0.03306827, -0.01111505, 0.35213757, -0.07100977, -0.00567619, 0.12151404, -0.20986488, 0.15644933, -0.02637551, -0.06771877, -0.02398637, -0.02988802, -0.12258995, -0.15379120, 0.03023611, 0.04873220, 0.18151160, -0.03164428, -0.15366463, 0.20594099, 0.19163777, 0.03023611, -0.00214723, 0.31065232, -0.13456149, -0.10603054, 0.23282573, -0.11224359, -0.13407099, -0.06560487, -0.04251032, -0.26797849, -0.06695375, -0.21778361, -0.16955076, 0.06131295, -0.17380179, 0.03644034, 0.24868535, 0.04753798, -0.15303713, 0.00579918, 0.27566305, -0.04324607, -0.30574727, -0.08011559, 0.01832235, 0.00984584, 0.31997189, -0.25244588, -0.22383316, -0.16521798, 0.06662674, 0.04721098, 0.07950246, 0.19440295, -0.03327250, -0.14200081, -0.14281832, -0.01207865, -0.22563168, 0.01782163, 0.12646820, 0.10897356, 0.06176258, 0.03576589, 0.05861519, 0.01882308, 0.07308504, 0.17919733, 0.04356926, 0.04855526, 0.08396985, 0.17567499, 0.22814450, 0.11807968, -0.03897934, 0.06929144, 0.08331747, 0.10260911, -0.05055898, -0.04953382, 0.10941243, 0.08014880, 0.07054958, 0.00630240, 0.16160235, 0.11714772, -0.10149075, -0.00750813, 0.06649555, 0.13224553, 0.21658815, 0.15656975, -0.04892804, -0.15573098, -0.08932863, 0.20931885, 0.01220871, 0.08275829, -0.09259050, -0.07996241, 0.01337367, -0.04109956, -0.18322389, -0.02732981, -0.11425864, 0.12292589, 0.05125795, -0.00522482, 0.03164013, -0.04762330, -0.09044699, 0.14995281, 0.18341027, 0.06989721, 0.16663495, 0.01474831, -0.03958566, -0.08231681, 0.14314935, 0.18374394, -0.01041572, 0.10249541, -0.06599589, 0.19976813, 0.26113480, 0.08546230, 0.04365106, 0.12795605, 0.19300236, -0.05068389, 0.07080314, -0.14136888, -0.09098174, 0.09400853, 0.06350324, -0.07204947, -0.15193297, -0.12759995, 0.05433384, 0.09139718, 0.07543235, 0.00679173, 0.07448277, -0.04638110, -0.11715457, -0.06575849, -0.01146916, 0.02427367, 0.04222668, 0.01418437, -0.02299767, 0.02719660, -0.05623300, 0.02759720, 0.15679958, -0.11757001, -0.04872538, -0.01117983, -0.05228631, -0.00119347, 0.02075725, -0.00873911, 0.00033940, -0.01186976, -0.00092250, 0.00990187, -0.25475314, -0.14673704, 0.26414585, 0.13935706, -0.30689222, -0.21660726, 0.16772686, 0.04255470, -0.11980490, 0.05880024, 0.17826968, 0.31590155, 0.36018145, -0.15689650, 0.04955131, -0.12335113, -0.19763017, -0.05343299, 0.18162423, -0.32586932, -0.07135580, 0.22446646, 0.22657503, -0.20529768, -0.15459624, -0.37206611, 0.13178539, -0.58234763, 0.05170779, 0.02269105, 0.17683204, -0.08252162, -0.15986766, 0.28734007, -0.24574381, -0.12124256, -0.01552671, 0.02882506, -0.02046268, 0.13734433, -0.02980746, 0.05745843, 0.00508572, -0.02144508, -0.16197622, 0.08151525, -0.07391545, -0.03951858, -0.15132296, 0.20021193, 0.08660330, 0.02575400, 0.04036249, 0.28797925, 0.10115358, 0.03279634, -0.07647630, 0.02589951, -0.04583340, 0.28565121, 0.09160860, -0.00285367, 0.08997896, 0.11622768, -0.05165351, -0.07688371, 0.01218586, -0.00113674, -0.02832941, -0.22593683, -0.04519319, -0.13386263, 0.22721726, 0.08188900, -0.07292603, -0.03320375, 0.05412706, -0.06204242, -0.09085198, -0.13991554, -0.10965095, 0.09352923, -0.05319584, 0.03256354, 0.12850812, 0.14561926, -0.00811178, -0.04859795, 0.03099211, 0.13153458, 0.15795790, 0.01584526, 0.10650809, -0.00627117, -0.31313732, 0.28912300, 0.01046169, -0.23978662, 0.27366823, -0.32573891, -0.01504611, -0.33120751, -0.40206167, -0.71282130, -0.17440109, -0.50073439, -0.04591849, 0.05605324, -0.44652385, 0.39326432, 0.69712877, 0.62342143, -0.71852767, -0.30505329, 0.62389702, 0.21850660, -0.39183775, 0.33001867, -0.02101254, 0.18129629, 0.23372361, -0.01735689, -0.00930258, -0.04731536, -0.12048773, -0.27723470, -0.28840971, 0.14907904, 0.00104115, 0.21993320, -0.21054146, -0.36592129, -0.05415112, -0.07234019, -0.04698843, -0.02979500, 0.18224734, 0.11686181, 0.07085416, -0.22076538, 0.04574016, -0.01234152, 0.16781895, 0.15935656, -0.17441301, 0.01835348, 0.06352282, 0.11396742, 0.05841242, -0.01285156, 0.10407632, 0.02843690, 0.04709261, 0.10523028, -0.04533419, -0.10055949, 0.18727143, 0.04058097, 0.17001696, 0.09407532, 0.19232689, -0.05967629, 0.10275751, 0.21529621, 0.00429988, -0.02291437, 0.06495154, 0.16529122, -0.02331277, 0.04014137, -0.25299227, 0.05088420, -0.05995104, -0.10127384, 0.02421945, 0.18573283, 0.24463980, 0.06286342, -0.35717851, -0.03159656, -0.06533619, -0.07154560, -0.12792486, 0.01183497, 0.24771702, -0.00697528, 0.14408031, 0.16188429, 0.26442200, -0.05212058, 0.02740823, -0.03413285, -0.11104450, -0.27290598, 0.05795331, -0.01131227, 0.00635702, 0.01916419, 0.10382974, 0.00310499, 0.09159602, -0.08626338, 0.08336179, 0.26600489, 0.14006037, -0.06995176, 0.08540075, -0.29517761, -0.09026286, 0.16374357, -0.04105353, -0.19134785, 0.09928130, -0.25110486, -0.14617722, 0.24624273, -0.01709583, 0.05579672, 0.11096607, 0.28231651, -0.09536024, 0.01022417, -0.02693770, 0.10743712, 0.03566207, 0.06277622, -0.09488972, 0.17644782, -0.14500090, 0.02699652, -0.00848910, -0.03393680, -0.04309248, -0.14719670, -0.24953642, 0.08445969, -0.09598761, 0.03179982, 0.15917981, 0.00154427, -0.13339716, 0.13190252, 0.05028861, 0.13999853, 0.04845145, 0.04378068, 0.00947388, 0.09266806, -0.06009723, 0.01193381, 0.00014754, 0.21348529, 0.01501652, -0.05959902, 0.03745957, 0.16752492, 0.03521760, -0.03425231, 0.09534597, -0.08681403, 0.13526547, 0.16677760, -0.09042609, 0.06626265, -0.09534597, 0.01924357, 0.03045342, -0.06062659, -0.01384105, -0.03935901, 0.04169440, 0.07604012, 0.17823654, 0.20763126, 0.08320197, 0.10917144, -0.15743606, -0.06374043, -0.03068695, -0.01532012, 0.09360221, -0.01577942, -0.02567366, 0.00586571, 0.13277440, -0.01829385, 0.11285205, 0.28279397, -0.21320187, -0.01568312, 0.03830885, 0.01284107, -0.12214575, -0.03938758, -0.01226021, -0.15290347, 0.12989050, -0.09581360, -0.14925237, -0.04904085, 0.11384781, 0.04500252, 0.25778949, 0.13254584, -0.13155009, 0.07529002, 0.34984136, 0.08292413, -0.16817169, 0.05081108, 0.01228787, 0.38635233, 0.05592815, -0.12977986, -0.01654057, 0.01391980, 0.05451750, -0.08203901, 0.02568214, 0.38170546, 0.15345666, 0.17735474, -0.10339239, -0.29319406, -0.21275932, -0.04685573, 0.01887782, -0.01540652, 0.04093653, 0.26420656, 0.04710467, -0.17403556, 0.31421551, -0.14029059, 0.19296205, 0.39423499, -0.03502831, 0.09594827, 0.27063701, 0.13574469, 0.15172720, -0.01487704, -0.23142660, -0.33712420, 0.05231605, -0.21789475, -0.18614285, -0.05268897, -0.17825815, 0.27404660, -0.17783195, 0.21299344, 0.00697902, 0.12604864, 0.45901740, 0.35395908, 0.12722069, 0.07511774, -0.37931800, -0.03055321, -0.17079964, 0.14149840, 0.14416215, 0.14000669, 0.22929560, -0.45688638, -0.25550690, -0.25060558, 0.13617089, -0.09392382, -0.24634360, 0.08481380, -0.15353854, -0.11155785, -0.07437190, 0.05127719, -0.05620512, 0.05902870, -0.00843077, 0.02257528, 0.06222520, -0.00216263, 0.01336478, 0.18804711, 0.12527519, -0.10091861, -0.31269547, 0.31699371, -0.03472156, 0.00779052, 0.38397428, 0.39257073, -0.17891340, 0.15992959, -0.03691544, 0.06223464, 0.25914684, -0.02829661, -0.11757421, 0.01102538, -0.22923839, 0.01448410, -0.20649363, -0.04390005, 0.37895972, -0.13673711, 0.16736193, 0.12634975, 0.03073675, 0.06330919, -0.09039693, -0.16207869, -0.09366537, -0.26075867, 0.08985966, -0.12554383, 0.03147550, 0.08663599, 0.02509533, -0.01595042, -0.08994920, -0.00274515, -0.02019268, -0.00355666, -0.05954825, 0.11936514, 0.01543553, -0.07405474, -0.06178691, 0.10145590, -0.01443613, -0.10074991, -0.32135245, 0.42472050, 0.38709685, 0.04201145, 0.02533293, 0.41735092, 0.01930878, -0.00589385, 0.03810848, -0.15127032, 0.07165946, 0.29517105, -0.02804804, -0.10491954, 0.03250857, -0.13682206, -0.09250762, -0.05721121, 0.12518588, -0.17493054, 0.08334412, -0.15825202, 0.13759780, -0.01484825, -0.34753385, -0.35005501, -0.03342977, -0.62059617, 0.05158706, 0.17105182, 0.15476117, 0.11781630, -0.04130843, 0.11461635, -0.00423630, 0.08508955, 0.14535525, -0.00487568, 0.15010670, -0.06157478, -0.01286040, -0.10918614, -0.09847116, -0.05667788, 0.09226520, -0.06298082, -0.06335613, 0.02489122, 0.01149178, 0.10690201, -0.11489948, -0.02978875, -0.16890077, -0.12876666, -0.09670340, -0.10528784, 0.08452376, -0.04615056, -0.55996990, -0.11159778, -0.08063508, -0.17007472, -0.09398866, -0.21277682, -0.12451112, 0.11196463, -0.08349656, -0.05656929, -0.10822269, -0.27528918, 0.10594818, -0.29656687, -0.32841000, 0.10947000, 0.24770157, -0.26545742, 0.18783057, 0.13727774, 0.08334982, -0.27176735, -0.03081595, 0.06948264, 0.15290582, -0.02151614, -0.11453263, 0.07931440, -0.32518166, -0.07219738, -0.08936626, 0.09743711, -0.24623413, -0.00285919, 0.00323063, -0.00431286, -0.08884274, -0.10786865, 0.11779521, 0.29233727, 0.19389887, -0.16205114, 0.08851185, 0.24733686, 0.17818181, -0.20763060, -0.14815396, -0.11026757, -0.00628682, 0.06824512, 0.44735712, -0.25527811, 0.17255676, 0.39805517, -0.21193212, -0.19704227, -0.24899130, -0.25412002, -0.29101375, 0.08801553, 0.33849579, -0.27662024, 0.02684308, 0.13657296, 0.23939562, 0.06646661, 0.02092850, -0.00539240, -0.06030387, -0.37985647, -0.11531357, 0.04537266, 0.03693509, -0.02099054, 0.12929349, 0.37390053, -0.33617961, 0.01424875, 0.03912720, 0.20878871, -0.14128809, 0.02920064, -0.08603022, 0.00195429, 
bias
0.92259127, -1.32098317, -0.53604221, 2.45071793, -0.13494200, 2.59211373, 0.82018709, -0.36973774, 0.05957496, 0.10142231, -0.40173268, 0.69812733, 0.71779561, 0.58056247, 0.00518772, 0.09988752, 0.18095602, 0.57923257, 0.44890264, -0.13964167, 0.33775681, 1.27495515, 2.27249527, -0.18501855, 
layer13
kernel
-0.23268956, -0.01957034, 0.30576414, -0.26375073, -0.38889319, 0.59536928, -0.18977845, -0.58603299, 0.38350686, 0.15711921, 0.36755514, 0.27507657, -0.01153033, 0.16667376, 0.21362080, -0.10085355, -0.14850833, -0.03544619, 0.12847255, 0.26496702, 0.18973097, 0.21841548, 0.48982435, 0.38140666, 0.10768843, 0.32938561, 0.28174016, 0.44315237, 0.21785568, -0.31252164, 0.58535796, 0.09935101, -0.43846729, 0.32326972, -0.07647685, -0.37921494, 0.12474345, 0.18647006, 0.10613719, 0.16215970, 0.29362583, 0.19285324, 0.07843151, 0.16745636, 0.11523660, -0.09536997, -0.20786147, -0.19925064, -0.22127835, -0.36626074, -0.23469523, -0.20625946, -0.25391942, -0.09597073, 0.08979277, 0.18983255, 0.15212879, 0.21768342, 0.32711631, 0.23502453, 0.16789344, 0.22504026, 0.12618282, -0.03108815, -0.11397213, -0.07529412, -0.06530467, -0.19083044, -0.12193525, -0.04319280, -0.10152975, -0.06530467, -0.15036234, -0.17338432, -0.09383515, -0.22364214, -0.38397384, -0.29188588, -0.11192385, -0.27071390, -0.24913077, 0.24073324, 0.42842939, 0.33854190, 0.29773089, 0.62335789, 0.58099711, 0.12441328, 0.38503543, 0.41258717, 0.11510327, 0.11649635, -0.04840955, 0.05036857, 0.27391446, 0.04571045, -0.02657736, 0.26729730, 0.15706982, -0.21389179, -0.35661811, -0.14450546, -0.34574559, -0.49697223, -0.32657045, -0.18038471, -0.37085119, -0.37856078, -0.06548744, -0.52664238, -0.36069518, -0.42721123, -0.81602144, 0.00840558, -0.66207451, -0.61613047, 0.05850153, -0.06968733, -0.24218559, -0.19618607, -0.14428915, -0.35148364, -0.32907361, -0.08659314, -0.16237444, -0.18104947, 0.11857577, 0.19392392, 0.13726272, 0.20428054, 0.35812888, 0.23985328, 0.12690610, 0.23144791, 0.14131531, 0.06835517, 0.13036421, 0.10374281, 0.18812460, 0.26782745, 0.18145579, 0.11670393, 0.15919062, 0.08029446, 0.11108308, 0.19311216, 0.21829228, 0.14614154, 0.29867497, 0.29267049, 0.05370145, 0.14236453, 0.16047485, -0.45513618, -0.65383089, -0.23136723, -0.35122988, -0.11292924, 0.28892410, 0.10837028, 0.35635871, 0.42094398, -0.03755760, 0.17145444, -0.27182114, -0.24113578, 0.37103713, -0.23666082, -0.28767523, 0.17030373, 0.07409235, -0.03265529, -0.15250038, -0.24001728, -0.20105626, -0.44136429, -0.45415747, -0.21675697, -0.35617343, -0.31575865, -0.11551586, -0.15995663, -0.09408770, -0.32142231, -0.44667137, -0.31900787, -0.22031763, -0.39808077, -0.33017465, 0.08365120, 0.11817956, 0.07861687, 0.13160443, 0.23290120, 0.15336901, 0.06605648, 0.13628280, 0.09122811, -0.11919180, -0.22579366, -0.16263747, -0.23260462, -0.45365125, -0.33580098, -0.17388588, -0.28564754, -0.19844662, 0.10100842, 0.20478672, 0.18271998, 0.15095866, 0.38113597, 0.29933208, 0.11310358, 0.28603664, 0.20700262, 
bias
0.07175750, 0.08129206, 0.05089152, 0.75412780, 0.17531657, 1.94292057, 0.58666229, 3.33021665, 2.86196733, 0.82079977, -0.38071185, 2.27598834, 0.04543877, 2.85614109, 0.95027912, 0.31445420, -0.12121719, 0.39743960, -0.13088191, 1.41979504, 1.27435160, 0.46262324, 2.95533967, 0.29900640, 
layer14
kernel
0.06327641, 0.03964305, 0.59682399, 0.06463778, -0.77804935, 0.82248443, 0.64997184, 0.33021358, 0.24940273, 0.60684365, -0.51318151, 0.13112703, -0.20812602, -0.35831222, 0.13983978, -0.08364248, 0.11016195, -0.03572231, 0.08707313, -0.13254285, -0.18808669, 0.25070965, -0.47048900, 0.33892632, -0.07924231, -0.26329917, -0.09444884, -0.00809655, -0.18068932, 0.05735334, -0.74464625, -0.18405685, -0.29171273, -0.07071824, -0.19647464, 0.17311236, -0.10092083, -0.23846360, 0.13428047, -0.25530127, -0.06714024, -0.13996318, 0.09465931, 0.05164431, 0.31275985, 0.21478561, 0.06740332, 0.21089190, -0.07873679, 0.10324053, -0.02067282, -0.56012577, -0.07252259, -0.45674399, -0.35703427, 0.54402530, 0.51408416, -0.14843474, 0.18430765, 0.11538647, -0.00839888, 0.30845049, 0.21227156, 0.05359751, 0.11863481, 0.05949394, -0.24291889, -0.12378977, -0.19419387, -0.39544934, -0.15733235, -0.05737546, -0.26230472, -0.00417271, 0.35556439, -0.00620267, -0.39925021, -0.47712487, -0.22944540, -0.09335465, 0.62185782, 0.11880638, 0.01929060, 0.92006087, -0.15584433, 0.16800039, 0.41482514, 0.22792590, -0.01016763, -0.02882313, -0.11614724, -0.30238169, 0.90486580, 0.32840323, -0.62489682, -0.04881413, -0.07848509, -0.05203622, -0.17316690, 0.00188055, 0.33892468, -0.23967677, 0.20883411, -0.23847063, 0.04906395, 0.00097662, -0.09149415, -0.03909178, 0.08481732, -0.12500754, 0.27999622, -0.05789461, 0.20866181, -0.00029413, 0.01219061, 0.03571029, -0.01987973, 0.35667211, 0.63856369, -0.29205760, -0.26033998, 0.31268346, 0.10902597, -0.03681262, -0.13347588, 0.15276033, -0.65512002, 0.18940076, -0.31378543, -0.34408954, -0.14725049, 0.20840971, 0.18788557, 0.35731316, -0.37659761, 0.24146876, 0.26268166, -0.20537931, -0.18389092, 0.26144195, 0.18265122, -0.37907702, 0.05082828, 0.25910026, -0.01586053, -0.30762252, -0.40998521, -0.72803110, -0.40517443, 0.06531300, 0.15247494, 0.24895777, -0.11091516, 0.40624347, 0.26753271, -0.22062764, 0.15541486, -0.13009146, 0.03268991, 0.50967520, -0.10216222, -0.09521332, 0.16971356, 0.10730708, 0.05382058, -0.06808587, 0.18200777, 0.25617394, 0.16498633, 0.07489239, -0.29395160, 0.02428942, -0.07324005, 0.28783792, -0.29213402, 0.54659462, -0.20935170, -0.52511418, 0.15722032, 0.09914050, 0.27329731, 0.13615295, -0.29692581, 0.23314542, 0.18952359, 0.23611963, 0.24041572, 0.09401824, 0.17729627, -0.41209403, 0.08455859, 0.90019578, 0.20222074, 0.06544763, 0.61988735, -0.02890886, -0.00858364, -0.00658433, 0.08511583, 0.42049253, -0.24099195, 0.29163191, -0.03908207, 0.11529633, 0.01203123, 0.33955902, -0.00594497, -0.30429190, -0.27083334, -0.08720698, 0.12750418, -0.65877163, 0.17757897, 0.02190065, 0.10190161, -0.31220439, 0.28057984, -0.09984376, -0.21461897, -1.04552913, -0.24251287, 0.19312425, 0.07207292, 0.13807482, -0.14915034, -0.12732746, -0.53425026, 0.02545319, -0.11305235, -0.13782869, -0.43908283, 0.12150256, -0.17343444, -0.15530340, 0.00617358, -0.04058973, -0.08696334, -0.10558663, -0.17294219, 0.54573601, -0.16659163, 0.05803746, -0.07960639, 0.09464788, 0.19979644, -0.06949595, 0.06225901, 1.07901430, -0.21753405, -0.00408187, -0.04668539, 0.37802392, 0.17581518, -0.07981924, 0.08187681, 0.00060530, 0.56533307, -0.15254344, -0.12558228, 0.27997044, -0.23924488, -0.79691535, -0.12976836, -0.34198111, -0.00539573, -0.10974747, -0.36396828, 0.00133916, 0.07365754, -0.07007696, 0.01427967, 0.11111149, 0.09127624, -0.32282010, 0.09099207, -0.20608199, -0.00270852, 0.00552361, -0.39124885, -0.46740714, -0.05271402, 0.40238842, -0.19983019, 0.21915393, -0.23756830, 0.02895719, 0.78158838, -0.14390501, -0.16876481, 0.30950734, 0.11726440, -0.06358659, -0.18757255, -0.17646463, 0.47259197, -0.57912713, 0.08678071, 0.24298598, 0.16358952, -0.09145109, 0.13518856, 0.07554655, 0.06734183, -0.07882844, -0.33550999, 0.14238347, -0.15399632, -0.26760015, -0.04935456, 0.10306393, -0.32743150, 0.12067252, 0.02282574, 0.02891512, -0.12314931, 0.04255005, -0.01382404, 0.03793573, 0.01360656, 0.45991880, 0.20499669, 0.39970574, 0.31165549, 0.43964604, -0.22284880, -0.88110757, 0.03108990, 0.04905548, 0.64267600, -0.22980811, -0.04357125, -0.01322834, -0.33586174, -0.40787533, 0.10756653, -0.11603872, 0.25551975, 0.10558622, -0.34377420, 0.72672367, -0.20423973, -0.08044140, 0.03576396, 0.07383882, -0.11587524, -0.03469104, -0.19851750, 0.01823962, 0.15956229, -0.07361874, -0.01177460, 0.56958234, 0.00360735, 0.14514667, 0.05042719, -0.10674167, 0.21623442, -0.03488362, -0.11807609, 0.37260544, -0.18080741, -0.18080741, -0.00698898, 0.04129250, 0.07663953, 0.03589679, 0.53069419, 0.64667153, 0.05635979, 0.16973092, -0.11866504, 0.00886730, 0.10042141, 0.10172453, 0.27902982, 0.26697597, -0.11125357, 0.08828614, 0.00733512, 0.09227693, -0.14676349, -0.22771960, -0.03624292, -0.33555248, 0.43279645, 0.34423435, -0.16867483, 0.10647794, 0.14410901, 0.17086540, 0.05554691, 0.00962291, -0.00274067, -0.75606376, 0.55265260, 0.20106414, -0.15897368, -0.17649834, 0.40588358, -0.13503374, -0.30558622, -0.23924287, 0.00426137, -0.26897219, -0.01023902, 0.03616416, -0.04729310, -0.23001112, 0.17143416, 0.11411219, 0.03897681, -0.12198200, -0.48282325, -0.23545611, 0.14272000, 0.13623273, 0.22673550, 0.20950700, 0.03538754, -0.15856597, -0.01483565, -0.14665490, 0.42348066, 0.06056561, -0.10081860, 0.19919118, 0.18611029, -0.33202076, -0.08624882, -0.20004198, 0.17877223, -0.07981472, 0.14380980, -0.19317734, -0.57774335, 0.13227282, -0.15641999, -0.26651317, -0.18959998, 0.25274035, 0.12815885, 0.16312753, 0.05392867, 0.27420449, 0.01307972, -0.01947424, 0.03644434, -0.11393886, -0.14380980, -0.09971886, 0.09140150, -0.00114378, 0.30121356, -0.00522350, 0.38563922, -0.18172979, 0.14451115, 0.03052123, -0.01349920, 0.00202750, 0.74642104, 0.20279531, -0.38232493, 0.21586727, 0.03172050, 0.27079350, 0.00799758, 0.13635616, -0.09546130, -0.18240784, -0.29837653, 0.39503711, -0.45332128, 0.17797057, 0.10115780, -0.09959876, 0.16357942, -0.23013850, -0.05324726, 0.11920670, 0.11043250, -0.12291498, -0.25824425, 0.19057961, -0.07114336, 0.74212819, 0.20217536, -0.01754710, 0.03405400, -0.50011802, 0.10095126, -0.21076986, 0.13758020, -0.38688889, -0.86763519, -0.29221299, -0.09829106, -0.08833236, 0.10586241, 0.20203894, 0.11363838, -0.08956014, 0.02423171, -0.12502950, -0.08207738, 0.08708680, 0.08338754, -0.02628018, -0.36838490, 0.19976017, -0.05787804, -0.00828962, -0.39243010, -0.06365814, 0.08361875, 0.06504536, 0.02084688, 0.10365642, -0.25401601, 0.29640341, 0.00013442, -0.07706797, 0.03049965, -0.00909884, -0.13086142, -0.12523545, 0.12061137, -0.09371465, -0.15949738, 0.28146598, -0.15277208, 0.08074503, -0.05820284, -0.26303369, 0.09257656, 0.14853765, -0.22401038, 0.17900904, 0.04649585, -0.37562007, 0.04500134, 0.92327482, -0.02256294, -0.13085261, -0.64928138, -0.35635751, -0.13193199, 0.01646036, 0.18349257, -0.20840105, 0.47757885, 0.59614325, 0.17094877, 0.05572165, -0.31019315, 0.04472867, 0.06639599, -0.07352550, -0.42378724, -0.17206399, -0.32978934, -0.13518175, 0.16330148, 0.05619961, 0.09487417, 0.17843674, -0.10244180, 0.57545847, 0.03837585, -0.00345771, 0.18369424, -0.05608012, -0.07276873, 0.09885714, 0.09925544, -0.16314216, 
bias
-3.30653620, 2.85039186, 1.06721544, -0.65241897, 0.23215964, 0.61709464, 0.18796204, -1.20657849, -0.57946444, 2.82860756, -1.97364414, 1.70742035, 1.64323926, -0.44181061, -0.51343250, -1.36641502, 0.23445106, 1.12393868, 1.78119802, -0.17107606, 1.54313993, 2.14190912, -1.31855786, 2.27011633, 
layer15
kernel
-0.21744473, 0.27727851, -0.12740219, -0.21146135, -0.29829332, 0.23962702, 0.18402538, 0.56506443, -0.15440036, 0.15629752, -0.02156205, -0.45765549, 0.05169785, 0.08456995, 0.16563743, 0.29362336, 0.08267278, 0.31171945, 0.22634684, 1.47570550, 0.29770958, 0.04925342, -0.46495229, -0.21496382, 0.06899876, 0.06930059, -0.48558706, 0.08934222, 0.17880519, 0.30110744, -0.17952958, 0.37789348, -0.20488346, 0.34698588, 0.58144885, 0.37016657, -0.30666116, 0.15453790, -0.02527842, 0.31318071, -0.35978356, -0.44864285, -0.28348047, -0.29241470, 0.50514579, 0.52880937, -0.10811616, 0.28830978, -0.60984504, 0.34594625, 0.18261676, -0.19823027, 0.26282731, -0.07087306, 0.05935427, 0.27828774, -0.04749107, -0.05108830, 0.32482210, -0.03558960, -0.31808686, 1.09355748, -0.05269557, 0.09559444, 0.10409002, -0.89823568, 0.65454257, -0.20909849, -0.01794787, -0.27767545, 0.71883345, -0.11618283, 0.05275249, 0.10565317, -0.22256811, 0.49492508, 0.61524820, -0.11698903, 0.42379811, -0.00068360, -0.29325053, -0.19708094, -0.10061501, 0.38675284, 0.25472343, -0.54560304, -0.12662080, -0.41549999, 0.20700909, -0.36067295, 0.86300707, -0.15047798, 0.59954101, -0.58413017, -0.20774999, -0.33518580, 0.01813685, 0.41452101, -0.21235809, -0.21198510, -0.10275993, 0.62563574, -0.26184198, -0.03686427, -0.05880877, 0.29590881, 0.02831648, 0.18314020, -0.01137633, 0.25662008, 0.19370838, -0.64851278, -0.39089802, -0.42919210, 0.36429110, 0.34613872, -0.27427515, 0.09710285, 0.10680070, 0.48911986, 0.03151150, -0.13710757, -0.32236543, 0.03406774, 0.39486977, -0.39933160, -0.52537757, -0.27068287, 0.19557580, -0.39040798, -0.28295282, 0.03174389, 0.03158122, -0.24019386, -0.49117041, 0.10345811, -0.50418401, 0.08370533, -0.16685294, -0.29540870, -0.10104130, 0.17912290, -0.47704136, -0.03134883, -0.06971969, -0.02974254, -0.00875030, -0.12066652, 0.59892207, 0.06841916, -0.13932629, -0.07249038, 0.22403033, -0.01979067, 0.23036335, 0.47271419, -0.13955246, -0.13502888, -0.54871035, -0.32026953, -0.28475940, 0.30760348, 0.31009147, -0.21939367, -0.21611407, 0.13276710, 0.58399427, -0.19055584, 0.24989615, 0.18123761, 0.13102776, 0.16499016, -0.49056795, 0.34717116, -0.03506303, 0.10083897, -0.07468583, 0.20670940, -0.37777925, -0.22306167, 0.25702405, 0.43270609, 0.05959143, -0.44109187, -0.04116892, 0.08501081, -0.26918343, -0.17012645, 0.13364832, -0.00162393, -0.24151038, -0.25618547, -0.57726890, 0.44876128, 0.13706510, -0.01737790, 0.75189996, 0.05210649, 0.29385597, 0.30778003, 0.08042603, 0.25933588, 0.00177450, -0.55522245, 0.65791249, -0.34636134, 0.39886668, -0.04615976, -0.03134730, -0.25440443, 0.08506738, -0.04931443, 0.28703898, -0.64862972, -0.20944127, 0.12132800, 0.00387466, -0.35017124, 0.46475106, -0.04272923, 0.13506605, 0.60315210, -0.16234130, -0.16901122, 0.37732738, -0.17198886, 0.19473809, 0.37137207, -0.20557672, 0.70129532, -0.31705981, -0.28204268, -0.20712510, 0.00857562, 0.27370527, -0.59934068, -0.47404134, 0.56837314, -0.13566157, 0.22106048, -0.26504895, -0.30881625, 0.30319253, 0.09126339, -0.80199313, -0.24451010, -0.40246361, -0.21932556, -0.45967898, 0.08123848, -0.70663416, -0.00563137, 0.68218315, 0.11430847, 0.20930064, -0.12580045, -0.11870965, 0.20538849, -0.29854682, -0.58975834, -0.35013846, -0.47948429, -0.50124568, -0.45772290, -0.05066216, 0.18635173, -0.01740405, 0.07302614, 0.56295228, -0.07882749, -0.03806305, 0.14002952, -0.14481230, 0.05314213, -0.39856598, 0.06018346, -0.07280472, 0.25401938, 0.19414592, 0.09193589, 0.10026149, 0.26323068, -0.40636015, -0.17164908, -0.03939160, -0.28625894, -0.06222058, 0.06877477, -0.23781779, 0.12511742, -0.13332528, 0.27317476, 0.81405240, -0.09512712, -0.00912863, 0.22392754, 0.03301563, -0.25297078, -0.14805736, 0.25823224, -0.04232841, -0.58296931, -0.28538135, 0.28559181, 0.02972722, -0.54298222, -0.10912259, 0.45795709, 0.24265833, -0.37251106, -0.02222965, 0.27043882, 0.03508188, 0.28333959, -0.48028621, -0.08889443, -0.14289002, -0.26357171, 0.22391392, -0.08474562, -0.07315335, 0.22708654, -0.44221476, 0.18059543, -0.26601219, 0.47808978, -0.02908746, -0.36802420, 0.18437816, -0.04652163, -0.09273819, -0.09011468, 0.07260424, -0.13935134, -0.11653285, 0.12495251, -0.48679709, -0.14685971, -0.02870522, -0.70569891, -0.26427507, -0.14951453, -0.45445657, -0.03270253, 0.00899018, -0.51358664, 0.05994458, 0.41487566, -0.40932468, -0.00919382, -0.00059771, -0.25800005, -0.10788215, -0.59516191, 0.66370451, -0.07523996, -0.16954634, -0.36733028, -0.11180404, 0.07349019, -0.12756991, -0.40455341, 0.32402620, 0.15092006, -0.43249145, 0.15817848, -0.08162283, 0.04146193, -0.16132835, -0.00336386, 0.47165945, -0.14585288, -0.00907301, 0.11298462, 0.42947853, 0.44317362, 0.70940650, -0.37716320, 0.12941875, 0.25650933, -0.13024046, -0.53137010, 0.12558413, 0.06816739, 0.08157120, -0.30343127, 0.45593885, 0.41317338, -0.04621613, -0.17343779, -0.33488312, 0.13180366, 0.37674353, -0.24505299, -0.17445602, -0.28804475, 0.49960944, -0.40842167, 0.64985430, 0.12773076, -0.13542402, 0.22593297, -0.33465686, 0.02587990, -0.08977357, -0.11579490, -0.32628480, 0.01000548, -0.01611194, 0.21058781, -0.22783235, 0.07701581, -0.15534687, -0.11260091, 0.02060575, 0.05319498, 0.00765409, -0.40802303, -0.04844543, 0.51850492, 0.02531876, -0.21394904, 0.40568480, 0.19699679, 0.13371815, 0.37294942, 0.71550173, -0.28058890, -0.18735155, 0.23017058, -0.36885750, 0.35190526, 0.15938801, 0.50590324, -0.26389736, -0.27319375, 0.23720774, -0.07545815, 0.17183317, -0.00912770, -0.05139251, 0.39854500, -0.22221358, 0.36525795, -0.26374742, -1.04299438, -0.70832449, 0.15908812, 0.03336202, -0.05843977, 0.06125118, -0.68373406, 0.11328094, 0.19132559, -0.76890093, 0.40514243, -0.16400531, -0.31394202, 0.15436928, -0.05444359, 0.15803097, 0.21469085, -0.14637136, 0.21391997, -0.05853891, -0.16361986, 0.24109359, -0.08749519, 0.01000341, 0.15957274, -0.20486209, -0.25304228, -0.08243628, -0.20177856, -0.29833162, 0.59473604, -0.25940204, -0.06427235, -0.28252852, 0.42282918, 0.17527510, -0.40418020, 0.20837487, 0.62233138, -0.03028907, 0.31032771, -0.31619349, 0.07590599, -0.27471405, -0.21144742, 0.00512819, -0.05785475, 0.49021164, -0.12520649, -0.32373521, 0.18588938, 0.04556454, -0.24468684, -0.62847650, -0.16759373, 0.55250067, 0.06040357, -0.17485613, -0.51060224, 0.17698441, -0.35208490, -0.16337828, 0.53712833, -0.10105172, -0.01619653, -0.17216994, 0.18493877, 0.34664246, -0.07331613, 0.40483484, -0.14935350, -0.28719410, 0.37008688, -0.00080296, 0.69412220, -0.05845405, 0.33136171, -0.37071484, 0.09236472, -0.06625141, 0.05000255, 0.04657485, -0.09471963, -0.02280909, -0.37427396, 0.93285805, -0.29681846, -0.85087961, 0.51335460, 0.23448659, 0.44155282, 0.05982305, -0.25695997, -0.47886711, 0.77003193, 0.26275501, -0.21639480, 0.26218966, -0.28946868, -0.02996453, 0.18572356, -0.03932845, 0.13003476, -0.00308303, 0.16961055, 0.51307189, 0.31519294, -0.36268571, 0.37465382, 0.25367185, -0.30752832, -0.95224512, 0.08767940, -0.07167856, -0.17887117, -0.29009652, 0.07441041, -0.29998323, 0.06081620, -0.08735418, 0.39963073, 0.06621486, 0.00324407, 0.16078892, 0.25211078, 0.80914813, -0.58955938, 0.28541335, 0.12143727, 0.07714226, -0.19122955, 0.01452757, 0.06584286, 0.41561571, 0.04709015, -0.17826654, -0.16594994, -0.07315873, -0.13270439, 0.47006804, -0.10473738, -0.03160179, -0.16169007, -0.68750691, -0.08746636, -0.21558675, 0.37820289, 0.28022575, -0.29911736, 0.02260744, -0.04102445, -0.30856317, -0.20058459, 0.52303869, -0.25559255, -0.13007730, 0.41647187, 0.19336194, -0.05153278, 0.08777060, 0.06226732, 0.08075457, -0.09597937, 0.22254865, -0.24331611, 0.07900056, -0.18311854, -0.09036654, 0.03950028, -0.16150914, -0.52704459, 0.38616261, 0.33901486, 0.23251142, 0.26239973, -0.05749641, -0.30337340, -0.26282069, 0.16319299, 0.04529305, -0.15456650, -0.10842882, -0.21168432, 0.15277167, -0.12373766, 0.26014471, -0.22171424, -0.27978227, 0.13017793, -0.10853440, -0.35938823, -0.14326963, -0.19985956, 0.28168267, 0.05270992, -0.05674829, 0.01365918, 0.00386350, 0.02036340, -0.46454415, -0.22572622, -0.04415809, 0.23037165, -0.03298621, -0.29046017, 0.41522601, -0.32577747, -0.14201193, 0.26009387, 0.00143116, 0.17048031, 0.46671668, 0.35218295, 0.78094178, -0.00381642, -0.27676234, -0.25365755, 0.13549307, 0.92023063, -0.00080454, 0.35581371, 0.35977453, 0.02034046, -0.12402319, 0.08466254, 0.15273914, -0.27494696, 0.12841724, -0.28344861, -0.05167712, -0.02126681, 0.17633899, 0.02077698, -0.05535085, 0.02792034, -0.01978711, -0.12400876, -0.18989097, -0.03581886, 0.29895988, 0.22124012, -0.06980085, -0.36476046, 0.11649802, -0.10131328, -0.30467460, 0.29308194, -0.09617006, -0.21079040, 0.29732713, -0.03788023, -0.17510442, -0.16943437, 0.05986904, 0.02276357, 0.51630789, -0.10889827, 0.09013709, -0.18861248, 0.02564029, 0.00898974, -0.02991367, 0.32302597, 0.12557489, -0.09322226, 0.12657548, 0.19795138, -0.00336399, 0.22530101, 0.21929744, 0.01915726, 0.07158435, -0.00848423, -0.16393109, 0.21479475, -0.02656831, -0.39335716, -0.05632064, -0.17318989, -0.05647724, -0.12715207, 0.18081068, -0.08257578, -0.33635795, 0.11650387, 0.00452810, 0.01973050, 0.18498644, 0.00340912, 0.16671745, 0.36099496, -0.03906951, -0.02701199, -0.31568792, -0.23760109, 0.26683146, 0.09061413, 0.16755262, -0.20231587, 0.24084230, 0.38989961, -0.41153997, 0.02059099, 0.33598527, 0.12629762, -0.38691473, 0.42534503, 0.51078713, -0.17825314, -0.00703079, 0.33113486, -0.08040514, -0.07774673, -0.70107311, -0.02365749, -0.26751965, -0.20502377, -0.56302249, -0.06156310, 0.23561877, -0.04358387, -0.22535825, -0.85740602, 0.51364386, 0.55074733, 0.16570377, 0.62142068, -0.05155369, 0.88695055, -0.24988079, 0.34756145, 0.09118125, 0.08499733, -0.22981460, 0.36447257, -0.10405389, -0.10834477, -0.08916201, -0.11705274, -0.23827016, -0.13125052, 0.14525898, -0.02090228, 0.64565158, 0.36926827, -0.14841405, 0.32812628, -0.44749981, -0.05818910, -0.24246931, -0.02353171, -0.09977797, -0.09112466, -0.32405767, -0.26012912, 0.05704121, 0.07730585, 0.33995152, -0.02847646, -0.15761389, -0.06710731, -0.29951054, 0.80599415, 0.05271456, -0.16573741, 0.10295674, 0.49447492, -0.12185275, -0.19708358, 0.03437042, 0.24653107, -0.14742079, -0.03203770, -0.37950325, 0.29863241, -0.17964277, -0.00230016, -0.53197849, -0.13404763, 0.83271688, 0.14120807, 0.46332249, 0.46079528, -0.38603190, -0.38055626, -0.15742435, 0.63348824, -0.43004751, 0.30052781, 0.02545641, -0.20344070, 0.25651219, 0.07571111, 0.27925712, -0.53956014, 0.14044148, 0.00749827, 0.50035834, 0.15611829, -0.08650675, 0.16050455, 0.33725449, 0.31028715, -0.10137130, 0.39866212, 0.17788713, -0.34050357, 0.02855129, -0.13824835, 0.14344688, 0.02911988, 0.33026898, 0.19348271, -0.26804909, -0.14165989, 0.38664052, 0.16359118, -0.00195706, -0.00448018, -0.15522349, -0.21008472, 0.16900380, -0.17229721, -0.11180252, -0.08692862, 0.66180158, -0.11041582, -0.58275980, 0.04231595, 0.14196320, 0.42294285, -0.23209855, -0.11882267, 0.19708444, 0.28427306, 0.37926188, -0.05971468, 0.29675335, 0.15184341, 0.16467038, -0.25567243, 0.32223392, -0.21164477, 0.00330751, 0.25244606, -0.00661502, 0.07405084, -0.54453546, 0.13762985, -0.09518151, 0.03867723, -0.19796757, 0.08545766, -0.30019262, -0.21280266, -0.06092988, -0.05955857, 0.10415737, -0.23125304, 0.07211854, 0.01203015, -0.08763929, 0.09474518, -0.03334781, -0.12173510, 0.05201635, -0.07947376, 0.12148712, 0.05558388, -0.14951359, -0.27604312, -0.22397722, -0.21295425, 0.35461107, 0.20603558, 0.18539685, 0.25282454, -0.17789185, -0.14482297, -0.22620527, -0.36375776, 0.42989555, -0.11239904, 0.16276459, -0.14083594, 0.31544435, -0.07862656, 0.21905206, 0.19677161, -0.04382800, 0.40949133, -0.24101007, -0.43138370, -0.01160419, -0.05554593, -0.05789922, -0.05753405, -0.11531156, -0.06735298, -0.11628533, -0.09818929, 0.46903643, -0.07433172, 0.02377641, 0.56381750, -0.33335671, 0.23305756, -0.12561737, -0.34958634, -0.06313328, 0.00739970, 0.06479681, -0.35413063, -0.13649122, -0.48526609, -0.10623159, -0.27974498, 0.09274272, -0.04964877, 0.07692445, -0.01321123, 0.06733598, -0.13694720, -0.11386986, -0.08943821, 0.15222374, -0.15753262, -0.36382017, 0.13824733, 0.20888780, 0.13965580, -0.15764095, -0.23164012, 0.07161558, 0.15688254, -0.00423558, -0.05688076, -0.38852265, 0.27671134, -0.08974601, -0.06583457, -0.14312164, -0.04188841, -0.14770263, -0.15006255, 0.30678838, -0.17102411, 0.07877937, -0.26125598, 0.25126109, -0.21544595, 0.25153869, 0.35926169, 0.16283384, 0.17935321, -0.06021243, -0.10272552, 0.56443506, 0.02536904, -0.41034681, -0.20073122, 0.22016577, -0.09356351, 0.00188887, -0.15438354, 0.06707583, -0.05989813, -0.23237284, 0.03242558, -0.01006872, -0.14481327, 0.03152312, -0.22716795, -0.06820915, -0.11492717, -0.13944049, 0.08302628, 0.07060172, 0.11786541, 0.13457140, 0.40228707, 0.10502110, -0.01907757, -0.28744385, -0.35729003, 0.04023290, -0.36534920, 0.25051880, -0.31676808, -0.55807340, -0.19962531, -0.27947545, -0.10403550, -0.22200090, -0.04606738, -0.01119465, 0.28474027, -0.14774467, -0.04170743, -0.06860749, -0.07195286, 0.16759752, 0.10677761, -0.13151141, -0.20686448, -0.22287837, 0.14401540, 0.14829309, 0.20247710, -0.11615561, -0.25424805, 0.04886263, -0.14374524, 0.06403616, -0.12761135, -0.31422663, -0.22741097, 0.02702426, -0.11209209, 0.20897225, -0.01817943, 0.06127035, -0.07751948, 0.03778018, 0.10971043, 0.00272980, 0.15373288, 0.19667976, 0.17839469, -0.25798851, 0.11808468, -0.11239941, 0.48309466, 0.12891744, 0.27581263, 0.02235349, 0.08917448, 0.44137058, 0.18476646, -0.05723067, 0.30899772, 0.04504221, 0.08275698, 0.30325070, -0.04413227, 0.37317270, 0.15622295, 0.00492986, 0.00491190, 0.13428853, 0.12796682, -0.10584082, -0.19185443, 0.82910234, 0.31474471, 0.16417299, -0.36244494, 0.05272884, -0.47355384, -0.00314460, 0.19309334, -0.12303476, 0.42574590, -0.07939512, -0.03928260, -0.31841037, -0.01642538, 0.50597095, -0.01534477, -0.43072540, -0.66559106, 0.03179608, -0.16321643, -0.11494309, -0.09239710, -0.05591546, -0.09972800, 0.11404403, -0.09343449, -0.38369694, 0.02909886, -0.23472735, 0.20443550, 0.23424457, 0.23956399, 0.08743800, 0.50990462, 0.37596917, 0.20954725, -0.17725076, 0.19140422, 0.01591077, -0.05124693, -0.10078406, -0.09489470, 0.16376221, -0.52130342, -0.23766419, 0.36590028, -0.12092187, 0.20935726, 0.12253670, 0.18950443, 0.42745358, -0.74737883, -0.11303773, -0.89214313, 
bias
-2.19678473, -1.87313473, -1.03258002, -0.09271208, -0.91633272, 1.66663039, -1.04725063, 1.81055820, -0.82067931, -1.37127006, 4.64916372, 0.01314647, -0.30126494, 1.28851485, 1.96293247, -0.02342913, 0.09791943, -2.92385530, -0.34866598, 0.80226153, 1.91415524, -0.64703667, -1.82763934, -0.72772944, 0.37879485, -0.31692949, 2.23274517, -3.24693656, 2.63867235, -1.32441533, 1.07181621, 1.51489079, -3.84617782, -0.76650369, -1.60550284, -0.95274913, -0.49750203, 1.84133220, -0.70411861, 2.15432954, 0.64491016, -0.10754236, 2.78221130, 2.12901163, 0.67277807, -2.43675566, 0.93146771, 0.10945067, 
layer16
kernel
-0.06922957, -0.07275537, 0.26738906, -0.14370018, 0.05322053, 0.07227891, 0.05846158, -0.07961638, -0.14541544, -0.06060565, -0.00498794, -0.09124199, -0.21116684, -0.09710245, -0.04697891, -0.02004703, -0.12130659, -0.10529755, -0.13540979, -0.02575264, 0.41204217, -0.21650320, 0.08433333, -0.14131789, -0.05926590, -0.08460123, 0.12130931, -0.08872995, 0.10862288, 0.08933049, 0.26318714, -0.10089091, -0.12851579, 0.06204341, -0.01615831, -0.05911577, -0.00133714, -0.18586747, -0.04297622, 0.07495504, -0.08782914, -0.04646687, 0.04365183, 0.29982015, 0.08790421, -0.16169570, -0.14292879, -0.14285372, 0.08040860, 0.54234445, 0.50892359, 0.24453481, -0.29433522, 0.11614576, 0.04723592, -0.26918682, -0.11374674, -0.16784883, -0.33950299, -0.05856923, -0.42652959, 0.27034497, -0.12061290, 0.05021401, -0.00270666, 0.20069061, 0.42454419, -0.24370757, 0.03166296, -0.13194622, 0.32461253, -0.03251089, -0.05928700, -0.04317129, -0.02104159, -0.03970112, 0.16315688, -0.18397792, 0.06699196, 0.15409915, 0.04699436, -0.14704117, -0.12904334, -0.01457178, -0.01877716, 0.10851639, 0.00635953, -0.08116673, -0.18927141, 0.05072920, 0.07710839, 0.04484756, -0.14657064, 0.04775897, 0.07775537, 0.05190554, 0.08186543, -0.01049037, -0.07912203, -0.00330649, -0.13143361, -0.07700214, -0.07856088, 0.01111387, -0.12856551, -0.03404305, 0.22533256, -0.16909295, -0.11946242, -0.05845304, -0.02057547, -0.01059169, -0.29104936, -0.08117958, 0.00551017, 0.04249146, 0.02816657, -0.10050805, -0.02565699, -0.05823481, 0.17134020, 0.10951515, 0.29326952, -0.17429009, 0.09501146, 0.21706370, -0.30039844, -0.16015515, 0.07884844, -0.26991612, -0.03730398, -0.22443844, 0.01242186, -0.07405485, 0.29400700, -0.22357805, -0.20587865, -0.25639573, -0.08382641, -0.21706370, -0.63177085, -0.13692465, -0.38078329, -0.41003650, 0.23103018, -0.01223094, 0.16416356, 0.13873823, -0.29109001, 0.09564529, 0.14764710, -0.08007979, -0.19199128, 0.15665607, -0.02550041, -0.05755734, -0.17257193, -0.18478410, -0.16856794, -0.01285030, -0.03903889, 0.10960920, 0.22342260, -0.10750711, 0.18988919, 0.13293244, 0.30750638, -0.05660640, -0.04036450, -0.16801070, -0.04563941, 0.07568344, -0.07194842, -0.18609610, 0.01539061, -0.23786226, -0.13485414, 0.00600799, -0.04858812, 0.02716086, -0.07306238, 0.11696532, 0.24218704, -0.19015875, 0.10608788, 0.00537729, -0.10602235, 0.16460331, 0.13485414, 0.05006247, -0.13983418, -0.26865986, 0.06648089, 0.09495411, 0.27672711, 0.00346153, -0.07302160, -0.07132947, -0.11591040, -0.12938230, -0.05893142, -0.01750696, -0.16062148, 0.00656511, -0.08903168, -0.01791372, 0.02523541, -0.02656958, -0.14083666, 0.09684148, -0.10478143, -0.16127230, 0.09352231, -0.01097439, 0.09469378, -0.16114213, -0.13294770, -0.05654458, 0.01672298, 0.26526830, -0.08021805, -0.00387699, -0.01313669, 0.06109114, 0.04154616, -0.03156463, -0.06406993, 0.09317836, -0.13085733, 0.07274497, 0.05189350, -0.05471551, -0.00791729, 0.02426139, -0.18813355, 0.03326306, 0.16388522, 0.07222237, 0.10018111, -0.08209939, -0.06539194, 0.07987863, -0.00315355, -0.15850145, 0.24524218, -0.11858455, 0.01280480, 0.18065755, 0.13751143, -0.06974243, -0.15374729, 0.05938198, -0.09014938, 0.10190019, -0.03727071, 0.02839033, 0.05722916, 0.11714934, -0.24255116, 0.09840186, -0.45352760, 0.04906638, 0.09714604, 0.24219236, -0.05767209, -0.06819119, 0.14955412, -0.19190492, 0.19227080, -0.11351477, -0.00977018, 0.03802882, 0.05520239, -0.08973247, -0.07706382, 0.04715300, 0.00800366, 0.03521611, -0.16748232, -0.09101305, 0.03731992, -0.09604393, 0.06462384, 0.05556827, -0.07093530, -0.11689918, -0.01128516, -0.00926710, -0.03244190, 0.04747241, -0.04252888, -0.05419706, 0.28614303, 0.05499675, 0.03545891, 0.29050496, 0.05932233, -0.10650394, -0.11871736, 0.03649487, -0.09029208, -0.00482994, 0.02677138, 0.15484874, -0.06804620, -0.10919380, -0.25488248, 0.06277553, -0.14830583, -0.19759572, 0.01753862, -0.02346358, -0.01045364, 0.16138542, 0.16443929, -0.09754773, 0.23890680, 0.20284761, -0.04607236, -0.12462149, -0.10189363, 0.02030532, -0.07499606, 0.01676693, -0.05734820, -0.09079398, 0.03150774, -0.03972971, 0.03914242, -0.06231074, -0.13801154, 0.07106126, 0.20813316, -0.06189965, -0.00516442, -0.12215490, -0.05752010, 0.10983379, -0.05338350, -0.06775461, 0.66242617, 0.16888729, -0.13893262, 0.15961561, -0.02451647, 0.09064854, -0.02346449, -0.31523725, -0.12759264, 0.01809761, -0.33520705, -0.10141796, -0.09335873, 0.25019282, 0.23307587, -0.08494289, -0.12816320, 0.19185254, 0.18429255, 0.41194806, 0.01838809, 0.01488303, 0.06718932, -0.12790775, 0.21429403, 0.06573337, 0.00398701, -0.05543388, -0.03025137, 0.02076074, -0.08347438, -0.00705731, -0.00616082, -0.13049611, -0.06966983, 0.01584018, -0.04216858, -0.00511604, -0.29615068, -0.06815995, 0.04570060, -0.12564296, 0.05039199, -0.16414469, 0.23682067, -0.23217061, 0.35008273, -0.35473278, -0.43345156, 0.68023664, 0.13559893, -0.32284668, 0.36170787, 0.31803057, 0.03643235, -0.05451359, -0.11268080, 0.00842823, -0.70747268, 0.27518362, 0.14813747, -0.02949879, 0.08316126, -0.05700469, -0.28647661, 0.19098441, -0.59354633, 0.06298333, 0.10386504, 0.14401524, 0.01125889, -0.14458999, 0.28179038, -0.07972565, 0.05595575, -0.20690902, -0.14557527, 0.00344592, -0.21117857, -0.11568841, -0.14779215, -0.01875113, -0.00520608, -0.06055373, -0.06979074, 0.12890761, 0.36816669, -0.17176732, 0.22759992, -0.02516572, 0.04922300, -0.00224639, 0.29143426, 0.15648638, 0.00950618, -0.29595467, 0.26019016, 0.28053206, 0.10895547, -0.11566962, -0.17018059, 0.27095941, 0.16685675, -0.21950637, -0.13368483, -0.14744553, -0.08482439, -0.10902194, -0.44486269, -0.33052263, 0.58871847, 0.09898394, -0.16153862, -0.02462965, 0.04676643, -0.20049401, -0.34817839, -0.01586751, 0.35905898, 0.28141123, 0.07690588, 0.54567730, 0.46258929, 0.03445515, -0.14227176, -0.42038584, 0.21678720, -0.10641532, -0.28157610, -0.15587248, -0.01621783, 0.04414051, -0.23063521, -0.16345590, -0.07888417, 0.28536779, -0.60535562, -0.19683948, 0.35872924, -0.08770403, 0.08513931, 0.07396428, 0.10475592, -0.14004974, 0.20002513, 0.20066829, -0.11351908, -0.06572369, -0.21803381, 0.09285732, 0.03010828, -0.10081652, -0.01484310, -0.03613798, -0.01200914, -0.13490440, 0.08019496, -0.09864583, -0.19295028, -0.01593850, 0.28797829, -0.17220812, -0.05153380, -0.19664849, -0.05669303, 0.06627158, -0.18534492, 0.47533548, -0.16678648, 0.06411641, 0.07620933, 0.09650388, 0.24281621, 0.04540830, 0.09704267, 0.23898478, 0.14164278, 0.16463131, -0.04100816, 0.04995812, -0.09416910, 0.08752399, 0.02309328, 0.03651822, -0.07297657, 0.40613046, 0.08602734, 0.04400146, -0.09921307, -0.07597039, 0.07656805, 0.21901253, -0.25872433, 0.32805395, 0.32406947, 0.14450312, -0.38728958, 0.24198958, 0.10140453, -0.18713684, 0.09742007, -0.31211609, 0.24610686, -0.10445928, 0.03735432, 0.21555933, -0.03937975, 0.35541391, -0.00680264, 0.04738188, 0.12644023, 0.05906963, -0.04543959, -0.13623038, -0.16558047, 0.05242350, 0.13905931, 0.23992814, 0.37872222, -0.10272531, -0.08212721, 0.17583533, 0.07200496, -0.00143104, 0.10502381, -0.26255953, -0.10847156, 0.15338074, -0.02585814, -0.04188134, -0.04398093, 0.29933554, 0.03332826, -0.31754676, -0.10626147, -0.08323225, 
bias
0.51751077, 0.49504161, -0.66904873, 0.96548176, 1.70457482, 2.37097120, 0.31250712, 1.18967032, 1.22320104, 1.00575900, 1.24649954, 0.99610597, 1.32415485, 0.40565407, -0.63646567, 1.42180133, 0.85700989, 0.04219615, -0.20506889, 0.82871056, 0.43663487, -0.94214737, 0.12250072, 0.61232543, 
layer17
kernel
0.32872009, 0.83966362, 0.66256845, -0.50256741, 0.52410597, -0.29607031, -0.35248095, -0.84445000, -0.16991565, -0.68568379, -1.32621968, 0.66698974, -0.75763828, 2.98258328, -0.37917185, 0.69732350, -0.35518703, -0.52907699, 0.08706694, 0.21914248, -0.41523179, -0.15519734, -0.12192117, -0.45667264, -0.22421968, -0.24247012, 0.14847350, 0.01077706, 0.27813503, -0.00085134, -0.71535689, -0.25744841, -1.05221522, -0.18844849, -0.86643600, -0.10910527, -0.13655645, -1.02234089, -0.28904712, -0.31055835, -0.05098957, -0.45285112, 0.24490929, 2.03703332, 0.68517238, 0.13458300, 0.06447167, -0.04418809, 0.03576063, 0.28018901, 0.02070015, -0.06652246, 0.69726813, 0.11990704, -0.06900521, 0.16569367, -0.21870591, 0.74103475, 0.41987640, -0.60659635, -0.04424451, 0.45754510, -0.47248271, 0.16678640, -0.28881633, 0.35585970, -0.03491462, 0.11782829, 1.52135503, 0.03553117, -0.14203332, 0.04653761, 0.54751062, 0.51640207, -0.96229136, 0.05175038, -0.20039095, 1.43099368, -0.09021482, -1.22464025, 0.97369784, -0.04677309, 0.94356638, 1.50363648, 0.14217296, -1.07185829, -1.83195341, 0.22951148, -0.63249296, -0.74630034, -0.18031763, -0.26741502, -0.28547740, 0.74514955, -1.84909749, 1.01332986, 0.37533006, -1.49397278, 0.43227246, -0.05636915, -0.08093224, 0.07923172, -0.00531413, -0.66206986, -0.65501583, -0.11840671, 2.53743052, 0.65652740, -0.08600216, -0.44738352, 0.23690078, 1.12219179, 0.54329240, -2.01351285, 0.80345255, 0.35865340, -0.51026988, 0.10334707, -0.04823451, -0.19258533, 1.86377454, -0.89661521, -0.20299058, 0.44548583, -0.65006363, -0.16189866, 0.50200379, 0.00023665, -0.18804966, 0.54639322, -0.90473676, -0.25180897, 0.00868242, -0.89263058, 0.44349051, -0.01682070, -0.61667883, -0.03351194, 0.06006997, -1.92578983, 2.59928370, -0.10475255, -1.38012969, 0.85577506, -0.11615410, -0.21785557, -0.43002486, -0.64491886, -0.14073542, -0.22567421, -0.16703445, -0.40704283, -0.20115213, 0.19929844, -0.14013171, -0.74690783, -0.45165086, 2.10555124, -0.26480860, 0.06672115, -0.26480860, 0.36768717, 0.31898472, 0.09974098, 0.33389926, -0.01028870, 0.56973541, 0.62641066, -0.07266177, -0.57048112, -0.52536464, -0.09507665, 0.35094959, 0.21761988, -0.34583437, 0.37296733, 0.28578594, 0.02799479, -0.07967535, 0.01964084, 0.28322724, -0.91106957, -0.10677008, -0.39335653, -1.01540256, -1.04016852, 0.33012441, 1.65984333, 0.83519101, 0.04560933, -0.41147313, 0.38919964, 0.41967914, -0.19020374, 0.46012306, -0.76609027, -1.00347865, -0.74967825, 0.05983453, 0.17934230, 0.40319762, 0.18708371, 0.28094810, 0.73091668, -0.25207916, -0.48125669, -0.14619946, 0.16622092, 0.18859406, -0.08009870, 0.16292232, 1.04006398, -0.49937987, -0.00754735, -0.04765048, 0.35280713, 
bias
0.29322898, -0.71671641, 1.61754680, 3.07397366, -0.37078041, -0.05552125, 0.52497971, -0.61340511, -0.35142732, 2.02986574, 1.71243811, -0.24529338, -0.09258737, 0.85873818, 0.96178257, 0.88497859, 1.51185143, -0.57714361, 0.07452750, -0.06210405, 0.58979011, 1.83278465, -0.40605605, 0.08704305, 
layer18
kernel
-0.01341887, 0.23877566, -0.23342595, 0.22343981, 0.20328921, 0.08452551, 0.08176149, -0.09477913, -0.03303450, -0.06593525, 0.14791965, -0.17065594, 0.08626417, 0.24180716, 0.04199527, 0.01892462, -0.19205481, 0.05893604, -0.05006443, 0.19490799, -0.42476746, 0.37982985, -0.29441270, 0.38054314, -0.05460051, -0.23435386, 0.26704523, -0.05814536, -0.02248763, 0.41947371, 0.12840228, -0.10526230, 0.04061805, -0.14287709, 0.46713224, -0.27886140, 0.39269042, 0.21781123, 0.34010851, 0.19112641, 0.02039519, 0.00442798, -0.23533854, 0.29087451, -0.09182142, -0.17350063, -0.03384838, -0.28063384, -0.04900487, 0.02595236, -0.00396291, -0.05941018, 0.06681818, 0.13295405, -0.00445028, -0.13383131, -0.03155709, -0.03277551, -0.07442112, 0.27175650, -0.03886762, -0.09991048, 0.01503531, -0.08182912, -0.03138651, 0.02729262, 0.10380942, 0.00688408, 0.05170977, 0.18724686, 0.08621544, 0.02682962, 0.36030316, 0.13103756, -0.06708910, -0.44342950, -0.09301595, 0.20140092, 0.18309174, 0.06010621, 0.33624732, -0.35281914, 0.14259773, -0.01060796, 0.51586431, -0.45652658, 0.09121177, 0.42284837, -0.19859441, 0.33250532, 0.01526878, 0.30444014, -0.20581116, 0.01546090, 0.41001859, -0.06040691, 0.02304980, -0.20950483, 0.03183704, 0.05854597, 0.44101781, 0.01651947, 0.07708196, -0.10501950, 0.55896443, 0.08162248, 0.12243372, -0.33546412, 0.15801001, -0.10416482, -0.22926943, 0.08140881, -0.05790495, 0.67819309, -0.01068357, 0.01378181, 0.02379765, 0.16078775, -0.23909831, -0.03023451, -0.01741274, -0.06309161, -0.05927094, -0.01376959, -0.07952382, 0.08689465, -0.04141866, -0.00841052, 0.04892473, -0.05852710, -0.06802803, 0.14241256, -0.04733561, -0.04740323, -0.01575600, 0.02829993, 0.06004860, 0.00272180, 0.01114077, 0.00462790, 0.05707322, -0.06315923, 0.09291304, 0.05294826, -0.10167746, -0.35936794, -0.52567935, -0.18045250, -0.15378426, -0.09814218, 0.71566170, -0.21626633, -0.27452144, -0.28189939, -0.07235777, -0.04157786, -0.38887975, -0.08500020, -0.37658316, -0.04346077, 0.24024469, -0.10083206, -0.42177314, 0.17399679, -0.03164451, -0.05487354, 0.19443987, -0.26207113, 0.47402844, -0.31570974, -0.16805901, 0.19016796, 0.13984303, 0.39734283, 0.31787425, 0.19805299, -0.26685360, 0.49783808, -0.34508529, -0.27056417, -0.20021750, -0.37229630, -0.23933335, 0.02234087, -0.28215978, -0.50123948, -0.38466495, 0.48670632, -0.23299441, 0.30875239, 0.10211866, -0.09129608, 0.06158046, -0.01251167, -0.26818594, 0.20219253, 0.23328365, 0.20861135, -0.15515469, -0.25013304, 0.10621126, -0.07060692, -0.29747176, -0.14412236, -0.11283065, -0.09387510, -0.22004485, -0.05019711, 0.04706292, 0.13479502, 0.16337879, 0.08865982, 0.22526014, 0.03299670, 0.03530346, 0.43928736, -0.04542664, -0.17034993, -0.18523976, 0.22221202, -0.08195724, 0.07867642, -0.03864419, 0.54057711, 0.14473434, -0.14902464, 0.00766575, 0.09728874, -0.03545802, 0.01593087, 0.00245864, 0.12637441, 0.06776141, 0.00399060, -0.10328253, -0.11407135, 0.00097793, 0.02612032, 0.02733485, 0.09508049, 0.28616130, 0.55312032, -0.24260484, -0.08939613, 0.21719690, -0.40605867, 0.06574450, 0.04197579, -0.01820707, -0.11035476, -0.05368452, -0.60182863, 0.31121799, -0.10988641, 0.15127677, -0.15572608, -0.00834979, 0.17305499, 0.02268566, 0.00489205, 0.16462471, -0.12481504, 0.06123665, 0.28803471, -0.48072720, 0.05602209, -0.16688205, -0.26113278, -0.16348127, 0.00790230, 0.05095125, 0.03455454, -0.10317781, 0.17611280, -0.13323843, 0.07244916, -0.25967529, 0.96388358, 0.12279313, -0.02233293, 0.05098162, -0.26647687, -0.08161917, 0.13408864, 0.09376489, -0.10257053, 0.08793494, -0.17987797, 0.10941224, 0.28194690, -0.01434179, -0.26115364, 0.48814690, 0.05569627, -0.15000863, 0.08806200, 0.07271458, 0.22959241, -0.46215531, -0.31214666, 0.26585689, 0.23590466, 0.02623913, 0.10538973, -0.15780611, 0.09177508, -0.12537850, 0.02837416, 0.10637988, -0.17946577, 0.06584537, -0.27204534, 0.09138333, -0.13688274, -0.20327343, 0.08824323, 0.03780937, 0.01454700, -0.19289188, 0.02912603, 0.06574985, -0.04825501, -0.06514106, 0.03354781, 0.08004051, 0.06405164, -0.15149382, -0.10971126, 0.04870360, 0.14034326, 0.13585740, -0.08901224, 0.00688900, 0.01829589, -0.01845610, -0.34374487, 0.11855634, -0.15424220, -0.00294594, -0.05803908, -0.07429597, -0.11439300, 0.00269503, -0.01439825, 0.07910365, -0.04958847, 0.07384989, -0.06532494, 0.07503942, 0.02463315, 0.07702197, -0.09253541, 0.02190715, 0.09342755, 0.12668478, -0.00964633, -0.20677970, -0.03521500, 0.17099473, -0.08941290, -0.24572413, 0.10968093, 0.28832000, -0.13548820, -0.06673817, 0.20243450, 0.51364803, -0.32578218, 0.23254299, 0.47313341, 0.14096878, -0.49810821, -0.24114542, -0.13881817, -0.18842088, 0.21478315, 0.05466703, -0.11578587, -0.00244545, 0.36629683, -0.13278261, 0.12230707, -0.14402126, 0.27735886, 0.03416503, -0.03748720, 0.03629778, -0.03301663, 0.11123117, 0.00656231, 0.07411309, 0.06422862, -0.11516856, -0.10179785, 0.00168287, 0.05832254, -0.00877196, -0.04450067, 0.03560054, 0.15437835, 0.14322244, -0.09408713, -0.13641404, 0.17406529, -0.13912098, -0.03416503, 0.01670313, -0.15765952, -0.07572189, 0.03005127, 0.07969523, 0.18231712, 0.02774490, -0.28790760, -0.00619979, 0.00782109, 0.07773140, 0.04199414, 0.13363224, -0.34015480, 0.09271136, -0.00296003, 0.08709387, 0.00671929, 0.02323493, -0.01382678, 0.08261815, 0.02847563, -0.17948554, -0.47643593, 0.03902555, 0.01355276, 0.36966237, -0.14541864, 0.22669001, -0.16535142, 0.07968579, -0.13554287, 0.05082858, 0.20711964, 0.14079787, 0.18990497, -0.12158992, 0.16218030, -0.23411949, 0.36748788, 0.01458717, -0.38742065, 0.36875632, -0.19715326, 0.13617709, -0.04860879, -0.02220919, 0.25405228, 0.08353645, -0.06577816, 0.05303509, 0.22997728, 0.12129101, 0.06260756, 0.03909257, -0.26612675, -0.08966022, -0.07449884, 0.07313135, 0.09108717, -0.00229464, -0.07087200, -0.14067379, -0.10880517, 0.05892127, 0.10119475, -0.13639294, -0.06462909, 0.12355036, -0.06563985, -0.01690048, -0.01518367, 0.06129953, 0.14257640, 0.15110573, -0.11776055, -0.04409097, -0.08463693, 0.01188130, -0.04890996, 0.40235779, 0.10828875, -0.25944987, 0.33633211, -0.36114714, 0.49098286, -0.29423520, 0.00746389, -0.35294932, 0.26011455, -0.02329177, 0.13581792, 0.36557838, -0.06270223, 0.23352705, 0.00354846, 0.32658336, -0.16495340, -0.06475016, -0.10382354, 0.10309789, -0.09115261, -0.03575214, 0.06469434, -0.13753828, 0.19916259, 0.10734015, -0.04370636, -0.11733177, 0.03720343, 0.06374542, -0.05487018, 0.00918224, 0.16522457, 0.09578560, -0.05548419, -0.06368960, -0.04934409, 0.02749091, -0.11576883, 0.13017017, -0.24761356, 0.05371831, -0.05044428, 0.09531059, -0.08269952, 0.03767153, -0.26564088, 0.16176124, 0.24931116, 0.12716162, -0.04199648, -0.05521385, 0.12546399, 0.04033926, -0.11843089, -0.07797037, 0.03985422, 0.12449390, 0.06822912, -0.16168040, -0.05796242, 0.10290957, -0.06733988, -0.09345127, 0.22861607, -0.20978865, -0.11100838, 0.10922512, 0.67101800, -0.28455850, 0.11635819, 0.37474087, 0.11578500, -0.06916530, 0.00822373, 0.33831128, 0.08279455, 0.07260446, 0.43842900, 0.11438385, 0.13476406, 0.14368039, -0.06158641, 0.01665444, 0.29576761, 0.04244813, 0.40785870, -0.05120524, -0.19641414, 
bias
-0.40390402, 0.06887734, 0.41609430, -0.35039788, -0.84513187, 1.12448180, 2.19149971, 0.25783467, 0.87636727, 0.14679110, 1.10597730, -0.11468232, 1.12179041, 1.59307647, 1.25752449, -0.02105725, 1.25097096, 1.67835617, -0.63614714, 1.09584463, -1.30331135, 1.10103750, 0.55399120, -2.27752781, 
layer19
kernel
0.19945927, 0.77093267, 0.12669516, 0.08425961, 0.14785178, 0.00419617, 0.16888611, -0.08126345, 0.21107706, -0.02078019, -0.23617984, -0.04428372, -0.27943736, -0.48404238, -0.50740772, -0.20823610, -0.29301456, -0.01319236, 1.61208105, 0.13294177, 1.60719967, -0.67302245, 0.20105250, -1.06658506, -0.30218893, 0.96651638, -0.24467997, 0.27789268, 0.09990841, 0.07651173, -0.05194195, 0.50781888, -0.27502513, 0.01571456, 0.48018605, 0.10596939, 0.16703127, 0.40361995, -0.06437176, -0.06838769, 0.67498726, 0.61010867, 0.04327841, -0.05875727, 0.36275887, -0.16728629, -0.71560806, -0.53650749, -0.66040856, -1.46775103, 0.10742064, -0.81568199, -0.39553031, -0.06815551, -0.29167604, -0.39291736, -0.35677364, 0.29323062, 0.02810370, -0.45976385, -0.39913565, -0.25125724, -0.27457580, 0.14753576, -0.09687698, 0.29815271, 0.04984316, -0.05700245, -0.04114326, 0.38678294, 0.94103891, -0.01824939, -0.12292029, 1.39470887, -0.73016125, -0.31965584, -0.33774164, -0.69651324, -0.00807683, -0.37012783, 0.23869039, 0.10197064, -0.15204924, -0.00563646, 1.04676831, -0.13789053, 0.14911985, 0.63330603, -0.10922436, -0.04697485, 0.21565557, 0.17542660, 0.23240781, 0.04606865, 0.24467705, 0.19477426, 0.17825797, 0.44428822, 0.11036421, 0.04892117, 0.23347206, 0.31528851, -0.03740783, 0.10290315, 0.90757203, -0.03468764, 0.06848964, 0.08093080, -0.15701324, -0.54717231, -0.15905981, 0.02283978, -0.57205862, 0.11886507, -0.08194486, -0.18746626, 0.29798132, 0.16125686, -0.01255794, 0.17207602, -1.20185304, 0.30458486, 0.82678920, -0.19031401, 0.71303356, 0.18691370, 0.23028302, -1.31854117, -0.88050479, 0.78447658, -1.67827749, 0.45576462, -0.21495545, -0.01315771, -0.12289763, 0.32493868, 0.08890124, 0.17795736, 0.54951501, 0.44946238, -0.14380628, -0.07833067, -0.05540840, 0.24068385, -0.09142179, 0.54407793, -0.00307000, -0.49092248, -2.29542446, 0.12273062, 0.08536875, -0.51318651, 0.01411506, -0.84947532, -1.20890760, -0.40651292, 0.29868323, 0.60698503, -0.22173432, -0.07682233, 1.03425395, -0.13136999, 0.04864604, 0.25146627, -0.02417489, 0.34058157, 0.43372601, -0.07542803, 0.24222293, 0.19920585, 0.04435026, -0.54906070, -0.87299031, 0.46024999, -0.40545189, -0.70832610, 1.51599061, -0.28667772, 1.01821876, -0.13686027, 0.16702114, -0.06315807, 0.07683533, 0.53103197, 0.85219055, 0.36485109, 0.03615368, 0.14993624, 0.18438610, 0.14610671, 0.24360849, -0.01972295, 2.17072821, -0.67492247, -0.15267494, 0.44926718, -0.58325917, 0.02689327, 1.09592116, -1.11627877, -0.02438679, 0.44685081, -0.31893679, -0.04007916, 0.34438390, -1.08099210, 0.20663033, 0.19824898, 0.69840658, 0.30223253, -0.31308439, -0.44638416, -0.45869374, -0.00795162, -0.31713361, -0.38030118, 
bias
-0.26000905, 3.39095592, -2.18703842, 0.33061868, -0.08524892, 5.74435616, 1.78490186, -0.69740570, 1.18958306, -0.08259690, 0.20400643, -0.13723129, 2.09879303, -0.03422749, 3.50568390, -0.28159225, 4.46250248, 0.96235400, -0.03829598, 0.63878930, 0.24281201, -1.10320532, 0.92113864, 1.14619040, 
layer20
kernel
0.29878107, 0.00942575, 0.34091023, 0.03363226, 0.14124902, 0.02175920, -0.12063673, -0.23300271, 0.01954612, 0.03214610, 0.42697778, -0.18492894, -0.00307528, -0.02293843, 0.11501521, 0.02476381, 0.29180261, 0.39389476, -0.04222609, 0.05427684, -0.19022739, 0.21090429, -0.02754227, -0.08212603, 0.04071400, -0.22609788, -0.07416447, 0.25537047, -0.07192534, 0.04415462, -0.00606887, -0.16241911, -0.05171853, 0.55443132, -0.06471642, 0.11796411, 0.00249343, -0.11261203, -0.02652827, 0.07957117, 0.00918864, 0.02478066, 0.15127805, 0.27612340, 0.06264113, 0.23964190, 0.34056675, -0.01417208, 0.53002632, -0.26087233, -0.02009697, 0.17487048, -0.11403211, -0.05797163, 0.13831967, 0.26182792, 0.24096450, -0.41790539, -0.57812369, -0.18124098, 0.04893347, 0.16204982, -0.21850845, 0.44498006, -0.51792240, -0.10137072, -0.18092245, 0.24590164, -0.15480337, -0.24669796, 0.19541536, -0.18633738, 0.15574819, -0.27677265, -0.07765616, 0.06447132, -0.08419410, 0.13482678, 0.24117723, -0.07525892, -0.05648051, 0.24088666, -0.05539085, 0.10242768, 0.19337764, 0.00101474, 0.07743823, 0.15778221, -0.04220602, -0.19047189, -0.07144512, 0.07598536, -0.02415404, 0.07554949, 0.05085062, -0.06806719, -0.15963095, 0.09468307, 0.01361558, -0.03503013, 0.32155725, -0.01996691, 0.07376411, -0.11007232, -0.26354757, -0.28211904, -0.20292954, -0.21065027, -0.38144496, 0.45489606, -0.14669354, 0.18529712, 0.26417357, 0.18874013, 0.22097932, -0.12123606, -0.32844329, -0.19280915, 0.13333879, -0.02063204, 0.38570023, 0.21469061, 0.08468765, 0.32329881, -0.08498479, 0.12086562, 0.07295024, 0.19775309, 0.26817754, -0.11113396, -0.20919335, -0.31438431, 0.12963153, 0.33043039, 0.34915084, 0.18036984, -0.56636721, -0.16001508, -0.28957233, -0.22301081, 0.12220279, 0.62995726, 0.08424193, -0.28556082, -0.07039592, -0.10261101, -0.03570680, -0.06341248, 0.00705802, 0.07334371, -0.16914673, 0.20606422, -0.09004782, -0.23540170, -0.28733888, -0.17672674, -0.12605292, 0.51459908, 0.19076382, 0.30348152, 0.61033195, 0.07183472, 0.27147698, -0.08050261, -0.13047460, 0.03800537, 0.03161851, -0.02777586, 0.47533545, 0.21749495, -0.17506257, -0.14016598, 0.29030243, 0.03909924, -0.26201418, -0.10573315, 0.13842696, 0.04582350, 0.30491030, 0.33134359, 0.10300867, 0.01952063, -0.16532399, -0.09703799, 0.20195960, 0.04243238, -0.09993637, -0.32183686, 0.07234374, -0.09726986, -0.04466414, -0.06086612, 0.43208757, 0.28082302, -0.27709228, 0.05095853, -0.23707160, 0.21231306, 0.07503876, -0.26352593, 0.41682547, -0.10132352, 0.17907554, 0.05057697, 0.22537065, -0.51925123, 0.09055525, 0.48126552, -0.04646468, -0.19789882, -0.04574396, 0.31406051, 0.03516647, 0.26199973, -0.07135041, -0.13786782, 0.22025786, 0.07057916, 0.01136579, -0.14141268, -0.12208288, -0.01826474, -0.29706836, -0.14370172, 0.01947286, -0.37947428, -0.25217745, 0.13441834, -0.53106052, -0.12310024, 0.02314488, -0.04101222, -0.08367764, -0.03627515, 0.47205380, -0.21555258, -0.31817850, -0.01799451, 0.17689301, 0.41737086, 0.36067724, -0.29108110, -0.08505540, -0.29954550, -0.09881005, 0.10063224, 0.30824503, 0.02273336, -0.04526100, -0.47917876, -0.09798712, 0.02991928, -0.25393182, -0.28990549, -0.14412983, -0.44790754, 0.28731915, -0.31083137, 0.15494543, 0.53419733, 0.09199151, -0.07858955, -0.12073518, 0.14330690, 0.01006924, 0.16364656, 0.42694086, -0.09658004, 0.05590640, 0.11223594, -0.06193605, 0.10409064, 0.10990871, 0.05966171, -0.12842077, -0.02742429, -0.24414755, -0.23568490, -0.00734532, -0.21939430, -0.08859340, 0.28328732, 0.17136873, -0.10821618, 0.22383718, 0.14016269, 0.07775063, 0.33342856, -0.01771781, 0.15180519, 0.04563590, 0.11886559, 0.57640380, -0.18285805, -0.06863073, 0.04205892, 0.13223010, -0.06363869, -0.19339243, 0.23930347, 0.14425817, -0.12468309, -0.09881882, -0.07181463, 0.50187695, 0.25534090, 0.34055936, 0.11957312, 0.20801479, 0.15730824, 0.03217311, 0.03162281, 0.55535614, -0.02624273, -0.24441597, 0.25397715, -0.04460759, 0.18004636, -0.04615624, -0.03827837, 0.17142783, -0.46540031, 0.01291095, -0.26246101, -0.25774774, 0.18462496, 0.27929404, 0.05184581, 0.20590194, 0.17560244, -0.05531342, 0.15176682, 0.40426266, -0.06218131, 0.05854537, 0.14153233, 0.35190961, -0.13812818, -0.16741331, -0.11402896, -0.13519967, 0.32238042, -0.26625061, -0.11854375, -0.21036482, 0.06503738, 0.04392769, -0.09529869, -0.16546096, 0.44879457, -0.41316432, -0.04234141, -0.22354314, -0.24709326, 0.10927013, -0.12653615, 0.14605957, -0.14264297, 0.30920213, 0.09834921, -0.09644706, 0.08811312, 0.27251148, 0.53531355, -0.10817929, 0.12274344, 0.02524453, 0.34436131, -0.06387999, -0.11319583, 0.35439438, 0.00148296, -0.04729304, -0.28254455, -0.15883018, 0.20470725, -0.52981150, -0.11894058, 0.00235150, 0.58839178, 0.17897725, -0.01600034, -0.06185719, 0.15810196, -0.05151907, -0.11994964, -0.01235673, 0.32759503, 0.06102089, 0.30161756, -0.24234012, -0.21148098, -0.14941402, 0.33003587, -0.08673684, 0.37588871, -0.03048865, 0.02769913, -0.21688569, 0.00550550, 0.25314954, 0.05147548, -0.02900672, -0.16484357, -0.10469442, -0.04785781, 0.01929786, -0.06324380, -0.02602705, 0.15286461, -0.06767957, 0.17246579, -0.10521769, -0.09276662, 0.07797328, -0.18750569, 0.08832861, 0.01231238, 0.11600450, 0.04724625, 0.02648934, 0.00899929, 0.04724625, 0.01701235, -0.06872743, 0.11440189, 0.12919524, 0.01910808, -0.05297868, 0.21881828, 0.00699602, 0.16334322, -0.08910429, -0.48379964, 0.00218146, -0.19170788, -0.20855932, -0.13372439, 0.28049508, -0.23392709, 0.34717607, -0.17422223, 0.03777986, 0.06677160, -0.13843556, 0.08375894, 0.11451737, 0.53381038, -0.09694113, -0.07447253, -0.03857260, 0.02937679, 0.04937655, -0.61607444, 0.31093639, -0.16670249, -0.10612204, -0.05464038, 0.05691244, 0.01728986, 0.27796769, -0.06710903, -0.00154299, -0.05150937, 0.06633320, -0.00558665, 0.13033892, -0.01179672, -0.13987051, -0.14463630, -0.19484338, -0.06478155, -0.08855510, -0.02680759, -0.05425247, 0.15394622, 0.00867956, -0.08162807, 0.05186957, 0.06600070, -0.07505589, 0.12869878, -0.12472524, 0.01121699, 0.72495162, 0.07417288, -0.12980254, -0.09917312, -0.03043627, 0.33024594, 0.01452828, 0.05960321, -0.02436557, 0.05002806, 0.15717587, -0.02644892, 0.19205478, 0.20905274, 0.18786049, -0.30817068, 0.10579570, 0.12814690, -0.24282789, 0.00665362, -0.25933516, -0.07900847, 0.22580895, -0.13718633, -0.22950669, -0.12350468, 0.13447465, -0.07278394, 0.14384227, 0.19450137, -0.00161391, -0.39171442, -0.01908961, -0.22063211, 0.04551307, -0.13928172, -0.22568569, 0.26870278, 0.55268955, -0.39048183, -0.06477216, -0.07364675, -0.16800086, -0.11949878, 0.10270042, 0.35419515, 0.01812275, 0.01956680, -0.20516978, 0.00647654, 0.07786286, -0.19997123, 0.05686646, -0.50645518, 0.28834674, -0.08519860, -0.14186290, -0.06342242, 0.05611555, 0.16854882, -0.12880874, 0.16288817, -0.09426720, -0.09195673, -0.02789893, -0.11979790, 0.16335027, 0.17478710, 0.12661038, 0.13419819, -0.09749441, -0.23381013, -0.01829674, -0.02607203, 0.05501155, 0.07989248, -0.17213719, -0.22145788, -0.01197725, -0.27669001, -0.02052456, -0.12475755, 0.10040601, 0.19675343, -0.15413822, -0.05280580, 0.15272653, 0.06202586, 0.32045221, -0.37197867, 0.05086473, 0.09281821, 
bias
-0.85251164, -0.91442466, 1.77603817, 0.44652247, 0.51318598, -0.52343315, -0.10423249, -0.48995727, -1.30913115, 0.99307728, 1.28977704, 0.14192009, -1.69893658, -0.52419037, 1.20922124, -0.71985352, 0.48282075, -0.05740082, 1.68476272, 1.50563133, -0.67995739, 1.20036936, 0.43894696, 0.83293170, 
layer21
kernel
0.09410749, 0.26079458, -0.48370016, -0.62639910, 0.05621846, 0.77254248, -1.04121017, -0.07264113, 0.18612368, -0.22380856, 0.32806602, 0.75983000, 0.20683640, 0.06718919, 0.39576811, -0.23126884, 0.44425997, -0.29039159, 0.58934760, 0.35230374, -0.08979759, 0.52519357, 0.17433961, 0.09369395, -0.28543127, -0.02564351, 0.01361462, 0.10500447, -0.23026890, -0.05160501, 1.17530906, -0.32045466, -0.10622007, 0.69740564, -0.07391991, 0.28780717, 0.23272577, -0.07704988, 0.04215002, 0.49355155, 0.88118768, 0.42150024, -0.04147454, -0.00807763, 0.05075115, 0.18241048, 0.36654487, 0.02674743, -0.63655120, 1.02744615, 0.30922511, 0.08576418, -0.00583501, 0.07827597, 0.00270428, 1.69709527, -0.30594477, -0.36097491, -0.78182715, -0.38064888, -0.15454060, 0.00971225, 0.11505006, 0.56385356, 0.31228381, 0.21896408, 0.13239035, 0.23611018, 0.05414372, -0.52956140, -0.29148364, -0.10041709, -0.38271308, -0.48758999, -0.10493948, -0.11150993, -0.50961661, 0.03682581, -0.35217613, -0.29360527, -0.17471141, -0.35839757, -0.29949903, 0.34396744, -0.32718134, 0.33336571, 0.43260974, 0.01280123, 0.78217250, 0.75802410, 0.31255120, 0.15882988, 0.09090921, -0.22222251, 0.75002998, 0.74631470, -0.11279476, 0.46232498, 0.36549449, 0.55725145, 0.71435976, 1.08806396, -0.33785912, -0.16537048, -0.30608156, -0.04531481, -0.05062167, -0.12170810, -0.09076028, -0.35828182, -0.30421591, 0.24215434, 0.22502078, -0.36703897, 0.29260316, 0.66782820, 0.05263811, 0.12464369, -0.21973495, 0.31558955, -0.37251344, -0.31319046, 0.25495797, 0.31253615, 1.05560017, 0.15550473, 0.14914095, 0.10183280, -0.08940439, 0.09571882, 0.33376300, -0.38367712, 0.24255450, 0.91970253, -0.07256589, 0.23297547, -0.32019940, -0.09022328, -0.05415018, -0.42477086, -0.10635484, -0.40661269, -0.30739143, -0.11275882, 0.94494593, -0.73559350, 0.19076239, 0.63263327, 0.23947781, -0.26750588, 0.00091088, 0.35540339, 0.08498984, -0.28882211, -0.35648900, -0.30579779, -0.37983057, -1.48065543, -0.21408203, 0.42179817, -1.19018292, -0.17423636, -0.02352682, 0.02848624, 0.62312973, 0.09151272, -0.42075309, 0.61231899, 0.30594328, -0.28907856, 0.03037811, 0.75421685, -0.64322597, -0.57432216, -1.30879903, -0.62236857, 0.22831355, -1.08681726, 0.24842601, -0.26462770, -0.22805779, -0.37183759, 0.13695171, -0.53922302, 0.63559645, 0.13080645, -0.33047894, 0.78776503, 0.39778426, -0.25635630, 0.06217352, 0.01062450, -0.00785379, 0.83934253, 0.24190754, -0.09922587, 0.49826384, 0.05878025, 0.81316650, 0.58450723, 0.54850161, -0.64015234, 0.14858174, -0.63454109, -0.25087053, -0.22293107, -0.19990148, -0.15373890, 0.29627487, 0.63529325, -0.16209802, 0.40502962, 0.47948614, -0.02940774, 0.08281563, 0.07381018, 
bias
1.15130568, -0.17997700, -0.51771420, -0.58759749, -0.65902263, -0.43110138, 0.25481713, 0.64018750, 1.17251658, -0.15281171, -1.40245938, -1.05336761, 0.33539999, -0.85947829, -0.23108715, 1.61234021, -0.19381797, 3.70911455, -0.18732947, 3.68810129, -0.15504596, -0.39877588, 0.47929883, -0.20973372, 
layer22
kernel
0.21259287, 0.08157108, 0.00070607, 0.16652919, -0.21936694, 0.08111948, 0.06384560, -0.06593427, -0.10996572, -0.06407140, 0.21677020, 0.04930958, 0.06604718, -0.03138652, -0.47960410, 0.15038434, -0.33125198, -0.01491706, -0.05899085, 0.27705944, -0.30889755, -0.01438078, -0.06503107, -0.20841552, 0.05500423, -0.09255028, 0.16274825, -0.01941218, 0.13981155, 0.71468979, 0.09276942, 0.24061611, -0.16829979, -0.16435528, 0.44529322, 0.06990577, 0.26428327, 0.45551977, -0.23316534, 0.22878253, -0.01523939, 0.41549012, 0.02063572, -0.04868568, -0.06541340, -0.02195056, -0.26939654, -0.48824471, 0.40770304, 0.21555297, -0.20385152, 0.31239784, 0.34303716, -0.21847834, -0.10515906, -0.20723878, -0.09415046, 0.21940213, 0.12217235, -0.08098633, -0.00389968, 0.21678470, -0.11016297, -0.20800862, -0.10831537, -0.59123099, 0.01741745, 0.58137715, -0.24757798, 0.26081911, 0.12948576, 0.21955609, -0.06644374, -0.02500899, -0.05816551, -0.05097651, 0.04167439, -0.06230462, 0.07711831, -0.02422474, 0.01662183, -0.13053472, -0.00763558, -0.00256380, 0.01432353, -0.00395939, -0.17332014, -0.03860272, 0.01363731, -0.04404894, 0.01402943, -0.15563086, -0.09010207, 0.04141297, 0.08073460, -0.15990068, -0.15481567, -0.17104055, 0.40186536, -0.09814850, -0.35454950, -0.14114842, -0.03818440, -0.02943256, -0.48978341, 0.07449056, -0.08711879, 0.18606655, 0.08016527, -0.58409548, -0.35071307, -0.06118296, -0.08951655, -0.33280975, -0.03712539, -0.20365015, 0.71485358, -0.24073558, -0.40058658, -0.39419252, 0.04755226, -0.09542013, -0.32108295, 0.04397532, 0.43722829, -0.17653249, 0.34359664, -0.29983172, -0.05959813, 0.06196522, 0.09689299, -0.05239165, 0.01791100, -0.05944032, -0.07117058, -0.01418940, -0.09605135, 0.20556884, -0.23018660, 0.34759438, -0.04003016, -0.27563477, -0.06022935, -0.33475947, 0.07017351, -0.03850887, -0.05016420, 0.10105308, -0.01865053, -0.12875210, 0.00464754, -0.10193881, 0.18809561, 0.01941548, -0.01873105, 0.17070320, -0.05185512, -0.09372573, 0.07649437, 0.15314977, 0.38971865, 0.04384335, 0.06340980, 0.08261392, -0.08494900, 0.04456803, -0.02874578, 0.20999716, -0.32710242, 0.05638589, -0.17783517, 0.15883751, -0.07277672, 0.26668131, 0.19083355, -0.39966488, -0.38423821, -0.03667404, 0.25339726, -0.05210070, -0.11605708, 0.06031397, 0.25182602, 0.47251302, -0.21768738, -0.14798172, 0.01107899, 0.35309923, 0.16369405, -0.13262646, 0.49536735, 0.22054417, 0.02791773, 0.08568674, -0.12198318, -0.34437519, -0.26499793, 0.55034906, 0.04718537, -0.26065594, -0.13059935, 0.06401064, -0.23148310, -0.03278552, -0.35658708, -0.14939208, 0.09884844, -0.26174143, 0.40380639, -0.01069388, 0.07795254, -0.06451946, 0.17245898, -0.22103515, -0.08745068, 0.05692096, 0.10511812, -0.14335611, -0.21430720, -0.71358192, -0.27915186, 0.22201295, -0.03333102, -0.45013237, -0.04601644, -0.15905841, -0.23786063, -0.10191950, -0.00110861, -0.10555430, 0.16109388, 0.31346425, 0.70485842, 0.11238770, 0.21125399, -0.03672955, -0.15120725, -0.22390305, -0.30183294, 0.15106186, -0.19856560, -0.10297006, 0.04035498, -0.00161424, 0.06391245, -0.23093154, 0.17261824, -0.32147416, -0.02391596, 0.39030296, 0.20976394, 0.14475897, -0.32802930, 0.49600431, 0.17330107, 0.23857917, -0.20525730, -0.29935062, -0.16742878, 0.01475756, -0.04226689, 0.01978486, -0.25073346, -0.11280274, 0.18866491, -0.07181726, -0.65997124, -0.05958074, -0.22782178, 0.12467903, 0.13980782, 0.48554519, -0.30755940, -0.08258539, -0.59055680, 0.07880320, -0.42253822, 0.18474923, 0.19151269, 0.45279580, 0.14817315, 0.03056906, 0.38231343, -0.04796717, 0.25701144, 0.11898348, 0.03753275, 0.07435355, -0.03691892, 0.14005111, 0.13964981, 0.32531449, 0.01807489, -0.13664012, -0.07497483, 0.01490635, 0.11289697, 0.05698355, -0.09236417, -0.07196514, -0.05196739, -0.19021268, 0.17884272, -0.06982490, 0.62280607, -0.01228122, -0.10313219, -0.03601601, 0.07143008, 0.26726085, -0.03902570, -0.06186594, -0.17088853, -0.33375099, -0.21453032, 0.01809002, -0.38826144, -0.07169125, 0.05129164, 0.06638233, -0.44645047, 0.03697429, 0.37622231, -0.13661051, -0.17139016, 0.32321677, 0.03097564, -0.48925620, 0.05777103, 0.24462810, -0.23693645, -0.28893873, -0.11119460, -0.47822037, -0.17406553, 0.21252380, 0.02296002, -0.44875634, 0.31318611, -0.38056692, 0.04423552, -0.24957860, 0.06771774, -0.17694207, -0.04720027, -0.06926750, 0.18394966, 0.04258469, 0.00616535, -0.27289236, -0.07587082, 0.22464769, -0.23421577, 0.03645303, -0.01058721, -0.24715289, -0.43662778, -0.00983760, 0.07445582, 0.22747768, -0.21569398, 0.29750893, -0.00323779, 0.15437600, -0.31930318, 0.22762893, 0.63203353, -0.21136971, -0.20548873, 0.25392041, -0.06732869, -0.21673180, 0.05448565, -0.03826968, -0.20791031, -0.03197788, -0.09919847, 0.08834458, 0.08436627, 0.08479869, -0.06745842, -0.31221139, -0.33106518, -0.46944141, -0.20701249, -0.07174397, 0.02512801, 0.11918189, 0.05031472, -0.01255666, 0.01516193, -0.01116229, 0.12599228, -0.03079355, -0.29167274, 0.19691432, 0.01221908, 0.03786814, 0.00932760, 0.04303464, -0.08013955, 0.01340062, -0.01443539, 0.04006977, 0.02628753, 0.08601058, 0.08213570, 0.17859671, 0.05321428, -0.23609565, -0.01993095, -0.02550868, 0.03107421, -0.07078964, -0.00657855, 0.04501245, 0.11004128, -0.10965072, 0.11218937, 0.21129487, 0.15417495, 0.08260418, -0.02663155, -0.01850295, -0.00910501, 0.10388990, -0.04779521, 0.06185550, -0.04664793, 0.13044822, 0.02938991, 0.14167692, 0.00401944, 0.12239749, -0.21452321, 0.51501298, -0.03403934, 0.09966091, 0.30140710, 0.03862597, -0.05641554, 0.03623438, 0.00931250, 0.63688630, -0.16498762, -0.17599553, 0.10287155, 0.00034349, 0.02904319, 0.12704964, 0.03518600, -0.21268857, 0.13248807, 0.10378888, -0.02806034, 0.06057627, 0.22401330, 0.00304732, -0.12846604, 0.01255805, -0.34678584, -0.04396934, 0.28198346, -0.48156649, 0.04412462, 0.12256551, 0.18726435, 0.07655168, -0.05652092, 0.06521644, -0.08679998, 0.03416099, 0.06128275, 0.04096731, 0.15362096, -0.17039089, -0.00400162, 0.29978859, -0.11024684, -0.08338388, 0.01124121, 0.51561987, 0.05559840, -0.15303667, -0.04973909, 0.10069344, -0.05590222, 0.10755102, -0.04700474, 0.00320635, -0.05052033, -0.02282963, 0.09704764, -0.04826341, -0.01766475, -0.02534697, -0.08350611, -0.22708108, -0.09904415, 0.03843278, 0.10546770, -0.14409579, -0.01236967, -0.11501621, -0.06011783, -0.12169652, -0.15523294, -0.31376868, -0.23678739, -0.16183859, -0.07018510, 0.38871750, 0.15548700, 0.61686671, 0.05668797, -0.31529307, 0.08028413, 0.00984497, -0.17352553, -0.17047676, -0.34832135, 0.09482928, 0.18838824, 0.07240816, -0.21963809, 0.04160294, 0.00200174, -0.21912996, 0.45690161, 0.05470976, -0.12967287, 0.08139955, 0.42806634, 0.11920292, -0.02617487, -0.06088875, 0.00666708, -0.13259073, -0.19841407, -0.13456456, 0.01169287, 0.02804144, 0.56331748, -0.38309708, -0.00391014, -0.39785796, -0.27685285, 0.08169992, 0.42532015, -0.22347330, -0.16983627, -0.40643990, 0.06229898, -0.07726767, -0.05164004, -0.38418347, 0.06910992, 0.03088013, -0.12675284, -0.25319782, -0.14683935, -0.09204395, 0.03005281, -0.05752747, 0.70002657, -0.05129372, 0.12074997, 0.25288999, 0.17239001, 0.18285654, 0.33739188, 0.18301047, 0.31060985, 0.03132265, -0.11320791, 0.11998037, 
bias
1.16264987, 0.03284979, -0.16960013, 1.65381253, 2.01270008, -0.08894545, -0.03517252, 0.07896829, 1.23641920, 0.49599603, 1.11223626, -0.56910563, -1.10437727, 1.72266126, 0.83839238, 0.78252333, 0.70929241, 0.58443058, -0.30578196, 0.97670102, 0.77816784, 0.84660715, 0.44766030, -0.40919566, 
layer23
kernel
