layer0
kernel
-0.06548123061656952, -0.025320827960968018, -0.0937991589307785, 0.03672710433602333, 0.11177327483892441, 0.02271699532866478, -0.03141925111413002, -0.078159861266613, -0.06464289128780365, -0.07824429869651794, -0.010619666427373886, -0.1021435409784317, 0.02172143943607807, 0.11466894298791885, -0.01307920552790165, -0.08520326018333435, -0.09856761246919632, -0.1097639873623848, -0.24111543595790863, -0.17979833483695984, -0.2230868637561798, -0.11102232336997986, -0.06075705587863922, -0.10528335720300674, -0.10581520944833755, -0.13778819143772125, -0.07749127596616745, 0.006240605842322111, 0.06405907869338989, 0.029625270515680313, 0.08717408031225204, 0.06373745948076248, 0.05866638571023941, 0.10702075064182281, 0.06756754219532013, 0.09485077112913132, 0.06850811839103699, 0.10924374312162399, 0.10308016091585159, 0.1026625856757164, 0.07530327886343002, 0.09678380936384201, 0.09356775134801865, 0.06283785402774811, 0.11624935269355774, 0.07573340833187103, 0.1070905402302742, 0.10957812517881393, 0.08646350353956223, 0.04109986126422882, 0.07362332940101624, 0.06617289036512375, 0.009634720161557198, 0.052752796560525894, 0.4135262668132782, -0.08938238024711609, 0.2698347270488739, 0.3769456744194031, -0.4172094464302063, 0.05415824055671692, 0.5212389826774597, -0.0663585290312767, 0.36205682158470154, -0.5173195004463196, -0.739540159702301, -0.7010939121246338, -0.4639999270439148, -0.8014104962348938, -0.6859028935432434, -0.5047143697738647, -0.7138481140136719, -0.6431093215942383, 0.12753736972808838, 0.8265196084976196, 0.423849493265152, 0.13628266751766205, 1.1631907224655151, 0.6437803506851196, 0.010821211151778698, 0.7601354122161865, 0.3012470602989197, -0.3686160743236542, -0.6048761606216431, 0.6385365128517151, -0.6119465827941895, -0.3881584703922272, 0.5290923714637756, -0.8674638271331787, 0.2839101552963257, 0.490396112203598, -0.16966210305690765, -0.36858993768692017, 0.7718918919563293, -0.33368149399757385, -0.2020817995071411, 0.5293508172035217, -0.4300270974636078, 0.42507219314575195, 0.4723508059978485, -0.6536919474601746, -0.40375572443008423, 0.7433228492736816, -0.6642768383026123, -0.29008492827415466, 0.5421202778816223, -0.5315065383911133, 0.23933710157871246, 0.5507709980010986, -0.18466871976852417, -0.08495041728019714, -0.13091427087783813, -0.21116694808006287, -0.14807401597499847, -0.20125271379947662, -0.10448653995990753, -0.06225169077515602, -0.1278054267168045, -0.021626682952046394, 0.07701506465673447, 0.03572099283337593, -0.11255522072315216, -0.053878989070653915, -0.09965003281831741, -0.0139921298250556, 0.05450541526079178, -0.03898583725094795, -0.09729943424463272, -0.02583775296807289, -0.049748506397008896, -0.07422593235969543, -0.0493973083794117, -0.09292564541101456, -0.03191271051764488, 0.01945529878139496, -0.06866759806871414, 0.42585793137550354, 0.19693619012832642, 0.3096213638782501, 0.34145355224609375, 0.12823857367038727, 0.3058159351348877, 0.24916771054267883, 0.16561280190944672, 0.27608543634414673, 0.018756398931145668, -0.24468889832496643, -0.09631618112325668, -0.07260386645793915, -0.31420794129371643, -0.06846584379673004, -0.2866116166114807, -0.3716742992401123, -0.23500387370586395, -0.02567385695874691, -0.3577519655227661, -0.1598169356584549, -0.048126496374607086, -0.3427235782146454, -0.050173625349998474, -0.15879638493061066, -0.2796936631202698, -0.07251787930727005, -0.009653436951339245, -0.02193433791399002, -0.02713867463171482, -0.010134642012417316, 0.012694694101810455, -0.0017786066746339202, -0.019323308020830154, 0.0002631289535202086, 0.0032684190664440393, -0.018927088007330894, -0.03203488513827324, -0.03292881324887276, -0.012505660764873028, 0.005278472788631916, -0.010773259215056896, -0.03436417505145073, -0.008916766382753849, -0.00759547995403409, -0.033932775259017944, -0.03446546569466591, -0.03761477768421173, -0.0390426367521286, -0.011684540659189224, -0.02054154872894287, -0.04890063405036926, -0.0219286996871233, -0.01957903988659382, 0.5918293595314026, 0.06328797340393066, -0.5331395864486694, 0.5357558131217957, -0.1982254832983017, -0.6766386032104492, 0.6885094046592712, 0.009034918621182442, -0.7345035076141357, 0.6727357506752014, 0.13134194910526276, -0.35867664217948914, 0.42208173871040344, -0.14384010434150696, -0.4406413435935974, 0.5837255716323853, 0.15312430262565613, -0.3956180512905121, 0.8321672677993774, 0.14818017184734344, -0.45192790031433105, 0.5311919450759888, -0.24749913811683655, -0.672965943813324, 0.6530770659446716, 0.06233162805438042, -0.5248411893844604
bias
0.8324341773986816, 0.06139242649078369, 0.28292256593704224, 0.8193325996398926, 2.0656042098999023, 1.5828101634979248, -0.03726549446582794, 0.11123701930046082
layer2
kernel
0.02115904539823532, -0.8754861950874329, -0.015576941892504692, 0.3744438588619232, -1.1481395959854126, -0.1797252744436264, -0.003479116130620241, 0.25810161232948303, -0.00789094902575016, -0.06069575995206833, -0.04735676571726799, -0.092631496489048, -0.03162823244929314, -0.02986367605626583, -0.005997394677251577, -0.08241692930459976, 0.03497041016817093, -0.14502613246440887, 0.01902168244123459, 0.08153562992811203, -0.0008630870725028217, 0.06960377842187881, 0.006325002759695053, 0.1822461187839508, 0.27063271403312683, 0.22588515281677246, 0.11803246289491653, 0.0888170525431633, 0.09986359626054764, 0.2937055826187134, 0.05321096256375313, 0.1300906091928482, 0.02716011181473732, 0.1981329619884491, 0.023888034746050835, 0.14597977697849274, 0.009441759437322617, 0.0747985914349556, 0.005627406761050224, -0.025800367817282677, -0.07646974176168442, 0.11624055355787277, -0.010281936265528202, -0.06986971944570541, -0.19517116248607635, -0.07005848735570908, -0.031672123819589615, 0.08634346723556519, 0.0887519121170044, -0.1514594554901123, 0.021996280178427696, 0.027473950758576393, 0.18134841322898865, 0.06984332203865051, 0.04713301733136177, -0.009474024176597595, 0.0077840406447649, -0.0034226083662360907, 0.005899989046156406, 0.0004188049933873117, 0.016423944383859634, 0.010343455709517002, 0.007831130176782608, 0.0024031000211834908, 0.09076898545026779, -0.16156823933124542, 0.004377401899546385, -0.06231635808944702, 0.21091581881046295, 0.0414392352104187, 0.04057030752301216, 0.050419408828020096, -0.7416166663169861, -0.5746309757232666, -0.26349353790283203, -0.015347771346569061, -0.22206206619739532, -0.8076479434967041, -0.19842924177646637, -0.14977213740348816, 0.17090579867362976, 0.06796061992645264, -0.006020708009600639, -0.7743867039680481, 0.2768692076206207, -0.09319314360618591, 0.012850730679929256, -0.6319844722747803, 0.0009594325674697757, -0.007596736308187246, -0.005267982371151447, -0.01442038919776678, -0.003434551879763603, 0.00034531476558186114, -0.004000382497906685, -0.01341432984918356
bias
2.4199602603912354, 0.15461643040180206, 0.13526993989944458, -0.7234759330749512, -0.28121238946914673, 0.6429092288017273, 0.2888033986091614, -0.17372789978981018, 0.33533889055252075, 2.625155448913574, 0.7961576581001282, 0.007611725479364395
layer3
kernel
-0.39101457595825195, -0.8053061962127686, -0.3071249723434448, -0.576842188835144, -0.7708466053009033, -0.49597474932670593, -0.25203651189804077, -0.25588133931159973, 0.013762344606220722, 0.5575425028800964, 1.7178014516830444, 2.4227097034454346, -0.030604494735598564, 1.0417158603668213, 1.941733479499817, -0.8401070237159729, -0.8391342759132385, -0.44243043661117554, 0.43427348136901855, 0.6174224019050598, 0.4123643636703491, 0.8314020037651062, 2.3301777839660645, 1.0298480987548828, 0.18872302770614624, 0.6831895709037781, -0.1795726865530014, -0.31157711148262024, -1.5203840732574463, -1.1935696601867676, 0.5327872037887573, 0.5769261717796326, -1.7566802501678467, 2.282327890396118, 2.8692426681518555, -1.26656973361969, 0.5406954288482666, -0.2822951674461365, -0.8369163274765015, -0.08597017824649811, -1.96065354347229, -1.607951045036316, -0.7091649174690247, -1.609730839729309, 0.09279411286115646, -0.14195257425308228, 2.3108205795288086, 2.3643102645874023, -0.5571180582046509, 0.12935075163841248, 0.4427203834056854, -0.1266898214817047, -3.137969732284546, -2.5906500816345215, 0.7433406710624695, 0.875727653503418, -0.06203237920999527, 3.154244899749756, 1.5056378841400146, -3.637622356414795, 0.5778461694717407, 0.664023220539093, -1.8439456224441528, 0.7217139601707458, 0.5751487612724304, 0.5471004843711853, -0.4065574109554291, -0.23482978343963623, 0.01345881912857294, -0.8337994813919067, -1.0158751010894775, -0.42101261019706726, 2.110959768295288, 2.804023504257202, 0.375150203704834, -0.014934239909052849, 1.4619847536087036, 0.5120388269424438, -2.4320805072784424, -2.7371716499328613, -0.41236189007759094, -0.6327601075172424, 0.1544906049966812, 0.14130067825317383, 0.05250627547502518, 1.0207537412643433, 0.7584682703018188, -0.1359439194202423, 0.394980251789093, -0.17737378180027008, 0.08001008629798889, 0.39114612340927124, 0.3771229684352875, 0.15091055631637573, 0.508881688117981, 0.4937269389629364, 0.25826969742774963, 0.4315015971660614, 0.24606308341026306, 0.022362789139151573, -0.0027910054195672274, -0.006624427158385515, 0.06712551414966583, -0.00305667775683105, -0.019403081387281418, 0.0478452704846859, 0.0043662418611347675, -0.002337800106033683
bias
0.9819933176040649, 3.340767216286622e-05, -1.4639708995819092, -0.05820794403553009, 0.7682262659072876, 0.570929229259491, -0.9094096422195435, -2.255837716802489e-05, -0.7776208519935608, -0.6943113803863525, -1.035005807876587, 4.3583503384070355e-07
layer4
kernel
-0.8016066551208496, -0.056752320379018784, 0.6415364146232605, 0.06519685685634613, 0.18437932431697845, 0.04919429123401642, 0.18155692517757416, -0.01443444937467575, -0.03801622614264488, 0.016605835407972336, -0.31859591603279114, -0.006669029593467712, 0.027716072276234627, -0.02767803706228733, 0.08045975118875504, -0.004268826451152563, -0.16837263107299805, -0.054413631558418274, -0.07546314597129822, -0.015499178320169449, 0.021621251478791237, -0.23275341093540192, -0.1693839728832245, 0.0031119922641664743, 0.044470448046922684, -0.05846645310521126, 0.20942917466163635, -0.051198605448007584, -0.14848816394805908, 0.09587761014699936, -0.09072717279195786, -0.008434467017650604, -0.1494341939687729, -0.2744445502758026, -0.23550893366336823, -0.0010196758667007089, 0.19267112016677856, 0.023064415901899338, 0.1781730353832245, -0.025105485692620277, -0.0018469386268407106, 0.025457249954342842, 0.010471724905073643, -0.011875230818986893, -0.003481397172436118, -0.3296801447868347, 0.10340249538421631, -0.005081661976873875, 0.07348126173019409, -0.048225224018096924, -0.1578904539346695, -0.46167126297950745, 0.04531572386622429, 0.022095544263720512, 0.06480734795331955, 0.03438911586999893, -0.09754405915737152, 0.13219846785068512, 0.06362339109182358, 0.006948272231966257, -0.0975751206278801, 0.028940772637724876, -0.40253087878227234, -0.0533873587846756, 0.2614026367664337, 0.0708564817905426, 0.024915281683206558, 0.02850068360567093, -0.09797275811433792, 0.20376679301261902, 0.55161452293396, 0.0032147392630577087, -0.0289913322776556, -0.03809351846575737, -0.0015607100212946534, -0.38486212491989136, 0.3249545693397522, 0.11759237200021744, -0.354247123003006, -0.04805917292833328, -0.008272796869277954, -0.13037823140621185, -0.039581913501024246, 0.007297987584024668, 0.22030982375144958, 0.05841980129480362, -0.6102959513664246, 0.07595047354698181, 0.025932487100362778, -0.1487344354391098, 0.24821776151657104, -0.04397796839475632, 0.05138012394309044, 0.06770690530538559, 0.4613304138183594, 0.007231805007904768, -0.013414113782346249, 0.0485500730574131, 0.13083159923553467, 0.6816855072975159, 0.06236882507801056, 0.09690353274345398, 0.05121545121073723, -0.09385807812213898, -0.06481347233057022, -0.11866947263479233, -0.035880979150533676, 0.0014428109861910343, 0.087142214179039, -0.004648154601454735, 0.12907542288303375, 0.026576507836580276, 0.3051246702671051, -0.0002238983870483935, -0.41787391901016235, -0.0024394530337303877, 0.03468675538897514, -0.0250651054084301, 0.05618033930659294, 0.020575830712914467, -0.13206543028354645, 0.03461451083421707, -0.2707441747188568, 0.15658444166183472, 0.3836804926395416, 0.7372943758964539, -0.1447785496711731, -0.06519974023103714, -0.5171783566474915, 0.006714608054608107, 0.313274085521698, 0.0040651061572134495, -0.038069188594818115, 0.011689298786222935, -0.45002007484436035, -0.05109914392232895, -0.1243184432387352, 0.05774158239364624, 0.5882081985473633, -0.021847017109394073, -0.13297662138938904, -0.04616035148501396, 0.10802046954631805, -0.004658942576497793, 0.04395783692598343, -0.05260222405195236, -0.031077967956662178, 0.006375263910740614, 0.1619514375925064, 0.5037996768951416, -0.11314938962459564, -0.022573169320821762, -0.48126959800720215, -0.015603815205395222, -9.880048310151324e-06, -0.005663849879056215, 0.12090890854597092, 0.06005089357495308, -0.21535862982273102, 0.009716845117509365, 0.40134042501449585, -0.14474232494831085, -0.5167616009712219, -0.0038619001861661673, 0.19321754574775696, -0.12715427577495575, 0.29890358448028564, 0.017178850248456, -0.024638554081320763, 0.010745071806013584, -0.06502615660429001, -0.08352629840373993, -0.1428263634443283, -0.49316713213920593, 0.12266406416893005, 0.03676300123333931, 0.5864696502685547, -0.11863017082214355, -0.06833330541849136, -0.0010614783968776464, 0.001145157846622169, -0.018817612901329994, -0.049173302948474884, -0.038562923669815063, -0.16274602711200714, 0.015513301827013493, 0.33742624521255493, -0.013534031808376312, -0.0804014578461647, -0.028577515855431557, -0.05119432136416435, -0.0012714487966150045
bias
0.18914221227169037, 0.21974635124206543, 0.34504464268684387, -0.3652212619781494, 0.3556881248950958, 0.07155122607946396, 0.05240899696946144, -0.07754243165254593, 0.1894863396883011, -0.01718161068856716, -0.00361012015491724, 0.008144061081111431, 0.2269168645143509, -0.03524276241660118, 0.13184025883674622, 0.2708878517150879
layer6
kernel
-0.21849042177200317, -0.5528879761695862, -0.38270682096481323, -0.15515302121639252, -0.39352020621299744, -0.11614125967025757, -0.013538283295929432, -0.1848164200782776, -0.19335106015205383, -0.6821274757385254, 0.5430068969726562, -0.0011540702544152737, -1.2304823398590088, 1.6693556308746338, 0.00930013507604599, 0.03005906008183956, 0.12072604894638062, 0.08791163563728333, -0.848976731300354, 0.0366961807012558, 0.17894111573696136, 0.10102518647909164, -0.01319507509469986, -0.03032856248319149, -0.06171358376741409, -0.26901620626449585, -0.8152313828468323, 0.05830223113298416, 0.39806708693504333, -1.533119559288025, -0.02699042670428753, 0.1494503617286682, 0.00030546128982678056, 0.001734503312036395, 0.000904107466340065, 8.398401405429468e-05, 1.088830777007388e-05, -0.000997447408735752, 8.518609683960676e-05, -0.00036221061600372195, -0.32531335949897766, 0.013925534673035145, -0.6697893738746643, 0.019230788573622704, -0.09997101128101349, -0.09014210104942322, -0.017929894849658012, -0.01242172159254551, -0.02205699123442173, -0.12543825805187225, -0.3139871656894684, 0.014550229534506798, 0.021897369995713234, 0.0961465835571289, -0.01011803187429905, 0.003425345988944173, -0.03564203530550003, 0.02800150215625763, -0.9515433311462402, -0.024049950763583183, -0.1931585967540741, 0.1361449509859085, 0.04651220887899399, 0.019390208646655083
bias
1.653259515762329, -0.008076649159193039, 0.006703227758407593, 1.8813140392303467, -0.1511361449956894, 0.9692307114601135, 0.757938802242279, 0.5967822670936584
layer7
kernel
-0.5811025500297546, -1.5178440809249878, -0.834934413433075, 0.4806640148162842, 0.26773568987846375, -0.660400390625, 0.9215237498283386, 1.3525657653808594, 0.02054256573319435, -0.05432465299963951, -0.23264586925506592, -0.11940822005271912, -0.20014028251171112, -0.5032821893692017, -0.3854134678840637, -0.042282383888959885, -0.15919779241085052, -0.09600875526666641, -0.09326710551977158, -0.34868183732032776, -0.16039370000362396, -0.3718836009502411, -0.7008224129676819, -0.19264455139636993, -0.04366372898221016, -0.24901260435581207, -0.06984211504459381, -0.25172537565231323, -0.3583037257194519, -0.2849186658859253, -0.13299648463726044, -0.31888389587402344, -0.33688080310821533, -0.16293050348758698, -0.21449147164821625, -0.11761728674173355, -0.23693518340587616, -0.4823889136314392, 0.06108560040593147, -0.5341739058494568, -0.6400781869888306, -0.37794509530067444, -0.3849194347858429, -0.22015230357646942, -0.24096007645130157, 0.15447451174259186, 0.102934829890728, 0.12033697962760925, 0.29290488362312317, 0.5279768705368042, 0.21806997060775757, 0.04780491068959236, 0.06915295869112015, 0.056548237800598145, -0.1239742785692215, 0.26481470465660095, 0.15259838104248047, 0.39343714714050293, 1.2144612073898315, 0.3844451904296875, 0.10033342242240906, 0.5660949945449829, -0.17272968590259552, 0.07381899654865265, -0.3566686511039734, -0.08676895499229431, -0.1843215674161911, -0.5413222908973694, -0.40794432163238525, -0.17019298672676086, -0.4176073968410492, -0.24804118275642395
bias
0.058713480830192566, 0.13086318969726562, 0.3882195055484772, 0.19847682118415833, -9.65907092904672e-05, -0.6638128757476807, -1.779353380203247, 0.48184096813201904
layer8
kernel
-0.0259133018553257, 0.7897852659225464, 0.1985739767551422, 0.21524593234062195, -0.06559573858976364, -0.18963968753814697, -0.14279884099960327, 0.44962647557258606, 0.07046859711408615, 0.0733228400349617, -0.2791644334793091, 0.3180781900882721, 0.02013556845486164, 0.2794778048992157, 0.39321961998939514, -0.4860634505748749, 0.2193659096956253, 0.043968647718429565, -0.15880383551120758, 0.41994476318359375, 0.08260984718799591, -0.15339533984661102, 0.2862674593925476, 0.14906767010688782, 0.017437398433685303, 0.3534909188747406, 0.5986127257347107, 0.7290905714035034, 0.05400663986802101, 0.10049683600664139, 0.3783966302871704, -0.5050237774848938, 0.45345017313957214, 0.29754048585891724, -0.12392352521419525, 0.07771637290716171, -0.0038783203344792128, 0.004169393330812454, 0.13783662021160126, 0.13994726538658142, 0.04563160240650177, 0.08249938488006592, 0.11290035396814346, 0.002693712478503585, -0.09504742920398712, -0.22133868932724, -0.5234935879707336, 0.0879952535033226, 0.0038279248401522636, 0.0506659559905529, -0.02007712982594967, -0.16450341045856476, 0.019339270889759064, 0.13430072367191315, 0.1982089877128601, -0.09814175963401794, -0.026049254462122917, 0.23765261471271515, 0.438921183347702, 0.3925577998161316, 0.0066336034797132015, -0.5170371532440186, -0.1201276034116745, 0.1637207567691803
bias
0.037073489278554916, 0.002964859828352928, 0.06847166270017624, -0.15298286080360413, 0.3581025004386902, 0.30958807468414307, 0.4181285798549652, 0.06633681058883667
layer11
kernel
-0.24694183468818665, -0.1862451434135437, 0.3487919867038727, 0.28770342469215393, -0.03943086043000221, -0.04314129427075386, 0.014847677201032639, 0.050863392651081085, -0.03287601098418236, -0.017817577347159386, -0.0255068801343441, -0.00596546521410346, -0.007918868213891983, 0.2555532455444336, 0.14505034685134888, 0.009326521307229996, 0.5737587809562683, 0.20991376042366028, -0.38026463985443115, -0.22608782351016998, -0.11510372906923294, -0.036188408732414246, -0.15658332407474518, 0.06514588743448257, 0.23978057503700256, -0.004487101454287767, -0.1447172313928604, -0.6253334879875183, -0.0208355151116848, 0.12065815180540085, -0.3387090861797333, -0.12982535362243652, 0.11044809967279434, -0.1468181610107422, -0.02304951287806034, -0.21167613565921783, 0.1660778820514679, -0.19588355720043182, 0.032245803624391556, 0.1469489187002182, -0.17669427394866943, 0.056082937866449356, -0.135863795876503, -0.2906656861305237, 0.3128790557384491, -0.9257184863090515, 0.5844631195068359, -1.1667828559875488, 0.0001652733626542613, 0.1657566875219345, -0.05416906625032425, 0.06888881325721741, 0.2636975347995758, 0.3268792927265167, -0.2994738221168518, -0.3107297122478485, 0.09585564583539963, -0.05834340676665306, -0.1185162216424942, 0.10503296554088593, -0.10056626051664352, 0.5476484894752502, -0.3387424647808075, -0.20254968106746674, -0.3154178857803345, -0.04626312479376793, 0.8655157089233398, 0.49857762455940247, -0.06600853055715561, 0.17053262889385223, 0.11648661643266678, -0.028236402198672295, -0.21790699660778046, -0.26725703477859497, 0.5836848616600037, 0.33409690856933594, -0.15185540914535522, -0.021597109735012054, -0.012473954819142818, -0.010548114776611328, 0.03641859441995621, -0.018623892217874527, 0.03845873102545738, 0.040716372430324554, -0.04665960371494293, 0.066862091422081, 0.14317217469215393, -0.0795588493347168, -0.22041356563568115, 0.5144233703613281, 0.14805668592453003, 0.17874448001384735, -0.23858092725276947, 0.575494647026062, -0.3133140802383423, 0.5654733777046204, 0.1788136512041092, 0.48194420337677, -0.22544369101524353, -0.45531657338142395, 0.633319616317749, 0.2820504605770111, -0.382448673248291, 0.017215441912412643, -0.3045465350151062, -0.3592013716697693, -0.20532694458961487, 0.05904930457472801, 0.11740337312221527, -0.09323067218065262, 0.054780013859272, 0.14647534489631653, -0.5368294715881348, -0.5022479891777039, 0.005538181867450476, 0.3748716711997986, -0.46521812677383423, 0.49572956562042236, -1.0066251754760742, 0.518202006816864, 0.5758095979690552, -0.03185718506574631, -0.38447847962379456, -0.10277699679136276, -0.0923825353384018, 0.22556599974632263, -0.08359125256538391, 0.1069507747888565, 0.12823618948459625, -0.03362846001982689, 0.03098411113023758, 0.0642116591334343, -0.0010762122692540288, 0.03373544663190842, -0.02541745826601982, -0.0240019578486681, -0.019182365387678146, -0.0021023808512836695, 0.04877418279647827, 0.02152051217854023, -0.008863802067935467, 0.0068841418251395226, 0.019399670884013176, -0.0012638288317248225
bias
0.29299867153167725, 0.09350340068340302, 0.29979443550109863, 0.6932439804077148, 0.21813447773456573, -0.26906803250312805, 0.048565179109573364, -0.12661227583885193, -0.058519147336483, 0.1857786923646927, 0.3826829791069031, -0.13542252779006958
layer12
kernel
-0.1657838523387909, 2.2243804931640625, -0.009377904236316681, -3.7127206325531006, 3.4948441982269287, 0.31030818819999695, -0.47780370712280273, -1.4064997434616089, -0.2607820928096771, 0.5357081890106201, 1.4543015956878662, 0.5563684701919556, -0.9511060118675232, 1.6257778406143188, -0.4078466296195984, -0.9196284413337708, -1.8358967304229736, -0.4645540714263916, 0.4934101104736328, 0.037871502339839935, -0.14581680297851562, 0.3480294346809387, -0.443372517824173, -1.132507085800171, 0.44849827885627747, -0.26463285088539124, -0.5263922214508057, 0.012072972021996975, 0.17152374982833862, -0.2596628665924072, 0.272164523601532, 1.293311595916748, -0.8928250074386597, -0.06459610164165497, -0.08680333942174911, -0.07158634066581726, 0.069442018866539, 0.6832858324050903, 0.8991731405258179, -1.1535593271255493, -3.7326700687408447, 1.2620540857315063, 0.3189221918582916, 0.4049561619758606, 1.4645646810531616, -3.778916835784912, 4.378857135772705, 0.5913422703742981, -5.1587910652160645, 13.742960929870605, 1.073042869567871, -2.4051244258880615, -2.6330130100250244, -3.878544807434082, -0.009976429864764214, -2.737173080444336, 0.1127033680677414, -1.1389973163604736, 1.425062656402588, 0.40266528725624084, -0.14273601770401, 2.412874460220337, -0.2859381437301636, -0.06674650311470032, -1.02967369556427, -0.4667016565799713, 0.39485469460487366, 0.875518262386322, -0.9691187739372253, -0.0784551277756691, -0.6629328727722168, -0.27537980675697327, -0.4292224943637848, -0.3447995185852051, 0.1275278478860855, -0.5057144165039062, -1.8335151672363281, 0.07443642616271973, 0.4329839050769806, 0.43169865012168884, 0.07845591008663177, 0.03720373660326004, -0.3199569582939148, 0.16353029012680054, -0.3897951543331146, -1.308589220046997, 1.3087660074234009, -0.01349882036447525, -0.020335836336016655, 0.10984068363904953, -0.31685394048690796, -2.4745349884033203, -0.062291763722896576, -1.190805196762085, 1.076582431793213, 0.20682641863822937, -0.21010708808898926, 2.7492239475250244, -0.09663991630077362, 0.8477816581726074, -0.9350042343139648, 0.20776225626468658, 1.8911361694335938, -3.27980899810791, -0.8140146732330322, 0.26118671894073486, 0.4919252097606659, 0.7621435523033142
bias
-0.01712455041706562, 0.06765179336071014, 0.12449848651885986, -0.1403181254863739, -0.02122276835143566, -0.03845503181219101, -0.007556132972240448, 0.21470330655574799, 0.0678701177239418, 0.10459353774785995, 0.08847852796316147, 4.081684164702892e-05
layer13
kernel
0.26216742396354675, -1.0473545789718628, -0.21454530954360962, -0.03650234267115593, 0.01977607049047947, 0.049588777124881744, -0.19196107983589172, 0.04637064039707184, 0.08665274828672409, -0.054929737001657486, 0.09147381037473679, 0.006372567731887102, 0.1898678094148636, 0.013196042738854885, 0.1554553210735321, 0.021754400804638863, 0.6300729513168335, -0.149991974234581, 0.17169541120529175, 0.15305998921394348, -0.10864860564470291, 0.036626704037189484, -0.04563163220882416, 0.04883153736591339, 0.015972783789038658, 0.009951005689799786, 0.12592509388923645, -0.5562646389007568, 0.030213303864002228, 0.07179935276508331, -0.01250412780791521, 0.2257383018732071, 0.02304702438414097, -0.34899094700813293, -0.0022176147904247046, -0.058244459331035614, -0.6219081282615662, -0.05995246395468712, -0.009755068458616734, -0.07431027293205261, 0.2299492210149765, 0.27945825457572937, -0.22329412400722504, -0.05521531403064728, -0.1841924637556076, 0.013859099708497524, 0.09877362847328186, -0.07074258476495743, -0.5269218683242798, -0.023252153769135475, 0.12647317349910736, -0.024617889896035194, 0.03338748589158058, 0.23743967711925507, 0.7707840204238892, -0.016574418172240257, 0.10437887907028198, 0.09127282351255417, -0.5066450834274292, -0.03426363319158554, -0.7873297333717346, -0.03750206157565117, -0.29854679107666016, 0.10332652181386948, -0.2592191994190216, 0.048053715378046036, -0.29022783041000366, -0.018595213070511818, 0.1878189593553543, -0.12566958367824554, 0.23167484998703003, -0.01442653127014637, 0.21469324827194214, 0.1750164031982422, 0.17861007153987885, -0.01642867736518383, 0.13858869671821594, -0.19037000834941864, -0.1872529834508896, 0.2551315426826477, 0.23229289054870605, -0.014372918754816055, 0.25428664684295654, -0.025708310306072235, 0.12840880453586578, -0.35199862718582153, 0.1455671340227127, 0.186421737074852, 0.20806045830249786, 0.16056235134601593, 0.03275977075099945, -0.17976371943950653, -0.1158248633146286, -0.18876025080680847, -0.027560940012335777, -0.06878338009119034, 0.21739773452281952, 0.14533233642578125, -0.05094620957970619, 0.013063406571745872, -0.0817103460431099, 0.006016214843839407, -0.785954475402832, -0.05978414788842201, -0.3241215646266937, -0.054704077541828156, 0.5282444953918457, -0.028689997270703316, -0.027742134407162666, 0.07178852707147598, 0.1344313770532608, 0.3137780427932739, 0.10746543854475021, -0.025526568293571472, -0.0505652092397213, -0.1119830310344696, 0.15697526931762695, 0.48706114292144775, -0.03004775382578373, 0.01637429930269718, 0.05017644166946411, -0.010942201130092144, 0.045622050762176514, 0.3392046093940735, -0.01665724255144596, -0.21985669434070587, 0.028215454891324043, -0.17616310715675354, 0.1821887344121933, 0.33246728777885437, -0.06322084367275238, 0.039889492094516754, 0.11911293119192123, 0.03453589230775833, 0.2184252291917801, -0.02652037888765335, -0.11835405230522156, 0.14428068697452545, 0.4508747458457947, 0.006670945789664984, 0.08147015422582626, -0.10159104317426682, -0.4499164819717407, 0.05341237783432007
bias
0.13748423755168915, 0.20952919125556946, 0.3087148368358612, 0.36948421597480774, 0.016782980412244797, 0.034899912774562836, 0.2519593834877014, 0.48815715312957764, 0.15582822263240814, 0.002875386504456401, 0.1346021145582199, -0.01876438781619072
layer16
kernel
0.38939279317855835, -0.1216031014919281, -0.09250681847333908, -0.3072441816329956, 0.11216442286968231, -0.19577662646770477, -0.001865713275037706, -0.4826379120349884, 0.40818747878074646, -0.0704776793718338, 0.11738400906324387, 0.06506672501564026, -0.0016192718176171184, -0.31946203112602234, 0.15066736936569214, -0.16626840829849243, 0.018951576203107834, -0.013037477619946003, 0.20271936058998108, -0.49015143513679504, -0.2993675768375397, 0.09713990986347198, -0.019677335396409035, 0.5138280391693115, 0.1239028349518776, -0.2148820012807846, 0.22997592389583588, 0.15155819058418274, -0.03627101331949234, 0.07385600358247757, -0.3243426978588104, -0.1589110791683197, 0.17094840109348297, -0.09937265515327454, -0.09397163987159729, 0.19796502590179443, -0.1505507230758667, -0.15023483335971832, -0.12422675639390945, -0.0809704065322876, -0.48698124289512634, 0.3708478510379791, -0.003383826231583953, -0.01799566112458706, 0.0029774752911180258, 0.03459245339035988, -0.013208054006099701, 0.03224782645702362, 0.23204553127288818, -0.21450228989124298, 0.41600191593170166, -0.015717070549726486, -0.1669992059469223, 0.11901845782995224, -0.2027510404586792, -0.18428108096122742, 0.07361754775047302, -0.38567298650741577, 0.026113776490092278, 0.12632893025875092, -0.15057571232318878, -0.39081406593322754, -1.0194647312164307, 0.08150248974561691, -0.666397750377655, 0.38191279768943787, 0.16512218117713928, 0.11832921206951141, -0.08966822922229767, -0.05653677508234978, 0.13134241104125977, 0.09390269219875336, 0.21858760714530945, -0.3381541967391968, 0.0993981584906578, 0.012594698928296566, 0.1963661015033722, -0.7680851817131042, 0.06250745058059692, 0.13788515329360962, -0.080176442861557, 0.06316188722848892, -0.022300954908132553, -0.02233235538005829, -0.3275485932826996, 0.1215687245130539, -0.3469037711620331, -0.23798435926437378, 0.1419685333967209, 0.0639563649892807, -0.4893929958343506, 0.24969379603862762, 0.04495816305279732, 0.4697544574737549, -0.1267491579055786, 0.13835951685905457, 0.1218632236123085, 0.16812147200107574, 0.005005847662687302, 0.5465227365493774, -0.14528369903564453, -0.08682744204998016, 0.06191856414079666, 0.03114374168217182, 0.6798691153526306, 0.17007479071617126, 0.9995848536491394, -0.04978034645318985, -0.2940134108066559, -0.43552836775779724, -0.5909766554832458, 0.211820587515831, 0.19153623282909393, -0.22387805581092834, 0.06120643392205238, -0.3395821750164032, 0.47783270478248596, 0.5952052474021912, -0.40456128120422363, 0.023283474147319794, 0.09762544184923172, 0.06570304930210114, 0.0063819861970841885, -0.1604456603527069, -0.04490775242447853, -0.06351380050182343, -0.04904503375291824, -0.9251246452331543, -0.45189106464385986, 0.29785922169685364, -0.14558744430541992, -0.16067293286323547, 0.15206091105937958, -0.22639551758766174, 0.002365193096920848, 0.4039287269115448, 0.638828456401825, -0.5419272184371948, -0.07671767473220825, 0.0020267334766685963, 0.1341884881258011, -0.7290576696395874, -0.11574658751487732, 0.7022735476493835
bias
0.4407017230987549, 0.5009495615959167, 0.4212549924850464, 0.39216023683547974, 0.562649667263031, 0.5547769665718079, 0.3893499970436096, 0.07690742611885071, -0.2536948025226593, 0.36287015676498413, 0.1804307997226715, 0.3045658469200134
layer17
kernel
-0.4325810372829437, -0.7095819711685181, 0.7982053756713867, -0.9094147086143494, 1.7820123434066772, -0.3575654923915863, 0.3006719946861267, 1.1023122072219849, -0.34404250979423523, -0.15986967086791992, -0.4543682336807251, 0.592007577419281, -0.030641837045550346, -1.0646789073944092, 1.0072599649429321, 0.07263645529747009, 0.038442011922597885, 0.1222073957324028, 0.6638901233673096, -0.4599781334400177, -0.19323429465293884, 2.4922008514404297, -2.2958903312683105, 0.14078065752983093, 0.3311482071876526, -0.6925399899482727, -0.100822314620018, 0.5530886650085449, -0.31759846210479736, 0.9344514608383179, -0.0916135236620903, -3.164557456970215, 0.9170131683349609, 0.04633420705795288, 0.38197025656700134, 0.261209636926651, -0.6600337624549866, -1.8279304504394531, -0.2747161388397217, 0.2670316696166992, 3.069728136062622, 0.25369447469711304, 0.37116536498069763, -0.8440382480621338, 0.23274751007556915, 0.3590873181819916, 0.29044854640960693, 0.3780694305896759, 0.03530597314238548, 1.5852632522583008, 0.05745793133974075, -0.32280319929122925, -1.3362261056900024, -0.3783787786960602, 0.4822379946708679, 0.16384893655776978, 0.4424191117286682, 0.28703826665878296, 1.0128204822540283, 0.1549929678440094, -0.27992570400238037, -1.6534154415130615, -0.07794380187988281, -0.020899809896945953, 0.1937863528728485, -0.4031516909599304, 0.21725375950336456, 1.0380128622055054, -1.2132377624511719, 0.5679105520248413, 0.28902164101600647, -0.26045411825180054, -0.34573277831077576, -0.21330349147319794, -0.0646040141582489, 0.6549912691116333, 1.3080847263336182, 0.33151480555534363, -0.17572717368602753, -0.00902253482490778, -0.12475035339593887, -0.013928640633821487, -0.6128010153770447, 0.18556320667266846, 1.1724354028701782, -1.585005283355713, 0.4141353964805603, -0.10689771175384521, -0.6709745526313782, 0.19281728565692902, -0.33901071548461914, 0.501767635345459, 0.6290639042854309, -0.8031101822853088, 0.1725936084985733, 2.004903793334961, -0.9814431071281433, -0.18563009798526764, 0.751353919506073, 0.31284838914871216, 0.3481227457523346, -0.07690989226102829, 0.28286924958229065, 0.6000874638557434, 0.3051719069480896, 0.032624501734972, 0.9354067444801331, -0.33751848340034485
bias
-0.2413788139820099, -0.023552317172288895, 0.04649043083190918, 0.14385083317756653, -0.2264479100704193, -0.08927129209041595, -0.1682492047548294, -0.0802580937743187, -0.13840551674365997, 0.18511126935482025, -0.029873555526137352, -0.08499377220869064
layer18
kernel
-0.12504161894321442, -0.009848211891949177, 0.14545650780200958, 0.17766329646110535, -0.0681864470243454, -0.597082793712616, 0.8439909219741821, 0.0023352601565420628, -0.12930269539356232, 0.22398394346237183, -0.04896398261189461, 0.2261229306459427, -0.15193669497966766, -0.04801806062459946, 0.09249783307313919, -0.6413043737411499, -0.01932024210691452, -0.02436020039021969, 0.10911313444375992, 0.014984920620918274, 0.18948176503181458, 0.02239120379090309, -0.005499911028891802, -0.06699134409427643, -0.3594299554824829, 0.44985923171043396, 0.4629583954811096, 0.07595822960138321, 0.021492596715688705, 0.004348557908087969, -0.06522414833307266, 0.17146998643875122, 0.12604977190494537, -0.5007321238517761, -0.028272384777665138, 0.3625543713569641, -0.19308409094810486, 0.017195813357830048, 0.08227067440748215, 0.23207610845565796, 0.26835188269615173, -0.11230422556400299, -0.08076740801334381, -0.25929394364356995, 0.0712512657046318, 0.06961482018232346, 0.37508827447891235, 0.027799036353826523, 0.08440811932086945, 0.13886235654354095, -0.8013218641281128, 0.047945067286491394, 0.03907090798020363, -0.06389343738555908, 0.03906746581196785, -0.19914618134498596, 0.40650996565818787, 0.32763350009918213, 0.3121671974658966, 0.025465577840805054, 0.05166643485426903, -0.02477702498435974, 0.07841692864894867, 0.2601604163646698, 0.07627080380916595, -0.10404174774885178, 0.4524308145046234, -0.05657586455345154, 0.05902305617928505, 0.02746194414794445, 0.002346268855035305, -0.20923149585723877, -0.13278380036354065, -0.10939352959394455, 0.06658004969358444, -0.019595066085457802, -0.7709501385688782, 0.5217925906181335, -0.28039705753326416, 0.05194910243153572, -0.46135908365249634, 0.3944520652294159, -0.06645437330007553, 0.30443331599235535, 0.02106647938489914, 0.09606882184743881, -0.05761507526040077, -0.2291283756494522, 0.07473796606063843, 0.49192386865615845, 0.00617978535592556, 0.1095770001411438, -0.026202667504549026, -0.042452532798051834, -0.20056216418743134, 0.11399977654218674, 0.24987438321113586, -0.2029440701007843, 0.0010374403791502118, -0.0798206552863121, 1.1070094108581543, -0.07915200293064117, -0.3068954348564148, 0.13351227343082428, -0.18748517334461212, 0.21821388602256775, 0.015446440316736698, -0.16482940316200256, -0.13850924372673035, 0.0624922513961792, 0.2786449193954468, -0.00198890408501029, -0.13483278453350067, -0.012600375339388847, 0.04262634739279747, 0.1344158798456192, -0.09883922338485718, -0.12380217760801315, -0.10915357619524002, -0.06656531989574432, 0.2842588424682617, -0.9828749895095825, 0.06537091732025146, -0.04859662428498268, -0.018255004659295082, -0.046728815883398056, 0.05759153515100479, -0.3312009274959564, 0.1631842702627182, 0.10400553047657013, -0.14657112956047058, -0.23917025327682495, 0.08854356408119202, 0.016895100474357605, 0.1169823408126831, 0.03860988840460777, -0.1334308385848999, 0.056402381509542465, 0.044726040214300156, 0.30223721265792847, 0.2717011868953705, -0.07076922059059143, -0.11457053571939468, -0.09140147268772125
bias
0.03460540995001793, 0.20562049746513367, 0.315639853477478, 0.16213861107826233, 0.004351797513663769, 0.17427711188793182, 0.1340670883655548, 0.14076942205429077, -0.010400977917015553, 0.5625415444374084, 0.08033540844917297, 0.2544982433319092
layer21
kernel
0.05984533950686455, 0.1172790452837944, 0.4664538502693176, -0.37024638056755066, 0.02239500731229782, 0.1060984879732132, -0.26979953050613403, -0.16518062353134155, 0.36623722314834595, -0.44644400477409363, -0.15668334066867828, -0.24827060103416443, -0.24462096393108368, -0.0689537525177002, 0.457781583070755, 0.18521565198898315, -0.07426535338163376, -0.02646344155073166, -0.48934319615364075, 0.10698221623897552, -0.2263326346874237, 0.004512328654527664, -0.1449575573205948, 0.3471584618091583, 0.07185829430818558, 0.12757430970668793, 0.08481062203645706, 0.11237648874521255, 0.10728234052658081, -0.038914043456315994, 0.06339889764785767, 0.22029761970043182, 0.015555845573544502, -0.04865625873208046, -0.44592592120170593, -0.23406964540481567, -0.038790132850408554, -0.1587858349084854, -0.27960827946662903, 0.15738528966903687, 0.21602663397789001, -0.09355078637599945, 0.3478953242301941, -0.1143580824136734, -0.20405606925487518, 0.37568873167037964, -0.20442503690719604, -0.02336534671485424, -0.0883878692984581, 0.27688926458358765, -0.5851828455924988, 0.13981962203979492, 0.29364439845085144, 0.07889215648174286, 0.12603197991847992, -0.08698100596666336, -0.691077709197998, -0.03086063265800476, -0.015926288440823555, 0.15823966264724731, -0.37844234704971313, -0.6825024485588074, 0.07615923881530762, 0.08870492875576019, 0.17040260136127472, 0.04678614065051079, 0.04137770086526871, -0.14032061398029327, 0.015466219745576382, -0.01724386215209961, -0.4555469751358032, 0.02366723120212555, -0.020773883908987045, -0.0031717903912067413, -0.46656396985054016, -0.6954179406166077, -0.2262951135635376, 0.3919357359409332, 0.7518436908721924, 0.14508236944675446, -0.15940473973751068, -0.2744334042072296, 0.009630484506487846, 0.04842768982052803, 0.010452115908265114, 0.007410368882119656, -0.015632444992661476, -0.2904635965824127, 0.015959635376930237, 0.25972217321395874, 0.14153410494327545, 0.039045318961143494, 0.015381512232124805, -0.07361128181219101, -0.04413210600614548, -0.027577294036746025, 0.028903115540742874, -0.0674266368150711, 0.017843712121248245, -0.029076945036649704, -0.011385413818061352, -0.0312902107834816, -0.03475547954440117, -0.1026221364736557, -0.03144364804029465, -0.02512173168361187, 0.2252330631017685, 0.07046607881784439, 0.15066619217395782, 0.25742360949516296, -0.15121270716190338, 1.3831957578659058, -0.24165090918540955, -0.10202722996473312, 0.11921031028032303, -0.058117616921663284, 0.27240896224975586, -0.08282560110092163, -0.48867201805114746, 0.25077176094055176, 0.7164708971977234, 0.6300693154335022, 0.5178636312484741, 0.1621054857969284, -0.4348313808441162, -0.2132057100534439, 0.18601244688034058, 0.8854854106903076, -0.14258503913879395, 0.21139569580554962, -0.21910600364208221, 0.1823396235704422, -0.5144734382629395, -0.28671979904174805, -0.1534697413444519, -0.02394171617925167, -0.6155806183815002, -0.22240324318408966, -0.035809870809316635, 0.13532377779483795, -0.1552923172712326, 0.2398928701877594, 0.00032121737604029477, 0.3044494390487671
bias
0.21578869223594666, 0.2594960629940033, 0.40038925409317017, 0.41509294509887695, 0.2745540738105774, 0.789067268371582, 0.20803308486938477, 0.4191756248474121, 0.1263962984085083, -0.3113797605037689, -0.752824604511261, 0.7022981643676758
layer22
kernel
-0.4937809109687805, -1.1742146015167236, 0.1732776165008545, -0.33862876892089844, 1.2619683742523193, 0.6355007886886597, 0.43284863233566284, 0.08233416825532913, 0.10465282946825027, 0.8922722935676575, -0.05732830986380577, 0.8075977563858032, -0.3374311923980713, 1.5348399877548218, -0.6754176616668701, -0.4904034435749054, 0.820608377456665, -0.2814171016216278, 1.2754566669464111, -2.53770112991333, -0.010626696981489658, -0.2157474160194397, 3.2226970195770264, -0.9376035928726196, -0.8805369138717651, 0.955981433391571, 0.42228978872299194, 0.6071310639381409, -1.6099138259887695, 0.44213297963142395, -1.094875693321228, 0.9844533801078796, -0.31879785656929016, -0.5925840735435486, 0.37838461995124817, -0.14810578525066376, -0.025340799242258072, -1.5395381450653076, -0.55933678150177, 0.24220599234104156, 1.8999706506729126, 0.0429062657058239, 0.07718819379806519, 0.05290674418210983, 0.2704468369483948, 0.15877333283424377, -2.9322030544281006, 1.7497656345367432, 0.04882912337779999, 1.4557549953460693, -0.9025129675865173, -0.4033229351043701, 0.7161051630973816, -0.28781792521476746, 0.35063353180885315, 0.168271005153656, 0.3457876443862915, 0.5092223882675171, 0.28878042101860046, -0.10982918739318848, 0.004140991717576981, 0.31949105858802795, 0.16716401278972626, -3.2592785358428955, 3.1140403747558594, 0.9999078512191772, 3.571045398712158, -3.5071523189544678, -1.3610831499099731, 0.2179599553346634, 0.2127429097890854, 0.2030070275068283, -1.6481486558914185, -0.7625389099121094, 2.127595901489258, -3.190207004547119, 2.013840675354004, -0.8505216836929321, 4.593966007232666, -3.802062511444092, -1.1259437799453735, 0.28452908992767334, 0.18548709154129028, 0.027016079053282738, 0.15646447241306305, 0.394266813993454, 0.028963202610611916, 0.2941605746746063, 0.45024821162223816, -0.03426530957221985, 0.004601230379194021, 0.21593105792999268, -0.001984772738069296, -0.5574007034301758, -0.4761541783809662, -0.6661470532417297, -0.1587836891412735, -0.4267004132270813, -0.47653135657310486, 0.03714581951498985, -1.896155595779419, -0.27611637115478516, 0.30767059326171875, 1.8898460865020752, -0.4670695960521698, 0.014523687772452831, 0.4353488087654114, 0.417537122964859
bias
-0.06568557769060135, -0.40774160623550415, -0.3802047073841095, 0.42174720764160156, -0.12142399698495865, 0.09412144869565964, -0.14781314134597778, -0.06262072175741196, 0.5534365177154541, -0.14112041890621185, 0.08374953269958496, -0.12941505014896393
layer23
kernel
0.09851270169019699, 0.3281061351299286, 0.22609056532382965, -0.32794567942619324, 0.06198142096400261, -0.08536131680011749, -0.06457100808620453, 0.06424037367105484, -0.05921044200658798, 0.8721141219139099, 0.42534375190734863, 0.02078326605260372, 0.15547391772270203, -0.2350982427597046, 0.005981348920613527, -0.16468417644500732, 0.5230586528778076, -0.14528800547122955, -0.29113537073135376, 0.10927556455135345, -0.2236110121011734, 0.08110576122999191, 0.08351580798625946, -1.0965962409973145, -0.28316110372543335, -0.2935809791088104, 0.09710822254419327, 0.7756219506263733, 0.10239656269550323, -0.14148133993148804, 0.13678999245166779, 0.7036773562431335, -0.20704656839370728, -0.18868882954120636, -0.006442700978368521, 0.040200747549533844, 0.014995617792010307, -0.4422421455383301, 0.0862751379609108, 0.30276498198509216, 0.06378072500228882, -0.19964705407619476, 0.17192624509334564, -0.8624791502952576, -0.1054135113954544, -0.31543809175491333, 0.18652312457561493, 0.03220224380493164, 0.10052037239074707, -0.5705850124359131, -0.1643669754266739, 0.38897866010665894, -0.5346156358718872, 0.2281133085489273, -0.1761779934167862, -0.008299365639686584, 0.24069587886333466, 0.3163234293460846, 0.26953285932540894, -0.3723483085632324, -0.0858817994594574, -0.30629077553749084, 0.44636911153793335, -0.25038766860961914, 0.10973862558603287, 0.6352008581161499, -0.675736129283905, 0.019138671457767487, -0.21446387469768524, -0.037632741034030914, 0.180495023727417, 0.4014133810997009, 0.14045652747154236, 0.14310121536254883, -0.5474293828010559, -0.10236350446939468, -0.2403634488582611, -0.6126483082771301, -0.4780348837375641, -0.0052958764135837555, 0.3928282558917999, 0.04703160747885704, 0.4697245657444, -0.05326427146792412, -0.3570234179496765, -0.030932532623410225, -0.12055452167987823, 0.0596456378698349, 0.7459315657615662, -0.026225551962852478, 0.026819515973329544, -0.10315122455358505, 0.10826337337493896, -0.05254112184047699, 0.11963413655757904, 0.266224205493927, 0.20024141669273376, 0.3042154610157013, 0.01168136391788721, -0.15297843515872955, -0.692890465259552, 0.034857891499996185, -0.10413508117198944, 0.5853366851806641, 0.14933745563030243, -0.05213317647576332, 0.29505541920661926, -0.28093045949935913, 0.7537643909454346, 0.3134680986404419, 0.022187627851963043, -0.2101891189813614, -0.30187031626701355, 0.08869872987270355, -0.26473039388656616, -0.39213937520980835, -0.06337732821702957, -0.06624253839254379, 0.07472778111696243, -0.17858624458312988, -0.04483724385499954, 0.09996213018894196, 0.9557187557220459, 0.034147098660469055, 0.030964864417910576, -0.6668455004692078, -0.12769712507724762, -0.05905537307262421, -0.023432521149516106, -0.17163309454917908, -0.10772990435361862, 0.06718935817480087, 0.03028421476483345, 0.15237462520599365, -0.4658028483390808, 0.012989976443350315, -0.11577221751213074, 0.31932660937309265, -0.18621699512004852, 0.2180740237236023, -0.49615970253944397, 0.025378895923495293, -0.16313797235488892, 0.0732879564166069
bias
0.09371910244226456, 0.022369980812072754, -0.03402014076709747, -0.04590289667248726, 0.1387704461812973, 0.24662350118160248, 0.08689293265342712, 0.006941058672964573, -0.03544596582651138, -0.026497535407543182, -0.09129844605922699, 0.2560971677303314
layer25
kernel
-0.13057991862297058, 0.04596490040421486, 0.0856795534491539, 0.004606456961482763, 0.06274650245904922, -0.016082216054201126, -0.1761700063943863, 0.2485257238149643, 0.36514976620674133, -0.1196584701538086, -0.16630330681800842, -0.06132827326655388, 0.11677677184343338, -0.1033245176076889, 0.016216617077589035, 0.10921547561883926, 0.0851820632815361, -0.008627436123788357, 0.053155314177274704, -0.15446744859218597, -0.0678749531507492, -0.15530234575271606, 0.0707559585571289, 0.11823730170726776, 0.31368109583854675, 0.09740103781223297, -0.07853592932224274, -0.041454557329416275, -0.11902421712875366, -0.24138769507408142, -0.10134726017713547, -0.21734920144081116, -0.06392921507358551, -0.12760800123214722, -0.1081998348236084, 0.2847769260406494, -0.045654576271772385, 0.11128906160593033, -0.11388280987739563, 0.010838557034730911, 0.14546972513198853, -0.13289226591587067, -0.03676552325487137, -0.07055862993001938, 0.06326637417078018, -0.009904989041388035, -0.03160368651151657, -0.06477999687194824, 0.044606827199459076, 0.057247959077358246, -0.031406376510858536, -0.0720541700720787, -0.21000775694847107, -0.20993615686893463, -0.30805933475494385, 0.0866028219461441, 0.11482343822717667, -0.059033673256635666, -0.2711195945739746, 0.13348019123077393, 0.13397032022476196, -0.15017028152942657, -0.16966785490512848, -0.1458526998758316, -0.0503498911857605, -0.10334799438714981, -0.09538522362709045, -0.39050087332725525, -0.2517639100551605, -0.20013180375099182, -0.03352026641368866, 0.056544605642557144, 0.5606814026832581, -0.07191915065050125, -0.11658785492181778, 0.0352700874209404, 0.18374373018741608, -0.15425357222557068, -0.05388285219669342, -0.12687847018241882, -0.07352224737405777, -0.021602939814329147, 0.1966276615858078, 0.15503957867622375, 0.11240822821855545, 0.18425238132476807, 0.06909764558076859, -0.030083784833550453, 0.06910716742277145, -0.01700782962143421, 0.08331069350242615, -0.01557273417711258, -0.009745802730321884, 0.10130469501018524, -0.16434246301651, -0.04803764075040817, -0.018035072833299637, -0.20728565752506256, 0.10975518077611923, 0.002638325560837984, 0.06861190497875214, -0.04630296677350998, -0.14776550233364105, -0.20477770268917084, -0.05727294832468033, -0.22713366150856018, -0.14062021672725677, 0.008288257755339146, -0.26971644163131714, 0.049400463700294495, -0.28622549772262573, 0.5566533803939819, 0.04505706951022148, -0.0415123775601387, -0.1526937335729599, 0.058483242988586426, -0.026927823200821877, -0.20110176503658295, -0.012977804988622665, -0.12089522182941437, 0.15803775191307068, -0.07446490228176117, -0.12572380900382996, -0.09003372490406036, 0.078872449696064, 0.01670110784471035, 0.25101587176322937, -0.18744805455207825, -0.2173280566930771, 0.18189558386802673, -0.09060117602348328, -0.22368712723255157, -0.38126057386398315, 0.1793423742055893, -0.28062704205513, -0.3369113504886627, 0.1725759208202362, -0.10583580285310745, -0.06444080919027328, -0.0199383944272995, 0.1435396671295166, -0.05924848094582558, 0.0634414404630661, 0.10578346252441406, 0.08136258274316788, -0.6883445382118225, 0.06935378909111023, 0.1211070790886879, 0.032602135092020035, 0.10411443561315536, -0.02073373645544052, 0.029806243255734444, -0.03100922331213951, 0.14456762373447418, -0.1117728129029274, 0.22012440860271454, 0.12319616228342056, -0.07551653683185577, -0.13246744871139526, -0.07375138998031616, 0.04858744516968727, -0.09002497792243958, 0.0003824808809440583, -0.011536276899278164, -0.0029224478639662266, 0.08396387100219727, -0.007673325948417187, 0.03811710700392723, 0.16048204898834229, 0.06917589902877808, -0.04347937926650047, -0.08041950315237045, -0.5940859913825989, -0.00158578937407583, -0.14662426710128784, -0.11393535882234573, 0.021658500656485558, -0.019579974934458733, -0.25473201274871826, 0.26494064927101135, 0.06764337420463562, -0.09434763342142105, -0.03364480286836624, -0.0028975617606192827, 0.006453764159232378, -0.03389101102948189, -0.004704633727669716, -0.003679028945043683, -0.0372217558324337, 0.058264583349227905, -0.0009122024057433009, -0.05138867348432541, 0.010137167759239674, -0.1328839361667633, 0.21469971537590027, -0.05792843550443649, 0.11014188081026077, 0.16584862768650055, -0.13200974464416504, -0.4752594530582428, 0.08190479874610901, -0.36815884709358215, 0.30681514739990234, -0.014626354910433292, 0.016721131280064583, -0.01664298214018345, 0.26485130190849304, -0.16160885989665985, -0.230575293302536, 0.27453067898750305, 0.07763855904340744, -0.11331342160701752, -0.1653486043214798, 0.39736035466194153, -0.38213521242141724, 0.33406898379325867, 0.03162652626633644, 0.007587722036987543, -0.06434126198291779, -0.1586519330739975, 0.021757345646619797, 0.1413402110338211, -0.04870682954788208, -0.16118553280830383, -0.21056272089481354, -0.15639954805374146, 0.1630944460630417, 0.3202698826789856, 0.05806075781583786, 0.13261361420154572, -0.016812825575470924, -0.09523064643144608, 0.11415178328752518, 0.0037293091882020235, -0.039616480469703674, -0.11638691276311874, 0.07494103163480759, 0.13324102759361267, 0.04823657125234604, -0.22384877502918243, 0.14521273970603943, 0.004523237235844135, 0.029226912185549736, 0.05347292870283127, 0.11972548812627792, 0.05900849774479866, 0.026090309023857117, 0.06157730147242546, 0.03522922471165657, 0.20111647248268127, 0.09559999406337738, 0.16593895852565765, 0.05239688605070114, 0.032768480479717255, 0.03476392850279808, 0.05349886044859886, -0.011951180174946785, -0.047050680965185165, 0.020817216485738754, -0.014452358707785606, 0.014198157005012035, 0.0552254393696785, 0.0690748542547226, 0.04658232256770134, 0.07273346930742264, -0.07034334540367126, 0.3242121934890747, 0.1706439107656479, 0.2156730741262436, 0.05631590262055397, -0.180842787027359, -0.09955908358097076, -0.38539421558380127, -0.23026397824287415, -0.20936477184295654, -0.06436737626791, 0.1434863954782486, 0.0007024490041658282, -0.04373801499605179, 0.1920199990272522, 0.01753413863480091, 0.16746242344379425, -0.311916708946228, -0.14686349034309387, 0.368010938167572, -0.2165597826242447, 0.48763084411621094, -0.011594001203775406, 0.19104890525341034, 0.12713845074176788, -0.11302165687084198, -0.08537574857473373, -0.21378152072429657, -0.2516702115535736, -0.13420623540878296, 0.03799818083643913, 0.037303339689970016, -0.1431329846382141, 0.0911669060587883, 0.08223888278007507, 0.07191310822963715, -0.07237987965345383, -0.02940286137163639, -0.10155262798070908, -0.11426661908626556, -0.040435921400785446, 0.0014627370983362198, -0.02460544742643833, -0.1058361604809761, -0.073488749563694, -0.13510100543498993, -0.057804349809885025, 0.05945027619600296, -0.19855371117591858, -0.10537410527467728, 0.0015061713056638837, -0.012068492360413074, -0.009453242644667625, -0.1065485030412674, 0.06835857778787613, -0.2980819046497345, 0.11040152609348297, -0.17817868292331696, 0.09497281908988953, 0.018108678981661797, -0.07961331307888031, 0.6287633776664734, -0.08498302102088928, -0.0010208324529230595, 0.09682273119688034, 0.5046358704566956, -0.10806429386138916, -0.3355247974395752, 0.3767795264720917, -0.12526686489582062, -0.3858143985271454, 0.1423024833202362, -0.039736486971378326, 0.16586604714393616, -0.15148800611495972, -0.3176330327987671, -0.3226645290851593, -0.031213564798235893, -0.11574634909629822, 0.12094467878341675, -0.1370439976453781, 0.10375009477138519, 0.14293673634529114, 0.25536027550697327, -0.09573011100292206, -0.02183511294424534, 0.23564757406711578, 0.09848078340291977, -0.2461136132478714, -0.14604756236076355, 0.11184483021497726, 0.19082140922546387, -0.17238536477088928, 0.07788441330194473, -0.08051684498786926, 0.26905936002731323, 0.0193227156996727, 0.0501728430390358, 0.05190026015043259, 0.022757703438401222, 0.052694134414196014, 0.029110435396432877, 0.06484757363796234, 0.185456320643425, -0.08992736041545868, -0.028447002172470093, 0.13932152092456818, 0.13222315907478333, -0.010618518106639385, 0.07711146771907806, -0.017081445083022118, 0.014835367910563946, 0.07522150874137878, 0.011943487450480461, 0.004520193673670292, -0.09235397726297379, 0.005682036746293306, -0.0366763211786747, -0.019552558660507202, 0.009466425515711308, -0.10978499054908752, 0.3312128484249115, 0.3784583508968353, 0.005840795114636421, 0.028365738689899445, -0.056772153824567795, 0.0749456137418747, -0.11080896109342575, 0.07882247120141983, 0.050722599029541016, -0.13351531326770782, -0.20216168463230133, 0.05786466598510742, -0.17944379150867462, -0.1443285495042801, -0.0529133640229702, 0.2654533088207245, -0.07410739362239838, 0.1852564960718155, -0.20306649804115295, 0.16130512952804565, -0.11270114034414291, 0.1658918708562851, 0.007523883134126663, -0.10772234201431274, -0.10348440706729889, 0.004062680061906576, 0.2458076775074005, 0.0025964470114558935, -0.2102591097354889, -0.12222674489021301, -0.09690733999013901, 0.10954387485980988, -0.03504275158047676, -0.034003447741270065, -0.14287075400352478, 0.16572321951389313, 0.09921527653932571, 0.040696170181035995, -0.0784958153963089, -0.15674300491809845, -0.11549090594053268, 0.2048012614250183, -0.2119385451078415, -0.154635488986969, -0.05633538216352463, -0.08726184815168381, 0.04038330912590027, 0.020015718415379524, -0.138847216963768, -0.0684129074215889, 0.07964280992746353, -0.09519213438034058, -0.3028835654258728, -0.0498209074139595, 0.05650287866592407, 0.1638210415840149, 0.2139846831560135, 0.15984836220741272, 0.3114223778247833, 0.25704851746559143, -0.005832349881529808, 0.13318388164043427, -0.07004526257514954, -0.007856297306716442, 0.21715253591537476, -0.08569324016571045, 0.08576841652393341, -0.0138498330488801, 0.15809455513954163, 0.15480710566043854, 0.1754770129919052, 0.00044176424853503704, -0.14610835909843445, -0.1977081447839737, 0.030972488224506378, -0.15409713983535767, 0.021707843989133835, -0.0278315506875515, -0.0547684021294117, -0.04428942874073982, 0.02688693441450596, -0.0013326250482350588, 0.06995909661054611, -0.10029977560043335, -0.09576892852783203, 0.07286781817674637, -0.1287054717540741, -0.13537636399269104, -0.02827068790793419, 0.09570910036563873, -0.03686678037047386, -0.050326623022556305, 0.08166920393705368, -0.09045115113258362, 0.3217037618160248, -0.07411278784275055, 0.04452018439769745, 0.14068199694156647, 0.23607893288135529, -0.10269081592559814, -0.0209378469735384, -0.2386835664510727, -0.16415631771087646, 0.029582927003502846, 0.16993670165538788, 0.03451475501060486, 0.006527944002300501, 0.16534607112407684, -0.09516836702823639, -0.022638004273176193, 0.042157430201768875, -0.011565270833671093, -0.015190044417977333, 0.12587469816207886, 0.09707868844270706, -0.06749501079320908, 0.12235177308320999, 0.051743607968091965, 0.05113764479756355, -0.22477412223815918, 0.13883616030216217, 0.11570774763822556, 0.06304780393838882, 0.07940647006034851, 0.04378296807408333, -0.015908600762486458, 0.06081651896238327, 0.01815672218799591, 0.004851022735238075, 0.08544210344552994, 0.029080830514431, -0.12424328923225403, -0.0001780492893885821, 0.06579209864139557, 0.00013524670794140548, -0.020177097991108894, -0.057058315724134445, -0.02722017467021942, -0.00890814047306776, -0.02860783040523529, 0.041247814893722534, 0.017199847847223282, 0.047708068042993546, -0.21028795838356018, -0.21384268999099731, -0.12090308219194412, -0.11694031208753586, -0.08061056584119797, -0.060987427830696106, -0.28903383016586304, -0.17378926277160645, -0.09343569725751877, -0.3598257303237915, -0.02391081303358078, 0.06671213358640671, 0.17647671699523926, -0.05194669961929321, 0.36123162508010864, -0.21113237738609314, -0.05239676684141159, -0.03685396909713745, -0.13065236806869507, 0.3798882067203522, -0.3034714460372925, 0.5394167900085449, 0.6185013055801392, 0.07073792070150375, -0.1353342980146408, -0.30394139885902405, -0.08108726143836975, -0.08317606151103973, 0.009871319867670536, 0.08210870623588562, -0.04411522299051285, 0.1535084843635559, -0.1076439842581749, -0.0754828080534935, 0.0919170007109642, -0.009654087945818901, -0.07224322110414505, 0.2667843997478485, -0.037788089364767075, 0.275806725025177, 0.5510672926902771, -0.24619808793067932, -0.2763625979423523, -0.04889059439301491, 0.3224443793296814, -0.10096853971481323, -0.15024571120738983
bias
0.009216785430908203, 0.19033795595169067, 0.2905934453010559, 0.045969463884830475, 0.08955498039722443, 0.14267611503601074, 0.004951272159814835, 0.2053363025188446, -0.11263340711593628, -0.012959279119968414, -0.12207155674695969, -0.07358808070421219, 0.22936278581619263, 0.17226701974868774, 0.17773449420928955, -0.05629284679889679, -0.26224663853645325, 0.13812221586704254, -0.26324206590652466, 0.2758112847805023, 0.022868093103170395, 0.05496633052825928, 0.23358093202114105, -0.11201180517673492
layer26
kernel
0.5206770300865173, 0.9322709441184998, 0.4037812650203705, 0.5567444562911987, 0.7557858824729919, 0.32841983437538147, -0.026512255892157555, -0.40395787358283997, -0.22716620564460754, 0.5476887226104736, 0.7473093867301941, -0.02322348952293396, 0.03463749587535858, -0.4681011140346527, -0.404584676027298, -0.6575034260749817, -1.2539253234863281, -0.6630589365959167, -0.40562447905540466, -0.5149533748626709, -0.28386229276657104, -0.7284140586853027, -0.9147191643714905, -0.38410988450050354, -0.5581856369972229, -0.614912748336792, -0.18579734861850739, 0.5751338005065918, -0.43645143508911133, -0.822009801864624, 0.6512249112129211, 0.21382690966129303, -0.7978293299674988, 0.30967655777931213, 0.7630416750907898, -0.09434059262275696, 0.10870849341154099, 0.3771696388721466, 0.26241207122802734, 0.6344614624977112, 1.187617540359497, 0.9072710871696472, 0.45773401856422424, 0.8571604490280151, 0.685730516910553, 0.33246567845344543, 0.41742366552352905, 0.33311888575553894, 0.617607593536377, 0.8462724089622498, 0.5618887543678284, 0.3583725392818451, 0.5359976291656494, 0.4521714746952057, -0.3156434893608093, -0.12890446186065674, -0.09877393394708633, -0.6723244786262512, -1.1544173955917358, -0.5789322257041931, -0.6076639294624329, -0.9512206315994263, -0.49848976731300354, 0.3855384290218353, 0.9678945541381836, 0.4821050465106964, 0.5623778104782104, 0.9347478151321411, 0.7031238675117493, -0.04742531105875969, 0.05628186836838722, 0.20273153483867645, 0.3949275612831116, 0.5957633852958679, 0.4148055613040924, 0.4589235186576843, 0.7326868772506714, 0.4503857493400574, 0.16667747497558594, 0.27750054001808167, 0.05039690434932709, 0.6127341389656067, 0.7637204527854919, 0.4309002757072449, 0.5130292773246765, 0.8686197996139526, 0.7916972637176514, 0.22954824566841125, 0.2575528621673584, 0.3306533396244049, 0.6104795336723328, 1.2108941078186035, 0.48133713006973267, 0.2698805034160614, 0.6143816709518433, 0.4564523994922638, -0.8271557688713074, -0.8176751732826233, -0.11308993399143219, -0.29937371611595154, -0.42700937390327454, -0.24061232805252075, -0.3711172342300415, -0.6946130394935608, -0.49749985337257385, -0.0320294015109539, -0.32524430751800537, -0.21203570067882538, -0.22109264135360718, -1.271384358406067, -1.8030551671981812, 0.9146326184272766, 0.6607651114463806, 0.6554738283157349, 0.03335719183087349, 0.9021671414375305, 0.8514344096183777, -0.21487393975257874, -0.38240209221839905, -0.3102043867111206, -0.4083231985569, -0.6601642966270447, -0.41227537393569946, -0.3416059613227844, -0.4586489796638489, -0.2070193588733673, -0.12599895894527435, -0.5258651375770569, -0.48465225100517273, -0.541205644607544, -0.586023211479187, -0.20737680792808533, -0.30263379216194153, -0.07846153527498245, 0.3337133228778839, -0.9550420641899109, -1.1502187252044678, -0.45217835903167725, -0.7394815683364868, -0.350888729095459, 0.6647225022315979, 0.16968891024589539, 1.1120046377182007, 1.1680817604064941, -0.3861829936504364, -0.48366332054138184, -0.010629061609506607, -0.3280641436576843, -0.8907301425933838, -0.5385733842849731, -0.021014172583818436, -0.6186410188674927, -0.7580296993255615, 0.1359320729970932, 0.26513558626174927, 0.5280554294586182, 0.45684027671813965, 1.1203583478927612, 0.6984648704528809, 0.5436464548110962, 0.7669156789779663, 0.1973695605993271, -0.19550500810146332, -0.1275213211774826, -0.054382361471652985, -0.3574643135070801, -0.6313886046409607, -0.33653077483177185, -0.5302455425262451, -0.6137399673461914, -0.3362804651260376, -1.1028012037277222, -0.09501252323389053, 0.690403163433075, 0.25817471742630005, 0.7360086441040039, 0.6342930197715759, -0.27890047430992126, -1.277023196220398, -1.159354567527771, 0.9914445877075195, 0.08264579623937607, -0.645047664642334, 0.833190381526947, -0.3989161252975464, -0.8459214568138123, 0.04642622917890549, -0.5828373432159424, -0.0956420972943306, -0.1897788643836975, 0.7745476961135864, 0.7162725925445557, -1.2490583658218384, -1.1722561120986938, -0.6068593263626099, 0.9555533528327942, 0.08503365516662598, 0.09621335566043854, 0.3008784055709839, 0.4418469965457916, 0.21557997167110443, 0.4345967471599579, 0.6031500101089478, 0.2861630618572235, 0.2193945199251175, 0.3628207743167877, 0.1859268993139267, -0.3361141085624695, -0.4107261598110199, -0.045306332409381866, -0.7855749726295471, -0.8726480603218079, -0.210016667842865, -0.4611355662345886, -0.5777837634086609, -0.12640446424484253
bias
-0.3957538902759552, 0.1382889449596405, 0.5726679563522339, -0.036391496658325195, -0.08375733345746994, -0.37227874994277954, 0.24769850075244904, -0.4568694531917572, -0.12996162474155426, -0.12046648561954498, -0.15371061861515045, 0.11891654133796692, -0.07268139719963074, 0.5627828240394592, 0.20678791403770447, 0.04595044255256653, 0.13313572108745575, -0.15288692712783813, 0.11331769078969955, 0.15000353753566742, 0.05355821177363396, 0.07028517127037048, -0.4900466799736023, 0.1150299534201622
layer27
kernel
-0.060277510434389114, 0.1433085948228836, 0.045715536922216415, -0.020332694053649902, -0.1333623230457306, -0.11771994084119797, 0.01988103985786438, 0.026032578200101852, -0.0494823157787323, 0.17489859461784363, -0.10262903571128845, -0.04655036702752113, -0.31618115305900574, 0.13874667882919312, -0.028818432241678238, -0.10563448816537857, -0.07293791323900223, 0.4452856183052063, 0.17246894538402557, -0.4125005304813385, -0.12954846024513245, -0.17122215032577515, -0.22446654736995697, 0.009838549420237541, -0.30253490805625916, 0.3637544810771942, -0.046010877937078476, 0.23342880606651306, 0.0491318516433239, -0.012189056724309921, 0.12735360860824585, 0.2402837723493576, 0.07649047672748566, -0.08441843092441559, 0.24761605262756348, 0.016768598929047585, 0.01626596413552761, 0.1289484053850174, 0.11264840513467789, -0.46776726841926575, -0.07577897608280182, -0.21428346633911133, 0.016914796084165573, -0.007254629395902157, 0.45241332054138184, -0.01665182039141655, 0.05595433712005615, -0.15026956796646118, 0.02452114224433899, 0.013074069283902645, 0.08106085658073425, 0.06440221518278122, 0.004717659205198288, -0.07629704475402832, -0.0293467678129673, 0.011197936721146107, 0.20449237525463104, 0.11371937394142151, 0.191156268119812, -0.09857303649187088, -0.04379148781299591, -0.16625656187534332, 0.16760756075382233, -0.22336390614509583, -0.07511230558156967, 0.006621507927775383, -0.1029544547200203, 0.020670680329203606, -0.08440174162387848, 0.032451629638671875, 0.04520733654499054, -0.03853674605488777, 0.0035767038352787495, -0.21637380123138428, -0.15842169523239136, 0.388716459274292, 0.2565121650695801, -0.1311485469341278, 0.08617957681417465, -0.2422342151403427, -0.050857026129961014, -0.0020343405194580555, -0.1737915575504303, -0.029489800333976746, 0.12458334118127823, 0.1546843945980072, -0.03233940526843071, -0.013995430432260036, -0.042496610432863235, 0.0017644775798544288, -0.06215379759669304, -0.040828995406627655, 0.32867947220802307, -0.04630747810006142, 0.11265475302934647, 0.22265538573265076, 0.00678793340921402, 0.018864072859287262, 0.11678053438663483, -0.08234512060880661, 0.07834894955158234, -0.05635234713554382, 0.2247784584760666, -0.18359102308750153, 0.17154018580913544, -0.006367900408804417, 0.19037367403507233, -0.073939248919487, 0.08772053569555283, -0.062717504799366, -0.02688261866569519, -0.051775749772787094, -0.026984017342329025, -0.16735269129276276, -0.2850649356842041, -0.02760564163327217, -0.033022455871105194, -0.0391869954764843, 0.07478329539299011, -0.014066093601286411, -0.17113763093948364, 0.08929308503866196, -0.022117353975772858, -0.5896714925765991, 0.07624910026788712, 0.13637661933898926, -0.1660032570362091, 0.22533023357391357, -0.14186805486679077, -0.021667469292879105, 0.22314698994159698, 0.015237472020089626, -0.00815701112151146, -0.016636092215776443, 0.140804722905159, -0.15054823458194733, 0.11664438247680664, -0.030007941648364067, -0.1338256448507309, 0.09187620878219604, 0.0033529652282595634, -0.07309123128652573, 0.13785743713378906, 0.09232296049594879, -0.0402374304831028, -0.20799972116947174, 0.10781019181013107, 0.039165426045656204, 0.005682332441210747, 0.012864706106483936, 0.17473845183849335, -0.04719708114862442, -0.03259597346186638, 0.3864816129207611, 0.16238951683044434, -0.13713860511779785, 0.014594617299735546, 0.18172283470630646, -0.026616621762514114, -0.11002949625253677, -0.15914976596832275, -0.08305032551288605, 0.11287190765142441, 0.13548240065574646, 0.05405052378773689, 0.14472490549087524, -0.09559307992458344, 0.05393235385417938, -0.18732601404190063, -0.08042721450328827, 0.22797980904579163, 0.2212744653224945, 0.021337324753403664, 0.025578271597623825, 0.11839988082647324, -0.15959207713603973, -0.0007148263393901289, 0.11222881823778152, -0.044417474418878555, -0.05067979544401169, 0.04890577495098114, 0.13445425033569336, -0.07733815908432007, 0.037604883313179016, -0.05253880098462105, -0.08363617211580276, -0.07142379879951477, -0.016744859516620636, -0.07855664938688278, 0.08175221085548401, 0.07129466533660889, 0.07611088454723358, -0.1869460940361023, 0.06752264499664307, 0.25935524702072144, -0.012410255149006844, 0.06543715298175812, -0.05283784866333008, 0.031012145802378654, -0.05849745124578476, 0.1685280054807663, 0.0060454620979726315, -0.035937584936618805, 0.017190387472510338, -0.017634034156799316, -0.08598560839891434, 0.06628420203924179, -0.2582519054412842, 0.007478825282305479, 0.05200936645269394, -0.028270548209547997, -0.004755543544888496, -0.07559414207935333, -0.025427168235182762, -0.09425890445709229, -0.0054513937793672085, -0.04042654111981392, 0.026820257306098938, -0.055774904787540436, -0.07449711859226227, 0.017138777300715446, -0.01402181014418602, 0.07796335965394974, -0.0809229165315628, 0.4633561372756958, -0.3233272135257721, -0.19246646761894226, 0.1250382363796234, 0.18894599378108978, 0.09836334735155106, 0.11233767122030258, 0.1617238074541092, -0.10139316320419312, 0.10936113446950912, 0.02279011160135269, 0.0676831379532814, 0.03260161355137825, -0.011572347953915596, -0.14683881402015686, -0.20764067769050598, -0.14591997861862183, -0.07822982966899872, 0.011095847003161907, 0.1837083399295807, 0.02736165188252926, 0.2782950699329376, 0.03535360097885132, -0.24499811232089996, -0.0705142393708229, -0.1467326581478119, -0.0477268248796463, -0.21393989026546478, -0.12136707454919815, 0.09317266941070557, 0.3931402266025543, 0.010176680982112885, -0.2357553243637085, -0.053443387150764465, -0.2632359266281128, 0.0682399794459343, 0.04499012976884842, -0.05852024629712105, 0.19059397280216217, 0.015272015705704689, -0.1660560816526413, -0.05381494387984276, 0.2811026871204376, -0.04359586164355278, 0.033324677497148514, -0.2001318484544754, -0.3435431122779846, 0.07076345384120941, -0.1334751695394516, -0.1631486564874649, 0.09901795536279678, 0.06231456622481346, 0.04638337343931198, -0.2801835834980011, -0.36272943019866943, 0.01049307081848383, 0.3329572379589081, 0.06960504502058029, -0.2623344361782074, 0.07529222965240479, 0.05589139834046364, -0.11096871644258499, 0.021778449416160583, 0.10040333867073059, 0.10362540185451508, -0.11735154688358307, 0.2818203568458557, -0.014476081356406212, -0.1211058720946312, -0.045542191714048386, 0.24780860543251038, 0.030073486268520355, -0.17044596374034882, 0.1581120491027832, 0.08650466799736023, -0.0571490079164505, 0.031198974698781967, 0.0070857880637049675, -0.3202771246433258, -0.05522748827934265, -0.11179579794406891, -0.07692521065473557, 0.00794797670096159, -0.11005173623561859, 0.1948855072259903, 0.04406055435538292, -0.059929925948381424, -0.04077663645148277, 0.09083771705627441, 0.01630357652902603, -0.045381635427474976, 0.0400095097720623, 0.17859593033790588, 0.07319608330726624, -0.10619639605283737, 0.06609108299016953, -0.2854340970516205, -0.11547745764255524, -0.12311266362667084, -0.16510435938835144, -0.06227996572852135, 0.23573622107505798, 0.004438474308699369, -0.13261030614376068, 0.11532562971115112, 0.09133116155862808, 0.06137483939528465, -0.09257812798023224, 0.049596771597862244, 0.019687794148921967, 0.3186825215816498, 0.2057390958070755, -0.011922831647098064, -0.17548640072345734, 0.04638785123825073, -0.2841019928455353, 0.08408906310796738, 0.09921073168516159, 0.34927287697792053, 0.21304281055927277, 0.012544463388621807, 0.00955455657094717, -0.0867563933134079, -0.202752485871315, -0.46834152936935425, 0.30486974120140076, -0.14089758694171906, 0.08707645535469055, 0.04282109811902046, 0.13532178103923798, 0.20920930802822113, 0.038539811968803406, -0.10138341039419174, -0.02760252356529236, 0.14157499372959137, -0.026252102106809616, 0.12719665467739105, -0.044858403503894806, 0.03390989452600479, -0.04186054691672325, 0.12071416527032852, -0.24455788731575012, 0.022164329886436462, -0.037867505103349686, 0.2155611217021942, 0.055594611912965775, 0.07252306491136551, -0.12255337834358215, -0.06309882551431656, -0.10289144515991211, 0.00324269849807024, 0.13378559052944183, 0.20150946080684662, -0.034484196454286575, -0.15768559277057648, -0.000983329489827156, -0.013696935027837753, 0.0940302163362503, 0.0747782289981842, -0.22495980560779572, -0.11771699786186218, -0.2636095881462097, -0.03692370280623436, 0.037918951362371445, 0.020279189571738243, -0.079805888235569, 0.24040059745311737, -0.4475320875644684, 0.06557566672563553, -0.11734633147716522, 0.2428613007068634, 0.12417423725128174, 0.4945240914821625, 0.0016381361056119204, -0.1574517786502838, -0.11632640659809113, 0.11596928536891937, 0.31439322233200073, 0.12199657410383224, 0.5114631652832031, -0.01572444848716259, 0.315667986869812, 0.002041060710325837, -0.04185960441827774, 0.015560267493128777, 0.05100560188293457, -0.38486725091934204, -0.07558276504278183, -0.3811265230178833, 0.36235126852989197, -0.10104353725910187, 0.043480124324560165, -0.30640938878059387, 0.2832346558570862, -0.10005739331245422, 0.2573365569114685, 0.035693325102329254, 0.38061290979385376, -0.11494458466768265, -0.10925456136465073, -0.21208856999874115, 0.009339357726275921, 0.19913628697395325, -0.006243789568543434, 0.0309812743216753, 0.06669240444898605, -0.38218507170677185, 0.04929313808679581, -0.2586866617202759, -0.004384751431643963, 0.14196011424064636, -0.08290333300828934, -0.0919075459241867, 0.1230776458978653, -0.03204188868403435, 0.03696037456393242, 0.17241866886615753, -0.057588428258895874, 0.10792025178670883, 0.1720876395702362, 0.028132542967796326, 0.04479190707206726, 0.235417440533638, 0.15610547363758087, 0.004119690041989088, -0.07189019024372101, -0.10375034064054489, -0.01715884357690811, -0.026741037145256996, 0.016478991135954857, -0.19037441909313202, 0.15656475722789764, 0.014680244959890842, -0.048509739339351654, -0.07359833270311356, -0.07238033413887024, -0.28838610649108887, 0.046248435974121094, -0.07893409579992294, 0.16012103855609894, 0.1660984456539154, -0.08161546289920807, -0.12075719237327576, 0.30214083194732666, -0.005650411359965801, -0.3466862738132477, 0.17895618081092834, 0.0906442254781723, 0.17081651091575623, -0.030099019408226013, 0.03331994637846947, -0.017600340768694878, 0.09578210115432739, 0.032707273960113525, -0.3893086016178131, 0.15315811336040497, -0.42701366543769836, -0.08482254296541214, 0.3268263638019562, 0.0180478785187006, -0.03194180876016617, 0.20559631288051605, 0.127071812748909, -0.055089522153139114, -0.021730992943048477, -0.0409514494240284, 0.0336422435939312, 0.019077681005001068, -0.03190021216869354, -0.08949732035398483, 0.1808818131685257, 0.009628898464143276, -0.05921713262796402, -0.015624688938260078, 0.02085825242102146, -0.030617067590355873, 0.010240266099572182, -0.09047263115644455, -0.04068608954548836, 0.0976739451289177, -0.08586543053388596, -0.06735717505216599, -0.028902122750878334, -0.24312029778957367, 0.164755716919899, -0.1858113557100296, 0.20271681249141693, 0.28353047370910645, -0.08077292889356613, 0.04241431877017021, 0.0744459480047226, -0.29506024718284607, -0.06300728768110275, 0.2695541977882385, 0.04230288043618202, 0.0005264042410999537, -0.14044316112995148, -0.11161501705646515, 0.16958805918693542, 0.04551012068986893, -0.03965967893600464, 0.012250900268554688, 0.08978420495986938, 0.18423007428646088, -0.02968607097864151, -0.1829313337802887, -0.054981376975774765, -0.15111009776592255, -0.10478661954402924, -0.08346553891897202, 0.0956791415810585, 0.08819295465946198, -0.046310458332300186, 0.06876432150602341, -0.07432040572166443, 0.3137492537498474, 0.026526648551225662, -0.0848955288529396, -0.11230552941560745, -0.08307810872793198, 0.22337955236434937, -0.06710872799158096, 0.13467565178871155, 0.068230040371418, -0.08412767946720123, 0.1740148812532425, -0.057610899209976196, -0.31798264384269714, 0.07792696356773376, -0.39219996333122253, -0.09837298095226288, 0.03810126334428787, -0.05260961502790451, 0.09808937460184097, 0.20432960987091064, -0.3627111315727234, 0.01832187920808792, 0.1306639164686203, -0.2099776566028595, -0.028697550296783447, 0.0750860646367073, -0.09152107685804367, 0.03038831427693367, 0.16459321975708008, -0.07182388007640839, -0.1186162605881691, 0.01273112278431654, -0.026402512565255165, -0.5205065608024597, 0.03944593667984009, -0.0772688090801239, -0.038872212171554565
bias
0.07267340272665024, -0.04255345091223717, 0.18499620258808136, 0.008148746564984322, 0.30483976006507874, 0.1211552694439888, -0.013275529257953167, 0.22427555918693542, 0.16343356668949127, 0.03373098745942116, 0.11482586711645126, 0.003285064361989498, 0.26453715562820435, 0.311492919921875, -0.07588879764080048, 0.1269536316394806, -0.03025415912270546, 0.1674627959728241, 0.18155206739902496, 0.235530287027359, 0.16660787165164948, 0.11473660916090012, 0.21855884790420532, -0.03915923461318016
layer29
kernel
0.1279171258211136, 0.028376800939440727, -0.009196145460009575, -0.046558402478694916, -0.35892754793167114, -0.21205727756023407, -0.1698039323091507, 0.0716976523399353, -0.13302311301231384, -0.24495035409927368, -0.26080968976020813, 0.11286459118127823, 0.1192823201417923, -0.036466583609580994, 0.02282325178384781, 0.02488825097680092, 0.014175178483128548, -0.08662909269332886, -0.06819882243871689, -0.18143975734710693, -0.009453588165342808, -0.08754788339138031, -0.12002438306808472, 0.05204547196626663, 0.08181539177894592, -0.12198322266340256, -0.04011538252234459, -0.012259737588465214, 0.009568356908857822, 0.06644778698682785, -0.011506126262247562, 0.09356098622083664, 0.03125697001814842, 0.1125902459025383, -0.01913330890238285, 0.12898188829421997, 0.1411915421485901, -0.004947916604578495, -0.013739686459302902, 0.035994477570056915, -0.02925814315676689, 0.022737013176083565, 0.02116108499467373, 0.01246051024645567, 0.02963336557149887, 0.0023369044065475464, -0.0068812258541584015, 0.0551091805100441, 0.13343408703804016, -0.0398978553712368, -0.2126156985759735, 0.13958919048309326, -0.12436066567897797, -0.2104945331811905, 0.05730390548706055, 0.0920971930027008, 0.06516214460134506, -0.10907929390668869, -0.19037926197052002, -0.16041766107082367, -0.09401308745145798, -0.09108023345470428, -0.16488803923130035, -0.14474250376224518, 0.14505557715892792, -0.03805455565452576, 0.05879296362400055, -0.12254497408866882, -0.18481288850307465, -0.16291505098342896, -0.038374364376068115, -0.06675099581480026, 0.13086175918579102, -0.10399243235588074, 0.24853910505771637, -0.040660906583070755, 0.14644740521907806, -0.05973072722554207, 0.1938754916191101, -0.15724113583564758, 0.3474598228931427, 0.02203381434082985, 0.04496591165661812, 0.15905189514160156, 0.13659244775772095, 0.00656062550842762, -0.016567746177315712, 0.09939996898174286, 0.09744121134281158, 0.04675321280956268, 0.017723478376865387, 0.25294411182403564, -0.10853017866611481, -0.0921265184879303, 0.1282273381948471, -0.21593230962753296, -0.02760385535657406, 0.0062682293355464935, -0.03544843941926956, -0.03129318356513977, 0.022919420152902603, -0.017831716686487198, -0.013949121348559856, -0.021750018000602722, -0.0018395561492070556, 0.04930669814348221, 0.065952830016613, 0.026611046865582466, -0.024845492094755173, -0.022279933094978333, 0.06321055442094803, -0.13316398859024048, 0.018788933753967285, 0.049221258610486984, 0.09275218844413757, 0.040563251823186874, -0.08955777436494827, 0.13815173506736755, -0.07871018350124359, -0.0522281676530838, -1.8895549146691337e-05, -1.773654730641283e-05, -3.317913433420472e-05, -2.1012725483160466e-05, -9.77384206635179e-06, -2.425320963084232e-05, -5.372801751946099e-05, -4.864095899392851e-05, 4.766512574860826e-05, -3.002984703925904e-05, -6.55116600682959e-05, -7.201702101156116e-05, 1.900926508824341e-05, -1.2676333426497877e-05, 5.411177335190587e-05, -3.606810423661955e-05, 5.8200472267344594e-05, 5.2121831686235964e-05, -5.119880734127946e-05, -5.7871769968187436e-05, -4.2825173295568675e-05, 3.629701313911937e-05, -5.942968346062116e-05, -1.931394035636913e-05, 0.09367083758115768, 0.12798455357551575, -0.14180368185043335, 0.08388443291187286, 0.19430597126483917, 0.06678944081068039, 0.07076659798622131, -0.3541598618030548, -0.3847329318523407, -0.09033936262130737, -0.005190527532249689, -0.24404460191726685, -0.1764289140701294, 0.07288186252117157, -0.16280773282051086, -0.17091697454452515, -0.07159508019685745, 0.11931412667036057, 0.08853346109390259, -0.06016514077782631, -0.024930788204073906, 0.01801213249564171, -0.020726652815937996, -0.1819152981042862, 0.10297423601150513, 0.06482795625925064, -0.09303800016641617, 0.19356071949005127, -0.0032744354102760553, -0.1321941465139389, -0.19357900321483612, -0.060583073645830154, 0.04176029562950134, 0.1299489438533783, 0.03691118583083153, 0.07285570353269577, 0.14061897993087769, 0.14409446716308594, -0.025773458182811737, 0.016439538449048996, -0.022404585033655167, -0.0115749416872859, -0.0904541090130806, 0.06341425329446793, -0.2799270451068878, -0.1674564927816391, -0.15747246146202087, -0.028920195996761322, 0.16247040033340454, -0.3141101896762848, 0.0085650235414505, 0.11817752569913864, 0.1642090529203415, 0.07242526859045029, 0.24804088473320007, -0.30142125487327576, -0.22961227595806122, 0.059471290558576584, 0.222948357462883, -0.1471015363931656, -0.16759851574897766, 0.1772514134645462, 0.1148313358426094, 0.10984733700752258, -0.10489044338464737, -0.05494102090597153, -0.08400098234415054, 0.2416956126689911, 0.11540282517671585, 0.07392452657222748, -0.025330882519483566, 0.014695912599563599, 0.08099047839641571, -0.5130603909492493, -0.08371294289827347, 0.0336221382021904, 0.06043151021003723, 0.10861799120903015, 0.23666732013225555, -0.019393356516957283, -0.19112443923950195, 0.17466840147972107, 0.06352973729372025, -0.0761108547449112, -0.05301054194569588, -0.01072835735976696, -0.0524263009428978, -0.04966335743665695, -0.011911934241652489, -0.0433577336370945, -0.03927707299590111, 0.13367456197738647, 0.10339770466089249, 0.05650300532579422, -0.05357116833329201, -0.019042260944843292, -0.355638712644577, 0.17768430709838867, -0.062494195997714996, 0.10649514943361282, -0.3712686002254486, -0.2124582678079605, 0.020543236285448074, 0.30586037039756775, 0.11521836370229721, 0.17171768844127655, 0.07332424819469452, -0.46807923913002014, -0.3123355507850647, 0.10161559283733368, -0.03892265632748604, -0.05222237855195999, 0.023017926141619682, 0.05124031752347946, -0.10541708767414093, 0.06494025141000748, 0.12199151515960693, 0.1073949858546257, 0.0068250736221671104, 0.0876760482788086, 0.08970174193382263, 0.18527616560459137, -0.06170644983649254, 0.09875736385583878, 0.03158901259303093, -0.3437615931034088, -0.0983123779296875, -0.18930421769618988, -0.12706232070922852, -0.1582689732313156, 0.10485293716192245, 0.20462262630462646, 4.5462409616447985e-05, 0.20269696414470673, -0.05758800357580185, -0.0719311535358429, -0.01423898059874773, 0.027044052258133888, -0.001991628436371684, -0.07821246981620789, -0.012244396843016148, -0.030384190380573273, -0.028449099510908127, 0.13755685091018677, 0.08617692440748215, -0.3072364628314972, -0.4052952527999878, -0.03954301029443741, 0.05035002529621124, 0.04819478467106819, 0.22680243849754333, 0.04771137610077858, -0.08939041197299957, 0.07247687131166458, 0.028585469350218773, 0.02732539363205433, -0.03994707763195038, 0.018053973093628883, -0.049763068556785583, -0.05225735530257225, 0.044968049973249435, 0.04317110404372215, -0.025244906544685364, 0.029609713703393936, 0.033765219151973724, 0.05217471718788147, -0.05428774282336235, 0.020254217088222504, 0.13509631156921387, -0.44536587595939636, -0.3032550811767578, -0.09702856838703156, 0.1895247846841812, 0.03493855521082878, 0.1338222175836563, -0.04903371259570122, -0.07854300737380981, -0.17428864538669586, -0.0752389132976532, -0.11082102358341217, 0.08537698537111282, -0.002138799522072077, -0.16508586704730988, -0.1651974767446518, 0.05006915330886841, -0.08846313506364822, 0.04319595545530319, -0.14654019474983215, 0.20502281188964844, 0.096977099776268, -0.16281208395957947, -0.06997804343700409, 0.04323029890656471, 0.01438754890114069, -0.18958652019500732, 0.06044503301382065, -0.12011995911598206, 0.02541043609380722, 0.06535182893276215, -0.17709757387638092, -0.2826772928237915, 0.29538801312446594, 0.04591057449579239, -0.23584282398223877, -0.010368145070970058, 0.01454191654920578, 0.015568411909043789, 0.1341378092765808, -0.1090826690196991, 0.12818875908851624, -8.236097346525639e-05, 0.007900925353169441, 0.0773567482829094, 0.04517943412065506, -0.05488196015357971, 0.19439701735973358, -0.09394005686044693, -0.40758922696113586, -0.2833590805530548, -0.26170530915260315, 0.11117904633283615, 0.01519685797393322, -0.1523289829492569, 0.11602560430765152, -0.05420268326997757, 0.04161728546023369, -0.25827497243881226, 0.13230130076408386, 0.02205209620296955, 0.0430433489382267, 0.11296150833368301, 0.08069243282079697, 0.15766653418540955, -0.030860260128974915, 0.05774427577853203, 0.03211493045091629, 0.057215746492147446, 0.022860758006572723, -0.03448961302638054, 0.07994891703128815, 0.3056866228580475, 0.07501303404569626, -0.1136670708656311, -0.12196861952543259, 0.10236865282058716, -0.6920445561408997, 0.018693894147872925, -0.054677531123161316, -0.01960466429591179, -0.0828886404633522, -0.15561752021312714, 0.010983511805534363, 0.13655437529087067, -0.3142070472240448, 0.13218769431114197, 0.06841595470905304, 0.09480659663677216, -0.09864168614149094, -0.002441117772832513, -0.04090336710214615, -0.19827872514724731, -0.19655649363994598, -0.1391316056251526, 0.0025212354958057404, 0.12101071327924728, -0.5197396874427795, 0.1638878881931305, 0.1962917298078537, 0.05882750451564789, -0.028323182836174965, -0.09334924817085266, -0.1348494291305542, -0.22256988286972046, 0.03145294636487961, 0.1994597464799881, -0.04070597141981125, 0.09506700187921524, -0.0416373685002327, 0.030658679082989693, 0.004362550564110279, -0.0012657942716032267, -0.07258596271276474, -0.04172248765826225, 0.05167263001203537, -0.016105158254504204, 0.04283349961042404, 0.044419243931770325, 0.03973033279180527, 0.3209512531757355, -0.28454452753067017, 0.2084054797887802, 0.14011314511299133, -0.05891433730721474, -0.12870948016643524, 0.20193693041801453, -0.24359701573848724, -0.07222967594861984, 0.026112375780940056, 0.029328936710953712, -0.02312314696609974, -0.016760332509875298, 0.038976073265075684, -0.1736414134502411, -0.03556782752275467, 0.3925921320915222, -0.09154185652732849, 0.1282307505607605, -0.14949379861354828, 0.2040073424577713, 0.17185434699058533, -0.09299387037754059, -0.00477495277300477, 0.31862589716911316, -0.3673996925354004, -0.17165564000606537, -0.06474225223064423, -0.04341566562652588, -0.0005258004530332983, -0.022037701681256294, 0.12858566641807556, -0.07974985241889954, -0.017492732033133507, -0.10420956462621689, 0.07116512954235077, 0.1305437684059143, -0.037587523460388184, -0.08651377260684967, -0.052873142063617706, 0.13528527319431305, 0.029153315350413322, -0.05542382597923279, -0.10209213197231293, 0.021499088034033775, -0.01142453495413065, -0.05560682713985443, 0.04883447661995888, -0.02104172296822071, 0.07046269625425339, 0.02064184844493866, 0.13705211877822876, 0.04989742115139961, 0.026076918467879295, 0.022910932078957558, 0.02803029865026474, 0.04851691797375679, 0.11144015192985535, 0.0823226124048233, -0.00555329117923975, -0.06157295033335686, 0.026161693036556244, -0.02727590687572956, -0.007978841662406921, -0.009259459562599659, 0.05466414988040924, 0.021840032190084457, 0.05432289466261864, 0.04038164019584656, 0.05859249457716942, 0.06367108970880508, 0.023897426202893257, -0.08661849796772003, 0.08811818063259125, -0.12084010243415833, -0.012534736655652523, 0.13898909091949463, -0.19989418983459473, -0.051913365721702576, 0.1332448273897171, -0.20620201528072357, 0.2866855561733246, 0.19915986061096191, -0.03850501403212547, -0.1965409815311432, 0.1897609978914261, -0.14123842120170593, 0.006296868436038494, 0.09479839354753494, 0.11428569257259369, 0.17851069569587708, -0.06606348603963852, 0.02601894736289978, 0.18838824331760406, 0.12062448263168335, -0.0024285507388412952, 0.3323766589164734, 0.0630774050951004, -0.03797367960214615, -0.37357112765312195, -0.3951214849948883, -0.3848007023334503, 0.06496581435203552, -0.27769529819488525, 0.053432732820510864, 0.15472307801246643, 0.19419920444488525, 0.07775812596082687, 0.15983356535434723, 0.3766474723815918, 0.14768604934215546, 0.012276336550712585, 0.19392377138137817, 0.15009108185768127, 0.10739924013614655, 0.09011297672986984, -0.03135891258716583, -0.028527578338980675, 0.08481993526220322, 0.13272370398044586, 0.0774417370557785, -0.058983709663152695, -0.37093356251716614, -0.01307861227542162, 0.12109965831041336, -0.17101456224918365, -0.3139614462852478, 0.0025788871571421623, -0.006817822810262442, -0.1805996596813202, -0.1958269625902176, 0.3087022006511688, 0.2558903098106384, 0.10338059812784195, 0.021902678534388542, 0.04693193361163139, 0.16854099929332733, 0.006883468013256788, 0.12888532876968384, -0.30507218837738037, -0.08524921536445618, -0.010299837216734886, -0.03305764123797417, 0.13048072159290314
bias
0.4000120759010315, 0.019161969423294067, 0.18094180524349213, -0.1295270323753357, 0.29655545949935913, -0.03474649786949158, 0.311005175113678, 0.24616140127182007, 0.0850602239370346, 0.21832117438316345, 0.020394351333379745, -0.02249796688556671, 0.32097864151000977, 0.19475801289081573, 0.06208611652255058, 0.12927702069282532, 0.1689598560333252, 0.10977184027433395, -0.129922017455101, 0.10831456631422043, -0.009380728006362915, -0.0676240399479866, -0.1713767945766449, 0.18019729852676392
layer30
kernel
0.012856035493314266, 0.15873292088508606, 0.07426030188798904, 0.5334253907203674, 0.911630392074585, 0.37999987602233887, 0.5208246111869812, 0.7194005250930786, 0.3337263762950897, -0.6103641986846924, -1.321678876876831, -0.6738709211349487, -0.16664472222328186, 0.3864552974700928, 0.5085925459861755, 0.22926007211208344, 1.5500173568725586, 1.2775319814682007, 0.08463171869516373, 0.7664551138877869, 0.2686185836791992, 0.7591213583946228, 0.8491183519363403, 0.7339731454849243, 0.9445867538452148, 0.5077475905418396, 0.44482865929603577, -0.15029017627239227, -0.20515742897987366, -0.037503331899642944, -0.2611980438232422, -0.5763373374938965, -0.3331110179424286, -0.1275063306093216, -0.45940548181533813, -0.3013330399990082, -0.7228100299835205, 0.4093483090400696, 1.0068737268447876, -1.401387095451355, 0.13897928595542908, 1.6422910690307617, -1.3221089839935303, -0.3480750322341919, 0.8691188097000122, 0.051837217062711716, 0.13766172528266907, 0.1747441291809082, 0.22784043848514557, 0.32256361842155457, 0.10099568217992783, 0.09366467595100403, 0.22437968850135803, -0.025307342410087585, 0.09669022262096405, -0.13828568160533905, -0.14006446301937103, -0.37977197766304016, -0.8655992746353149, -0.6921080350875854, -0.4062207341194153, -0.6525604724884033, -0.4854881465435028, -0.3042392134666443, -0.6317958235740662, -0.6187146306037903, -0.5573295950889587, -0.8034508228302002, -0.6541700959205627, -0.26849034428596497, -0.3121660053730011, -0.19123193621635437, 0.1893877238035202, 0.10171873867511749, -0.007086111698299646, 0.4260410666465759, 0.612530529499054, 0.3761141300201416, 0.3042765259742737, 0.6851423978805542, 0.42284056544303894, -0.8774436116218567, 0.20109254121780396, 0.7889289855957031, -1.142324447631836, 0.4823974668979645, 1.054451584815979, -0.8662927746772766, 0.45762673020362854, 0.3595205843448639, 0.27241507172584534, 0.668303370475769, 0.302654892206192, 0.2628385126590729, 0.6766107082366943, 0.23282143473625183, 0.11629926413297653, 0.5018144249916077, 0.13046735525131226, -0.9352691769599915, -1.332340955734253, -0.8943864703178406, -0.907988429069519, -0.38835716247558594, 0.19129370152950287, 0.22848248481750488, 1.2503386735916138, 0.938960075378418, 0.5121856927871704, -0.9051539897918701, 0.4537131190299988, 0.8185212016105652, -1.536926031112671, 0.7930932641029358, 0.5752860903739929, -1.1998907327651978, 0.6137185096740723, -0.31881964206695557, -0.42405596375465393, 0.017820272594690323, -0.6880720257759094, -1.0116504430770874, -0.4494341313838959, -0.6394190192222595, -0.9205073118209839, -0.599984347820282, 0.3571506142616272, 0.6556345820426941, 0.03922399505972862, 0.5672560930252075, 0.9898383617401123, 0.4009169042110443, 0.475310355424881, 0.4443897604942322, 0.2716093361377716, -0.372196763753891, -0.7794554233551025, -0.223763570189476, -0.37869343161582947, -0.9872093200683594, -0.6857184767723083, 0.025791330263018608, -0.3284633457660675, -0.5733038187026978, 0.20405596494674683, -0.00512198731303215, 0.051325779408216476, 0.5703455805778503, 0.7210730314254761, 0.5032655596733093, 0.38023704290390015, 1.0716911554336548, 0.7651085257530212, -0.40864336490631104, -0.9596027135848999, -0.13312740623950958, -0.7611552476882935, -1.1750588417053223, -0.14146453142166138, -0.2843746840953827, -0.2394200712442398, -0.05687190592288971, 0.22603102028369904, 0.3121342062950134, 0.20541124045848846, 0.6127979159355164, 0.7111961245536804, 0.35885506868362427, 0.448953241109848, 0.539198637008667, 0.3357442021369934, 0.6267349123954773, 1.0749257802963257, 1.074484944343567, 0.28501802682876587, -0.04958279803395271, -0.19217991828918457, -0.4555440843105316, -1.0972529649734497, -1.052140474319458, 1.0003280639648438, -0.05260583385825157, -0.45344844460487366, 1.5771145820617676, -0.4570223093032837, -1.3206429481506348, 1.3295403718948364, -0.6693961024284363, -1.1280484199523926, 0.34052520990371704, 0.5014765858650208, 0.19513720273971558, 0.39505207538604736, 0.542853593826294, 0.3214165270328522, 0.23800867795944214, 0.37867388129234314, 0.2695366442203522, -0.22231996059417725, -0.3952975869178772, -0.2675943672657013, -0.3096648156642914, -0.6443616151809692, -0.4639764130115509, -0.08972673118114471, -0.2613559067249298, -0.2707389295101166, 0.16758084297180176, 0.3573346436023712, 0.4394988417625427, 0.5060957670211792, 0.7207949757575989, 0.37254074215888977, 0.28094205260276794, 0.24613763391971588, 0.06092444807291031
bias
-0.8315808176994324, -0.15900644659996033, -0.37266698479652405, 0.21495307981967926, -0.10509583353996277, 1.0225792721030302e-05, 0.4255048632621765, 0.9681234955787659, -0.23683296144008636, -0.09350034594535828, -0.37289124727249146, 0.03200015053153038, -0.05003712326288223, 0.2094334363937378, -0.4756438434123993, 0.4583360254764557, -0.13229157030582428, 0.30368489027023315, -0.14392951130867004, -0.017615389078855515, 0.03516217693686485, -0.33327096700668335, 0.1306612193584442, -0.47728562355041504
layer31
kernel
