layer0
kernel
3.06231117, 11.97764301, 0.98625433, 2.93499780, -6.39282942, -9.16656399, -3.75829101, -10.99987602, 1.64913273, 0.57309103, -6.49055815, -5.32558632, -1.50050533, -3.36607122, -2.29639053, 2.75674248, 5.50274801, 2.33531260, 0.78151429, -11.13068485, 0.60137016, -6.57948732, -2.92144895, 4.74690962, -0.24263862, 4.53696394, -0.63072693, -1.39744949, -1.51611555, 1.08360887, 1.26473081, -0.58201039, -3.07907295, -0.24787162, 0.18375680, -1.62541330, 5.73417377, 14.62444782, 9.25553131, 1.32981765, 2.34934449, 2.06387711, -10.73783398, -15.06417465, -8.14203072, -2.73321271, 1.17026055, 2.50072360, -2.49290895, 3.35253263, 2.42257595, -0.73605281, 1.89703333, -0.23725127, 2.71213770, 1.30035079, -0.97624403, 8.13013554, 0.54854870, -6.93101883, 3.80452657, -2.42805386, -6.92474079, 1.63601398, 3.14020061, -0.23809244, 1.60559225, -0.19488932, 0.46688935, 0.51252198, -2.67711401, 0.85603422, 
bias
2.28462458, 2.31770325, 1.78519678, 2.67766523, 2.18319488, -1.55535817, 2.98515582, -1.41403365, 
layer1
kernel
0.23626035, 0.31535548, 0.51488703, 1.22862220, -0.10899068, -0.41853788, 0.16937971, -0.68503547, -0.11868606, -0.43439099, 0.41866508, -0.01873942, 0.13990119, -0.26600513, -0.97559941, 0.16764405, -0.64937878, 0.48972368, 0.40838996, -0.10774566, -1.16277099, 0.39655569, -0.16535705, -0.07396420, 1.04940772, -0.66615057, -0.45852995, 0.07933974, 1.32458079, -0.39152887, 0.03096732, -0.06999958, -0.23974298, -0.40474826, -0.42383710, -0.38404173, 0.12132742, 0.62087286, -0.27355286, 1.11232972, -0.10381921, 0.44076911, 0.40808147, 0.01809127, -0.41116521, -0.06301107, -0.15644836, 0.02924412, 0.45358819, -0.01328130, 0.03832943, 0.57396436, 0.02019763, 0.01591244, 0.73163706, 0.28608885, 0.21743315, 0.07930747, 0.29532757, -0.00718669, -0.01799432, 1.12337518, 0.19093846, 0.47054583, 
bias
-1.40771949, 5.39400196, 5.16124344, -3.46498060, 0.67438400, 3.56150317, -1.36898732, -1.72969818, 
layer2
kernel
0.64924139, -0.43876836, -0.89196432, 1.23313427, 0.74981016, -1.58279109, 0.76296473, 1.19833839, -0.87159598, 0.00709979, -1.03024340, 0.67202014, 0.04621896, -2.02224636, 2.06498575, -0.04741397, -0.35794210, 0.56798351, -0.06619781, 0.03366957, 0.38600168, -0.15784752, 0.43553588, 0.82952696, 0.05255877, 0.52501702, 0.29994452, -0.02693392, -0.17843720, -0.20644234, -0.03056847, -0.45359164, -0.36421999, -0.02865554, -0.26842096, -0.14591755, 0.28153414, -0.32884428, -0.47284290, 0.83348578, 0.33996087, -1.13544345, 0.62563139, 0.76833737, -0.72283691, 0.04190310, 1.50593305, 0.19324724, 0.58095521, 2.12602305, -1.91245008, 0.05600985, -0.35100010, -0.91739357, 0.15018164, 0.19430815, -0.62004369, 0.23445758, -0.51588243, -0.95449615, -0.14402665, -0.56928879, 0.09999483, -0.34575838, -0.68943542, 0.22972509, -0.16793607, 0.13541552, 0.85073733, 0.05307352, 0.94855911, 0.48312515, 
bias
-0.30439970, 0.46892098, -4.60208559, 1.52830148, -0.35145843, -2.62038732, 2.89473724, -0.96400619, 
layer3
kernel
0.10421959, 0.08175493, 0.05467425, -0.21890217, -0.29850295, 0.35963964, -0.57649022, 0.27552542, -0.17960554, 0.01822438, 0.15993397, -0.50531346, 0.10389049, 0.44097105, 0.21474798, -0.25818938, -0.08313626, 0.04065167, -0.11233214, 0.06663993, 0.11678354, -0.24325539, -0.12300239, 0.74469143, 0.13290209, 0.24096504, 0.12822874, 0.17348970, -0.03668251, -0.64171988, -0.17233738, -0.12624417, 0.02098332, 0.06236352, -0.75614339, 0.11866233, 0.13536890, -0.22405097, -0.03993554, -0.01497583, -0.23771863, -0.01628054, -0.29093534, 0.01094586, 0.36015609, 0.01177533, 0.04778444, -0.51108855, -0.10052180, 0.02743852, -0.70110339, 0.05026090, -0.11175213, -0.11981317, 0.30370122, 0.16769709, 0.17315648, 0.20815620, -0.30128407, 0.29268765, -0.16118290, -0.13232347, -0.41078612, -0.18390201, -0.39672166, 0.05656603, -0.01193343, 0.01217956, -0.05476582, -0.15819360, -0.25923049, 0.05493459, -0.21284126, 0.13310748, 0.13986088, 0.36991245, 0.07466872, 0.38777629, 0.05527991, -0.09569143, -0.16146038, 0.57518470, -0.07471481, 0.18695413, 0.21445300, 0.14465551, 0.11391025, 0.11610634, 0.20546889, -0.51563984, -0.15597986, 0.19235131, -0.25710443, 0.38351011, 0.06367985, 0.05074115, 0.04571795, -0.58475018, -0.00116570, 0.06567448, -0.03445162, -0.05512946, -0.01722581, 0.00008963, 0.56429404, -0.17790771, -0.22697027, 0.10498493, -0.41069388, -0.11296319, 0.38146514, -0.02900507, -0.14588836, 0.10800747, 0.16201121, 0.04660757, 0.30257744, 0.12029528, 0.08358839, 0.28144556, -0.41133684, 0.16757862, -0.05125257, 0.35868573, 0.42548683, -0.10308101, -0.43700427, -0.13903186, 0.12032126, -0.00535045, -0.23750097, 0.91733176, -0.16508831, -0.23137495, -0.02220681, -0.06216336, 0.12500030, 0.65949166, -0.04104117, 0.07036135, -0.16997208, 0.00597558, 0.01983008, 0.02914313, -0.20891663, 0.01119944, -0.24268940, 0.24115427, 0.18993689, -0.12057713, 0.18198216, -0.30590865, 0.00296844, -0.16445681, -0.29842445, 0.50353354, -0.04925620, 0.38827515, 0.23929392, 0.03297221, 0.03120214, 0.08634600, -0.01559222, -0.02282608, -0.02312713, -0.43945086, -0.23601712, -0.11921273, 0.15895398, 0.02488601, 0.19736187, 0.23030347, -0.26799211, 0.20325971, 0.29172730, 0.24612693, 0.10886931, 0.07232253, 0.45336515, -0.00469846, -0.06927697, -0.22113116, 0.21866387, -0.23331343, -0.01054842, -0.09919854, -0.68241286, 0.15231776, -0.02818244, 0.13000952, -0.32548094, 0.12653528, 
bias
-0.66530454, 0.40727681, -0.93439054, -0.20740014, -0.48846224, -0.06372283, -0.87835032, -0.27877110, 0.29307994, -0.69033498, 0.15167318, -0.22131848, 0.06258484, 1.69571698, 0.33929089, 0.44367567, 2.50947094, 0.08976352, 1.84756362, -0.05764344, 0.49251390, 0.20285906, 0.13970588, -0.09127278, 
layer4
kernel
0.05329408, -0.17338145, -0.10303769, -0.02085903, -0.49174055, 0.00218668, -0.23373950, 0.08439771, 0.21347220, 0.17264177, 0.21435982, -0.05340504, -0.03827428, -0.28115326, -0.08274683, 0.14751868, -0.19561721, -0.04657995, -0.33520210, 0.12966768, 0.19735272, 0.09712680, -0.16127883, 0.69618899, 0.33596051, -0.26375300, 0.02796707, 0.42364103, 0.00478252, 0.51363361, 0.00201333, -0.06055826, 0.04524084, -0.05500041, -0.12947550, 0.07763195, 0.43884227, -0.06430580, -0.14360574, 0.30473983, 0.00902816, -0.64031267, -0.02874755, -0.04347770, 0.07819121, -0.01772633, -0.04244817, -0.05744230, 0.07912036, 0.29998532, -0.11096707, -0.43500924, 0.10936328, 0.16114283, -0.21887930, 0.02606161, -0.11524384, 0.11470925, -0.04188950, -0.01907366, 0.03518870, 0.03919442, -0.23196197, 0.13939904, 0.32366213, 0.07758770, 0.22271800, 0.02864089, -0.17551214, 0.09126878, -0.06452289, 0.06606355, 0.02426154, 0.13840900, -0.11096699, -0.08612264, 0.05798125, 0.00730177, -0.07060324, -0.00994107, 0.03743304, 0.01617714, -0.05132057, 0.06317659, 0.09031864, 0.07468656, -0.29573566, -0.24663936, 0.20472224, -0.23563901, -0.17461604, 0.13617271, -0.25636598, 0.33325261, -0.08753961, -0.02077039, 0.05100608, 0.21882585, 0.12788524, 0.21101063, -0.71236813, 0.04603276, -0.41988984, -0.09236155, 0.00904374, -0.09928867, 0.08999331, -0.20260337, 0.06682633, 0.00420877, 0.08425725, -0.01965068, -0.04007243, -0.03834336, -0.09051929, 0.05131140, -0.12075470, 0.15225187, 0.18580523, -0.09766924, 0.07023706, 0.57161784, 0.09839438, -0.56661826, -0.14345998, -0.10103304, -0.24664561, -0.37024617, -0.00934816, -0.44107345, -0.19928855, -0.00010368, -0.04232473, 0.01350264, 0.00446069, -0.02460532, 0.10012592, 0.05867594, 0.12713119, -0.42167723, 0.40768114, 0.13350122, 0.07424211, -0.09895957, 
bias
2.99513006, 1.94466770, 0.15852925, 0.73891002, 0.26299280, 0.32484639, 1.95309711, 0.18687794, 3.34003854, 1.52203453, 1.39758432, 0.72188354, 
layer5
kernel
-0.36673787, -0.02181955, 0.02351427, 1.60795236, -1.71822226, -0.42616615, 0.49079153, -0.52378213, -0.26776609, -1.24951720, 1.18794966, 0.06103129, 1.41100562, -1.18895900, -0.19605711, 0.26014787, -0.09701926, -0.22330830, -0.26562381, -0.06187003, -0.04136764, 1.25060916, 0.06161601, 0.08331588, 0.31555527, -0.15864854, -0.10320138, -0.62123889, 0.07164367, -0.02778645, 1.77637029, -0.33000249, -0.00519463, 0.19088620, -0.06820869, -0.04226240, -0.52436399, -0.04595071, -0.00188592, 1.92617381, -0.27194810, -0.05196062, 0.74723125, -0.13835298, -0.08207273, -0.00455619, 0.11870622, 0.07893624, 1.09816456, 2.01883578, 0.22594178, -1.49239302, -1.02269971, -0.47210816, 0.12816359, 0.30776697, 0.16107634, -2.63302064, 2.27381372, 0.24673669, 1.20229650, -1.57632494, -0.52616817, -0.07512841, -0.19258840, -0.36407864, -0.44820085, -0.99864668, 0.44982377, -0.16364606, -0.44793034, -0.07898289, -0.10953792, -0.41236174, -0.04488975, -0.34442049, 0.20493297, 0.17429009, -0.96337909, 0.70547968, 0.25595823, -2.43387771, 3.04871082, -0.54385316, 3.08983016, -3.75165701, 0.49685958, 0.35196260, -0.15591110, -0.27315038, -0.13931052, -0.36954719, 0.15428230, 0.53387153, 0.97206980, -0.35439283, -0.41482767, 0.44915321, -0.02597238, -1.72092628, 1.50489819, 0.05532982, 1.78807008, -1.73114383, 0.05560351, 0.31528419, -0.10737544, -0.14076491, 
bias
2.46072745, -0.31345314, 0.44214058, 0.86117822, -0.53723717, -0.63834965, 4.13916540, 2.62166548, 1.94636989, 0.04509154, 0.19863635, -0.02661266, 
layer6
kernel
-0.47704622, -0.21171878, -0.29945278, -0.08856056, -0.29213175, 0.08507717, -0.08832440, -0.08336501, 0.40052989, -0.05440570, -0.20333505, -0.11719514, -0.00304391, 0.03067295, 0.07752237, -0.16820760, 0.01913812, 0.02873316, -0.16640638, 0.00206752, -0.05001890, 0.00820947, -0.06844692, -0.00618308, 0.09550195, 0.58569604, -0.16317226, -0.06551520, -0.14790179, -0.12080904, 0.09944271, -0.04842829, 0.18964927, 0.77731568, -0.19432892, 0.79701948, -0.26375419, -0.01739712, -0.07551220, 0.25777066, -0.23706761, -0.00961105, 0.01943153, 0.61510730, -0.16430785, -0.06797294, -0.03886305, -0.03452499, 0.04791883, 0.03178566, 0.31677499, 0.19275688, 0.20285137, 0.08646420, 0.03220626, -0.09271317, 0.05603048, 0.00555423, 0.10731414, 0.05476867, 0.07771966, -0.03734117, 0.21368439, 0.05979351, 0.25370553, -0.64129138, -0.09320403, -0.26942813, -0.21809147, 0.05818552, -0.11392927, 0.00467881, 0.10578066, 0.02050134, 0.22247459, -0.02151471, 0.35546044, 0.01245281, -0.12020176, 0.26628354, 0.12784104, 0.10788536, -0.16977914, -0.00990963, 0.13814582, -0.04615851, 0.58258629, 0.24398068, 0.47642171, -0.10459847, -0.05967635, -0.01830885, 0.26722479, 0.00442782, -0.10113659, -0.03762743, 0.21171001, 0.31919354, 0.00122883, 0.05499710, 0.01076362, -0.35203573, -0.01486890, -0.17411791, 0.14819700, 0.27115166, -0.07837342, 0.24373792, 0.43024909, 0.01763888, 0.01891288, -0.03782576, 0.00725348, 0.04298244, 0.00710939, -0.08820956, -0.07765353, 0.00171858, 0.12382098, -0.03852343, 0.17529258, -0.03718060, 0.09082060, -0.56150055, 0.13238057, -0.06695448, -0.41148493, 0.07394972, 0.17905472, -0.09099695, 0.56855458, -0.06677812, -0.02360416, -0.00826061, 0.05323133, -0.07853472, 0.00670439, -0.01986922, -0.45465344, -0.05720181, 0.02892056, 0.05582224, 0.03704659, 0.06776732, 
bias
2.11077785, 2.63497162, 0.05808914, 0.46722615, -0.27887201, 1.84127188, 0.08360898, -0.10801816, 0.94578934, 0.63464117, 1.39140403, 3.98272276, 
layer7
kernel
-0.33801258, 1.75361288, 0.18567666, 0.22675394, 0.51282126, -1.22237134, 0.77144229, -0.06175407, 0.07427987, 0.57997376, -0.74143910, -0.37641355, 0.31296620, -5.45972490, 0.90371788, -0.11367648, 1.02817225, -0.07925834, -0.02793705, -0.17210416, -0.05756725, -0.08492331, -0.45150787, -0.29985434, -0.13365960, -0.36067510, -0.31313398, 0.12249846, 1.00716984, -1.04937363, 0.31313109, 0.77683693, -1.31761849, 0.40665913, -0.52754813, -0.24660639, -0.18841827, -0.57062286, 0.90236789, 0.48607621, -0.23069161, 1.67482913, -0.29470551, -0.31054124, 0.25484779, -0.43237728, -0.68998790, -0.48874143, 0.30073485, -0.04842020, 0.09239558, 0.06591579, 0.49063283, 0.21070354, -0.15249059, 0.70659339, -0.27616137, -0.17444448, 2.02755690, -0.48383340, -0.01274640, 0.02064005, -0.31328806, -0.00109336, -0.17464203, -0.46401238, 0.01492151, -0.56890684, -1.45905304, 0.06064212, 0.35310832, -0.12228584, -0.24331114, -0.07415522, -0.12370595, -0.40483510, 1.59200203, 0.34719679, 0.09089994, 0.58686280, -0.38273662, 0.44355270, 0.45432416, -0.70745313, 0.59704578, 1.04636896, -0.95711982, 0.55896103, 0.90634012, -0.13723975, 0.05667176, 0.44327107, -0.79056323, -0.26773068, 1.12817335, 0.54219675, 0.02983555, -0.46010950, 0.17448799, -0.52753639, -0.82874155, 1.51115417, 0.36650619, 1.23353946, -2.28792858, 0.19385168, 0.21077524, -0.18821049, 
bias
-1.50292671, 7.48886061, 3.80757642, 0.38678718, -1.39917302, 2.33774447, -1.36707330, 5.01013851, 0.26160586, -2.39492536, -0.39780378, 0.77651113, 
layer8
kernel
-0.14549947, 0.65176302, 0.37475440, 0.01287111, 0.03831020, 0.04297364, 0.01319755, -0.04229744, 0.03304050, 0.04539863, -0.12544666, -0.13841103, 0.14178498, -0.04947324, -0.25828481, -0.01616892, -0.11200700, -0.01069003, 0.02588595, -0.03539400, 0.20154990, 0.00856117, -0.02362648, -0.05315631, 0.09527478, -0.01179543, -0.06743798, 0.12526563, 0.26411828, -0.03682578, -0.08156350, -0.21954624, 0.02332161, -0.16519819, -0.00859544, 0.01667309, -0.13171928, -0.06921586, -0.03489977, -0.17724708, -0.08079237, -0.07281528, -0.03220021, 0.36305493, -0.14815988, -0.14504686, -0.09786529, -0.22199661, 0.05808139, 0.05873833, 0.04598593, 0.08161537, 0.39076450, 0.14321333, 0.21331289, -0.19290905, 0.12435523, -0.08377941, 0.07867845, -0.01782438, -0.11417085, 0.02206023, -0.38663301, -0.08326958, -0.19128278, 0.14123064, -0.12066746, 0.04849860, 0.20348510, -0.38075781, 0.29692331, 0.38098377, -0.00828107, 0.16830511, 0.08227205, -0.29226166, -0.17990156, -0.14495552, -0.28207561, 0.03051901, -0.01528889, 0.04924570, 0.30103737, -0.27831459, -0.14187498, 0.29788700, -0.00288736, -0.09302657, -0.02874736, 0.40063274, -0.18226644, -0.26431158, -0.02870002, -0.09296346, 0.57456845, 0.48065832, 0.27867737, -0.38347098, -0.28072149, 0.11923849, -0.16202807, -0.19323449, -0.27050102, -0.15344290, 0.66391993, -0.06837476, -0.21340282, -0.05835873, -0.02096838, -0.03202163, -0.20324092, -0.02158567, -0.19274709, 0.27947557, -0.20478414, -0.22978416, 0.04440590, -0.12854950, 0.52777827, 0.40061763, -0.04009067, -0.06405908, 0.10335438, 0.08245994, 0.32192910, -0.20705269, 0.18555637, -0.02934250, -0.18314877, 0.02822469, -0.14712091, -0.07313053, 0.09329521, 0.07251246, -0.18238844, 0.02964096, 0.06297284, -0.05022496, 0.00706599, -0.26642796, 0.11686034, 0.07756619, 0.11833671, 0.04474536, 
bias
-0.78492355, 1.34725738, 1.28275442, 1.26866698, 0.47925383, 1.02783871, 0.93545419, -0.16827267, -0.04600894, 0.55513185, 1.43947697, 1.29197383, 
layer9
kernel
0.15710080, -1.24943078, 0.60443240, -0.31493914, 1.02152395, 0.33854115, 0.18531255, 0.06366086, -0.71764827, -0.29346171, -0.87718195, 0.29075134, -0.16040602, 1.77407587, 1.24382436, 0.92892587, 0.81114691, -2.88780141, -1.59783709, 0.67462230, 0.48187307, -0.31456855, -1.16009820, 0.28844830, 2.02656889, -0.92591685, -0.55888265, -0.46668062, 0.44174942, 0.46278512, -1.27772319, 0.82272911, 0.97854900, -0.68872398, -0.35371119, 0.67586887, 0.20168501, 0.68128717, 0.45409140, -0.28046823, -0.27761701, -0.38806355, -0.23995113, -1.62908661, -0.73110813, 0.04134978, -0.48854303, -0.24826506, 0.20156282, -0.54045904, -0.97087389, 0.44172987, -0.01977357, -0.34300068, -0.74039418, 1.56429911, -0.50310141, 0.76534557, -1.29237998, 0.26058921, 0.00478978, -0.75057846, 0.61054516, 0.33515012, -0.40081024, -0.33916530, 0.11466905, 1.26974416, -0.46151045, -0.38734755, 0.27893749, -0.00109790, 0.14508046, 0.56729716, 0.39254940, -0.12753333, 0.03260693, 0.38169548, 0.14399508, 0.23191167, 0.45369303, 0.37189740, 0.67136532, 0.26962063, -0.23280896, 0.19370899, -0.30543739, -0.10366963, 0.14197367, -0.20316064, -0.67486471, -0.17793515, -0.52413893, 1.29674268, 0.72749341, 1.27884173, 0.19010778, -0.36106157, -0.19601507, -0.42947730, 1.14686477, 0.01832485, -0.54784793, 1.76839578, -0.09628274, -0.92240399, 0.55296481, -0.50657171, 
bias
-0.08069254, -1.20192909, 0.49364305, -0.93563783, 2.85984898, 2.56188679, -0.06942163, -0.03403023, -0.10048586, 0.63926941, -1.10050786, 0.16133940, 
layer10
kernel
-0.02197314, -0.09695201, 0.35570261, 0.50415045, -0.11006437, 0.56136805, 0.02894653, 0.23093651, -0.22934712, 0.01491034, -0.16640779, -0.03800598, -0.20145404, 0.00709163, -0.34365690, -0.22159944, 0.15197930, 0.19424514, 0.03540258, -0.27532053, 0.74024487, -0.14012906, -0.25260755, -0.31699386, -0.24725719, -0.05565526, -0.05203450, -0.09272145, 0.08010476, 0.30638391, -0.13699183, -0.15767126, 0.52975154, -0.43120697, 0.05046675, 0.46017310, -0.06762544, 0.66063833, 0.23953433, -0.02941243, 0.26084098, -0.20486140, -0.03665802, -0.10487898, -0.11182680, -0.05667435, -0.43963152, -0.23199098, 0.33250421, -0.30576211, 0.38598841, 0.31703892, -0.37954456, 0.03076953, 0.28417513, 0.00624251, 0.04277125, 0.18961118, -0.09738314, 0.12944144, -0.03115840, 0.10965361, -0.12265625, -0.30966657, 0.61933315, -0.34921378, -0.05575556, 0.19030593, -0.15159760, 0.23596497, -0.06567232, -0.04257316, 0.04534873, 0.15240423, -0.09327139, -0.09123933, 0.05452685, -0.16242905, 0.16568033, 0.14319225, -0.01950774, -0.01038042, 0.19792230, 0.49229953, -0.03244358, -0.14887153, -0.07530382, -0.23767361, 0.28697917, -0.15598959, -0.07387153, -0.24027778, 0.10234375, 0.09210069, -0.02190755, -0.30815974, -0.07647080, -0.13156115, 0.04172754, 0.20496741, -0.03572320, 0.23547021, -0.08010548, 0.38199767, -0.06553113, -0.45811215, -0.31814134, -0.27880129, -0.03973934, 0.21291117, -0.12617241, -0.04482139, -0.08398757, -0.23339222, 0.08719729, 0.35398585, 0.42551666, 0.32525122, -0.01290573, 0.11295144, 0.27594355, -0.00243280, 0.24727799, -0.09784001, 0.13148430, 0.00403816, 0.18919256, 0.28695714, -0.05906610, -0.00342053, -0.17304933, 0.16746710, -0.14487246, -0.32920241, 0.07753561, 0.27753985, -0.37952739, 0.42701012, -0.29342318, -0.23992151, -0.30429068, -0.21684891, 0.55140150, 0.56377375, 
bias
-0.12560183, -0.39765403, 0.29107383, -0.26376745, 0.28325835, 0.53276670, -0.27306253, 2.20672750, 1.30310488, -0.53576630, 0.67099386, -0.57081461, 
layer11
kernel
0.06718933, 1.03860199, 1.41219366, -0.35749593, -0.23254180, -0.46338931, -0.25499117, -0.12569541, 0.83909887, 1.16354597, 0.96884435, 0.96359789, 1.07435632, -0.10551193, 0.17473592, 0.24964356, 0.30400261, 0.37278938, -0.21620515, -0.04234610, 0.40870360, 0.17969683, -0.41107428, -0.64340001, 0.44616020, -0.00758615, -0.96154398, 1.31469536, 0.99566102, 0.39335141, -0.16822380, 0.39708281, 0.27130362, -0.37345061, -0.09312944, -0.39801565, -0.13652143, -0.16784716, 0.36900485, 0.10312460, 0.08228394, 1.08802927, -0.27097175, -0.35588774, 0.39869091, -0.29991040, -0.16299981, -0.05289990, 0.21841051, 0.19994026, -0.17142685, 0.51254898, 1.09713185, 0.13691060, 0.67665339, 0.67628056, -0.04198793, 0.15154798, 0.58009511, -1.05803978, 0.13812676, 0.31726283, -0.52678305, 0.75276846, -0.70459127, -0.88766456, 0.55614537, 0.30697897, -0.78950357, 0.59017050, -0.15040314, -0.77565265, -0.45731965, 0.64039493, 1.46460235, -0.59763640, -0.94117904, -0.01534331, 0.38654691, 0.20138283, -1.88628995, 0.22577649, 0.93089384, 0.24075589, 0.03856111, -0.15880336, 0.14664617, -0.22089189, -0.49583989, -0.45502645, 0.08921105, -0.05277635, -1.30322123, -0.61584401, -0.86744380, -1.20291018, 0.34492198, -0.38521084, -0.02293227, 0.20044643, 0.99162030, 0.37937436, -0.13721737, 0.33221048, -0.00467954, 0.29698497, 0.37701616, 0.56832457, 
bias
-1.21012962, -2.17290545, 2.96772909, 0.46828246, -0.31177139, -0.19781840, -0.40247297, 2.69469786, 1.26067209, 1.93496442, 5.92000580, -1.04396915, 
layer12
kernel
-0.15705821, -0.39711604, -0.00894102, -0.14651456, -0.01807182, 0.10526780, -0.07393207, 0.05777920, 0.08468660, -0.10779828, 0.02842568, 0.13774225, 0.07030506, -0.19737713, -0.13284999, 0.12601770, 0.58369648, 0.12981342, 0.23600906, 0.23752736, -0.15343119, 0.26536259, -0.06777459, 0.00768632, 0.02876308, -0.02298516, 0.12745164, 0.03979174, 0.01126062, -0.00750708, 0.07620950, -0.07911955, 0.09514590, 0.03926455, -0.19130398, -0.17173497, -0.06161709, 0.22133231, -0.03884281, -0.03772518, 0.08017392, -0.18033859, 0.02429257, 0.07148595, -0.06199666, -0.01492981, 0.20614944, 0.05250738, 0.06533758, 0.07155642, -0.18895678, 0.05967686, 0.06677270, -0.20267010, -0.07299153, -0.22148605, -0.08738254, 0.10691605, 0.02353987, -0.33613577, -0.47613919, -0.19645126, 0.06262682, -0.31301448, 0.05951740, -0.52588981, 0.00927343, 0.08778118, -0.01383291, -0.06266668, -0.00344577, -0.09423921, -0.06517813, -0.02862257, 0.11257678, -0.17635965, -0.03938593, 0.09112979, 0.09073114, 0.48156074, -0.11919425, -0.02485539, -0.19007298, -0.20809165, 0.00295743, 0.03266879, -0.00703107, 0.07430705, 0.08172181, -0.15403566, 0.29483634, 0.09718916, -0.04843512, -0.04381086, -0.05836133, 0.13673455, 0.09816707, -0.15214121, -0.08392600, -0.24914265, -0.33793393, -0.05625474, -0.08108792, -0.01429175, 0.04872878, 0.08463552, -0.13713995, -0.18538727, -0.09948474, -0.11757749, 0.10764422, 0.27265814, 0.14910042, -0.14605962, 0.13045019, -0.16035137, -0.29820085, -0.08934876, -0.00983825, -0.17038600, -0.01393699, 0.04986907, 0.25035897, -0.05209899, -0.37280172, 0.06720161, -0.33854207, -0.09507559, -0.08032772, -0.04234310, -0.04786721, 0.23211418, 0.11281357, 0.00795042, 0.22035643, 0.07916208, 0.00022252, -0.13612635, -0.14818817, -0.01477321, 0.04087338, 0.23089786, -0.27184725, -0.17241320, 0.02930962, -0.14204723, -0.21655957, -0.01445023, -0.27444661, -0.11827219, -0.10044092, -0.05504438, 0.10965805, 0.21518131, -0.01322271, 0.05181408, 0.08726127, -0.32664832, 0.17581467, 0.25807974, -0.12102872, -0.01668990, -0.01441792, -0.06077278, -0.07881942, -0.04080950, 0.23172046, -0.25859660, -0.04040033, 0.21276934, -0.14644045, 0.15720813, -0.06822402, 0.07838871, 0.02228910, -0.01763746, 0.07739808, -0.02491641, -0.09957950, 0.01163986, 0.08075760, 0.07188503, 0.02136308, -0.03613633, -0.04966054, 0.08011153, 0.01339499, -0.01595770, 0.21311392, 0.06585513, -0.06004058, -0.07912091, -0.05533163, -0.07406352, 0.14602859, 0.13738784, 0.39574611, 0.07110099, 0.23453450, 0.42240897, 0.20466222, 0.11665005, -0.33007646, 0.16503823, -0.29921666, -0.26514742, 0.06113327, -0.03928453, 0.39772114, -0.14220197, 0.04104354, -0.08332147, 0.06838533, 0.43894982, 0.07856905, 0.21749990, 0.09227081, -0.37031764, -0.48486921, 0.24885345, -0.25700045, 0.04397522, -0.15985377, -0.13207996, 0.49227557, -0.21910460, -0.08659261, -0.22182027, -0.26959124, -0.35229552, 0.30958554, 0.65175903, 0.02578337, -0.33279210, 0.19762617, -0.26934436, 0.04431468, 0.09461615, 0.04428382, -0.22354841, -0.09541813, 0.04074176, -0.08649657, -0.11538541, -0.19848329, -0.01643053, -0.01221403, -0.08870572, 0.01973362, 0.17163368, 0.13118930, -0.06240838, 0.14036575, -0.23467931, 0.07243451, 0.08445736, -0.12005860, 0.01696157, 0.02073199, -0.06482995, -0.12549651, -0.22125450, -0.12379716, -0.09822204, -0.14342457, 0.15362063, 0.04702932, 0.02850648, -0.01153429, -0.15531997, 0.01371158, -0.01291501, -0.01492236, -0.04089045, -0.00427757, 0.30809093, 0.07506849, -0.21666627, 0.11385600, 0.02226140, -0.02160290, 0.06886589, -0.09006520, -0.02937740, 0.07506849, 0.09507825, -0.19015650, 0.00844361, 0.00918047, -0.20350504, 0.04175651, -0.16932255, -0.18212993, 0.03621400, -0.00381738, 0.01394460, 0.05414435, -0.09477469, 0.27116337, 0.12772061, 0.19520231, 0.10678715, -0.07008734, 0.17135407, 0.44128087, 0.08382217, 0.16411126, 0.00390294, -0.11173345, 0.02850749, -0.11614979, -0.06328618, 0.02417947, 0.13125367, -0.09013753, 0.06209376, 0.00501531, 0.01932150, 0.20332837, 0.14927235, -0.17267896, 0.13946807, 0.04831478, -0.06222626, -0.00111582, -0.07521030, -0.01255345, 0.17479882, 0.20085523, 0.11235174, -0.07521030, 0.01290676, 0.01649504, -0.08726691, 0.08112820, 0.01411021, 0.17799410, -0.03117351, 0.09636087, 0.05102077, 0.00946777, -0.22498229, 0.02917476, 0.15877803, 0.05515853, -0.06960565, -0.09229323, -0.00939764, 0.12118747, -0.01911087, 0.15625329, 0.09537902, 0.00408736, 0.02359930, -0.15316750, -0.08079164, -0.03636326, 0.02293305, 0.03468009, -0.08619178, -0.06125998, -0.00674579, -0.06967578, -0.00612337, 0.00768818, 0.13275920, 0.01947906, -0.11782115, 0.05294939, -0.13879052, -0.06006775, -0.01664750, -0.00641266, -0.15821698, 0.23648389, -0.06851861, 0.04001010, -0.08731389, 0.06872901, 0.23732546, -0.13275920, -0.09937653, 0.02794746, -0.00752600, 0.12966649, -0.14537175, -0.13869701, 0.02337383, 0.11150730, 0.11160546, 0.08898008, -0.13820623, 0.16156779, 0.05815852, -0.10100441, -0.10591231, -0.02723880, -0.54497230, 0.06188852, 0.26424089, -0.02190147, -0.20848724, 0.22910039, 0.01234948, 0.07558154, -0.19180040, 0.02925104, -0.00370239, 0.28171298, 0.14331044, -0.00775447, -0.10345836, -0.26109985, -0.02163153, -0.17246331, -0.15253727, 0.03820794, 0.27327141, -0.02895656, -0.20730935, 0.11582624, -0.19808251, -0.01267463, 0.08127469, -0.05344694, 0.03383991, 0.17776383, 0.08745863, 0.03342274, -0.12112677, 0.10355651, -0.31371245, 0.03753881, -0.12432808, -0.04609195, -0.09123356, -0.04438691, 0.12164474, -0.06987865, 0.03239574, 0.03594557, -0.09654433, 0.16916221, 0.10263775, 0.16457818, 0.15429205, -0.08223318, 0.04078118, 0.04374403, 0.13506144, 0.08765577, 0.04195514, -0.01050276, -0.04338066, -0.07871130, -0.12991837, 0.13338435, 0.04880324, -0.17095111, -0.00735822, 0.09956309, -0.03446415, 0.28532848, -0.12511072, 0.14165798, 0.15149690, -0.06177272, 0.00269033, -0.02141082, -0.04958589, 0.01865760, 0.04500185, 0.09643253, -0.21544982, 0.17005667, 0.14512396, -0.08536375, -0.03820964, -0.08273631, -0.13696215, -0.40957284, 0.06155782, -0.21192609, 0.09891045, 0.01723967, -0.02276856, -0.14000705, -0.05145781, 0.09107424, 0.09063889, -0.03282503, 0.16264500, -0.00700906, -0.05750911, -0.12450875, 0.05624661, -0.14018118, 0.04819272, -0.01172167, -0.04623367, 0.05772679, 0.17483467, 0.00753692, 0.16499586, 0.06643369, -0.00886472, -0.19137779, 0.09098716, -0.15237086, -0.19033296, 0.05750911, -0.09499234, -0.06595481, -0.08345569, -0.06456170, -0.05350393, -0.01041564, 0.00187879, -0.06782679, 0.05354747, -0.22132954, 0.06147075, -0.07004706, -0.10430873, -0.04871514, 0.12146133, 0.17823036, 0.03373926, 0.26921260, 0.04917296, 0.24654049, 0.12116819, 0.15765378, 0.04665801, 0.16260861, 0.11433653, 0.07222044, 0.17612180, 0.10322569, 0.13145323, 0.11253477, -0.05255126, 0.13603269, 0.07477294, -0.14113767, -0.08776060, -0.07056884, 0.00482346, 0.08918700, 0.05540404, -0.16996579, 0.18948483, 0.28738031, -0.05071197, 0.05499114, -0.04463103, 0.02653839, 0.14947079, 0.07518584, -0.13400571, 0.08595885, -0.01203987, 0.10157408, -0.00325865, 0.12296995, 0.02721404, -0.02931610, 0.08663451, -0.10089842, 0.16365963, -0.02349792, -0.08520812, 0.08858641, 0.05975829, 0.00321173, 0.03258178, -0.21347043, -0.11448436, -0.04444226, -0.29409841, 0.05917947, 0.05046168, 0.31051922, 0.20240022, -0.04778638, 0.06928103, -0.19594261, -0.23561084, 0.09870932, 0.03249566, 0.16669881, 0.11282383, 0.06226990, 0.23505732, 0.05322923, -0.12297151, -0.09566502, -0.32454148, -0.42140576, 0.01040138, -0.07214083, -0.01124318, 0.09146756, -0.07610765, -0.12084973, -0.14815623, -0.10977952, 0.02908235, 0.08584020, -0.00431565, -0.02247482, 0.01291524, 0.06402268, -0.06775887, 0.19963267, 0.13090517, 0.25258514, -0.23948541, -0.19502009, 0.29372942, 0.17168041, 0.26605392, -0.22103508, -0.12813760, -0.07981754, -0.09787844, 0.03667205, 0.10590551, 0.03346770, -0.12318961, 0.01382080, 0.18073851, -0.05848755, -0.07929967, -0.03984404, 0.08680886, -0.07405618, -0.22967772, -0.02055318, -0.11173161, -0.00453141, -0.06745327, -0.08253638, -0.04130056, 0.05402087, 0.04395467, -0.11652195, 0.13568334, -0.10778281, 0.01318964, -0.17763124, 0.00646535, -0.13866113, -0.04874502, 0.00326100, -0.03291745, 0.04188317, 0.03061938, -0.06059142, 0.03254523, -0.18889503, 0.06211268, 0.04204500, -0.01241282, 0.01238855, -0.05457112, -0.07781077, -0.02178313, 0.17892593, 0.10642339, 0.02424304, -0.05939383, 0.10403617, -0.26367062, 0.13485390, 0.06644415, 0.25257903, 0.16440803, 0.23502907, 0.04545440, -0.02235865, 0.10677397, -0.21467112, 0.18631038, -0.14671767, -0.23643307, 0.02397325, -0.15331645, 0.05780957, -0.01192520, -0.00369207, -0.07778142, 0.11533834, 0.30494812, -0.18645078, 0.09813938, 0.08922400, -0.20049076, -0.45433339, 0.02518419, -0.16847962, 0.02216560, 0.01883111, -0.19431317, 0.40996709, 0.08774980, -0.01476829, 0.02116525, -0.06093346, -0.16623323, 0.36897036, 0.39789271, -0.04742000, -0.35942319, -0.20091195, -0.25917783, -0.05763407, 0.11063495, -0.18125600, -0.02997533, -0.20347129, -0.10218751, -0.16887084, -0.04363788, 0.08914780, -0.08372534, -0.00223313, -0.05664532, -0.08533917, 0.24323599, 0.00202031, 0.05832370, -0.13594878, 0.13943464, 0.02577282, -0.07539799, 0.04021657, -0.07810922, -0.13814358, 0.13162372, -0.12633036, 0.26595867, 0.18591285, 0.09721693, 0.04670415, -0.20669894, 0.07843199, 0.29978448, -0.04431568, -0.23587693, 0.15905878, -0.02964600, -0.01054636, 0.16551408, 0.10476964, -0.02272268, 0.04805977, -0.03042064, -0.13711073, 0.05306263, 0.05729085, 0.03957104, 0.06913634, 0.07791556, -0.01541205, -0.02796762, -0.07694726, -0.26466760, -0.01861465, 0.15013981, -0.10386301, 0.01021666, 0.12085766, -0.03371421, 0.06553334, 0.06528881, 0.10936487, 0.00615521, -0.16224392, 0.00495932, 0.01043062, -0.01234099, -0.02199218, -0.04783567, -0.02219086, 0.06541108, -0.01933295, -0.03615949, 0.04661303, -0.04713265, 0.11193241, 0.00364881, 0.18498497, -0.01734616, -0.20955998, 0.05391829, -0.08925249, 0.13559043, -0.00551715, -0.03689307, 0.14317079, -0.14463794, 0.01694880, 0.05193150, -0.06620579, -0.07861555, 0.21420600, 0.13473459, 0.04753001, -0.03692364, -0.10392414, -0.04016362, 0.11462221, -0.25748733, -0.03582326, 0.05957298, -0.03763142, -0.13545798, 0.11145565, -0.08639327, 0.01013663, -0.04709607, 0.02000826, -0.11168279, -0.08805905, -0.04702035, 0.01953503, -0.03986508, -0.00924696, -0.03155512, -0.04747465, 0.00033807, -0.05084407, 0.05902152, 0.02920789, -0.03895647, -0.02472165, -0.13386792, -0.11084991, 0.01573024, 0.01062880, 0.04781538, 0.02053828, -0.01005145, -0.08684757, -0.01774621, -0.07613359, 0.11486292, 0.06011942, 0.18853571, 0.08586325, 0.07416495, -0.17914678, 0.04785324, 0.00113694, 0.05182839, -0.00777994, 0.08934624, -0.09767512, -0.35223618, 0.07075768, 0.06443530, 0.06909190, 0.10373250, 0.18511242, -0.09579310, 0.02023054, 0.05751339, -0.08997608, 0.23511998, -0.09030446, 0.21279015, 0.10733330, -0.16128142, -0.11380708, -0.03905375, 0.05099270, -0.11634029, -0.24037406, 0.17056988, -0.06140703, -0.00054938, -0.14542536, -0.08120365, -0.05995278, 0.02530871, -0.01621962, 0.01817817, 0.02817030, -0.10611361, -0.06126630, 0.40193695, 0.16315788, 0.05258769, -0.09527707, -0.28540900, -0.15396324, -0.09086740, -0.13594927, -0.09171180, 0.19608968, -0.11859205, 0.09260312, -0.00070807, -0.05746648, -0.15058562, 0.14289215, 0.15208679, -0.21485426, 0.11671559, -0.09804484, -0.34564325, 0.08902734, -0.14527571, 0.11515662, 0.01171515, -0.04822966, -0.02937589, -0.03295498, -0.01590053, 0.05214123, -0.10842872, 0.14754443, 0.06051199, 0.11789472, 0.00405092, 0.09395591, 0.02075088, -0.13033351, 0.06442356, -0.03156637, -0.07392868, -0.02047707, -0.04185380, -0.02773303, -0.07013445, 0.10772464, 0.13534032, -0.17695943, 0.10287429, -0.01636014, -0.12423147, 0.07334194, -0.10467362, 0.05487933, 0.07866167, 0.05112422, 0.07150350, 0.22937447, -0.09575523, -0.05534872, -0.10514300, 0.08488107, -0.03101875, 0.02213949, 0.10842872, -0.08006984, 0.25581670, -0.14551041, -0.05124157, 0.14182232, 0.22127104, -0.09814668, 0.17357358, 0.07754365, -0.01024860, -0.09624161, 0.16214313, -0.09475989, 0.10379136, -0.17653704, -0.01268287, -0.00781434, -0.08001319, 0.21252179, -0.05715227, 0.00134502, -0.07577968, -0.15184161, -0.02381345, 0.11289339, 0.03983020, 0.15946190, 0.13533095, 0.06025685, -0.01552284, 0.13159135, -0.01917424, -0.04713299, 0.06191497, -0.07831979, 0.12263044, -0.09793501, -0.08488172, -0.05327157, 0.00309575, 0.14161064, 0.00477151, 0.06170329, 0.12277155, -0.01584035, 0.06311446, -0.08474059, -0.05718756, 0.03325063, -0.02788819, 0.15551063, 0.10343856, -0.21559745, 0.11943577, -0.09655905, 0.05909346, 0.23796327, 0.06880045, 0.28360319, -0.09360722, -0.02685034, -0.00067764, -0.06840309, -0.02035063, -0.20810434, -0.25340363, -0.07708830, 0.01241757, -0.24591053, -0.00355852, 0.10711753, 0.25522017, -0.02347276, -0.18641971, 0.03298108, 0.32992429, -0.45639905, 0.00118854, -0.33900684, 0.09281249, 0.00016376, -0.25431189, -0.27406648, -0.06845985, -0.24409401, 0.20413071, 0.09451547, -0.16995755, 0.11920871, -0.12636122, -0.13112958, -0.11023967, 0.00916062, -0.37897015, 0.07890481, 0.32402062, -0.20174654, -0.10110033, -0.08469494, -0.01351032, -0.10820904, -0.35361525, -0.07559742, -0.30874324, 0.13084359, -0.08880091, 0.27637979, 0.08294372, -0.07927057, 0.24759023, -0.03799726, -0.10354315, -0.00815911, -0.05296287, 0.09709032, 0.22356585, 0.13779280, 0.04606330, 0.03861772, 0.06333704, -0.10949961, -0.04370553, -0.30060273, 0.14603257, 0.00359559, 0.11555535, 0.33534876, 0.23448601, 0.05345924, -0.05142412, 0.05673529, -0.27062190, 0.03176779, 0.30040419, 0.28908691, 0.08969437, 0.37148464, -0.08016404, -0.03288463, -0.03524239, 0.07316520, -0.15526509, -0.11575390, 0.07599451, 0.01742265, -0.04445009, -0.22158036, -0.12826246, 0.02711600, 0.08644793, -0.00944044, -0.13165055, 0.22250170, -0.03653554, 0.04757144, 0.07870050, -0.29652029, 0.01334899, -0.30209398, -0.22027223, -0.05359103, 0.39194188, 0.04492394, -0.07892345, 0.09335931, 0.19708568, -0.04230431, -0.14469299, 0.06259254, -0.05556969, -0.15093552, -0.01461700, -0.08700529, -0.19073166, -0.06983833, 0.08276930, 0.12462770, 0.03762241, -0.08449714, 0.24368171, -0.01578748, 0.00100936, 0.17423354, -0.05130582, -0.13098171, 0.07797592, 0.15071258, 0.12864076, 0.20243642, -0.07513334, 0.17679743, 0.15205026, 0.49628136, -0.11760486, -0.42939708, -0.25014719, 
bias
-1.69891524, 0.37441730, -0.64952779, 0.17385828, -1.84056556, 1.33468652, -2.99398112, 1.18368042, 0.38971734, 0.61213464, 2.49268889, -2.00445294, -1.26696730, 2.11164188, 1.58788419, 0.63920861, 0.58675468, 1.76303637, 0.96439064, 1.51943851, 0.85124743, 2.91082931, 0.20465204, -1.68935204, 
layer13
kernel
0.34012946, 0.23348406, 0.06949306, 0.22007449, 0.30936638, 0.20808478, 0.04598689, 0.16265003, 0.21108221, 0.14605492, 0.26688218, 0.20068327, 0.27048615, 0.51593429, 0.39074436, 0.25834650, 0.47268686, 0.33478823, 0.34326255, 0.64895707, 0.45778438, 0.43112320, 0.66228765, 0.58048636, 0.19268753, 0.25479594, 0.27267104, 0.19666848, 0.28840309, 0.17109497, 0.30836692, 0.48243171, 0.30770695, 0.21795222, 0.34218994, 0.17983946, 0.11855955, 0.20847893, 0.17130072, 0.21366657, 0.27970111, 0.21971884, 0.20415588, 0.21507157, 0.06003631, -0.18842830, -0.52548063, -0.41473487, -0.30158159, -0.78773946, -0.59899014, -0.28103745, -0.41698188, -0.32437274, 0.21170293, 0.44518736, 0.24870926, 0.40606955, 0.82947540, 0.64944458, 0.31849900, 0.63255280, 0.57432061, -0.29239225, -0.30066329, -0.31988785, -0.34000659, -0.35878405, -0.29954559, -0.15904976, -0.13345426, 0.02953542, 0.13578251, 0.27628571, 0.24858262, 0.32597739, 0.56549126, 0.51083046, 0.29342934, 0.50933969, 0.36399153, 0.06613837, 0.07462911, 0.04599681, 0.24795504, 0.42670739, 0.26097843, 0.25331762, 0.36542088, 0.22663245, -0.28012198, -0.12230485, 0.12134506, -0.27902508, -0.37157640, -0.25352207, -0.08021114, -0.40393507, -0.49826887, 0.16948906, 0.31060824, 0.13037619, 0.40427050, 0.60411114, 0.29058245, 0.29850933, 0.41178018, 0.17543420, 0.13520540, 0.27114230, 0.20067456, 0.29674476, 0.62860149, 0.48693451, 0.24675901, 0.50570965, 0.41963661, -0.21245550, -0.24695496, -0.20688756, -0.26704323, -0.45722696, -0.23210709, -0.22664832, -0.38080412, -0.06938102, -0.45054361, -0.62140846, -0.24505615, 0.14152555, -0.09453772, -0.16153473, 0.29451704, 0.33206233, 0.02842595, 0.26312968, 0.36505738, 0.23329230, 0.39469454, 0.57031459, 0.37727270, 0.27194071, 0.39209127, 0.23769781, -0.16930684, 0.25966036, 0.32240847, -0.07028542, 0.30582637, 0.35236928, 0.00521429, 0.20143463, 0.17288706, -0.47661269, -0.74583238, -0.22911063, -0.51026517, 0.13343590, 0.27782843, -0.33045930, 0.92583388, 0.57170045, 0.19812797, 0.29100749, 0.15067621, 0.46057445, 0.62024623, 0.29280660, 0.31034800, 0.41986939, 0.14482908, -0.08223790, 0.09496080, -0.01766686, -0.25574881, 0.25556442, 0.38205588, -0.19877233, 0.21573620, 0.48088887, -0.49501950, -0.61955833, -0.29611573, -0.07380494, -0.36644882, -0.34427375, 0.30821124, 0.00605825, -0.23496626, 0.01679009, 0.23672485, 0.19679832, 0.29156220, 0.56882972, 0.43056566, 0.29969540, 0.54369080, 0.41158825, 0.08343694, 0.17531052, 0.26868555, 0.25538710, 0.35262296, 0.21806569, 0.21634977, 0.22164054, 0.01955442, 0.19317490, 0.29611948, 0.20055738, 0.17471869, 0.35818699, 0.31006417, 0.04815701, 0.23268484, 0.21081083, 
bias
0.66110075, 0.40623379, 0.56774521, 0.57723606, 0.58614528, 2.83479810, 0.70417714, 3.96740985, 0.25402826, 0.32406282, 3.73546124, 0.46529889, 0.79284751, 4.63671732, 1.11501551, 0.22361660, 0.09475559, 0.19698635, 0.49565309, -0.02581680, 4.98487949, -0.17961374, 0.27078938, 0.70845902, 
layer14
kernel
0.51699853, 0.58551639, -0.21156007, -0.23669812, -0.04913599, 0.27963302, 0.08987410, -0.24270456, 0.17574391, -0.22602001, -0.10477896, 0.45693415, 0.00914869, 0.11456723, 0.06823980, 0.32768452, -0.11968382, 0.01533588, -0.01433481, 0.09137571, -0.32924175, 0.17018239, 0.37974033, -0.08981849, -0.17455041, -0.02336191, -0.06445159, -0.33560762, -0.24818887, 0.06714305, -0.22579589, -0.19120160, -0.35139754, 0.24302126, -0.08777761, -0.33733016, -0.16163139, 0.34048814, 0.01596038, 0.75045192, 0.03470194, 0.13442966, -0.24847595, 0.13277890, -0.15273161, -0.07571986, -0.07586340, 0.28263962, 0.25481930, -0.54146087, -0.11095609, -0.19527307, 0.12861504, 0.43779740, -0.21034044, 0.24300650, -0.03965731, 0.20371079, -0.08045974, 0.01505230, -0.00340334, -0.35462555, -0.28567728, 0.05345902, 0.02877867, 0.05984758, -0.11107663, -0.03378104, 0.20515727, 0.20527780, 0.36065251, -0.24951559, 0.41804361, 0.43569499, 0.02230326, 0.07788673, -0.11458690, -0.30860502, 0.38803625, 0.05622701, 0.03916401, 0.14238782, -0.05045354, 0.22417258, -0.03886982, 0.15489089, 0.01227323, 0.03521083, 0.02840769, -0.03693920, 0.06457464, -0.06295660, 0.11399852, -0.16430496, 0.11208629, 0.39392003, -0.05209332, -0.02145633, -0.18722993, -0.39588141, 0.14869896, -0.23327236, 0.13604076, 0.15481940, 0.04538170, 0.12470403, -0.07045465, 0.32521811, 0.31687206, 0.03842665, 0.23438516, -0.05685753, 0.04103479, 0.31409001, 0.03256702, -0.01428393, -0.07421038, 0.04089569, -0.31436822, 0.27903658, 0.04136877, -0.21712337, -0.14566822, 0.33847177, 0.13488728, -0.12067982, -0.14759041, -0.09284991, -0.02170816, 0.13062504, -0.07797387, 0.15310624, -0.00919828, 0.00843045, 0.00291462, 0.23617809, 0.11767118, 0.27361891, -0.04512957, -0.00868117, -0.18152116, 0.01548195, -0.15962496, 0.03566490, 0.01501418, 0.06454011, 0.20074512, 0.42484564, 0.27289659, -0.28221095, 0.07298559, -0.16515596, 0.39954394, 0.05268864, -0.15945613, -0.09001556, 0.16015123, 0.04170605, 0.20477670, -0.11100760, -0.33031192, 0.06012622, -0.09981648, 0.21423008, -0.22757602, 0.47405878, 0.10391758, -0.41845068, -0.49111441, -0.09410837, 0.23527093, -0.03263700, -0.01727600, -0.26481658, 0.09881379, 0.04434584, -0.35739297, -0.10012694, 0.02646798, 0.18383962, -0.00253566, -0.09022367, 0.20463100, -0.49417838, 0.12606145, 0.06505515, -0.28845310, -0.08874638, -0.01754957, -0.23636523, -0.16720651, 0.06861157, -0.07194632, -0.14206317, 0.37035057, -0.11406416, -0.17499383, 0.09314444, -0.19106144, 0.14906292, -0.12376836, -0.33057922, 0.25469556, -0.19344771, 0.08176984, 0.11462095, -0.25787726, -0.05436740, -0.07846882, -0.06371366, -0.22112855, -0.27171767, -0.09091724, -0.21349247, 0.35985094, 0.24578677, 0.00832802, -0.08541125, -0.06946556, -0.05110256, 0.20542805, 0.14368089, -0.09024585, -0.20474951, -0.05216278, -0.05220519, -0.02247665, 0.13384205, 0.06365556, -0.22256118, -0.07769285, -0.07917716, 0.19558921, 0.00568277, 0.24631010, -0.00287849, -0.31501231, 0.11781155, -0.15682760, 0.01212891, 0.04927968, 0.19073875, 0.15542899, 0.34407774, 0.03148729, -0.16939889, 0.05387215, -0.17115888, -0.00982431, 0.11450925, -0.06682456, 0.04661220, 0.08018947, 0.13331912, 0.00530403, 0.08651444, -0.03913224, -0.17533885, 0.19799870, 0.32163790, 0.00085722, -0.36277762, -0.22681852, 0.16708891, 0.33634433, 0.50284773, -0.18022420, -0.00887678, 0.10123704, 0.22101568, 0.13980354, 0.22027402, 0.16214615, 0.47132704, 0.17864816, -0.22731981, 0.24678847, 0.46687707, 0.05608829, 0.09910476, -0.30000281, 0.09131730, 0.13016191, 0.16455655, 0.24864264, -0.17336380, -0.25976759, -0.05808151, 0.17896980, 0.14888185, -0.44323751, -0.23388764, -0.08641768, -0.15199775, 0.06971838, -0.06845254, -0.05155849, 0.33028597, -0.21636067, 0.05603761, -0.15988488, -0.21752913, -0.04391479, -0.01902406, 0.19484144, 0.00635353, 0.12755737, 0.16816151, -0.17955405, 0.04637343, -0.14498696, -0.30925360, -0.35386622, 0.25413528, -0.20756672, 0.22102901, 0.18229055, 0.00250701, -0.25853115, 0.18435112, -0.25289896, -0.25399792, -0.09162608, -0.02551656, -0.13304326, -0.18586218, -0.10914081, -0.09691484, -0.02271763, -0.07418003, 0.02857305, -0.09100791, 0.37721920, -0.41678187, -0.31814992, -0.14059864, -0.21352370, 0.00759830, 0.05523229, -0.07330510, -0.01634267, 0.00257455, 0.00204421, -0.18495983, -0.15648413, -0.09750504, 0.10799609, 0.01832628, 0.25337204, -0.09732872, -0.02018866, -0.11795817, -0.07110110, -0.17993471, 0.14414172, 0.25742742, -0.10693817, -0.00994005, 0.04751828, 0.26783031, 0.53745431, -0.19149159, -0.11839028, -0.06403411, -0.34051302, -0.13971934, 0.29992205, -0.12534337, 0.07079927, -0.15804164, -0.41981572, 0.33543915, -0.12299436, 0.19712922, -0.16565244, 0.02952710, -0.07596710, -0.01692464, 0.16029669, -0.04080237, -0.18453851, -0.19177347, 0.05078568, -0.17119612, 0.04781901, 0.21334085, -0.31463835, -0.30718791, -0.40748245, -0.25403178, 0.21004546, -0.18167643, -0.41779846, 0.08195498, -0.34902507, -0.19127604, 0.01036079, -0.42696825, -0.15316412, -0.28354704, -0.12601295, -0.21047530, 0.13217390, -0.04885778, -0.03782538, -0.06307811, -0.24070694, -0.20818284, 0.06157279, 0.15562068, 0.06062018, 0.07114212, -0.39801481, -0.23797753, -0.09534689, -0.53068644, 0.21182425, 0.28716648, -0.03613396, -0.48946470, -0.25252637, -0.05005495, -0.25339237, -0.04797655, -0.31072176, 0.03840722, 0.07655463, -0.16471371, -0.22637309, 0.04858275, 0.13102621, -0.31747657, -0.11882560, -0.03338015, -0.07600620, 0.10729460, -0.20854244, -0.14083295, -0.08901373, -0.06781496, -0.01491472, 0.40499139, 0.06398302, -0.01219017, 0.08219357, 0.13787988, -0.02031988, -0.07656869, -0.03432935, -0.03223760, 0.12634888, 0.20699561, 0.12789571, 0.02622600, 0.23694809, 0.21838598, 0.23513708, -0.20033103, 0.28394404, -0.25947514, 0.21982765, -0.05678881, -0.01967654, -0.06836902, -0.15963674, 0.44698289, 0.16473988, -0.03156751, 0.32136708, -0.36036032, -0.06306960, -0.09028635, -0.14354222, -0.04098869, 0.27059737, 0.05485877, 0.18659180, -0.32189047, 0.13163489, -0.10134316, -0.10379750, -0.07446093, 0.01877311, 0.09753980, -0.07934079, -0.00127379, -0.27235362, 0.19312765, 0.51715040, -0.69764781, -0.29738444, -0.28750989, -0.22206235, -0.14237711, -0.05511372, 0.51347613, 0.21988076, -0.09547303, -0.25352308, -0.15558143, -0.11837967, 0.28452456, 0.24755244, 0.06263445, 0.23128983, 0.23688966, 0.16281922, 0.44221666, -0.22127801, 0.18343677, 0.01108299, 0.39402419, -0.23655027, -0.25470728, 0.16723120, 0.09952420, 0.06418590, 0.21262375, 0.20600577, -0.17274618, -0.10453010, 0.07470679, -0.10011812, -0.46190089, -0.42694440, -0.14058959, -0.10351196, 0.02267506, -0.14010149, -0.01476505, 0.10657483, -0.28360745, 0.50238192, 0.18236138, 0.11530805, 0.06294576, -0.06657226, 0.26776925, -0.25296721, -0.19168667, 0.66135603, 0.03815231, -0.05676590, 0.22143881, 0.40172791, -0.14061956, -0.38544562, -0.23180026, -0.30758679, 0.04366608, -0.24601023, -0.30092588, -0.35164380, -0.19779964, -0.02188190, 0.19537187, -0.25414953, -0.31944385, -0.10886647, 0.03266313, -0.30053279, -0.01860761, -0.13531642, -0.48836577, 0.14157751, 0.02140274, 0.02124302, -0.05817073, -0.05456101, -0.01430310, -0.42064369, 0.04274159, -0.15090528, 0.17786634, 0.28698838, 0.12777755, 
bias
-1.47867942, -0.30220908, -0.12254554, -3.67659044, -1.02006352, 0.74163485, -1.28345418, 4.26541805, 0.52737129, 2.93324423, -1.12730920, -5.64785290, 2.75586748, 2.72705913, 1.97459495, 0.35678416, 5.26411772, 2.97220516, 0.05722570, -1.61639607, 2.40535760, -0.41983560, -0.11809604, 3.55206585, 
layer15
kernel
0.38492247, -0.32874161, 0.34005195, -0.03726850, -0.04331769, -0.40939733, -0.13998866, -0.29481056, 0.08589371, -0.00666916, -0.29703555, 0.06327302, -0.15528545, -0.28016275, 0.32762912, -0.12552626, -0.09358845, 0.17354886, 0.04853249, -0.37064549, 0.03972526, -0.12561896, 0.05757150, 0.00997767, -0.47688800, -0.52833372, -0.14316794, -0.16169854, -0.03809773, 0.05711487, -0.77371609, -0.37873504, -0.21729034, -0.04700342, 0.72971648, 0.07251473, 0.20595199, 0.31967404, -0.21305962, 0.12099891, -0.15797549, -0.13166036, 0.40953475, -0.28227437, 0.23929015, -0.45488819, -0.35639679, -0.18750601, 0.16493049, -0.14707078, -0.17502511, 0.00531909, 0.02995383, -0.15172984, 0.10389689, 0.46342051, -0.19878627, -0.02121811, 0.06980815, -0.03080799, 0.21664599, 0.71252453, -0.10576051, 0.05416150, 0.23155496, 0.04158205, -0.09566589, 0.01956802, 0.10009199, -0.14908971, 0.51435947, 0.31231189, -0.08200427, 0.63204205, 0.40636629, -0.10018579, -0.11461854, 0.52295291, -0.31527126, 0.47646824, -0.00626747, -0.07563137, -0.31489640, 0.13195658, 0.30889836, -0.11789871, -0.54731995, -0.09962347, 0.58668196, 0.19662280, -0.15182504, -0.03643332, -0.27965799, -0.00583109, 0.20243339, 0.07666228, 0.19464403, 0.47759536, -0.29950896, -0.14846666, -0.20825808, 0.05188055, -0.39922264, -0.00477181, 0.09023903, -0.13227700, -0.12602189, 0.09217075, -0.25940272, 0.09814990, -0.06747230, -0.11995076, -0.09934572, -0.17937422, -0.27283278, -0.05799767, -0.09805791, 0.01213076, 0.09327459, -0.00039705, -0.07404263, -0.05033937, -0.32828772, -0.07245600, -0.11067931, -0.52079856, 0.25174496, 0.38136762, 0.19164540, -0.04706996, -0.19770344, -0.19356859, 0.00454052, -0.31328687, 0.08731261, -0.02310226, -0.12875725, 0.21501210, -0.30405557, -0.06336895, 0.03098732, -0.21693529, -0.08202385, -0.15587416, -0.15874058, 0.05106561, 0.12439637, 0.19939476, -0.09464941, 0.09248599, 0.08063228, -0.14296569, -0.01553828, 0.14332625, -0.30486125, 0.34903097, -0.08608589, 0.21255554, -0.30251756, -0.07517868, 0.19452707, -0.14116284, -0.49470094, -0.20426245, -0.00758885, -0.09546069, 0.19795248, -0.33388707, 0.46644193, 0.02265378, -0.09167520, 0.15117881, -0.15698628, -0.20814741, 0.25147304, 0.50147116, 0.60397780, -0.08941673, -0.14260586, -0.04641374, 0.06079416, -0.29774851, 0.34439269, -0.01579772, -0.18786733, -0.14924298, 0.16731068, -0.11559648, -0.01656975, 0.51695776, 0.17892565, 0.15800029, 0.04427432, 0.30312684, 0.51286376, 0.16366664, -0.11626890, -0.07765576, 0.25408933, -0.23097610, 0.02830590, 0.70651513, -0.36106610, -0.08081821, 0.27376682, 0.11822104, -0.04692922, 0.08214566, 0.28875917, -0.14133427, -0.42197257, -0.12517062, 0.46163988, -0.12368700, 0.05848584, -0.29375663, 0.32057309, -0.33538702, 0.26250255, 0.02996114, -0.17539674, 0.12117781, 0.18606275, -0.03855321, 0.13169569, 0.12465908, 0.10110496, -0.03925687, -0.45449087, 0.18872926, -0.08021735, -0.02122093, -0.34605303, -0.04851557, -0.47523037, 0.04992289, 0.14206544, 0.09888288, -0.09184626, -0.46989733, 0.36198011, 0.00710042, 0.56124097, -0.11548071, -0.11907241, -0.32824942, -0.27780959, -0.39820936, 0.06527510, -0.14913331, -0.30951017, 0.20222789, 0.07589402, -0.21425225, 0.14944562, -0.12328874, -0.17443131, -0.01768518, 0.02711337, -0.30872938, 0.11735464, -0.07792410, 0.07132632, -0.12461610, 0.06428435, 0.20148383, -0.04594397, 0.54403609, 0.44016925, 0.16904403, -0.08422440, 0.08779576, 0.17737719, -0.16591911, -0.18303184, 0.06227547, -0.49612045, -0.02907304, -0.03640176, -0.16264537, -0.42082441, 0.11517613, 0.17484748, 0.04646479, -0.14411896, 0.44374061, -0.19925173, -0.32767162, -0.20131966, -0.36692697, 0.01089205, 0.32928893, -0.39003494, -0.37883109, -0.04199266, 0.31073251, 0.27326956, -0.41769454, 0.31143275, -0.26731750, 0.20254508, -0.07269391, 0.01652134, 0.37287903, 0.30705625, -0.04634729, 0.22547802, 0.06070225, -0.13978587, -0.12910718, 0.01004957, 0.16070561, 0.20181167, 0.19705051, 0.10989060, 0.05701871, 0.18015608, -0.22408161, 0.27599359, 0.16694771, -0.00550509, 0.18015608, -0.30578923, 0.06608026, -0.20979813, 0.45307794, 0.32375875, 0.01903503, -0.00460037, -0.08109327, -0.29457745, 0.08623840, -0.01024225, 0.08047893, 0.57871109, 0.22515669, -0.40556103, 0.18090522, 0.20607917, 0.10581740, 0.16857867, -0.13021009, -0.35590759, 0.02237443, 0.15217219, -0.04340336, -0.06397656, -0.02495693, 0.07487080, -0.13602614, -0.07751841, -0.11354320, 0.17951632, -0.09479295, 0.13706782, 0.54202121, -0.17569682, -0.01215294, -0.31910154, -0.09401169, -0.34980497, -0.37411067, 0.10600898, 0.08819027, -0.26177895, -0.14846183, -0.55935949, -0.20709112, 0.16094314, 0.63851726, -0.03976363, -0.21595941, -0.23780170, -0.34126514, 0.57611072, 0.11282443, 0.19280331, -0.02477785, -0.33732367, 0.17867973, -0.13006833, -0.07148010, 0.05029473, -0.25110415, -0.29368159, -0.24291874, -0.07007748, -0.05543673, 0.18485102, 0.30210078, 0.18026997, 0.08790638, -0.30408177, -0.41848388, -0.28848150, 0.09298266, 0.39075005, -0.40511221, -0.52496201, 0.03411015, -0.10424954, -0.01477230, 0.41055992, -0.35410175, 0.25827143, 0.13619298, 0.05543673, 0.53882897, -0.26248154, 0.17687999, 0.07099849, 0.29235992, 0.09389280, -0.15760843, -0.23663674, -0.30132341, 0.29340565, -0.31641200, -0.21691701, -0.09314584, -0.56440252, -0.20138025, -0.31073511, -0.13505027, -0.39499214, -0.18524593, -0.19152039, 0.22349025, 0.15760843, -0.21930729, 0.10562006, 0.06270725, -0.05642384, -0.16348137, 0.14111950, -0.01793943, -0.42040351, -0.03188566, 0.73346996, -0.10845516, 0.14223759, 0.27185667, 0.03354283, -0.25955763, 0.18240912, 0.17538109, 0.34405363, 0.04051096, 0.45522416, 0.09527761, -0.14535227, 0.25189069, -0.19646516, 0.11763950, -0.15573458, -0.18192993, 0.62656140, 0.34495115, -0.28640363, 0.10776514, -0.40093082, 0.27287948, -0.05388257, -0.00531229, 0.03650662, 0.26842850, 0.06612277, -0.18077837, -0.35368192, 0.21313359, 0.01502207, 0.11444161, 0.20816904, 0.12993446, -0.69469565, -0.06239935, -0.01419821, 0.13293031, -0.01225090, -0.10314296, -0.05973226, -0.19261916, 0.12791367, -0.01479938, 0.01450526, -0.12149660, -0.01782075, -0.01441168, -0.14844830, -0.15154989, -0.06925092, 0.46416834, -0.00839567, 0.07042739, -0.19187051, -0.26759198, -0.07288726, 0.03042763, -0.13336818, 0.10112239, -0.10556086, 0.23636222, 0.33069322, -0.22395587, 0.61111706, -0.07536656, 0.22303045, 0.15632594, 0.18565409, -0.21102637, 0.09869268, -0.13149931, 0.06073658, -0.00670114, -0.00872172, 0.08627936, 0.13838801, -0.29300880, 0.18469922, 0.33393183, -0.04429917, -0.02044446, -0.07734451, 0.18647255, 0.22766839, -0.07181989, -0.06387401, 0.15387055, 0.09878727, -0.03883046, -0.09533807, -0.09221223, 0.05680403, 0.34168646, 0.19811347, -0.11630274, -0.15165704, 0.09345178, -0.04820797, 0.07000800, 0.13322538, -0.13915370, 0.04298028, -0.03389918, -0.01748853, -0.13990821, 0.24618672, -0.26946881, 0.19153844, -0.04500129, 0.15219599, 0.51608670, -0.01091888, -0.00985028, -0.11185138, -0.07001457, -0.02267355, 0.39353347, -0.07703513, -0.05750174, -0.25847125, -0.32285029, 0.06480885, 0.09757147, 0.18950738, -0.08897486, -0.44282067, 0.06065382, -0.13830982, -0.09499248, 0.22293863, -0.29820669, 0.28024933, -0.04582468, 0.06719679, 0.45428282, -0.14622965, 0.13689585, -0.03190671, -0.07454082, 0.18006471, 0.16061927, 0.02182750, -0.12108023, -0.09638453, 0.27119896, -0.09281953, -0.09184726, -0.17358290, 0.09599562, 0.19808415, -0.06877201, -0.18991706, -0.19225051, -0.29297784, -0.23101173, 0.30646002, -0.06407270, -0.01233975, 0.19458397, 0.05545285, 0.07919864, -0.05789185, 0.00946840, 0.13087793, 0.14661641, 0.00618380, -0.16152656, -0.17137462, 0.31164041, -0.05292181, 0.13492760, 0.09756020, -0.11458722, -0.01537033, -0.21408021, -0.21003054, -0.13345499, -0.06815408, 0.00512249, -0.15720077, -0.08973698, 0.10501527, -0.26948705, -0.20128763, 0.10473358, -0.06654761, -0.00379804, -0.10268869, -0.19061866, 0.09504261, 0.53735971, 0.29890856, -0.26459008, 0.05592311, -0.18884051, -0.37661412, 0.08632963, 0.05538966, -0.08032835, 0.05049972, 0.01781493, -0.15674473, 0.00976321, -0.04863266, 0.04160893, -0.01538108, 0.18003862, 0.02524201, -0.22345388, 0.54080355, -0.07196419, 0.20028089, 0.09035964, -0.01673083, -0.17048703, -0.31659728, 0.09667954, -0.03122335, 0.03707303, 0.08825300, -0.06116768, -0.02567462, -0.13550183, 0.00984664, -0.08975773, 0.24587451, 0.62416613, 0.02264634, -0.06293575, 0.23293374, -0.29282239, 0.14273402, -0.29520643, -0.35191813, -0.13480966, 0.04955114, -0.57131797, 0.29024178, -0.09719280, -0.16049224, -0.02107594, -0.24345937, 0.24517791, 0.01569358, -0.08936391, -0.23601238, -0.16564785, -0.22799255, -0.31162801, -0.36031988, -0.12211158, -0.11561933, -0.17825045, 0.35936514, -0.31888404, -0.43052536, -0.21857442, -0.03789175, -0.16083986, -0.08229658, -0.54047495, -0.08737457, -0.09184541, -0.30578339, -0.36782321, -0.06038394, 0.52325392, -0.39210925, -0.40469384, -0.07622506, -0.07859848, -0.29187411, 0.06822171, -0.11055671, 0.16326846, -0.67426896, 0.30070540, -0.23645778, -0.30600420, 0.12458161, -0.24575002, 0.51581907, -0.31294730, -0.26068276, 0.29460138, -0.69543844, 0.65192020, 0.11540865, 0.51880562, 0.15103386, 0.14111426, 0.48211378, 0.39657056, 0.09167628, 0.07247706, -0.06351742, 0.02574562, 0.21087144, -0.15562035, -0.00944628, 0.36478519, -0.26174939, 0.17695282, 0.19812545, 0.55058020, 0.26465389, -0.18467377, 0.00124562, -0.27633286, 0.35203764, -0.15140955, 0.35141197, -0.02732046, -0.14963685, 0.08222206, -0.37080741, -0.08759230, 0.04103282, -0.06506857, -0.00557880, 0.14004341, -0.57268679, -0.20844883, 0.53055906, 0.24379857, 0.20730178, -0.21752088, 0.10244618, -0.07827348, 0.34104875, -0.08353557, 0.04090447, -0.30207646, -0.13516976, 0.08296002, 0.24468686, -0.40320709, -0.18581730, -0.00913156, -0.29253891, -0.05155197, 0.14215846, -0.07066813, -0.24518017, 0.19190158, 0.48740044, 0.24896230, -0.03919841, -0.21410100, 0.13459422, 0.18269295, 0.08362762, 0.06301485, -0.21892837, 0.09769890, 0.07374479, -0.21102209, -0.23210548, 0.48981220, 0.07134467, 0.09911073, -0.37743023, -0.01845973, -0.13619490, 0.06165008, 0.05120251, 0.12132359, -0.29027304, -0.35917053, -0.38590124, -0.31907445, 0.17958526, 0.15210156, -0.09543996, -0.17619686, -0.26759255, 0.26759255, -0.15906145, -0.13446778, 0.09518506, 0.26608169, 0.21605498, -0.10433424, -0.10769174, 0.23536058, 0.20178561, -0.05342618, -0.11088136, 0.00826259, 0.04511638, -0.12876004, -0.16544069, 0.01895937, -0.15184283, 0.01197158, 0.00201319, -0.04041588, -0.11264405, -0.05762305, -0.22531059, 0.18505089, -0.07077801, -0.19252768, -0.12955000, -0.13602030, 0.33703130, -0.12875918, 0.05205005, -0.06233066, -0.00458988, -0.08174159, -0.48570466, -0.14924850, 0.10237470, -0.09878007, -0.22459167, 0.35083461, -0.16391453, -0.07315046, -0.06930421, -0.32581609, 0.28066769, 0.14867336, -0.07729729, -0.09705792, 0.01653757, -0.08377156, -0.01700202, 0.09508748, -0.07116079, -0.05866261, -0.18623409, 0.17959091, 0.07549574, 0.00521461, 0.22586796, 0.09339853, -0.26302469, 0.12284244, 0.07138598, 0.02302592, -0.45894206, 0.02534822, -0.11163912, -0.22688131, 0.30648682, 0.09880316, -0.08251313, -0.13776316, -0.13824569, -0.08870564, 0.51888376, -0.32201031, 0.01101784, 0.27472210, -0.17708959, 0.24850446, -0.47545579, -0.12803207, -0.06727313, -0.46998709, 0.33905980, -0.03210855, -0.11669255, -0.15762743, -0.03094243, -0.14966564, -0.27745643, -0.32184947, 0.18802699, -0.22582541, -0.29363498, 0.25921935, -0.20666343, -0.31092757, -0.15970217, -0.13105072, 0.08722587, -0.20259458, -0.32923737, -0.44553852, -0.28176752, 0.05645522, -0.17818151, -0.01210058, -0.33805320, -0.10163636, -0.25277701, -0.09451588, -0.21937856, 0.05819296, 0.73171395, 0.05225923, -0.16368625, 0.02324752, -0.22699015, -0.14486307, 0.01150952, -0.08181024, 0.01715734, 0.35892582, 0.14258176, 0.30214658, -0.07952894, 0.11336834, 0.26818043, -0.05205818, -0.05738124, -0.00609933, -0.05031552, 0.00175554, -0.20633164, 0.08941460, -0.05817335, 0.21837188, -0.08434503, -0.04812926, 0.13358326, 0.07648719, -0.07033872, -0.18243362, -0.09254844, -0.10443802, 0.15703750, -0.09687625, -0.04213665, 0.20982720, 0.08531959, 0.05940031, 0.05664193, -0.11575689, -0.27222368, 0.01413670, 0.31768942, -0.14657468, -0.07466652, -0.24330825, 0.22067049, -0.03868867, -0.03281523, -0.14990374, 0.10272592, 0.04950819, -0.28093618, 0.38882288, 0.04775018, -0.09119207, 0.12161934, 0.06664381, 0.18453828, -0.23210895, -0.07014430, 0.01557266, 0.04810920, 0.03489263, -0.11497740, -0.07723501, 0.08136379, -0.06561162, -0.09451304, 0.00171939, 0.27267864, 0.17798610, -0.15545735, -0.12781250, 0.03767507, -0.08612086, -0.05372198, 0.00829834, 0.13171311, -0.24905321, -0.09860811, -0.06780044, 0.26719618, -0.10968237, 0.02024883, 0.13560088, -0.32940057, -0.09089147, 0.07704863, -0.19144346, 0.14196269, -0.05752140, 0.01352622, 0.34023920, 0.36827832, 0.11716340, 0.26059872, -0.23244181, -0.02444586, 0.10897551, -0.01838683, -0.18275394, 0.21372123, 0.21184443, -0.05410479, -0.53864318, -0.28574365, 0.10732982, 0.08011614, -0.31201893, -0.18498264, 0.11595140, 0.01294703, 0.34908584, -0.35002422, 0.32539117, 0.19202067, -0.06134808, -0.06164133, -0.09032127, -0.30122730, 0.49829188, 0.11378134, 0.15354615, -0.29583156, -0.00040605, 0.17247793, -0.20830341, -0.11582212, -0.40737903, 0.04101609, -0.09383831, 0.23802227, 0.10903700, -0.22065234, -0.34848413, -0.18618390, 0.17315646, -0.02505408, -0.24806425, 0.22798029, -0.11378659, -0.38892350, 0.08257500, 0.21495283, -0.08854591, 0.02408720, -0.34549868, -0.42160887, 0.07794540, 0.25654805, -0.25164312, -0.15951616, 0.08924801, -0.00484493, -0.06674941, -0.01594095, 0.09948434, -0.30730319, -0.12507516, 0.09052755, -0.27446163, -0.09367309, -0.11633164, 0.00591455, -0.19768915, 0.06850877, 0.10135034, 0.05789925, -0.30645016, 0.21293701, 0.11302615, 0.14862487, 0.26422197, -0.24374108, -0.00153520, 0.09668458, -0.24244949, 0.00520383, -0.26016271, -0.11319845, 0.22713496, -0.14797907, 0.22768849, 0.38415512, -0.06679355, -0.02038864, -0.16144848, -0.05323187, 0.23691411, 0.23857473, -0.19226208, -0.15812726, -0.16772191, -0.27695334, -0.09723812, 0.27808669, -0.12772891, -0.26971531, 0.11471403, 0.07841626, 0.00336408, 0.02929982, -0.00831415, -0.04018915, -0.06808284, 0.30215439, 0.12066556, -0.00259357, -0.08829187, 0.26500642, 0.01424115, -0.00280613, 0.21935625, 0.26435241, 0.14048217, -0.20117466, -0.05134009, 0.24093871, 0.11052834, 
bias
0.55794328, 0.56449360, -1.82098162, -1.15640628, 1.51265359, 1.58239686, 1.40009069, -2.03578544, -1.61144960, 1.56759906, 0.82265556, 0.98197025, -0.60733199, -0.99410403, 0.23451176, 0.72377676, -0.30586830, 3.28642201, -1.17265582, -0.12526362, 0.75488818, -1.33334076, -1.77514935, -0.07055716, 0.63252139, 2.11209941, 0.50147694, -1.17904699, 3.30969858, 4.42072344, -4.36840010, 0.65039325, -0.44228470, 1.08250546, 1.34930253, 2.02147412, 1.94933021, 1.03691745, 2.54165506, -0.48646969, 1.26809287, 0.75175935, -0.86566830, 0.51688015, 2.56445837, 1.11189294, -0.54596353, -1.36934936, 
layer16
kernel
-0.13804466, -0.09897541, 0.15280415, 0.06440505, 0.16669543, 0.01610126, -0.00352462, 0.10181681, 0.02951898, 0.02192219, -0.13741323, 0.03214333, 0.13204615, -0.03908898, 0.07225837, -0.02081720, 0.00890404, -0.12075947, -0.03608972, 0.02744713, 0.15304093, -0.03551749, -0.10055397, -0.04940878, -0.20746890, -0.16825657, -0.02026342, -0.16620682, 0.14116441, 0.07686508, 0.00294650, 0.06964646, 0.01805773, -0.16825657, -0.11442872, 0.02559942, 0.15257163, -0.06746304, 0.01418105, 0.08051896, -0.07116147, -0.05360504, -0.18215911, 0.18064409, -0.04848070, -0.10899246, 0.04692112, 0.11523079, 0.00144827, 0.04143437, -0.02813299, 0.37210211, 0.00053969, 0.06746537, -0.13472895, 0.01514271, 0.17407815, -0.19506438, -0.38690010, -0.01241013, 0.16089448, 0.03021816, -0.31048867, -0.17959376, -0.08495390, -0.11253197, -0.12652279, 0.13499801, -0.47945479, -0.15201569, 0.14972873, 0.31183395, -0.03640027, 0.12906960, -0.07183038, -0.09856789, 0.21871205, 0.45853469, -0.01861730, 0.02931813, -0.05258248, 0.09918879, -0.00196820, -0.07470204, 0.02248823, -0.05145709, 0.31138140, -0.08195881, -0.06500047, -0.00992955, -0.06542735, 0.28530359, -0.26947063, 0.05743326, -0.00165169, -0.10695004, -0.15241241, 0.26178244, -0.02061713, 0.17111117, -0.02575488, 0.01727649, -0.03913948, -0.06019761, -0.02771736, -0.15893935, 0.10213749, -0.03009881, -0.02205041, -0.01802621, -0.08348285, 0.05508192, -0.12163005, 0.13574231, -0.09027437, -0.07545649, -0.08387975, -0.10028525, 0.11316270, 0.00784995, 0.04375644, 0.42495334, -0.05350132, 0.01573990, 0.16079058, -0.06095329, 0.01917927, -0.07571393, -0.09157325, 0.07963099, 0.17426145, -0.09563361, 0.18840109, 0.14999478, 0.01096897, 0.13060054, 0.05182941, -0.01289764, -0.09018794, -0.17445253, 0.02581916, -0.04953649, -0.00941050, -0.05469555, 0.28671807, 0.00013801, 0.00218548, -0.10371197, -0.03092642, -0.16658576, 0.11349612, -0.04260358, -0.10532848, 0.21984555, 0.21150775, -0.07546556, 0.14157237, -0.18394198, 0.29369459, 0.05389789, -0.09129035, -0.08010239, 0.00930558, -0.06899951, -0.04277374, 0.00866216, 0.01235780, -0.11536787, -0.17420086, 0.11758196, -0.30380166, -0.20243791, -0.10187057, 0.24877562, -0.22604118, -0.19592166, 0.12786314, -0.35100821, 0.17724177, 0.32407442, -0.24776198, -0.02698810, 0.36548874, -0.34840173, 0.23646717, 0.55894870, 0.19041906, -0.19780412, 0.15030797, 0.13249691, -0.15001836, -0.18983984, -0.07405149, -0.01718132, -0.04512960, -0.06185276, -0.20079237, 0.00920632, 0.02050304, -0.10108344, 0.03602351, -0.02283684, 0.15325738, -0.05409253, -0.26917404, -0.24534927, -0.01358040, 0.12989078, 0.05635474, 0.42311868, -0.10291611, 0.04604594, -0.24351659, -0.03779891, 0.02017373, 0.14924841, 0.05320828, 0.11346343, -0.04781163, -0.00504821, 0.10677337, 0.05789132, 0.04147838, -0.11783427, -0.13442563, -0.03775424, 0.15253338, 0.16983834, 0.02137474, 0.05856033, 0.06114716, 0.30363956, -0.09134163, 0.06801562, 0.12978718, -0.21140592, -0.02553373, 0.18170205, 0.06574100, 0.14281049, 0.01625910, -0.27017993, 0.07177591, -0.02834343, 0.04193480, 0.07653102, 0.06567290, 0.34236771, 0.28935012, -0.21506563, 0.16758944, 0.41275826, -0.25490367, -0.00383544, -0.04646526, 0.12902440, 0.41096106, 0.45678979, 0.16294666, 0.17447872, -0.03416563, -0.07001614, -0.31840494, 0.51669663, 0.01433421, 0.08606538, 0.00460152, -0.25891736, 0.17874193, 0.18535310, -0.23908386, 0.07981482, 0.10740142, 0.11118782, -0.23932427, -0.09850640, -0.15301847, 0.13955574, -0.03209421, -0.20025827, -0.09201543, -0.14760934, 0.02076508, 0.09532101, -0.07404508, -0.16876508, 0.00081607, 0.03624122, 0.09238821, 0.06786541, 0.06326229, 0.19862649, 0.04937147, -0.01361585, -0.14770707, -0.06949483, 0.13678995, -0.05169340, -0.18803525, 0.08472992, -0.03189593, 0.07434236, 0.03299579, -0.01280114, 0.22176428, 0.09336586, 0.06269199, -0.16717866, 0.10876389, 0.35032564, -0.11381510, -0.05328209, 0.23676284, 0.30360019, -0.07476722, -0.17884657, -0.00294715, -0.19583912, 0.18281150, -0.07604165, -0.00302459, 0.14146297, -0.10124727, 0.04124233, 0.02506401, 0.26168525, -0.36987114, -0.14387025, 0.41037005, -0.03943687, -0.08290948, -0.17927139, -0.31181327, -0.27032313, 0.15279134, 0.32257521, -0.05502851, 0.00839702, 0.16661836, -0.21796808, 0.13887417, -0.10522862, -0.23973423, 0.69467747, 0.03345396, -0.01129502, 0.15512215, 0.04391551, -0.03705611, -0.24724509, 0.16447240, -0.16661836, -0.47180432, 0.01924657, 0.36328015, -0.32618570, -0.15650170, -0.16815118, 0.26180696, -0.13519539, 0.10972878, -0.17648476, 0.23560940, -0.05956917, -0.08505647, -0.11002514, 0.06416281, -0.00663578, -0.12136106, 0.14299564, 0.08038874, 0.07631373, -0.09735558, -0.01473485, 0.13869835, -0.01941184, 0.22153211, -0.02206060, -0.13284516, -0.04978915, 0.11165515, -0.06516304, -0.03713812, -0.08075920, -0.01183633, -0.08966002, 0.15639560, -0.23892358, 0.16187200, -0.12124480, 0.02634718, 0.12914100, 0.12156320, 0.06533465, -0.17307951, 0.16314557, 0.14595225, -0.18594265, 0.06622615, -0.15766919, -0.06820020, -0.08023553, -0.06813652, 0.00382472, 0.38997015, 0.16709368, -0.05619671, -0.09825668, -0.13401328, -0.05233366, 0.14956665, -0.02915034, 0.00158957, 0.09449404, -0.09131489, 0.04228266, 0.07938086, -0.00462199, 0.04485043, -0.00637052, -0.16756552, 0.08979868, -0.13215470, 0.19172704, 0.21539946, 0.10329783, 0.02716948, -0.26626581, -0.06690882, -0.24454980, -0.00627270, 0.07693537, 0.00469553, 0.32145667, -0.17258741, 0.19151147, 0.06292249, 0.01032150, 0.13511778, 0.04015055, -0.11102115, -0.23200896, 0.25484398, -0.05995772, 0.50186604, 0.24348955, 0.07292070, 0.14785998, -0.41532001, 0.13208993, -0.04910793, 0.04608008, 0.27881446, 0.26417986, 0.06339560, -0.08238273, -0.11833431, 0.08333340, -0.00318798, 0.17763522, -0.10914936, 0.07553064, -0.02586055, -0.10433394, -0.14954533, -0.04663816, 0.01625202, -0.17362238, -0.12145541, -0.19939376, -0.00002062, -0.06068312, -0.07615487, 0.20046385, 0.09675413, -0.09077945, -0.20688440, 0.08676661, 0.22097394, 0.10718752, -0.03719355, 0.08380389, -0.18164940, 0.20393766, 0.03510403, 0.00749443, 0.13985889, 0.10525635, 0.00797502, -0.18354389, -0.06235143, -0.07059810, 0.04858843, -0.08202083, 0.01264859, -0.23692431, -0.18476975, 0.14821699, -0.09862559, 0.03967312, 0.17340274, 0.22477719, -0.07137818, -0.16537896, 0.28980875, -0.32456410, 0.09584868, -0.15811865, -0.25903583, 0.15359321, -0.35968146, 0.06181742, 0.17115189, -0.28003383, 0.29831657, 0.35551807, -0.24781275, 0.40873715, -0.01663097, 0.07095880, 0.02511616, 0.03991432, -0.29487726, -0.05398842, -0.18300854, -0.22572863, -0.27786162, 0.04532222, 0.10641481, 0.06190197, -0.06676926, -0.14926362, 0.02641650, -0.24011974, -0.29220393, -0.05757549, -0.20817034, -0.01540269, 0.32781419, 0.00913657, 0.09027371, 0.15167646, -0.03608868, 0.09726264, -0.05907312, 0.09518260, -0.22164899, -0.06951492, -0.10558280, -0.08777766, -0.11589979, 0.03163740, 0.02260657, 0.11354339, -0.09238674, -0.11313497, -0.02977451, -0.02548600, -0.23492864, -0.20339788, -0.24244374, -0.13094249, 0.23786932, 0.08626030, -0.13265790, 0.02399523, -0.12007827, -0.01248773, -0.00241739, 0.28377679, -0.01239583, -0.11256316, -0.01240605, 0.02452619, 0.10684515, -0.04558073, 
bias
1.09128165, 1.65410709, 1.11776388, -1.64537454, 0.89154583, -0.33130145, 0.64426410, -0.29065907, 1.09075081, 0.42038608, -0.65169668, 0.86777788, 0.51632440, -0.90497965, 0.87951881, 1.31752789, 0.14151323, 1.21452975, -1.61293197, 1.21476603, 1.21052921, 0.97213781, 1.51046979, 1.03961551, 
layer17
kernel
-0.80286694, -0.36720598, 0.33952820, -1.04795265, 0.84470052, 1.59728265, -0.75215954, 0.58482516, 0.40164474, -0.09064699, 0.27896997, 1.01656079, 0.33045527, -1.13486743, -1.09397125, -0.14870487, 0.25979993, -0.76680231, -0.21693458, -0.01627324, -0.28001305, -0.18495466, -0.28152391, -0.03050052, -0.45376217, -0.34498012, -0.67888057, 0.62002462, 0.46596611, 0.48546031, 1.81512880, 2.21042848, 1.48914206, 0.04487733, 1.22380400, 0.21998690, -0.47468102, 0.02011953, 1.01403475, -1.71963048, 0.86976486, -0.56505698, 0.63221711, 1.43026161, -0.51074851, -0.05074578, -1.23234594, 0.18068026, -1.19695032, 2.41990566, 0.40416035, 0.35576224, -0.02591466, -0.31007296, -0.82394505, 1.24395049, -0.54939234, -0.37926719, 0.77000993, 0.77919036, -0.49000633, -0.09610780, 0.65238547, -0.08510498, -0.15920813, -0.29004794, -0.08224086, -0.44880146, -0.56954867, -0.17248306, -0.30623245, -0.02227641, 0.66828030, 0.54405880, -0.09513167, -0.07626257, 0.49688604, -0.13483538, -0.24156366, 0.13021637, -0.77795684, -0.20079446, -0.50551981, 0.77532434, -1.02101696, -0.35814580, 0.39576879, -1.71278083, 0.88216531, 1.33779824, -0.05503797, -0.39214551, 0.29692984, -0.13780132, 0.62963438, 0.55175561, 0.25771528, -0.07450765, 0.09088144, -0.84240341, -1.18019199, 0.35364398, 1.52901042, 1.19811547, 1.54969144, -0.39190373, -0.18526670, 0.62766635, -0.34521514, -0.80767316, -0.12514049, -0.19996424, 1.96186411, -1.10403705, 0.27910319, 1.00894010, -0.32616317, -0.40557519, -0.44686568, 0.09846193, -0.75935405, -0.21256049, -0.66602290, -1.10726917, -0.38993856, -0.70218259, -0.07682636, -0.03614245, -0.13107157, -0.01510666, -0.20499645, -0.39990076, -0.11038270, -0.63328135, -0.60451877, 0.10157246, -0.64748120, 0.01075821, -0.27624020, -1.26729226, 0.82364774, -0.40306166, 0.76507926, 0.90389109, 0.04290373, -0.22595514, -0.46945673, 0.46981481, 0.48019946, -0.70722884, 0.65781236, 1.11652637, -0.18173096, -0.49444988, -0.89515340, 0.55542648, 0.58902586, -0.81385124, -0.45172477, 0.17950770, 2.11883378, -1.56548142, 0.69731927, -0.02592692, -0.21379511, 0.43856931, 0.37981644, -0.14005731, 0.02696548, -0.17596184, 0.34272498, 0.31216347, 0.89085782, 0.29990396, -0.17833048, 0.50945079, -0.21374685, -0.46359113, -0.60525662, 0.60207820, -0.79755485, -0.90815836, 1.02394640, 1.57264340, -0.45667145, -0.95049876, 0.44414213, 0.84680796, -1.05332541, 0.27627161, 1.11687684, 0.55468690, 0.06354113, -0.67687881, -0.18047422, 0.08092534, -0.20767264, -0.25965780, 0.40450269, 1.42096174, 0.22019385, 0.16339360, -0.63616276, -0.09587032, -0.22231723, -1.03790510, 0.00356329, 0.26560980, -0.05015884, 0.01918888, 0.85843778, 0.11740279, 0.02314141, 0.25867376, 0.61241215, -0.08664959, 
bias
-0.74608207, 2.45961547, 1.91782773, 0.19624278, -0.63197935, -0.62243533, -0.72244132, 2.43410110, 1.19535565, 0.15115449, 0.48274344, -1.58586597, -0.43297315, 1.67219090, 2.30095911, 1.96642089, -0.18226045, 1.07771647, 0.67775530, 0.13731647, -0.28115121, 0.43020624, 0.58194178, -1.67782831, 
layer18
kernel
0.00201171, 0.09557098, 0.26335114, -0.09977139, 0.00291580, -0.01087267, 0.37322238, -0.22955914, 0.05007447, 0.02458888, 0.21464534, -0.27411175, 0.04096574, 0.05715381, -0.25145787, 0.41154516, 0.20463988, 0.22955914, -0.18047577, 0.05389731, -0.10439655, -0.11600665, 0.07485214, -0.18311872, -0.08291913, 0.13323885, -0.09824683, -0.18677366, -0.05989019, -0.16000625, -0.06650727, -0.11424746, -0.10744345, 0.06168465, -0.03428171, -0.13578101, -0.17765179, -0.08740529, -0.09824683, 0.00358192, -0.20112935, -0.05869388, 0.00507964, 0.01327155, -0.12456562, -0.06246973, -0.26602909, 0.18273611, 0.14687878, 0.10225972, -0.03736769, -0.02525636, 0.06356518, 0.28141481, -0.03394257, -0.02409923, -0.07948734, 0.02590436, -0.03341801, 0.00583581, 0.11552818, -0.12898178, -0.00396511, 0.03267744, -0.09911232, -0.03909567, 0.18057449, -0.03730597, -0.02656778, 0.01794328, -0.03505342, 0.07097083, 0.04522484, -0.01730267, 0.17128541, -0.02631576, -0.06356984, -0.23760208, 0.29822889, -0.18040885, -0.09133259, -0.16834235, 0.28645667, -0.10850038, 0.08014901, 0.32196948, -0.19404498, -0.12507954, -0.09344178, 0.09123449, 0.29293141, -0.24682364, 0.13371249, 0.28115919, 0.23662107, 0.07779457, 0.44572806, -0.23254140, -0.12103822, -0.08802133, 0.19639359, -0.08375190, -0.04500686, -0.21219046, 0.41982687, -0.20108996, -0.39221793, -0.17091934, 0.03125576, 0.00552802, -0.09214844, 0.00844101, -0.03454677, -0.28348988, 0.07229561, -0.03913640, 0.05706799, -0.08467694, 0.00086612, 0.14231420, 0.00166084, -0.23674813, 0.01100899, -0.17371428, -0.09232368, 0.29235831, 0.47430611, 0.17425418, 0.06951271, 0.04906382, -0.00281974, -0.09468576, -0.48456430, -0.06461982, 0.11938639, -0.41950580, 0.00893373, 0.14185992, -0.14577422, 0.00502786, -0.14658408, 0.09576556, 0.00016160, 0.03829948, -0.04000833, -0.06249352, 0.06748392, -0.09890081, -0.05376031, 0.23636387, -0.14925857, -0.09623548, -0.11727459, 0.16150774, 0.41125497, 0.01456008, 0.06856140, -0.15685759, 0.16559081, -0.15526974, 0.02866649, 0.22570254, -0.07893918, 0.03368525, 0.11693433, 0.40308887, -0.11404216, -0.07593359, 0.25142419, 0.21505180, -0.14992248, -0.09434091, 0.00966142, 0.25187886, 0.01015870, -0.14071572, 0.01962120, 0.13969274, 0.01518832, -0.16890432, 0.36258733, 0.02894163, 0.07842799, -0.06370853, 0.20891397, -0.13446420, 0.04290807, -0.23028274, 0.13651016, 0.03569042, 0.31393927, -0.28029481, 0.18615399, -0.10731328, -0.23710491, 0.00276296, -0.00120652, -0.03432110, -0.00557276, -0.12862608, -0.26990664, -0.00027366, -0.15743166, 0.08866458, -0.05823556, -0.10956112, 0.03280173, 0.00181336, -0.01847179, 0.08466844, -0.09149519, -0.12529597, 0.00293467, -0.17283350, 0.10689702, 0.32102406, 0.42285669, -0.15173224, -0.12847401, -0.13201812, 0.07442632, 0.04432907, -0.10997818, -0.20146054, 0.10438513, -0.11440832, -0.07470321, -0.10925829, -0.08555704, -0.33137435, 0.10720935, 0.05210950, -0.15162148, 0.28662995, -0.01650226, -0.00698093, -0.09535872, 0.12016750, -0.17454745, 0.31166023, 0.04835054, 0.11015918, 0.02925106, -0.16811022, 0.54435694, 0.36476091, -0.11781638, -0.10807086, -0.06978489, -0.04510204, 0.00935396, -0.05232416, -0.04518905, 0.05835710, -0.10006561, 0.06717448, -0.08330099, -0.14386244, -0.00275180, 0.09420670, -0.01638756, -0.15279584, -0.11294362, 0.00391924, 0.14245364, -0.06060800, -0.38029036, -0.26478741, 0.10898263, 0.22429928, 0.14232945, 0.20666336, 0.36613196, -0.00365604, 0.53503948, 0.10494623, -0.05567118, -0.09960578, -0.12668066, 0.11500617, 0.38078716, 0.17213666, 0.29782376, 0.16456066, 0.06452020, 0.02917071, -0.04589069, -0.28341693, -0.09770763, 0.03091531, 0.20940985, 0.06408883, 0.04634115, 0.18829075, 0.21157265, -0.19719639, -0.25953591, 0.32925436, 0.38650495, -0.06609260, -0.06666511, 0.05553305, -0.38701382, -0.07728826, -0.05553305, -0.03470020, 0.30711749, -0.08263165, 0.23841681, 0.05343386, 0.15279540, 0.29185066, 0.01421284, 0.10770725, 0.14713642, -0.11327953, -0.16491130, 0.02622146, 0.00061718, -0.04362602, 0.00726953, -0.31402272, 0.03805374, -0.01469777, -0.01391307, 0.15630600, -0.04732912, -0.02445808, -0.01229958, -0.04658850, 0.15080425, -0.19115040, -0.10841260, 0.05106748, 0.09486984, -0.00775887, -0.09027871, 0.02354251, 0.17217611, -0.04735442, 0.26892042, 0.05851952, 0.03214832, -0.26461002, 0.05304174, 0.30124834, -0.33405519, -0.17600757, 0.15984361, -0.03918264, 0.04570809, 0.40948701, 0.20342644, 0.08746499, -0.07968234, 0.25598925, 0.06699064, -0.05780113, 0.00813436, 0.36590418, -0.01042077, -0.31081861, -0.07423696, -0.26623398, -0.23608628, 0.29411706, -0.26326168, -0.02370770, -0.12504929, 0.22476318, 0.03096155, 0.03948925, 0.08832005, 0.42036945, -0.03358002, -0.07784619, 0.20961857, -0.02204463, -0.12427083, -0.15286161, 0.04217848, -0.26057243, -0.05374926, -0.00133356, -0.03456087, 0.18466574, 0.11991644, -0.17359510, 0.11749765, 0.06033034, 0.01755952, -0.18317725, 0.10186850, 0.11191581, 0.10893883, -0.23220438, 0.21006308, 0.02236223, 0.28299907, -0.12140493, -0.14661622, 0.34495747, 0.08270420, 0.09116998, 0.15759383, 0.07926207, 0.16801326, 0.03214207, 0.03203724, 0.07258126, 0.17182705, 0.29032505, 0.05845303, 0.09755439, 0.06671108, 0.16496193, -0.28654423, 0.10367330, -0.00548153, 0.17461289, 0.04375272, 0.04892644, -0.08969432, 0.04288214, -0.03086818, 0.07029288, 0.12337322, -0.34624097, 0.06561664, -0.01008626, -0.10596167, 0.08452060, -0.27794501, 0.08421927, 0.06268228, -0.15075892, 0.01241591, 0.00400470, 0.13586518, -0.13747242, -0.33151960, 0.02017084, -0.05127089, -0.16865283, -0.03474313, 0.21429838, 0.10307752, -0.15900940, 0.22244172, -0.15568778, 0.04098457, 0.39923790, 0.21119106, 0.17186731, 0.17454603, 0.12440021, 0.00387489, 0.13379799, 0.07055140, -0.10864730, -0.07267811, -0.01420506, -0.12834251, -0.38724673, -0.17476034, -0.11854114, 0.22746584, -0.07822605, 0.28054121, 0.03307964, -0.01838913, -0.34156862, 0.01672475, -0.02836388, 0.06019523, -0.20675349, 0.15543498, 0.03608477, 0.02736987, 0.04003768, 0.09768007, -0.24093427, -0.03952480, -0.20307954, 0.00122935, 0.02306541, -0.02404889, 0.02178503, -0.12826076, -0.07934650, 0.09151939, -0.17279574, 0.18422639, 0.10992719, 0.14228928, 0.03427338, -0.10725509, -0.05429557, 0.21911213, -0.12113516, 0.13167511, -0.15616935, 0.29734525, 0.02375199, 0.04587507, 0.01842741, 0.04575416, -0.18437088, -0.03051889, 0.19675255, 0.07574102, -0.05861949, -0.01801630, 0.11211219, -0.19646235, -0.02351793, 0.09368478, 0.03460581, 0.07849789, 0.07061424, 0.19356041, -0.06408484, 0.45580041, -0.09266910, 0.09649000, -0.13368340, 0.21222964, 0.12062459, -0.09316811, -0.04474753, -0.05431863, -0.08744664, -0.16641703, -0.04026219, -0.13561998, -0.08497440, -0.08589266, -0.08214898, 0.01409176, 0.14218909, -0.01834755, -0.06929334, 0.05753254, -0.26686057, 0.05940438, -0.04033282, -0.05827421, 0.05979288, -0.00510782, 0.00208264, -0.04527730, -0.12318816, -0.10075650, 0.17438626, -0.27991924, -0.11851056, 0.12103398, -0.10192809, -0.20187350, -0.00446668, -0.09823309, -0.11121067, 0.28586730, -0.09643064, 0.06389657, 0.00990780, 0.00984584, -0.22188061, 0.08868015, -0.13941889, -0.16005684, 0.18817495, 0.20007107, 0.05641643, 0.05677692, -0.10481200, 
bias
-0.19919753, 2.66843367, 0.85514855, 0.15272290, 0.45153266, 0.50369328, 0.29178667, 0.15625107, 1.96181190, 0.33255062, 0.23181508, -1.77525806, 0.43671396, 1.98864210, -1.12347806, 1.47515738, -0.55519253, -0.14797971, 0.24568027, 1.96038961, 0.82782108, -0.17533016, 2.43389773, 1.32369709, 
layer19
kernel
-0.02152834, -0.14901555, 0.32309911, 0.19831601, -0.17686892, 0.07887147, 0.91656160, 0.35800868, 0.05166801, -0.07232549, 0.13480525, 0.01498144, -0.81194061, -0.30203480, -0.15457076, -0.89781326, -0.36717957, -0.58719122, -0.26954803, -0.95043141, -0.26177421, 0.13866091, 1.30194235, -0.60872227, 0.67057467, 1.33438945, -0.42350304, 0.11118470, 0.56371164, 0.32072225, 0.20100769, 0.55273408, -0.08670775, 0.09694356, -0.08270243, -0.02714716, 0.37641957, 0.42945659, 0.57566679, -0.19638035, 0.43805718, 0.49912146, -0.11775654, 0.27005881, 0.05744484, 0.17209919, -0.06897549, -0.13319740, -0.30384141, 0.03286280, 0.27124539, 0.02844875, 1.20139587, 0.97477603, -0.45834735, 0.23034094, 0.81086236, -0.38772762, 0.47819090, 0.23053549, -0.08535650, -0.17139390, -0.29006618, -0.11491371, -0.14954968, -0.12553109, -0.55003202, -0.06855979, 0.42210558, 0.00402603, 0.81727922, 0.79397279, -0.20684701, -0.44412929, 0.24889275, 0.40039268, -0.25700882, 0.03463419, 0.51672298, -0.04847096, 2.19674897, 0.52383018, 0.91774631, -0.98348594, -0.10408777, 0.15743601, -0.26634991, 0.59426552, 0.01811427, 0.52200407, -0.05634238, -0.17975655, 0.42876187, -0.21106362, -0.20660600, 0.54942888, 0.43415248, 0.60416442, 0.25833523, 0.24504565, 0.20338082, 0.24250339, 0.23756011, -0.00145319, 0.57652813, 0.49291602, 0.50986445, 0.54997563, -0.59807926, -1.07058001, -0.55290711, 0.23444347, 0.81851935, 0.07651033, -0.07763963, 0.70152348, -0.11812518, -0.34178379, -0.89407402, 0.08689173, -0.20848233, -0.34294042, 1.32780981, -0.22641008, -0.66332656, 0.64424217, -0.36217645, -0.42175862, -0.54690725, -0.54170358, -0.21881494, -0.15572026, -0.15637071, 0.05132134, -0.41915679, 0.12473587, 0.32429671, 0.65091097, 0.26105967, 0.35690847, 0.00702001, 0.47609869, -0.16620412, 0.13764814, -0.11742463, 0.20234029, -0.01126254, 0.28884405, 0.14105903, 0.34153098, 0.39645994, 0.24531192, 0.30042771, 0.31705907, 0.33825943, 0.67576170, 0.16912971, 0.14272390, 1.08121872, 0.36949211, -0.28658354, -0.22506462, 0.00985327, 0.56273669, -0.16841580, -0.50676697, 0.55007386, 0.38621670, -0.64175284, 0.11922066, 0.70759964, 0.07211047, 0.24225013, -0.53274500, -0.06883856, -0.46114776, 1.71935999, -0.31718343, -0.72982985, 0.70878690, -0.13029994, -0.20128724, -0.13888820, -0.29334259, -0.45947167, 0.09614820, 1.62640083, 0.66236919, 0.33386841, 1.24319482, 0.36740652, -0.54294521, 0.65207851, 0.01389681, -0.52906537, -0.43626121, 0.04361251, -0.20547549, -0.01399694, -0.43635833, -0.12977235, 1.04356599, -0.82654119, 0.43443435, 1.17978370, -0.59027660, -1.10051572, -0.06013006, -0.82092410, 0.16897309, 0.44367543, 0.87129772, -0.65208942, -0.15679485, 0.29670620, 1.16246843, 
bias
-0.43436742, 4.20490026, -0.14817500, 0.02458346, -0.33658648, -0.00703537, 1.07359910, 0.04268688, -1.19657171, 0.63296759, 0.51485598, -2.61938119, 0.62082016, 2.49160814, 2.57830381, -0.53905129, -1.05918133, -0.06593311, 0.44582558, 0.03927183, -1.04934096, 0.00856325, 1.98687172, -0.47479582, 
layer20
kernel
0.00652096, -0.00927021, -0.20881610, -0.09473794, -0.07547044, 0.13923496, 0.06503691, 0.10826155, 0.15195878, -0.09953664, 0.00852042, -0.02348454, 0.01627740, -0.14963214, 0.00268109, 0.03853500, -0.54705161, -0.28065115, 0.02564759, -0.12963757, -0.28094199, -0.13327295, 0.05758438, -0.22612049, -0.14866634, 0.23684828, 0.02637629, 0.15757261, 0.08646920, -0.07281616, 0.30496663, 0.02143379, -0.10452643, -0.25407362, -0.13701966, -0.20376782, 0.12468790, -0.13398565, -0.03858572, -0.02666990, 0.13281120, -0.12997293, 0.23802273, 0.39050606, 0.00192531, 0.05867378, -0.07521401, 0.15718113, 0.00654965, -0.22564369, -0.07819985, -0.22957553, 0.12614639, -0.02140666, 0.17999071, 0.04073819, 0.07847289, -0.04308637, -0.04753699, -0.17944461, 0.07372192, 0.45478234, -0.11314949, 0.06312781, 0.09665763, 0.01598674, 0.11456933, 0.33420604, -0.06722347, -0.15552595, 0.05406274, 0.02454667, -0.05773792, -0.24121620, 0.36085093, 0.00109918, -0.02791772, 0.01371552, 0.11450248, 0.16263954, 0.15511812, 0.00635449, 0.11786500, -0.06525934, 0.03632401, 0.09114185, -0.04636731, 0.01671303, 0.23944646, 0.06614421, -0.12733313, -0.03077144, -0.11919230, 0.05278264, 0.17414288, 0.04853525, -0.06904514, 0.18181679, -0.00695399, 0.20983693, -0.00832437, -0.16322047, 0.31261933, 0.11402815, -0.12219546, -0.11559878, -0.02910388, -0.17075951, -0.17075951, 0.05101425, 0.16234091, 0.02128211, -0.09071992, -0.05572616, -0.20719826, -0.14952451, -0.01510952, 0.51617372, -0.14500108, -0.02651233, -0.13609198, 0.14379965, 0.40217885, -0.37986115, -0.09024866, 0.07282014, 0.08587715, 0.27793595, 0.01716968, -0.11009301, 0.02332430, -0.04388765, 0.04040770, 0.12964976, -0.17440021, 0.03695651, -0.15265770, -0.00505815, 0.23928261, -0.10244287, 0.43715093, -0.00752791, -0.24204355, 0.11020805, 0.27539980, -0.21055456, 0.00055684, 0.15679923, 0.06372856, -0.06827235, -0.17004552, -0.26169142, 0.46084800, -0.05325475, 0.14054941, -0.11290160, 0.06954307, -0.16465458, -0.06719416, 0.13431132, -0.02044705, 0.03398215, 0.06526883, -0.05544963, -0.23704715, 0.25337398, -0.26169142, -0.00016049, 0.14870386, -0.14994401, 0.17249197, -0.29357457, -0.23201860, 0.14644906, 0.01302850, -0.29380006, -0.11803862, -0.20800503, -0.29808417, -0.08647147, 0.35715985, -0.17463402, -0.10326970, -0.06651651, -0.05177578, -0.11454369, 0.04250292, 0.24644931, 0.09802730, 0.08094721, 0.03339918, -0.09002277, -0.16640484, -0.03742882, -0.14996071, -0.07866187, -0.17229529, 0.00826042, 0.13437559, -0.13302571, 0.13977516, -0.07185106, 0.00751644, 0.00412254, -0.07657568, 0.36545253, -0.35146275, -0.02462019, 0.02221186, 0.00557597, 0.00865925, 0.25672486, 0.12897603, -0.09670134, 0.24887095, -0.04555885, -0.10087878, -0.07673581, -0.07412740, -0.24919423, 0.05753670, 0.22201824, -0.08249858, 0.02898066, 0.18550049, -0.16014430, -0.13381755, 0.04795230, -0.21097799, -0.20357738, -0.06202559, 0.13357490, -0.22856960, -0.26739246, 0.19095995, 0.02242930, -0.28243631, 0.04191656, -0.09056646, 0.08528897, 0.08648403, -0.18872108, 0.01839164, 0.04337329, -0.06484990, -0.02735773, 0.06516495, -0.08496124, 0.11615220, -0.12822951, 0.20888492, -0.03003574, 0.21140541, -0.12528895, 0.14692308, 0.06805301, -0.00804716, -0.26528069, 0.05917881, -0.17758894, 0.01593680, -0.00809967, -0.14303733, -0.08601144, 0.53146684, 0.19834052, -0.01250211, 0.08968785, -0.10944288, 0.25692829, 0.11085396, 0.08076986, -0.15916912, 0.23751193, -0.24902630, -0.21008065, 0.03056386, 0.09194557, 0.06361120, -0.11158771, -0.01164136, 0.02858835, 0.03448664, 0.12191677, -0.09567080, 0.40864697, -0.12135234, -0.19901784, -0.16167839, 0.01242674, 0.05176717, -0.15069054, -0.01886902, -0.15631528, -0.04277414, -0.00656083, 0.02722437, 0.14493500, -0.12230526, -0.02501698, 0.05784973, -0.09150003, 0.14349611, 0.06167586, -0.01621199, -0.08345535, -0.09601290, -0.02052047, -0.00118136, 0.03646266, -0.01767540, 0.01560700, 0.03020075, 0.04401406, -0.09223373, -0.15778349, 0.12754649, 0.12138307, -0.11775754, -0.07533872, 0.00610450, 0.02260524, 0.15227267, 0.17982678, -0.15343285, -0.14908220, 0.02162635, 0.08984087, 0.05315042, -0.24262112, 0.11333437, -0.09651187, -0.02699214, -0.10949130, -0.08882573, 0.14349887, -0.19844213, 0.24602593, 0.03413111, -0.28174317, -0.01571441, -0.07631034, -0.02216172, 0.28338805, -0.08007005, 0.29913181, -0.27046403, -0.15873021, 0.12054566, -0.24649590, -0.17459147, -0.03474793, -0.02110430, 0.00050163, -0.24861073, -0.03395487, -0.12818258, 0.07824894, 0.06121276, 0.49017203, -0.05818777, -0.31543896, 0.02222449, -0.00856015, 0.16988446, 0.00912906, -0.02339420, -0.00949060, 0.21165375, -0.10165845, 0.11850228, -0.08013579, 0.03853663, -0.00225302, -0.07647778, 0.07656285, -0.13857876, -0.18187931, -0.15321077, -0.06686489, 0.00627922, 0.08124169, 0.25282755, 0.04206703, 0.21528067, -0.26369375, 0.14588381, 0.24464363, 0.14087062, -0.29047850, 0.17832631, -0.09095357, -0.08386350, 0.03178004, 0.11759510, -0.29849961, -0.23662253, -0.09081034, 0.05177908, 0.15941942, 0.07791928, 0.03369579, 0.24349776, -0.04365056, -0.03863737, -0.03340932, -0.15483592, 0.08314732, 0.05206467, 0.08949453, -0.27936393, 0.10474232, -0.21270277, 0.16688278, -0.23691532, -0.26741090, -0.12466405, -0.12864840, -0.18925641, -0.02712420, 0.03842595, -0.08604654, 0.01593738, 0.00731740, 0.29330915, -0.28610668, -0.04340638, -0.01037271, 0.57466525, -0.03137672, -0.18297341, 0.01863831, 0.00131222, -0.14505555, 0.07571243, 0.06610712, -0.04039880, 0.09954592, -0.01274501, 0.03924308, -0.00680590, 0.00035454, 0.07786977, 0.02474522, 0.05778594, -0.00777542, 0.04440529, 0.15183577, 0.04877133, -0.00774332, -0.05172484, 0.05701546, 0.10257646, 0.05835096, 0.02331984, 0.09898090, 0.18861102, -0.03799064, 0.11834874, -0.06611890, 0.26190788, -0.08817798, -0.13212109, -0.02315329, 0.22385886, -0.15558074, 0.22000727, -0.06320103, -0.08170032, 0.08496833, -0.09617294, 0.15534732, -0.09932424, -0.20856923, 0.02353261, -0.11922410, 0.32843527, 0.21487182, 0.09057064, -0.12896979, 0.12649281, -0.03604748, 0.18825458, 0.18766071, -0.18207839, 0.15986793, -0.05003296, -0.11835690, 0.21937299, 0.43209472, 0.01073407, -0.11990094, 0.09988776, 0.00646568, -0.04863738, 0.14846575, -0.00325326, -0.21925423, -0.49124348, 0.01360689, 0.13243145, -0.09911574, 0.12732422, -0.10689534, 0.03719810, 0.07230500, -0.43750545, 0.17274621, 0.28592476, -0.22141425, 0.11305182, 0.22217470, 0.00833314, 0.15424222, -0.08320461, -0.02499941, -0.05833195, -0.26285815, -0.20012198, -0.25487354, 0.06539769, -0.12743677, -0.01280071, -0.20721941, 0.02533210, 0.17084512, 0.05709624, 0.10392655, 0.03383736, 0.08639664, -0.31652251, -0.09960276, -0.17820302, 0.24375626, -0.05505200, -0.28003332, 0.00802842, 0.11721091, 0.08151727, -0.08766952, 0.08146424, -0.09668574, -0.07563021, -0.05436253, -0.00372251, 0.08507073, 0.04415298, -0.12983362, 0.12124170, 0.01097195, -0.17671800, -0.15900376, 0.14096445, -0.32256320, -0.26366630, 0.07276505, -0.01673596, 0.07932817, 0.07852919, -0.13468668, 0.06934082, 0.08338019, -0.18228360, -0.17235330, -0.04217520, 0.32758540, -0.23125018, 0.16276543, -0.02836410, 0.01971790, -0.19974720, 0.19780681, -0.01645061, 0.04568504, 0.26138347, 0.11927761, 
bias
1.88354850, 0.14677772, -0.65113842, -0.43133956, 0.14233121, -0.35505828, 0.46774784, 0.40508389, -0.51215714, 2.15413237, 1.13289189, -0.96033478, 1.68695390, 1.63875985, -0.22203165, 0.87829691, -0.70743048, 1.31925428, 0.85764539, -0.89518726, -0.79568726, 0.80448121, 1.59199595, -0.75441515, 
layer21
kernel
-0.48812813, -0.09228554, 0.17505220, -0.95341092, -0.04878426, 0.53039193, -0.62862676, -0.37275931, 0.19761193, -0.13304067, 0.00510566, 1.21637189, 0.08758701, -0.43782058, 0.50376844, 0.05478482, 0.32149586, 0.29516253, 0.21422760, -0.23625696, 0.27680376, -0.38982400, -0.30410102, -0.43100932, 0.73558927, 1.49671984, 0.01540459, -0.18448739, -0.07212019, 0.55661881, -1.16374362, 0.87403536, 0.23271365, 0.23183683, 1.28159118, -0.28374583, 1.23869908, 0.79045868, 0.13846330, 0.39645740, -0.15985195, 0.05746279, 0.07629298, -0.67788690, 0.10919464, 0.20415765, -0.04163405, 0.21223399, 0.75161093, 0.24597061, -0.25353578, 0.62116271, -0.02962177, 0.18360898, -0.08437417, 0.60696739, 0.90496516, -0.42856377, 0.21296525, 0.16326238, -0.14812112, -0.66928798, -1.16741383, -0.62092084, 1.04876852, 1.54327238, -0.39796725, 1.08226073, 1.36727357, -0.20243137, -0.10334999, -0.46560854, -0.15844943, 0.41974336, 0.35454288, -0.64117885, 1.94075942, 0.28245333, -0.36979732, -0.89312327, 0.64314717, 0.39436713, -0.42027444, -0.34565249, 0.76747698, -0.28387347, -0.46987480, 1.28960931, 0.39724571, -0.62221879, -0.29948303, 0.41627410, 0.67328763, 0.02494166, -0.28666896, 0.76371837, 0.48620227, -0.59786773, 0.62459421, 0.56409085, 0.13094966, -0.16623785, 0.25618044, 0.06112067, -0.07207106, 0.70706320, 0.69770503, 0.01500397, 0.02179945, -0.13606578, -1.12406659, -0.31635037, -0.18431386, -0.77444881, 0.21716802, -0.09288014, -0.49343219, -0.73007774, -0.67403603, -1.04483259, 0.22455072, -0.57078105, -0.34277573, -0.20151988, 0.15113991, 1.42867994, 0.85018426, 0.92804456, -0.60655683, 0.03227827, 0.99146301, 1.73176384, -0.14559563, 0.12950554, 1.04357922, -0.01018955, -0.28477859, 0.04727848, 0.35204595, -0.36835930, -0.23301898, -0.26544428, 0.29605696, 2.24117136, -0.23779255, -0.84826893, -0.96289986, -0.01969386, -0.19873805, 1.21775377, -0.35375640, 0.48491552, 1.11431932, -1.59625208, 0.68622291, 1.09638917, -0.98666316, -0.00562645, -0.41517356, -0.45109579, -0.34420002, 0.01389264, -0.43236384, 0.60262644, -0.49530941, -0.49272966, 0.58869588, -0.31730759, -0.35393983, -0.70581591, -1.62110639, -1.32354891, -0.22064514, 1.87588596, -0.03946989, 1.03450549, 0.23384200, 0.60287142, 0.85232431, -1.08471787, 0.31214911, -0.20641594, -0.28054321, 0.65688163, 0.31231204, 0.15354934, 0.13318470, 0.84260708, 0.68816173, 0.01597414, 0.60452598, 1.19226933, -0.26764873, 0.03175160, 0.46362144, -0.25698474, -0.13513552, -0.11127264, 0.56328857, 0.53739786, -0.28844890, -0.30637321, -0.01607796, -0.43980989, -0.55100709, 0.00967271, -0.80128378, 0.77224970, 0.02074874, -0.29406014, 0.77735430, 0.79266798, 0.29624781, 0.48748717, -0.09644006, 0.11385032, 
bias
2.14795876, -0.97479141, 0.30364573, -0.42579979, -0.69611585, 0.00681204, 0.33332211, 0.12674224, -0.03631181, 0.07518336, -0.63098752, -1.27735329, 3.82864094, 2.58765531, 0.31778330, -0.50773811, -0.29734272, 0.99141568, 5.74748611, 0.00425687, -0.24382389, -0.46459794, 2.66566944, -0.37748104, 
layer22
kernel
-0.16886824, 0.15162644, 0.32404447, -0.19904140, 0.06807976, 0.27333328, 0.13577919, -0.12367190, -0.03372294, -0.08468768, 0.01589479, -0.14769632, -0.12652440, -0.02345392, 0.02598948, -0.19016694, -0.07574983, -0.09064624, -0.28246129, 0.04868273, -0.10953616, 0.05508502, 0.18078537, -0.01304228, 0.30482739, -0.02018617, -0.15615921, -0.41805723, -0.09695125, 0.66670185, -0.05531839, -0.09889603, 0.08045657, -0.23078142, 0.13015668, -0.19822425, 0.26967716, 0.21104543, -0.04541438, 0.01667475, 0.09846386, -0.27832067, -0.05953210, 0.27039745, -0.01645866, -0.02159074, -0.34314692, 0.04469409, -0.00067533, 0.00037682, -0.01370177, -0.03440165, -0.12982790, -0.04563149, -0.15699863, -0.05469753, -0.01748842, -0.21528423, 0.00126507, -0.25834107, 0.02884151, 0.13662058, -0.04552193, -0.15075374, 0.27214557, 0.40011096, 0.18405980, -0.03796233, -0.09783655, 0.05138336, -0.23905863, 0.19983636, -0.04401274, 0.03108975, -0.05507077, 0.02468311, -0.05019997, 0.01746468, 0.02793032, 0.00628597, 0.01192469, 0.05493913, -0.01651026, 0.05801081, 0.07648475, -0.14840585, 0.07152618, 0.04412244, -0.06841063, 0.03947104, -0.09416883, 0.09241358, -0.00510940, 0.18939079, -0.00382040, 0.06090696, 0.00509052, 0.13541280, -0.11327866, -0.00086670, 0.18215530, -0.09656103, 0.07322322, 0.00826687, 0.00059452, -0.12845826, 0.29690510, 0.20890349, 0.21639299, 0.45792931, -0.20903724, 0.07803790, -0.04670906, 0.01828909, 0.33408511, -0.25812021, 0.25437546, -0.09702912, 0.11341240, 0.15580830, 0.11464402, -0.10138335, -0.13461427, 0.00224533, 0.25971889, -0.17687935, -0.11084016, 0.23562780, -0.00801716, -0.15384488, -0.00372461, 0.26373407, -0.07692244, 0.10074938, -0.03492152, 0.06054472, -0.03600456, -0.08558678, 0.05732201, 0.01267292, -0.22315961, 0.08754154, 0.13968608, -0.05864279, 0.17989992, 0.01463189, -0.09319901, -0.21862157, -0.02810658, -0.08816965, -0.05843854, -0.02472400, 0.03865489, -0.10299069, 0.06431355, 0.16565746, -0.31671643, -0.19458744, -0.08567722, 0.01613402, -0.04421835, 0.01003647, -0.00675960, -0.11091306, 0.26900423, -0.00528250, 0.09426720, 0.11732216, 0.00963403, 0.32479656, -0.00750088, 0.03031026, -0.02410599, 0.01855702, -0.04054380, 0.00444406, -0.02510983, 0.04670624, -0.01255491, 0.00736843, -0.00934125, -0.03223427, -0.13607548, -0.05384462, 0.04863025, 0.00191008, -0.08738946, -0.03680730, 0.00510283, -0.03661211, 0.11934489, -0.03181601, -0.17195083, 0.00353449, 0.41958231, 0.36170888, -0.03561441, -0.28769767, -0.21243441, 0.16791639, -0.27336845, 0.15386540, 0.21354735, -0.14273588, -0.20770437, -0.03151041, -0.06851601, -0.04730039, -0.17334202, -0.22843307, 0.11797274, -0.01641602, -0.09550505, -0.12604164, -0.03877937, -0.28630650, -0.05369974, 0.02760335, -0.04883112, -0.09493813, -0.05080175, 0.07946286, -0.06126349, 0.01666344, 0.12519313, 0.32040170, -0.01801100, -0.04865724, -0.06787091, -0.15301383, -0.14698601, 0.34242639, 0.11667304, 0.02157553, -0.09122870, -0.11180443, 0.01617078, 0.13701692, 0.08137554, 0.29675409, 0.32688931, 0.14184798, -0.23999146, 0.14350927, -0.17865178, 0.03843313, 0.13660856, 0.42273256, 0.42503279, 0.21034394, -0.00667309, -0.08574774, 0.07022114, 0.26158813, -0.16127221, -0.03539810, 0.14721520, 0.04140428, 0.02988711, -0.09450143, 0.02439210, 0.28497389, 0.15973872, 0.28727412, 0.05980342, 0.02911881, 0.10354477, 0.20072532, 0.04303421, -0.00350095, 0.03929650, 0.01099216, -0.03083614, -0.08005778, 0.05222697, 0.16456042, -0.02182017, -0.02166864, 0.04225131, 0.03290703, 0.07460275, -0.12677920, -0.39943025, 0.01930731, 0.23557697, -0.17951128, 0.05768201, -0.13051692, -0.09353974, 0.15431178, 0.02682659, -0.28140441, -0.08108173, 0.00458015, -0.08249504, 0.21628775, -0.19137174, 0.02876334, -0.03970335, 0.22173159, 0.17451678, 0.18404350, -0.07710355, 0.27805433, 0.19116236, 0.05370552, -0.14237723, -0.09709917, -0.23910998, 0.14761168, 0.11871748, -0.02099017, -0.00387272, 0.14517739, 0.04607671, 0.02697173, 0.20943959, -0.08796463, -0.20698762, -0.10676311, -0.01358803, -0.12607242, 0.18798481, -0.10686528, 0.04638321, 0.05951149, -0.09108068, -0.05486296, 0.04066193, 0.02541371, -0.23293769, -0.11554936, 0.07846323, -0.05869417, -0.00585537, -0.13812797, 0.11453556, 0.21600465, 0.07753097, 0.06170833, 0.00666082, 0.17864279, 0.08579958, -0.15781815, 0.09156720, 0.04394613, -0.02407850, -0.23621681, -0.13821848, 0.05987086, 0.11994588, 0.13740183, 0.00169870, 0.10606278, -0.23050025, -0.14863081, -0.16486178, -0.05731882, 0.23213355, 0.07952157, -0.21402229, 0.04466929, 0.04374772, 0.20209603, -0.10402958, -0.15189728, -0.10272853, 0.18258032, 0.21499808, 0.08001442, 0.03301408, -0.13801944, 0.07779180, -0.11053482, 0.09828329, 0.20068656, 0.03491144, 0.08570649, 0.19971077, -0.18323085, 0.22659908, -0.01151969, 0.05925187, 0.12804475, 0.00172773, 0.33624229, 0.02008483, 0.05369245, 0.22287680, 0.05598500, 0.19230932, 0.09834754, 0.05076860, 0.28520790, -0.06545428, 0.08000705, 0.31125671, 0.25876036, -0.13835107, -0.35059571, 0.14193943, 0.05272890, -0.10705263, -0.09582241, 0.12977889, 0.08990826, 0.03128183, 0.19882153, 0.02081417, 0.01600184, 0.10021763, 0.03637853, 0.14753327, -0.05845467, 0.06740628, -0.02249680, 0.14093734, 0.12747627, -0.17257084, 0.04283984, -0.21537703, -0.15493685, 0.16664797, 0.43102327, -0.10082337, 0.04684450, -0.11690935, 0.18630113, 0.02200884, 0.01992238, 0.06299778, 0.23476097, 0.03854223, 0.01591692, -0.09143298, 0.00450332, -0.03119716, -0.00776435, -0.09298585, 0.12485075, 0.09447661, -0.00093027, 0.21230838, -0.03279661, 0.09770658, 0.11528507, -0.10143347, 0.10969473, 0.05935069, 0.03372834, -0.12267673, 0.01253166, -0.02528072, 0.13714948, -0.04897752, -0.01781142, -0.05910859, -0.01567124, -0.07848395, -0.10485487, 0.23690598, -0.12757081, -0.03635336, -0.01616251, -0.09935274, -0.03792539, 0.00678923, -0.14124753, -0.13212971, 0.10878496, -0.14148334, -0.14871471, -0.03770924, 0.01292018, 0.01415816, -0.09809511, -0.17842621, -0.23423351, -0.10823475, -0.11381548, 0.02918094, -0.13637032, 0.17776470, 0.36540523, -0.04446744, 0.02760501, 0.23386775, -0.02634427, -0.06083083, -0.04685760, 0.06235423, 0.06618898, 0.16715345, -0.00604106, 0.16211048, 0.23533861, -0.06293207, 0.18028618, -0.28723919, 0.10422139, 0.06414028, -0.03769095, -0.19278856, 0.02337627, -0.29985759, -0.01269404, 0.05240789, 0.24591394, 0.03585045, -0.08029158, 0.04326531, 0.17056561, 0.06622975, 0.04595289, 0.03988183, -0.15309630, 0.03856203, -0.06589380, -0.09915265, 0.05399165, 0.04422516, 0.00600207, -0.07731604, -0.18947467, -0.21020746, 0.01084632, 0.07376458, 0.00350046, -0.02884976, -0.04602331, -0.19499709, 0.02353413, -0.03829975, 0.04979423, 0.09531778, 0.09877066, -0.05115721, 0.01300511, -0.02616923, 0.09958845, -0.02514699, 0.00339893, 0.21117114, -0.04970336, -0.03652788, 0.10186008, -0.00256411, -0.08541345, 0.11548989, 0.10031538, -0.19772306, 0.05379230, -0.06851353, 0.32340756, 0.04021833, 0.16882208, 0.34642339, -0.29564625, -0.01650553, 0.12083295, -0.24534367, 0.01352475, 0.19302426, 0.36659187, 0.04451896, 0.02436531, -0.18317729, 0.18009269, -0.05098474, 0.05519640, 0.12611234, 0.26337668, -0.17700811, 0.10238472, 0.00208358, -0.24368274, 
bias
1.10802233, -0.02672080, 0.73372436, 1.07625282, -1.86002123, 0.60720062, 1.18153846, 1.17262006, 0.43454191, 0.13186124, -1.55845332, 1.13053370, 0.35255748, 1.14811563, 0.20696610, 0.15502942, -0.98982608, -0.29522800, 0.81926501, 1.65259314, -0.47735819, 1.15071499, 1.19437349, -0.42557269, 
layer23
kernel
