layer0
kernel
1.00959432, 1.31482053, 1.67252910, -1.10765338, 1.11455905, 2.01918864, 0.03161456, 0.32991362, 0.93156141, -2.31558156, -5.04726505, -0.97338188, -0.43569139, -1.06524861, -0.91596514, 1.44960272, 3.74491954, 1.65089881, 0.18026303, -4.93123055, -0.70254725, -2.65704513, -5.07671738, 3.15731502, -2.18102312, 0.45368853, 1.42934227, 0.73469323, -0.40095350, 0.09499770, -2.53415918, 0.10414809, 2.86157703, -2.12022877, -3.65483260, -1.30833960, 0.34702528, -3.98007226, -7.84468174, 0.47288826, 0.86766934, -4.91396284, -0.13944685, 0.98992407, -0.64905399, -1.27115548, 0.81277156, 0.68677592, 1.74393892, 3.82066607, -1.39115131, -1.60714376, 2.71190500, -2.79030228, 2.49800014, 0.79481822, -1.63275492, 3.16202545, -0.78619450, -4.45845604, 3.29138112, 0.01460865, 0.10698785, -0.70437104, -1.95891440, -2.79384375, 1.81707311, -2.23077679, -4.74523640, 0.18952470, -0.81290108, -0.88704544, 
bias
-2.48779130, 4.54328442, 2.08621311, 1.46025658, 1.87468481, 0.29868042, 0.40960658, 4.13802338, 
layer1
kernel
0.30172351, 0.49455246, 0.45319700, 0.03040482, 0.11091336, -0.16542180, -0.30270234, -0.12424988, -0.74666834, 0.45184934, 0.28309700, 0.02069317, 0.91918057, 0.09598757, 0.18699883, 0.99349350, 0.26657370, 0.19619644, 0.16146040, 0.03351972, -0.30708024, 0.27811468, -0.41389075, -0.35528076, 0.68924260, 0.92105377, 0.06999046, 0.33997822, -0.11728130, 1.54219759, 0.29561079, 0.28890410, 0.81985921, -0.23672546, -0.20240027, 0.16353785, -0.61627531, 0.02682889, -0.16639827, -0.77685404, -0.26854050, 0.20942418, 0.23790358, 0.08536625, 0.27458158, -0.10773263, -0.06210089, 0.33858827, 0.22588167, -0.13895962, 0.67263395, 0.19774282, -0.94207299, -0.47412020, -0.74972665, -0.56354779, -0.13055959, -0.64362085, -0.17632274, 0.48381689, -0.34481436, -0.05585797, -0.28828341, -0.09990807, 
bias
0.91446453, -1.66244853, 1.45492518, -6.52544069, 0.83256567, 2.27928877, 4.79911423, 4.44248962, 
layer2
kernel
-0.06068979, -3.71490264, 0.53840703, -0.55251068, 1.24605787, 2.28761268, -0.10419074, 1.66423118, -1.16214108, -0.23630781, 0.37536851, 0.37863731, -1.01006269, -0.72840011, 1.51999724, -0.25823608, -0.59492368, 0.57258677, 1.01604915, 3.67713022, -3.48940301, 0.62559599, -2.05919290, -1.22700036, -0.31812015, -1.38085914, 3.16039681, 0.14599936, -0.08854010, -0.17385568, 0.14331226, -0.44749251, -0.47436357, 0.05647399, -0.12692092, -0.08150885, 0.44689909, -0.50031328, -0.47609887, 1.22639072, 0.71931165, -1.91863918, 0.27828816, 0.74281394, -0.54375690, -0.07119466, 1.62495732, 1.88058531, 0.33653957, 0.69662380, 0.37447268, 0.17079243, -2.13322353, -2.99279165, 0.07032201, 1.36205566, -1.41582096, -0.26210609, 1.74401367, -1.59839916, 0.05936591, 0.08085805, -0.10585054, 0.08359375, -1.86178792, -2.73685837, 0.03597407, 3.02351952, 1.11118865, -0.05629494, -0.34795368, 0.54918218, 
bias
-0.55202127, -0.00809389, 0.13257189, 0.42099568, 0.06019919, 0.43796948, 0.05276092, 0.37768766, 
layer3
kernel
0.11484283, -0.85874796, 0.06153870, 0.18160166, -0.70346749, 0.22012769, -0.03867307, 0.13145901, 0.34578133, -0.21396948, 0.05487550, 0.22143836, -0.14578141, 0.63789743, -0.37399709, 0.22738580, -0.37294629, -0.18832186, -0.22455655, -0.15911224, -0.15701704, 0.39192638, 0.03075020, 0.16564435, 0.23258309, 0.12341853, 0.97274661, -0.15592453, -0.11829057, -0.00762674, -0.64212400, 0.12776425, -0.01300010, -0.04185048, -0.28419730, 0.23816533, 0.01526059, -0.18670104, 0.82285696, -0.05553856, -0.31173119, -0.06543373, -0.12262246, 0.46277261, -0.02495428, -0.36348173, -0.18542480, 0.53715301, 0.38611636, 0.00659929, -0.36365882, -0.07840995, -0.37182519, 0.30445263, 0.08351393, 0.10558866, 0.23073883, 0.38419136, 0.16759367, 0.10073822, 0.85238957, -0.09135745, -0.18523511, 0.08260674, -0.18469429, 0.02742579, 0.02142214, -1.54130220, -0.14277785, -0.00660402, -0.12487604, 0.34144428, -0.38881475, 0.14171687, -0.15273850, 0.21360636, -0.01178604, 0.45366463, -0.09421718, 0.42379954, -0.70716995, 0.09282276, -0.50149328, -0.20227851, 0.19029561, -0.12903973, 0.00517545, -0.32157096, 0.61100674, -0.02802529, -0.42537388, -0.03808387, 0.09524435, -0.00891398, 0.19506709, 0.06444428, 0.24634567, -0.01159717, 0.17600989, 0.01293940, 0.03102046, 0.15851116, 0.14623934, -0.89448023, 0.01179104, -0.66600519, -0.08862166, 0.09209044, -0.57738352, -0.13628937, 0.44601759, -0.06713762, 0.12358183, 0.47440600, 0.04189853, -0.19527552, 0.54482567, 0.26291543, 0.26476857, -0.01656251, 0.26338929, 0.06446107, 0.16392519, -0.18830025, 0.12684274, 0.63998979, 0.14463307, 0.16484936, -0.34215251, 0.45021194, -0.14925039, 0.07863730, 0.22938555, 0.43758717, -0.33188152, -0.22917157, 0.25953284, -0.06967699, 0.12040184, -0.10942075, 0.04830009, -0.12876308, 0.08177292, 0.86867696, -0.21428287, 0.13012411, -0.24981163, -0.02431500, -0.05676275, -0.06095404, -0.90509534, -0.17198144, 0.27132466, -0.08877011, -0.18216883, 0.14139299, -0.08970685, 0.68635660, 0.05681067, -0.24840203, 0.06907649, -0.13730216, 0.16729380, -0.13028285, -0.17994985, -0.92825198, 0.03485731, 0.08875187, -0.46138322, 0.17045097, -0.03228413, 0.01310551, 0.16341136, -0.10317073, 0.67949581, -0.24534786, 0.30997518, 0.47661921, 0.50554448, -0.01198698, 0.30069318, -0.38423109, -0.33328807, 0.05407297, -0.79945719, 0.10199887, -0.50039017, -0.07665112, 0.04005796, -0.27353689, -0.02034811, 0.24594006, 
bias
-0.04373227, 0.26703441, 0.32343203, -0.29209885, -0.10657481, -0.41522425, 0.18522441, -0.04566754, -0.80602348, -0.23585711, -0.06557652, 0.45100421, 0.01984985, 0.26826850, 0.13402672, 0.11824159, 0.29220185, 0.17992130, -0.12655477, 0.02178054, 0.33555391, -0.06933505, 0.19246966, -0.11784948, 
layer4
kernel
0.16688989, 0.41169819, 0.15955767, 0.04506027, -0.12256831, 0.09559233, 0.37930515, -0.13931201, 0.36923704, -0.06210493, -0.25476700, -0.26220864, -0.17951618, 0.20438473, 0.01210173, 0.04620922, -0.44601443, 0.17014711, -0.15788634, -0.43421635, 0.03550997, -0.13590948, -0.32618275, -0.20866443, -0.13407992, -0.21333532, -0.15254800, 0.08111877, -0.16422513, -0.07254726, -0.15138857, 0.15130576, 0.20969139, 0.04571471, 0.16099529, 0.26236269, -0.40257856, 0.24647668, 0.23723380, -0.13666251, -0.03950229, -0.12213799, 0.16578491, -0.26232159, -0.28652912, 0.12580581, 0.00979305, -0.35152268, -0.28803143, -0.29360110, -0.06981977, -0.13572751, -0.00427671, -0.26495707, -0.35778490, -0.25275686, 0.01902970, -0.28352264, -0.30049688, -0.25872436, -0.36666819, -0.04351610, -0.02088544, -0.44448790, -0.39596501, -0.29983479, 0.03347392, 0.06420127, -0.36415049, 0.18299077, 0.19752474, -0.16719794, 0.11206383, -0.50935650, 0.20182304, -0.05451115, 0.40337574, 0.17262428, -0.32713449, -0.22142409, 0.14207369, -0.39634639, -0.47718376, -0.13362497, 0.38948792, -0.30011669, -0.23848134, -0.05559034, 0.13216040, 0.04344106, -0.41698676, -0.21927957, 0.30793962, -0.45539033, -0.43049914, 0.05882026, 0.09110567, -0.02141987, 0.10488819, 0.00976035, -0.06934667, -0.03592135, 0.07981920, -0.10282624, 0.02591004, -0.16842882, -0.00426634, -0.13142224, -0.05774833, -0.11277509, 0.11838832, 0.06863461, 0.08828095, 0.18625750, 0.02064567, -0.01403310, -0.07964846, -0.01274673, 0.01928488, 0.01662710, -0.19576573, 0.01100495, -0.02623201, 0.16658576, 0.24942894, 0.06815326, -0.04167142, -0.06675422, -0.53203511, 0.03937300, -0.06545511, -0.17737836, 0.00368389, -0.06913134, 0.03188941, -0.05252563, -0.01609786, -0.00915732, 0.00022583, -0.06861543, 0.08460850, 0.04278791, 0.14793590, 0.02831031, 
bias
0.21396875, 0.86800802, 1.26382351, 1.36666965, 0.91164768, 1.34551847, 0.94030142, 1.04802907, 1.40431535, 1.18892074, 0.59067762, 1.39244270, 
layer5
kernel
-0.01078602, -0.03088099, 0.11122651, 0.05544150, 0.79198223, -0.41110528, 0.03953728, 0.35944232, 0.15224086, 0.10190884, 1.20949829, -1.39440501, -0.10305950, -1.53048360, 1.71939266, -0.04127383, -0.10180878, 0.12517227, 0.12628561, -0.03619407, -0.03504345, -0.16423589, -2.07612252, 0.17053401, 0.35947797, 0.00762034, -0.01632064, -0.03418623, 0.79455984, -0.10587734, 0.24965940, 2.14825439, 0.31587273, -0.14210275, 0.20151880, -0.16281439, -1.45275736, 0.22939159, -0.69002604, -1.02864373, 4.03379154, -0.81524056, -1.19492316, -0.78292716, -2.41812062, 0.23459555, 1.83267605, 0.66433251, -1.21142995, -2.55913305, 0.61974311, 0.53206724, -0.21806239, -0.14842270, 0.10410636, 0.64237541, 0.30249169, 0.00615210, 1.35761726, 0.37775508, -0.55800366, -0.96580023, -0.08025698, 0.07545470, 0.02451373, 0.01555380, -0.20045401, -0.73479116, -0.08843559, 0.09040083, -1.02109492, 0.34877756, -0.28870729, 0.35760680, 0.02168353, 1.75724256, -2.66574073, 0.55637884, -1.43164659, 2.04259634, -0.09717576, 0.23886923, 0.06965435, -0.12371372, 0.01293241, -1.28715527, 0.51425350, -0.58043706, 3.06726360, -0.80333096, -0.35937744, -1.53858459, -0.58398831, 0.81220907, 1.91240132, 0.02885348, 0.04790529, 0.05359577, 0.08097022, -2.17662692, 2.37599874, -0.07962294, 2.42355537, -2.06871033, -0.04698496, -0.03103751, -0.12620778, -0.03452423, 
bias
0.35056347, 0.01918413, 3.42461348, -2.85424805, 0.98896796, 0.25596958, -0.62056345, 2.64561033, -0.36030182, -1.10150969, -0.23223400, 2.54230571, 
layer6
kernel
-0.31643790, 0.12080638, -0.56287807, -0.33502349, -0.83611053, 0.02754651, -0.06390308, 0.54018921, 0.34733343, -0.12358215, -0.20480363, -0.27057734, 0.07154872, -0.00090956, 0.19979249, -0.21945792, -0.32155085, 0.33556768, 0.08357811, -0.14801380, 0.12855758, 0.07447761, 0.55858213, -0.04952971, 0.10330215, 0.11895400, -0.12908165, -0.22336099, -0.08884722, 0.07678609, 0.01366084, -0.03365146, 0.09584451, 0.05901665, -0.04750794, -0.01695232, 0.33382311, -0.00883907, 0.01426328, 0.17524049, 0.21222089, 0.02811011, -0.00720452, -0.08936931, 0.07616798, 0.43010545, -0.19389726, 0.00869852, -0.33288610, -0.14417429, 0.39676562, 0.01736963, 0.00152004, 0.23795757, 0.03747514, 0.24215682, -0.01694016, 0.37258810, 0.15880805, -0.01052994, -0.03154019, -0.04798815, -0.18264148, -0.41296414, 0.14805727, 0.26685098, 0.21303056, -0.40662029, -0.12227259, -0.04074900, 0.22326258, -0.05965265, -0.19215932, -0.04348179, 0.00183736, 0.09437449, 0.02420027, -0.01251823, 0.20055400, -0.25118437, 0.02733188, -0.10696650, 0.05318813, -0.01000147, -0.51857656, -0.06707060, 0.22716634, -0.17846948, 0.18360899, -0.23320527, -0.58693206, 0.08338855, -0.09790766, 0.11043523, 0.06257354, 0.00653681, -0.31029564, 0.03622156, -0.23385143, -0.01169728, -0.15721896, -0.05592100, -0.05893357, 0.13208276, 0.63264155, -0.10882942, -0.05540321, -1.26377690, 0.09478448, 0.01930978, 0.19656071, 0.54298246, 0.31449714, -0.13396470, -0.21305069, 0.41633931, 0.00400501, -0.09227800, -0.08343936, -0.01567374, -0.10259803, 0.29783732, 0.12067173, -0.02624475, -0.05484341, 0.03920478, -0.02758404, 0.05811724, -0.10546601, 0.00783284, -0.00032595, -0.00465371, 0.03080078, 0.12789313, 0.17740889, -0.24153586, -0.30016106, -0.14530031, -0.24406125, 0.26047629, 0.31314880, 0.11806215, -0.24352008, 0.95026952, 
bias
1.77467942, 1.15353608, 1.61839879, 0.29167068, -0.07952583, 1.96415663, 2.27711797, 2.11273456, 4.04665661, -0.58560467, 0.94385481, -2.81798935, 
layer7
kernel
-0.58864832, 0.22107606, -0.02293759, 0.81885660, 0.97790956, -0.81124640, 0.35615695, -0.38412440, -0.56239313, -0.14830020, 0.17582406, -0.20406683, 0.06706373, -0.56156892, -0.32391885, 0.14922450, -1.15189409, -0.27113056, -0.15506516, -0.62066925, -0.30236685, -0.31850669, -2.39768744, -0.54017425, 0.06767501, -0.27580759, 0.14219414, 0.16416915, 0.26995268, 0.13389912, -0.18808356, 1.36936891, 0.38198411, 0.05297256, 0.06538758, -0.00240188, 0.18780482, 1.23998904, -0.97822112, -0.47956696, 0.28358188, 0.84870058, -0.27420866, -0.44684595, 0.29943112, 0.06420366, 0.62530744, 0.17848164, 0.22346942, 0.52312416, 0.22199997, 0.15101424, 0.80028504, -0.28236043, -0.11390483, 0.28261453, 0.52296573, 2.03413749, -3.96107054, 1.56683564, 0.38140076, -0.53121227, 0.50990880, -0.35119259, 0.01002114, 0.25809294, 0.40162155, -1.42856240, -0.27852312, 0.07816492, 0.04166856, -0.34783065, -0.16825928, -0.25810769, -0.06382796, -0.21172202, -0.68269551, -0.56628650, -0.06538474, -0.71726233, -0.41810650, 0.44692728, 1.18638873, 0.37785670, -0.10306413, -0.33641434, -0.86243421, -0.02014559, -0.63490760, 0.11267985, 0.50392413, -0.33274904, -0.76260704, -0.13914835, 2.85511303, 0.25456810, 0.33302337, 0.30559146, 0.22823349, -0.12465921, -0.04214069, -0.02925504, -0.06174199, 0.50501668, 0.41872063, 0.07848913, 0.52549946, 0.20230889, 
bias
0.12656815, 4.09858608, 7.05211735, -1.22101378, -1.06987453, -1.18087840, -1.07394445, 2.82588339, 1.84805846, 0.56274879, -3.35438871, 0.46297449, 
layer8
kernel
-0.01650545, 0.01804951, 0.16129196, -0.35154831, -0.30866963, 0.38817975, -0.07794831, -0.20388666, -0.00146087, 0.17336045, -0.28467461, -0.07809030, 0.05290027, 0.16485631, 0.69089699, 0.10533772, -0.47874051, 0.32971263, -0.01332920, -0.09608133, 0.23344617, -0.50021535, -0.27676606, -0.12329512, -0.01139789, 0.04489155, -0.13196594, 0.39029777, -0.06872211, 0.04909157, 0.20647068, 0.05189158, 0.02439361, 0.01508052, -0.11699194, -0.11650497, -0.00541475, -0.22131516, -0.02392917, 0.21497980, 0.32922742, -0.35393530, 0.07433486, 0.35203472, 0.02355961, 0.04553538, 0.12755187, -0.01034775, 0.11684223, 0.17752774, 0.06467082, -0.15008339, 0.03643395, -0.05506983, 0.03344496, -0.05316775, -0.22100392, -0.00299748, -0.09107354, 0.19401246, -0.01990619, -0.23661368, -0.09762616, 0.47255751, 0.02905341, 0.59513444, -0.13639195, 0.04512908, 0.20596944, 0.03508179, -0.08665787, 0.00546321, -0.02693881, -0.29129434, -0.05843193, 0.19310319, 0.40478802, -0.02326119, 0.07919963, 0.45433903, 0.30222473, -0.17834719, 0.47875017, -0.24666201, 0.32646430, 0.26864183, -0.33178130, 0.14050193, -0.00154006, 0.09902927, 0.00630149, 0.24697502, -0.07164668, 0.23740441, 0.06529950, 0.33124959, 0.03914901, 0.02888630, 0.33386105, -0.59767729, 0.13707536, -0.09121612, -0.51528853, 0.16606931, 0.10090470, -0.03950785, -0.32926795, -0.15788786, -0.02543581, -0.30216205, 0.01051304, 0.07528488, 0.22410779, -0.06250306, -0.00288123, 0.16224381, -0.04222259, 0.03534171, 0.18303557, 0.15730152, 0.29478660, -0.11109495, -0.24407312, -0.04029291, 0.02674615, 0.02815004, 0.08249625, 0.15352987, -0.24893606, 0.07890694, 0.01356123, 0.40756044, 0.10701660, 0.11066171, -0.30674976, -0.03862412, 0.25104505, -0.58022624, 0.47442469, 0.22674434, -0.02355300, -0.22749206, 0.28674841, 0.17440435, 
bias
0.74339086, -0.94396293, 0.66269064, 0.89051569, 0.89666587, -0.73523563, 0.36719590, -1.63087881, 0.20728630, 0.98829591, 0.76434678, 0.78306955, 
layer9
kernel
-0.06669840, -0.17193039, 0.08022927, -0.05467504, -0.32503521, -0.17546017, 0.12486646, -0.42328113, -0.98893064, -0.11575818, -0.31078228, 0.07104023, 0.06064592, -0.78906995, 0.21775699, -0.15254954, -0.11545906, -0.71967489, -0.28978512, -0.17089197, 0.31876361, -0.48884311, 2.20561671, -1.07355905, 0.40461585, -1.63687968, 0.35695025, 0.24757165, 0.39980748, -0.94582164, -0.09561843, 0.85161632, 0.54186916, -0.23306403, -1.31133842, 1.27064168, -0.05724365, 0.54521716, 0.99901074, -0.26741406, -0.35655209, 0.23562358, -0.81076121, -0.80577445, 0.32476160, 0.33541274, 0.03025992, -0.20963296, 0.58376771, 0.00247437, -0.11015745, 0.77924711, -0.05507873, 0.07684316, -0.35949087, 0.11734052, 0.44020766, 0.22709125, 0.42045012, 0.54742843, 0.17721550, -0.11191924, -0.25299290, -0.35223323, -0.28969625, 0.26047337, -0.08109352, 1.21956861, 0.07982720, 0.19043583, 0.92188478, 0.17319433, 0.36221850, -0.99468154, 1.12791133, 1.45190203, 0.40423131, -1.44887400, -0.36240777, 2.71758509, -0.60142654, 0.10649748, -0.76438725, 0.01561622, -0.26451075, -1.42794847, 0.12233032, 0.24229752, -0.33461633, 0.54383034, 0.47053316, 0.77624929, 0.37116456, -0.11687227, -0.01746289, 0.16883965, -0.15698935, -0.51619488, -0.09306294, 0.18131529, 0.38527927, 0.00483251, 0.09525029, 0.84152442, -0.04007559, -0.04746787, 0.34551823, -0.28512174, 
bias
2.76667070, 2.05422688, 0.27306473, -1.04666650, 1.20734465, -0.56903279, -0.49010694, -0.32648814, 0.13790765, 3.35689640, 0.56541747, -0.66322589, 
layer10
kernel
0.55653703, 0.19748507, 0.29823747, 0.27489716, 0.10107657, -0.46525046, 0.63537550, -0.24675909, 0.34880817, -0.28786400, -0.23340324, -0.13978261, 0.20802039, 0.26559746, 0.08056147, 0.65842164, -0.33664012, -0.15961385, 0.06088543, 0.08474045, 0.49776307, -0.22067341, 0.22763838, -0.71135545, 0.52200574, 0.23864746, -0.03282114, 0.34173861, -0.02536341, 0.17542581, -0.10216560, 0.13349165, 0.03787603, -0.12010688, -0.12046286, 0.03958472, 0.30393258, 0.56124210, 0.71700537, 0.15346740, 0.15505682, -0.32494825, 0.24406439, -0.11947146, 0.28485951, -0.15125987, -0.07081752, 0.11399679, 0.07739741, -0.22849086, 0.20363086, 0.25390327, -0.21467975, -0.27776885, -0.57189006, 0.21324340, -0.70757031, -0.34560898, -0.43134829, -0.64702243, 0.29412499, 0.19703652, 0.17225376, 0.10716499, -0.16231342, 0.03887624, -0.05344632, -0.02079981, 0.03717413, -0.18600683, 0.34232882, 0.21787037, -0.31417876, -0.17670712, -0.07581591, -0.17139705, -0.11151133, -0.07950345, -0.06401577, -0.04384490, 0.08702604, 0.21741760, 0.20119241, -0.30680367, -0.34631878, 0.15112995, 0.00634463, -0.01962308, 0.09025127, -0.46122915, -0.18546413, 0.05795134, 0.45130596, -0.83275276, 0.49774644, -0.11133802, -0.01577082, 0.01709304, 0.03761619, -0.02065728, -0.38447842, 0.15015814, 0.17185020, 0.35289845, -0.18304116, -0.36822852, 0.12057108, -0.00424691, -0.13617548, 0.25296381, 0.10965384, -0.07138357, 0.26754296, -0.34276518, -0.12547377, -0.47459796, -0.04102325, -0.11663322, -0.46343094, -0.13617548, -0.04683717, 0.31198448, 0.18782257, 0.39870828, 0.44894174, -0.05544636, -0.26222494, 0.47674391, -0.06279182, -0.03968916, -0.17850251, -0.17945032, -0.11719970, 0.04350707, 0.00079223, -0.03099740, -0.06361847, -0.27351516, 0.18790329, 0.21255361, 0.12657271, -0.20901105, 0.54201168, -0.08184790, 
bias
-0.58544147, -0.14482906, 0.00215036, -0.74195957, 2.92880678, 0.00146961, 1.05539978, 1.06663132, 1.54803872, 1.62761796, 0.47448549, 0.62248814, 
layer11
kernel
0.21283887, -0.50539559, -0.33512446, -0.35447347, -0.18949109, 0.06175552, -0.08281367, 0.69295174, 0.69501567, -0.14986886, 1.26610184, 0.36994106, -0.09515604, -0.04902787, -0.30248481, 0.13018140, -0.09546127, 0.36200503, 0.63162732, 0.21128620, -1.13624263, 0.15378752, 0.74971420, -0.47989947, 0.46136257, 0.49054101, -0.68689471, 0.04603057, -0.24665438, -0.33149323, -0.13329209, -0.44503838, -0.25908765, 0.01804426, -0.14499401, -0.07976499, 0.87973654, 0.76997274, 0.02891463, -0.30977786, 0.86022300, 0.22156027, -0.72037578, -0.79395819, 0.07038096, 0.66084200, -0.89714307, -0.37267482, 1.56279123, -0.92597979, -0.63841343, 0.43895927, -0.26814166, -0.20586230, -0.36569241, -0.78042811, -0.14926220, 1.32097054, 0.20283668, -1.25593483, 1.54273152, -0.24361725, -0.35049966, 0.53804022, -0.26317185, 0.07843276, -0.08786544, -0.38900384, -0.60293710, 0.88440835, 1.06476128, 0.42975304, 0.04634858, -1.55248260, 0.28451794, -0.58149940, -0.72794533, 0.69678658, -0.11908469, 0.38987333, 0.85530651, 0.03464176, 0.02474411, -0.32132226, -0.38466719, 0.03729177, -0.16244909, -0.34150070, -0.44443619, -0.26206410, -0.30652809, -0.97200966, -0.63980383, 0.71683705, 0.40362206, 0.37660694, 0.20756178, 0.22361037, 0.32471648, 0.58849502, 0.16937287, -0.04458560, 0.67050225, 0.34550202, -0.48272434, -0.05431231, -0.26745537, -0.36879954, 
bias
0.48368618, -0.93883604, -0.34166953, 2.28202558, -0.53653765, -0.15254015, 0.03330428, -0.58220708, 0.60955292, 2.53027344, 0.66378045, 0.46288511, 
layer12
kernel
0.11954984, 0.16109979, 0.06956241, 0.20759973, -0.06296242, -0.00301406, 0.11032485, 0.04649994, 0.02994371, 0.01306873, 0.25244966, 0.26174966, -0.13657482, -0.30344960, -0.30149961, -0.01802810, -0.31319958, -0.43439943, -0.31559959, 0.04488744, -0.06438742, 0.11564985, 0.17084977, 0.13387482, 0.20729972, 0.09374988, -0.20549972, -0.04897493, 0.08482489, -0.07196241, -0.05887492, -0.02450622, -0.33509955, 0.14272481, 0.04424994, 0.24089968, 0.25064966, 0.02696246, -0.09952487, 0.02043747, -0.04766244, 0.01902185, -0.05418743, -0.10792486, 0.12014984, -0.09869987, -0.09202488, -0.00413671, -0.25211784, 0.21990721, -0.04359372, -0.12238055, 0.02766238, 0.06064349, -0.08435410, -0.16910586, -0.11681328, -0.03735540, -0.11581913, -0.17029884, 0.04841537, 0.04317120, -0.07307044, -0.08579563, 0.06432187, -0.00452651, -0.16333976, -0.00345469, -0.04652648, -0.18958546, 0.01258849, 0.09737754, -0.06650901, -0.03166385, 0.23084292, 0.16741580, 0.04553232, 0.32508886, -0.10657348, -0.01519815, 0.09787461, -0.02582319, 0.00010320, -0.17010002, 0.08624300, -0.12566127, -0.04697385, 0.18371995, -0.02476690, -0.06511719, 0.18958546, 0.09628396, 0.13560282, 0.12367295, 0.13500632, -0.00232850, -0.09104782, -0.05043399, 0.03479328, -0.04900324, -0.07628507, 0.12057333, -0.04812528, -0.14073393, -0.03703696, 0.07095227, -0.01481966, 0.05615700, 0.15946376, -0.05166964, 0.04419071, 0.10002254, 0.01313690, 0.04539384, -0.02567223, 0.12616627, 0.19952480, -0.06145728, 0.08330876, 0.07036696, -0.05010882, -0.13449064, -0.02144502, 0.04740990, -0.04236976, 0.15048905, -0.06679008, 0.02572101, -0.00014607, 0.03638661, -0.03328123, -0.04552391, 0.00721879, -0.00328016, -0.05723006, -0.06646492, 0.03570376, -0.05101930, -0.02825734, 0.03941070, -0.03459817, -0.01180370, 0.13345009, 0.01980290, 0.06101053, -0.08929355, -0.12379885, 0.17196080, -0.02909111, -0.08266725, 0.09721281, 0.00903542, 0.11030380, 0.10351588, 0.12452613, 0.16808198, 0.13769794, 0.02921233, -0.01052533, 0.01264655, 0.00811622, 0.05709131, 0.03490934, -0.07567730, 0.04783872, 0.07022271, -0.03402044, 0.03290932, -0.05834384, 0.01999004, -0.10779873, 0.02511129, 0.04577810, -0.03569722, 0.08363695, -0.05555595, -0.09333399, -0.07410153, 0.00399245, 0.08238441, -0.02125267, -0.04046493, -0.04549527, -0.06727320, 0.05810142, 0.00076074, -0.08994003, -0.00854046, -0.13583934, -0.13430397, -0.13446559, -0.13899088, -0.09468501, 0.06079368, 0.08077727, 0.10437828, 0.09545767, 0.07677353, -0.08471077, -0.18262687, -0.05450710, 0.14863017, 0.01359165, 0.17742904, 0.12172784, 0.06226874, -0.02044016, 0.11856698, 0.15635671, 0.17771000, 0.14272992, 0.03880821, 0.01066787, 0.04959022, -0.07140008, -0.02388198, -0.01234487, -0.03972134, -0.11449300, 0.03908918, 0.01638374, -0.01197611, -0.07698425, -0.13900715, -0.05808939, -0.07874028, 0.15424947, 0.09152416, -0.11575734, -0.00862649, -0.07368292, -0.22210237, 0.07333171, -0.14891115, -0.05520951, -0.08147968, -0.17307408, -0.25890872, 0.04973070, 0.17110734, -0.08352186, -0.09929476, -0.09755602, -0.04542471, -0.04436905, -0.01391772, -0.04859171, 0.12047019, 0.09575517, -0.02533600, -0.02272788, -0.06663119, 0.02224662, -0.15425152, 0.17312932, 0.06337105, 0.06088712, 0.05526725, 0.09165670, -0.03865603, -0.07805723, 0.02937237, -0.00641162, -0.03250832, 0.01235751, 0.02420271, 0.02384565, 0.09538259, -0.00019600, 0.07749835, -0.00210551, 0.01609892, -0.03073853, 0.09898427, 0.07476603, -0.07520072, -0.07153694, 0.12233313, -0.03676204, 0.08892439, 0.00193377, 0.07724996, 0.05952097, -0.14282548, 0.02601908, -0.02527390, -0.06899092, -0.08563319, 0.07577755, 0.01246388, 0.11483813, 0.00739044, -0.13607289, -0.08848999, -0.07400206, -0.06413039, -0.56133616, 0.45196652, -0.20254691, -0.06253245, 0.11419896, 0.17399718, 0.01471874, -0.19601314, -0.01103462, 0.11434100, 0.00126947, 0.15965128, -0.04442254, 0.06267449, -0.14246462, 0.03449760, -0.16732137, 0.21319979, -0.13522066, -0.15965128, 0.04314420, -0.20055838, -0.18777491, -0.13948181, -0.26376551, -0.20382527, -0.06832052, -0.12655631, 0.05631827, 0.38037914, 0.02432409, -0.37299311, 0.17428125, 0.17484941, -0.34771028, -0.05642480, -0.35964149, -0.15084490, 0.28734389, 0.23223296, -0.04712869, -0.08192757, -0.11466104, -0.05476442, 0.12843038, 0.06728200, -0.00735799, -0.02248470, 0.00964636, -0.20128269, -0.03677039, 0.08199015, -0.04221554, -0.04672187, -0.17774965, -0.30267510, -0.11866666, 0.06865893, 0.11365964, -0.24947539, -0.13994655, 0.04105766, -0.01039742, -0.08405556, -0.05495218, 0.16235302, -0.05642299, 0.11115612, -0.01123453, -0.04706610, -0.05257384, -0.19227004, 0.03417300, -0.01176653, -0.07241420, 0.02060707, 0.07141280, -0.03874191, -0.04184001, -0.04972609, -0.07504290, 0.04418706, -0.01267405, -0.15521801, -0.06978551, 0.13881998, -0.03285865, -0.08649648, 0.04565029, -0.02657369, -0.14022896, -0.06295127, 0.06677569, -0.00437077, -0.10149906, 0.09372880, -0.20348376, 0.02983660, 0.01042611, 0.08911520, -0.08377314, -0.08104141, 0.06823262, 0.09039001, 0.12675241, -0.01167057, 0.06471172, -0.08954014, -0.03520900, 0.08243763, 0.11740381, -0.00867325, 0.02628534, -0.02614876, 0.04082423, -0.02719592, 0.02704416, -0.14217153, 0.13233729, -0.04561994, -0.10398797, -0.10155976, -0.01107111, 0.04917119, 0.06950743, 0.11540054, 0.15759064, -0.06610794, 0.01271015, 0.16487525, 0.00393445, 0.12298869, 0.03478407, 0.00107562, -0.01903107, -0.04646981, -0.12600659, -0.36834407, -0.35388613, -0.04990773, -0.26335710, -0.27559078, -0.19195709, -0.00184026, 0.05146474, 0.26335710, 0.01746075, 0.11015846, -0.24022439, 0.05057502, -0.07507012, 0.03403179, -0.30139264, -0.15881501, 0.12634024, -0.41839081, 0.04804488, -0.07206732, -0.37190294, -0.30695340, 0.06923134, 0.35410854, -0.22287485, -0.01337360, 0.30339453, 0.12978791, -0.04771123, 0.26335710, -0.02541263, -0.49512917, 0.05496801, 0.13101126, -0.06761872, 0.29560947, 0.28826928, -0.28737956, 0.14380099, -0.30450666, 0.07651592, -0.15425520, -0.30962256, 0.15825894, -0.46220952, 0.26713842, 0.08905109, -0.10848209, 0.09531321, 0.04602201, 0.00692978, 0.08265083, -0.16502540, -0.09476068, -0.07293533, 0.04556156, -0.04197005, 0.09899682, 0.06298960, 0.12376904, -0.14006899, 0.01328399, 0.00712547, 0.05995063, 0.09964145, 0.06671925, 0.10525894, -0.00988241, -0.00612399, -0.01324946, -0.04390394, -0.02138792, 0.04116426, 0.14320005, -0.05120207, -0.02037493, -0.02214766, -0.09001803, -0.02693634, -0.11492840, 0.02108862, -0.01182206, -0.02408155, 0.03999011, 0.16622257, -0.04908400, 0.00014191, 0.15728983, 0.12818937, -0.05359642, -0.14531812, -0.03775693, -0.02965300, 0.03283011, 0.07908125, -0.29022354, -0.25480011, -0.21518180, -0.11007676, 0.09034529, -0.13703275, 0.10246383, -0.11970945, -0.05169801, 0.03025751, -0.09057833, 0.03561764, 0.18814814, 0.02318836, 0.12009786, 0.01562399, 0.18892497, 0.11551456, -0.10347371, -0.00034229, -0.21114229, -0.20228644, -0.15754105, -0.09578309, -0.28913599, -0.13617823, 0.14977275, 0.09555005, 0.10510505, -0.00049705, 0.11116432, 0.00990943, -0.11147505, 0.06346698, 0.11737896, -0.06187448, 0.15194787, 0.18566228, -0.27903721, -0.05931094, 0.20026667, 0.01397322, 0.12002017, 0.10821237, 0.03971541, 0.08599504, -0.17121325, -0.38514191, 0.04299674, 0.04648411, 0.12044191, 0.01637363, 0.15939839, -0.27541730, -0.40895811, 0.07765781, -0.20396870, -0.09271305, 0.14834088, -0.13847417, -0.37153265, -0.17003062, 0.02432654, 0.11567867, -0.15361446, -0.42324784, 0.02660184, -0.48959294, -0.32151866, -0.32883361, -0.13575232, -0.05375656, -0.11976144, -0.06256004, 0.32032785, -0.01627794, 0.13634773, 0.07425550, -0.02017997, -0.09483950, 0.00867590, -0.03515016, 0.12699136, -0.03661740, -0.02585758, 0.06383591, -0.09016132, -0.05877497, 0.05409679, 0.05592553, -0.15208343, -0.00259294, 0.08518543, 0.08390956, 0.02847311, 0.00886727, -0.00420655, 0.06968735, 0.05512448, 0.04621999, -0.06140826, 0.09565631, 0.00260025, 0.23181467, -0.08636466, 0.12591372, 0.08189753, 0.02878326, -0.00324984, 0.06066373, 0.07814513, -0.00234152, 0.00634334, 0.07993198, -0.05286113, 0.09899177, 0.03263989, 0.10048082, 0.03719637, 0.06170606, 0.03359288, 0.04085942, 0.07415449, -0.00046556, -0.04913852, 0.02858968, 0.12889181, -0.06551802, 0.01639440, 0.06861524, -0.00753457, -0.00236944, 0.01293981, 0.04112745, 0.03686878, 0.00354951, 0.02684750, 0.10196987, 0.00747501, -0.00570305, 0.06331423, -0.07617959, 0.08118279, 0.27130407, 0.04823989, 0.02625732, 0.26384270, 0.25617406, -0.04463874, 0.03344667, -0.04709996, 0.02388678, -0.15368371, 0.04598594, 0.14135170, -0.10192038, 0.12445997, 0.14124806, -0.10585833, 0.01803167, 0.04469056, 0.25410146, -0.14197348, -0.17513517, 0.20021370, 0.05002752, -0.00285631, 0.10394117, -0.03336895, 0.00387966, -0.02813562, 0.03580426, -0.06798146, 0.16114508, -0.03531202, -0.03303215, -0.03896498, 0.03878363, -0.00003426, 0.00754558, -0.01361443, 0.05228148, 0.00153017, -0.01568703, 0.00988374, 0.08896659, 0.03865409, -0.01299912, -0.08860389, -0.05513131, -0.03494931, -0.55677396, 0.10289972, -0.10492053, -0.22924083, -0.04655949, 0.14808506, -0.22051093, -0.29051185, -0.17686141, -0.06547429, -0.26399881, -0.04728699, 0.06054351, -0.09538230, -0.12989776, -0.04134580, 0.17427477, -0.08479325, -0.25526890, -0.10136390, -0.06325140, -0.26270548, -0.01903604, 0.05920977, 0.00261695, -0.07093048, 0.31556991, 0.03229257, 0.07804374, 0.01218549, 0.04263912, 0.06418097, 0.18704630, -0.00617358, -0.25268227, -0.06268557, 0.06260473, -0.06793968, 0.07044549, 0.20353612, -0.02477515, 0.18559131, -0.09279566, -0.04841864, 0.06127100, 0.07137506, 0.00073633, -0.11462042, 0.06411519, -0.26596594, -0.02479419, -0.06671567, -0.26184106, -0.09236174, -0.07904551, -0.07550348, -0.00608086, 0.14849617, 0.04622571, -0.03562204, 0.01269974, -0.07859715, 0.15934642, 0.08146665, 0.03080219, 0.18562020, 0.09254108, 0.05416164, 0.08908873, 0.05703113, -0.17163143, -0.17638403, -0.03044351, 0.00785747, -0.08003189, 0.10608149, -0.03824493, 0.19889160, 0.04046431, 0.12231205, 0.00677581, 0.04640505, 0.12562990, -0.00309367, -0.13827360, 0.07904551, 0.10922000, -0.25305325, 0.43687999, -0.20409255, 0.17808779, 0.13387969, -0.04819848, -0.18974510, 0.13020316, 0.00086029, 0.04362979, -0.21978134, -0.17837757, -0.13823520, -0.01505339, -0.27097955, -0.10647745, -0.02756542, 0.05501954, -0.02982853, 0.05435173, -0.13207656, -0.25851390, 0.16576351, 0.04392659, 0.15537547, 0.16902833, 0.08050735, 0.15596907, -0.14268722, -0.09809282, -0.17897117, -0.25777191, -0.26444992, -0.00591748, 0.16754432, -0.03582020, 0.11515889, 0.04904641, -0.15181385, 0.05249672, 0.04359269, 0.08822418, -0.03019953, 0.15136865, -0.12717934, -0.03249974, 0.07375512, 0.09497641, -0.16383430, 0.02029379, 0.05531634, 0.03411360, -0.04722850, -0.09096959, 0.03439185, -0.08369796, -0.09913162, 0.16790818, 0.04435043, -0.02954334, 0.08062426, 0.09054289, -0.07268936, 0.11130115, 0.12667502, 0.17173393, -0.14084449, 0.13446823, -0.00617700, -0.04516517, -0.00861681, 0.04520060, -0.00871422, 0.00148890, 0.07304360, 0.03067689, -0.00542425, -0.03028723, 0.10279948, 0.02098852, 0.03726570, 0.07183919, 0.03237723, 0.07743613, 0.04279179, 0.00443460, -0.02472572, 0.02389326, 0.06050362, -0.10039067, -0.03483918, 0.05968888, 0.09273916, 0.09096798, -0.02183869, 0.22444434, -0.02387555, -0.08607951, 0.15968989, 0.14467025, -0.07077648, 0.19171287, 0.00099076, 0.03797417, -0.05161228, 0.04441202, -0.05103800, 0.04691915, 0.03423000, 0.06728318, 0.00435550, 0.05428704, 0.11440700, 0.07214395, 0.00681786, 0.06022229, 0.08964269, 0.00711206, 0.06114328, -0.02168156, 0.04888904, 0.04446318, -0.00519334, 0.05919897, 0.01309848, 0.04264680, 0.00125676, 0.05190783, 0.00163891, 0.04280029, -0.05786866, -0.08749373, -0.01647543, 0.05812449, -0.13753399, 0.03136471, 0.02510967, -0.12136556, -0.09465695, -0.00561546, 0.03776045, 0.02142573, 0.03673713, 0.05838031, -0.01204957, -0.00633818, 0.06017112, -0.00519334, -0.02629928, -0.03827211, -0.02356191, 0.05909664, -0.02027450, 0.06752811, -0.05902857, 0.17906655, -0.00404944, -0.08766049, -0.12115443, 0.16855016, 0.01325352, 0.29906851, 0.23741084, -0.01366769, 0.17935467, 0.06118947, -0.21724243, -0.31952503, 0.17445663, -0.23510587, -0.39126688, -0.22617416, -0.08009735, 0.24346136, -0.04541491, 0.08946124, -0.04051687, 0.32298246, 0.39011440, -0.35755685, -0.47194049, 0.04880032, -0.38896194, -0.04206551, 0.15198328, -0.55146158, 0.16394025, -0.03010853, 0.00634764, 0.03918431, -0.03320582, 0.02252738, -0.06547526, 0.07037330, -0.15255952, -0.36591232, -0.45263645, -0.23841925, 0.11395144, -0.07901689, -0.49758315, 0.04431108, 0.11252028, 0.21138451, 0.09274744, -0.02053744, -0.08499478, 0.03547376, -0.06739125, -0.02475162, 0.14402881, -0.05686471, -0.05668689, 0.01276700, 0.09545020, -0.17695984, -0.03911893, -0.05270388, -0.14566469, -0.03047721, 0.07482386, -0.08179414, 0.03433576, -0.04406215, 0.00606344, 0.02919695, -0.00725478, 0.05974528, -0.10384300, 0.08364340, 0.00873953, 0.03074393, -0.05135249, -0.16686004, -0.10555000, 0.05465982, -0.09509458, 0.05576226, 0.10014448, 0.09139606, -0.02277789, 0.00102020, 0.09111156, 0.09054255, -0.07880688, -0.02875242, 0.03773199, 0.01472295, 0.00752595, -0.13716249, 0.03510923, 0.00729926, -0.07618521, -0.03596422, -0.04427765, -0.10041603, -0.18133099, 0.03208947, -0.05919453, -0.09008338, -0.11693375, -0.01800030, -0.06923613, 0.00868180, -0.05370075, -0.05886708, 0.00880005, -0.07502097, -0.03090704, -0.03541848, -0.13577995, -0.05963112, -0.01641766, -0.06166855, 0.11053041, 0.25380516, 0.10179858, -0.07851370, 0.12821236, -0.08870083, -0.00443641, 0.12799406, -0.07240142, 0.06381512, -0.06788997, -0.03203490, -0.00621688, -0.05781199, 0.14611261, 0.03496370, -0.08506257, 0.06552510, 0.07207397, 0.06472468, 0.08273409, 0.01117856, -0.07545756, -0.18862580, 0.10147113, 0.05491120, -0.05933801, -0.10492467, 0.18649088, -0.06313690, -0.17908148, 0.05478562, 0.13399716, 0.03971565, 0.05186582, 0.26573381, -0.01247197, -0.04090869, 0.18397923, 0.02417474, -0.08370113, -0.14291355, 0.03993542, 0.23107287, -0.15421604, 0.05136348, 0.11409223, 0.05528795, 0.00093746, -0.16740225, -0.13588090, -0.07478473, -0.01129463, -0.14881596, 0.00614572, 0.12081093, 0.22969146, -0.04159940, 0.00480355, 0.01050973, -0.06831720, -0.05682635, 0.08941516, 0.13223898, -0.02167878, -0.01120829, -0.04643435, -0.01441851, 0.10517584, -0.05236815, -0.14391822, 
bias
0.94535702, 1.05193090, 0.79671276, 1.44671023, 1.46038103, 0.66505158, 1.82404602, 1.93280435, 0.78359365, 1.24475861, 0.31798702, 2.03775454, 1.06029415, -0.19428110, 0.32051343, 1.58839869, 1.21260583, 1.58765078, 0.01414710, 0.78211892, 2.64068079, 0.23951721, 2.02247286, -0.27528870, 
layer13
kernel
0.24737856, 0.39069057, 0.24973035, 0.38539904, 0.49181738, 0.27368918, 0.26869163, 0.27501205, 0.11442912, -0.33057597, 0.35872060, 0.27873060, -0.71151602, 0.41970065, 0.49623430, -0.54017943, 0.11584972, 0.31576300, 0.77418518, 0.10229328, -0.92308199, 0.86680603, -0.05417538, -1.33577228, 0.36696613, -0.12662090, -0.64678270, 0.19432107, 0.08734953, 0.22850132, -0.05419785, 0.06266379, 0.04774950, -0.71525341, -0.99882293, -0.49403122, 0.09068041, 0.21737015, 0.10618808, 0.25022539, 0.43789440, 0.20895922, 0.17715536, 0.30726203, 0.16191053, -0.29338133, -0.55233723, -0.29758888, -0.46015352, -0.85834122, -0.58905768, -0.31843543, -0.53818452, -0.38499129, -0.42469019, 0.03975254, 0.18188575, -0.51221412, 0.26679891, 0.41051728, -0.08659154, 0.43612796, 0.39584705, -0.22607560, -0.35315534, -0.21589518, -0.32156095, -0.53148830, -0.29330149, -0.17947383, -0.28329659, -0.15595354, 0.12976804, 0.26118079, 0.21628007, 0.21414194, 0.52861154, 0.34933755, 0.16109987, 0.34769282, 0.26035845, 0.23199828, 0.31761670, 0.19999291, 0.27732566, 0.54587829, 0.43312845, 0.08862399, 0.34929714, 0.30705655, -0.37870440, 0.22204167, 0.59612018, -0.64392084, 0.17593718, 0.59365308, -0.37623727, -0.23391473, 0.16360153, 0.15374848, 0.28440693, 0.10695788, 0.21180658, 0.37055051, 0.19748633, 0.10168492, 0.21413778, 0.16562653, 0.26243880, 0.49858364, 0.30000159, 0.41769838, 0.78631473, 0.57145548, 0.27646226, 0.46252334, 0.28723025, -0.19899179, 0.25220147, -0.36095461, 0.41074145, 0.59899795, -0.98764646, 0.47795367, 0.29949898, -0.69390410, 0.18869837, 0.26219377, 0.14282009, 0.30795932, 0.50499922, 0.25362682, 0.17596066, 0.26354647, 0.13459131, 0.59872788, 0.62351060, -0.01043761, 0.53423649, -0.06692037, -0.78797770, 0.04720685, -0.52381647, -0.41764507, -0.00475790, -0.44409770, -0.36618581, -0.02696481, -0.36358878, -0.24996728, -0.21214755, -0.57589865, -0.07815535, -0.20762323, -0.31550100, -0.17144269, -0.31483716, -0.50254446, -0.22106646, -0.15119486, -0.28811666, -0.16521896, 0.44855651, 0.68577391, 0.33587825, -0.16182898, 0.16479421, 0.13523188, -1.03009856, -1.34063768, -0.86764055, -0.49328953, -0.47193888, 0.69745535, -0.12254398, -1.11913121, 1.56215763, -0.26554900, -0.90295559, 0.82422501, -0.64937651, -0.18176568, 0.30153182, -0.37174815, 0.23965679, 0.36627027, 0.25870484, 0.40760329, -0.02354550, 0.49270815, 0.46460795, 0.17760409, 0.76607114, 0.50689465, -0.11874375, 0.48425081, 0.20393097, -0.31619531, 0.30930272, -0.51926506, 0.18755589, 0.87181371, -1.09305763, 0.29911795, 0.61139774, -0.59572893, 0.21152921, 0.26526463, 0.46903050, 0.19372107, 0.46657053, 0.71543550, 0.33803815, 0.30708379, 0.44607094, 0.16368918, 
bias
0.48397684, -0.76338536, 1.18276823, 2.02756858, -0.67925668, 3.86066866, -0.99236202, 4.72926903, -0.21908617, 1.02441812, 0.00244351, 0.02952886, 0.84295952, -0.02439531, 0.21837330, -0.01768835, 2.89144731, 4.63705444, 1.24212325, -0.11037567, -0.26491088, -0.26276171, -1.10153699, 0.82064569, 
layer14
kernel
0.25746611, -0.04023747, 0.18672334, 0.04137848, -0.41291228, -0.07966952, -0.04376118, -0.19732805, 0.26015085, -0.07664919, -0.11457107, -0.16350037, 0.12524290, 0.07362887, -0.05792316, 0.32673228, 0.06547398, -0.07463564, -0.02439753, 0.38928661, 0.31840959, 0.12544425, 0.13759267, 0.34310916, 0.03975978, -0.24058105, -0.02594700, -0.01702835, -0.38538271, 0.03775764, 0.03274216, 0.11600310, 0.05779932, 0.04408765, -0.07648601, 0.26452592, -0.04137767, -0.08890335, -0.93837935, -0.11915800, -0.17489450, -0.19010271, 0.06374508, -0.39314860, 0.13436621, 0.33231574, -0.26646739, 0.00994500, -0.08445041, 0.08938365, 0.20819952, 0.02713283, -0.17241262, 0.00095373, -0.08516113, -0.36322036, 0.56924593, 0.32224938, 0.35017654, 0.03674847, -0.14975315, 0.28897089, -0.12358189, -0.38328779, -0.03737558, 0.23328380, 0.11112336, -0.09013618, 0.08854751, 0.15351579, -0.25719747, 0.32425612, -0.18506928, 0.15652919, -0.37160972, -0.13218184, -0.16373777, 0.00121714, 0.10172926, 0.10731959, 0.09238753, -0.10312684, -0.03850706, 0.65200877, 0.01786514, 0.17374150, -0.56344622, -0.10695180, -0.12217809, -0.03887485, -0.11953004, -0.13225539, 0.17403574, -0.17653668, 0.07153413, 0.14203846, 0.40437257, 0.22232793, 0.44362956, 0.18640652, -0.41335294, 0.05994387, 0.08114392, -0.07113724, 0.00837097, 0.01315782, 0.03284244, -0.27941734, 0.21296272, 0.16485366, 0.09506348, 0.07857811, 0.21963383, -0.04358679, -0.07357477, -0.15843913, 0.02864092, 0.24926901, 0.10705867, -0.44388613, -0.27622825, 0.00970978, 0.11351965, 0.10984362, 0.20883416, 0.01118676, 0.15920760, 1.11891699, 0.21110980, -0.25872329, 0.16087057, -0.70124865, -0.11789589, -0.02525090, -0.28095460, 0.18485236, -0.17741276, -0.32979342, 0.01399303, -0.07820340, 0.12682343, 0.31824014, -0.14152759, -0.57696342, 0.13215429, -0.19561239, -0.08964852, -0.16615890, -0.38366821, 0.07221687, -0.10905520, -0.73298830, -0.26310641, 0.57636100, -0.04001553, -0.26551077, -0.25400415, -0.11077260, 0.28096741, 0.04147532, -0.29608056, 0.10776714, 0.12889121, 0.02333524, 0.11283349, 0.05306780, -0.06208418, 0.08930504, -0.64185232, 0.19789653, -0.04951387, 0.20139349, -0.42281505, -0.14154768, -0.08035076, 0.06902535, -0.22539540, -0.16403952, 0.09449758, -0.49561554, -0.23858850, 0.12851353, 0.16340372, -0.03475111, 0.07085332, 0.24494661, -0.06397860, 0.01522969, -0.16849022, 0.04343392, 0.04999073, 0.29803693, 0.10886049, -0.02255854, 0.17860572, 0.18284838, 0.10730830, -0.10047865, -0.01230760, 0.15573673, 0.14124960, -0.00594361, 0.21813491, 0.41702262, -0.04863539, 0.15718545, -0.29698634, 0.06679606, -0.03787352, 0.08376670, 0.04144356, 0.11724234, -0.00424266, 0.24503960, 0.02068298, 0.24917877, 0.28562397, 0.09377335, -0.21754374, -0.05970063, 0.20241480, 0.08816521, -0.12422686, 0.13733427, 0.23958504, -0.01314816, 0.05569015, 0.17241776, 0.80913746, 0.07042783, 0.22654285, 0.09625137, -0.02399763, -0.15728882, 0.47004053, -0.16380991, 0.27388600, -0.11359747, -0.15507165, 0.25093174, -0.55052930, 0.06272174, 0.13407725, 0.08938483, -0.51218522, -0.13103004, 0.06488018, -0.11566702, -0.01869590, 0.06710210, 0.01076046, -0.13293454, 0.38902718, 0.01910855, 0.42889482, 0.29126251, -0.15299535, 0.22270028, 0.23336551, 0.15578862, -0.19756079, 0.20898783, 0.17775393, 0.64905578, -0.09794715, -0.08220565, -0.03171451, -0.02114300, 0.07875898, 0.01548429, 0.20371361, 0.07268872, 0.09640387, 0.37429804, 0.21564835, 0.10118805, -0.01787638, 0.03238326, 0.35063434, -0.01619163, 0.01229484, 0.25309873, 0.00954264, 0.11800986, 0.05576403, 0.04233745, 0.16996711, 0.16904114, 0.13075440, 0.12263647, -0.01653021, -0.03758414, -0.02027933, -0.19681326, -0.05735223, 0.07764705, 0.03606591, 0.53194112, 0.02567062, -0.26968870, 0.21701512, 0.01704145, -0.17140600, -0.01110018, -0.13298528, -0.22754984, -0.20003563, 0.18528704, -0.07739916, 0.36115479, -0.03284352, 0.01014741, 0.31394997, 0.02428252, -0.12904736, -0.07681909, -0.38271722, -0.04983448, 0.00607063, -0.27086166, 0.15175216, 0.05153915, 0.18091296, 0.03859089, -0.17830154, -0.04443030, -0.01097157, 0.06115061, 0.11715093, -0.52112216, 0.05872054, 0.08458079, 0.07841495, 0.07097968, -0.13071577, -0.59830391, -0.38691005, 0.47342142, 0.01479442, 0.20019335, -0.28518313, 0.36126098, 0.07819713, -0.34343702, 0.14389576, 0.08629399, -0.29887715, -0.29539931, 0.48994118, -0.07303471, -0.28866100, 0.11629038, 0.65992075, 0.07363246, 0.33517715, 0.52863216, -0.03757701, 0.15595953, 0.07178486, 0.00632057, 0.05774729, 0.18992113, -0.03411834, 0.25634164, -0.25248685, 0.51831710, 0.35523108, 0.11831152, -0.78281307, -0.09510882, -0.05159450, 0.37924922, -0.36768493, -0.04462627, 0.11075026, 0.27413282, -0.20148541, -0.24581516, -0.00934502, 0.01662366, 0.08013456, 0.50942153, 0.12038716, -0.11920108, 0.41661975, -0.23823561, 0.05036384, 0.16977422, -0.20379592, 0.52996975, 0.07937007, -0.03824309, -0.04018658, -0.23539349, -0.37482402, -0.68745601, 0.34439674, -0.14753889, -0.62292343, -0.13566890, 0.11460386, 0.19209313, 0.14895995, -0.05939172, -0.05830503, -0.14361009, -0.21516436, 0.19827889, -0.02332445, 0.10539722, -0.01024433, -0.14973022, 0.14594916, -0.08228545, -0.00106342, -0.07297458, 0.15152623, 0.21211781, -0.00716039, 0.29303262, 0.17373998, 0.10757133, 0.13526765, -0.00226125, -0.10208879, -0.59627414, -0.03811787, 0.06333286, -0.00957673, -0.01201079, 0.10596438, -0.13744175, 0.24094102, 0.03769073, -0.02701071, -0.11961611, -0.04171029, 0.01315583, 0.04551626, -0.12435415, 0.18253107, 0.03141865, 0.02149595, -0.04699204, 0.03270025, 0.19573545, 0.33741063, 0.03508868, 0.08497404, 0.10446991, -0.09553754, 0.04015684, 0.17165688, 0.04846783, 0.16326822, 0.05429329, 0.35583282, 0.14059246, -0.69961482, -0.12862536, -0.24854738, -0.07427131, 0.49039987, -0.07008701, -0.15348010, 0.07816271, -0.26997098, -0.29055774, 0.06318292, 0.04619466, -0.05259664, 0.27331841, 0.16703722, 0.28218913, -0.23365127, -0.33307022, 0.18226807, 0.11674195, 0.07740954, 0.17004992, -0.33251783, -0.22872224, -0.36582035, 0.31121776, 0.62547839, -0.01085078, -0.08722888, -0.37832990, -0.28011289, 0.19186972, -0.08731341, 0.03144297, -0.14521241, -0.23413178, -0.30073678, -0.37292036, -0.11005039, 0.32643211, 0.22939843, -0.23987941, 0.08866579, -0.28839627, -0.13033618, -0.14529695, -0.31816304, 0.24608652, 0.06006377, 0.16153072, -0.24352069, -0.06986058, 0.09359451, -0.15838175, 0.05076263, -0.53882450, 0.09977584, -0.04391070, 0.04003280, 0.16246375, 0.16083096, -0.10245830, -0.03134396, -0.20270064, -0.19127104, 0.14730203, -0.02695580, 0.13680544, 0.30510062, 0.14520271, -0.72436947, -0.25899905, 0.19498844, -0.10052475, -0.25426847, -0.30541784, -0.17310952, 0.06183011, 0.23312871, 0.16128308, -0.00624584, 0.21598037, -0.05972352, -0.04885798, -0.10244654, -0.06571066, 0.02951066, -0.42604750, -0.03466626, 0.09697681, 0.17089206, -0.19897985, -0.06430627, 0.05920612, 0.03148716, 0.21943446, -0.21056484, 0.19690561, -0.07969356, -0.47434741, 0.07073524, 0.09960586, 0.93663210, 0.02824975, 0.12426341, -0.21340311, -0.31345245, -0.12470689, -0.68721831, 0.09437278, 0.03283978, 0.46867085, -0.06204301, 0.11761119, 0.03851634, -0.14111570, 0.11503900, -0.24923639, 
bias
0.21766481, 2.88855982, -1.20340335, 0.45013845, 0.36692020, 2.30472565, 1.50307596, 2.87204671, -1.41758418, -3.17895985, -0.43994105, -2.46234989, 1.19343400, 2.55961180, -0.16005491, 1.28427100, 0.95199788, 1.84743202, -0.13680363, -0.13900761, 1.53758454, 3.16216087, 2.74834156, -0.00719970, 
layer15
kernel
-0.20873979, -0.02500017, -0.02817889, 0.15405114, -0.13785073, -0.19067387, -0.21305989, 0.10603902, -0.16092403, 0.20559789, -0.09612241, -0.33814666, -0.04570478, -0.13353062, -0.08065839, 0.00535104, 0.23878418, -0.19803770, 0.09995160, 0.15925491, 0.08193478, -0.08704036, -0.16917151, -0.13333425, 0.32793251, 0.08492576, -0.03286511, 0.04530286, 0.09827026, -0.31424585, 0.25539318, -0.13960399, 0.12865466, 0.14302565, 0.27866051, 0.31068730, -0.30849743, 0.08841586, 0.07897206, -0.12078483, 0.04776646, 0.30028546, 0.08889490, -0.01594497, -0.15411186, -0.08164096, 0.12762816, -0.07117066, 0.00431721, -0.03786042, -0.21228039, -0.16136305, 0.05208732, -0.01483529, 0.15593436, 0.26132578, -0.18682173, 0.00241307, -0.15967828, -0.22894084, 0.59678119, 0.03884319, -0.08297468, 0.20834927, 0.31579983, -0.03542687, -0.05517605, 0.35436225, -0.05517605, -0.17764911, -0.00397792, -0.10183468, 0.12784874, 0.16973276, -0.24837512, 0.40741721, 0.02579308, -0.28542635, -0.22318614, 0.05667522, 0.18569554, -0.10697997, 0.28498700, -0.07659209, 0.12506625, 0.15186615, 0.13377988, -0.04741241, -0.12155151, 0.29860663, -0.30929732, -0.07315058, 0.06930632, 0.20077965, 0.76679963, 0.25320789, -0.18856281, -0.40518650, -0.06190349, -0.19195479, 0.17669092, -0.01971584, 0.01757658, 0.13822287, -0.26781163, -0.30836111, 0.44064802, 0.10360933, -0.70491350, -0.26935342, -0.15425764, -0.37835908, -0.37959254, -0.17376149, -0.06013042, -0.46439183, 0.38082597, -0.20829792, -0.26997015, -0.00391956, -0.13379878, 0.03729014, 0.09089720, 0.13761932, -0.08003252, -0.07668954, 0.34862500, -0.18322711, 0.07676914, 0.16173653, -0.53551346, -0.06435236, -0.50463068, -0.00175730, 0.00997919, -0.06311864, 0.19484794, 0.24801724, 0.10092614, -0.21984069, 0.25088266, -0.09821992, -0.48170742, -0.18609253, -0.22936061, -0.23190340, -0.40888232, 0.04403283, -0.18901484, -0.39328647, -0.18884532, 0.27547005, 0.18392923, -0.50381356, 0.18511587, 0.27292725, -0.08899802, -0.39294744, -0.02474993, -0.04403283, -0.44278634, -0.40888232, -0.14638054, 0.11722311, 0.04356665, -0.26631597, -0.01555346, 0.11501934, -0.02205945, 0.02784630, -0.21906680, -0.07152540, 0.97774529, 0.29739752, -0.01155054, 0.05573889, -0.26721334, 0.18841965, -0.08383980, -0.24425115, 0.31887829, 0.13953240, -0.43257821, 0.02965179, 0.04935021, -0.02370292, 0.11888494, -0.08217319, -0.16406862, -0.05948876, 0.42109710, -0.38776490, -0.26507547, -0.01892478, 0.44579318, -0.00999284, -0.22169638, -0.46328199, 0.65188682, -0.08281466, -0.08195736, 0.36520749, 0.64537138, -0.14634019, -0.07385593, -0.28102118, -0.04273614, 0.40635765, -0.20935133, -0.15431303, -0.10913360, -0.03081974, 0.02586886, -0.04106441, 0.09978909, 0.00565279, -0.24293406, -0.16879460, -0.07711069, 0.10590340, -0.11347299, 0.42361361, -0.28835157, 0.05839897, 0.23048316, -0.06331566, -0.05058179, -0.32230857, 0.18053807, -0.03714047, -0.06437682, 0.18478270, -0.17855725, -0.30589601, -0.32372344, -0.01573164, -0.17035097, 0.00704785, -0.25184777, 0.18478270, 0.20329931, -0.11026522, 0.15355143, -0.25804979, -0.14132291, -0.13256839, -0.20510581, -0.17828642, 0.19857466, -0.03689403, -0.12006193, 0.44634137, 0.25943938, 0.05666117, 0.16828126, -0.12742685, 0.01785643, 0.03685929, 0.04891412, -0.01076076, 0.01675344, -0.10019057, -0.13076191, 0.26249653, 0.08633707, 0.27852479, 0.45821822, 0.69855815, 0.13374057, -0.05891511, -0.05629458, -0.09457302, 0.16818181, -0.01826181, -0.28545049, -0.50463903, -0.37810490, -0.12934183, 0.03944832, 0.44548994, 0.10659938, 0.10968786, 0.22517832, -0.04614003, -0.47581321, 0.40431020, -0.44923356, -0.28956845, 0.34021047, 0.34322384, 0.04734772, 0.48304462, 0.05299780, -0.18502146, -0.03107547, 0.09665412, -0.15669571, 0.30269390, 0.32152754, -0.23519422, 0.59966242, -0.34563455, -0.11578909, 0.24167299, 0.20054036, -0.03597221, 0.23685157, 0.16287313, -0.34985328, -0.09514744, 0.11330304, -0.32363689, -0.04651312, 0.19236854, 0.19940640, -0.25119793, -0.06058887, -0.42191148, 0.31435832, -0.10565833, -0.59479052, -0.11928292, 0.20103054, -0.35171321, 0.20824887, -0.08377776, -0.21979819, -0.03924968, 0.03261783, 0.01933159, -0.08598837, -0.08134157, 0.41324946, 0.07511576, 0.12171911, 0.32699043, 0.40425760, 0.23641992, -0.00019939, -0.20102771, -0.20228611, -0.36870810, -0.16123115, -0.29414853, -0.06260487, -0.48668212, -0.50681633, -0.56407309, 0.06138581, 0.15124269, -0.38601097, 0.22304952, -0.04105496, 0.03256083, -0.03020135, -0.61503786, 0.20779155, 0.35140526, -0.40897655, 0.11412019, 0.21569988, -0.06642143, -0.45693600, 0.27084732, -0.01191918, 0.29258031, -0.32164818, -0.15620583, 0.30562010, 0.20551254, -0.19790600, 0.25101599, -0.61232686, -0.07504671, -0.01166450, -0.01764107, -0.09195770, -0.01528949, 0.01786180, -0.22615887, -0.28904870, 0.12014266, -0.16584983, -0.11280777, -0.13638732, -0.03707132, 0.45994785, -0.21464233, -0.12472891, 0.03767021, -0.00499824, 0.18573588, 0.36827767, -0.18493736, 0.09765907, -0.22662014, 0.26478943, -0.01393418, 0.15251742, -0.42417413, -0.08592081, 0.02463436, -0.34240562, -0.28347480, 0.07274523, -0.07226611, 0.08783726, 0.38169283, 0.20612168, -0.10473391, 0.36807442, 0.05588039, -0.14455287, -0.21733122, 0.54608858, -0.06989232, 0.08461529, -0.42897400, -0.17399882, -0.36372444, -0.07645909, -0.05496020, -0.23489840, -0.19307177, 0.00581390, -0.18069108, 0.03513438, -0.29044420, -0.25530979, 0.00870517, -0.11493961, 0.47983521, -0.14993270, 0.47624576, -0.16781545, -0.18136869, -0.17402735, 0.71756870, -0.28988871, -0.18400404, -0.39417335, 0.18014513, 0.41375026, -0.22871090, 0.28047675, -0.04663632, 0.09463737, 0.28311211, 0.03913027, 0.30683026, -0.13364999, 0.19162774, -0.27652371, 0.15002683, -0.11162598, -0.02318874, 0.09882499, 0.51944935, -0.19134018, -0.06407849, -0.14853591, 0.02410937, 0.35096085, -0.13540472, -0.53616178, -0.55901343, 0.18042594, -0.40894273, -0.10172407, 0.40212134, -0.37074289, 0.35573584, 0.15945014, -0.30781552, -0.37995178, 0.17377508, -0.19406873, 0.27575496, 0.34482160, 0.50512439, 0.01805853, -0.03243401, -0.20640522, -0.07165562, 0.14554808, -0.33259317, -0.16614233, -0.28662249, -0.65161109, -0.25345576, -0.30852798, 0.23355569, 0.02535714, 0.10806193, 0.23756655, 0.51986969, -0.04265399, -0.17185009, -0.03301249, 1.05331457, 0.14423683, -0.05730907, 0.09024443, 0.02433515, -0.44341773, -0.19177285, 0.15834177, 0.10363635, 0.07324446, -0.34403622, 0.09011196, -0.13273659, 0.38901624, 0.06803985, 0.06063183, 0.30346304, -0.21380697, -0.22490001, 0.29540920, -0.20256197, 0.06405091, 0.07024326, -0.21806183, 0.41940811, -0.28386030, -0.29510528, 0.17399359, -0.06583644, -0.35092354, -0.17872834, 0.12545206, -0.30939135, -0.10608593, -0.15617342, 0.10126384, -0.21668284, 0.67571449, -0.15516233, -0.14458485, 0.02976861, 0.43149906, 0.17375070, 0.00697064, -0.12342989, -0.18743922, -0.11378571, -0.33101299, 0.06342601, -0.12031887, -0.21046080, -0.09317518, -0.34532368, -0.14748956, -0.02878784, 0.21034087, 0.01596948, -0.01348138, -0.16688107, -0.11309814, -0.08560783, 0.22254612, -0.34265944, -0.34083435, 0.26714659, -0.15878226, -0.04348832, -0.00614540, -0.00565348, -0.28106287, 0.01352415, 0.04756624, 0.15752752, 0.03014239, -0.02030405, -0.17018904, -0.13596871, -0.14581384, 0.23147184, -0.01798269, -0.07254086, -0.10243575, 0.06546370, -0.07858085, -0.03492821, -0.04032759, -0.16826551, -0.39924929, -0.35385785, -0.00986074, -0.00361484, -0.03088630, 0.05396332, 0.28577071, -0.14569181, -0.02210086, 0.15691765, 0.04279850, -0.32969791, -0.17070591, -0.00691319, -0.06713451, 0.20590018, -0.00067364, -0.05348672, 0.05975839, 0.56579161, 0.23619354, -0.23792911, -0.59040499, -0.34648031, -0.27311358, -0.27469134, 0.01467335, 0.26143801, -0.15470125, 0.10910343, 0.12843123, 0.22988243, 0.10602676, 0.31350473, -0.20700464, -0.13450567, 0.22546464, 0.00280056, 0.24334019, -0.01437969, 0.06132434, -0.19332390, -0.00179746, 0.12906381, -0.10198977, 0.04952702, -0.03675111, -0.04642818, -0.09231270, -0.06333587, 0.00878683, -0.13700119, -0.22213763, -0.02954767, 0.11699466, -0.45928013, 0.10623028, 0.14341632, -0.09383494, -0.09812982, -0.16592366, 0.11395019, 0.09555183, -0.18503198, 0.01327538, -0.17463809, 0.29782122, 0.11248051, -0.01484475, -0.17546137, -0.08011535, 0.04273333, 0.02889195, 0.07080200, 0.05860718, 0.25110015, 0.02173972, 0.08423175, -0.00666985, 0.09781586, 0.17381480, -0.23442873, -0.05963628, 0.23936841, -0.07944643, 0.10877576, -0.13047831, 0.13257515, 0.00578748, 0.26325640, 0.05668264, -0.17234771, -0.04180176, 0.13595718, 0.10233991, 0.19669825, -0.05357119, -0.08238599, 0.03447969, 0.27123794, -0.05421377, 0.08712082, -0.10971271, 0.45210835, -0.16057828, 0.09733452, 0.15827851, 0.14948526, 0.18790500, -0.18168208, 0.13221863, 0.05588572, 0.06232462, -0.16239791, -0.06335681, -0.11599851, 0.32361618, -0.18530270, -0.07466175, -0.12622210, -0.34504640, -0.02681237, 0.01774384, 0.17979768, -0.23140720, -0.04568670, -0.08178878, 0.19572291, 0.14971672, 0.00721304, -0.09456827, -0.16377416, 0.12228995, 0.04585873, 0.17744245, -0.28142217, -0.34267810, -0.15868837, 0.33557597, -0.21972236, 0.07002264, 0.06558380, -0.22882198, -0.11540972, -0.21894556, 0.00801071, -0.37197444, 0.30272859, 0.40193656, -0.26100352, 0.43655947, -0.40815094, 0.47140434, -0.00741424, -0.07135428, -0.30472606, -0.11119283, -0.39350277, 0.14050469, -0.06168365, 0.09030090, 0.12940933, -0.09518946, -0.15500557, 0.03702118, -0.30078331, 0.27046329, -0.35966563, -0.09722178, 0.12655309, -0.15094092, -0.13347396, -0.17928354, 0.32429230, -0.23728704, -0.26672822, 0.07481133, -0.09952874, -0.30298039, -0.09167410, -0.05286777, 0.22740009, 0.24539162, -0.17404695, -0.06769843, -0.09869143, 0.02221165, -0.04718836, -0.03102338, -0.00989041, -0.19896290, -0.10561927, 0.20151526, -0.14597094, 0.07754327, -0.00013222, 0.21208934, -0.08562575, -0.13466762, -0.12269581, -0.20661999, -0.13004905, 0.03217803, 0.15508653, -0.10300614, 0.05435929, -0.13667671, 0.09468453, -0.13173085, 0.14989735, 0.10452867, -0.30512100, -0.28438649, 0.16273755, 0.00617637, -0.22389491, -0.25033620, -0.16188154, -0.17795555, 0.38387418, 0.36713439, -0.14923157, 0.05545061, 0.27925038, -0.28971279, -0.00393528, 0.21019870, 0.04508334, 0.21552500, -0.29123458, -0.15071191, 0.07959594, -0.16593729, -0.45984480, -0.32146737, 0.03428118, 0.17037000, -0.02965575, -0.14868829, -0.02419919, 0.20852979, 0.01603241, 0.15678279, -0.20409708, 0.04895246, 0.69574171, -0.03411254, 0.21431157, -0.42785224, -0.18607718, 0.26172224, -0.21778065, 0.00329140, -0.14637558, -0.16649762, 0.26531327, 0.12599257, 0.03035276, -0.02491217, 0.13224013, 0.19815195, -0.12984523, 0.16097894, -0.17638960, -0.15014982, -0.11620472, 0.18992598, -0.09621251, -0.05935187, 0.03056101, -0.02121569, 0.15348186, -0.35111317, -0.13578042, 0.03732920, -0.22407936, 0.20085923, 0.14109086, -0.00677718, -0.24542716, -0.10020919, -0.04831976, -0.37062398, 0.07392821, 0.02853142, -0.07542850, 0.08784471, 0.20600568, -0.00686125, 0.20735076, 0.12271358, -0.13544020, -0.03440326, -0.07646319, -0.16803275, 0.26860410, 0.02518163, 0.15778938, 0.01809404, -0.10708984, 0.21179990, -0.07449728, -0.03735474, 0.19095017, -0.38171366, 0.27961227, -0.10667451, 0.40093935, 0.06929643, -0.04965078, -0.00411229, 0.40392587, -0.28465199, -0.28259876, -0.07396286, 0.06005691, -0.35558167, 0.06668323, 0.41101882, 0.20849593, -0.45506990, -0.30873075, 0.40355256, 0.13280649, 0.06565662, -0.08712218, -0.28027305, -0.15503955, -0.20780106, -0.09747060, -0.25863960, -0.08641352, 0.05279157, 0.11045066, -0.00961486, 0.19782566, 0.12595461, 0.01183078, -0.20431568, -0.21729574, 0.01334812, -0.46391678, 0.14734766, -0.04191476, -0.18616764, -0.06273694, 0.36392227, -0.36584526, -0.07133021, -0.42113066, -0.12694487, -0.08114622, 0.07665937, -0.15331875, -0.10035210, 0.32764906, -0.02600455, -0.10248609, 0.08607081, -0.01978042, -0.21930820, 0.32064521, -0.17531523, 0.01532093, -0.10626160, -0.06445735, -0.01147018, -0.05195437, 0.11611077, -0.04391088, 0.13329211, -0.04645525, 0.11753343, 0.04215992, 0.10127355, 0.22139159, 0.07912191, -0.11768448, 0.38687369, -0.09646883, -0.26681805, 0.34344402, 0.11468934, 0.29627037, 0.20079993, 0.01871970, -0.00420413, 0.31374210, 0.53213853, -0.26981321, 0.63896561, -0.06764050, 0.17708832, 0.13016428, 0.39111683, -0.05422472, 0.14202009, -0.25533664, -0.00006901, 0.22050659, 0.49569231, 0.15801616, -0.01571415, -0.24931078, 0.33393323, -0.14890298, -0.09690899, 0.09723446, 0.03285223, -0.07510243, 0.36745673, -0.25761029, 0.09943139, 0.21334623, 0.07640431, -0.38015011, -0.08698212, 0.27323291, 0.14019662, -0.39316896, -0.08144911, 0.01283576, -0.25429317, -0.08427083, 0.10454991, -0.15051581, 0.24553777, 0.02517181, 0.02124475, -0.27991563, -0.26163229, -0.18154602, -0.24952921, 0.17974344, 0.37880027, -0.11040831, -0.11311218, 0.00105419, 0.00079668, 0.15321970, 0.32704034, -0.00257311, -0.05121272, -0.14317672, -0.15605232, -0.01198236, -0.02363228, -0.28099680, -0.15096211, -0.30395603, 0.19312179, 0.14679694, 0.14791444, 0.52338952, -0.24422136, 0.07492232, 0.42261267, 0.02618472, -0.30334648, -0.09691646, -0.13999045, -0.39985660, -0.61075658, -0.15055576, 0.03639447, 0.17483567, -0.07319529, 0.29440662, 0.33849648, -0.33504245, 0.37153697, 0.43945691, -0.10092179, 0.47991079, 0.09692963, -0.10092179, 0.01779172, -0.10858674, 0.47778165, -0.15202144, -0.17895520, -0.43455985, -0.18119080, 0.08250463, -0.50120229, 0.45563847, 0.50546062, -0.69580680, -0.65748203, 0.04064018, 0.02723983, -0.18417162, 0.39368016, 0.48885322, -0.19979709, 0.05672870, -0.01724272, 0.18041128, -0.10768648, 0.36149490, -0.10897513, -0.13222690, 0.21301977, 0.05614040, -0.17088646, -0.08196947, 0.04451452, -0.02975105, -0.12852903, 0.15676732, -0.14208789, 0.02958297, -0.17402405, -0.02229928, -0.00503205, -0.00116872, -0.15732761, 0.22063963, -0.02696221, 0.40655670, 0.00337028, 0.27111590, -0.01342984, 0.01094012, 0.12969978, 0.27580243, -0.36367491, -0.19378811, 0.03804879, -0.03011097, 0.00735566, 0.04844703, 0.18008001, 0.18558669, 0.51551855, -0.06262379, -0.26221150, -0.01083761, 0.20034926, 0.10058470, 0.25190112, 0.16016224, -0.22017017, -0.14266582, -0.05229042, 0.09435070, -0.18436472, -0.08940243, -0.01944559, 0.10813913, -0.02706258, -0.42944303, 0.02907803, -0.09874298, -0.15789983, 0.15000483, -0.14377779, -0.04425643, -0.29734093, 0.17869367, -0.15178399, -0.01307955, -0.02778536, 0.21360955, 0.11820247, 0.05821166, 
bias
0.77269047, -1.36076546, -0.52899206, -1.86002910, 3.18157887, 0.80547392, 2.83959603, -1.12130845, -0.17610765, 1.62338555, -0.53502810, -0.37725228, -2.07772613, 0.29000038, 1.79281580, 0.79757196, 0.32645983, 1.38616586, -1.36656451, 0.96934336, 0.95480758, 0.81896591, 1.32357717, 1.02780223, 2.43980718, 0.34038720, 2.06961012, -0.13881260, -1.52076340, 1.07928932, 0.57765782, 2.16481876, 1.51620102, 0.25251627, 0.25725320, 1.34822798, 0.46578243, -0.55128682, 2.53877115, 0.68049872, -2.91122317, 0.21633197, 0.05873040, 0.05383801, 1.03515100, 0.77652347, -1.15911877, 2.33040524, 
layer16
kernel
-0.06117913, -0.05711763, 0.08285476, -0.13347398, -0.06169217, -0.16955727, -0.05596330, 0.07571506, 0.01488863, -0.10705280, 0.01794545, 0.06669424, 0.01578644, 0.14125498, 0.18058747, 0.00029576, -0.09568058, 0.10833538, -0.21786784, 0.11235414, 0.13749273, 0.05639083, -0.03056819, 0.02802441, -0.05243056, 0.00531890, -0.02685705, -0.24006039, 0.03753375, 0.12430865, -0.07382285, 0.18482938, -0.24083829, -0.10805051, 0.13955551, 0.05433642, 0.23679321, -0.05091365, 0.02465948, 0.06176537, -0.03374147, 0.11388477, 0.12213053, -0.05950946, -0.07463964, 0.00802211, -0.13457695, -0.09327038, 0.06756285, 0.24279037, 0.12030546, 0.07055959, -0.17773388, -0.02605801, 0.22818807, 0.07600821, 0.02639855, -0.07366530, 0.09556874, -0.13817692, -0.16269571, 0.00111101, -0.26284128, 0.01516078, 0.25085431, -0.01840270, 0.06685453, -0.19615021, -0.04917377, -0.09932829, 0.00598326, -0.06135143, 0.02987426, 0.05206060, 0.11406536, 0.14063883, -0.02254149, -0.05160100, -0.04909407, -0.09167011, -0.05949783, -0.02897594, 0.10662813, -0.16746299, -0.08556991, -0.03505525, -0.10905150, -0.04967901, -0.07274278, 0.03515971, 0.17715645, -0.05515248, -0.03089792, -0.02091198, -0.05435862, -0.23999687, -0.06165195, 0.06694696, -0.11714692, 0.14817813, -0.02528469, 0.14653626, 0.03924052, 0.15080510, -0.04991263, -0.09711619, 0.11870669, 0.02600300, 0.08439175, -0.00850177, -0.17453003, 0.05401729, -0.09998945, -0.06604394, 0.21196450, -0.12190832, -0.06530510, 0.10154922, 0.00917391, -0.03369924, -0.01107015, 0.06341416, 0.18882114, 0.05625274, 0.21812285, -0.12289228, 0.14497790, -0.05964211, 0.06478085, -0.01278533, 0.17985569, 0.08724914, -0.27596095, 0.43012297, -0.03321043, 0.02095127, -0.26808885, -0.13032705, -0.09769061, 0.01573054, 0.36299142, 0.18018369, -0.08877983, -0.06598353, -0.19486317, -0.26508647, 0.15456900, 0.07151894, -0.14705433, -0.06134821, -0.17244872, -0.08466960, 0.20095265, 0.03867464, 0.00516229, 0.30551022, -0.09088864, 0.14614739, 0.05940476, -0.21364985, 0.11660696, 0.21170640, 0.15443943, -0.11025836, 0.08518786, -0.16908008, 0.22556968, -0.25821963, 0.03283928, -0.05002123, 0.09935724, -0.07270209, 0.24503550, 0.02432539, -0.23790920, -0.44649088, 0.03489495, 0.05074072, 0.23256446, -0.06612395, 0.01360166, 0.07955431, 0.28834155, -0.14403373, -0.17747258, -0.23927964, -0.03789280, 0.09236797, 0.05450943, -0.15403798, 0.28039297, 0.07996544, -0.30860451, -0.01613286, 0.15078908, 0.20099047, -0.03589446, 0.22502796, -0.04562502, 0.14404009, 0.05348343, -0.07349928, -0.18148312, -0.20043576, -0.01307039, -0.03681898, -0.01516211, 0.08963214, 0.07211249, -0.08117279, -0.04215807, -0.03034734, 0.09929336, -0.12924778, -0.16890965, 0.14653629, 0.14110558, -0.09763365, -0.08876507, 0.05974419, 0.14728191, -0.29662260, 0.38641706, -0.21458817, 0.17087869, 0.28917933, 0.25592211, 0.02801128, -0.07375973, -0.26494908, 0.03400945, 0.01685626, 0.10048427, 0.08631037, -0.11877574, -0.05408255, -0.03305925, -0.04137355, 0.17467952, -0.16881992, 0.19804682, -0.04584261, -0.42747071, 0.18218958, -0.13428047, 0.39541885, -0.11859192, -0.01426519, -0.12112233, 0.04373393, -0.14018476, 0.16768189, -0.31596395, -0.00373763, -0.06435678, -0.33232728, -0.44805139, 0.01218814, 0.26636791, -0.16084978, -0.15131857, -0.27480263, -0.07684014, 0.05225298, -0.14925221, 0.05531971, -0.05041865, 0.05060820, -0.18445319, -0.12152465, -0.08014995, 0.26514471, -0.16539051, -0.13777126, -0.01695063, -0.22312012, 0.11405121, -0.08052903, -0.13582167, 0.29893765, -0.06368671, 0.07262235, -0.00043113, -0.10847321, -0.20069981, 0.02724015, -0.10094561, -0.16820659, 0.08878267, -0.04850852, 0.18140392, 0.11144268, 0.11540509, -0.34051931, -0.12004853, -0.17744151, -0.11596230, -0.37098029, 0.04757983, -0.05733107, 0.13472182, 0.16332544, -0.19452938, 0.42174864, 0.03069317, -0.12011044, 0.16344926, -0.08642999, -0.15403855, 0.42595869, -0.14623757, -0.01439468, -0.05232601, 0.30533370, 0.06699251, 0.20457019, 0.06344212, 0.05625680, 0.07937662, -0.07739009, 0.07392423, -0.05659493, -0.08842167, -0.04137897, -0.01537446, -0.00536785, 0.00421081, 0.03607452, -0.05735574, -0.05562280, 0.12265758, 0.32934111, 0.03332719, -0.05139615, -0.12899756, 0.26272899, -0.31452528, -0.26321384, -0.30703658, -0.14949659, -0.03031882, -0.30426300, -0.12078992, 0.05082607, 0.02574240, -0.02168602, -0.03030149, 0.12092859, -0.02309015, -0.02489298, -0.05255956, -0.13895693, 0.00456776, 0.07329216, -0.27708179, 0.07967142, -0.06015227, -0.02957342, 0.10387100, -0.14519751, 0.03352699, 0.29270104, 0.22324656, 0.36007509, -0.11802462, 0.10458181, 0.26949620, 0.02692562, 0.03140655, 0.06393334, -0.17763706, -0.17411631, -0.36807677, 0.14723071, -0.03372703, -0.13730864, -0.06509358, -0.04793000, 0.32902864, -0.25445306, -0.15035136, -0.10042094, 0.16563454, -0.36679649, -0.16225176, 0.17295270, -0.17917204, 0.10399112, 0.53449792, 0.23322548, -0.03420640, -0.02570053, -0.23779853, 0.29505309, -0.04870297, -0.22828658, 0.37572166, 0.21292114, 0.02165338, -0.12749659, -0.02081880, -0.22956704, -0.06370257, -0.12255770, 0.27840719, 0.30529672, -0.09063782, 0.33035702, -0.13702942, -0.23163931, 0.01482499, -0.15919244, -0.12702031, -0.21988258, -0.17825741, 0.73463660, -0.15855695, -0.09000251, 0.21448085, 0.10827310, -0.40894347, -0.12908569, -0.62501305, -0.24800341, -0.34634683, -0.47598860, -0.18763101, -0.31774938, 0.02212330, 0.20892023, -0.29931992, 0.13242206, -0.26087967, 0.09013540, -0.20851721, 0.05219592, 0.15428941, 0.02431590, -0.13516977, -0.09939542, -0.08520559, -0.02256716, 0.02048532, 0.43808597, 0.44128370, -0.28566191, -0.14429657, 0.35201436, -0.05632629, -0.13403726, -0.12850788, -0.00405334, 0.04826540, 0.14989255, -0.09906232, 0.20598568, 0.07740555, 0.10945401, -0.01355737, -0.05290277, 0.07218160, 0.27197665, -0.08888993, -0.07719825, -0.06053139, 0.02842073, -0.01371285, 0.25356847, -0.00265084, -0.06210686, -0.19867562, -0.15671825, -0.08246365, 0.03899299, 0.10762978, 0.02495883, 0.06032409, -0.05029080, -0.01514321, -0.03582131, 0.04090197, 0.05639989, 0.31622505, -0.02002919, -0.14972486, 0.11048595, -0.18076889, -0.00616121, -0.06512500, -0.19802630, -0.13844487, 0.01707663, 0.06931885, -0.04135992, -0.16833200, -0.05596605, -0.14133717, 0.22656368, -0.03784095, 0.06049732, -0.06445014, -0.06232911, -0.15965508, -0.42304742, -0.29047978, -0.06046451, -0.15157166, 0.22481696, -0.01598577, -0.06398216, -0.05389823, -0.01700198, 0.16306265, -0.08817577, -0.04764462, -0.22888181, 0.14570890, -0.09419487, -0.08833212, -0.02843434, -0.11670783, -0.13703203, 0.07160373, -0.09810337, -0.22716206, -0.21528022, -0.05256933, 0.06597549, -0.11032087, 0.12571448, -0.12742488, 0.18846482, 0.21914515, 0.05649669, -0.13394579, -0.19658923, 0.03923232, 0.15874660, -0.06510215, -0.07344035, -0.16323641, 0.08642871, -0.25249797, -0.06210894, 0.00368805, -0.10433447, -0.03060015, -0.07568525, -0.03289850, -0.00975463, -0.00367469, -0.08124405, -0.13974229, 0.03806018, -0.29911485, -0.03124606, 0.10125843, -0.04314428, -0.19715030, -0.14899252, -0.08099262, -0.02173102, 0.13578798, 0.05800823, 0.00715394, 0.12272465, -0.28908786, -0.23146801, -0.18613474, 0.06909440, -0.18613474, -0.17130610, -0.17737877, 0.07075380, 0.08007465, -0.01569364, 
bias
0.97699010, 1.22591698, 1.07608128, 1.77067375, 0.85361320, 0.59737045, 0.99612552, 0.92925829, 0.98323929, -0.80389321, 1.42034423, 1.90994275, 1.00394642, 0.31296170, 2.32631254, 0.13472363, -1.05396962, 2.22682977, 0.22321945, 0.92251521, 1.65223670, 1.86647594, 1.59750891, 2.07258415, 
layer17
kernel
-0.39038086, -0.57815135, 0.54423147, 0.17050770, -0.13492216, 1.18234825, -0.62327683, -0.20881893, 0.65659094, -0.03269551, -1.76300526, -0.70935613, -0.00298957, 2.29951072, -0.18939632, -0.01872401, 0.09311400, 0.56607676, -0.96492362, -0.22714736, 0.22050798, 0.32231185, -1.24900866, -0.85466963, 0.75487769, 0.92951357, -0.46556157, 0.95108515, -0.13660310, -1.36141562, -0.28854150, -2.52987456, 2.65136576, -0.67653900, 0.47822252, 0.83614498, 0.61596394, 0.79011571, -0.78948814, -0.00757502, 1.44467545, -0.77944696, -0.40604040, -0.16552265, 0.66899395, -0.20854558, 0.12171619, -0.33553356, -0.20885569, 0.21474768, 0.04616687, 0.46608773, 0.93961799, 0.73742956, -0.37417778, -0.22079715, -0.17047669, -0.17225081, 1.15285468, -0.16547690, -0.65900451, -0.49417275, -0.78641850, 0.44019732, 0.35875636, 0.15351918, 0.76447505, 0.19379383, -0.67352271, 0.65925568, -1.11282837, -0.47259536, 0.14113243, 0.44397762, 0.63847947, -0.01351676, 1.40755701, -0.69429058, 0.08350742, -0.67419857, -0.88014168, 0.63334543, 0.90933836, 0.44994944, 0.49400043, 2.15220571, 1.49593580, -1.17499280, 0.89180785, -0.24317946, -0.57631814, -0.72886145, 0.52495146, 0.81330514, 0.97285300, -1.11527872, 0.48409167, 0.60277975, -0.38349867, -0.31481555, -0.57098901, 0.86363840, -1.23344839, 1.15937424, 0.50701576, -0.16315976, 0.60381734, -0.41863173, 0.03402726, 0.07350276, 0.12414233, -0.18903491, -0.18183543, -0.33895916, 0.07209206, 1.28267431, 0.42729867, -0.12189692, -0.17370769, -0.21363944, -0.35326350, -1.32240808, -1.19594228, 0.02324403, 1.79391336, 1.04973900, 0.20766702, -0.81305826, 0.83023858, 0.57768798, -0.59701586, -1.14764488, -0.35906854, 0.10882654, -0.65714693, -0.40914860, -0.48734143, -0.24743749, 0.35927144, -0.15820412, -0.27614284, -0.48812076, -0.60008460, 0.05750811, -0.31663585, 0.49509478, 0.02551296, -0.22904575, 0.18126933, 0.36347544, 0.02415168, 0.36417806, 0.72460890, 0.00401579, -0.03989421, -0.00655314, -0.19614655, -0.50149071, -0.10683209, -0.15868178, -0.16929467, -0.12153669, -0.07849785, 0.17241344, 0.10626636, -0.55868584, 0.15749305, 1.10211980, 0.21336164, -0.26690927, -0.15069598, -0.45236900, -0.56493253, 0.75480998, -0.69700074, -0.81120926, 2.47216725, -0.44672909, -0.07696148, 0.15321797, -0.19195348, -0.15565655, 0.02091850, 0.09933899, 2.40002990, -0.49211004, 0.57005292, -0.41569543, -0.37657115, 0.25458339, 0.22292061, 0.14284855, -0.14330611, 0.89680707, -0.08739293, -0.40045181, 0.64094251, 0.33932251, -0.93171054, 1.57253611, 0.00377104, -1.18794310, 1.68674266, 0.16276871, 0.24317694, 0.22097011, -0.90633130, 0.21719489, -1.21912849, 0.04470711, 0.41826940, 1.26297581, -0.69553947, -0.28135389, 1.03342199, -0.30112818, 
bias
0.70292008, -0.18949911, 1.66589487, 0.14220637, -0.81366718, -0.67947614, 2.22774029, 0.25363791, 0.81340212, -0.57451516, -1.17376530, -0.37443814, -0.22243655, 0.96174765, 1.88274014, 2.22838092, 0.04797885, 3.07265925, 1.16816664, -0.62016487, -1.29649115, -0.13538158, -0.73628253, 0.06294918, 
layer18
kernel
-0.00249836, 0.03325909, 0.06296994, 0.08686438, -0.09113125, 0.16968648, -0.17040510, -0.04248899, -0.01375502, -0.04729483, -0.02180593, -0.03903059, 0.39165327, 0.19043691, -0.04976512, -0.00506971, 0.06813509, -0.10366236, 0.05371758, -0.04707026, 0.24056135, -0.13330583, 0.04765414, 0.01598951, 0.01224104, -0.00285211, 0.22448404, 0.01779468, 0.14937258, 0.02419864, -0.08651989, -0.01684693, 0.04074442, -0.16963850, 0.17658277, 0.18962099, -0.20804454, -0.05346376, 0.07511145, 0.02379120, 0.08396894, 0.15234870, 0.74261135, 0.20691079, 0.09332243, -0.00664754, 0.00856519, 0.31830248, -0.08487162, 0.04459075, 0.12846778, -0.09771840, -0.08860133, 0.08267523, 0.05938527, -0.13194884, -0.14346951, -0.21682046, 0.04272590, -0.02929894, -0.00970243, -0.03101875, 0.13153443, 0.10517782, 0.04380337, 0.01723955, 0.22842401, -0.02382870, -0.12888220, -0.11744442, -0.23207083, -0.05913662, -0.09511090, -0.06728785, 0.09884504, -0.13486858, 0.13926168, 0.21643403, 0.35613504, 0.08764260, -0.43081796, -0.23488511, 0.12864499, -0.04707953, -0.29990318, -0.07951535, 0.08215121, -0.05465765, -0.06578687, -0.25304332, 0.14716929, 0.47533482, 0.17587095, -0.03587709, -0.01386576, 0.03909871, -0.10902030, -0.01582997, -0.16816203, 0.12126322, 0.00158603, -0.15740900, -0.05953040, -0.02955467, -0.17697176, -0.17528754, -0.08906887, 0.16194341, 0.29797587, -0.02665588, -0.00297976, -0.02746560, -0.30937669, -0.38892329, 0.23643738, -0.14406486, 0.03663160, -0.19342521, -0.31119046, -0.13149805, -0.08223789, -0.30070022, -0.12527704, 0.09578971, 0.02734642, -0.05001370, -0.06652308, 0.17595290, 0.22795302, -0.02223690, -0.05778282, 0.14990868, 0.15591209, -0.01615624, 0.11415308, -0.32771558, -0.07433634, 0.01034043, -0.04012574, 0.07994247, 0.07318863, 0.21294449, -0.02831756, 0.00970588, -0.03573085, -0.07892967, 0.08524404, 0.10297287, -0.00278341, -0.26471797, -0.15761648, 0.29628983, 0.13090183, -0.20679574, 0.04165058, 0.08955482, -0.28560397, 0.28001818, -0.11869808, -0.02093154, -0.20473142, -0.05634364, 0.05737580, 0.14292341, -0.19416699, 0.30867574, -0.01476137, -0.00773738, -0.07357051, 0.16321307, -0.04696996, -0.07137886, 0.21452336, -0.14731291, 0.09376802, 0.09832320, -0.20781949, -0.22965001, 0.16983099, -0.01627619, -0.10339407, 0.05719763, 0.13227221, -0.03132763, -0.04907566, 0.24804263, 0.26196602, 0.18186355, 0.08005950, 0.07769596, -0.05831494, -0.05534977, -0.04163934, -0.22961122, 0.02132954, 0.16213849, -0.08786751, 0.02929625, 0.19426027, -0.49015450, -0.08094178, -0.36914548, 0.65093333, -0.22026362, -0.17675474, 0.01729307, -0.01682569, 0.10358848, -0.08034693, 0.30422211, -0.06352124, 0.19409031, -0.10154900, -0.10630778, 0.10069922, 0.35656872, 0.04038684, 0.04221269, -0.12535727, 0.02568461, 0.07379728, -0.39787304, -0.07575939, 0.14247125, 0.14977469, 0.23392755, -0.00655060, 0.21223530, -0.13702095, -0.04174942, -0.13505882, -0.02910469, -0.26989964, -0.13407777, -0.16601662, 0.16961382, -0.06474975, 0.13276969, 0.32592890, -0.14377934, 0.26330015, 0.11162877, 0.10193184, 0.04762904, -0.19690470, -0.14648068, 0.14362864, 0.28315035, -0.13689783, -0.15092985, -0.08767165, 0.03730466, 0.06303004, 0.16450556, -0.25850874, -0.07021718, -0.15035945, 0.16838433, 0.08909767, -0.18606696, 0.35593435, -0.23090100, -0.12366437, -0.01347588, 0.15254737, -0.10611992, 0.08905505, -0.14771117, 0.32775578, 0.30039674, -0.23103189, 0.10819256, 0.05969245, 0.11599956, -0.11185426, -0.02981168, -0.15696904, -0.10535994, -0.09250948, -0.37528864, 0.37114334, 0.04248942, 0.32471588, 0.09161133, 0.09693114, 0.30481839, 0.27068868, 0.15462002, -0.00567733, -0.09779959, -0.09355690, -0.26478779, -0.28393430, 0.02022080, -0.08985814, -0.07642293, -0.14338139, 0.14457804, -0.19157407, -0.30656204, 0.08974935, -0.00702357, 0.18178323, 0.31439468, -0.38749963, 0.14272866, 0.01518940, -0.13663658, -0.08305895, 0.09758202, -0.00273328, 0.04819268, 0.24100605, -0.09101114, 0.06679043, -0.04096836, 0.07646538, -0.09948505, -0.08053552, -0.07953466, 0.02156844, 0.04563902, 0.04767409, 0.06025151, 0.13838498, -0.05187768, -0.07653210, 0.00903272, 0.02750685, -0.10342176, -0.24847910, 0.02860779, -0.05274509, 0.21124727, 0.03254449, 0.10488968, -0.39155698, -0.14244276, -0.11652461, 0.19128029, -0.09858539, -0.04546387, 0.12166540, -0.05719131, 0.07984292, 0.06324245, -0.03935919, -0.17500111, 0.13869427, -0.14822616, 0.12155830, 0.05379089, -0.11234771, -0.08616181, 0.02283904, 0.09869249, -0.03775269, -0.15143916, -0.03542327, -0.02797983, 0.13735576, 0.15911397, -0.03609633, 0.22226861, -0.22282651, 0.06527467, 0.06538625, 0.22472338, 0.12206921, -0.07180213, -0.00602535, 0.24770899, -0.11414699, 0.20921367, 0.08731184, -0.27247989, 0.08608446, -0.06058828, -0.09021294, 0.04142431, 0.53960395, 0.10711741, -0.09305824, -0.26489243, -0.02909561, 0.63189566, 0.44109026, -0.05797039, 0.37277719, 0.19654723, -0.03327316, -0.10799056, -0.15812114, -0.04468321, 0.03868373, -0.15068620, -0.28414690, 0.42754543, -0.36865488, -0.20081678, -0.33744287, -0.05830165, 0.14545967, 0.15753223, -0.26235741, 0.18270794, -0.07839805, 0.25322938, 0.29108688, -0.06453480, -0.09487167, -0.01436865, -0.24195954, 0.45597237, -0.04824482, -0.05758490, 0.40743339, -0.00014644, -0.11789092, 0.15782528, 0.02686192, 0.43449754, -0.09053258, 0.09244473, -0.41096348, -0.09994620, 0.22019053, -0.19253801, -0.23960613, 0.26608196, 0.05280454, 0.13083465, -0.20691729, 0.36805245, 0.12298338, 0.09801641, -0.14621109, -0.06985142, 0.13959062, -0.11002300, -0.32249475, -0.13510218, 0.01136839, -0.20332654, 0.33102280, -0.10458076, -0.15328038, 0.19019784, -0.08797351, -0.24776214, 0.44906887, 0.09925073, 0.09229364, -0.28703603, -0.21095689, -0.09218143, 0.02329578, -0.04974281, -0.03185103, -0.06724396, -0.11115306, 0.09552704, 0.04565401, -0.07620287, -0.02342600, 0.06411875, -0.02614753, -0.02966339, -0.13417539, -0.04302363, 0.04078390, -0.02071749, -0.02242333, 0.10781951, 0.00756560, -0.06734812, -0.14344682, -0.15813528, 0.01998828, -0.00526727, -0.01206323, -0.00376584, -0.11878744, -0.00016624, 0.09750887, -0.08468441, -0.12996405, 0.03292089, -0.08855324, -0.02355330, 0.00126498, 0.07175248, 0.17753635, 0.14393483, -0.09478635, 0.09514458, -0.07658852, -0.37771252, -0.00245384, -0.07386601, -0.04567370, 0.10753917, 0.10295389, -0.01855606, 0.08844212, 0.12321960, 0.03819250, -0.08495741, 0.07854553, -0.11841069, -0.11750467, -0.00781883, 0.16991481, -0.18329613, -0.07582745, 0.11799253, 0.07547898, 0.13576458, 0.06572177, -0.12531044, 0.09436615, -0.00590660, -0.03144957, 0.11039584, 0.13890083, 0.05840386, 0.03585774, 0.03871521, 0.18863432, -0.09364415, -0.35573241, 0.37323061, 0.07638633, 0.15681069, 0.04004393, 0.15258035, -0.07047347, 0.08268375, 0.07705933, -0.10854646, 0.09306729, -0.27516383, -0.01376059, -0.07013697, -0.14777316, -0.21363173, -0.10864260, 0.32785067, -0.04057272, -0.46495187, 0.15950271, 0.23228365, 0.12942386, 0.02492740, -0.03684488, 0.13895784, 0.12982111, 0.02419249, -0.22897457, 0.05299307, 0.19910142, -0.16700366, 0.10908469, 0.21387909, -0.03585176, -0.10948194, 0.02222610, -0.11742693, -0.09963015, -0.21928169, -0.12624587, 0.05986549, 0.04075779, 0.14134134, 0.16319007, 0.00931550, 
bias
0.71489471, -2.15236735, 1.31339288, 1.22636116, 2.26957226, 0.69566822, 0.36905098, 0.08138901, 0.28609145, 0.68009543, 0.35352424, -2.08115149, 1.39205766, 0.96303308, 1.84900486, 0.04407930, -0.51445210, -2.41164541, -0.36054468, 1.76003683, 1.62226021, 0.46300575, 1.67526293, 1.36281908, 
layer19
kernel
0.37608108, 0.58276588, 0.19643046, -0.02287250, 0.69889289, 0.17046168, -0.96523929, -0.70528519, -0.62218517, 0.03905719, -0.48577848, -0.60662335, -0.44019926, -0.74246144, -0.01275356, -0.43630102, 0.06139700, -0.15952726, -0.51101583, -1.29874492, -0.73697519, -0.45052823, 0.34693453, 0.61565238, 0.54473591, 0.32207900, 0.83222574, 0.13477711, -0.56937706, 0.34495306, -0.32859164, 0.65991020, 0.15488802, 0.12223337, 0.95932400, -0.14657097, 0.26356718, 0.38423443, 1.28847516, -0.05222975, -0.76235914, 0.36963895, -0.65917248, 0.09139145, 0.28834555, 0.75907803, -0.52544224, -0.33996397, 0.57312298, 0.31087869, -0.36451957, 0.18440543, 0.65704119, -0.41005471, -0.10234326, -0.01552844, 0.32472500, -0.28398991, 0.71127486, -0.23213215, 0.61882645, 0.68469596, 0.00039160, -0.09785828, 0.26337007, -0.34771058, 0.07903689, -0.57486081, 0.37332320, 0.28432584, -0.11745581, 1.58539474, -0.36592895, -0.77568591, -0.08400365, 0.10800470, 0.36975521, 0.31340492, 0.58854735, 0.88629943, -0.00290502, -0.06893951, 0.25102574, 0.40075260, 0.47598627, 0.51626885, 0.07434509, 0.39867923, 0.01459689, 0.47717106, -0.06604285, 0.86007345, 0.26647219, -0.42438936, 0.25392246, 0.42459852, 0.17726466, -0.20163201, 0.06233023, 0.25572151, 0.23812495, 0.21995707, 0.30805415, 0.53886628, 0.38163981, 0.21390112, 0.28680116, 0.09666685, 0.12951215, -0.33770946, 0.29950392, -0.22218324, 0.10620223, -0.53078371, -0.58809197, 0.42458150, -0.94422197, 0.08702330, 1.20726490, -0.22054933, -0.47315395, -1.44384193, 1.70570195, -0.06868181, -0.06185314, 1.37341058, -0.85818547, -0.48829126, 0.26194391, -0.09982500, 1.63898718, 0.11056199, -0.39098126, 0.44031337, 0.10901432, -0.40963447, -0.03504671, 0.19333561, 0.80741692, 0.72630483, -0.10194565, 0.18639109, -0.11463098, 0.10907536, 0.24765971, 0.56247413, -0.01257146, -0.00725816, 0.55049753, 0.61850768, 0.01918133, -0.31438670, -0.13227767, 0.34448946, 0.31727940, 0.76650184, 0.38273755, 0.24129663, 0.25207797, 1.12844682, 0.47566241, 0.38376433, 0.00246625, 0.63814992, 0.20053156, -0.18277615, 1.33374369, 0.17820676, -0.08681867, 0.01297384, 0.09856857, -0.77711278, -1.05580473, 1.05672598, -0.63615459, -0.42448694, 1.19860554, -0.55323797, -0.67945546, 1.49157751, -0.22590721, -0.26160306, -0.32800230, 0.02078097, 0.27433372, 0.35571024, 0.47178411, 1.09334099, 0.27483296, -0.90686226, 0.10403658, 0.89403307, -0.93572789, 1.49379694, -0.67232889, -0.57731283, 0.74048388, 0.18020980, 0.18098147, 0.04519163, -0.44536057, 0.40839049, -0.05169364, 0.07770167, 0.59281105, 0.82838786, 0.17378090, -0.65110463, -1.21924305, -0.60391003, 0.08694922, -0.14263579, -0.24484059, 0.38657457, -0.16427916, 0.05392054, 
bias
0.77226681, 2.11297059, 1.05576468, -0.73989832, -1.29385829, 0.54124427, -0.17725182, -0.50274134, -0.28406778, -0.20368636, 0.87549758, 0.11203390, 3.14528561, -2.71738791, -0.10591197, -0.38961518, 0.48771739, -0.16460139, 0.09086646, 0.95740205, -0.36508811, -0.32815760, -0.35666132, 3.86455536, 
layer20
kernel
0.29312971, -0.03506746, 0.12877454, 0.08929372, 0.12747449, 0.22580022, -0.32077315, -0.19555667, 0.04149934, -0.16189191, 0.08381978, -0.15053347, 0.30571979, -0.05860542, 0.01871405, 0.11132634, -0.13554855, -0.09018324, 0.18584041, 0.11009471, 0.12377957, 0.20582031, 0.31776246, -0.11864775, 0.04669944, 0.00335012, 0.07103780, 0.22706211, -0.16839121, 0.56283796, 0.16508380, -0.00276817, -0.00173910, 0.10821041, 0.58181971, -0.44348294, 0.04691514, -0.09210467, 0.07988157, 0.03666931, -0.19988368, -0.04443457, -0.14164419, -0.07671794, 0.03706476, 0.06952789, 0.13085911, -0.23281416, -0.08827135, 0.04489167, 0.22809432, -0.15508686, -0.01193391, 0.01319390, 0.12391109, -0.02563181, -0.02167184, 0.20779048, 0.09439131, -0.30758175, 0.02249984, 0.21988639, -0.02505582, 0.42335689, 0.04561166, 0.12470309, 0.37295726, -0.13255103, -0.05083163, 0.16934276, 0.08618337, 0.14119096, -0.09550399, 0.01545686, 0.05066415, -0.07773233, -0.05432303, -0.17592447, 0.00475326, -0.02066515, -0.06727841, -0.07231870, -0.03544997, 0.05574177, 0.05301629, -0.10999013, -0.02983099, -0.00648236, 0.16786002, 0.02322263, -0.17622314, 0.03289250, 0.09849082, 0.16039293, 0.26194525, -0.07646292, -0.14417365, -0.14760229, 0.07551546, 0.48275033, 0.10183015, -0.00201432, 0.01624311, -0.30823335, 0.01910387, 0.18291712, -0.04851504, -0.21926053, 0.52800816, -0.24360377, -0.44743550, 0.30977622, 0.03681485, -0.14460224, -0.01003944, 0.24548951, -0.35280547, -0.01351092, 0.19800307, 0.06582959, -0.06599386, -0.25223714, 0.17825849, 0.12707402, -0.14727482, 0.24664097, -0.18276273, 0.52303720, -0.16870406, -0.19709440, -0.24186376, -0.18644802, 0.19736737, -0.00758383, -0.04562244, -0.04985369, 0.34587061, -0.11533570, 0.15259801, -0.25182766, -0.36934724, 0.03084718, 0.14481796, 0.02098564, 0.29644054, -0.21782200, -0.08505189, 0.06590382, 0.15288065, 0.06646104, -0.10131256, 0.29096967, 0.12957877, -0.18844137, -0.04895929, 0.03226805, 0.11529369, -0.18519935, 0.01931271, 0.20667762, -0.00591095, 0.01916074, -0.24436589, -0.04822478, -0.12056194, -0.01545017, 0.04396965, -0.07573114, 0.13011231, 0.04224425, 0.20581400, 0.00438548, -0.13019679, 0.16035919, 0.04693336, 0.17438428, 0.00793136, -0.08879742, -0.18840937, -0.25870380, 0.10425882, 0.15351562, 0.00883961, 0.07523701, 0.28878170, 0.01629572, 0.14979813, -0.03633006, 0.15013608, 0.03356306, 0.01164885, 0.52889806, -0.11060373, -0.10507949, 0.04570869, 0.06545935, 0.25280854, 0.23902760, 0.09611001, -0.33549401, 0.16275737, -0.20219930, -0.27680632, -0.08636833, -0.01204345, 0.31102103, -0.06130132, 0.12260263, -0.07365662, -0.04532258, -0.01476102, 0.20350611, 0.15432250, 0.20362492, -0.22821672, -0.22869192, -0.03451018, 0.05798438, 0.31235805, 0.01003436, -0.12186918, -0.17089365, -0.00915567, -0.16477470, 0.37529588, -0.24300991, 0.09127440, -0.11815410, 0.03929972, 0.00357850, -0.00129982, 0.67017120, 0.01453252, -0.13796785, -0.17905226, -0.06344773, -0.01478747, -0.24577801, -0.33595973, 0.23150045, 0.27700377, -0.43903255, 0.00323974, 0.11037189, 0.08055409, 0.00490677, -0.03327012, -0.01315717, -0.00134816, -0.15517530, -0.34901658, -0.28150457, 0.14423017, 0.29296115, 0.09697178, 0.11170167, 0.07901973, -0.12295367, 0.27843586, -0.15087909, 0.21481091, -0.28805119, 0.30605438, 0.13614920, -0.02154717, -0.07599259, 0.07292581, -0.02937345, 0.08013475, -0.01710630, 0.05659616, -0.02320004, -0.08081183, -0.02435507, 0.02367799, 0.05635719, 0.12322908, -0.00993719, 0.01823145, 0.08196685, -0.04994482, -0.10012861, 0.11454649, 0.06022054, 0.10084552, 0.25920326, -0.05870707, -0.34061250, -0.20761934, -0.02039782, 0.05495150, 0.13293880, -0.19677022, -0.02673266, 0.21772537, 0.26156768, -0.17269412, -0.02855323, -0.05885273, -0.05562029, 0.17432891, 0.06446306, 0.22902033, 0.00830868, 0.04339645, -0.06424013, -0.33230984, 0.05680923, 0.37362564, 0.08352331, 0.15946712, 0.09095421, 0.00763266, -0.17673388, 0.13177797, -0.18090504, -0.00968445, 0.49157974, 0.09300157, -0.31793559, -0.20948526, -0.02245864, -0.11269875, -0.04202064, 0.23420329, -0.04159580, 0.10342949, -0.25428668, 0.07446305, -0.04468555, -0.06963531, 0.28410280, 0.14290108, -0.01295765, -0.27328867, -0.00700505, 0.09198339, 0.08822709, -0.19660991, -0.15538231, -0.03190560, -0.15941344, -0.20100753, -0.05693992, 0.20522191, -0.08305074, -0.25414535, 0.03513509, 0.17828654, -0.08547859, 0.02727894, 0.56289434, 0.00156035, 0.00195402, -0.10398521, 0.31754425, -0.05506177, 0.24644952, -0.18185960, -0.16536854, 0.01957075, -0.17723314, 0.03130118, 0.02876284, -0.09498495, -0.04845374, 0.24464183, 0.11342922, -0.01568063, -0.19045053, -0.00193192, -0.06806955, 0.10357625, 0.41190186, 0.01164782, -0.07353674, 0.33524102, -0.01796363, -0.04968536, -0.10345609, 0.20186555, 0.01020593, -0.20414856, -0.14731379, -0.06589764, -0.07736265, -0.01537670, -0.06575825, 0.02721632, 0.02374894, -0.01226651, 0.04711455, -0.00110969, -0.23863937, -0.00744877, 0.03514425, -0.00611147, -0.06872033, -0.04383883, 0.11681063, -0.15151927, -0.06140225, 0.01068092, 0.08962916, -0.10649560, 0.06760520, 0.01257143, -0.20086409, -0.10800099, -0.21910250, -0.16905145, 0.00022911, 0.17451425, -0.28066972, 0.18484928, -0.12254385, -0.02039322, -0.15812586, 0.09965915, -0.02495170, 0.12114124, 0.23593383, -0.02131599, -0.07810325, -0.09323668, -0.13553645, 0.25483215, -0.23416211, 0.06016460, -0.20212354, 0.11191354, 0.05558766, 0.34444052, -0.06882977, 0.14728405, 0.07663145, 0.03189939, 0.26934025, 0.09748454, 0.03386804, -0.07765223, 0.09033908, 0.23492534, -0.25359106, 0.08071458, -0.07138173, -0.00457301, -0.11155673, 0.13262856, -0.02314984, 0.27706900, 0.21975946, 0.22005112, 0.21421808, -0.26817364, -0.02728765, 0.00932438, -0.03073757, 0.03423977, 0.06680843, -0.09066605, -0.02399984, 0.15231895, 0.14847898, -0.00010507, -0.25798935, 0.17493214, -0.16582999, 0.01331546, -0.40191725, 0.00724440, -0.00707995, 0.59334707, -0.07064841, -0.13703017, 0.07185729, -0.19214091, -0.08497719, -0.07864835, 0.15303007, -0.03137746, -0.09475729, -0.24480860, 0.06779198, 0.04836333, -0.06389111, -0.06756475, -0.08733426, 0.08127464, 0.21026878, -0.33812675, -0.13255416, -0.38236195, 0.07945675, 0.15270239, -0.05071143, 0.05813447, -0.07551800, 0.34600425, 0.53627628, 0.27889395, -0.15512624, 0.11695065, 0.02438997, -0.10079036, -0.14643276, -0.13983385, 0.26741260, -0.12011571, 0.23127577, 0.12687173, -0.10676079, 0.04371772, -0.08829958, -0.10809629, -0.01960031, -0.19608164, 0.10314711, -0.08452878, -0.19419624, 0.28390986, 0.07600520, -0.12852146, 0.39593408, -0.23426099, -0.16465829, -0.22247724, -0.08555004, -0.07508785, -0.01143995, 0.14088233, -0.06902695, 0.00226232, 0.08983605, 0.07434708, 0.16835842, 0.01516068, 0.12014057, 0.01057291, -0.00153943, -0.06565978, -0.08370781, 0.01151572, 0.09663773, 0.01120425, 0.04778012, -0.14586574, 0.02532111, 0.04714036, 0.12256493, -0.15758348, -0.08498733, -0.10652725, -0.02143625, -0.15187036, 0.14104323, -0.07084861, 0.16277015, 0.17119931, -0.01351574, -0.07433654, -0.00782514, -0.05460793, 0.03782226, 0.08603565, 0.12832682, -0.09431949, 0.03467949, -0.07884179, -0.15143436, -0.04385347, 0.18427905, 0.05373595, 0.01965595, -0.07313757, -0.03542431, 
bias
-1.48563635, -1.56290925, -1.85817182, 0.85491079, 0.17798299, 0.17523259, 0.84850550, -2.00093651, 0.74105120, 0.18534651, 0.88330114, 0.79458368, -0.45104480, -0.11861385, 0.64598161, 0.03305995, 1.82323539, 1.37849021, -1.31243169, -0.90305877, 0.29419869, 1.25527215, 0.65102768, 0.94046408, 
layer21
kernel
-1.08927524, -0.46021050, 1.26392341, 0.17050965, -0.89890033, -0.33025897, -0.57402152, -0.00624344, 0.12829609, 0.89345068, -0.12623440, -0.10375799, 0.39066908, 0.42796806, -0.21247482, -0.16267098, 0.08753402, -0.11189693, 0.00943840, -0.27153942, -0.95012736, 0.75624508, -0.10423778, 1.33528590, 0.47714844, 0.96941131, 0.39949128, -0.45050070, -0.07738405, -0.08878252, 0.13186660, 0.56804079, 0.40072390, 0.51910061, 0.54879934, 1.18209374, 0.15527090, 0.47889096, 0.01197008, 0.28614086, 0.32844758, -1.02940488, 0.85596490, -0.01013781, 0.30580208, -0.22901857, -0.16556089, -0.18685983, 0.07635783, 0.38909003, 0.17061116, 0.32233870, 0.00032915, 1.07065630, 0.06162079, 0.04088408, 0.87926567, 0.45937505, 0.56839925, 0.14394145, -0.53215611, -0.08117885, 0.43668622, -0.43769485, 0.27485213, 0.75259751, 0.61352098, 0.63332617, 0.54926413, -0.09209417, -0.30257940, -0.75435793, 0.35247239, 0.43367290, 0.54823291, -0.04577228, 0.50013322, -0.31963012, -0.60357338, 0.37393621, 0.43651751, -0.15995780, -0.26849020, -0.38925979, 0.66663653, 0.23046744, -0.06865220, 1.23770630, 0.03048376, 0.00901857, -0.12542343, -0.01493336, 1.12956595, -0.08557318, -0.18893217, 0.16779055, 0.05356713, 0.19329472, 0.24967234, -0.06787729, -0.45262641, 1.23479950, -0.08672282, -0.68844575, 0.66042763, -0.66776574, -0.46163225, 1.06468940, 0.05111981, 0.10905926, 0.42435765, -0.04446516, 0.13793273, 0.12737329, -0.61024785, -0.42831746, -0.24660702, -0.48799607, -0.58029497, -0.46971905, -0.24102803, -0.69863856, -0.65294605, -0.35571623, 1.27756274, 1.35249853, -0.30356848, -0.43059647, -0.77109641, -0.18891862, -0.19500622, 0.19226681, -0.07776913, 0.32345465, 1.16476142, 0.08895829, -0.49830338, 0.15471378, 0.01313184, -0.23100044, -0.64385593, -0.10805135, 1.28839684, 0.89728856, -0.37497616, -0.40414807, -0.35453454, -0.43182945, 0.14436902, -0.18365528, -1.08170295, 0.33558342, -0.53659278, 0.58583182, 0.08708311, -0.52815342, -0.00282885, -0.83011693, -0.01661082, -0.60279608, -0.78940272, 0.83690262, -0.00809124, 0.80918127, -0.03193686, 0.00423470, 0.31896904, -0.13288474, -0.37764838, -0.66899019, -0.18060452, -0.20263557, 0.53509915, 0.51681942, 0.02044791, 0.82757574, 0.76775098, -0.38574502, -0.02671861, 0.47942892, 0.67977601, 0.12634273, -0.47641560, 0.30369389, 0.15538219, -0.21396616, 0.33483768, 0.89222711, 0.34308657, 0.03442770, 0.52027255, 0.53570074, 0.26070771, 0.41970369, -0.11578279, -0.71141058, -0.58798516, 0.16685292, 0.58137321, -0.57871854, -0.75613916, -0.05137897, -0.64464289, -0.26413989, -0.98134381, 0.14998898, -0.34024048, 0.00782419, -0.19414221, -0.02638092, -0.16789475, -0.16994117, 0.11717933, -0.72318417, -1.36095297, 0.17919451, 
bias
1.60539556, 0.03938180, 0.05795035, -1.93366313, -0.51865590, 0.46684602, -1.52898920, -0.07423159, 0.27386338, -0.03961948, -0.29234183, 0.70545441, 2.00746560, 0.38740882, 0.27666724, -0.16034800, 3.95210624, 1.38491225, 1.36496270, -0.10547826, -0.39009213, 0.93150449, 3.67589998, 3.42977262, 
layer22
kernel
0.10878979, -0.21417353, 0.10599682, 0.14414477, 0.02363811, 0.04645876, -0.18801492, -0.07125493, -0.03804578, 0.04237148, -0.20954128, 0.06427249, -0.02942842, 0.03692177, -0.04383609, 0.09400746, 0.07609155, -0.03882917, -0.06495371, 0.01965301, 0.05810751, 0.02609048, -0.07718149, 0.00874508, 0.08036805, -0.08750353, 0.03436298, -0.06489532, -0.06159047, -0.04780772, -0.04191156, -0.13129285, 0.17575817, -0.14391139, -0.04724440, 0.21601731, -0.02095578, 0.13842833, -0.07097926, 0.06132758, 0.15254907, -0.07225613, -0.11048730, -0.04867149, 0.15818235, -0.06065159, -0.12100274, -0.06662286, 0.12665221, -0.05562428, -0.12866576, -0.15393579, -0.11326211, 0.00610672, 0.08300854, -0.06242001, 0.26155996, 0.42244250, 0.03025357, 0.08743835, 0.11396685, -0.09055935, 0.20578468, 0.13651860, -0.31330818, -0.05121964, -0.00562535, -0.07314216, -0.15695612, 0.10052641, -0.04870271, 0.07258843, -0.08636176, -0.37563449, 0.00772041, 0.41037855, -0.01336720, 0.01625958, 0.22370045, -0.01805730, 0.30244413, -0.18112473, 0.03374730, -0.05314843, 0.24491709, -0.06760139, -0.12516403, 0.09697008, -0.44142035, -0.10408977, 0.15278840, -0.12252975, 0.02059368, 0.10487293, 0.10352019, 0.13584356, -0.41083252, 0.43556777, 0.02183880, 0.16504379, -0.34998950, -0.05412612, 0.01414458, 0.09197531, -0.28559259, -0.15949969, 0.05682709, 0.00103730, -0.14585266, 0.24550442, 0.04708937, -0.15949969, -0.27265632, -0.02427324, -0.03866659, -0.11393850, 0.01890683, -0.19276433, 0.22133780, -0.12886494, 0.00106908, -0.04490134, 0.04090219, 0.02450964, -0.37409866, 0.16503420, -0.04925685, 0.24153279, -0.17976375, -0.20922282, 0.40957627, -0.29712492, -0.01106695, -0.10920450, -0.04652476, 0.06216500, -0.03581417, -0.40577510, 0.22094311, -0.04339671, 0.24406691, -0.19370137, 0.27954450, -0.28841391, 0.03785831, -0.06725208, -0.08814558, 0.09307430, 0.02158995, -0.15843345, 0.05068013, -0.14929032, 0.37486872, 0.03807260, -0.24872196, 0.09528866, 0.08357400, -0.03607254, 0.26500818, -0.28772315, 0.08457404, 0.11078914, 0.21286371, -0.01408079, 0.20343485, 0.28443736, 0.10450322, -0.01740232, -0.10291079, 0.02399169, 0.15915759, -0.01992942, 0.12804824, 0.12110420, 0.07131537, 0.09603619, 0.09103647, 0.09707779, 0.05371221, -0.01515539, 0.01502518, 0.04364334, 0.01560675, 0.00955675, -0.08443963, 0.13846432, -0.00939182, -0.02909556, 0.01764656, 0.07791222, -0.10277191, -0.00129224, -0.30999482, 0.18434550, -0.09073675, 0.14665070, 0.27930048, 0.04242908, -0.04850961, -0.10653267, -0.21557833, -0.10931490, 0.06771601, -0.34768960, 0.16110037, -0.13785525, 0.01550423, 0.08544154, -0.14413771, 0.16639559, -0.32094425, -0.10348119, 0.32597023, 0.10051946, -0.19457695, 0.04420163, -0.01787799, 0.17180140, 0.01137609, -0.16575813, 0.05852615, -0.03003647, -0.24878109, -0.03246456, -0.19525503, -0.05266274, 0.19554280, 0.02300398, 0.13064964, -0.08072076, -0.13100936, -0.12136891, 0.30906987, -0.03719486, -0.15554214, -0.22561525, 0.06223125, 0.19885221, 0.32806298, 0.36720031, 0.08239657, 0.01626440, -0.14140737, -0.05321901, -0.05369255, 0.04393027, -0.31530711, 0.00538656, 0.09594720, 0.01629172, 0.53066015, -0.30423349, 0.00780436, 0.12632683, -0.05700735, -0.01227571, -0.00158910, -0.11161056, 0.47762325, -0.36484706, 0.20690209, -0.20078245, 0.11328617, -0.17717813, -0.18221654, 0.28605422, 0.00091403, -0.03368288, 0.04437416, -0.24672176, -0.27518415, -0.10712730, 0.29749638, 0.00611888, 0.05871263, -0.10748487, -0.11628104, 0.27632838, 0.28619725, 0.17034529, -0.04387357, 0.09632876, -0.27775866, -0.04641230, 0.10119168, -0.00537693, -0.19966584, -0.28104827, 0.05423873, -0.07720529, -0.11392487, -0.21022972, -0.04209974, -0.08305620, 0.44224909, 0.08762934, -0.13053611, 0.00088006, -0.10276104, -0.12239862, 0.18709503, -0.09993646, -0.21829996, -0.23040532, 0.09079018, 0.26699039, -0.16019423, 0.10289554, 0.10417333, -0.25152245, -0.09569958, -0.19045763, 0.10603379, 0.46459213, 0.25169551, -0.04970075, 0.30525130, -0.17741385, -0.05956628, -0.04808412, 0.09044790, 0.07913155, -0.14317463, 0.15461534, -0.03658124, 0.02545143, 0.06288243, -0.13422103, -0.20344560, -0.05260238, 0.17890611, 0.01977252, -0.45961791, -0.06731778, 0.16738249, -0.07374281, 0.07889761, -0.11331641, 0.02185792, -0.07918020, -0.10868203, 0.09867853, -0.17260265, 0.02411859, 0.20266965, 0.00011800, 0.08844897, -0.09353549, -0.19735706, 0.10732562, 0.00624512, 0.05968186, -0.02649230, -0.14886555, -0.10800382, -0.02464137, 0.01999286, -0.10020449, -0.11416417, -0.44444901, 0.07730582, -0.06215637, -0.21620692, -0.03893346, 0.01385582, 0.26608163, -0.11009845, 0.04388975, 0.09837789, -0.05782351, 0.31695387, 0.01082437, -0.22880028, -0.08447531, -0.06321621, 0.32194132, 0.05863397, -0.06920118, 0.02933257, 0.00052846, 0.03896463, -0.07861503, 0.17481090, -0.01692623, -0.25461742, -0.08483178, -0.13072638, -0.11162398, -0.06124366, 0.49092579, -0.10704672, -0.15342957, 0.05535426, -0.05480499, -0.15977670, -0.14195591, 0.17796366, 0.06347127, -0.02198608, 0.24839234, -0.33981538, 0.18699610, -0.02937072, 0.39962482, -0.12468441, -0.10326286, -0.35763615, 0.13866030, 0.12038872, -0.02531237, 0.19644980, 0.06103728, -0.02808905, -0.06748313, 0.15916301, 0.00563702, 0.00139531, -0.07095398, 0.22015071, 0.24851248, 0.13377626, 0.01094556, -0.06976397, -0.25247914, -0.14339547, -0.07179690, 0.04883974, 0.06421062, -0.13764378, -0.07566441, -0.12742957, 0.02851051, 0.00923012, 0.03581058, -0.18607140, -0.10942303, 0.02833508, 0.11209986, -0.11118582, -0.00425189, 0.15616940, -0.03331331, -0.03607174, -0.03362343, 0.03597380, 0.06192587, -0.04051133, 0.00404991, 0.04184974, -0.03669197, 0.03244824, -0.11281803, -0.15577766, -0.10707266, 0.10988005, -0.12496163, -0.10758389, 0.23096985, -0.20466915, 0.05016613, 0.22945458, 0.03384996, -0.01316387, -0.19254702, 0.04678384, -0.13074581, 0.11483552, -0.31560826, -0.11667549, 0.27880895, -0.20445268, -0.11364495, 0.12425181, 0.08539607, -0.00022196, -0.05000378, -0.03406643, -0.12728235, -0.04364507, -0.31647414, -0.08439727, -0.08018369, 0.04502865, 0.30664760, 0.28098881, 0.23822418, 0.08508905, -0.11294895, -0.12225655, 0.10376713, 0.03364571, -0.04584621, -0.32299879, 0.18036614, 0.31645831, 0.18401372, -0.09710088, 0.16036738, -0.19835246, 0.13521172, -0.05169490, 0.13948819, 0.20866628, -0.16640475, -0.03658335, -0.27012241, 0.07952010, 0.21861196, -0.07371322, -0.03549029, -0.05482378, 0.42683983, -0.06302173, 0.17420641, -0.18008161, 0.19456464, 0.11572771, -0.00627655, 0.02099016, 0.01094768, 0.25495619, -0.00786491, -0.13403645, -0.08416560, -0.03976005, -0.17639253, -0.08307254, 0.10541195, 0.33149508, -0.02523849, -0.10789087, -0.25474644, -0.04361389, 0.12191226, -0.08339034, -0.07132457, 0.32972395, -0.48174527, 0.18508229, 0.13106306, -0.41001481, -0.10353686, 0.09630477, 0.06213687, -0.06711816, -0.14375609, 0.03453689, -0.15954861, 0.14870048, -0.11527055, -0.11586092, -0.06759784, -0.00989373, 0.10339391, -0.14229538, 0.26399121, 0.12977719, -0.57932281, 0.00086471, 0.05914449, -0.20282638, 0.00056358, 0.74602073, 0.23039809, -0.09824403, -0.09182647, 0.14292921, -0.02204548, 0.07851599, 0.16162726, 0.04377405, -0.11773437, -0.14609838, 0.24418394, 0.08556738, 0.15322898, 
bias
1.82630622, 0.87886482, 0.25147083, -0.05184826, 2.09230900, 0.50422841, -0.84936404, 0.87234569, 1.28476429, -1.28845632, -0.84533703, 1.30860567, 1.45916843, 0.22616698, 2.15358400, 0.47386292, 1.31927657, 0.94594085, 1.24597645, 1.51553226, 0.86522758, -0.65263104, 0.73601282, -1.47357655, 
layer23
kernel
