layer0
kernel
0.90670437, 1.31576943, -0.57708591, -2.86954021, -4.43548155, -0.13598876, -0.90399981, -1.74714696, -2.55175424, 4.80758667, -0.93846732, 4.23913383, -8.49906540, -9.38640594, -1.21749449, 3.74693680, 2.27381182, 4.21833706, -2.82562470, -1.13785517, -0.42523313, 2.62525702, 1.48155177, 1.60440493, -0.86509168, 3.67389727, 3.70607305, -2.43997979, -0.95616615, -0.95850778, -1.50957167, 0.54442930, -2.88176751, -1.28009176, -0.35300091, -0.28255686, -3.26400161, 8.01334190, 5.93511534, 3.31392884, 1.71157253, 0.02436641, 0.00382744, -9.45499516, -6.51552105, -0.75827295, 2.78439379, 2.06393814, -2.45236897, 1.26207900, 5.42008114, 0.53040648, 0.55860937, 0.40765986, 3.35195422, -3.20449090, -2.95682836, -1.39995611, -1.97563016, -2.72996163, 2.68647885, 1.86314213, -1.21090055, 2.56332040, 1.89759099, 1.16633701, 1.47998118, 0.93831158, 0.91909105, 1.56647360, -0.69368654, 0.40974686, 
bias
5.18921041, 0.34289542, -3.90244079, 4.84510851, 0.14234814, -4.90368843, 2.78851557, -4.89049911, 
layer1
kernel
0.32329920, -0.07595636, 0.04340671, 0.46840471, 0.05411298, -0.76102841, 0.25988016, -0.27366692, -0.97326201, 0.46509272, 1.01364636, -0.86960894, 0.27730563, -0.02265308, -0.31752169, -0.31180057, 0.39051804, -0.13104632, 0.46747798, 0.82392401, 1.84322608, -0.03999891, -0.61949170, -1.03121543, 1.21655297, 1.14175951, -1.03056204, -1.13580251, 1.89300418, 1.45748079, -0.49575529, -0.56492275, -0.85744691, -0.08067131, 0.19527942, -0.57772541, -0.06290305, 0.12672023, 0.10283878, 0.60377789, -0.53345013, -0.00567145, 0.31925228, -0.11818625, -0.06770350, 0.20035833, 0.11409730, 0.40858001, 0.34457028, 0.03081012, -0.14790790, 0.55912864, -0.09030218, -0.40822193, -0.17276882, -0.34960049, -1.08368397, -0.33461919, -0.08699448, -0.51056308, -0.14433914, 0.32891732, 0.05815923, 0.25462991, 
bias
0.14375924, 0.35295114, 0.05819173, 0.08698331, 0.04203842, 0.05724137, 0.08271600, 0.20580116, 
layer2
kernel
0.21808957, 2.03758597, 0.34019294, 1.25898170, 1.77061057, -1.67417789, 1.12236881, -0.84378564, -2.89476514, -0.07737137, -0.10450603, -0.17606771, -0.23088384, -0.38138893, -0.52738297, -0.15159868, -0.10929048, -0.15023169, -0.03561597, -0.18924659, -0.02271547, -0.12577258, -0.25107500, -0.26423997, -0.12177607, -0.25977328, -0.28633833, -0.18885955, -0.31185630, -0.19044660, -0.20996737, -0.46278524, -0.30915833, -0.04784971, -0.16775171, -0.16140349, 1.86502326, 1.02196765, -2.34212208, 3.08813143, -0.26606399, -3.01439810, 1.98971951, -1.16238654, -1.01275098, 0.09808458, 1.91693699, -0.17428185, 0.52006882, 1.42822909, -0.15998976, -0.36032405, -1.52231193, -0.36979768, 1.87570095, 1.05711150, -2.02127767, 2.75924015, -1.28219557, -3.61702323, 0.47228470, 1.11590207, -1.14893675, 0.12602474, 0.72468901, 2.07931447, -0.59697896, -1.79168594, 0.19830638, 0.40897179, -2.09579325, -0.45878246, 
bias
-0.57253361, 0.59375989, 0.50195450, 0.36704883, -0.08006515, -0.51104045, 0.20139706, 0.45491755, 
layer3
kernel
0.30062303, 0.50754935, -0.11528970, -0.17961082, -0.16068836, -0.10239495, -0.15565254, 0.37326089, -0.00084746, -0.41004649, 0.07667350, -0.52134919, -0.05095004, 0.38864213, -0.05775357, -0.16022697, -0.84745538, 0.64585954, -0.47335652, -0.00275954, -0.09651955, 0.82212752, 0.22675249, 0.40661427, 0.12765057, 0.39468452, 0.58061451, -0.73397475, 0.16746524, -0.57035631, -0.28774270, 0.32262063, 0.07932315, 0.37373409, 0.14513522, -0.18000254, 0.62020248, -0.58272010, 0.32208687, -0.60581970, -0.04043333, -0.05251847, 0.08109098, -0.04351771, 1.01750672, -0.14232981, -0.35330096, 0.00222215, -0.55229276, 0.54762167, -0.42754605, -0.05876697, -0.49926168, 0.67484134, 0.76551622, 0.23190801, 0.16756633, -0.02120144, 0.06933074, 0.05525326, 0.41966569, 0.28850311, -0.84860277, -0.41312119, -0.32708234, 0.16999067, -0.37007907, -0.50244761, 0.40693343, -0.13359702, -0.13536295, 0.06215332, 0.19193542, -0.55128348, -0.64115471, 0.65923858, -0.13638239, 0.78472954, -0.16823462, 0.08569279, -1.13099945, 0.40912443, -0.85063899, 1.25100219, -0.04951441, 0.43540823, 0.02298172, -0.08097531, 1.22660625, -1.05087471, 0.30687124, -0.59792662, -0.09418114, -0.67656648, 0.09840968, 0.21197620, 0.35148418, -0.65506589, 0.27349299, 0.28142685, 0.50656831, -0.37902808, -0.45926467, -0.20613019, 0.46815321, -0.32717189, 0.40688285, 0.60378081, -0.32508987, -0.34977648, 0.04658481, -0.18842126, 0.35660619, -0.07948980, -0.51558578, -0.03054977, 0.46200702, 0.53798348, 0.20849603, -0.11901511, 0.15002225, -0.22720878, -0.25137994, -0.48535663, 0.33678466, 0.23204301, -0.48793489, 0.39705139, 0.39101639, 0.41058204, 0.43755889, 0.19091323, -0.10234906, -0.13436556, 0.36137146, 0.24797969, -0.53581339, 0.58733392, 0.32089922, 0.63983577, -0.56868839, 0.25318655, 0.15799625, 0.26717070, 0.06701835, 0.41614801, 0.00364308, 0.52560061, 0.13980862, 0.27947474, -0.59400851, 0.30042464, -0.12849699, -0.54833758, -0.24568373, 0.05817447, 0.14158756, 0.21259078, 0.19740573, -0.29783654, -0.45966646, -0.02594298, -0.29165480, 0.21006715, -0.84026861, -0.09914581, -0.50508636, -0.16285987, 0.36588845, 0.32159063, 0.17258888, 0.45649761, 0.31353647, -0.13871832, -0.02867492, 0.46225056, 0.23775229, 1.34030080, 0.42862073, 0.48883650, -0.41506663, 0.80480260, 0.08321330, -0.67281675, -0.49669361, -0.23323889, -0.21235943, 0.30911791, 0.54150808, 0.09989890, -0.26701948, 0.26651025, 
bias
0.10246733, 0.15196997, 0.06201800, -0.04052500, 0.26274472, -0.02943844, 0.38832018, 0.17581147, 0.17893234, -0.20129535, 0.05657894, 0.27980989, -0.03768077, 0.04328127, 0.05970912, 0.27532420, 0.01581727, -0.08032781, 0.00982599, 0.09872006, -0.14698648, 0.25076672, 0.07966954, 0.10938230, 
layer4
kernel
0.99658668, 0.45370236, 0.44417807, 0.61864567, -0.41517228, -1.14551187, -0.88662446, -0.76973552, 0.22728410, 0.11223505, -0.63509673, -0.74505895, -0.01551884, -0.48673299, -0.15806133, -0.37026677, -0.16341934, 0.46699294, -0.57048714, -0.26296553, 0.75632554, -0.45007291, -0.28665358, -0.22010145, 0.07466666, -0.00924202, 0.19977756, 0.06593890, -0.10250326, 0.06270923, -0.50413460, 0.60779130, 0.37925437, -0.04029386, -0.70498866, 0.54381323, 0.45768896, -0.28134057, 0.27581465, 0.47378618, -0.41420251, -0.11051807, 0.35245654, 0.12589450, -0.28662622, -0.08402977, 0.11550339, -0.11424205, -0.04431537, 1.16145957, 0.26214415, -0.25795513, 0.46123260, -0.30315241, -0.04547286, 0.01412415, -0.46167356, 0.48636672, 0.23965576, -0.27338836, -0.19751538, 0.22177166, -0.51028013, -0.07738907, 0.39349067, 0.07847996, -0.62629956, 0.00110794, 0.04414899, -0.73410523, -0.11030830, 0.45304048, 0.65401042, 0.75293922, 0.61585701, 0.49802032, 0.56082153, 0.42508990, -0.11707699, -0.30438328, 0.38929996, 0.16772312, -0.20106515, -0.39537749, 0.53105134, 0.88353086, 0.52938557, 0.15283552, 0.51672566, -0.60967630, -0.50339937, -0.66897810, 0.37380153, 0.15525091, -0.56536645, 0.52605402, -0.44292018, -0.82019800, 0.17206256, 0.36169606, -0.58448225, -0.39849555, 0.32688570, 0.22029975, 0.06684415, -0.64249951, 0.18913621, -0.17372020, -0.73891026, -0.45784298, 0.09083458, 0.65816844, -0.10620306, 0.54745418, -0.56855720, 0.50494242, 0.29590052, -0.12042464, 0.34315285, -0.20277214, -0.06968325, 0.02470588, 0.48004019, 0.32265458, 0.70724982, -0.07496229, -0.36798391, -0.56337857, -0.35137254, 0.46934137, -0.07221719, -0.56619406, -0.01771521, -0.23061614, -0.18569963, 0.51245052, -0.36147738, 0.41752246, 0.34082919, -0.19977793, 0.09640291, -0.23986760, 0.47034967, 0.78194958, 
bias
0.58485478, 0.87564605, -0.23265335, -0.15480801, -0.40153530, 0.69992548, -0.70689785, -0.43454161, 0.63657475, -0.22871429, -0.11008248, -0.18521929, 
layer5
kernel
0.42765731, 0.82621258, -1.19105220, -0.10052609, 0.31213659, -0.55400252, 0.24931888, -0.63740456, -0.26404732, -0.86238414, 0.97231442, -0.66195089, -0.23751101, 0.35324579, 1.19501793, -0.07605091, -0.66526777, -0.33760917, -0.15403795, 0.62742066, 0.23101148, 0.71611744, 0.89787310, -0.86006790, 0.52745503, -0.78227651, -0.48892280, 0.01876037, -0.22751658, 0.12545307, 0.47594199, -0.80871159, 0.73712534, -0.50110346, -0.24913420, 0.95684540, 0.38153163, 0.79570764, 0.13118975, 0.22239009, 0.24258882, -0.22075787, 0.26788825, 0.25503451, -0.27502921, 0.63493037, -0.42557493, -0.36894602, 0.23547716, -0.40879598, -0.29229677, -0.61433798, -1.07156408, -0.60404181, 0.09637066, 0.45850477, 0.48681405, -0.55507386, -0.19670992, -0.37913290, -0.41299823, -0.00054620, -0.40691304, 0.35091412, 0.00687050, 0.06112697, -0.23306231, -0.33305398, 0.23218188, -0.02028133, 0.02556391, 1.12292516, -0.06908686, -0.74408424, -0.54429245, -0.19325650, -0.40051711, 0.14762649, -0.00778978, 0.42595786, -0.23841971, 0.22761855, 0.59637827, 0.24781764, 0.44968233, 0.48402080, 0.01023368, -0.54840541, 0.16399139, -0.40448686, -0.29486021, -0.37949601, -0.56341136, 0.33730221, 0.24559274, 0.47927195, 0.43261057, 0.69694233, 0.47405976, -0.46127060, 0.64493877, 0.27607504, 0.42194042, 0.59224397, 0.25583717, -0.15006569, -0.50251001, 0.17450386, 
bias
0.38673651, 0.09859075, -0.30338863, -0.28725088, -0.56087643, 0.99999744, 0.38053522, -0.22004379, 0.73675221, -0.25137818, -0.61902964, -0.22747400, 
layer6
kernel
-0.42687094, 0.02926774, -0.07074696, -0.16007660, -0.28705832, 0.43430403, -0.26104257, 0.31165826, 0.24033614, 0.25537926, 0.13246804, 0.16662480, 0.18908487, -0.01316108, 0.43516085, -0.28109169, -0.00486371, -0.21057728, 0.13873468, -0.25114721, -0.57135993, -0.19548430, 0.20659274, 0.63269782, -0.32129046, 0.26645485, -0.76059341, -0.82855868, -0.59778565, -0.04348234, -0.03786362, -0.33797285, 0.63393080, 0.74020380, 0.12936576, 0.71487129, -0.07715063, -0.11563431, 0.03882729, 0.12837058, -0.22833653, -0.35991409, -0.18032356, 0.10161526, 0.37750661, -0.21294306, 0.18572959, -0.53437346, -0.01491581, -0.15267856, 0.28608704, 0.13298494, 0.05616920, -0.05653977, 0.11625594, 0.16866641, -0.15034921, 0.36062634, 0.19608925, 0.25284079, -0.26158598, 0.03223228, 0.24521659, 0.29075912, 0.43792149, 0.69172794, 0.51830977, 0.05243064, -0.03352887, 0.64440262, 0.02931497, -0.15477981, -0.07559939, -0.22062211, -0.12718081, -0.17899099, 0.56819630, -0.51650047, -0.43461069, -0.63819152, -0.00492869, -0.14559458, 0.25733528, -0.09201166, -0.28085533, -0.18390736, 0.24489644, 0.46347004, 0.48650253, 0.11134327, -0.73280913, -0.16099238, -0.13043909, 0.29096141, 0.06098909, 0.37181014, 0.11014540, 0.57896388, -0.17922877, -0.01882010, 0.02109683, -0.89409614, 0.07172384, 0.27072921, -1.52953374, 0.55137366, -0.04254393, -0.50265962, 0.90385866, -0.49867016, 0.21321715, 0.54025131, 0.06608973, -0.22808924, 0.08073419, 0.38303211, -0.01907383, -0.61612928, -0.10061422, 0.52841437, 0.67180330, 0.31779099, -0.19716708, 0.16316687, 0.04835207, 0.04386711, -1.24246013, -0.28925812, -0.21254407, 0.49172172, 0.49650568, 0.03423514, 0.45635620, 0.21259838, -0.76145923, -0.54821169, -0.21065091, 0.10978840, -0.57125670, -0.12212235, -0.00460748, 0.10232311, 0.41773146, 0.90751916, 
bias
-0.00190833, 0.15779071, 0.02064273, 0.48643494, -0.13773827, -0.83535522, 0.69137192, 0.04894339, 0.95693350, -0.29620337, 0.21026455, -0.12263338, 
layer7
kernel
1.52003813, -1.31022048, -0.31529674, -0.08944336, 0.58897203, -0.41678464, -0.33724776, -1.31706226, 1.34557021, -0.05437606, 0.08166906, 0.22716175, 0.59918636, 0.31932813, -0.35690850, 0.51646757, -0.29476443, -0.29833350, -0.32310641, -0.34665996, -0.04654091, -0.07568088, -0.54988480, -0.13347012, -0.02644113, -0.29864696, -0.10719885, -1.36458445, 1.40532970, 1.23081672, 0.44281724, -0.95866859, -1.51449645, -1.31768882, -1.09628022, 0.15068087, 0.33500063, 0.23026450, 0.33164287, -0.74490499, 0.41558674, 0.64107293, -0.75162053, -0.35256428, 0.23749658, -0.26046115, -0.02997700, 0.10930890, -0.03463138, 0.12995408, 0.08903237, 0.37935534, 0.59907913, 0.15437809, 0.04716790, 0.52087563, 0.86778796, -0.04862605, 0.27844277, 0.37379295, -0.09807627, 0.40447745, -0.36212775, 0.20316739, -0.21564540, 0.24529397, 0.48674858, 0.31418958, 0.16349377, 0.16445361, -0.51789021, -0.47480381, -0.35065767, -0.28245237, -0.05105568, -0.02913957, 0.02943441, -0.06481466, 0.00050752, -0.48510262, -0.62347877, 0.33035371, -0.27660373, 0.64499962, 0.02034031, 0.06467177, -0.10228448, 0.41625547, 0.48718581, -0.28273958, 0.27454028, 0.05698006, 0.03192538, 0.20029353, 0.36835593, 0.29785031, 0.09057815, -0.07115313, 0.30849808, -0.24557100, -0.84718025, -0.09725486, -0.53167313, 0.13351433, 0.51776540, -0.43710050, -0.40252981, 0.03571310, 
bias
0.01180813, -0.15811943, 0.64954311, 0.90539253, -0.07976449, -0.26535115, -0.44329911, -0.27335206, 0.79190236, -0.19736561, -0.19694555, 0.27047524, 
layer8
kernel
0.64729637, 0.42871585, -0.02867317, -0.01693688, 0.10568864, 0.18802890, -0.28042886, 0.28912240, 0.27322564, 0.69200599, -0.45554164, -0.27397078, -0.05889115, -0.37499803, 0.31379741, 0.53175241, -0.47228390, 0.56841505, 0.69341439, -0.15603267, 0.15011469, -0.24393636, -0.05542696, -0.07271180, -0.30762619, -0.35737759, -0.09846219, 1.24081182, 0.29097632, -0.23785532, -0.28542638, 0.81901509, -0.76866907, -0.40375939, -0.18830211, -0.63428080, 0.46377274, -0.35493997, -0.34594312, 0.02280047, 0.55141944, 0.05220346, -0.67331213, 0.80681366, -0.48786107, 0.21374758, 0.00660252, -0.29660562, 0.43967703, 0.34310868, -0.05797111, 0.20377725, 0.30697083, 0.25115797, 0.05114508, -0.02006403, -0.47220108, 0.40634990, 0.04702938, 0.24493423, -0.35882756, -0.18759431, 0.82177091, -0.28966495, -0.56668729, 0.76004511, -0.98612505, -0.01317715, -0.32238704, 0.30974442, 0.28464508, 0.65630120, 0.12363895, -0.40002206, 0.08038861, 0.15670247, -0.47825688, 0.48151666, -0.23132825, 0.37417665, 0.31224075, -0.52948207, 0.56440830, 0.07864229, -0.29034454, 1.15372372, -0.66453934, -0.46378580, -0.47491947, 0.05906050, -0.19762217, -0.02225641, -0.12629727, -0.37680423, 0.70942181, 0.36567059, 0.41918629, -0.01602635, 0.19781506, -0.54264331, 0.22591217, -0.64708513, -0.28508639, 0.23953502, 0.64084131, 0.14289796, -0.29885116, 0.17468460, -0.29071563, -0.35167781, 0.45633543, 0.27503461, 0.02847692, 0.60785991, -0.63816482, -0.57156456, 0.91971850, 0.05501573, 0.12095532, 0.26833934, 0.80568737, -0.28962725, -0.04485304, 0.06277759, -0.02057154, -0.34881994, 0.09162360, -0.48521322, -0.64828485, 0.58859199, 0.54190481, -0.24594140, 0.24471001, -0.10434759, -0.43837914, -0.18448655, -0.76036602, -0.31578565, 0.54046088, -0.10810411, 0.63109428, -0.60438126, 0.32985765, -0.51804107, 
bias
-0.22735050, -0.26075360, 0.53458297, 0.28624323, -0.12944540, -0.04903536, -0.30978039, 0.04256626, -0.01532724, -0.33711517, 0.29094374, 0.08537723, 
layer9
kernel
0.70128298, -0.10025246, 0.37509921, 0.28453296, -0.56809729, 0.23065332, -0.80831575, -0.12253079, -0.42159310, -0.34557039, 0.15085520, -0.14727716, 0.59418714, -0.27216265, 0.50785226, 0.52031773, 0.66482478, -0.15235567, -0.39901781, -0.60318506, 0.09023818, -0.39742067, -0.20709531, -0.06142319, 0.15199411, -0.33486620, 0.92207986, -0.44636893, 0.40393576, -0.54811478, -0.21826129, -0.09389220, 0.16809167, -0.21392418, -0.84866363, 0.36056483, 0.76113141, 0.36231315, 0.47411001, 0.05869336, -0.24937548, -0.41775528, -0.40201244, -0.63290721, -0.12149354, 0.26812500, -0.21017089, 0.06249267, 0.17421141, -0.02886795, 0.00835709, 0.33375975, 0.63540035, 0.44024169, 0.00304093, -0.06899383, 0.53017509, -1.39000833, -0.76154065, 1.89689565, -0.68351150, -0.71617484, 0.85832107, 0.14785708, 0.15970199, -0.13200942, 0.17759188, 0.33329111, 0.07437783, 0.04439797, 0.36400616, 0.42935735, 0.47912478, 0.13221270, 0.25755152, 1.02962101, -0.09718511, -0.68855906, 0.93718916, 0.69382417, 0.75876051, -0.51823932, -0.15806714, -0.45335588, -0.15682469, -0.54778200, -0.57318318, -0.00484900, -0.15765299, -0.03603102, 0.15683092, 0.09644356, -0.06994361, -0.16577721, 0.14869794, 0.28140104, 0.25605327, 0.46141097, 0.66039783, -0.97474605, -0.27496484, -0.43647468, 0.01247578, 0.41884509, -0.35458237, -1.32392585, 0.21951690, -0.19847512, 
bias
0.16344668, -0.32353348, 0.27076018, 0.40683669, 0.04259745, -0.35854125, 0.07847942, -0.16136682, -1.06500936, 1.02267957, -0.44791150, 1.01869082, 
layer10
kernel
0.43491939, 0.13931710, 0.24559103, 0.35900944, -0.47867927, 0.34137154, -0.29939780, -0.43871489, -0.18821204, -0.29225335, -0.30006760, -0.09851550, -0.05294422, 0.60972869, 0.61822337, -0.21425451, -0.42827305, 0.09037387, -0.03704621, -0.28056014, -0.00884862, 0.17142721, 0.10252597, -0.36385512, -0.55826420, -0.50174057, 0.22621901, 0.10078387, -0.12836093, 0.61902088, -0.24252869, -0.08279342, 0.14018856, -0.25024778, -0.34063578, 0.59461862, -0.43412152, 0.29221657, -0.00391437, -0.39040673, 0.24833365, -0.56560218, 0.02946545, 0.28885391, 0.28801322, -1.17693675, -0.44790849, -0.09297800, -0.13923533, 0.51456541, 0.26787668, 0.35551789, 0.00557217, -0.11103055, 0.71213651, -0.14666489, -0.43476647, -0.01432597, 0.28108478, 0.06067469, 0.50905663, -0.23174849, -0.20080480, 0.20580846, 0.68049783, 0.01342265, -0.52617443, 0.49114877, 0.20054144, -0.32181436, 0.46534044, -0.07828095, 0.13348086, 0.35996923, -0.23796934, -0.24492751, 0.25466895, -0.00093591, 0.02075853, -0.66659248, -0.52418196, 0.09022424, -0.22126974, -0.10164724, -0.23994690, 0.21856828, -0.26540434, -0.77469373, 0.59297544, 0.44613808, -0.07616134, -0.62448078, 0.65992433, -0.27595299, -0.46020296, 0.57722282, -0.06060833, 0.22685014, -0.10761331, -0.16043006, -0.41461462, -0.30910885, -0.11106205, 0.67441934, -0.30246684, -0.14893427, 0.47158262, -0.52625144, -0.02333501, -0.01698542, -0.22207607, 0.33779389, 0.09316985, -0.58267319, -0.54727715, 0.18174502, -0.00376242, -0.08789448, -0.38935637, -0.15196471, 0.29122335, -0.11623985, 0.45021680, -0.30120298, -0.34134826, 0.26627430, 0.51032132, 0.49263015, 0.03770708, -0.15309639, -0.10263129, 0.40757662, 0.04815484, -0.12823255, 0.00916430, -0.39335471, -0.58435088, 0.75911510, -0.30380836, -0.06722741, -0.53646660, -0.29055226, 0.08995216, 0.17774007, 
bias
0.38506773, 0.02065626, 0.10559034, 0.83270264, -0.37583768, -0.31369588, 0.58032095, -0.03332156, 0.40041694, 0.46167892, -0.35150492, 0.41162828, 
layer11
kernel
-1.28442538, -0.59068185, 0.49723414, -0.57376128, -0.33668095, -0.29591775, 0.82756984, 0.42186067, 0.24477148, -0.02536665, 0.31489632, 0.05531267, 0.70553237, 0.24512516, 0.21301809, 0.06663247, -0.34988478, 0.25294611, -0.55682832, -0.35127178, -0.22009426, -0.45202154, 0.18459518, -0.27773800, 0.17225504, -0.20690890, -0.38102341, 0.15823232, -0.39344996, -0.11554671, -0.15933211, -0.22408226, -1.16797721, -0.03373263, 0.46108705, -0.28759515, -0.45412609, -0.32982808, -0.55237824, -0.09786534, 0.42472783, 0.83914047, -0.52736390, 0.02854406, 0.19444127, 0.48320848, -0.07925490, 0.24091657, 0.15220608, 0.18406850, -0.69730562, 0.53776425, -0.40412548, -0.52080154, 0.70364594, 0.84230739, -0.02071559, 0.14633951, 0.07837716, 0.67506224, 0.01049083, 0.01589779, -0.79182976, 0.00868419, 0.30588159, -0.63058668, -0.20309548, -0.33337379, -0.33882269, -0.09696571, -0.47752205, -0.45201129, -0.26982030, -0.57561666, 0.81115210, -0.95751613, 0.04742995, 0.18618369, -0.03278586, -0.34561598, 0.14644094, -0.15440147, 0.37463424, -0.60202259, -0.80206078, -0.16998473, -0.30546367, -0.87329853, -0.76008135, -0.76135349, -0.43082359, -0.24925770, -0.19833069, -0.55460894, -0.06147091, 0.39265469, 0.12062217, 0.18947381, 0.28679398, 0.61171448, -0.52905905, -0.24844870, 0.56443685, 0.40395024, -0.98414636, -0.10396252, -0.00124815, -0.75000954, 
bias
0.42251489, -0.36527580, 0.73835343, 0.78330791, 0.09175237, 0.04488197, -0.41928077, 0.65983123, 0.28628305, 1.19849181, -0.03089875, 0.31717265, 
layer12
kernel
0.45286667, 0.10918950, -0.06815795, 0.54435182, 0.37627444, -0.47657377, 0.11861155, 0.03483882, 0.11215288, -0.00913712, -0.36381301, 0.23433571, 0.33585078, -0.18464194, -0.15850332, 0.15835136, -0.37110752, -0.53979272, -0.12879345, 0.38508862, 0.04213332, -0.53979272, -0.29375544, 0.18038683, -0.06036956, -0.06534653, -0.16731751, -0.44283673, -0.21381994, 0.00748921, 0.20895693, 0.05364494, 0.36502877, -0.07841584, -0.15667970, -0.11899147, 0.20075062, -0.41912961, 0.06610637, -0.36198938, -0.30332947, -0.06462468, 0.22962467, 0.16534191, -0.15014505, -0.20409393, 0.08449458, 0.09277688, -0.10849859, -0.23850140, 0.17318375, 0.11436338, 0.39282584, 0.47240296, -0.12235559, 0.55428004, 0.06296023, 0.08756934, 0.05979785, 0.03812113, -0.13707507, -0.31186876, 0.06784756, -0.17651863, -0.09222668, 0.43330437, 0.25874066, -0.26173055, -0.00729864, -0.06324772, -0.31416866, 0.28104988, 0.22688682, 0.17042385, 0.12902535, -0.03751740, -0.31531864, 0.17617366, -0.20756751, 0.15420943, 0.15892427, 0.01653065, -0.18445335, 0.19468798, -0.16467406, 0.08641939, 0.17226379, -0.01835621, -0.01953492, 0.22228698, -0.02465224, 0.22355194, -0.09981640, 0.23068169, -0.31623861, 0.06911251, -0.28667656, -0.16522910, 0.67442346, 0.26362133, -0.21133955, 0.34000632, 0.18735279, 0.16348249, 0.37214389, -0.16557841, -0.12331051, 0.20691480, -0.16348249, -0.53609216, 0.16243452, 0.16942096, -0.37819880, -0.04445117, -0.15253708, 0.19538718, 0.02196359, -0.22275071, 0.48346102, -0.02966322, -0.06247034, 0.08034395, -0.06782660, -0.02820772, 0.06369296, -0.24755254, -0.03662054, -0.11172467, 0.20365447, -0.00739397, -0.14322184, 0.14042726, -0.29389587, 0.17815399, 0.12447491, -0.03790139, -0.03988088, -0.06223746, -0.06520669, 0.20924361, -0.24731967, -0.14426981, 0.20959294, 0.03548525, -0.02410400, 0.32584804, -0.13962556, -0.03360515, 0.00360682, 0.13665129, -0.01444794, -0.29379201, 0.13987342, -0.36319169, -0.24355985, 0.03395627, -0.10748690, -0.11839256, 0.17729968, 0.12962870, -0.24389033, -0.20373765, -0.30899385, 0.12268873, -0.11409639, 0.09195458, -0.08389926, -0.30354100, 0.03726102, 0.10657809, 0.05167798, -0.03560865, 0.00558192, -0.11963184, 0.10186882, 0.20109385, -0.00728593, -0.10624761, 0.03457591, 0.18820533, -0.04258993, -0.20026766, -0.06642541, -0.09658123, -0.03046564, 0.01171120, 0.09137625, -0.06824303, 0.18804011, 0.00603633, 0.14152579, -0.17069018, 0.07460909, 0.30333450, 0.12971310, 0.29441288, -0.12848857, 0.36770999, 0.52095163, 0.17134726, -0.09140269, -0.16644911, -0.23616007, 0.36526093, -0.32677558, -0.15822725, 0.05199895, 0.01187360, -0.11082030, -0.06039575, -0.16347525, -0.04239948, 0.19854939, -0.26519901, 0.10775897, 0.03951308, 0.04110935, -0.05641602, 0.12201604, 0.04432375, 0.07386562, -0.12516484, -0.06520642, 0.01286854, -0.04132801, -0.06205762, 0.03658295, 0.17257179, -0.04836908, -0.07968216, 0.29703689, 0.04172161, 0.12988804, -0.14501978, 0.03155361, 0.03021974, -0.06979842, -0.20799580, 0.01074200, -0.04296801, -0.30010539, 0.28858581, -0.03085961, -0.01194786, -0.07120304, 0.35651171, -0.27825788, 0.09026995, -0.23158365, -0.07174923, 0.03910208, -0.08580115, 0.05844210, -0.30586520, -0.12840380, -0.17994407, -0.11996271, -0.09205748, -0.12264400, 0.32016540, 0.37855783, 0.10357708, 0.27150503, -0.13048925, -0.05764765, 0.14329983, -0.00357505, 0.23158365, -0.01808627, 0.14121439, -0.42701960, -0.08813486, -0.13416360, -0.05283126, 0.16435289, -0.06340744, 0.13406429, 0.18788862, 0.27627176, 0.03915174, -0.05163958, 0.02194682, 0.09871104, 0.15799725, -0.16792794, 0.18322119, 0.05953448, -0.22125573, 0.10969976, -0.14372976, -0.10388558, 0.20486407, 0.12226862, 0.49010053, -0.31122923, 0.15937673, 0.05835548, -0.23325092, 0.18554050, 0.21837348, 0.03561180, 0.28506544, 0.06139082, 0.02693330, -0.10499711, 0.07357493, 0.20435105, 0.24915439, 0.20281202, 0.14561082, 0.01148940, 0.15501609, 0.01225893, 0.04882195, -0.03355975, 0.09627586, -0.02601415, -0.08105640, -0.04830893, 0.14099368, -0.02496674, 0.00510610, -0.14697886, 0.11944705, -0.02956250, 0.07759355, 0.06271611, 0.05681644, 0.02513774, -0.01832961, -0.01327427, -0.07092436, -0.39878383, 0.17510919, -0.19528779, -0.14261822, 0.33999547, -0.19083165, -0.00133973, -0.12920529, -0.01700415, -0.12351535, 0.16684638, -0.14723800, 0.13261925, 0.07952777, 0.10215621, 0.05519237, -0.09252709, -0.05015896, -0.28327119, 0.00029510, 0.13839671, 0.07248101, 0.15712973, -0.07256855, 0.36450595, 0.22374573, -0.22987336, -0.31128317, 0.04792676, 0.04600093, -0.17384939, 0.03735661, -0.11099749, -0.02545151, -0.14014746, 0.10662062, -0.12692931, 0.02341627, -0.15975586, -0.49301094, 0.14163560, 0.16719654, -0.24510486, -0.00805345, 0.13349462, -0.00939386, 0.27924448, -0.01205828, -0.22882290, 0.22934812, 0.02823083, 0.00816287, 0.15059422, -0.34610602, -0.02069167, -0.11951286, 0.11700629, 0.05163517, 0.11209343, -0.03020407, 0.27271390, 0.02917638, -0.15129605, -0.04281207, -0.29717794, -0.56868869, 0.10141549, -0.19761732, -0.16402939, -0.11279527, 0.18698949, -0.43554014, 0.05429212, 0.15660997, -0.14648345, 0.13144410, 0.12532808, 0.07770341, -0.16814014, 0.05308897, -0.23020262, -0.35051757, -0.00181099, 0.01493911, -0.18027191, -0.09720446, 0.02689541, 0.00582149, 0.19310550, 0.01529003, 0.07424435, 0.11560262, 0.08186430, 0.08166377, -0.03205892, -0.04684763, 0.19230340, 0.22378582, -0.16693699, 0.03767362, -0.04461380, 0.23308013, -0.31070507, 0.13050434, 0.20299534, -0.12393292, -0.24909797, 0.35424075, -0.15381235, 0.15165611, -0.09985482, 0.40270498, 0.14713825, 0.07331243, 0.03131694, 0.20504892, -0.04102005, -0.03904349, 0.07377449, 0.34541038, 0.15617396, -0.11582132, 0.30064258, -0.09164054, -0.10195973, -0.03498769, 0.17876323, 0.03218970, 0.02715846, 0.04081469, 0.02280746, -0.11068740, 0.24848190, -0.11859364, -0.07808698, -0.46698171, 0.03452564, 0.09662044, 0.06448208, 0.05100553, -0.17629895, -0.09277000, -0.01559429, -0.04127675, 0.04320197, 0.01153208, -0.01008174, -0.14025879, -0.11330192, -0.01570907, -0.02754720, 0.03180728, 0.02349192, 0.01559642, 0.25249207, -0.14730069, -0.23807330, 0.47581890, -0.28411502, 0.11469464, 0.00520990, -0.00585250, 0.20219027, -0.04546823, -0.29804221, -0.26560003, -0.12894955, 0.37619841, -0.00921141, 0.07348649, 0.15844245, 0.01865836, -0.00293649, -0.06738310, -0.30590698, 0.00321555, 0.05411129, -0.02199679, 0.02637977, 0.11158150, -0.16597953, 0.14951266, 0.02302085, -0.13542160, 0.00395543, -0.02435213, 0.15786898, -0.13189884, 0.08421864, -0.08020432, 0.10977916, 0.19645554, 0.03565774, 0.01310796, -0.05062949, -0.12321481, 0.35991639, 0.18497501, 0.39293030, 0.28094193, -0.04527276, 0.12169835, 0.16296574, 0.17639787, 0.11878536, -0.13270299, -0.21831259, 0.17494138, -0.07557597, -0.32447499, 0.03881967, 0.07274389, -0.07108510, -0.17672154, -0.29955271, -0.10964180, 0.08868443, -0.51462865, 0.02368829, -0.11433495, 0.05287891, -0.04361397, -0.01780162, 0.11231204, -0.02732953, -0.12493501, 0.03234635, 0.01188460, -0.14645879, -0.03912311, -0.09620967, 0.12315485, -0.02308142, 0.04454451, 0.04782163, -0.09839441, 0.10284481, -0.19792165, -0.02213065, -0.02427494, 0.02623716, -0.03228566, -0.09588600, -0.05300028, 0.18864022, 0.27130654, -0.23927963, -0.05013638, -0.01177953, -0.22284697, 0.23860891, 0.02023690, -0.09708683, 0.17891477, 0.22921883, 0.15284050, 0.08157641, -0.11142348, 0.09457163, 0.14479184, 0.09356555, -0.00535529, -0.01180049, 0.29947683, 0.11343565, -0.10723148, -0.03215268, 0.11536397, -0.04988486, 0.10614156, 0.22234394, 0.03108372, 0.06568871, 0.08509770, -0.08551690, 0.16223058, -0.15829010, 0.14143825, 0.01951378, -0.11670541, 0.04477061, 0.07616872, 0.14856465, 0.15393041, 0.05713702, 0.01345634, -0.02019498, 0.00533957, 0.10756684, -0.04657317, 0.01208345, 0.03785380, 0.07882318, -0.34645435, 0.05615221, -0.03696067, -0.18364356, 0.09786154, 0.25366971, -0.02726643, 0.15493284, 0.09506049, 0.14022735, 0.06376756, -0.26679960, 0.14250320, 0.05895326, 0.40265033, -0.13716371, -0.26154765, 0.12858550, -0.12132029, 0.25156891, 0.07151420, -0.04542946, 0.26487389, 0.04262841, 0.22811016, 0.11598080, 0.04461978, 0.12263329, -0.04573582, -0.05549572, -0.07365875, 0.02715701, 0.14521672, 0.10836546, 0.13838917, -0.18154278, 0.11466781, 0.14189048, 0.28535655, 0.08499423, -0.02455292, -0.02172999, -0.13497539, 0.06297977, 0.03671996, -0.07383382, -0.18206798, -0.06061774, -0.04807813, 0.44610959, -0.61253387, 0.02793963, -0.19381496, 0.13267715, 0.08563917, 0.13718447, 0.17000705, 0.45419964, -0.07766467, 0.00185999, 0.19647314, 0.30557352, 0.05168977, 0.02418353, -0.35365164, -0.23391861, 0.47846988, -0.07038361, 0.04602672, 0.21126640, 0.06431606, 0.24894302, -0.29332283, -0.03923684, 0.13498861, 0.02042743, -0.09609848, 0.05018733, 0.02938429, -0.26188713, 0.07067254, -0.07529544, -0.09424932, 0.06275583, 0.03160906, 0.38624308, -0.08598589, 0.05365450, -0.04409088, 0.16815789, -0.06217797, 0.09066657, -0.39803144, -0.42808029, 0.00077154, 0.03905936, -0.27377534, -0.09602926, 0.00556706, -0.26466018, 0.08031756, 0.04225767, -0.05780946, 0.04253753, -0.13976616, -0.19109903, 0.35021496, -0.22851926, 0.09810816, -0.00842055, -0.11985667, -0.08187674, 0.02208833, 0.06676473, -0.31519347, 0.21572602, 0.00412532, -0.05748963, -0.04029871, 0.10802293, -0.18278342, 0.15599757, -0.22244248, -0.12225541, -0.18230368, 0.14816172, -0.02730557, -0.27377534, -0.07791883, 0.00002202, -0.07040280, -0.05561062, 0.15535791, 0.05049332, 0.18822055, -0.05037339, 0.03837972, -0.11114128, 0.16375348, 0.02848495, 0.00873538, 0.14464357, 0.04625556, -0.16450548, 0.46394712, -0.18512073, -0.03493139, -0.25467116, -0.13285379, 0.18178898, -0.09068625, -0.09651683, 0.03365595, -0.07314247, -0.16023667, -0.04664459, -0.27653581, 0.22510181, -0.05898251, 0.07964981, 0.44687188, 0.04703503, 0.36670148, 0.28507343, -0.31505924, 0.14909612, 0.06085662, -0.09266448, 0.21677242, 0.11963089, 0.05643163, 0.29152870, -0.17106488, -0.01879319, -0.17856133, -0.03576433, 0.06850924, 0.12639852, 0.07106012, -0.09563183, -0.25154763, -0.03014199, 0.01547445, 0.10224328, -0.30797926, -0.01345717, 0.20188363, -0.32026511, -0.23009944, -0.14909612, -0.22447711, 0.26733920, -0.21068762, 0.06671775, 0.33335465, 0.06640562, 0.21396500, 0.11782901, 0.11946769, -0.01085627, -0.07787639, -0.26640281, 0.18868248, -0.02379990, 0.12485193, 0.08926913, 0.14912002, -0.01638682, -0.00611579, 0.22364102, -0.23175639, 0.10784085, -0.07557444, 0.31337833, -0.01365568, 0.11260083, 0.20678601, 0.00220076, -0.12516406, -0.03099839, -0.13031420, 0.07338952, -0.09301469, -0.13702500, 0.10721660, 0.10354907, 0.22754264, -0.06375252, 0.02604333, 0.18384446, 0.16792585, 0.11697065, -0.00362119, -0.06336235, 0.28247750, -0.00184839, -0.08255834, -0.01246568, -0.04947258, -0.22076960, 0.18785697, 0.11936624, 0.10766140, 0.40213674, 0.14926575, 0.00187958, 0.40445453, 0.05606157, -0.20674697, 0.30363062, -0.18345316, -0.00294794, -0.30687553, 0.11646900, -0.15679857, -0.27094978, 0.36829701, 0.10580716, 0.07695066, 0.28902856, -0.08222364, -0.04122771, 0.08541060, -0.18866819, 0.04032956, 0.15969580, 0.26399639, 0.15703034, 0.17580445, 0.08703306, 0.10968946, 0.22088549, -0.35786694, 0.06652060, 0.29829970, -0.04467542, 0.12921685, -0.16827163, -0.20164782, -0.16630150, 0.01570303, -0.36342964, -0.21822003, -0.25727481, -0.61606884, 0.10766140, 0.25379813, 0.31292805, -0.15191664, 0.12454806, 0.05911612, 0.06202140, -0.12202173, 0.25212771, 0.02576857, -0.15225348, 0.18004310, -0.28379107, 0.02907385, -0.43924454, 0.22804338, 0.00889479, -0.03176860, -0.00503424, -0.17600098, 0.01090532, -0.14694819, 0.13844287, 0.07545305, -0.05334767, -0.30113852, -0.01054743, -0.20850642, -0.21120118, 0.08164256, -0.06252667, -0.00991058, 0.05242134, -0.03065280, -0.13600075, 0.00535003, 0.29507533, -0.07642148, -0.07490568, 0.07035828, -0.03414756, 0.15831667, 0.20732747, -0.03960022, 0.02618962, 0.06909512, -0.09322157, -0.07747412, -0.04774763, 0.01221059, 0.33167821, 0.03790047, 0.12263650, 0.07668463, 0.10997027, 0.40689000, 0.40806827, 0.14276499, -0.30575663, -0.02975089, -0.36702579, 0.60837126, -0.27198005, 0.20000844, -0.04506817, -0.03186192, 0.03986422, -0.01578368, -0.14345230, 0.14571062, 0.37409532, -0.21424566, 0.14836168, -0.12617125, 0.14502330, -0.10083882, -0.09622399, -0.08404871, -0.03993786, -0.26569605, 0.06284016, -0.15278013, -0.09278742, 0.12695676, 0.06902599, -0.07879566, -0.09941509, -0.10201707, -0.03470937, 0.09700949, 0.02896539, 0.04445450, -0.02682980, -0.10456995, 0.25744826, 0.09956238, -0.23074120, 0.00287659, 0.11719511, -0.04050443, 0.19898124, 0.19880851, 0.07021343, 0.10562242, -0.10216788, -0.08023158, 0.16909951, -0.08463611, -0.25563562, 0.31177181, -0.07466114, -0.34838989, -0.07630205, 0.09206337, -0.33992627, -0.10164970, 0.02780901, 0.12030419, 0.02279993, -0.34303537, -0.48501676, 0.04952940, 0.03776239, -0.02297266, 0.05453848, 0.17859948, 0.04689532, -0.21763572, 0.11218604, 0.05026349, -0.36859891, 0.04346237, -0.25684470, -0.05773392, 0.09335881, -0.03912261, -0.15536773, 0.21867208, 0.14629957, -0.09240882, 0.01060111, -0.01087099, -0.10924968, -0.00890622, 0.05466802, 0.13835414, -0.06990343, 0.04881867, 0.08083951, -0.26474068, 0.00851921, 0.18635084, 0.15432999, -0.15161784, -0.12055936, -0.11845963, -0.12983316, 0.44584218, 0.16684087, 0.20332363, 0.11443516, -0.27856389, 0.24111873, -0.21837167, -0.29728645, 0.08162691, 0.23481955, -0.02906810, 0.23534448, 0.11793470, -0.01130791, 0.07672755, -0.02604975, -0.10489889, -0.21119761, 0.02072388, 0.20349860, -0.15852945, 0.19667450, -0.00335191, 0.08280801, 0.08691998, 0.02637783, -0.20419852, -0.07432161, 0.24689297, -0.02860879, 0.11784722, 0.03672336, -0.36710238, 0.14190659, -0.07847732, -0.09842473, -0.08753240, 0.27886993, -0.41539323, -0.02228209, 0.29267323, -0.06464908, 0.19443251, -0.12131812, -0.10002005, -0.07829063, -0.16035560, -0.02841540, 0.06427164, 0.01695758, -0.14148389, 0.00584686, 0.07888374, 0.06513435, 0.17534512, 0.27153692, -0.36751303, 0.09252529, 0.24694978, -0.40072724, 0.01857515, -0.05666904, -0.00140527, -0.12325921, -0.01822468, 0.20133416, 0.01961310, 0.17793325, 0.16154182, -0.14870906, -0.19065817, 0.24393030, -0.03340292, -0.08923621, -0.18246245, -0.03073392, 0.18181542, 0.12110244, 0.19162871, -0.15323827, -0.32825989, 0.10492669, 0.32545608, -0.02414231, 0.30798626, 
bias
0.37259436, -0.35877609, 0.12551890, 0.31316283, -0.15723369, 0.20185435, -0.10637802, 0.07920558, 0.46235314, -0.34386349, 0.04855662, 0.55922478, -0.69993949, -0.41018838, -0.17802233, 0.43696454, 0.25825191, -0.42221469, 0.24827400, 0.24457662, -0.18359724, 0.56503916, -0.00928149, -0.02622028, 
layer13
kernel
-0.72378391, -0.37123969, 0.17119759, -0.50798410, -0.18268198, 0.28897941, -0.65434337, -0.04733974, 0.25519392, 0.08738652, 0.19887966, 0.12809993, 0.23811990, 0.32651085, 0.21843281, 0.09609169, 0.15106820, 0.13707295, 0.09714330, -0.05669455, -0.32862946, 0.19548017, 0.20847681, 0.16961949, 0.10702340, 0.37690273, 0.38565558, 0.62480205, 0.41274229, 0.40326121, 0.55337805, 0.18740901, -0.57960898, -0.56633550, -1.03533208, 0.03223561, 0.22620675, 0.39779484, 0.32672480, 0.01025128, 0.24726455, 0.19922645, -0.29974452, -0.56592816, -0.12823866, -0.09610989, -0.28224093, -0.52162927, 0.11607177, -0.20023537, -0.29688478, -0.05013591, -0.33912072, -0.03949986, -0.51326287, -0.31393042, -0.04063736, -0.34719297, 0.08576638, 0.17942350, -0.32849798, -0.05562978, 0.07763284, 0.18009287, -0.43331438, -0.65215451, 0.23589438, -0.81423813, -0.42785701, 0.13882159, -0.26290831, -0.45323375, -0.36191088, -0.25950482, -0.27029109, -0.23514056, -0.60200042, -0.34008455, -0.15747947, -0.60707635, -0.54362774, 0.07381149, 0.12115877, 0.01836971, 0.16085508, 0.29716796, 0.16410768, 0.12330253, 0.25429296, 0.22856799, 0.60826534, 0.82206160, 0.46636185, -0.95681340, 0.32521117, 0.26931551, -0.54992306, -0.82281435, 0.22000687, 0.15950570, -0.04835607, 0.03004129, 0.39441407, 0.38306585, 0.14021370, 0.18636318, 0.21712948, -0.01776313, -0.00468357, 0.15272461, 0.13665250, 0.12952694, 0.30386576, 0.23926064, 0.01928851, 0.29167312, 0.20094094, -0.05845009, -0.08183012, 0.12251597, -0.29729319, -0.18325822, -0.17065133, 0.01259256, -0.52032042, -0.12434970, -1.07289279, 0.22336569, 0.76995111, -0.02594284, 0.50234240, 0.16606487, -0.44857487, 0.06202469, 0.01970196, 0.33897534, 0.22713068, -0.03433308, 0.52480954, 0.51663625, 0.16228229, 0.36908737, 0.38177744, -0.05253473, -0.07488821, 0.10862498, 0.11255476, 0.02869479, 0.06131936, 0.04982661, -0.27908835, -0.62698489, -0.63350981, 0.15950848, -0.41113117, -0.52952653, -0.12678713, -0.48425007, -0.20738706, -0.02613480, -0.14701843, 0.06771955, 0.39570695, 0.57946676, 0.04278920, 0.25165334, -0.26656014, -0.53339130, -0.61578506, 0.48623168, 0.03689425, -0.79357731, 0.31171048, 0.02454879, -0.40334716, -0.39496687, -0.43358907, -0.47366875, 0.31025302, 0.33521172, -0.12517579, -0.31570220, -0.16044331, -0.23930064, -0.24039209, -0.24161997, -0.11351091, -0.20410134, -0.09884454, 0.17550392, 0.31116688, 0.13355456, 0.07488362, 0.25751239, 0.21185520, 0.11421569, 0.16256288, 0.27205291, -0.44709533, -0.07517122, 0.05600256, -0.77437931, 0.05392090, 0.03241036, 0.10171245, 0.37955686, 0.45796624, 0.27260801, 0.28437319, 0.10380626, 0.19441254, 0.25983846, 0.11435188, 0.21736902, 0.13494097, 0.22970812, 
bias
0.67945546, -0.26871231, -0.11546716, -0.06316214, -0.01343890, 0.77658498, 0.74031174, 0.86500371, 1.33074474, -0.13252419, -0.21948610, -0.22602022, -0.39442402, 0.69097841, -0.19722998, -0.61419237, 0.42380381, 0.74942499, -0.17632259, 0.63105047, 0.99264640, -0.27691764, -0.11535856, -0.70876175, 
layer14
kernel
0.49922737, 0.37776533, -0.03110334, -0.13497241, -0.57346874, 0.36727184, -0.39534190, 0.14559706, -0.05853395, 0.07411021, -0.30404863, 0.26692793, -0.27729025, -0.18035671, 0.17510997, 0.13746461, -0.24069424, -0.75710469, -0.31900185, 0.27466688, -0.44230026, 0.19530992, 0.23544750, -0.11090298, -0.11229274, -0.46134365, -0.05061796, -0.16585243, 0.18877760, 0.33799407, -0.18076393, -0.39074224, 0.09144708, 0.17488049, 0.10874239, -0.11259706, -0.68653780, 0.35077536, -0.04828487, -0.12669706, -0.77215213, -0.84153628, 0.16402653, -0.04848775, -1.09148145, 0.50557095, 0.20571788, 0.12132080, -0.06362297, -0.43843552, -0.07313902, 0.15245599, 0.04767986, -0.30291909, -0.16281901, 0.04075458, 0.13910364, 0.33719677, 0.25010753, 0.02352854, 0.36748868, 0.13113208, 0.05978666, -0.09710351, -0.03435242, -0.15335278, -0.35054913, -0.02670471, -0.13292567, -0.23177296, -0.12076905, 0.19849172, -0.14713898, -0.47444147, -0.45449597, -0.04708447, -0.40675753, 0.56599462, -0.25504088, 0.20027250, 0.23901910, -0.04949592, -0.04442780, 0.58920985, -0.01650205, 0.16324252, -0.20141691, 0.13119893, 0.31356952, -0.59313357, 0.29280657, -0.58692104, -0.10463216, -0.26452318, -0.31520438, -0.47117171, -0.31811360, 0.06070814, 0.12873934, -0.12581012, -0.35970858, 0.33188096, -0.06766505, -0.41477796, -0.63154042, 0.28735676, 0.21500495, 0.11277508, 0.43879759, 0.15993556, -0.19962654, -0.03910512, 0.60224819, -0.60049069, -0.08004101, -0.20431329, 0.27520049, -0.29995242, -0.09856835, 0.30141702, -0.02625103, -0.27482885, 0.37759325, 0.04808846, 0.44742033, 0.01576050, 0.33464301, 0.24255030, 0.12305377, -0.41105753, 0.25664747, -0.25124574, -0.03580285, -0.48404661, 0.01719327, -0.33991298, 0.32225856, -0.40078110, 0.18998237, 0.29380074, -0.54544175, 0.41342902, -0.14650513, -0.15032585, 0.07923225, -0.07758540, 0.36743271, -0.22525384, -0.08604842, -0.27465963, -0.05064094, 0.19506140, 0.55041713, 0.05430063, -0.03213664, -0.13376161, 0.35517278, 0.04007359, 0.09551787, -0.00399993, 0.10905872, 0.29991147, 0.12763163, 0.15608571, 0.05796032, 0.05237929, -0.12973596, -0.01890458, 0.07239401, -0.20287220, 0.26401901, -0.03852037, 0.07112672, 0.07339728, 0.07065149, -0.21047595, 0.10814218, -0.32273683, 0.15598242, 0.53817636, -0.05388628, -0.35526398, 0.30964148, -0.19748621, 0.35484153, -0.05554960, -0.14964597, -0.04976758, 0.36561352, 0.30457231, 0.20720211, -0.03986687, 0.19619218, -0.14334846, 0.00645758, 0.11554635, 0.10982818, -0.12165886, -0.00642677, -0.09957492, 0.46415716, 0.18919234, -0.02522647, 0.35058260, 0.32987890, 0.18515019, -0.13713734, -0.35472333, -0.39001819, 0.11396892, -0.02493070, -0.14709483, 0.18209393, 0.20624825, -0.06782925, -0.27328879, 0.02282697, -0.07083508, 0.21389250, -0.22902641, 0.23205319, 0.08668364, 0.16067161, -0.33899945, -0.19774967, 0.08306831, -0.04290041, 0.41096956, 0.28653523, -0.48092180, -0.02936398, 0.09080342, 0.06461336, -0.13208534, -0.01644761, -0.10089269, 0.02677860, 0.18362470, -0.16840671, 0.03396720, 0.55230963, 0.03984025, 0.15670057, 0.35756463, 0.24316522, -0.17284064, 0.23642541, -0.30187249, 0.02620544, -0.77827060, 0.57252908, -0.80948657, 0.13231310, -0.37671986, 0.14756635, 0.15146834, 0.15191175, 0.09737251, -0.29903468, 0.13461882, -0.66724110, -0.46114483, 0.24103686, -0.19172983, -0.12363846, -0.47170225, 0.14938177, 0.02503802, 0.28240067, -0.16602677, 0.43756589, 0.19198169, -0.10840406, -0.44433674, -0.08921999, 0.30609864, 0.04337573, 0.04115405, 0.28691459, 0.10403122, -0.12970401, 0.26575568, -0.31343374, -0.05906858, 0.62912440, 0.24431467, -0.20933197, -0.46493140, -0.06831712, 0.29631791, 0.37233666, 0.03532211, 0.07064423, 0.18240063, 0.16921371, 0.04903541, 0.11208884, 0.44990680, -0.20589331, -0.19946606, 0.25531656, -0.39560768, -0.00654498, -0.30651286, 0.35504958, 0.11336321, 0.00063718, 0.39538607, 0.40336469, 0.04235883, 0.12422303, -0.13785321, -0.20901790, 0.31245944, -0.15710306, 0.22609644, -0.00785394, -0.16661270, -0.24395126, -0.25210238, -0.45141658, -0.20183717, -0.00894561, 0.22823125, -0.53448033, -0.20862976, -0.09529043, -0.19358900, 0.25637200, -0.08476190, -0.01084390, -0.02872298, 0.10480007, 0.19242457, -0.15166898, 0.08747894, -0.10768174, -0.24072799, -0.24260685, -0.29333586, -0.26679707, -0.00103300, 0.48709252, -0.01881788, 0.47652400, -0.20056751, -0.01591153, -0.35815626, 0.24284171, -0.05014188, -0.03041393, -0.07814853, 0.35510314, 0.16674817, -0.02295723, 0.19046868, 0.32316265, -0.58385342, -0.03716605, 0.47699371, 0.07103460, -0.00025326, -0.00070414, -0.15878321, -0.52622217, 0.44678560, -0.02208318, 0.17675529, -0.05800485, -0.26526773, -0.19607526, 0.05782513, -0.40473098, -0.24172431, -0.27425376, 0.15905280, -0.17298116, -0.17352031, -0.00752019, 0.14476500, 0.34452453, 0.20506130, -0.20524101, -0.21854034, 0.46352696, -0.11054663, -0.28495768, 0.33422899, 0.07618224, 0.33611196, -0.01775101, -0.48204294, -0.52284086, 0.46948972, -0.03844418, -0.31179014, 0.28684065, -0.51248443, 0.26879543, -0.34113324, -0.00092739, 0.04997743, 0.00717396, -0.34992048, 0.02961771, 0.12561047, -0.33925027, 0.22438848, -0.09111033, 0.23039217, -0.06914073, -0.14012830, -0.51403463, -0.20669118, 0.06837122, -0.39399061, 0.28256515, 0.79167491, 0.03457037, 0.32011738, -0.32658127, 0.19453287, -0.15120929, -0.17375602, -0.22993046, -0.19807263, -0.11034815, -0.27579343, -0.49402729, 0.11242583, -0.10673144, -0.55312586, 0.24043682, 0.34214467, 0.68482393, 0.29643628, -0.18483831, -0.05559851, -0.27398303, 0.34962907, -0.00426010, 0.15663810, 0.22747274, 0.26021707, -0.42848274, 0.09155043, 0.19833699, -0.02861786, -0.27959636, -0.39239717, 0.04777997, 0.23869936, 0.59447634, 0.06348387, 0.13979818, 0.05860564, 0.23505808, -0.22641769, 0.25116065, -0.08502936, 0.20776229, -0.08748402, 0.12744586, -0.09749903, 0.07113600, -0.10299747, 0.13392615, 0.30516312, 0.17634265, -0.44615871, -0.09597714, 0.32126570, -0.15994553, 0.13942459, 0.02577391, -0.17889550, -0.37919563, -0.22249024, 0.19401620, 0.25567722, -0.18227823, -0.33246523, -0.29468927, -0.16980849, 0.08770077, 0.03743214, -0.28093588, -0.17356776, 0.24737760, 0.23307408, -0.34805241, -0.26718247, -0.24536043, 0.04909959, -0.12983198, 0.02833198, 0.07642299, -0.26461518, -0.36473984, -0.22555557, 0.10856008, -0.13505827, -0.08151174, -0.05377575, 0.07305926, 0.25908411, -0.15374896, 0.03929238, -0.10068671, -0.53009623, 0.06323617, -0.10787863, 0.09507352, -0.04701052, 0.11892960, 0.41327161, 0.03859073, -0.20768827, 0.19961931, 0.26645142, -0.45712471, -0.09849406, -0.01194997, 0.00109085, -0.42484882, 0.13155930, -0.12147308, -0.22663282, -0.05197147, 0.29537526, -0.28237009, 0.15714595, 0.37202701, -0.05473014, -0.04623244, 0.48197994, -0.00796814, 0.39252004, 0.01815307, -0.18877219, -0.02172456, 0.18276222, 0.14000276, -0.28256714, 0.15448579, -0.52138954, 0.15754004, 0.25498039, -0.19635855, 0.13744113, 0.27291179, 0.02443398, -0.17746332, -0.35942256, 0.42261499, 0.27799675, -0.05351375, -0.47831425, -0.32120737, -0.39214274, 0.40712908, -0.24003132, 0.04096268, -0.08760769, 0.26900494, -0.24590097, 0.00256407, -0.61444020, -0.17883708, 0.05563681, -0.20343965, 0.30472240, -0.49180195, -0.00834396, -0.07205935, 0.09254069, 
bias
0.57045519, 1.55009794, 0.22729710, 0.47882691, 0.03038227, 0.67456508, -0.62198162, -0.24199280, -0.61187094, -0.05213246, 1.19232357, -0.16346115, -0.67524606, 0.80048114, -0.10560159, 0.30275598, 0.40335128, 0.59783888, -0.62580866, 0.24224663, 0.72750419, 0.47572443, -0.13048930, 0.98627079, 
layer15
kernel
-0.29100898, 0.12951876, 0.02958649, 0.26419422, -0.32641822, 0.09075768, -0.09557058, 0.10837635, -0.08108889, -0.25267762, -0.25628731, -0.07769407, -0.26900712, 0.03265901, 0.05160983, 0.08456966, 0.17618677, -0.09049984, -0.21090846, -0.29186842, 0.08267887, -0.47475889, -0.11095469, 0.01213970, 0.03201872, 0.21689755, -0.10123328, -0.05869799, 0.02305348, 0.45775050, 0.15008213, -0.08651369, -0.03849462, 0.12677611, 0.24980016, -0.11400469, 0.19553970, 0.04488033, -0.43177474, -0.16162691, -0.08240087, 0.02745493, 0.11674658, 0.04094789, -0.21603169, 0.19784866, 0.07453598, 0.15311264, -0.07358743, -0.57577276, -0.39722395, -0.59354687, -0.07325079, -0.05823707, -0.21153858, 0.48124692, -0.18204977, 0.32154942, 0.40449518, 0.50332987, -0.18326163, 0.66410458, -0.40799615, -0.17208549, 0.18137650, 0.05554403, -0.42415440, 0.08806253, -0.53995526, 0.04904706, 0.22850476, -0.21544351, 0.41626963, -0.02335405, -0.57097387, 0.64291304, -0.13951318, 0.13628291, -0.45957285, 0.50811434, 0.24323137, 0.34485424, -0.07342339, -0.10188478, 0.51719403, -0.68796235, -0.51649559, -0.34240970, 0.39007816, 0.53779799, -0.46795410, -0.52278155, -0.17495896, 0.23851691, 0.55560821, -0.24619973, -0.07125176, 0.37265435, -0.39247203, -0.24332857, 0.02755579, 0.10010999, 0.05429435, 0.31769601, -0.06609303, -0.03830739, -0.25047928, 0.02477212, -0.53119588, 0.04379812, -0.34813762, 0.05424327, -0.37531033, -0.24210274, -0.30972806, -0.32995436, -0.01956231, -0.07375450, -0.63580060, 0.07605295, -0.08969069, -0.49895346, -0.05402717, -0.27366298, 0.16146564, -0.23783150, 0.17008759, 0.55762756, 0.45080492, -0.06096952, 0.03611142, -0.37600669, 0.30859870, -0.51015079, -0.05495095, -0.18923505, -0.20255989, 0.02285657, 0.08062085, 0.01976331, 0.15821841, -0.13963082, -0.40377608, -0.10497506, -0.48611730, 0.20692831, -0.31137785, 0.25199270, 0.09019447, 0.03213958, -0.18472458, -0.25409484, -0.69107491, 0.10550059, 0.22545333, 0.43987048, -0.24463525, -0.05718448, -0.49400029, 0.18301660, -0.26066399, -0.26539376, -0.11929581, 0.06500177, -0.52421838, 0.30428317, 0.05504950, 0.22716130, 0.55323327, 0.39540148, -0.59625340, -0.29922274, -0.15988688, 0.27086234, 0.09391812, 0.13077293, 0.02810351, -0.38882515, -0.31210136, -0.38937318, -0.13132097, 0.07418916, -0.66914093, -0.46609697, -0.55241120, 0.23839174, -0.51048714, -0.27264342, -0.39211330, 0.28004178, -0.47568741, -0.06511246, -0.31216851, 0.41990608, -0.00485650, -0.05516480, 0.05803855, 0.09539734, 0.32231116, -0.00310971, 0.23463351, 0.11686597, -0.36445954, -0.22449085, 0.52110726, -0.28219131, 0.03952819, -0.63154954, 0.04113412, -0.48143819, -0.12565628, 0.24116988, 0.21096730, 0.21130539, 0.28376904, -0.29751799, -0.14891806, -0.26874810, -0.11340116, 0.38847274, 0.04062839, 0.33999267, -0.47510448, -0.47426134, 0.39289919, -0.30479196, 0.45992810, -0.12056777, -0.41208041, 0.35917392, 0.04302604, -0.15734938, -0.06112702, -0.20445934, 0.03143299, -0.24429728, 0.05190527, 0.10802619, 0.27549314, -0.27907646, -0.02498186, -0.19223332, -0.06913867, -0.23372863, -0.21570298, 0.16646510, -0.01270264, 0.00455934, -0.40987194, -0.05604285, 0.13585779, 0.31623530, 0.46503770, -0.22429238, 0.62908328, 0.31792900, -0.43793872, -0.44785890, 0.12291319, 0.07772808, -0.16985248, -0.20445207, -0.66731215, 0.26953799, 0.12937891, 0.43436247, 0.47102425, 0.37405649, -0.16643919, 0.17068984, 0.06077090, -0.42904916, 0.44073844, -0.20987545, -0.28080803, -0.20562480, -0.31401616, 0.14053684, -1.08338237, -0.19247438, 0.21067244, 0.35625693, 0.24388058, -0.10852420, -0.08707175, 0.19433403, -0.02980431, -0.31667283, 0.07286155, 0.21663536, -0.12148860, 0.25161734, 0.41409385, -0.37384349, 0.02372083, -0.16268726, -0.19408673, 0.62925404, 0.01475143, -0.37742600, 0.24866705, 0.01899247, -0.61745292, -0.38922715, 0.32347789, -0.00441884, 0.18355000, 0.15320419, -0.24318793, -0.06838344, -0.14993779, 0.09230184, -0.11149409, 0.05379727, 0.08727296, 0.18135640, -0.38182607, -0.03429954, 0.36666727, 0.00515935, 0.24385901, 0.04783811, -0.40401506, 0.09051343, 0.11522887, -0.03353061, 0.25879812, 0.08551542, -0.21881403, 0.04723395, -0.10385977, -0.40621197, 0.22156018, 0.19750382, -0.28098708, 0.53341413, 0.01536138, 0.19070773, -0.16778859, -0.71220356, -0.24629518, -0.17172247, -0.67696971, 0.16265744, -0.72657079, -0.26767498, -0.35233894, -0.96328783, -0.05109770, -0.33455095, -0.66397077, -1.10627592, 0.11391152, -0.32941982, 0.17317630, 0.31077662, -0.89555663, 0.18728696, 0.05096942, 0.31590778, 0.24544938, -0.21668147, -0.03902572, 0.16458571, -0.11193673, 0.17823203, -0.35240704, -0.04349765, 0.48794821, 0.43410057, 0.11184452, -0.28786364, -0.21428414, -0.21557501, -0.30612019, 0.12585966, 0.14789662, 0.07058284, 0.33156875, 0.15923783, -0.50933975, 0.03206425, 0.16421689, 0.09022247, -0.00968548, -0.07685589, 0.14023270, -0.76554501, -0.08003730, -0.34794456, 0.08706986, 0.11545128, -0.27946076, -0.72535890, 0.52844703, -0.11193500, 0.17748855, -0.19691183, 0.94839168, -0.12541409, 0.22420488, 0.57131225, 0.06693495, -0.11369314, 0.19088392, 0.23910722, 0.06777216, -0.28749797, 0.02832435, 0.32682967, -0.03127341, 0.15128535, -0.07011110, 0.00995518, 0.02522533, -0.03922090, 0.60834038, -0.28364336, -0.52010173, 0.10490006, -0.45345619, -0.29030794, -0.52090144, 0.34602359, -0.42013341, 0.17421141, -0.04988418, -0.23392582, -0.51237082, 0.43346253, 0.02117662, 0.70271045, -0.30937478, -0.27314639, 0.02495588, -0.31380558, 0.28930581, 0.08464149, 0.42744282, -0.36019877, 0.40841639, 0.42196947, -0.42301199, 0.41675675, 0.18179351, 0.37948582, -0.56088835, 0.63803661, -0.14374068, 0.12530069, -0.30364078, -0.29139090, -0.67817450, 0.35811368, -0.28800264, 0.16863140, 0.32426015, 0.11354323, -0.13891274, -0.18730393, -0.43512946, -0.06026074, 0.23439078, -0.24156468, -0.36678180, -0.35347748, 0.16434745, -0.59060740, -0.38321653, 0.31852102, -0.68973762, 0.20360824, -0.09071719, -0.31617320, -0.64173770, 0.16904309, -0.43252078, 0.19656478, -0.22134733, 0.27678198, -0.41769296, 0.01074994, -0.57359618, -0.38842785, 0.02946465, -0.00963587, -0.34240180, -0.26883996, -0.43498597, -0.54113853, 0.03240779, 0.41662878, 0.02316267, 0.32936552, 0.34107158, 0.44110504, 0.07921533, 0.25367531, -0.00504241, 0.00381403, -0.32803530, 0.62680548, 0.12184928, -0.14233486, 0.25504902, 0.07063267, 0.19839825, 0.11685729, 0.25022769, -0.24829914, -0.48309854, -0.11956929, -0.12318531, 0.42379603, 0.04146355, -0.62388176, 0.34472600, -0.17489420, 0.00031899, -0.18236728, 0.23721005, 0.27867359, -0.33580652, 0.12583704, 0.73621899, -0.52745485, 0.02389578, -0.41584080, -0.07131863, -0.08586785, 0.13473126, -0.28966674, -0.35445195, 0.18897516, 0.10563283, -0.37882873, 0.46030438, 0.23059142, -0.46162206, 0.11935851, 0.13418224, -0.06901272, -0.20819110, -0.10914660, -0.02079440, 0.25233290, -0.21302254, -0.61359274, 0.37048355, 0.08526392, 0.15251975, 0.24640340, -0.31355631, 0.07347102, 0.17944922, -0.05637776, -0.20931743, 0.05190952, -0.07694965, -0.00166059, 0.26533532, -0.34498391, 0.03982429, 0.40256119, -0.51963502, -0.46493658, -0.06849298, 0.53450912, -0.38888660, -0.16145630, 0.13218786, -0.37641153, 0.48029053, -0.15305962, 0.01465672, 0.11605422, 0.03762683, 0.22116114, 0.38687867, -0.15099798, 0.49678460, -0.02341327, -0.00739044, -0.15185663, 0.14879006, 0.44085035, -0.50880557, -0.54560441, -0.33953083, 0.10757533, -0.13505182, -0.28555915, 0.28138861, -0.16584019, -0.26102659, -0.00729844, -0.14020365, -0.33486962, 0.25661072, 0.16902943, -0.13912947, 0.50375175, 0.26905236, -0.35397288, 0.18990315, 0.11487629, -0.37705806, -0.13411395, -0.45428351, 0.31659687, 0.28128201, -0.13466360, -0.44466469, 0.35699594, -0.30890179, -0.82611990, -0.19484997, 0.22494316, 0.27715966, 0.14194642, -0.45400870, -0.24885282, 0.32401711, -0.09117275, 0.24527213, 0.14167453, -0.11099020, -0.31069154, -0.22481592, 0.29955202, -0.31697020, 0.35849023, -0.25762689, 0.13094008, -0.37793377, -0.23818335, -0.21813220, -0.02007647, -0.16395359, -0.33378074, -0.02306389, 0.33317313, 0.21711951, 0.28152624, 0.03146917, -0.17711848, 0.00622801, 0.32041332, 0.14572635, -0.32003653, 0.32565120, -0.34504735, 0.37286553, -0.06578103, -0.36418828, -0.43692386, 0.42390803, 0.29732260, -0.29426005, -0.22764958, 0.30906239, 0.17112000, -0.05436027, 0.52624828, 0.31978130, 0.20263876, 0.17966962, -0.36725083, -0.23211581, -0.30880716, 0.13207249, -0.14891651, 0.08489951, 0.08519147, -0.38257334, 0.08746869, 0.15648603, -0.34263435, -0.01331299, -0.07911888, -0.28097418, -0.39168221, 0.30736661, -0.30830085, 0.22141607, 0.37930349, -0.22562017, -0.26766118, -0.56194836, 0.16687952, -0.08560020, -0.19303837, 0.11029930, -0.12822513, 0.28494471, -0.02477209, -0.16381373, -0.42589098, 0.28960586, -0.31429520, 0.01134938, -0.06758705, 0.47724479, -0.15961653, 0.11165751, -0.01395719, 0.02786808, 0.19615674, 0.00588300, 0.05996422, 0.42860681, 0.27084199, 0.11085510, 0.35602018, 0.01459757, -0.38317844, 0.02175747, -0.29972848, -0.27997702, 0.13381618, 0.27776250, -0.08390531, -0.24397783, -0.37264276, 0.07475109, 0.06180367, -0.11541406, 0.41512647, -0.35827923, 0.09680215, -0.40905735, 0.33744198, 0.23446958, 0.38174641, 0.05689782, 0.06939004, -0.09680215, -0.35463777, 0.09063190, -0.18773751, 0.13726282, -0.03618701, 0.10550120, -0.35868382, 0.26551124, 0.07697858, -0.11262758, 0.23169613, 0.01455928, -0.16120325, 0.04338711, -0.16281350, 0.22937022, 0.33689868, 0.01131643, 0.19072437, -0.22060335, -0.16648127, -0.32079625, -0.27087870, -0.22221358, 0.38717407, 0.09021836, 0.27928776, 0.00454838, 0.31990167, 0.01969193, -0.18258370, 0.33462709, 0.47592437, -0.25831267, 0.46598035, 0.07064863, 0.19541112, -0.39960995, 0.08643184, -0.21217716, 0.00158266, -0.25206879, -0.14592239, -0.07163147, -0.10660890, 0.23934971, 0.12083114, -0.19298293, 0.15355383, 0.14256918, 0.12672816, 0.24813743, 0.13401271, 0.20789893, -0.36284029, -0.11807600, 0.20011835, -0.15449631, 0.20290206, 0.18387999, -0.25501943, -0.28301126, 0.17537419, -0.13423704, 0.07531501, 0.10616788, 0.06843305, -0.19702533, -0.02120651, 0.20444857, 0.08498070, -0.14653179, 0.05130545, -0.16222885, 0.00220015, 0.25965896, -0.02876508, -0.25378221, -0.10926090, -0.09817658, 0.01456259, -0.28931731, -0.15314902, 0.05043170, 0.17765287, 0.00367087, 0.24267402, 0.08565598, 0.33381113, 0.01190263, 0.45310614, -0.32671791, 0.12423878, -0.42172402, 0.23235662, -0.41248137, -0.17012975, 0.30199912, -0.13326651, 0.18087704, -0.08092716, 0.21096949, -0.07356527, -0.16637743, 0.30464092, -0.17768890, -0.23918813, -0.18471737, 0.15978822, 0.06688043, -0.45860866, 0.27213416, -0.05666716, 0.14781784, -0.08615385, -0.29519638, -0.00020259, -0.02439379, -0.35581705, 0.02450361, 0.21755359, -0.47310489, -0.04423004, 0.05946757, -0.21392952, 0.19218515, 0.15627398, -0.55932915, 0.01616592, 0.26822588, 0.07394303, -0.25958848, 0.51123995, -0.06979942, -0.21196614, -0.01150436, 0.29974067, 0.68398768, 0.34782991, -0.25748751, 0.08538174, -0.23145862, -0.14169984, 0.23320945, -0.02225002, -0.46431789, -0.11963948, -0.21838582, 0.00481476, -0.08450633, -0.20309532, 0.04758045, 0.03499250, 0.09723108, 0.21596517, 0.02267167, 0.08314058, 0.02260489, 0.08474329, 0.14865135, 0.29062474, 0.07178805, -0.10310768, -0.08981854, -0.13095476, -0.00804277, -0.08040262, 0.23853667, 0.06547738, 0.20648247, 0.13756594, -0.23439634, 0.01249613, 0.16494557, 0.15813406, -0.28389958, -0.01114264, -0.68059856, 0.17511365, 0.06479628, -0.01858866, -0.10984210, 0.37113956, -0.33649704, 0.43197516, -0.79804510, -0.78199124, -0.52301735, -0.84113699, 0.72411293, 0.04710536, -0.46767384, 0.25158066, -0.04079472, -0.03028579, 0.85803574, -0.63581675, 0.33248359, 0.25496042, -0.41304255, 0.20972075, 0.48177975, -0.16884997, -0.04711492, 0.31623247, 0.34430534, 0.17287512, -0.83062625, 0.52141201, 0.13499741, 0.46733049, 0.43512926, -0.81493849, -0.03813574, 0.18061580, 0.08029663, -0.45122987, 0.22313792, -0.39632267, 0.55732876, -0.66714317, 0.15481354, 0.51026547, -0.60726017, 0.03856905, 0.17927647, 0.38964134, -0.06716391, 0.13024746, -0.41943440, 0.28394076, -0.23147909, 0.21528721, 0.12513083, 0.19274811, 0.12059711, 0.55337363, 0.58498019, -0.25531352, 0.03474777, -0.37539250, -0.05022721, 0.41451207, -0.21528721, -0.08361486, 0.04410668, 0.26865563, -0.25173938, 0.07314613, -0.27869162, -0.26049194, 0.05887118, 0.23937471, 0.18171917, -0.27549627, -0.44318360, -0.29841954, 0.14323583, -0.52987528, -0.07981472, -0.14754263, 0.25048903, 0.28313735, -0.54460180, -0.02893197, 0.51209241, 0.03297828, -0.55571610, 0.08710850, -0.47208083, -0.32592750, -0.04618920, -0.23617725, 0.38216594, 0.09586590, 0.29116631, -0.06046364, 0.13122760, 0.04748688, 0.09278392, -0.09489264, -0.18086375, 0.21654987, 0.16439947, -0.26813254, 0.05036610, -0.34583098, -0.01744767, 0.20422195, 0.13601279, 0.03311104, 0.06788474, 0.02433145, 0.17989050, -0.19951786, 0.28838789, -0.77510893, -0.32103845, 0.11291017, -0.14768679, -0.40365192, 0.16917542, -0.07069224, -0.27897239, 0.20653372, 0.46682695, -0.10805055, -0.30084068, -0.47320521, -0.41397864, -0.24692929, -0.20212969, -0.24951096, 0.22308679, 0.31921610, 0.47138286, 0.52514237, -0.12612225, -0.39180663, 0.02321440, -0.11282827, 0.24335508, 0.17997514, -0.21094760, -0.32216147, -0.34368673, 0.15342730, 0.32216147, 0.53191322, -0.06577165, -0.08149705, -0.24203965, -0.34416509, -0.26715246, -0.56491864, 0.15007894, -0.34273008, -0.41041505, 0.52330315, -0.23665833, 0.05829759, 0.18475853, 0.27695841, 0.14510767, -0.20119752, 0.06347920, -0.15012032, -0.08560402, 0.02218963, 0.03848075, 0.22971779, 0.12609415, 0.08638185, -0.04580528, -0.11243900, 0.20344457, 0.17397363, -0.25357112, 0.16904740, -0.20500022, -0.12419280, 0.32841522, 0.01217513, -0.16100988, -0.05574416, 0.13361314, 0.28589407, -0.01071428, 0.21391733, -0.37843427, 0.36574426, 0.35056156, -0.18955705, -0.13823047, -0.19182311, -0.05452739, 0.32676780, 0.06588609, -0.47587541, 0.17346792, 0.58827269, 0.06095738, -0.07857610, 0.23703128, -0.16757613, 0.11013117, -0.39542982, 0.06129729, -0.23113950, -0.29526937, 0.04608627, -0.05224754, -0.55515760, -0.35261595, -0.46136120, 0.25486249, 0.09841298, -0.04165880, -0.33327043, 0.25706086, -0.60322827, 0.04759436, -0.24621563, 0.33620158, 0.43322226, -0.32242522, -0.04748444, -0.16824734, 0.45051599, 0.38896206, -0.18700664, -0.11790504, -0.19023089, 0.39189321, -0.01901576, 
bias
0.91866702, -0.10234314, 0.32885942, 0.01172400, 1.00251877, 0.72291869, 0.61055231, 1.48021269, 0.18284361, 0.43292180, 0.64752716, 0.19290045, 0.52372223, -0.17695580, 2.93367743, 0.11527148, 0.08459985, 0.32064795, 0.17769854, 1.54643095, 0.01701732, 0.67167389, 0.28958839, 0.36283454, 0.36935893, 0.59918296, 0.31766385, -0.09086278, 0.72205251, -0.24370588, 0.09531835, -0.13600738, -0.34946010, 0.11450291, -0.15832531, 0.50964016, -0.02098143, -0.53945345, 0.92246133, -0.30263615, -0.58340859, 1.05859804, -0.21957676, 0.88948941, 0.54129535, -0.16120294, 0.18966243, 0.57491988, 
layer16
kernel
-0.14669991, -0.25264984, 0.26314816, -0.39202857, -0.01825115, -0.29864898, -0.33511674, 0.27060747, 0.02778251, -0.18468718, 0.12252620, -0.20374988, 0.12549610, 0.19642870, -0.22018801, -0.33373541, 0.21286683, -0.13330077, 0.13813551, -0.48402682, 0.53513694, 0.26176679, -0.01766408, 0.12915671, -0.02309665, 0.21516141, 0.37294644, -0.09642418, -0.09424601, 0.10954638, 0.18870452, 0.20347363, 0.15778503, -0.15597874, 0.40822229, 0.06460155, 0.11900286, 0.12463424, -0.38590926, 0.00895178, -0.21505515, 0.04204945, -0.05705762, 0.03899468, -0.32789537, 0.24501838, 0.24480587, 0.17935430, 0.12068108, -0.01965563, 0.44316331, 0.14985234, -0.47393298, -0.01324944, 0.30350092, 0.15584642, 0.27532870, 0.14615597, 0.00913475, -0.19690596, -0.09905239, 0.02879662, -0.35804716, 0.26933458, -0.03361687, 0.07482626, -0.16773471, -0.12827359, -0.03838717, 0.09565574, -0.17163087, -0.20359936, -0.56088448, 0.27346990, 0.12233841, -0.43099269, 0.16681923, -0.00870733, 0.04799926, -0.23421833, -0.24519327, 0.34061077, 0.38502705, -0.42298746, 0.19587056, 0.14577314, -0.20465052, -0.11233183, -0.33079788, 0.26339877, 0.35016543, 0.55210447, -0.06552690, 0.11278374, -0.50794649, -0.27940929, 0.24574190, 0.30826122, 0.02233239, 0.09001410, 0.01405401, -0.68816864, 0.29753709, -0.25715053, -0.10900947, -0.33632645, 0.20603988, -0.34180260, -0.15470104, -0.17957185, -0.06445877, -0.39519498, -0.29730892, -0.57636404, 0.27220994, -0.08077311, -0.12880345, -0.09754380, 0.34956044, 0.09742971, 0.20787513, -0.09896588, 0.02858722, 0.36591637, 0.12809414, -0.37667862, -0.05577066, 0.36427864, 0.19570911, 0.01903865, -0.45435396, 0.40428612, -0.24495809, -0.16143370, 0.29970518, 0.13955826, -0.09545644, 0.01545611, 0.01876082, 0.15125635, -0.32193154, 0.11534321, 0.28052029, 0.33667114, -0.40620959, 0.08607653, 0.10905585, -0.43622339, 0.20770918, 0.07648405, 0.02982196, 0.01501756, 0.39222589, -0.28564277, 0.09157622, -0.26790732, 0.17206779, 0.28871235, -0.80969065, -0.02615550, 0.19014429, -0.44099832, 0.22476248, 0.38131177, -0.11852043, 0.06889533, 0.55355006, -0.39700082, -0.22777922, -0.26750952, -0.17721340, 0.21006954, -0.03381735, 0.00902961, -0.32879436, 0.02847240, 0.53129065, 0.10719022, 0.04811909, 0.05592533, -0.24979982, -0.19643773, 0.33019248, -0.22474994, 0.18362151, -0.38238946, -0.33322176, 0.16684391, 0.35023239, -0.46208307, 0.36910719, -0.42223626, -0.38783005, 0.12881944, -0.22721104, -0.04255531, -0.11454080, -0.42748597, -0.36338803, 0.06796379, 0.21050069, -0.08741764, 0.32223564, -0.34493181, -0.14802387, -0.35366109, 0.61204821, 0.14066634, -0.09851632, 0.27908799, -0.29380310, 0.52226114, 0.13754873, -0.02197911, -0.24466963, 0.08430003, -0.02449767, 0.63705015, 0.30812874, -0.03846079, 0.42425770, -0.41673696, 0.12121648, 0.13526255, -0.11391695, 0.04694927, -0.02015666, 0.36121628, -0.02789859, -0.26809192, -0.25946522, -0.14499526, -0.11198147, 0.03494928, -0.14986162, -0.30702278, 0.13858052, -0.08095846, -0.06608289, -0.31365871, 0.21427125, -0.16650021, 0.04595518, 0.32601637, 0.18912861, 0.15462729, 0.46038985, -0.11544667, -0.08059616, -0.38496190, 0.29081666, -0.58275074, 0.14890036, 0.31428313, 0.01044118, -0.30841652, -0.04232346, 0.26441687, -0.08031680, 0.29361027, -0.30254990, 0.07396130, 0.25477886, 0.51458621, -0.06634493, -0.05383211, -0.03164212, 0.07287140, 0.31831163, -0.17454928, -0.12260759, 0.16041610, 0.27078092, -0.14349230, -0.16131631, -0.45910332, -0.02698357, -0.12701859, -0.10100273, -0.30138782, -0.15042385, 0.18670201, -0.18832238, 0.13629067, -0.31957191, 0.24935612, 0.08799480, 0.45154160, 0.16278760, 0.32178608, 0.07541861, -0.10507598, 0.05927830, -0.04171706, 0.12453179, 0.17284343, -0.05115349, 0.05002403, 0.19484963, 0.02118644, 0.01265175, 0.10660621, -0.05603566, 0.18741706, 0.11294574, -0.25124961, -0.12212714, 0.08532868, 0.22501707, -0.23871629, -0.10077675, -0.05691008, -0.11348715, 0.42217636, 0.28844219, 0.16872519, 0.19457908, -0.09728954, 0.19644803, 0.03301822, 0.29031116, 0.16602558, 0.19250245, -0.11597910, 0.46640834, -0.21721421, -0.07683486, 0.05051373, 0.24960944, -0.09246140, -0.27162158, 0.25853890, -0.26165384, -0.35863188, 0.15346205, -0.35323265, -0.14404579, 0.00086620, 0.34077117, -0.17697053, -0.40464517, 0.17680591, -0.02162744, -0.02378813, -0.09128387, -0.02306790, 0.41979057, -0.12766571, -0.09638721, 0.14231724, -0.19260979, 0.19507915, 0.28018963, 0.14799675, -0.07276370, 0.16445912, -0.12700722, 0.22833315, -0.06107541, -0.13276905, 0.33618638, 0.45147240, 0.16180663, 0.31916431, 0.14845975, 0.25842637, 0.08211227, -0.16519170, -0.06915227, 0.10387347, -0.16625558, 0.29440489, 0.24082397, 0.14488125, 0.11412542, 0.10426033, 0.18202037, 0.17505679, 0.28898877, 0.17215529, 0.11722034, -0.20233081, 0.16470812, 0.12631169, -0.35871723, -0.02121690, -0.24295701, 0.29511884, -0.15857756, -0.29093474, -0.35369632, 0.30265024, 0.38326398, -0.11959565, 0.30543965, 0.25857767, -0.11799175, -0.09065560, -0.50739241, -0.55927533, 0.02574968, 0.11799175, 0.21631820, 0.68061435, 0.42510504, 0.19735026, 0.02616809, 0.15481187, -0.06703927, 0.35268018, 0.06521580, -0.31170577, 0.09583934, -0.22782625, 0.30183759, -0.51958114, -0.44492620, 0.05518673, -0.29797614, 0.27995598, 0.42926586, -0.27073139, -0.25035143, -0.02076877, -0.36018857, -0.18245408, -0.03831965, 0.33680528, -0.29561636, 0.00098632, 0.05017219, 0.06237334, 0.07470462, 0.10991780, -0.15031424, 0.23760675, -0.03819561, 0.49430102, -0.19268526, -0.14109959, 0.16931950, -0.22279747, 0.10851915, 0.11197465, 0.05903146, -0.08811525, -0.23431580, 0.19548257, -0.18824247, -0.17985055, 0.35575193, -0.08762161, -0.05310774, -0.03905949, 0.02513465, -0.01149776, -0.42883301, -0.25079417, 0.21788104, 0.16379572, -0.37571007, 0.20132823, 0.21056701, -0.21614876, -0.01959630, -0.47964624, 0.21480145, -0.20941216, -0.11288624, -0.27177387, -0.58743191, 0.28043523, -0.25907058, -0.11442604, 0.06010013, 0.05880093, -0.20575514, 0.05894529, -0.30507195, -0.22250043, 0.16891016, 0.34936368, -0.28340155, -0.31449798, -0.16902795, -0.39153233, -0.40802285, 0.09941435, 0.22992513, 0.27280051, -0.22592027, -0.22580250, -0.15807353, 0.15183067, -0.29659399, -0.05229854, 0.49141783, 0.18339826, 0.09935545, 0.42922497, 0.14276089, -0.23769923, 0.12921509, -0.38210917, -0.44157952, 0.01636348, 0.27174124, -0.12054106, -0.46981236, -0.26600644, 0.31761962, 0.21692979, -0.18792495, 0.00552802, 0.13752489, 0.01993394, 0.37739387, -0.14226712, 0.15649384, -0.32048702, 0.27394694, -0.59686023, -0.17358795, 0.19299804, 0.31739905, 0.14811221, -0.13278265, 0.04739480, -0.04658618, 0.18132569, 0.12825215, 0.36094278, 0.05857311, 0.12686391, 0.41967607, 0.01445640, -0.21507064, 0.03072819, -0.21752676, -0.45278028, 0.16434643, -0.46388623, -0.08895424, -0.25159207, -0.23557389, -0.11244756, -0.19531490, 0.17918994, -0.30220950, 0.34876898, 0.28277409, 0.49848548, -0.25433365, -0.09578338, -0.17282191, -0.04725266, -0.41721508, -0.41778311, -0.40812665, 0.43908408, 0.16273944, -0.32462683, -0.37972537, 0.20860754, 0.67538291, 0.18972068, -0.48878634, 0.32377481, 0.17452598, -0.33712342, 0.06795011, 0.39761817, 0.50525910, -0.52116382, 0.11417322, -0.13433814, 
bias
0.37374255, -0.52621853, 0.02794031, 0.15043813, 0.71236175, -0.63241220, 0.17477810, 0.28116465, 0.09957114, -0.07193755, -0.61528778, 0.16969173, -0.10407379, -0.37791359, -0.08023447, -1.13589716, -0.16869952, 0.41572449, -0.23855935, 1.12447286, 0.14007765, 0.26661405, -0.08926284, 0.38249186, 
layer17
kernel
0.16900854, -0.40872869, -0.37900651, 0.33199492, 0.46584192, 0.10587316, 0.07969627, -0.41261393, 0.58162248, -0.22337072, 0.13141023, 0.26695201, 0.07450134, 0.26975080, 0.48032701, 0.19498292, -0.23376626, 0.44194350, -0.32395884, 0.14437059, -0.42589322, -0.43639290, 0.28152263, -0.70041609, 0.46504828, 0.39898780, 0.47598544, -0.53600240, 0.01643047, 0.28566650, -0.79819262, -0.18734515, -0.57505196, -0.39049610, -0.35005185, -0.22500013, 0.43052396, 0.17485034, -0.13593914, 0.18745397, 0.39051244, 0.62818086, -0.17915158, 0.36630547, -0.03380974, 0.23686941, -1.18294549, 0.98592138, -0.56864679, -0.34999809, -1.04999423, 0.32136551, 0.95068127, 0.34078759, 0.24935369, -0.56855893, -0.69310039, 0.18248034, -0.10829694, 0.29971176, -0.16352837, -0.37281221, -0.62703925, 0.55037671, -0.27622387, 0.14730214, -0.71295273, 1.61644030, 0.91643161, -0.78129673, 0.66376573, -0.10879389, -0.01872426, 0.83075988, -0.13205774, 0.20401405, 1.12262869, 0.40802810, 0.16008669, -0.68151718, 0.64291996, 0.26491341, -0.40107432, -0.51424366, 0.36556518, -0.49227402, -0.01877641, 0.57325524, -0.61106354, -0.79193020, 0.27204734, 0.00510151, 0.35630453, -0.05901977, 0.66491634, 0.45785034, 0.40518960, -0.18321963, -0.24462402, 0.60923582, 0.67137903, -0.64989024, -0.56741983, 0.84270847, -0.13677315, 0.25046039, -0.15811673, 0.85897022, 0.16043434, 0.17750534, -0.53732240, 0.87973702, 0.84128582, -0.64173734, 0.53400767, -0.03654522, -0.39545074, -0.51021272, -1.01148736, 0.43870842, 0.52585423, 0.99361128, 0.13900504, -0.64763492, -0.03093397, 0.91838288, 0.45876470, 0.47678620, -0.02803616, 0.38981286, 0.12497518, 0.11243849, 0.05002435, -0.58491516, 0.20097889, -0.49258620, -0.16023752, -0.53465277, 0.01280656, 0.52198756, 0.27772996, 0.57129139, -0.35598284, 0.61381036, -0.57055748, -0.08030121, 0.75771397, 0.03551784, 0.28343272, 0.23941262, -0.63900167, -0.25134066, 0.05907215, -0.35541099, -0.45135218, -1.45461345, 1.58912897, 0.54135883, 0.96073061, 0.47640899, -0.97721541, 0.61949652, -0.48034221, 0.21213992, 0.35722929, 0.02378445, 0.36552650, 0.30654892, 0.15024710, 0.38638172, 0.31664014, 0.40264869, 0.43937588, 0.60869896, -0.41264066, -0.52849329, -0.97056973, 0.45557904, -0.20348477, 0.36619157, 0.06275452, -0.64458960, -0.55743057, 0.12715536, 0.92504805, -1.20473170, -0.33914554, 0.63025677, -0.04774379, -0.06930619, -0.43433744, 0.05136375, 0.46259913, 0.29135564, 0.56039941, -0.54626858, -0.28243089, 0.14595671, -0.47303566, 0.42194122, -0.06211683, -0.36095750, 0.35189238, 0.54775441, -0.59610182, 0.20739949, 0.07238379, 0.24429098, 0.27993485, 0.14405343, -0.32096878, 0.33209664, 0.32740209, 0.48232254, 0.11875498, 0.17648067, 
bias
-0.22757208, -0.53632200, -0.00142451, 0.94959033, -0.52054900, 0.01947381, 0.59154111, -0.67732275, -0.73154360, 0.50213557, -0.28950512, -0.46519095, -0.18702599, -0.19179842, -0.09791189, -0.19299500, 0.08275938, -0.22982359, -0.37910607, -0.05316530, 0.32227203, -0.08519131, 0.07752044, -0.39954704, 
layer18
kernel
-0.13014771, -0.04436492, 0.02722031, 0.29311112, 0.53715801, 0.10927948, -0.24500267, 0.17841546, -0.06949442, 0.02668267, 0.30473998, 0.05683010, 0.08116311, -0.10179240, -0.14313063, 0.03916777, 0.12401468, -0.17331788, -0.05989662, 0.27877417, -0.13659935, -0.07789747, 0.38359326, 0.14950261, 0.22297058, -0.11163811, 0.16229935, -0.18293062, -0.19439244, 0.07251510, -0.05482570, -0.12241222, 0.00816655, 0.10590720, 0.15366478, -0.17926283, 0.24253207, 0.01897886, 0.08986066, -0.03012548, 0.16474454, -0.08504669, 0.04401338, 0.02128078, 0.03228412, 0.15106677, -0.11973780, 0.33071166, 0.07941294, 0.02625292, -0.09073327, -0.39387909, 0.20513113, 0.08248479, 0.29580751, -0.17759828, -0.14119120, -0.24438252, 0.01922749, 0.31924456, 0.28511292, 0.27919677, -0.19796349, -0.15757439, -0.06672735, 0.56385463, -0.20308323, 0.23914899, 0.29193926, 0.14449058, 0.01644007, -0.33540019, 0.27265343, -0.39550212, 0.29717898, -0.17897023, -0.15543896, -0.05893866, 0.18548828, 0.11174592, -0.03283883, -0.09677650, -0.11478399, -0.21255478, 0.02031367, 0.32987970, 0.03137503, 0.53558499, -0.08003946, -0.01364372, -0.39749068, 0.22780038, 0.40080497, 0.43262190, -0.50200045, -0.22846325, -0.12930945, -0.41535759, -0.09003147, 0.20805198, 0.17511819, -0.14600958, 0.28847387, -0.25358084, 0.15272695, -0.16672148, 0.19872230, -0.06572764, -0.14171793, -0.53552395, -0.42282134, 0.36087224, 0.27280000, 0.28101012, 0.31179810, -0.24705008, -0.08331409, 0.01881098, -0.24219863, -0.03731874, 0.07975293, -0.07258346, 0.39603907, 0.07744211, -0.20927738, 0.00424021, 0.08241926, -0.18296957, 0.52710408, 0.28725275, -0.49961123, -0.20584077, -0.05033441, -0.02878156, 0.03966908, 0.25027964, 0.11968865, 0.21081792, 0.22705291, 0.21911317, 0.15002558, -0.00570299, -0.17953297, 0.15144761, 0.09523504, -0.21819754, -0.38818428, 0.02789919, -0.29775783, 0.08774114, 0.58402503, -0.16961205, 0.09623423, 0.81483728, 0.26228669, 0.33148041, 0.19746441, 0.01391837, -0.14750503, -0.22868900, -0.03055328, 0.33922410, 0.30075538, -0.13776295, 0.57053596, -0.49884430, -0.44189060, 0.03316053, 0.38930070, 0.34267402, -0.15808354, -0.06439110, 0.17309350, 0.10235510, 0.08766451, -0.14211550, 0.13628718, 0.03191611, 0.26874202, 0.15393186, -0.17564838, -0.18906154, 0.52566773, 0.15185601, -0.07177632, 0.08123738, -0.08027930, -0.02862270, 0.03349295, 0.08614755, -0.14858256, 0.04307377, -0.18973289, -0.16921319, -0.26839176, 0.07836147, -0.11761655, 0.15969682, -0.23106968, -0.23657134, -0.08981087, -0.11798829, -0.27642119, -0.03832575, -0.11218924, 0.24207300, -0.46778974, 0.24385732, 0.20281792, 0.11984695, -0.04100223, -0.23627396, -0.06397538, -0.14839610, -0.03721055, 0.17575571, -0.24165349, -0.02605493, 0.16426049, -0.40687206, -0.00831017, -0.14499208, -0.08926275, -0.15627635, 0.08942243, 0.31766254, 0.17086072, 0.34363765, 0.39750400, 0.02799774, 0.04572254, -0.24207930, 0.27337715, 0.12306230, 0.13530466, -0.25016990, 0.20673615, 0.02594847, 0.52886981, 0.00469734, -0.06756949, 0.20530064, 0.18099175, -0.18433279, -0.21981685, 0.07125615, -0.36451808, 0.34470230, 0.20092274, -0.22523163, 0.40484089, -0.29677579, -0.08928619, 0.27511668, 0.06975844, 0.30230579, 0.37765181, -0.29792786, 0.02684346, 0.32580820, -0.41014045, 0.24331929, -0.00046533, -0.16877972, -0.25168264, -0.26070851, 0.03729676, 0.39193064, -0.10640101, -0.06031705, 0.35200855, 0.28848040, 0.14736453, 0.28014883, 0.04213515, -0.00935674, -0.02716437, -0.33065894, -0.04664808, -0.17513640, -0.01758524, 0.12098125, -0.00181846, -0.31000361, 0.01343031, 0.20256114, -0.26279140, -0.35513291, -0.03525655, 0.35573804, -0.13447635, -0.27161357, 0.38787320, 0.09753118, -0.19833727, 0.22842558, 0.02937193, 0.38500765, -0.24725637, 0.19669981, 0.54036158, -0.19414128, -0.24091122, -0.14726901, 0.32892466, -0.00047133, -0.29228649, 0.15289778, 0.34529924, -0.18165565, 0.09993619, 0.32217014, -0.07417440, -0.30315477, 0.03884636, -0.00932354, 0.00573279, 0.27616718, -0.01500459, -0.13121253, 0.22086753, -0.39338925, 0.03265826, -0.06883484, -0.17235614, 0.04056413, -0.29851887, -0.14843158, 0.07814803, 0.08924108, -0.27120015, 0.01715697, -0.22301991, -0.25431225, -0.03843244, -0.49571019, 0.60520679, -0.27890646, 0.00391457, -0.38226867, -0.51946133, 0.45523024, -0.18521011, 0.50075328, -0.37197924, -0.05304524, -0.16198090, 0.45772466, -0.55001789, -0.17819457, 0.11333986, -0.10375196, -0.30431828, 0.11372961, 0.71527272, -0.02708776, -0.40658921, -0.37915066, -0.43901655, 0.45460662, -0.38947958, -0.12662615, -0.14157130, -0.23115160, 0.01622454, 0.20415975, -0.29582331, -0.04850379, 0.01083523, -0.03201884, 0.24437578, -0.12934345, -0.19002980, -0.37607422, -0.36466157, 0.02973178, 0.27372262, 0.10262334, 0.25343344, 0.19256595, 0.12463346, -0.02368579, 0.29020756, 0.20796397, 0.19894692, -0.14733605, -0.18289661, 0.29082772, -0.12426974, 0.33273152, -0.15896532, -0.01841701, -0.24911614, 0.24815504, 0.08265428, -0.29005885, 0.55628252, -0.03851593, -0.03899648, 0.31908396, 0.20452128, -0.15915753, -0.08635449, -0.01018161, 0.12744136, 0.00694993, 0.12263588, 0.38866732, -0.10263086, 0.00118284, -0.15190624, -0.20463401, -0.17513156, 0.02769778, 0.12698607, -0.19772919, -0.20413184, 0.04117789, -0.18266411, -0.29929295, -0.03775686, -0.22534850, -0.24141793, -0.02297425, 0.11562449, 0.07501155, 0.22120561, 0.04011078, -0.08103758, -0.26163024, -0.02066741, -0.22296320, -0.00472985, -0.24411272, 0.59353954, -0.41288534, -0.32539362, -0.12968488, 0.06524750, -0.23155604, 0.12144878, -0.05252204, -0.47769403, 0.37048966, 0.12603940, -0.08229353, 0.37886077, -0.19024050, 0.32350338, -0.28866869, 0.27759722, 0.26922607, -0.08546645, 0.29298928, -0.12252893, 0.14109391, 0.08481151, 0.29737034, 0.00925969, 0.03251660, 0.10939359, -0.15054043, 0.06871057, -0.05161575, 0.21083610, -0.22369035, 0.33659565, 0.16657509, 0.02623856, 0.16670762, 0.08023963, -0.05492870, 0.28146818, -0.25827754, -0.06387366, 0.12026007, -0.11184517, 0.12204906, 0.13887884, -0.09316014, -0.01671715, 0.07560907, -0.20265549, -0.02264404, 0.03167459, -0.15261042, 0.18548392, -0.00416237, 0.14201355, -0.07429412, 0.21843478, 0.18672152, 0.13195811, -0.18780440, 0.32548639, 0.15887572, -0.16645597, 0.44305751, 0.26205984, 0.24767286, 0.00784613, -0.03184862, 0.11022293, 0.07847099, -0.27540988, -0.17934139, 0.22280578, -0.15050054, -0.28109682, -0.47648346, -0.33349779, 0.27398816, 0.33065435, 0.11597274, 0.12480780, 0.22097784, 0.35380825, -0.01641339, 0.11637896, 0.13709563, -0.19579287, -0.15496883, -0.14014220, -0.29450172, 0.17060789, 0.13983753, -0.09210795, 0.35360515, -0.43261981, 0.27193767, -0.28780526, -0.10359530, 0.05699566, -0.08257531, 0.03488134, 0.24476214, -0.01997128, -0.10523678, 0.11636233, 0.41292211, -0.20409004, 0.05421427, -0.13104440, 0.02019926, 0.04479858, 0.31552795, -0.08435357, -0.03816429, 0.22834739, -0.13843104, -0.26391268, -0.22962409, -0.15496771, -0.36269039, -0.14848705, 0.02319399, 0.20704050, 0.18691631, 0.35814255, 0.29197145, 0.06315815, -0.11824389, 0.13211481, -0.01839034, 0.07640374, 0.40703186, -0.13131894, -0.01397040, 0.03896932, -0.70218682, -0.26559398, -0.19100936, 0.05735966, 0.63942659, 0.11199061, -0.35882473, 
bias
-0.38291040, -0.30216712, -0.17580259, 0.08209373, 0.24303211, -0.27803180, -0.45790952, -0.53090668, 0.67832220, -0.24493310, 0.11279976, -0.07220910, -0.54069656, 0.77275920, 0.38751587, 0.38913924, -0.29804713, 0.71409732, 0.02463189, -0.19098115, -0.76612049, 0.08257996, 0.14190657, 0.11006273, 
layer19
kernel
1.06144106, 0.89948410, 0.22466339, -0.47673488, -0.02678519, -0.43894494, -0.76202834, -0.69973719, -0.13070758, 0.39009607, 0.05907563, -0.63289690, 0.76050025, -0.12809566, -0.73883921, 0.08708732, -0.26465881, -0.89322346, 0.23278664, -0.57764828, 0.09274308, 0.11850226, -0.25869644, -0.54470867, 0.05197027, 0.83554131, 0.53587121, 0.31952837, 0.38726491, 0.11684117, 0.06599523, 0.46248904, 0.41895655, 0.11388095, 0.25840878, 0.12136854, -0.11791845, 0.50557405, 0.23081464, 0.22767572, 0.51478153, 0.56709671, 0.02069066, -0.07449684, 0.22788498, 0.69417018, -0.91203821, -0.73368716, -0.60919118, -0.41405416, 0.88546038, 0.28588620, -0.23010780, -0.74068135, 0.07305001, 0.13684517, 0.42777959, -0.62869680, 0.68533331, 0.39961955, -0.76696581, 0.47460756, 0.37715480, -0.25814950, -0.42482722, 0.13328475, -0.25527906, -0.55992991, 0.19997497, -0.12869203, -0.30158904, -0.07520590, -0.24084999, 0.62324214, -0.86808723, -0.28921974, -0.11229202, -1.04958081, -0.85667259, -0.41264108, -0.61696404, -0.07732612, 0.29270282, 0.06378787, -0.02043089, 0.11136937, 0.66050833, -0.23143485, 0.28222799, 0.33440459, -0.34269217, 0.10805247, 0.23618904, 0.40053439, 0.25432211, 0.46526256, 0.13025975, 0.58484906, -0.31744358, -0.59955245, -0.16880387, 0.85043526, -1.11414981, 0.54822546, 1.55042934, 0.60840189, 1.03096473, -0.07251044, 0.14644922, 0.85926300, -1.02602792, -0.59003669, -0.39995301, 0.51230729, -0.05498471, -0.83453095, 0.51725370, 0.81191403, 0.09953649, 1.37908220, -0.96596509, 0.22218065, 0.49860463, 0.44132367, 0.48602018, 0.57411134, 0.50641167, -0.42983019, -0.18536703, 0.22730978, -0.56085980, -0.44111821, -0.38799810, -0.26073119, -0.36033139, 0.42431182, -0.27989590, -0.07754068, -0.60303009, 0.01385427, -0.44967827, -0.81806856, -0.34821242, -0.66990536, 0.35239810, 0.58405423, 0.24733385, 0.30302492, -0.44810247, 0.08476508, 0.20205562, 0.05653930, -0.69028842, -0.67294490, -0.52098960, 0.13868009, 0.17299527, 0.43950149, 0.26967892, 0.10461538, 0.60514951, 1.53491557, -0.28018051, -0.16934495, 0.03631457, -0.14221284, 0.47988757, 0.43411368, 0.48727044, 0.51827860, 0.12855449, -0.17129111, -0.14018497, 0.04590747, -0.33117664, -0.66567123, 0.43216789, -0.49396539, -0.32993239, 0.12141760, -0.35430843, -0.17827828, -0.61599308, 0.23875351, 0.45682403, 0.23560610, 0.24639723, 0.39365104, 0.52786559, 0.32958224, 0.13175608, 0.29309005, 0.17132132, 0.38912219, 0.53585929, -0.26466453, -0.03812476, 0.18611026, 0.58781856, -0.68211848, 1.18138134, 0.04233323, 1.08947480, -1.00522721, -0.39060259, 0.79939497, -0.50452834, 0.46614310, -0.00105696, 0.75590777, -0.76507026, -0.45440364, -0.39771056, -0.08317848, 0.05694362, -0.12383716, 
bias
0.19895345, 0.25825399, -0.13213566, -0.43384582, -0.78401327, 0.55255210, -0.46821246, 0.65251493, 1.24223673, -0.08555597, -0.24786848, -0.78316289, 0.28464425, -1.26965368, 0.90112567, 0.95832282, -0.19068332, -0.70633078, -0.20944226, 0.69006467, -0.15609311, -0.37157506, -0.44887060, 0.29856652, 
layer20
kernel
-0.36907193, 0.05626903, -0.23566230, -0.05344205, -0.41478488, -0.48142955, -0.15843147, 0.20931721, 0.26056382, -0.06856943, 0.41334131, 0.35343328, 0.14940917, -0.17022060, 0.04369797, 0.46555033, 0.22098604, -0.06369739, -0.35030556, -0.17394981, -0.44509980, 0.39433435, 0.18958846, -0.02228506, -0.00090804, 0.13500471, -0.12428860, 0.25352311, -0.21908499, 0.15561262, 0.20058367, -0.39310735, 0.29400620, 0.32258248, 0.38321555, 0.22989270, 0.10267319, -0.16055852, -0.28319848, 0.06896781, -0.11512953, 0.07867642, -0.02688188, 0.16312306, 0.06644906, 0.31085888, -0.04258968, -0.15231536, 0.63421452, -0.05852057, -0.16350400, -0.59404570, 0.19405493, -0.06835061, 0.02540606, -0.62629390, 0.10940342, -0.29079950, 0.24341729, 0.16223104, -0.09518875, -0.01289751, -0.14822854, 0.60196632, -0.25190365, -0.20777455, -0.03067468, -0.76037848, -0.02461046, -0.38499817, -0.06251623, -0.15119877, -0.02242534, -0.02813042, -0.41942555, -0.13797508, -0.14382645, 0.06003496, -0.23300119, 0.06881201, -0.03569330, 0.68437517, 0.19321193, -0.10877680, -0.21767062, 0.09449948, 0.25114042, -0.07478039, -0.00304636, 0.41521257, 0.25394905, -0.26518366, 0.10134557, 0.17039162, -0.06506713, -0.15927404, -0.10193444, 0.22759578, -0.00807627, -0.19401309, 0.23489636, 0.23051602, -0.12264985, -0.25424293, -0.07597173, -0.46541238, -0.21153449, -0.20040110, -0.10394210, -0.06538588, 0.04081484, 0.08874775, 0.21737497, 0.09627648, 0.24347456, 0.10184318, -0.17119876, -0.33491442, -0.22540560, -0.13068050, 0.23227094, 0.13350792, -0.01534623, -0.01045595, -0.16756885, -0.41365567, 0.37042975, 0.07530339, -0.24116236, -0.27002522, 0.27276105, 0.46563622, -0.13172963, 0.42842910, 0.27891666, -0.01266171, -0.30641162, -0.55701256, -0.18029040, 0.13480744, -0.38711825, 0.42870268, 0.34389231, 0.19930434, -0.64308983, -0.57308006, 0.42705968, 0.16014738, -0.41055736, -0.42005870, -0.25753599, 0.12326723, 0.17539951, 0.05013201, 0.31154352, -0.11764143, -0.23578295, 0.23990852, -0.47981703, 0.23840831, 0.19565234, -0.02630055, 0.05185099, 0.20915422, -0.04606894, 0.04319353, 0.53057414, 0.07007229, -0.00644773, -0.23227604, -0.45753890, -0.12560579, -0.40143359, 0.00456732, 0.41602096, 0.07272653, -0.51616895, 0.32905772, 0.13444237, 0.64408910, -0.24896736, 0.18360467, 0.25008947, -0.01681406, -0.13928147, 0.24966869, 0.34224248, -0.08801522, 0.02603638, 0.31699508, -0.00961680, 0.04534011, 0.21996288, 0.38953081, 0.07523586, 0.32217905, 0.14698528, 0.00678965, 0.00564071, -0.14286494, -0.00167141, -0.15276961, 0.19492388, 0.29381210, -0.25958154, -0.17067724, -0.03712270, -0.08795346, -0.12376873, -0.21425779, 0.28050020, -0.09334160, 0.24452645, 0.15918782, -0.27669680, -0.27511206, -0.34114483, -0.43507758, -0.16359624, 0.39145190, -0.19867364, -0.13804968, -0.10228450, -0.18776722, -0.07128473, -0.21459110, -0.14394504, 0.24053068, 0.32758552, -0.16349798, -0.12547292, 0.39341703, 0.22382717, -0.36531582, 0.29673311, -0.06224518, -0.17853115, 0.18757071, 0.14512411, 0.07703271, 0.19237411, 0.09698264, 0.07701329, 0.00566362, 0.03156511, 0.25331643, 0.08186640, 0.07900227, 0.18791880, -0.42230016, 0.10469989, 0.38379350, 0.06157881, 0.05103722, 0.02048649, 0.25697616, 0.02820373, -0.04805375, -0.03653755, -0.06157881, -0.29309604, 0.01505658, 0.27718419, -0.41211659, -0.32603735, -0.08366567, 0.06314458, -0.15151824, -0.06149139, -0.10954165, 0.08021554, 0.18357570, 0.03468100, 0.03827489, 0.45829237, 0.20571405, -0.45599228, -0.37491420, 0.64172429, 0.23489639, -0.13254252, -0.53850788, -0.00845911, 0.16186863, -0.19493239, 0.44420433, 0.31396189, -0.26134741, 0.35378292, -0.11981893, -0.57228279, -0.32819486, 0.04553008, 0.01590911, 0.03098382, -0.02948191, -0.36246061, 0.32574728, 0.05009143, 0.38537863, -0.02372459, 0.47616068, 0.01287748, 0.04633666, -0.18334411, 0.51398653, 0.18556915, -0.08438502, -0.00234499, -0.02736811, -0.03726958, 0.04363879, -0.03434792, -0.19474769, 0.28581676, 0.01503953, -0.20175299, -0.26462567, -0.34466136, -0.53205347, 0.05201444, -0.26777807, -0.20402972, 0.06085865, -0.27198124, -0.02140999, 0.21436256, 0.06549967, -0.02611668, 0.20543079, -0.45359397, 0.06422996, 0.30192897, 0.26147330, -0.13642846, 0.30192897, 0.05240182, -0.25197256, 0.11529409, 0.21686991, 0.55074871, -0.11539496, -0.26064736, -0.04226441, -0.17864028, -0.05694096, 0.05976531, -0.26669955, -0.13032368, -0.42082849, -0.12891151, 0.08160360, 0.11337756, -0.27456740, -0.15544024, -0.23058818, 0.17884202, -0.48377118, 0.04761051, 0.00226011, -0.40369758, 0.16908917, 0.19047861, 0.35799173, 0.26050088, -0.26883152, 0.22684066, 0.20488834, -0.24406479, 0.17269160, -0.06388689, -0.20995426, 0.00859799, -0.07902836, -0.02483708, 0.25374633, -0.45233041, -0.07368100, 0.08679610, -0.30958402, 0.33907893, 0.11201313, -0.39986998, -0.26072603, -0.62371224, -0.24721821, -0.18494661, -0.32979032, 0.20649259, 0.30811983, 0.09072971, -0.49867088, -0.23339391, 0.23887381, 0.20462444, 0.22118868, 0.04119265, -0.27897671, 0.41248700, 0.01620618, 0.01597266, -0.41298518, -0.21284430, -0.66306788, -0.29217830, 0.48472205, 0.05022204, -0.17436045, 0.10787682, 0.04734223, 0.14219368, 0.23679464, 0.11981675, -0.20540014, 0.17617655, -0.31728476, -0.17216873, 0.00377298, 0.06420842, -0.10411950, -0.18402517, -0.31077209, -0.48761660, -0.20439820, 0.24915205, 0.10395251, 0.32680333, -0.09426697, 0.34049666, 0.02600900, 0.10887878, -0.00916369, -0.14557768, -0.34674495, -0.25626403, 0.36823171, -0.26079795, -0.14498630, -0.35305300, 0.00457086, 0.15661675, -0.28346744, 0.17149977, 0.11019354, -0.34477368, -0.15701100, 0.36034665, 0.32210419, -0.11315043, -0.27459678, -0.02843545, 0.11847284, 0.12803346, -0.22452672, 0.21250202, 0.32604671, -0.50994599, -0.00495443, -0.23462375, 0.31617260, -0.18739527, 0.13052370, -0.03255500, -0.04817760, -0.15125260, 0.38359845, -0.07486700, 0.86499476, 0.13857228, -0.26013625, -0.27820757, -0.32649907, 0.00870822, 0.19787362, -0.28154850, 0.27760014, 0.33196604, 0.07722083, -0.34259623, -0.08162477, 0.13828970, 0.15005413, 0.46388757, -0.18165661, -0.17462103, -0.22709960, 0.12145042, -0.00487662, 0.17185293, -0.24705300, 0.36723471, -0.28419170, 0.21764192, -0.38222858, 0.02912273, 0.09578782, -0.09411543, -0.39768383, 0.24935974, -0.31141135, 0.04028163, -0.19549713, 0.46319553, -0.18546276, -0.14671759, 0.00905711, -0.22328332, 0.33672887, 0.27960524, -0.14391151, 0.48986036, 0.06684469, 0.08984448, 0.12106206, -0.22628982, -0.03958569, -0.09044578, -0.24773625, -0.34835404, -0.02490391, 0.41810504, 0.14892235, -0.12897919, -0.11985945, 0.23691282, -0.05987962, -0.13739741, 0.09260044, 0.00297719, 0.06149364, -0.44371411, 0.19102025, -0.41563702, 0.26373273, -0.25893322, 0.10588905, 0.22677656, -0.11482812, 0.47971040, 0.27333173, 0.13174638, 0.15562391, 0.30092889, 0.22737649, -0.50394791, 0.39619902, 0.22197704, -0.13294625, 0.41827676, 0.07247251, -0.11914768, -0.02188274, -0.40424070, -0.05421304, 0.36346307, 0.31844267, -0.11962225, 0.04310526, 0.18008158, 0.05309342, 0.01384053, -0.15698211, -0.16216770, 0.16876754, 0.08815511, 0.22946258, 0.24584435, -0.32692820, -0.28827193, 0.00395917, 0.39976224, -0.08703550, 0.44996822, 0.20707025, 0.36511305, -0.15191436, 
bias
0.07327326, -0.38728410, 0.86697203, -0.44352248, 0.52852702, -0.29742804, 0.10730226, -0.47964650, -0.21964124, 0.41621280, -0.06684852, -0.16033255, -0.39412257, 0.61935765, 0.85198683, -0.03976909, 0.73262537, 0.28731269, 0.20455872, 0.01910228, 0.32071543, 0.05483982, -0.86857027, -0.55597913, 
layer21
kernel
-0.30309466, -1.08943319, -0.40099564, -0.18014921, 0.20433986, 0.75759429, -0.14030579, -0.41152570, 0.51910293, 0.07622748, -0.96317875, -0.06161298, 0.08297263, 0.10248280, 0.53990233, -0.36844489, -0.48913234, -0.33334109, 0.30508113, 0.45317444, -0.36467421, 0.14131126, 0.12908134, -0.24215257, 0.47229758, 0.58081043, 0.76981837, 0.37031850, 0.01218034, -0.03669864, 0.43876258, -0.19848783, -0.03795945, 0.60915232, 0.04025593, 0.29917267, -1.71510708, -0.55049962, 1.52659559, -0.43687233, -0.41489863, 0.52216512, -1.05589533, 0.53604323, 0.82459295, 0.11478630, 0.49057814, 0.25464410, 0.48533931, 0.43257692, -0.52650148, -0.29805148, 0.35605270, 0.07872263, -0.43717963, 0.35163626, 0.09424911, -0.57268637, -0.19162095, -0.49357769, -0.33838838, 0.07546553, -0.13550676, -0.59653413, 0.10328229, 1.44758952, 0.93854707, -0.76169223, 0.23159561, -0.47629157, -0.04374584, -0.66063231, -0.23849393, 0.00401934, -0.37666333, -0.24866919, -0.04163826, -0.65335912, 0.21867894, -0.13085034, -0.25688082, 0.30889863, 0.67038351, 0.30797929, -0.25943807, 0.47658643, 0.09515180, 0.11795147, -0.29345369, 0.31073728, -1.01150894, 0.84024811, 1.10159922, -0.49683461, 0.95709795, 0.13457796, -0.64222789, 0.09934463, 0.08685686, -0.04880379, -0.67216939, 0.49540314, -0.82204890, 0.47566712, 0.00252734, -0.19721736, -0.11691457, -0.42132151, -0.47825363, -0.79489958, -0.41387331, 0.09120542, 0.18328676, -0.49445820, -0.30285016, 0.02230865, -0.45197594, -0.32996422, -0.29607847, -0.04224217, -0.68630099, -0.76235223, -0.07777618, 0.63662237, 0.22462712, 0.85680294, 0.34373546, 0.93902403, -1.06856310, 1.31366611, 0.58426964, -1.40074217, -0.67887086, 0.71864635, -0.62727022, -0.55111629, 0.51846087, 0.16998717, 0.19358407, -0.02134625, 1.08612859, 0.30060890, -0.30105624, 0.36278841, 0.33550167, -0.24218118, 0.06421838, 0.09315903, 0.44432175, 0.24201973, 0.44109267, 0.10712481, 0.36585504, -0.43701881, 0.21496540, 0.28794953, -0.68000394, -0.24342811, 0.06118928, -0.56703913, -0.04360775, 0.37189791, 1.01048446, 0.46087250, -0.60400057, -0.89789033, 1.18319237, 0.11843850, 0.70037353, -0.63405752, 0.13263205, -0.23146105, -0.28251582, 0.29775608, -0.69266862, -0.49911764, 0.20802920, -0.36405107, 0.11792131, -0.24289122, -0.45265651, -0.11587023, -0.59189761, 0.12718664, 0.52498317, -0.47209123, -0.43494385, -0.06826749, 0.00763397, 0.46951386, 0.30756131, -0.32126370, 0.34701765, 0.40810066, -0.30508497, 0.15188213, 0.38895032, -0.08997365, 0.30394006, 0.49616334, 0.13372402, 0.04393446, 0.55090135, 0.27192953, 0.37964499, -0.20806849, 0.08378758, 0.31923443, -0.23274419, 0.26998821, -0.36353132, -0.61768150, 0.85426146, -0.36749080, -0.77705127, 0.38258639, 
bias
0.39569378, 0.60799396, -0.60975522, -0.30362892, 0.07915421, -0.42306948, 0.58010191, 0.00999040, 0.47356293, -0.51212400, -0.30312806, 0.43541440, 1.11325288, 0.19965413, -0.04068960, -0.33885068, -0.44500852, 0.57070339, -0.53988159, 0.63091803, 0.45732319, -0.36465764, -0.47863865, 0.13399291, 
layer22
kernel
0.33412343, 0.34990668, 0.56070673, -0.14164799, -0.31593254, -0.26189497, -0.12298898, -0.55375141, -0.81430882, -0.13322134, 0.03444226, 0.26577392, -0.17080688, -0.13562897, -0.23179980, 0.36890009, -0.16465409, -0.33144829, -0.00782893, -0.05447228, -0.20397846, -0.08419964, 0.29560158, -0.05209811, 0.16687746, 0.19186260, 0.13189828, 0.19558132, -0.18535484, 0.47483379, 0.22602832, -0.09209637, 0.21928816, 0.28610885, 0.36141291, 0.38442248, -0.09227069, 0.05589698, -0.02069989, -0.18918978, -0.04660019, 0.42486352, -0.42323658, -0.13317658, 0.21870710, -0.23613860, -0.23892763, -0.38372520, 0.27879840, -0.31862673, 0.25460818, 0.22601974, -0.18448098, -0.36896196, -0.01158351, -0.09462286, -0.07794627, 0.54098129, 0.31129637, 0.30885291, 0.31789371, -0.14159831, -0.17201935, -0.12052350, -0.31373984, -0.65142554, -0.11368182, -0.04917457, 0.02846627, 0.35601163, 0.39999384, 0.01307249, 0.47208914, 0.15941052, 0.19626507, -0.40978742, -0.39633259, 0.46272928, 0.14434697, 0.03339943, -0.01655347, -0.54960072, -0.60429752, -0.24598946, 0.03709220, 0.01403983, 0.07414784, 0.17140287, 0.37293288, 0.25973678, 0.02374705, 0.18485771, 0.13805829, 0.04471538, -0.23575208, -0.30741370, -0.16231260, -0.07143445, 0.32062888, 0.07812063, -0.14386798, -0.03177853, 0.19720367, 0.16738486, -0.15332085, -0.08561375, 0.08922582, -0.00871316, 0.26560244, -0.25622642, 0.17199603, -0.17645347, -0.39471474, 0.09030175, 0.02699446, 0.29419160, 0.09422123, -0.39348510, 0.18459985, -0.11573995, 0.15109584, 0.14358459, 0.07875925, 0.02412580, 0.13171899, -0.01547154, -0.16459431, -0.33201894, 0.36053991, 0.24449658, -0.16677149, 0.33005950, -0.22316028, -0.29522473, -0.11713193, -0.19387729, -0.48071989, -0.32635829, -0.20879093, 0.17972566, -0.25364071, -0.44305480, 0.07424162, 0.12366346, -0.11158944, -0.27447903, -0.14638364, -0.13258995, -0.28687784, 0.28687784, -0.35863605, 0.08128981, -0.04281470, 0.08655931, -0.01376463, 0.06315652, 0.02049681, 0.03225632, -0.00575867, 0.12856033, 0.07915876, 0.05622093, 0.05498105, -0.03227570, 0.28703284, -0.26951951, 0.32267946, -0.07144824, 0.02484901, -0.30003861, 0.12173373, 0.51548481, -0.30611870, 0.03205258, -0.26791993, 0.27756876, -0.08465847, 0.15147324, -0.30744043, 0.46446505, 0.23923783, 0.34471396, 0.57681429, 0.24518573, -0.14446793, -0.57945782, -0.28391320, -0.18531018, 0.09774385, 0.01419235, -0.29845250, -0.03234998, 0.13311458, 0.13643770, -0.48726392, -0.35395944, -0.01354170, -0.04642870, -0.30838528, -0.09271497, 0.23983411, -0.04607265, -0.22084486, 0.00832560, -0.06347154, 0.06802896, 0.22255391, 0.03064389, 0.22502251, 0.36060569, 0.04372273, -0.04664232, -0.26300099, -0.36839128, -0.49751812, 0.42459944, -0.08448604, -0.39712921, -0.04900062, -0.11049160, -0.04948102, -0.21329682, -0.06376486, -0.00688171, -0.64001858, 0.03532529, -0.18357618, 0.33179507, -0.02988077, 0.03798349, 0.65334159, 0.32257140, 0.00916760, -0.08025853, 0.33871278, -0.23738079, 0.10607193, 0.16359162, 0.03692661, -0.02264277, -0.01065898, 0.22926964, -0.10569590, 0.07096957, -0.35387269, -0.02933590, -0.01457314, -0.10233704, -0.30338138, -0.04290679, -0.22298531, -0.11024662, -0.08315900, 0.25028962, 0.18647119, 0.36059043, 0.45160484, -0.30273128, -0.00504846, 0.18213718, -0.26372510, 0.39157867, 0.31725022, 0.05420233, -0.16753975, -0.27229980, -0.01866456, -0.22707552, -0.42438313, 0.32477522, 0.07375184, 0.07136659, 0.04825355, 0.28832865, -0.04097854, -0.29786965, -0.02733493, -0.10781316, 0.21276402, 0.46216545, 0.10771775, -0.25455356, 0.24348602, 0.00256414, 0.09970333, -0.02038193, 0.05939265, 0.01945169, 0.10449874, -0.12175715, 0.00640671, 0.34289241, 0.17239447, 0.12621400, 0.44378775, 0.16158426, -0.07491289, -0.02080255, 0.29680675, 0.05220196, 0.19344594, -0.04350163, 0.00530732, 0.15219644, 0.35066819, 0.25963479, -0.00332782, -0.24503152, 0.00020002, 0.46995986, -0.48702860, 0.11578309, 0.10005009, -0.30929664, 0.03635215, -0.21111315, -0.06108469, -0.33449584, 0.22417940, -0.47374466, 0.16034147, -0.14167541, -0.24321878, -0.00639896, -0.18311407, -0.13215572, -0.30537677, -0.16108811, -0.08815048, 0.30892333, -0.17872754, -0.16015480, 0.01089048, 0.20961988, -0.30108356, 0.21895291, 0.08454368, -0.21459706, 0.15991348, -0.18977359, -0.15469696, 0.23546316, 0.08211530, -0.30993354, -0.39357784, 0.30903414, 0.23834124, 0.23006675, 0.13652906, 0.05346939, 0.05891076, 0.19193216, -0.01897736, -0.11566295, 0.47992033, 0.04425053, -0.15829456, -0.07527985, 0.19894747, -0.12429721, -0.33895510, 0.29632509, -0.22299679, -0.10813896, -0.19600548, -0.24419595, 0.25346336, -0.16727655, 0.08902495, -0.05832669, -0.00786281, 0.47147891, -0.40637544, -0.17561720, -0.02744019, -0.26273075, -0.43186077, 0.35864833, 0.03365224, 0.56206775, 0.28891116, 0.30003205, -0.03298615, 0.32574907, 0.24372301, 0.46927091, 0.08494333, -0.10103587, -0.11050206, -0.12684703, 0.05222185, -0.20270282, -0.04300809, 0.35592899, 0.03622398, 0.14060457, -0.00008308, 0.73508167, 0.29862693, -0.06298176, -0.31099609, -0.41373590, -0.11397300, 0.19677067, -0.13530350, 0.08241902, -0.16483803, 0.11050206, -0.25806600, -0.05696359, 0.09575145, -0.28028619, 0.22142218, -0.00922186, -0.17737165, -0.21265106, 0.07119230, -0.10856704, 0.20855787, 0.02502207, 0.35142976, 0.00537536, 0.18965122, -0.37384486, 0.45025110, -0.07952487, 0.20485450, 0.34753147, -0.13400331, -0.44986129, 0.07314144, -0.21947305, -0.32989681, 0.33335727, -0.32712844, 0.37395996, 0.03099992, 0.30613500, 0.03212457, 0.10565926, 0.33497214, -0.47662014, 0.39818314, 0.08731884, -0.35850325, -0.19401623, -0.19609252, -0.00428231, -0.02268041, 0.02413668, -0.02034460, 0.18490370, -0.09821928, -0.12399968, 0.18259673, -0.55459577, -0.14806385, 0.05103369, 0.09718280, 0.40257084, -0.12811849, -0.20505062, -0.16404051, -0.11326122, 0.17421670, 0.07891650, 0.31831184, -0.02460099, -0.18754755, -0.19925019, 0.05769911, 0.45304486, 0.20403300, 0.12119865, 0.02284559, 0.14185636, -0.14236517, 0.22428367, -0.02747577, 0.34782284, -0.30369508, 0.55650651, 0.52865440, 0.03581942, 0.35913149, 0.16925511, 0.29566082, 0.31119370, -0.35484654, -0.18023525, 0.12948550, -0.14006396, 0.59078598, 0.46170220, 0.28575188, 0.31762111, -0.08670307, 0.04746909, -0.23754632, 0.92501128, -0.33261842, -0.25013334, -0.11709935, 0.32163826, -0.09479285, 0.37298554, -0.10057779, -0.24972618, 0.03307726, -0.31158495, 0.35832271, -0.03602701, 0.28936163, 0.35901004, -0.14639911, 0.23987460, -0.02329728, 0.55168867, -0.06220244, 0.00141760, -0.17790127, -0.14078601, -0.18924205, -0.03270496, -0.08476944, 0.38444087, 0.23597978, 0.16518585, 0.39870363, 0.03307934, 0.39997745, -0.30125690, 0.38883159, 0.00588144, 0.32561859, -0.80441326, 0.06576063, 0.14879735, 0.59073102, 0.11098100, 0.65537709, -0.34806955, 0.40125126, 0.05107196, -0.16464040, 0.36494759, -0.25603652, -0.33055460, 0.00884206, -0.22594267, -0.27673599, 0.22371350, 0.27718329, 0.57614428, -0.12405020, 0.14968725, -0.30488783, -0.23211171, -0.60040295, -0.45871007, 0.09165931, -0.04951671, -0.22136070, 0.13735114, 0.52955651, 0.46008843, 0.03233920, -0.58827364, -0.31619018, -0.22453086, -0.25320023, 0.14486307, -0.50419515, 0.09200390, 0.20840435, 0.20730168, 
bias
0.38593668, -0.50988317, -0.06473351, -0.26582476, 0.21171652, 0.57238954, 0.36501622, 0.18525171, 0.36154509, 0.15880115, -0.13595809, -0.17861882, -0.76363760, 0.61009938, -0.13739407, -0.06769132, -0.12256837, 0.13003767, 0.11626719, -0.52549565, -1.15414751, -0.52869892, -0.64512509, 0.25240412, 
layer23
kernel
