layer0
kernel
-0.25583214, 0.77211255, 0.43003121, -0.25826168, 0.00745949, 0.78814763, 0.26239192, 1.31584692, 2.32071090, -1.52474976, -0.94359511, 1.04843903, -2.39266276, -1.03246939, 1.97328722, -2.12465119, -1.39838159, 0.70509261, -5.08869505, -6.35854006, 1.16273105, -1.00438857, -1.56402075, -0.81422222, 6.61313009, 7.20924330, -0.23654360, -1.95854104, -1.31662691, -0.56265104, -2.50830698, -0.66377985, -0.04980789, 0.65479928, 0.28679195, 0.49080664, 0.23245504, 0.70088524, 1.64061379, -4.08432531, -3.15606952, 1.35170722, -1.81583512, -1.97228265, -0.49228844, -3.68757010, 2.21545267, 0.68400288, -3.76369500, 4.32119656, 1.55272007, -0.64929897, 2.69571018, -0.21871859, 2.51290035, -2.61443162, 3.16270065, 3.36576343, -6.65030193, 3.60943866, 3.44191194, -4.83289099, 1.82121813, 1.52773499, -1.28651369, -0.88675380, 1.30244339, -1.41926122, -0.37302068, 0.16849460, -2.07541347, -0.84730881, 
bias
-3.83855438, 6.16842127, 1.08945787, 1.80263090, 1.56750822, 0.32463777, 0.05056751, 1.24980378, 
layer1
kernel
-0.34668827, -0.02977546, 3.20744491, 0.58152807, -0.49995437, 0.12646028, -0.02139208, -0.60297269, -0.22532004, -0.32968098, -0.25810140, -0.30768842, -0.01871183, -0.70708168, 0.09103054, 0.19388728, 0.02092909, -0.11986985, -0.02732904, 0.08450076, 0.07858214, 0.49659348, -0.60127461, -0.21178670, 0.05587630, 0.56587350, -0.04980048, 0.18805850, 0.15017086, -0.00708403, -0.10984229, 0.02259196, -0.04843931, 0.00721955, 0.37034360, 0.01042689, -0.00730492, -0.68488199, 0.56078374, 0.08809807, -0.19709694, 0.50100577, -0.20245285, -0.16144200, 0.37797320, 0.04345927, 0.20076956, 0.00588192, -0.06622998, -0.77291542, 0.17335987, -0.16592352, -0.47406718, -0.35322654, -0.84634936, 0.33463567, -0.12567815, -0.55558628, -0.08710726, -0.16192551, -0.14323385, 0.11153033, 0.08251179, -0.07347577, 
bias
-3.66427636, 4.13598824, 2.47886610, 0.41089606, 1.20935655, -0.31083679, 6.74935246, 4.12932158, 
layer2
kernel
0.07162336, 0.13752659, 0.04706939, 0.24803467, 0.48876706, 0.08446323, 0.20349066, 0.40527746, 0.08202913, 0.19383489, -1.21821737, 0.35885239, -1.35775423, 0.09957168, 0.62609577, -0.75531906, 3.17416000, -0.76381260, 0.01913239, -0.57375294, 0.36705029, 0.05521060, -3.20462012, 1.85070312, 0.07131825, 0.01340178, 0.24212492, 0.40133348, -2.91671348, -1.57679462, 1.64814281, 0.23651920, -1.57964861, 0.18711059, 2.63417459, 1.04453731, 0.36229631, -1.22724783, -0.00072263, 1.80516410, -0.91082227, -1.44149435, 0.36504307, 0.98443520, -0.41750598, 2.43350792, 0.63886964, 0.15738128, 0.43083125, 1.37020075, 0.63444328, -2.40399909, -2.77384496, -0.21787471, -0.21990126, 0.51158041, -0.09613883, -1.94017732, 2.43783712, -0.48417431, -0.62990510, 0.53202623, -0.04151697, -0.20547222, -1.66737270, -0.48959410, -2.15368962, -0.46599919, 1.95968723, -0.46304983, 1.84040189, 1.69358921, 
bias
-0.78623772, -0.58800089, 2.30021358, -0.21859758, 0.71267003, -0.26610741, -0.13697852, -0.35573423, 
layer3
kernel
-0.06941665, -0.73120970, 0.32320979, -0.21396908, -0.15562342, -0.09811726, -0.19864811, 0.26108637, -0.12926644, 0.18109742, 0.23966642, -1.06896198, -0.40531820, -0.10589068, -0.04465238, 0.19643939, -0.47967169, 0.05586652, -0.04968028, 0.10050264, -0.07261696, -0.48271722, -0.00499955, 0.13210006, -0.02434419, 0.28425559, -0.22298698, -0.19993924, 0.13348489, 0.35243851, 0.12253721, 0.62152100, 0.39084575, 0.08772121, -0.06953724, 0.39925858, 0.10551082, -0.62254894, -0.05626076, -0.24940516, -0.09736270, -0.17608768, -0.25122103, -0.01758207, 0.44924685, -0.11541800, -0.66746354, 0.20967442, -0.10292406, -0.10254842, -0.24679236, 0.46541208, 0.09442531, 0.09498876, 0.16753332, 0.74413341, -0.08828740, -0.10845048, -0.59919292, 0.01645307, -0.69296467, 0.01024284, -1.15881240, -0.01445021, -0.95146459, -0.16601075, 0.06890113, -0.00836844, 0.03249694, 0.27026778, -0.07871692, -0.01318699, -0.14425193, -0.12559508, -0.61953288, -0.17645846, 0.80339152, -0.18281640, 0.56783563, 0.02178371, -1.48208916, 0.15554573, -0.04743290, 0.09664084, -0.03408726, -0.04223928, 0.05607798, -0.04164760, 0.12622689, 0.10021542, 0.00247337, -0.27721810, 0.24675263, 0.62534422, -0.20488486, -0.04373846, -0.39168125, -0.21803266, 0.16263358, -0.22710386, 0.10577662, 0.06827694, -0.10375180, 0.72245592, 0.01289418, -0.75761753, 0.24552062, 0.24706599, -0.39213756, 0.41184103, 0.05664746, -0.04413962, 0.06773967, 0.32680640, 0.00690993, 0.16397141, -0.05406186, 0.13239475, 0.13970040, -0.75459319, 0.11217967, -0.04115410, -0.16345258, -0.30492181, 0.07138119, -0.21802297, 0.05877310, 0.39182064, 0.42483351, -0.10353982, 0.22647113, 0.34815711, 0.09224296, 0.11412508, -0.08503786, -0.01112453, -0.07558834, 0.23941062, 1.21930170, -0.02961732, 0.18169726, 0.01460661, 0.34285730, 0.08823394, -0.64371020, -0.02412625, 0.00752939, -0.46667701, -0.15049110, 0.39529681, 0.15177955, 0.18450621, -0.10105630, 0.03294157, 0.40848365, 0.40062189, -0.33035746, 0.05970020, 0.38620868, 0.22618923, -0.13724962, -0.09385192, 0.05475872, -0.40419838, -0.00517773, -0.15510266, -0.19758300, -0.50298989, -0.09394248, 0.10537335, -0.24037038, 0.46367493, 0.44950709, 0.40925753, -0.44371116, -0.14513992, -0.06003201, 0.66715372, 0.07397329, 0.05922933, -0.16737987, 0.36568406, 0.13299137, 0.12166937, -0.06152413, -0.36387810, -0.23364805, 0.00697732, -0.14802498, 0.00227798, 0.71051985, -0.02417874, 
bias
-0.06444075, -0.23642759, 0.80434853, 0.05978834, 0.43909663, 0.06150995, 0.27573729, 0.11698402, 0.92462701, 0.00671319, -0.55903894, -0.07154509, 0.95953768, -0.06167385, 0.06675044, 0.90866619, -0.39335889, -0.35271412, 2.67392683, 0.22669865, 0.88470703, -0.03159560, -0.03715625, -0.02799555, 
layer4
kernel
0.46467146, 0.11937495, -0.03398623, 0.20935160, -0.32266870, -0.10458671, 0.44079646, 0.02859654, -0.53665274, 0.20222473, 0.64569378, 0.03398623, -0.08231504, 0.31289250, 0.20006686, 0.45066690, -0.13984023, 0.08867142, -0.52344739, -0.00364747, 0.03579433, 0.09526615, 0.29286993, 0.14603768, -0.27778864, 0.15675552, 0.26274765, -0.25358203, -0.12455836, 0.09142113, -0.26274765, -0.04521116, 0.10963486, 0.13560410, 0.01251459, 0.09782532, 0.05494840, -0.02054309, -0.19276980, 0.18166001, 0.01936706, -0.11259918, 0.07416533, -0.00365322, -0.60653424, -0.03500583, 0.28925478, -0.08007053, 0.02434404, -0.10388784, -0.11369282, -0.08682270, -0.26256379, -0.06511702, -0.65146959, 0.58680165, 0.07237720, 0.60117233, -0.14303291, 0.32872868, 0.81401467, 0.51070571, -0.21394430, 0.13422394, -0.14130233, 0.03450714, -0.35710472, -0.45620215, 0.05888335, -0.34843367, -0.03696246, -0.09838960, -0.36814854, -0.03260456, -0.30379233, 0.46646622, -0.41281021, 0.90687978, -0.27882522, -0.52012223, -0.10359024, 0.24967109, 0.00373634, 0.54896623, 0.00163793, 0.29514629, -0.33929971, 0.08186161, -0.45190573, -0.19809769, -0.28314486, -0.71534455, 0.90973806, 0.31262985, 0.06604491, 0.17068702, -0.83508235, 0.00334819, 0.46761036, 0.11541244, -0.00630056, -0.45181471, 0.30503455, -0.53764760, -0.26316121, -0.32813194, -0.08985629, 0.24751459, -0.22541204, -0.13354471, -0.00944892, -0.03348833, -0.22827226, 0.68481678, 0.07954117, -0.07293544, -0.00849977, -0.00559699, 0.41759112, 0.66847271, 0.49910152, 0.14923082, -0.33790591, -0.28899503, -0.09354866, -0.00524280, -0.87408507, -0.18814917, -0.26532847, 0.09604680, 0.13345312, 0.11024674, -0.06207754, 0.21398702, -0.02705906, 0.05932577, -0.09131139, -0.17433788, 0.37163675, -0.20155968, -0.22511245, 0.18747535, 0.04331817, 0.33755031, 
bias
-1.47879112, 1.52190089, 2.02251434, 0.85926986, 1.95578420, 0.28465885, 1.53943896, 0.31878698, 0.81146485, 0.17485377, 3.36710978, -0.07694632, 
layer5
kernel
0.04164615, 0.36113301, -0.25407144, -0.10293356, 0.04643995, -0.43037680, 0.04264485, -0.34355575, -0.31852144, 0.01006919, -0.20472981, -0.05765771, -0.04870389, -2.41710067, -0.15404308, -0.04514094, 2.08199811, -0.14846629, -0.04881096, 0.09350580, 0.00336376, -0.11082457, 1.79680252, 0.19027343, -0.12721138, -0.96674436, -0.25380147, -0.04659509, -0.30627963, 0.32680711, -0.06379854, -1.21205556, 1.22418547, 0.04706163, 0.03918886, 0.03256991, -0.11967763, -0.11967763, 0.08352338, 0.03562488, 0.02733136, -0.17504618, -0.62897414, 0.85201687, 0.10932543, -1.03609300, 0.77857947, -0.07742660, 0.68195802, -0.61553073, -0.20327179, 0.20553637, -0.23357385, 0.04281109, -0.13422588, 0.78571242, -0.51014376, -0.24809724, -0.42502487, -0.04021083, -0.01012388, -0.29350346, 0.12134418, -0.03384017, 0.11373387, 0.01835624, 0.03791934, -0.82181895, 0.15119460, 0.02332848, -0.16133218, 0.08187294, 0.17644697, 0.00722427, -0.01939465, -0.71008885, 0.42127925, -0.02752616, -0.12784611, 0.20429571, 0.03099381, 0.13236055, 0.00794261, 0.10674869, -0.47313520, -0.65417784, 0.08993479, -0.04865765, 0.00636020, 0.02588069, 0.00541919, -0.21972200, 0.05058912, 0.89094740, -0.63962978, -0.07965224, 0.03482148, 0.00772554, 0.01759163, -0.02405044, 1.20114267, -0.00940594, -0.06978883, -1.06309104, -0.03342703, 0.06890839, -0.08458007, 0.05226825, 
bias
1.30471981, 0.40250862, 0.75672281, -0.06286092, -0.01487248, 0.02257200, 1.01194930, 2.46788263, 2.02004433, 1.64084220, 0.48638847, -0.04974650, 
layer6
kernel
-0.03714317, 0.04408172, 0.42590833, 0.34481239, 0.10833424, 0.05174249, -0.05638539, 0.00457519, 0.11029457, -0.05171670, 0.10554850, 0.25504977, -0.41387153, -0.00332038, 1.18053973, -0.25346038, -0.16526119, 0.24340101, 0.12116161, -0.03992315, -0.15618980, -0.08074447, -0.34884483, 0.06138914, 0.16845405, -0.42076892, -1.14695227, 0.02041590, -0.28142813, 0.28454086, 0.09045250, 0.13329841, 0.06848023, 0.13384773, -0.02152595, 0.03366792, 0.09497065, -0.12491736, 0.02317105, 0.49119291, 0.01290999, -0.22864339, -0.26656473, 0.22105911, 0.54874414, -0.20432912, 1.43476510, -0.49743879, 0.28568333, 0.07752014, 0.31460583, 0.29984945, -0.07456886, 0.04335914, 0.01850695, -0.80550110, -0.14618646, 0.52611381, 0.59655088, -0.10358973, -0.13973939, -0.18413684, -0.09462588, 0.40796539, 0.24653876, 0.23487675, 0.02319613, -1.07044876, -1.01234341, -0.21973662, -0.54954612, -0.18648969, 0.49050263, -0.01210572, 0.35042420, -0.27719101, 0.21011764, 0.61598003, 0.01725314, -0.31551865, 0.05084687, -0.45263124, 0.16665682, 0.12045832, -0.15826865, -0.06690925, -0.15932027, -0.45219615, 0.09714330, -0.16733886, -0.15287910, 1.13049042, -0.96696365, -1.37236273, -0.60888737, -0.29050973, -0.04934229, -0.08294977, -0.11077072, -0.06550466, -0.07399917, 0.03685706, -0.07576649, 0.95594621, -1.17942595, -0.67454410, -0.54638529, 0.17730157, -0.13758528, 0.00162332, -0.01147884, 0.06079163, -0.01464507, 0.02927004, 1.01126385, 0.11941212, 0.06010812, -0.37858066, -0.02191233, 0.53940505, -0.29719678, 0.52468491, -0.15267889, -0.59507364, 0.87186790, 0.19314390, -0.28818566, -0.55766904, -0.35466388, -0.24857076, 0.28070474, 0.00227669, -0.08323286, -0.48008344, 0.07640079, -0.14649507, -0.18577941, 0.03376613, -0.05009080, -0.06014181, 0.00756700, -0.04943388, -0.01518326, 0.02573518, 
bias
-0.06034553, -0.13097191, 0.91497678, -1.84306574, 0.79501498, 5.38693953, 0.95133108, 2.16356373, 2.42251348, 0.42206001, 3.29054809, 1.71976817, 
layer7
kernel
0.08652369, -0.85373527, 0.12044046, -0.31786346, 1.92913854, -0.45509893, 0.04538573, -0.76172221, 0.20702951, 0.01305342, 0.22099547, -0.02942794, 0.10627489, 0.65946734, 0.05054216, -0.05683243, -0.14120132, -0.01771615, -0.19620724, -0.78546911, -0.47563452, -0.14747551, 0.04597107, -0.18740512, 0.00768685, 0.19012578, -0.17380184, 0.01328511, -0.16474412, -0.03368180, 0.03507793, -0.34089002, -0.16520950, 0.03996441, -0.05796875, -0.03839375, -0.00555376, -0.15863022, 0.31968459, 0.08461794, -0.48179954, 0.68906426, -0.03516909, -0.13135855, -0.08302709, -0.02481716, 0.18592225, 0.08537706, -0.00138564, 0.45804754, 0.15183149, 0.00973351, 0.04366469, 0.00177400, -0.27934298, -0.02363828, 0.01436417, -0.94667137, 1.07502258, -0.05782318, -0.04442612, 0.16442959, 0.05069709, 0.02260335, -0.29148206, -0.07163351, 0.05708940, -0.36825100, -0.14446653, 0.04025871, -0.00964297, 0.00078250, 0.04635487, -1.14998078, 0.62602824, -0.04733898, 0.57444745, -0.46124113, -0.03529214, 0.54458487, -0.20225111, 0.27987215, -0.27615705, 0.10994978, 0.57071275, -0.76071447, -0.02580680, -0.73594701, 1.10604346, -0.05161359, -0.07499578, 0.22302088, -0.12145846, 0.01217476, 0.39730412, 0.11621454, 0.07476443, 0.17196976, 0.07665379, 0.11606428, -2.10244226, -0.11829861, 0.06666752, 0.43333885, 0.01443255, 0.08731996, 0.07741644, 0.00535937, 
bias
-0.00244151, -0.04553214, 1.61133742, 2.28118587, -0.25123590, 0.04777387, 0.12723330, 2.15130949, 0.05860401, -0.21190621, -0.05659264, 2.67290497, 
layer8
kernel
0.21289450, 0.18311645, -0.12825565, 0.01562266, 0.19225991, 0.05680687, 0.00549457, 0.11812370, 0.06931736, 0.06418961, -0.24637935, 0.11540537, -0.04228179, -0.61940700, -0.79700261, 0.86862153, -0.20517857, -0.13779387, -0.41809973, 0.39196849, -0.09333447, -0.04539697, -0.27994293, 0.13343866, 0.03735034, 0.11379323, -0.09035679, 0.19913816, 0.13527267, -0.05059598, -0.18548679, 0.35684490, -0.01251773, -0.10892456, -0.39942190, 0.06911603, -0.01052745, 0.10358163, -0.19478425, 0.62635672, -0.08633566, -1.03856719, -0.42554170, 0.41072920, -0.00629200, 0.02150456, 0.30746499, -0.53832823, 0.15600300, 0.69987231, -0.07579911, 0.16530201, -0.07145549, -0.13324492, 0.28631139, 0.03318888, 0.01471322, 0.10430789, 0.23443276, 0.29218444, -0.14155357, 0.12726045, -0.02961948, -0.26072031, -0.18391632, 0.32650313, 0.72946584, -0.12252478, 0.10745672, 0.03528076, 0.48389968, -0.01785564, 0.50056911, 0.30486619, 0.04141086, 0.64865148, 0.37431937, 0.34267783, 0.87077504, 0.18431194, 0.28113505, -0.02914977, 0.08369187, -0.33128688, -0.09972728, -0.37492242, -0.16829793, 0.17207845, -0.09816293, -0.64190477, 0.62208968, -1.00639820, -0.01082823, -0.14691849, 0.11993346, 0.43436772, 0.20128746, 0.31698242, -0.00146205, -0.04246379, 0.04521412, 0.14325865, 0.08813126, 0.11122190, 0.06322723, 0.07725086, 0.34817290, 0.58125532, -0.03137777, -0.07230833, -0.01616827, 0.14350101, -0.09476087, -0.13366932, -0.09748028, 0.24112076, 1.26403618, 1.22275698, -0.03554404, 0.01319610, -0.17660877, -0.49956626, 0.01322732, 0.42217383, -0.38256064, -0.30736896, -0.49406442, 0.25510156, -0.04053016, -0.20650207, 0.17449974, -0.23969644, -0.51778388, -0.14816940, 0.18734992, 0.60007453, -0.30466032, -0.69808358, -0.50715077, 0.66988283, -0.10147639, -0.01308907, -0.20260605, -0.07235105, 
bias
0.71254456, -0.92852074, 0.34592503, -1.30034614, -0.41566682, 0.76628762, -2.17447519, 2.31036282, -0.42680264, -0.23307014, -0.28159839, -1.94897819, 
layer9
kernel
1.03153312, 0.36413053, -0.33149138, 1.03493309, -1.50548077, -0.31602177, 0.69596189, -0.30344209, 0.11330205, -0.25620466, -0.54950547, -0.75941539, -0.04569159, -0.42916921, -0.04584239, 0.53050500, 0.91021270, 1.08694720, -0.41325748, -0.41539082, 0.49523851, 0.32944790, -0.23466685, 0.88076264, 0.24137163, -1.35558212, 0.87283880, -0.09860206, -1.13297200, 0.34149057, 0.63234758, 1.89742351, 2.10604882, 0.14304914, 0.29923251, 0.18559270, 0.19466083, -0.79962867, 0.22930849, 0.13236062, -0.80749816, 0.19619101, -0.07208244, -0.89537424, 0.13192342, -0.02522130, -0.60108292, -0.07264072, -0.02923810, -0.47491303, 0.57030153, -0.34096321, 0.43939602, 0.11035639, 0.40938094, 0.50495332, -0.05225439, 0.24100046, -0.08019239, 0.25115973, 0.05738106, 0.07388987, 0.14100690, 0.21560682, 1.15906155, -0.93518668, 0.13623299, -0.50320977, 0.39992204, -0.38669306, -0.75863075, 0.45029390, 0.21390866, 1.28305840, 0.01335699, 0.12909299, -0.48567301, 0.08147027, -0.14434406, -0.45851627, -0.04388374, -0.23371746, -0.70884675, -0.38207513, -0.43305054, -0.56601942, -0.41982579, -0.01818404, -0.48570910, -0.13344978, 0.59927559, 1.59856391, -0.17128798, 0.25056562, 0.43718866, 0.38700119, -0.28829914, -1.28628635, -0.05887734, -0.25957087, 0.12386893, 0.45871788, -0.53021944, -0.17623629, 0.55892080, -0.47130617, -0.50101459, 0.67271906, 
bias
0.12780434, -0.26783061, -0.25058764, -0.84767455, 1.44084895, 0.25804272, -1.47965825, 0.09883247, 0.10330230, 3.09510040, -0.62855560, 1.17776442, 
layer10
kernel
0.79239058, -0.04470158, -0.18616115, -0.12274097, -0.10429365, -0.16674927, 0.58597356, 0.17277780, 0.11695357, -0.08228950, -0.74319774, 0.41765690, 0.08959462, 0.06227710, 0.05640298, 0.16116765, -0.16436136, -0.18238293, 0.04764882, -0.03447482, 0.10738807, 0.00752800, 0.00596680, 0.11075286, 0.23461457, -0.28023407, 0.18194959, 0.03229913, 0.21612018, 0.20114852, -0.11246352, -1.01807225, -0.04566354, 0.85673070, -0.26737607, 0.01706328, 0.12688112, -0.11389039, -0.05159390, -0.09063992, -0.35104516, -0.02893392, 0.20238979, 0.20224217, 0.51224840, -0.20977089, -0.26084810, 0.00874660, 0.49871492, -0.01807380, 0.26666462, 0.16130941, 0.33337277, -0.30749604, -0.02417541, -0.03070760, -0.29170117, 0.03847902, -0.22146437, 0.59617269, -0.13135372, 0.44492581, -0.11538366, -0.41969311, -0.45003623, -0.00414722, 0.13063507, 0.44716161, -0.10739864, -0.35900688, 0.20633315, 0.03914660, -0.07828162, 0.80177349, -0.44914165, -0.55307525, 0.42846099, -0.00509145, -0.16531275, -0.38100150, -0.05150281, 0.49341947, -0.42978665, -0.21847267, -0.22608224, -0.00810657, -0.19405273, -0.25479338, 0.25234067, 0.16072471, -0.16433163, -0.00320791, 0.21829128, -0.21454008, -0.37598616, -0.59961569, -0.26351246, 0.27187392, -0.22411229, -0.76114559, -0.81030083, 0.87719244, -0.17761753, 0.13175623, -0.52702492, 0.10166766, 0.63851094, 0.06847523, 0.41433534, 0.30775654, -0.06232587, 0.14427379, -0.04877115, -0.11907493, -0.37488467, 0.04921007, 0.79644918, -0.03400297, -0.31147441, 0.18899144, -0.25645673, -0.13516916, 0.22328205, -0.17516701, 0.14575683, 0.03055717, -0.01498448, 0.10581781, -0.26539743, -0.23845771, 0.09664184, 0.07023150, 0.78349119, -0.12446689, 0.84990448, -0.33903295, 0.44956696, -0.23534924, -0.54431039, 0.04502055, -0.45119247, -0.33996180, 0.04420780, 0.72032887, 
bias
-0.74686700, 0.83257556, -0.84884512, 0.61926389, -0.31120360, 1.16931129, -0.00718942, 1.82745457, 0.47167563, -0.75722194, 1.30429554, -1.31047332, 
layer11
kernel
-0.14600024, -0.20416293, 0.45142287, -0.05451041, -0.38422075, 0.25054699, -0.06966741, -0.67056018, -0.41636088, 0.23895389, -0.68749028, -0.47541869, 0.42638335, -2.11673331, 0.68052077, -0.08413168, -1.94349170, 0.45202112, -0.15144302, 0.70113516, -0.12049067, 0.70221883, 0.73635447, 0.51826566, 0.52883142, 1.16819739, 0.69138211, -0.16803494, -0.64105815, -0.05973497, 0.36482036, -0.74090785, -0.44757515, 0.74323893, 0.33529285, 0.11558473, -0.14295302, -0.37676716, 0.13176192, -0.10791422, -0.72688884, 0.48334911, -0.12030437, 0.65547895, 0.92033505, -0.00582773, 0.23307343, 0.01827119, 0.37724844, 0.31256914, 0.19902419, -0.00883286, 0.02176159, -0.13982981, -0.10567489, 0.00107503, -0.28942150, -0.22556336, -0.41796172, -0.34112597, -0.26202428, -0.07189189, -0.08368504, 0.36515924, -0.52969843, -0.25422966, 1.21293259, 0.06416516, -0.05975100, 0.25090304, 0.18155605, -0.17963685, 0.21351117, 0.00990126, -0.25395602, -0.15089557, -0.47781357, -0.13309176, 0.07860544, -0.32436499, 0.02833491, 0.10408354, -0.01167091, -0.02859633, -0.10597812, -0.33178848, -0.05136091, -0.20425950, -0.32989389, -0.16767041, -0.39452484, -0.84869707, -0.54918200, 0.30718404, 0.78691941, 1.16056764, -0.40922368, -1.00037181, -0.43926039, 0.20970759, 0.04419691, -0.08317940, 0.01892583, 0.49555826, -0.21397963, 0.09769182, 0.44404230, -0.06159925, 
bias
0.76688921, 3.50461245, -0.60641372, 0.08921614, -0.98990428, -0.28730530, 1.16320074, -1.18773508, 1.91459918, 1.48236644, 1.00267756, -0.30509931, 
layer12
kernel
-0.04011121, 0.10270086, -0.08675060, 0.08648139, 0.16892475, 0.01179445, 0.12188156, 0.14415808, -0.05659989, 0.11959334, -0.43987733, 0.05212439, -0.16071406, 0.14294668, 0.04842285, -0.01860864, -0.01738041, 0.16125247, -0.13002494, 0.11811272, 0.05010537, 0.11992984, -0.01074287, 0.05330215, -0.03819314, 0.03094149, -0.09475937, -0.00661229, -0.06656039, 0.09072134, 0.15277258, -0.02195685, 0.06511343, 0.00121562, 0.08614489, 0.05659989, 0.08008783, -0.04266864, -0.13487059, 0.05892176, 0.01425092, 0.06612293, 0.06171473, -0.03412145, 0.05885446, -0.13204396, 0.07524218, 0.12006444, 0.38353595, -0.25528249, 0.33884621, 0.06619286, 0.00009117, -0.08639507, -0.03975397, -0.15779153, -0.09412394, -0.02232574, -0.00088122, -0.17967725, -0.24120218, -0.03280946, 0.27594385, -0.09167519, -0.07388347, -0.05115598, -0.19329844, -0.15075135, 0.09052733, -0.08057928, 0.15082788, -0.14141549, 0.24181436, -0.01966655, -0.25359899, -0.00430923, -0.00060920, 0.02624757, 0.00296050, 0.01959002, -0.03202510, -0.06332322, 0.14187463, 0.03516256, -0.00554796, -0.05008465, -0.02383708, -0.01648126, 0.11057650, -0.01728475, 0.07851315, -0.11669838, -0.27823955, -0.16314816, -0.06665199, -0.18426867, 0.05309565, -0.03198467, -0.02089277, 0.09200821, 0.30664554, -0.23638472, -0.16932419, -0.11077352, -0.28351620, -0.13121170, -0.15012248, 0.27944311, -0.03593048, 0.16394189, -0.00222065, 0.21078244, -0.00025031, -0.14546752, -0.35348609, -0.02498405, -0.12641127, 0.15768680, 0.04029450, -0.01033729, 0.08618951, 0.18023425, 0.00872351, 0.08291649, -0.03189375, -0.01088279, -0.02974811, -0.02852982, -0.00206155, -0.00785525, -0.17732491, 0.20103611, -0.08015260, -0.06342384, -0.06535129, 0.06847884, 0.03160282, 0.09695410, 0.01641056, 0.11891970, -0.01963812, -0.30286339, 0.06211463, -0.09259008, -0.00768309, -0.23507835, 0.03887803, 0.03604213, 0.23330842, -0.07280832, 0.06806170, -0.02946525, 0.42606944, -0.04746620, 0.13515799, -0.06540681, -0.03129551, 0.10547150, 0.17232643, -0.13266400, 0.06066019, -0.04835116, 0.19002569, 0.03113461, -0.00291384, 0.20949487, 0.02753442, -0.05953387, -0.05120718, 0.17570537, 0.32630998, 0.12486023, -0.08000870, 0.01091119, -0.10362112, -0.06291282, 0.01253027, -0.01447116, -0.04819026, -0.02618686, -0.05635605, -0.16621214, -0.01091119, -0.03588123, 0.11158579, 0.07739404, 0.05454590, -0.01975076, 0.00251913, -0.28978515, -0.22622871, -0.26645431, -0.01558810, -0.02543434, -0.06975303, 0.10114189, 0.09782437, 0.09042374, 0.00500021, 0.12087689, -0.18629162, 0.06422383, -0.17276634, 0.06248000, 0.06609525, 0.13720931, 0.03810897, 0.05142159, 0.01636432, 0.12649116, -0.00030470, -0.05252743, -0.07485691, 0.00014454, 0.09178478, 0.07230497, 0.02794374, -0.04470148, 0.02683790, -0.11517756, 0.06409623, -0.01775725, -0.02936858, -0.10352370, -0.02190415, 0.02930478, 0.03357928, -0.05393100, -0.05214464, 0.06188454, 0.04665797, 0.01604532, 0.04997549, -0.03802391, -0.05057095, -0.08540493, 0.03064455, -0.05941767, -0.01560937, -0.05661054, -0.08311908, 0.10840623, 0.05236961, -0.13965228, 0.01804861, 0.06952056, 0.15340360, 0.00849430, -0.02301436, -0.00692341, -0.09839833, 0.06573895, 0.00674197, 0.00961160, -0.08900159, -0.03073038, -0.00917710, 0.02494336, 0.11803216, 0.14927821, 0.01516465, 0.15798737, -0.00922007, 0.10703110, -0.03502766, -0.07792414, 0.08945997, -0.06149895, 0.03922946, -0.00918665, 0.06833641, 0.01505960, -0.01115385, 0.02423670, 0.05003952, 0.02601291, -0.02362553, 0.03651739, 0.03957324, 0.12643574, -0.03019561, -0.04564674, 0.02456138, 0.07505928, -0.03227740, -0.04022261, 0.05554005, 0.11214965, 0.18811969, -0.27429393, 0.03299350, 0.29246241, -0.03728328, -0.07122305, 0.03927046, -0.05109891, 0.08882379, -0.06813189, 0.18307289, -0.19102162, 0.02892451, 0.03006004, 0.20780225, 0.06813189, -0.08175826, -0.03239419, -0.02909799, -0.20452182, 0.13638994, -0.24060649, 0.09652017, -0.18042332, 0.00816163, -0.06737486, -0.17638588, -0.09519538, 0.12112335, 0.07809933, 0.27833137, 0.09708793, 0.01982449, 0.09002241, -0.14257227, 0.19581608, -0.19783480, 0.26344329, -0.22458288, -0.12017708, 0.14900695, -0.01284570, 0.14686206, -0.01312170, -0.21575096, -0.10055761, -0.14295079, -0.03557998, 0.00737164, -0.03585647, 0.16096026, -0.20507021, -0.33808503, 0.15972736, 0.24013901, 0.15342595, 0.30219433, 0.14411080, 0.30931768, -0.27644068, 0.08137055, -0.36246881, 0.00624149, -0.13027507, -0.12075444, 0.13096000, 0.26438579, 0.09404188, 0.17780972, -0.14164503, 0.01408402, -0.00861737, -0.19274135, -0.10054879, -0.04184967, -0.29753673, 0.06609645, 0.15397389, 0.13253535, -0.08678155, -0.06390464, -0.03691812, 0.00499576, -0.27411190, 0.17233022, 0.10280908, 0.08767197, 0.00554371, 0.06821975, -0.31698897, -0.13616553, 0.03804826, 0.01245730, 0.03592496, -0.02092483, 0.12623394, -0.25946274, -0.01905170, 0.16472287, -0.10075618, 0.18159625, -0.30399740, -0.68102056, 0.22184341, -0.04332447, 0.14494507, -0.01422827, 0.13298157, 0.11327291, 0.22059865, -0.36512882, 0.28712401, -0.05117336, 0.11057594, 0.18118134, -0.11825194, -0.19874625, 0.21631116, -0.04982487, 0.06092395, 0.06669825, 0.00192873, 0.09135135, 0.25503695, -0.00024325, -0.46470937, -0.13713077, -0.03595965, 0.02677957, -0.02057307, 0.18284102, 0.08547334, -0.01208452, -0.00326533, -0.04595229, 0.09923482, -0.09591547, -0.01606083, 0.21202366, 0.00941348, -0.10227755, -0.04246005, 0.00781863, -0.11873601, -0.21957296, 0.47205111, 0.18943550, -0.43361047, -0.04266912, 0.15253247, 0.18067104, -0.27600384, 0.01241633, -0.25908995, 0.12416328, 0.25939748, -0.12585467, -0.17821082, -0.29184139, -0.38778922, -0.34658086, -0.12862240, -0.15437762, 0.15852922, -0.20050640, 0.35119373, -0.24924915, 0.32197884, -0.05900639, -0.13338904, -0.14023148, -0.20035264, 0.03684536, 0.00951886, -0.03123302, 0.08749091, 0.08603016, 0.01955668, 0.06577194, 0.07180712, 0.19666234, -0.15676095, -0.17882589, 0.01747127, -0.09856182, 0.28861237, 0.00818305, 0.29906821, 0.06565662, 0.03305896, -0.22495465, 0.12608531, -0.06603194, -0.16753612, -0.18884498, -0.05904596, -0.29602727, 0.21819252, 0.00498828, 0.20351875, 0.02496135, 0.21729933, -0.22737956, -0.23529063, 0.07292224, 0.01077405, 0.08210929, -0.01516821, 0.01169116, 0.19177973, 0.17417121, -0.01988933, 0.15962505, -0.21296099, 0.15528671, -0.03429195, -0.01885260, 0.04191593, 0.00777949, -0.11796431, 0.04405320, 0.11841091, 0.02811940, -0.18029591, 0.03773710, -0.02920398, -0.13691261, -0.18093391, -0.04427649, 0.27535638, -0.25966185, -0.31363580, 0.22495520, 0.08746840, 0.04229872, 0.02658822, 0.26616934, -0.03114985, -0.12274924, 0.04539298, 0.00364311, -0.12603201, -0.19648391, 0.10901769, -0.06292148, -0.05375265, 0.15363303, 0.01244566, 0.07952620, -0.11450008, -0.06591474, 0.00323745, 0.25685325, -0.03087784, -0.14833967, 0.05810076, 0.02441870, 0.02438719, -0.13523234, -0.05170463, -0.37607953, -0.02969629, 0.07190126, -0.00979111, 0.07555619, -0.05923505, 0.02367826, -0.08954574, -0.27752250, -0.16195114, 0.04096041, 0.15161651, -0.02719141, 0.03349301, 0.08072350, 0.01239052, 0.00293418, 0.00458835, -0.16409369, 0.04745105, 0.00122487, 0.03153951, -0.01714035, -0.03711643, -0.15880033, 0.04266184, -0.02641946, -0.11765088, -0.02004639, 0.08836532, -0.10956106, -0.09200741, -0.14926575, -0.08090204, -0.30736804, -0.03854042, -0.02321082, -0.01259803, -0.06203485, 0.05728820, -0.21124089, -0.05555671, 0.06478134, 0.07385670, 0.05955704, -0.10239631, 0.13959333, -0.01743424, 0.26079711, -0.04857108, -0.03782394, 0.01921050, -0.03704776, 0.00397047, 0.04752621, 0.25888652, 0.11588993, 0.15786345, 0.06651282, -0.04283927, 0.01827013, -0.00731029, 0.08006615, 0.02041955, 0.07875261, -0.04131676, -0.11081489, 0.12359204, -0.08096174, -0.01531467, -0.02994271, 0.04101823, 0.03704776, 0.10096335, 0.01063519, 0.17064060, -0.01568046, -0.01819167, -0.08094269, -0.07148186, -0.10272598, 0.20113033, 0.03112731, 0.38941261, 0.16118458, 0.37329414, -0.22332241, -0.05305659, -0.08432990, 0.01341015, 0.04505576, -0.07492747, -0.03495253, 0.37726536, -0.04251535, 0.13046607, 0.09063713, 0.00182409, 0.19353831, 0.21070796, 0.12999888, -0.04829698, -0.07276666, -0.09507555, 0.13513809, 0.08485550, 0.04470536, -0.12205644, -0.00381426, -0.01286265, -0.02241108, 0.09355714, 0.01543226, 0.00014338, 0.06616744, -0.04108455, 0.11247881, -0.03828134, -0.04526016, 0.15300855, 0.05781621, 0.07813948, -0.00060225, 0.04838458, 0.12364554, 0.16349737, -0.09894790, -0.13664983, -0.07886467, 0.26679751, -0.02779141, 0.19779092, 0.04339130, 0.31273198, 0.01048077, 0.23323809, 0.10770482, -0.16947515, -0.15772934, -0.01107068, -0.23869149, 0.06937364, -0.04412542, 0.29867899, 0.00981220, -0.07236253, -0.05668398, -0.17776014, -0.01045455, -0.10052100, 0.08489489, 0.03463439, -0.17346033, -0.02957425, -0.10660364, -0.25861740, -0.03754462, 0.04423029, -0.13623033, -0.10434887, -0.13056718, -0.00920918, 0.03078029, 0.08673017, 0.03822630, 0.04103165, 0.07414538, 0.39495263, 0.18940106, -0.07089431, 0.05020806, 0.13895704, -0.21356903, 0.34980786, -0.27814582, -0.14939710, -0.16518705, 0.26296321, -0.11933549, -0.12044888, -0.20830572, -0.16164443, -0.18279889, 0.23219305, 0.03173170, -0.19342674, -0.15354702, -0.16083468, -0.16690774, 0.01145656, 0.37652928, -0.06437436, 0.32045475, 0.24980491, -0.07024498, 0.29676986, 0.03168109, 0.08507335, -0.11548922, -0.00087696, -0.14099604, 0.07312968, 0.04344763, -0.00889449, -0.23705150, 0.06235001, -0.13016577, -0.10860643, 0.06295732, -0.05136790, 0.17804167, 0.02710100, -0.01044439, -0.07778569, -0.04997617, -0.09721945, -0.05536600, -0.06078114, -0.06341279, 0.05053286, 0.04513651, -0.09468782, -0.04167714, -0.02103625, -0.01793929, -0.23905875, 0.02620883, -0.35661134, 0.01550950, -0.33763424, 0.14351432, 0.05442738, -0.02620883, -0.04520240, 0.08203642, -0.01307147, 0.10226548, -0.27068725, -0.19504242, -0.09080015, -0.06866020, -0.08539695, -0.20084098, -0.20334490, 0.01927362, 0.10358334, -0.00898612, 0.04744275, 0.07926893, 0.01731331, -0.07155948, 0.14074683, 0.00104965, -0.00198399, 0.19095707, -0.10628494, -0.05670068, 0.16051464, 0.00018507, -0.02482508, 0.06299343, -0.06101665, 0.06477253, -0.05735960, -0.04994667, 0.01278319, -0.00585210, -0.00275102, 0.02516800, 0.00569859, 0.03280380, -0.08459663, -0.36712128, -0.12578978, 0.17903943, -0.19029219, -0.22505519, -0.33959219, 0.00847725, 0.04935641, 0.14859670, -0.12970814, 0.04463427, 0.30000660, -0.02030771, -0.16848998, 0.03122138, -0.03740035, 0.01530928, -0.07183681, -0.08319004, 0.01498275, -0.18637383, -0.09936588, 0.03295451, -0.27508977, 0.05726851, 0.09871282, 0.19883224, 0.15573014, -0.01615072, -0.03385875, -0.02800631, -0.17994368, 0.09539728, 0.04187132, -0.00315542, 0.10860922, -0.04159502, 0.06500478, -0.04264997, -0.04325279, 0.00792466, -0.10438944, -0.10459038, -0.09283526, -0.13233911, 0.03670109, -0.01814134, -0.13114364, 0.15278174, -0.16664925, -0.09773010, -0.33640674, -0.13210002, -0.30317253, -0.16270418, 0.12540536, -0.01474170, -0.00457643, -0.04796844, 0.02740627, 0.09551848, -0.28500131, -0.13484961, -0.01849998, -0.05322853, 0.08117277, -0.23945370, -0.10191426, -0.09587712, 0.18589641, -0.07579313, 0.12098210, -0.12480762, -0.07262512, -0.12982862, 0.16091096, -0.00498737, 0.00494254, 0.11195626, -0.10197404, 0.05884727, -0.06192562, 0.00713923, 0.06700639, -0.07710815, -0.11219536, -0.03026047, -0.08852495, -0.02402905, -0.04342564, 0.11877047, 0.06718571, -0.15476805, -0.38055697, -0.10745501, 0.00731248, -0.26150465, -0.15661542, -0.11279184, 0.14317071, -0.11453657, 0.24323626, -0.05603671, -0.24220994, 0.04477292, -0.08482479, -0.41688848, -0.09062347, 0.08898137, 0.05993670, -0.07389456, 0.03361176, 0.20669951, -0.32821500, 0.03540781, -0.27587304, -0.10817342, -0.05424066, -0.19304954, -0.04782620, -0.13259968, -0.08148928, 0.21634685, -0.07610113, 0.01621575, -0.03882030, 0.17118907, -0.28100458, -0.13937335, -0.19192059, -0.21737316, -0.04379792, -0.16605750, 0.01680588, 0.19602585, -0.07964192, 0.10817342, -0.33170447, -0.12767337, 0.02379764, 0.05486303, 0.02739378, -0.29612452, -0.03782681, 0.31785843, -0.13372391, -0.18896428, -0.03850600, -0.44252655, -0.02769564, -0.33355516, 0.20013309, -0.17568244, 0.09033156, -0.14836413, 0.00387465, -0.02869555, -0.05108978, -0.26850435, 0.02446952, -0.16904153, 0.05667419, -0.04878810, 0.01581934, 0.08135124, 0.15575969, 0.16375898, 0.03178962, 0.01086695, -0.12693207, -0.07105026, -0.05105205, 0.01610234, 0.01707395, 0.06535266, 0.01641363, -0.17311664, -0.16089131, -0.02690326, -0.14564739, -0.08716203, 0.09108622, -0.08535088, -0.13244101, 0.05795709, 0.05659872, 0.03171415, -0.13432764, 0.15364827, 0.10309525, -0.17491210, 0.11077766, -0.23060960, -0.00587327, -0.05309096, -0.05751521, -0.12326158, 0.01112921, -0.06588355, 0.16160506, 0.19151159, 0.05202777, -0.12044927, 0.19151159, -0.10926861, -0.12127239, 0.21346134, -0.06708393, -0.17559803, -0.12641686, 0.07277715, -0.17271711, 0.16256535, 0.38659003, 0.20344678, 0.02169253, 0.00736946, -0.04184172, -0.07133669, -0.00661065, 0.03054102, 0.01687387, 0.07792162, -0.01972048, 0.05422275, -0.04691759, -0.03782903, 0.00069236, 0.08258595, 0.12840605, -0.24597442, 0.00771242, -0.04221898, -0.12593670, -0.11729399, 0.04287061, -0.29339704, 0.09153248, -0.11485220, -0.36119890, -0.30593011, -0.12461156, 0.21717134, -0.27942577, 0.15697153, 0.05285462, -0.07288698, 0.06230578, 0.19559804, 0.02717210, 0.10971571, -0.22456791, -0.15779337, -0.41770044, -0.15152684, 0.41153663, -0.13098083, 0.14454119, -0.08192722, -0.28784963, -0.01073529, -0.05144208, -0.24757944, -0.21306215, -0.10129184, 0.06261397, 0.05190436, 0.01403549, 0.03212883, -0.02419293, 0.09908314, 0.03695714, -0.08937515, -0.06944552, -0.11793411, 0.03670032, -0.12491976, -0.04907929, 0.11659862, 0.09240569, 0.12491976, -0.01494722, 0.06775048, 0.42982256, 0.09985277, -0.22332819, -0.11072209, 0.02797037, -0.04619459, -0.18361896, -0.06988969, -0.25984907, -0.02856818, -0.10405558, -0.08507051, -0.07557797, 0.08746175, 0.20637205, 0.11543212, -0.18303926, -0.07688229, -0.27622551, -0.14361988, -0.18303926, -0.02735444, -0.12130155, 0.15028639, -0.33796322, 0.20637205, 0.00972804, -0.20086494, 0.18014078, -0.10615698, -0.11282349, -0.02260817, 0.21854569, -0.01273521, 0.03556078, 0.11528720, -0.05894792, -0.01297072, -0.03206448, 0.18289433, -0.12376527, -0.03112247, -0.03014423, -0.03137609, -0.03441950, -0.20115478, -0.04086863, 0.11137424, 0.00696089, 
bias
1.11116564, 2.03879356, 1.82643640, -1.45730853, 2.30447173, 0.15284699, 0.69396794, -0.15813515, 0.42933089, 1.31831837, 0.95077074, 0.97254032, -0.99662256, 0.78690219, 0.42685035, -0.07525992, 1.71659017, 1.15284729, 1.45864224, 1.56128490, 3.02683210, -0.30603403, 1.37506437, 1.21346593, 
layer13
kernel
-0.30072135, -0.52986526, -0.04206376, -0.27478054, -0.09649745, 0.22169793, 0.12946391, 0.38334766, 0.34611779, -0.23305051, -0.42009473, -0.18431261, -0.28150085, -0.43849725, -0.19150110, -0.19840203, -0.34907258, -0.19883335, 0.04024163, 0.19689772, 0.16820541, 0.05179095, 0.30824494, 0.23611932, 0.01465052, 0.16320398, 0.10733294, 0.15246850, 0.27394387, 0.16421944, 0.30846229, 0.55640721, 0.31110623, 0.22238661, 0.40041342, 0.23119982, 0.23305571, 0.73922670, 0.45506051, -0.08643387, 0.16961168, 0.05559987, -0.53083813, -1.06088698, -0.48939726, -0.32847667, -0.52596325, -0.30243888, -0.51234347, -0.72865742, -0.40198335, -0.19348077, -0.30784672, -0.17345171, 0.04923042, 0.23118733, 0.20908387, 0.27349058, 0.46068251, 0.31938961, 0.21955393, 0.30098772, 0.14806141, -0.02417451, -0.12395168, -0.12176789, -0.14046110, -0.35097805, -0.20999284, -0.13032833, -0.25489148, -0.16028987, -0.20982137, -0.29780403, -0.18739443, -0.25941944, -0.41101700, -0.23117010, -0.10361683, -0.20507722, -0.13316002, 0.18489863, 0.23973417, 0.08405262, 0.22945251, 0.39618686, 0.21831404, 0.08238184, 0.24041963, 0.18267094, 0.10535338, 0.16666429, 0.06871734, 0.17902154, 0.28659287, 0.17110023, 0.14234588, 0.25554135, 0.16159466, 0.20508365, 0.51720721, 0.25311440, 0.28635472, 0.53062534, 0.27446139, 0.21956910, 0.31593555, 0.16681153, 0.26772487, 0.56209385, 0.34476802, 0.22984533, 0.57365030, 0.44235596, 0.05433146, 0.20576936, 0.24364890, 0.02667061, 0.04835154, 0.00478043, 0.17602280, 0.32886776, 0.14949705, 0.10288385, 0.25057817, 0.13365887, -0.08801823, 0.02478655, 0.05138307, -0.30461147, 0.08647641, 0.23569848, -0.29200870, 0.14238441, 0.29013169, -0.16746734, -0.26572829, -0.17170447, -0.48504999, -0.57907379, -0.30547658, -0.42129132, -0.47334746, -0.21669871, -0.14256269, 0.55347866, 0.52291620, -0.47334540, 0.28885251, 0.62802124, -0.44129208, -0.29425684, 0.10706178, 0.19090579, 0.44710606, 0.23189785, -0.39557323, -0.82218325, -0.58120859, 0.26615548, 0.34638277, 0.16016176, -0.36003447, -0.38870978, -0.11304180, -0.44898105, -0.42216432, 0.03038455, -0.21413554, -0.05871137, 0.18970843, 0.07260600, 0.19969957, 0.28248894, 0.39278656, 0.71627343, 0.43378448, 0.30285564, 0.59354413, 0.28566295, -0.50360316, -0.20349547, 0.33027893, -0.48627073, -0.17878072, 0.46990123, -0.23077799, -0.08108524, 0.34536457, 0.10781586, 0.25439826, 0.14427887, 0.24024004, 0.45778200, 0.33665067, 0.18225881, 0.31237948, 0.24990357, -0.04118082, 0.16229668, 0.16229668, -0.21525365, 0.23652208, 0.40652680, -0.17100389, 0.12960896, 0.40567034, -0.15025608, -0.21619156, -0.13083725, -0.28426829, -0.52482569, -0.36327270, -0.20393480, -0.37390509, -0.27245453, 
bias
0.81948304, 2.07253623, 0.20573634, 0.00417721, 1.18406320, 3.44110942, 0.15662277, 3.87763190, 4.55920744, 0.09551799, -0.09002745, -0.13337010, 0.23157892, -0.03588152, 0.02447684, 1.27848506, -0.01291162, -0.09305885, 2.91564846, 0.35469222, 0.74158370, 0.30094236, -0.08895165, 2.60813236, 
layer14
kernel
0.05878165, 0.20025387, 0.05121929, -0.15679508, -0.13182940, 0.36695597, 0.34687775, 0.51278728, -0.52863854, -0.56694567, 0.54845256, 0.37910858, 0.13031033, -0.05098812, -0.04573740, 0.21042508, 0.06875471, -0.09305993, 0.33948052, 0.40499893, -0.02579127, 0.08018081, -0.15719137, -0.12152610, -0.32021037, 0.15121761, 0.38074896, -0.11850102, 0.29444930, 0.29779822, 0.22695522, -0.10639331, -0.06878211, 0.17929721, -0.07219546, -0.38512832, -0.08778092, -0.17028083, 0.01809717, -0.02403832, -0.18019885, -0.08211348, 0.30526894, 0.11405724, -0.22966014, 0.68009287, 0.03255558, 0.03680616, 0.03424636, 0.10891069, -0.09361479, 0.17193367, 0.01869633, -0.24783231, 0.11210540, 0.61144876, 0.00842243, 0.56498021, -0.09400202, 0.06829910, -0.03155990, 0.07221989, 0.06263574, -0.33573535, -0.02875242, 0.05285798, -0.05014732, -0.19594242, 0.01322660, 0.08930676, 0.02072933, 0.48869434, -0.37468228, -0.24068049, 0.26966670, -0.15657300, -0.06717908, 0.08060302, -0.03243128, 0.53268081, 0.04116278, -0.04989428, -0.08321653, -0.55121297, -0.73083240, 0.31172043, -0.17059091, 0.01062481, -0.04852812, 0.25921264, 0.42647728, -0.19969590, -0.23212719, -0.17059091, -0.14801969, -0.02334339, -0.04706518, 0.11064640, -0.17721280, -0.09680863, -0.06885409, 0.07794908, -0.57181257, 0.12487476, -0.19473322, 0.26314092, 0.01321005, -0.24260744, -0.13848935, -0.07036062, -0.08085055, 0.03102340, -0.03649155, -0.02250033, 0.42584637, 0.15344307, -0.02502517, 0.15846485, -0.39437661, 0.29371795, 0.39915407, -0.14237288, 0.14492284, 0.03878067, -0.45389324, 0.45015329, 0.05652416, 0.30378547, 0.04679180, -0.10080850, 0.28015584, -0.43213356, -0.40833393, -0.12800810, 0.35019478, 0.33370504, -0.41513380, 0.12375816, 0.01140046, 0.10386845, 0.24819630, 0.26094612, 0.28882569, -0.21674678, 0.26115835, -0.24549732, 0.23682025, 0.08856951, -0.46348199, -0.23830171, -0.06920484, -0.17195395, -0.24655549, -0.01831971, -0.18645097, -0.09788147, 0.05539562, 0.32697704, -0.07216775, -0.08015699, 0.46390527, 0.07788191, -0.03359715, 0.03700978, -0.04267103, 0.25544420, -0.11830431, -0.12983845, -0.11053307, -0.28069454, 0.55295295, -0.14523642, 0.24484080, -0.12520051, 0.04989806, 0.22336690, 0.28242013, -0.06317545, -0.11187518, 0.14744133, 0.14983797, 0.34319893, 0.06466136, 0.04726175, -0.02061111, -0.02432590, 0.08814844, 0.00158777, 0.03693223, -0.03539838, 0.07257028, -0.01755539, 0.06725283, -0.00233794, -0.14371066, 0.27258059, -0.23444562, -0.02114566, 0.02076995, -0.17151350, -0.05734337, 0.11600173, 0.08589764, 0.20326135, 0.32442915, 0.14023529, 0.02693401, 0.01146515, -0.41403696, 0.01257468, 0.38660982, 0.06847390, 0.25266775, -0.07608211, 0.09167425, 0.20776992, -0.38238105, -0.09485707, -0.04007303, -0.13993923, -0.02631111, -0.07824786, 0.28515121, -0.36803913, 0.46653441, 0.16672489, 0.03833301, -0.02768202, 0.07808968, -0.04711217, -0.08504973, -0.08779157, 0.37267914, 0.15797210, 0.10577171, 0.11167720, 0.12907733, 0.34083164, 0.07756240, -0.18655048, -0.35474622, -0.21265648, 0.12765126, 0.02923549, -0.13157164, 0.42913774, -0.11722880, 0.45629352, -0.21150906, -0.44405428, 0.53011131, -0.56032687, 0.85904044, -0.18263215, -0.24268083, -0.31668988, 0.10030425, 0.14543639, -0.11397776, -0.18024167, -0.16647255, -0.08194542, -0.16102228, -0.23847359, 0.29528442, -0.39321229, -0.34856319, 0.28140193, 0.08911061, 0.22999917, 0.64009559, 0.42210290, 0.22512154, 0.11096616, -0.23806603, -0.07860494, 0.00775028, 0.05027714, -0.11706320, 0.06073591, -0.00234795, -0.01231133, 0.27483588, -0.10627612, 0.00046571, 0.18187945, -0.23337600, -0.16771555, -0.21078232, -0.19238727, 0.32862124, 0.49182540, 0.31645009, -0.25946695, 0.37951881, -0.28574559, -0.62515491, 0.24383807, 0.13761707, 0.09342746, 0.08056476, 0.13436681, 0.08180954, -0.04619507, -0.01295779, -0.02913125, 0.25517938, 0.52280653, -0.07143640, 0.03959084, 0.06372569, 0.08326178, -0.05949863, -0.17146692, 0.06844157, -0.10408135, 0.16645096, 0.20908669, -0.01946988, 0.16895893, -0.31891000, 0.20723870, -0.20710669, -0.38939756, -0.19245479, -0.63782001, -0.40550146, -0.05804664, -0.18123487, -0.00271011, -0.04082074, 0.19813076, -0.26413035, -0.04943369, 0.00231824, 0.14493509, -0.21185850, -0.09194938, -0.08063840, -0.04946966, -0.01254216, 0.04098642, -0.19686191, 0.59122115, 0.33297494, 0.33017898, -0.44659311, -0.07816015, -0.01529842, -0.91453731, -0.00693036, -0.22685507, -0.02313032, 0.06103482, 0.21948387, 0.00826877, 0.26129636, 0.08057486, 0.23359083, -0.37338945, 0.14653136, 0.01707858, 0.06547986, 0.48422801, 0.21585031, 0.28516924, -0.17078581, -0.13734624, -0.16978119, 0.05991855, -0.16992471, 0.39122868, -0.10024697, -0.37802508, -0.18958661, 0.41017300, -0.01975160, 0.32262734, -0.13210785, 0.17652652, 0.10857099, 0.16719788, 0.04940590, -0.38749722, 0.03175590, -0.10697622, -0.21412306, 0.25728890, 0.06355445, -0.22145954, 0.29687181, -0.21344060, -0.12429374, 0.05105683, 0.17095721, 0.04337911, -0.02744785, 0.05975825, 0.28646424, -0.03181988, -0.54255885, 0.04389096, -0.99707979, -0.18614204, -0.56508011, 0.03004974, -0.04546916, 0.23067281, 0.04312564, -0.00423792, -0.67852026, 0.13153133, -0.16690873, 0.23025542, -0.06334670, -0.09373497, 0.44932312, -0.42785478, 0.56271219, -0.29239264, -0.30282444, -0.30221969, -0.06618142, 0.24401329, 0.03129539, -0.14317261, 0.20319322, -0.20168138, -0.13931738, -0.29390448, -0.01182081, 0.17945711, 0.00396388, -0.01323430, -0.17562157, -0.04091378, -0.08991915, 0.03344901, -0.23066713, -0.15738700, 0.17721708, -0.59900516, -0.07607228, -0.05262379, -0.15476578, 0.18758799, 0.04729588, -0.32229578, -0.16000822, 0.02719513, 0.24525477, -0.10633025, -0.08707000, 0.45837113, 0.21380016, 0.03353449, -0.15621181, -0.14326452, -0.42388284, 0.61921793, -0.16043374, -0.23276965, -0.03264967, 0.06385686, 0.28047758, -0.03958069, -0.15044181, 0.36252397, -0.26119739, -0.16578153, -0.14579768, 0.34028840, 0.08070944, -0.26879689, 0.17070714, 0.17957321, -0.20194949, -0.14987889, 0.12109933, -0.14593841, -0.15282089, 0.15002397, -0.51991731, -0.14497396, 0.25048020, 0.35956028, 0.25995865, -0.21784940, 0.58735430, 0.27425405, -0.56156045, 0.30113563, 0.38193569, -0.95965618, -0.28186792, -0.01763617, 0.02402637, -0.11016778, -0.37509876, -0.25374329, -0.05869659, 0.02684271, -0.51929581, 0.32506487, -0.08354167, 0.00191487, 0.42450494, -0.37579590, -0.28956389, -0.26648375, -0.03968229, -0.29763487, -0.06718732, -0.18223411, 0.10485187, -0.19072987, 0.05454988, -0.13833934, -0.11794950, 0.10378990, 0.03352286, -0.20177436, 0.26138631, 0.09777207, 0.53211790, -0.92887002, -0.29593572, -0.16212747, -0.00181244, 0.19174665, -0.41083843, -0.41414630, 0.21997388, 0.02214900, 0.29572427, 0.11621678, 0.51514685, 0.17344306, 0.37048233, -0.34820929, -0.17851515, -0.12228122, 0.03453976, 0.07503369, 0.15513948, -0.10243395, -0.08043656, -0.06422796, 0.20685263, 0.17024545, 0.09245519, 0.28337488, -0.29721558, 0.38294590, -0.44207913, 0.15854941, -0.11503870, -0.01222528, -0.11336025, 0.10328951, -0.23769501, 0.29360044, -0.46712685, -0.24557082, 0.27552480, 0.27604124, 0.17455928, -0.19921966, 0.28430441, -0.08863532, 0.12711066, -0.01818864, -0.22775339, -0.24208480, 0.48158738, 0.09812504, 
bias
-2.23711777, -0.71376467, -2.03101349, 0.50578755, 1.00498748, -1.54699755, 1.77145946, -1.63749027, -0.03038615, 0.20839351, -0.73017079, -0.97395349, -0.12821776, 1.91429722, 0.48991090, 0.89451760, 2.64728904, -0.18156539, 1.46303594, 0.59772134, 1.38256526, 2.72132492, -1.78247523, 0.81549299, 
layer15
kernel
0.27231389, 0.34947780, 0.12389784, 0.07865740, -0.08033758, 0.02980767, 0.26335293, 0.06266455, 0.06226007, -0.15395443, -0.74127126, 0.00527390, -0.28052813, -0.23833689, -0.08488029, -0.35619852, -0.02016218, 0.04667171, 0.77163899, -0.07106546, -0.11151429, 0.08332457, -0.29471633, 0.22601555, 0.40364853, 0.19586420, -0.19072218, 0.25032285, 0.15554610, 0.22543082, -0.09232263, 0.10284039, 0.09489363, -0.09331597, 0.32394722, 0.24588202, 0.24307729, -0.12633008, 0.17003724, 0.10208078, 0.09238105, 0.01611263, 0.32908925, -0.14245732, 0.01326407, 0.00731861, -0.09892544, -0.17506239, -0.42575219, -0.09994397, -0.07370786, -0.38860601, -0.34496579, 0.49277115, 0.11442577, -0.20884976, 0.47666582, -0.30626103, 0.41042614, 0.39042437, -0.06273286, -0.13754471, -0.25313941, 0.29898766, 0.29093498, -0.11786763, -0.30652079, -0.39198294, -0.11202296, 0.00104413, -0.14001246, -0.47199008, -0.02956414, 0.01625786, -0.47560683, 0.10928892, -0.37728551, 0.03690276, -0.68489450, 0.39793041, -0.18928790, -0.24670653, 0.49186468, -0.27122235, -0.38244674, -0.19599749, -0.44309112, -0.16838494, 0.09290204, -0.02872544, -0.10535349, -0.39973682, 0.15174000, -0.39741427, 0.49728397, -0.21457790, -0.41646472, 0.03839594, 0.13697629, 0.03232782, -0.05156128, -0.06018440, 0.65578288, -0.58424294, -0.50475407, 0.12008491, -0.14606073, 0.02675651, -0.42838803, 0.02279981, -0.12519491, -0.66146064, 0.08679897, -0.47892022, 0.10099340, -0.43662080, -0.33214977, -0.23775677, -0.02246269, -0.41476136, 0.99041641, -0.53173995, 0.31138968, -0.20976764, 0.82805306, 0.01596452, -0.19599575, -0.20512868, 0.44562939, -0.79500049, 0.54188764, -0.57494020, 0.01225880, -0.43200245, -0.46012613, -0.26355049, -0.48853970, -0.04776672, 0.30994001, 0.27239349, -0.26239076, -0.11176977, -0.17613523, -0.38851228, -0.05298215, -0.43747145, 0.12714203, 0.18197723, -0.12260395, -0.29346287, 0.48133960, -0.36546716, -0.49041578, -0.44927046, 0.27243641, 0.37514839, 0.04454887, -0.31433806, -0.78478622, -0.00112566, 0.19301990, -0.16200966, -0.21329002, 0.38029155, -0.17925438, -0.35639098, -0.13130194, -0.23174490, 0.26299196, 0.10506464, -0.30131745, 0.46137398, 0.17474063, -0.24390267, -0.31012788, -0.28824860, -0.58648241, -0.09713523, -0.43259317, -0.19485782, -0.17503430, 0.18898419, 0.15109925, -0.58178347, -0.10352281, -0.28105339, -0.06013133, -0.18883735, 0.15286133, 0.17606220, 0.03381011, -0.08817793, -0.41217402, 0.28928983, -0.50664121, 0.30593041, -0.17306188, 0.05260979, -0.15258119, 0.48897663, -0.25728875, 0.03820930, 0.15194117, -0.98460948, -0.62568527, -0.55707490, -0.18061414, 0.11462790, 0.10246748, -0.26420099, 0.48078433, -0.01780860, -0.09568325, 0.19584666, -0.38094094, -0.25191256, 0.16791031, -0.45141304, -0.03429082, -0.38594720, 0.00178366, -0.04992113, -0.16996467, -0.41251701, -0.05389291, -0.33527279, 0.11182608, -0.01675166, -0.37581232, -0.03310956, -0.12798710, -0.17119730, 0.43360850, -0.06690390, -0.30952471, 0.08847477, 0.32842490, -0.29144627, 0.32404226, -0.27103958, -0.23338002, -0.46245149, -0.24379236, -0.32146600, -0.22129212, -0.39183906, -0.06337165, -0.15905745, -0.10113134, 0.13176994, -0.15474890, 0.95458412, 0.01672557, 0.49596244, 0.44617471, -0.02284431, -0.27239636, -0.21806072, -0.18766147, 0.09377089, 0.26353988, 0.02048059, 0.29034868, 0.54239911, -0.22105126, 0.71340054, -0.27661419, 0.23031175, 0.32103023, 0.37933701, -0.02934631, -0.34178057, 0.16000064, 0.18315186, -0.68116027, 0.01879965, -0.27438483, 0.28347382, -0.09895002, 0.43695781, -0.37110546, -0.17612076, -0.47091293, -0.58135283, -0.00280012, -0.11224054, 0.08257268, -0.69385058, -0.62185872, 0.03310677, -0.97416174, -0.56920129, -0.24557777, 0.20201005, 0.14809892, -0.35261646, -0.33757147, -0.09928112, -0.23946574, -0.24275684, 0.04897451, -0.50024521, -0.12513965, -0.32440713, 0.06605682, -0.06590009, 0.30763826, -0.14183018, -0.16204685, 0.53660387, -0.58173877, 0.52563357, -0.34269306, 0.18867259, 0.28910321, 0.37754664, -0.07791684, -0.24175878, -0.26230827, 0.25344378, -0.24135585, 0.22322394, -0.44161269, 0.46981791, -0.02347075, 0.34007400, 0.37130120, -0.11725301, 0.03487874, -0.06728952, 0.04049459, -0.24760129, 0.08093882, -0.17920369, 0.26230827, -0.22685032, -0.60819435, -0.07938033, -0.09944800, -0.47011781, -0.35834154, 0.03653961, 0.20999144, -0.21574463, -0.07003139, 0.33752048, -0.07287374, -0.20464918, 0.04903910, -0.25724977, 0.31395981, 0.15752782, 0.03856007, -0.11828285, 0.39888784, 0.50491089, -0.43696848, -0.21875820, -0.52244443, 0.22286762, 0.11532864, 0.09953960, 0.39321575, -0.36685491, -0.69361937, 0.52474529, -0.63650423, -0.02205317, -0.07812142, -0.19345006, -0.53161007, -0.53408140, -0.21322069, -0.36108845, -0.15184937, -0.02946715, 0.35504743, -0.26786450, 0.07764088, 0.38223204, -0.56181520, -0.19537221, 0.31797752, 0.26910016, -0.41240835, 0.16801822, 0.09179039, -0.19654961, 0.01046511, -0.01309490, -0.11830442, 0.31672731, 0.03613256, -0.57985020, 0.25087455, 0.12125843, -0.38675892, 0.07413840, 0.13076890, -0.37177271, -0.44900924, -0.43402302, 0.22925985, -0.46399540, -0.27998233, -0.37263730, 0.60175306, -0.14071165, 0.14642186, -0.58774072, 0.12447783, 0.68834960, 0.05697748, 0.05380137, -0.53332978, 0.64061171, -0.31465945, -0.56977481, 0.10092971, -0.07648329, -0.58722740, -0.04677543, 0.01892833, -0.38523966, -0.56566834, -0.03612424, -0.45633319, 0.02274608, -0.42450792, 0.21276727, 0.29310039, -0.22367512, -0.33962846, -0.43716279, 0.41655284, -0.08846305, 0.60784787, -0.09325269, 0.66706514, -0.56691825, 0.41655284, -0.23440169, -0.34949800, 0.55095285, -0.24688376, -0.08214945, -0.09891316, -0.05700388, -0.20043884, 0.09042245, 0.11799911, -0.02804838, 0.02539956, 0.39333040, -0.33179086, -0.10087255, -0.24237248, -0.47266948, -0.05606481, -0.06546645, -0.42609254, -0.20976864, 0.62654579, -0.87012583, -0.74247056, 0.56168312, 0.35432959, -0.52028143, 0.44748342, 0.50786090, 0.08978995, -0.00253505, 0.31258288, -0.44610336, -0.25203288, 0.09634522, -0.17569849, -0.20459342, 0.07598938, -0.42954269, -0.26549074, 1.06268203, -0.58598500, 0.29065576, 0.26638949, -0.28670126, -0.88580799, -0.45225099, -0.02658053, -0.09985112, -0.09814350, -0.30377752, 0.61798048, 0.13175675, -0.07432663, 0.19628701, 0.27250099, -0.05095913, -0.22217099, -0.30809149, 0.38250801, 0.05365537, 0.27393901, -0.15314700, 0.17444147, -0.18201941, 0.28261301, -0.15973133, 0.03645960, -0.12451614, -0.23432213, -0.51351762, -0.10735431, 0.76968211, 0.45794600, -0.46091774, 0.05189411, -0.06032643, -0.14829010, -0.07384787, 0.20430751, -0.12028140, -0.97710997, 0.01212844, 0.19256911, 0.31619373, 0.60504740, -0.12109863, -0.30719414, -0.30884701, 0.29798540, 0.07296156, 0.17496608, 0.35630745, 0.22207233, 0.02556016, 0.07030519, 0.24981661, 0.05321589, 0.39243403, -0.30199948, -0.35961312, 0.30459681, -0.00556730, -0.55960810, -0.38889220, -0.54119062, -0.28429034, 0.06564179, -0.11758853, 0.36551619, 0.23376034, 0.25751397, 0.19422665, 0.10159282, -0.21869162, -0.41533032, -0.53248656, -0.43439692, 0.45001775, 0.13714170, -0.13656740, 0.09395470, 0.12611523, -0.08436397, -0.22167796, -0.01023681, 0.06908771, 0.04580005, -0.10865666, -0.26739186, -0.03959766, -0.02215344, -0.28140467, -0.45897675, -0.07540496, 0.10861094, -0.14279993, 0.19052018, -0.49506381, 0.03109935, -0.23490272, 0.42037123, -0.16571286, -0.51166219, -0.32456991, -0.18961810, -0.38717455, 0.23255731, 0.27748111, 0.27242944, -0.03673738, -0.13892096, -0.10978365, -0.16814850, -0.02656638, 0.18465663, -0.09679364, -0.17572601, 0.49073380, -0.13617104, 0.00619328, 0.06584548, -0.13428469, -0.08429636, 0.14913972, -0.02335835, -0.02648262, -0.25064903, 0.22848441, -0.03203851, 0.16800325, -0.23367187, 0.06118855, -0.25088483, 0.00352954, 0.36052907, 0.08016997, 0.11695383, -0.14737126, 0.65220630, -0.36878186, 0.41924179, -0.24805531, 0.67173135, -0.04218428, -0.53114390, -0.10342990, -0.03613210, 0.28310516, -0.43077025, -0.40085119, -0.27667096, 0.19656506, 0.00715303, 0.19190027, -0.02877298, 0.06253246, 0.24337393, 0.13383153, -0.24144368, 0.33586568, -0.01902113, 0.16841541, 0.18047954, -0.01738242, 0.04656759, 0.22004993, -0.22143614, 0.05935768, 0.85020101, -0.01093519, 0.38529179, 0.00308784, -0.09294631, -0.48019299, -0.08450472, -0.46348751, 0.21095081, -0.47379515, 0.00877481, -0.03943110, -0.03554352, -0.19815513, 0.27101934, -0.06473364, -0.32273516, -0.20455296, 0.05211569, 0.09534550, 0.14839420, -0.03465493, 0.24223579, -0.26525196, -0.16092455, 0.56974459, 0.53691828, -0.07315181, -0.12913582, -0.34844977, -0.06287000, -0.58106405, 0.05985148, -0.18450670, -0.03945293, 0.72859395, -0.08371662, 0.14215317, -0.52107108, 0.42447859, 0.15045407, -0.19205299, -0.11545818, -0.14328511, -0.00341941, 0.03310933, -0.05991825, 0.00151374, 0.05362347, -0.12481848, -0.14649677, -0.05133446, 0.26337102, -0.04372686, -0.26741046, -0.24344316, 0.35600868, 0.44299114, -0.28464538, 0.14595819, 0.16507816, 0.41525370, -0.10213033, -0.06604473, -0.17423421, -0.11653764, -0.09209907, -0.08718443, -0.41579229, 0.04369320, 0.23143606, -0.05688111, -0.70843339, -0.17721701, -0.13016920, 0.27859250, 0.26794428, -0.17341407, -0.15005314, -0.41745415, 0.41180405, -0.76841116, 0.20666263, 0.25208059, -0.09154220, 0.48721093, 0.29271773, -0.11311030, -0.36377835, -0.13755777, 0.06676876, -0.23686883, 0.03938759, -0.32792208, -0.08970153, -0.05190248, -0.18643104, -0.00381077, 0.11681619, 0.00801924, 0.21425797, 0.28491753, 0.28073874, 0.41028124, 0.12384415, -0.16021863, 0.00093563, -0.14587778, -0.01391347, -0.05327957, -0.03751414, -0.06068743, 0.15110126, -0.00850004, -0.19383889, 0.19326906, 0.16430244, -0.02008669, 0.23956735, 0.09016149, -0.13651022, 0.25877589, -0.20989121, 0.20104232, -0.01300354, 0.29352397, -0.21787679, 0.10807509, 0.07057524, 0.42668888, -0.30366781, -0.10008951, 0.16424392, 0.02138031, -0.00277202, 0.09005358, -0.12679803, 0.05967601, -0.14967564, -0.05535948, 0.04429838, -0.24668962, -0.22236043, -0.00327962, -0.22798981, -0.15681839, -0.14133760, 0.07825841, -0.35143402, -0.01969026, -0.04154180, -0.05900795, 0.42944112, -0.56132942, -0.33655638, 0.25955454, 0.85084027, 0.20155184, -0.16666980, -0.24588320, 0.24729054, -0.13691452, 0.17360599, 0.05805296, -0.21854050, -0.31946722, 0.25993559, -0.01818189, -0.02633104, -0.03369536, -0.10767863, 0.10903900, -0.06707678, -0.04795310, 0.10234179, 0.10987616, -0.24737832, 0.35976592, 0.11929411, -0.25951701, 0.09574922, 0.07879690, -0.18825448, -0.02916950, 0.05237430, 0.44745755, 0.00858734, -0.07795975, -0.02384574, -0.05033374, 0.23881266, -0.24967982, 0.08435308, -0.42673516, -0.42381957, 0.12994218, -0.05728456, -0.25339055, 0.36524290, 0.00387433, 0.04015551, 0.23258391, 0.12238817, -0.18659723, -0.18553703, -0.16168226, -0.00175287, 0.20157273, -0.12821934, -0.08594340, 0.07249197, 0.10502721, 0.00176944, 0.03412556, -0.25614834, -0.29555577, -0.00529657, -0.02484486, 0.23720981, -0.08584508, -0.43960336, -0.25480926, 0.38565725, -0.40210891, 0.22707102, -0.01764726, -0.11908315, 0.41358680, 0.48245415, 0.60258943, 0.09148838, 0.02606438, -0.37934440, -0.01814942, 0.31066835, 0.02301557, -0.19120260, -0.05791554, -0.04431404, -0.14743955, 0.10787974, 0.49772587, 0.18465160, 0.04648572, -0.30215716, -0.19439481, 0.39747638, 0.00618856, -0.04657376, 0.24228920, -0.10253857, 0.07225242, -0.15518717, -0.32751301, -0.00649670, 0.40968475, 0.08645639, 0.13499640, 0.08751289, -0.17044763, 0.06567869, 0.27210578, 0.07307576, 0.30777019, 0.15152571, 0.22676425, 0.36885238, 0.24328002, 0.01068282, -0.19779609, -0.22715747, 0.00757792, -0.33713159, 0.20277704, 0.07792563, 0.23017226, 0.21850635, 0.09778389, -0.25625670, 0.19111113, 0.35364735, -0.25166899, 0.09037800, -0.33582079, 0.44723678, 0.02750991, -0.10527710, -0.26558319, 0.41603479, -0.16947760, 0.05971231, -0.23728815, -0.06112706, 0.10654550, 0.10342328, 0.11161909, 0.14088984, -0.24080063, -0.24860616, -0.13366972, 0.33563784, -0.00004726, -0.10908230, -0.20216325, -0.16879460, 0.11786351, 0.17425847, -0.16118421, -0.06868868, 0.11542429, -0.29739708, 0.15794021, 0.37280914, 0.07222369, -0.07407202, -0.03063615, 0.18603490, 0.38925931, -0.07555068, -0.02626946, -0.13612986, 0.04258101, 0.09786933, 0.05401758, 0.11552092, -0.02055117, 0.01428994, -0.05069058, -0.19389032, -0.18390931, -0.13409668, -0.19869599, -0.03417109, 0.16459422, 0.07122713, 0.26648548, 0.12701523, 0.45642450, 0.11936059, 0.15140630, 0.18410073, -0.11118698, -0.33420965, -0.25675499, -0.23625612, -0.17553791, -0.14349218, 0.26856133, 0.16295315, 0.16269366, -0.16775352, -0.14037843, -0.00638563, -0.04544136, -0.16658586, -0.05815585, -0.25610632, -0.16931039, 0.03621430, -0.01540642, 0.19189894, 0.10802909, -0.13415249, 0.01403151, -0.04451289, 0.30071372, 0.30228505, -0.25534150, -0.10567209, 0.07051353, 0.11981408, 0.01412971, -0.28362545, -0.10567209, 0.05015987, 0.05568409, 0.14132169, -0.21409401, -0.19209537, 0.03289977, -0.07355799, -0.18129246, 0.28360686, 0.50761515, 0.02247790, -0.61947250, 0.25556913, -0.18129113, 0.21109040, 0.06400237, -0.05295609, -0.13739960, 0.20125517, -0.14635405, -0.27758828, -0.18995200, -0.07207607, -0.06113989, -0.28390044, -0.23046727, 0.15178545, -0.09475581, 0.30269012, -0.30048820, -0.09923304, -0.10121477, -0.25157267, -0.30095255, -0.12158047, -0.32089144, 0.15226766, -0.12781137, -0.36326158, -0.38538128, 0.15390328, -0.11978909, -0.08917978, -0.41778198, -0.04778323, -0.12804504, -0.02751333, -0.09618955, 0.21091603, 0.12672096, -0.19533877, 0.11573900, 0.25188422, 0.33709180, 0.15795337, 0.52993822, 0.23714095, -0.00611700, -0.13980432, 0.02131191, 0.25873166, -0.02698839, 0.20109695, -0.17593753, 0.20948343, -0.33331776, -0.03385816, -0.00468115, 0.54351491, -0.09060069, -0.17361787, 0.16433921, -0.11937343, 0.02959801, -0.37721291, 0.59633189, -0.13516499, 0.13088253, -0.33528054, 0.34152579, 0.14531995, -0.00096769, 0.18633360, -0.23823357, 0.14152239, -0.02751648, -0.10797728, -0.04819736, 0.19405530, 0.06474839, -0.05477980, -0.20101748, 0.02045935, -0.15228213, -0.04069718, -0.11082545, -0.05114047, 0.31772915, 0.19456163, -0.00940687, 0.01017429, -0.14177556, 0.38507256, 0.40684521, 0.14778046, -0.21059793, -0.59387928, -0.13433805, -0.17061535, -0.15415700, -0.17035684, -0.28694400, 0.04349399, 0.07074505, -0.15863781, -0.45221686, -0.06751370, -0.24575505, -0.32744360, -0.08840977, 0.29728433, 0.43084684, 0.13347635, -0.07281312, -0.03685895, 0.53011394, 0.23972319, -0.08909913, 
bias
-0.43462884, -1.54595721, 1.52635074, 2.95646477, 2.22702789, 1.22553051, 1.71025658, 0.95533693, 2.96019292, 1.87273669, -0.89740443, 0.41267538, 3.09845829, -1.62810040, 1.79359686, 2.64369345, 1.26647842, 1.12822592, -1.10644734, 1.96125793, 0.24611408, 0.58082914, -0.79133499, 1.77851701, 0.86931729, 0.78930974, -0.12904835, 0.25389004, -0.41483831, 0.26626876, 2.14444041, 0.08630604, -0.25609750, 0.90604329, -0.15938538, 0.67310917, -0.30897528, -0.50919724, -1.34129310, 1.26594388, 0.79897541, 0.09839720, 1.06013167, 1.10803223, 1.13570738, -0.43427026, -0.23053563, 1.33716488, 
layer16
kernel
-0.05562849, 0.02269470, 0.05825692, 0.00276328, -0.04680168, -0.02087049, -0.02716695, 0.11290465, -0.01860494, -0.02483275, -0.00148217, 0.12569371, -0.05755077, 0.07379209, -0.06265070, -0.01027832, -0.10906009, 0.00929266, 0.00128602, -0.05143085, -0.00415595, -0.00635040, 0.03260034, 0.08128507, 0.34824353, -0.15162288, 0.39369276, 0.31483382, -0.09782121, 0.02897013, -0.02368402, 0.11241915, 0.52010787, -0.05910659, 0.44756967, 0.24936885, 0.16253372, 0.40061548, 0.10880729, 0.39218783, -0.16990793, 0.17201485, 0.10805482, -0.05993431, 0.46803689, -0.06508873, 0.33469903, 0.30580416, 0.21911716, -0.23183472, -0.04052417, -0.03507751, 0.09048226, -0.11185192, -0.12884340, -0.12780097, -0.27936918, 0.25414255, -0.17398028, -0.09564225, -0.20118751, -0.08005803, 0.01211164, 0.22266141, 0.23829773, 0.14864942, -0.22578867, -0.17710754, 0.04135811, -0.03909083, -0.16918515, -0.07917197, -0.09311762, 0.04432550, 0.05106328, 0.02886268, 0.09690289, -0.13740528, 0.14921531, 0.21000674, -0.07309355, 0.07547827, -0.11333096, 0.09909835, -0.01204662, 0.09614584, -0.06294903, -0.04811077, -0.13990356, 0.00044299, 0.02165174, -0.09145211, 0.10651748, -0.02683756, 0.11143833, 0.17775625, -0.04948747, 0.22119604, 0.07219717, 0.19991687, 0.09271637, 0.06884436, -0.05990354, -0.02802949, -0.12678091, -0.09441513, -0.07715933, 0.23085213, 0.01850751, 0.08538489, 0.04743108, -0.08998942, -0.26214501, -0.08176386, 0.14251678, -0.04595585, -0.01658523, -0.08028862, 0.15360339, 0.18614800, -0.08261552, 0.15141992, -0.13195883, 0.25537989, 0.08292940, -0.15870215, -0.08832829, -0.10439940, -0.01402298, 0.03782359, -0.35632649, -0.19159769, -0.20113991, 0.44747978, 0.48916420, 0.11532272, 0.23742545, 0.00531649, 0.29405096, -0.45300424, -0.09630106, -0.20452990, 0.07909996, -0.02424791, -0.04633792, -0.25447828, -0.16647033, 0.13888262, -0.01802904, 0.08139949, 0.00137512, -0.00954556, 0.17182004, 0.09398703, -0.06896928, -0.21115614, 0.00494979, 0.02238224, -0.10473890, 0.01124357, 0.33902466, 0.20832394, 0.14140014, 0.05076978, -0.18084112, 0.06451119, -0.15304361, -0.12157474, -0.04014386, -0.00910888, 0.06563431, -0.03445531, 0.00117461, 0.13141263, -0.06851459, -0.10426603, 0.02293420, -0.00990995, 0.01010797, -0.01773170, 0.08576024, 0.02331224, -0.00928889, -0.00400539, 0.08107980, 0.06574232, -0.07690340, -0.02552645, -0.06513026, -0.03612947, -0.11960350, -0.03186306, -0.26628333, 0.24875414, -0.09493871, 0.11373912, -0.42792669, 0.30107412, -0.46806991, 0.03238219, 0.25557849, 0.21409716, 0.05824112, -0.09761492, -0.11996131, -0.04412409, 0.06054935, 0.43247625, -0.16164336, -0.16271384, -0.13093379, -0.06192091, -0.18987742, -0.24514125, -0.10577738, -0.19937798, -0.00205594, 0.42596838, 0.24242961, -0.02177047, 0.20044017, 0.28362679, -0.06344631, -0.50255287, 0.08543135, -0.17838912, 0.15250883, 0.15198065, 0.16954228, -0.09520248, -0.09242959, 0.22183102, -0.06380943, -0.17389968, -0.11599914, 0.13613558, -0.01273383, -0.09381603, -0.12477995, -0.17257926, -0.04325240, 0.08927702, 0.27043357, 0.04924946, -0.08724029, -0.08424176, -0.13861135, -0.22664370, 0.13872451, -0.26341814, 0.16927557, -0.00027780, -0.02328105, 0.03609553, 0.18443796, -0.27790162, 0.10070539, 0.03326672, 0.23852468, -0.19801621, -0.07931963, 0.05371897, -0.11360473, 0.08146953, 0.00048029, 0.05244400, -0.02415402, 0.09264554, 0.05707627, 0.06802830, 0.15114458, -0.19362919, 0.03265755, 0.16610022, -0.24590774, 0.06610921, 0.03695896, -0.06246956, -0.12712292, -0.03841481, -0.03417959, 0.14320354, 0.09747635, -0.03937436, -0.04658747, -0.15339455, -0.05796964, 0.16967370, 0.03508959, 0.08065037, 0.01640856, -0.18928328, 0.05703451, 0.09112154, -0.03078972, 0.23758438, 0.42419419, -0.08114050, 0.07098123, -0.14748769, -0.16602390, 0.14463596, -0.07356561, -0.13420933, 0.03794132, -0.19534320, 0.12779295, 0.16228101, 0.04246398, 0.11995070, -0.02729191, -0.05088548, 0.00428084, 0.16161065, 0.15253869, 0.07912053, -0.04604024, -0.09454288, 0.06907657, -0.14087473, -0.03249709, 0.03131449, 0.10873403, 0.02914370, -0.01557625, -0.12486918, -0.09655167, 0.13452435, -0.07030776, -0.10782684, -0.18727137, 0.14139313, -0.03060170, -0.15214989, 0.07017816, -0.05041423, 0.12248916, -0.02119448, -0.10937221, 0.12094599, -0.08487438, -0.01827693, -0.11477331, -0.05512012, -0.09775021, -0.11458042, -0.06789950, 0.00757721, -0.03402209, 0.12528616, -0.05492723, 0.18845971, 0.24362805, -0.04434204, 0.02293055, 0.01104934, -0.00044871, 0.01490124, 0.02347307, -0.12277851, 0.14609340, 0.11810560, -0.16001403, 0.00357632, -0.05363108, 0.05956566, 0.02384824, -0.05088358, 0.01266595, 0.14250334, -0.09363458, -0.02329875, -0.16953868, -0.18976024, 0.18052866, -0.06506065, 0.05615877, 0.09766424, -0.01030310, 0.16030709, -0.14975673, 0.05777064, -0.04711036, -0.10484436, -0.03893658, -0.04578961, -0.02885860, -0.07872683, -0.10310369, 0.09779200, 0.03988510, -0.09338140, 0.05657898, -0.07607099, 0.11524469, 0.11827995, -0.01505769, -0.06070502, -0.08128782, -0.12093579, 0.07602356, -0.09722289, 0.14332077, 0.08214149, -0.16210139, 0.01238999, -0.10556983, -0.07616584, 0.05120736, -0.00394500, 0.08190415, 0.01020349, 0.12237281, 0.06570978, 0.03237148, -0.06270570, 0.13286979, 0.07230493, -0.02156372, -0.00929709, 0.07486012, -0.00045941, 0.07769154, 0.03437419, -0.05448767, 0.10421026, -0.07458388, 0.00698361, -0.05825139, 0.01474413, -0.02097672, 0.05327913, 0.00464141, 0.08031676, 0.09913284, -0.06833894, -0.08149277, -0.04764996, -0.03693525, -0.01451495, 0.14338546, -0.02626410, 0.10897643, 0.06616115, -0.13023162, 0.08362699, 0.06150069, -0.14216590, -0.04033260, -0.03828548, -0.00444813, -0.09582260, -0.10165907, -0.09442881, -0.00674025, -0.06441892, -0.04337030, -0.10728710, 0.03243916, -0.05394719, -0.01052628, 0.17712493, 0.07236818, 0.18744878, 0.40242785, 0.22489806, 0.00687624, -0.16649744, -0.07358275, -0.29756987, -0.12540445, -0.00467483, 0.14443272, 0.14392665, -0.00999491, -0.12854210, -0.07024269, -0.03395738, -0.16194279, -0.09250982, 0.04275611, -0.05647229, -0.22796345, 0.19633067, -0.11740428, -0.17081702, -0.10651431, 0.28521359, -0.08291937, -0.04965309, 0.03412192, -0.01383286, 0.05699086, 0.03943726, 0.04317097, 0.19404896, 0.29039928, -0.01348282, 0.29475528, 0.07021440, -0.01864260, 0.00171614, 0.02001681, 0.02393201, -0.25437799, -0.08698086, 0.13574640, 0.02639025, 0.18158133, -0.12484449, -0.14782056, 0.12953348, -0.06037081, -0.02231668, 0.13375358, -0.05744019, -0.05990191, 0.16341147, 0.15227512, -0.02058762, -0.08246770, -0.05928648, 0.40419137, 0.17642343, -0.32869855, 0.23831818, 0.10831578, -0.09372129, -0.02302750, -0.30721363, -0.09481435, 0.03905075, -0.16712855, -0.05238317, 0.04437831, -0.00663241, -0.02044485, 0.08048132, -0.00605773, -0.22035006, -0.23971318, -0.33750230, -0.10276513, -0.12364267, 0.07647889, 0.30223763, 0.04965178, 0.06614829, -0.28449714, 0.13467640, -0.28449714, -0.01706442, -0.26657280, 0.45131397, 0.00806693, -0.17308635, 0.00516097, 0.08449738, -0.26409307, 0.40568662, 0.17333432, 0.04048187, -0.25838965, -0.02414654, -0.11437833, -0.35757953, 0.17073059, 0.26434103, 0.46148092, -0.05164073, 0.11338644, -0.16267140, -0.04959494, -0.03462347, 0.19726388, 0.18164147, 
bias
0.95741385, -2.74393058, 0.92851067, 0.57093239, 0.60651064, -0.18818498, 0.39709905, 1.14038944, 1.06618226, 0.16318701, 0.79327428, 1.23248374, 0.34104049, 1.21322143, 0.75029916, 1.00049698, 1.27063537, 1.02655804, 1.15595710, 0.61020887, -0.22935385, 0.21403271, 1.70144987, -0.55519640, 
layer17
kernel
-0.20563795, 0.19943000, 0.12638974, 1.15622842, 2.01137185, -1.08250916, 0.42757171, 0.03183993, -0.19758703, -0.16143249, 0.20559400, 0.22672391, 0.08076907, 0.89168209, 0.56374592, 0.03499641, -0.03024218, 0.15699521, 0.17511573, 0.28223300, -0.05723423, -0.08795168, 1.05121946, -0.09221800, 0.20097616, 0.59177041, 0.32213944, -0.29228616, 0.17711769, 1.77151263, 0.04704951, -1.74599421, -0.10475966, 0.07600951, 0.80785811, -0.57013428, 0.36160406, -1.24440289, -0.25742286, 0.02047190, 0.01777538, -0.49955040, -0.24385910, 1.43371832, 0.46953699, 0.44166604, -0.11091670, 0.01092598, 0.26084805, 0.61273032, -0.10085041, -0.01130894, 0.13305002, 0.00270219, 0.64099681, 0.09961591, -0.48915786, 0.51552510, -0.02250308, -0.73328221, 0.39732713, 0.16070381, -0.85829931, -0.04465388, 0.72854275, -0.29751870, 0.31133860, 3.57543969, 0.48760736, -0.03705946, -2.41143990, -0.32672301, 0.17829473, -0.02011341, -0.03145944, 0.43822193, 0.45501995, -0.25167555, 0.07013909, 0.27377820, -0.35452655, 0.20112978, -0.54355955, 0.00238682, 0.09621556, -0.79136503, 0.15731828, 0.38762036, -0.61611903, -0.14342165, -0.19867851, -0.86673182, 0.50966454, 1.03141594, -0.03748829, 0.01410926, 0.67183048, 0.06962561, -0.15914425, 0.13365863, 0.50692242, -1.59161603, -0.08228666, 0.33986545, -0.77175599, 0.09052186, -0.14431210, 0.07816906, 0.45854136, -1.16789234, -0.49061054, 1.16693509, -0.12468687, -0.43795964, -0.24817713, 0.55522752, -0.00292609, -0.00281666, -0.32723716, 0.01146076, -0.39432451, -0.11230919, -0.30437776, 0.23666924, 1.52859759, 0.49768871, -0.45591879, 2.55535126, -0.37640876, -0.14615139, -0.13477640, 0.31436336, -0.00246853, -0.14167033, 0.16786727, -0.19332728, -0.70842826, -0.01067647, 0.01867698, 2.14983439, 0.24681011, -0.14978114, -0.53687406, -0.18645926, -0.47747898, -1.08238685, 0.81463450, -0.92992729, 3.47698760, -0.46155038, 0.94509739, -0.40959278, -0.66520900, 0.74424398, -1.23463738, 0.94544947, 1.37310135, -2.45629358, -0.00905966, 0.05543969, -0.63066024, -0.15478040, 0.30959666, -0.19934285, 0.17325601, -0.65315545, 1.70499659, 0.72550952, -0.14716916, 0.76242489, -0.31476483, -0.45655063, 1.13162577, 0.42743185, -1.12735152, 0.92592424, -0.15360832, -0.42208895, -0.33499971, 0.08141241, 0.13760681, 0.97134221, 0.40233737, 0.56635088, 0.20594577, -1.00743580, -0.50026780, -0.99045056, -0.09467933, -0.00661890, -0.59770215, -0.57709175, 0.42295212, -0.27034730, 0.97175932, -0.17496930, 0.29468513, 0.52359235, -0.09106722, 0.29795277, -0.18053758, -0.40954417, 0.29889208, -0.05433975, -0.41142282, -0.71463579, -0.42081600, 0.19077928, 0.35655618, 0.40438688, 0.06386486, 0.35112086, 0.18955635, -0.26565066, 0.08438314, -0.18289809, 
bias
-1.63077855, -0.21830079, -1.10842061, 0.22447564, 0.17171198, -0.30034292, 0.20461500, -1.98480177, 0.24808776, 1.52073193, -0.96643299, 3.06483841, 0.61966437, -0.09170640, -0.47990644, -0.08137894, -0.86887443, 3.18256044, -1.55287409, -0.08288288, 0.30668372, -0.08584842, 1.86105585, -0.30707806, 
layer18
kernel
-0.26466104, 0.06675850, 0.23333834, -0.13288420, 0.11113233, 0.14965293, 0.10694015, -0.06355504, 0.14925744, 0.21894255, 0.06604662, 0.21751879, 0.29851487, 0.37081021, 0.05327233, 0.45465383, -0.17860271, -0.03891609, 0.28902316, 0.29978046, 0.27067247, 0.13312151, 0.38504782, -0.02633955, 0.15513726, -0.14785887, -0.12716942, 0.24881266, 0.46285087, -0.14273706, -0.20258150, -0.21754260, -0.46662483, 0.17656803, 0.17697239, -0.16039386, 0.05853028, -0.32887480, 0.43858960, 0.07170549, 0.36607540, -0.07359248, -0.14165878, -0.31566590, -0.13134775, -0.12561940, -0.46096388, -0.19638139, 0.03618954, -0.27341640, -0.02873979, 0.16947298, -0.17017913, 0.06369360, 0.02999319, 0.57479584, 0.17102648, -0.35306871, -0.29205844, 0.22285697, -0.02873979, 0.59654492, -0.02688618, -0.32623550, -0.27059186, -0.17752296, 0.16099933, 0.17215630, 0.02452062, 0.05115966, 0.07153172, 0.13070604, -0.27598283, -0.16554280, 0.31584442, 0.09291265, -0.03062893, -0.18406671, 0.36672655, -0.19098386, -0.00618074, -0.01353389, -0.03394096, -0.16859104, 0.01338001, -0.12192954, -0.28489307, 0.08435414, 0.00960635, -0.16319799, -0.02387298, 0.23330748, 0.20388027, -0.01145288, -0.03558232, -0.00603786, -0.19302151, -0.13106398, -0.15446053, -0.27534267, 0.34964839, -0.24306412, -0.00503676, 0.22616661, 0.05654165, -0.06054939, 0.23071593, -0.09726897, -0.09331539, -0.07468481, -0.20699444, 0.17200793, 0.24783008, -0.06428634, 0.44930032, -0.03948167, 0.20190352, 0.28552452, -0.14980288, -0.06786081, 0.22868535, 0.05857132, -0.00564062, 0.10131959, -0.06016665, 0.34198618, 0.27426615, 0.22985743, 0.15549561, -0.06114338, -0.05638995, 0.05329697, 0.02116251, -0.09506851, -0.00019662, -0.24874090, 0.08269658, -0.00993010, 0.65896803, -0.14742132, 0.11499383, 0.12463091, -0.05866899, -0.26671275, 0.10377560, 0.02891296, -0.08129560, 0.04043572, -0.03534591, 0.08614977, -0.02599103, -0.05382004, -0.07710122, 0.05678910, -0.06343413, 0.15307136, 0.00023766, 0.02537837, 0.06776990, -0.02354038, -0.03991732, 0.03129292, 0.04771698, -0.14355153, -0.00945503, -0.00982616, 0.08148411, -0.09552822, -0.05674263, -0.00757339, 0.28559205, -0.13007736, 0.17135523, 0.18638639, -0.15204598, 0.07949172, -0.06052933, 0.09157446, -0.14672726, 0.00765288, 0.02799554, 0.01839872, 0.69559586, -0.13447107, -0.02263346, -0.22303930, 0.03069826, 0.05610670, 0.18326454, -0.03439824, 0.11834149, 0.18465203, 0.13911103, -0.22065888, -0.39047027, -0.08086828, 0.03321876, -0.09737772, -0.51391131, -0.05424531, -0.21186450, -0.03635675, -0.27870175, 0.04035419, -0.52062702, -0.20578839, 0.02330510, -0.00664575, 0.01303167, -0.10097542, -0.04752960, 0.41317576, -0.11064924, -0.11344744, 0.13271512, 0.38855150, 0.00910038, -0.38079640, 0.09330647, 0.35808489, -0.04189013, -0.18522502, -0.22471783, -0.05520160, 0.15153629, -0.26244417, 0.14901277, 0.44060341, 0.02774275, -0.02241185, 0.08390643, 0.31341892, 0.14976983, -0.06390768, 0.01197086, -0.02941457, 0.01319318, 0.20099692, 0.12604891, 0.47315657, 0.05077001, -0.15710217, -0.00682798, -0.00954241, 0.14074853, -0.18753067, 0.05405414, -0.03592439, 0.27693948, -0.09249189, 0.33163035, 0.04953008, -0.10328261, 0.56245792, 0.16165973, 0.64395803, -0.10100383, -0.14838916, 0.25428566, 0.06956999, 0.02442992, -0.03431583, 0.09617816, 0.05887980, 0.25334176, -0.09932470, -0.17442042, 0.02465406, 0.06397305, -0.04835172, 0.21947785, -0.04987489, -0.00684097, 0.09231105, -0.05327545, 0.29981607, -0.00428612, 0.06167058, 0.14990804, 0.00633620, 0.06361882, 0.32163635, 0.18958125, 0.04509285, 0.00058281, -0.11434384, -0.04250701, -0.11391877, 0.07884414, -0.08966477, 0.03026397, 0.15892813, 0.15295424, 0.26420394, -0.04305713, 0.03702687, 0.05658292, 0.06762899, 0.04249355, -0.06931972, -0.10161256, -0.03880214, 0.17301750, -0.07997128, 0.11496929, 0.18519072, -0.15351781, 0.04953824, 0.03463168, -0.06385304, 0.10730467, -0.15588483, 0.26856315, 0.21324617, -0.23229793, -0.02820164, -0.11163671, 0.00733765, -0.02972662, 0.05009446, 0.02686467, 0.16436332, -0.10704088, -0.09417258, 0.21809267, -0.32822528, -0.20639421, -0.00484389, -0.14957313, 0.10027249, -0.24817441, 0.19853953, -0.17664671, 0.26104271, -0.26538786, -0.26204544, -0.28951260, 0.08733284, 0.04560859, 0.21907662, 0.11355212, 0.08312482, -0.07794570, 0.41277558, -0.17958586, -0.02082976, -0.10740192, 0.13103165, -0.36745831, -0.11614168, -0.18230489, 0.31281862, 0.19110939, -0.18191646, -0.16288321, -0.11193365, 0.39361283, -0.16236530, -0.04466988, -0.01255126, 0.01317398, -0.13996774, -0.19432773, -0.07312713, 0.11907427, 0.02018854, -0.06254172, -0.05366663, 0.06725662, -0.00269691, -0.03600887, -0.00758659, -0.17472854, -0.01466472, -0.21226282, -0.00470623, 0.45152074, 0.00388286, 0.28049016, 0.05939846, 0.04569290, 0.14902773, 0.14542222, -0.01509229, 0.03323485, 0.06325290, -0.14731656, 0.02095847, -0.05691776, -0.13878217, -0.05570325, -0.01774167, -0.02563597, 0.12709664, -0.00548170, 0.04030854, 0.02717872, -0.05780402, -0.28202850, 0.07641554, 0.24277033, 0.11416376, -0.05091087, 0.16044638, 0.03804365, 0.00616281, -0.06249793, -0.05015590, 0.21673611, 0.21376862, 0.00567737, -0.01259806, -0.16310161, -0.20288785, 0.23542024, 0.01713171, 0.03832998, 0.39192745, -0.03854979, -0.34246942, -0.13177818, 0.24597129, -0.08292464, -0.10177365, 0.19178727, 0.49194258, -0.17156443, 0.03907185, 0.19277643, -0.00635055, -0.22256117, 0.24619111, 0.15835574, 0.20973922, 0.02805722, -0.16650350, -0.17149730, 0.12872154, 0.05746145, -0.31907696, 0.07201573, 0.08312034, -0.01133459, 0.09310792, -0.11084902, -0.06557636, 0.16926323, -0.07431550, -0.17780524, 0.11873395, 0.23497100, 0.00281311, -0.16400661, -0.01057074, -0.08982253, 0.11420012, 0.11758534, -0.05428715, -0.10433380, 0.07036568, 0.01878406, -0.08185035, 0.01922578, 0.06555096, -0.01818774, -0.10177184, -0.10769086, -0.00627240, -0.03321720, -0.10221355, 0.01246749, -0.01511780, 0.15521972, -0.02972762, 0.18216452, -0.14205652, 0.12606633, 0.10274362, -0.09841478, -0.06740617, 0.16445245, 0.28521863, 0.17829023, -0.08068234, 0.07525015, -0.22494990, 0.26211753, -0.30008569, -0.22403501, 0.01501000, 0.44875619, -0.05389306, 0.24885154, 0.12396833, 0.28773460, -0.20516530, -0.17611736, 0.41193163, 0.03159248, 0.20344986, -0.00946345, -0.11070234, -0.26966542, -0.17588864, -0.23778450, -0.13045895, -0.16026543, 0.17527989, -0.12667753, -0.43575290, 0.02108975, 0.03614591, 0.53740633, -0.10771482, -0.05630421, 0.21009117, 0.32142061, 0.04637799, 0.61081034, -0.22010082, 0.05972417, 0.16293466, -0.10804848, 0.01246339, -0.14113590, 0.20408539, -0.11511084, -0.22688513, -0.21169581, -0.30626646, 0.03663459, 0.36008072, -0.21776311, -0.13822879, 0.40941048, 0.01269515, -0.27144548, -0.05974966, -0.05384723, -0.05028600, 0.15432031, -0.08243606, -0.03355148, -0.15550739, 0.26603767, 0.33079943, -0.22158813, -0.21235530, 0.09826379, -0.43895555, -0.01628937, 0.01651194, -0.04032161, -0.10051675, -0.11430654, -0.13323370, 0.02468981, -0.01436436, -0.00963257, 0.03694176, -0.08976883, -0.08307672, -0.01264064, -0.31527245, 0.12769075, 0.04583077, -0.17115562, 0.01624018, -0.08544262, -0.07212601, 0.05008938, 0.15087652, -0.12924547, 0.06431855, 0.06942213, -0.10578932, 
bias
-1.83366442, 1.36237848, -0.43269634, 1.16151381, 0.40970525, -1.08515286, 0.65543491, -0.66074252, 1.37377656, -0.61194980, -1.01363564, -0.70093977, 0.27883822, 1.55966675, 0.68572354, 0.46401200, 1.04801714, -0.29332078, 0.52789235, 1.17493045, -0.55047840, -0.37934589, 0.92128551, 1.84117842, 
layer19
kernel
-0.06622485, 0.70230383, -0.86840004, 0.59815991, -0.05056988, -0.70550823, -0.18932830, -0.44568256, 0.16342583, -0.14560704, -0.08728078, -0.22679652, -0.08661324, -0.65352112, -0.09846207, 0.72227764, -0.42322001, -0.22112243, 0.07841007, -0.15237284, 0.24057755, -0.17429166, -0.34180650, -0.13479543, 0.05408230, 1.19949937, 0.24544840, 0.29137745, 0.97515434, 0.33312207, 0.26566276, 0.60846961, 0.43414405, 0.10235781, -0.05510290, -0.50327313, -0.42069805, -0.04043199, 0.13102485, -0.20698941, 0.97354078, -0.03273288, 0.44384202, 0.35294586, 0.06145290, -0.40244645, -0.30896479, 0.00777776, -0.35253674, -0.06268420, 1.21684599, 0.19343309, -0.77267605, -0.89414936, 0.48181754, -0.45625600, -0.36556506, 1.59251904, 0.50492799, -1.10159743, -0.41948941, -0.42089003, -0.69926572, -0.09176610, -0.41086596, -0.11529586, -0.14181210, -1.01503801, -0.04081510, -0.05104150, 0.62190986, 0.69249922, -0.22101143, -0.31920090, -0.20205462, -0.36437941, -0.34167662, -0.36891994, 0.45337424, -0.17515184, -0.36369830, 0.09507418, -0.56696784, 0.06483162, 0.62150508, 0.38798317, 0.53915018, 0.09388460, -0.42092514, 0.11602893, 0.25460550, 0.80522823, 0.46319795, -0.07932457, -0.12471452, -0.09959906, 0.14848791, -0.46473172, -0.14311972, -0.02103253, 0.05876314, 0.13790807, -0.26169887, 0.70162827, -0.05554263, 0.41328305, 0.93809253, -0.18175985, 0.01825877, 0.65299106, -1.34983969, -0.20235413, 0.38034293, 1.06427801, 0.43589589, -0.03688303, 0.81672615, 0.01088800, -0.21935855, 0.19575045, -0.17745417, 1.06865978, 0.10515439, 0.16987991, 0.64922261, -0.27365717, 0.24718662, 0.43877622, 0.44117612, 0.12289334, 0.05609696, 0.34458134, -0.13769254, -0.78715736, -0.08494540, 0.76519322, 0.91476119, -0.79948640, 0.27909720, -0.24005251, -0.10205331, -0.05867032, 0.02049071, 0.03075544, -0.32154953, 0.45273384, -0.54545057, 0.36149663, -0.55531406, -0.83938235, 0.85072535, 0.22180507, -0.37629187, -0.16599014, -0.55563873, 0.03703171, -0.29788503, 0.10465128, -0.24323469, 0.04726845, 1.12954867, 0.08136372, -0.07950568, -1.49589670, -0.08569571, 0.20837082, 0.49423757, 0.37365261, 0.06443256, 0.48233986, 0.13979816, 0.19727421, -0.67000741, -0.32620144, -0.25371224, -0.93459302, 1.87332833, -0.16594851, 0.45383424, 0.74094331, -0.01557570, 0.17512849, -0.03994273, -0.05850705, 0.76927388, -0.10994613, -0.14650759, -0.14624581, 0.84815586, -0.02672582, -0.16268162, -0.04864317, -0.12148384, 0.42240143, 0.50206703, 0.13252783, -0.16876203, 0.55294383, -0.12860009, -0.73307616, -0.01376466, -0.10560795, -0.06257424, -0.09313764, -0.69032079, -0.27857783, -0.05196891, -0.38138267, -0.26053613, 0.07480678, -1.13359594, -0.50549537, -0.22272448, 0.78738689, 0.10244321, -0.04666787, 
bias
0.86550605, 1.73387456, 0.10396484, -1.11169100, -0.70493543, 1.09080338, 1.64971232, 1.22624278, 1.72031856, 0.01835984, -0.56498754, -0.49469781, -1.28361821, 0.06210530, 1.03771734, -0.50551265, 1.96261704, 1.53891242, 1.68382823, 0.66902119, 0.17605036, 0.19400811, 2.08546233, 2.39307547, 
layer20
kernel
-0.24990255, 0.05953821, 0.18395253, -0.24535426, -0.12002397, -0.17498232, 0.17371890, 0.24623865, 0.09191310, -0.07649949, 0.24055330, -0.22564507, -0.18281546, 0.34718513, 0.02523662, 0.11705496, 0.00428375, 0.17801450, 0.20682025, -0.03619670, -0.26000983, 0.85406530, -0.01122066, -0.32823399, 0.02263355, -0.01803590, -0.10166679, -0.18728955, 0.08513162, 0.04848682, 0.10166679, -0.11634654, 0.11787455, 0.24426225, -0.11907512, 0.36715737, 0.03841837, -0.02646720, -0.22417992, -0.02137840, -0.27482232, 0.15694778, -0.07476302, -0.01147367, 0.04125609, -0.03708137, 0.06051985, 0.36279166, -0.06667263, 0.02508590, -0.05282326, 0.14817284, -0.03019575, -0.10863263, -0.04651639, -0.22179590, 0.07115180, 0.14065608, 0.07707253, -0.30787826, -0.00444055, 0.13777295, 0.02179088, 0.00107555, 0.33423841, -0.23250471, -0.09447435, 0.00389031, -0.06955577, -0.04708272, 0.01670677, 0.17947552, -0.05044692, 0.24389549, -0.07730333, -0.14737730, -0.09632794, 0.01575079, 0.38099951, -0.10083043, -0.07495696, -0.01697946, -0.08516683, 0.46724439, -0.04778348, -0.24402231, -0.05304695, -0.04683224, 0.22575869, 0.08091800, -0.04765664, -0.36831641, 0.10273289, -0.21409026, -0.20660725, 0.09423523, 0.08849513, 0.20973504, 0.11360648, 0.26258996, -0.03866727, -0.07628164, -0.31607661, -0.27901497, 0.07133307, 0.09054826, -0.06754269, 0.08549440, -0.05135455, -0.22531776, -0.20636579, -0.09833962, 0.21563120, -0.18151768, 0.17162053, 0.54665881, -0.14392962, -0.02858588, -0.10876320, 0.03542964, 0.27944964, 0.05119642, 0.02814903, -0.15797067, -0.18473925, -0.10365324, 0.32938564, 0.21738973, -0.12724081, 0.31089970, 0.04363399, -0.16241209, -0.23071399, 0.04303380, -0.06806183, 0.15833078, -0.18966083, 0.25184077, 0.13732405, 0.03093992, 0.14656702, 0.02282232, -0.00102783, -0.12748089, -0.41266066, 0.10250806, 0.14794204, 0.01950188, -0.07120180, 0.03362959, 0.03855786, -0.15338661, -0.21252587, 0.15610889, -0.21721946, -0.18380108, -0.10607519, 0.29888797, -0.19431473, 0.29494536, 0.27448130, 0.20426515, -0.33962837, -0.08241948, -0.34037933, 0.30564675, 0.15911278, -0.11696433, 0.01995679, -0.16237876, 0.16265121, -0.12375932, -0.12021750, 0.06664749, -0.03453273, -0.18594548, -0.09447120, 0.09678701, 0.24275081, -0.16006295, 0.10673135, -0.22490549, 0.05030064, -0.33837992, 0.29996479, 0.06892924, 0.19779696, -0.26441038, 0.50893211, 0.43537125, -0.21632339, 0.18866996, 0.08577189, 0.05429033, 0.01383721, 0.16867562, -0.08003555, -0.13698918, 0.05948035, 0.01067027, -0.15023740, 0.45317060, -0.05661218, -0.41356257, -0.26018384, -0.34199494, -0.20350337, -0.00374526, 0.00957763, -0.03868613, 0.36138922, 0.29747003, -0.11752661, -0.24297483, -0.07750884, 0.05015880, -0.06131545, -0.11047632, -0.00496945, 0.10577367, -0.44711441, -0.03454646, 0.23151554, -0.33511874, -0.11177860, -0.29301187, -0.21747991, -0.03190574, 0.77615589, -0.02644342, 0.07325297, -0.01831324, -0.37737033, -0.28013381, 0.16017982, -0.19273669, -0.01422555, 0.13493015, -0.07517020, 0.04348151, 0.07998011, -0.20141549, -0.14423580, 0.10828406, 0.52719682, -0.10771226, -0.24201308, -0.30562550, -0.10499623, -0.18440454, 0.15495700, 0.09077278, 0.15881662, 0.16982372, -0.20155846, 0.56464958, 0.22157134, -0.15252686, 0.34908208, -0.19312444, -0.20484628, -0.21070720, -0.18454748, -0.03355734, 0.02734876, -0.09056819, -0.07751001, 0.00349398, -0.05312425, 0.13435768, 0.18008754, -0.07630383, -0.15554444, 0.11317091, -0.00308755, 0.04853553, -0.00388074, 0.19319816, 0.18176569, -0.27920386, -0.11652723, 0.05705744, -0.10194822, -0.37674689, 0.02020347, -0.09890655, -0.14558037, -0.03070508, 0.06858630, -0.09290498, -0.11127066, 0.15237176, 0.02748518, -0.06155667, 0.00611134, -0.21266185, 0.03616138, -0.14135237, -0.31690288, 0.20404898, 0.24382016, 0.12032683, -0.18049026, 0.44254944, 0.22760771, -0.01246016, 0.49979967, -0.12469660, 0.00154762, 0.25129309, -0.24154028, 0.23748718, 0.11216962, -0.22410664, -0.18107630, 0.02856575, 0.34633607, -0.07198859, 0.17502880, -0.02496050, -0.07210489, 0.03442427, -0.14153492, 0.24701740, 0.22457184, -0.16456196, 0.03102255, -0.07704756, 0.08972406, 0.24538922, 0.05082232, 0.00470644, 0.26864886, 0.22573482, -0.08152504, -0.07571013, 0.02625510, -0.10991424, 0.16481511, -0.23197868, 0.37035587, -0.18990302, -0.14793985, 0.10305164, -0.09461401, 0.06733232, 0.10997050, 0.43493190, -0.32918024, -0.16110256, 0.03647871, 0.16009004, 0.14681484, -0.06395727, -0.05414148, -0.14703983, -0.34718052, -0.20317823, 0.25042897, 0.01005485, -0.14999276, 0.55038440, 0.24683741, 0.29067090, -0.12588434, 0.32984710, -0.07965370, -0.24574158, -0.28710943, -0.17985433, -0.00344590, 0.05657262, 0.16848503, -0.12643225, -0.35258573, 0.39313173, -0.27943859, 0.00736694, -0.24382386, 0.19903150, -0.08061255, 0.24039936, 0.13478802, -0.23765977, -0.12685485, 0.17456879, 0.01903970, -0.02550574, -0.25531545, 0.00585313, -0.11859667, 0.07862478, 0.04301136, 0.33491516, 0.20427531, -0.20163728, 0.08499046, -0.22927925, -0.06732713, -0.07283258, -0.00580653, -0.52806485, -0.34707305, -0.33078608, -0.30968183, 0.02170640, 0.04091815, 0.23581697, 0.24796425, -0.09042609, -0.03807060, -0.12640786, 0.56384915, 0.07445665, 0.26278821, 0.06509061, -0.03652082, 0.18839893, -0.04426970, -0.14284897, -0.05852091, 0.02154526, -0.11084271, -0.13988417, -0.22222447, -0.35227093, -0.46304628, 0.22424592, 0.03379187, 0.26602250, 0.03534164, -0.00218569, 0.09012008, 0.12862955, 0.01091763, -0.08154478, -0.04343232, -0.24741337, 0.46814802, 0.13553743, 0.06907883, 0.25074822, 0.74573374, -0.28536704, -0.46497199, -0.13156737, -0.31204575, 0.20279004, -0.06931704, -0.08257699, 0.19612035, 0.17214127, -0.01996934, 0.03436076, -0.11822802, -0.04017688, -0.00520662, 0.02132189, -0.02427613, -0.16118029, 0.08139752, -0.05893797, 0.15295981, -0.05603878, -0.16587771, -0.02701018, -0.14760181, 0.44508073, 0.29124016, -0.22753137, 0.11457306, 0.19773211, 0.14635405, 0.34173745, 0.47297168, -0.17409821, -0.27068895, -0.15927197, -0.23369674, 0.09659074, -0.03639288, -0.11635439, -0.05967661, 0.01892472, 0.06550290, 0.06477461, -0.01897828, 0.51922506, 0.23407967, 0.08379573, 0.17316070, -0.51408422, 0.60182124, -0.17033324, 0.02589699, 0.05213671, 0.10872881, 0.17290366, 0.45890585, -0.27212191, -0.25395760, -0.00264673, -0.02054195, 0.00375656, 0.23960896, -0.29791626, -0.25118139, 0.14532320, 0.03920536, -0.13248965, -0.00440458, 0.24346644, 0.15444763, 0.14443301, -0.13456677, -0.47061276, 0.13337985, 0.15875021, 0.31393966, 0.35666868, 0.26394075, -0.38189068, -0.16379461, -0.16572334, 0.07670454, 0.14324610, -0.07915255, 0.11587282, 0.11096499, -0.04328134, -0.03317092, -0.11202596, -0.09461357, -0.23291415, -0.01660106, -0.14104661, 0.00608107, -0.04671389, 0.24202600, 0.21880949, -0.08843498, 0.47007218, 0.28159395, -0.13430634, -0.13929914, 0.08125783, 0.39368233, 0.29457524, -0.08038409, -0.17075378, -0.04942872, -0.14566496, 0.03272004, -0.08121096, -0.01717575, 0.01495514, 0.17329839, -0.12913993, -0.10180373, 0.50524819, 0.13421561, -0.08962210, 0.28684872, 0.24000739, -0.06663650, 0.29221442, 0.04078675, 0.29105428, -0.22405523, 0.29090926, -0.24812849, -0.43766907, 0.02381947, 0.11006986, -0.22927594, -0.06960940, 
bias
-1.38902521, 0.09667294, 1.04681158, 0.47386202, -0.77440584, -0.10814965, 0.61531425, -0.20206484, 0.37872303, 0.88695288, 1.01826525, 1.41435003, -0.82044649, -0.29900718, 0.98749572, -0.00927350, 1.98066521, 0.66550517, 0.11569114, -0.89634061, -0.79044127, 0.24809250, -1.12012148, -0.14086771, 
layer21
kernel
0.22364235, 0.20507845, 0.13380012, 0.56497276, 0.84693372, 0.06882650, -0.19579650, -0.15805577, 0.03581430, 0.02241722, 0.26170507, 0.53750092, -0.08588999, -0.45628655, 0.87209398, -0.64766556, -0.60769886, 0.20867231, 0.05097938, -0.37910929, -0.24097733, 0.52947634, -0.69261032, 1.21783102, -0.55110931, -0.64473408, 0.76176500, 0.09449964, 0.50164294, 0.11599021, 0.89494991, 0.04198021, -0.00881702, 0.39566207, -0.09638375, -0.11145659, 0.05166152, 0.95669490, 0.55694360, 0.40416682, 0.76417845, 0.36531028, -0.27655843, 0.10604595, 0.56989580, -0.28928724, 0.81097490, 0.70744616, -0.20813584, 0.59582931, -0.36882102, -0.29656661, 0.01348030, -0.07137819, 0.26327720, -0.65129369, 0.01069391, -0.66270053, -0.18931673, -0.27725980, -0.86912757, 1.24886489, 0.08541331, -0.09932081, 0.26584989, 0.19600946, -0.27936172, 0.79877800, 0.30182299, 0.04768628, -0.24514343, 0.34604356, -0.49234515, -0.81438631, -0.35661411, 0.33900750, 0.54484493, -0.35021171, 0.18647014, 1.17100036, 0.23176716, 0.20513965, 0.51232541, -0.27486619, -0.11087417, 1.19881761, -0.61706483, -0.44170114, 0.58564305, 0.44379592, -0.19543889, 0.80781406, 0.71526140, 0.13388687, 0.12119457, 0.17027894, 0.30169475, -0.49421328, -0.18050016, -0.48757288, 0.13478577, 0.03072124, -0.55140454, 0.87921798, 0.00002729, -0.35666388, -0.96793318, -0.75804603, -0.26598173, -0.70619369, -0.29013970, 0.06972869, 1.64859867, -0.20424469, 0.05426393, -0.13286886, 0.14543588, -0.38131899, -0.12000670, -0.11771649, 0.31421602, 0.03884759, -0.20921014, 0.55377138, 0.97287869, -0.40971753, 0.60107869, 0.44991562, -0.28285006, 0.24890089, 0.34413719, -0.13758340, 0.27177191, 0.14446259, 0.04292781, 0.26881236, 0.15687655, -0.41473112, 0.44829798, 1.29385018, 0.18350811, 0.29932767, 0.22831018, 0.27727342, 0.52266729, 0.90952766, -0.15947844, -0.02605559, 0.52374941, 0.73963374, 0.14351708, -0.03662323, 0.19275385, 0.18313923, -0.14521500, 0.28559273, 0.06801209, 0.37653351, 0.57234639, 0.06747999, 0.48875830, 0.24844246, 0.13764480, 0.45875117, 0.14766417, -0.03052018, 0.42528838, 0.66458607, 0.07869586, -0.04136640, -0.20933683, -0.57656485, 0.23463240, 0.24315193, -0.53051329, 0.44025236, 0.36357662, 0.08841889, 0.58899873, 0.06124850, 0.50404012, -0.45478356, -0.40216860, 0.64537287, 0.79818010, -0.27245033, 0.14958881, 0.12328132, -0.06905713, 0.00123663, -0.06026191, 0.12200858, -0.18023703, 0.59493709, 0.08973118, 0.54690832, 0.71216863, 0.16474387, 0.24820140, 0.42068422, 0.03720162, 0.11300598, 0.56182730, 0.12364319, 0.21205778, 0.49548778, 0.23413284, -0.06730252, -0.38364202, 0.94471258, 0.19370855, -0.25812078, 0.70877039, 0.17884420, -0.17329955, 0.20125870, 
bias
0.06127858, 0.55894792, 0.69853622, -0.42443359, -0.21932065, 0.10153401, 0.67287821, 0.08345717, 0.14083950, -0.56144786, -0.75987202, 2.13214397, 0.13741557, 0.28248423, -0.52518451, -0.62081796, -0.41749799, 0.03557754, -0.51021427, -0.20702764, -0.59853303, -0.60686415, -0.96780515, 0.32458979, 
layer22
kernel
0.73074919, 0.26021364, 0.06057212, 0.13690345, -0.10501159, -0.21764137, -0.26753309, -0.06811562, 0.46963930, 0.03347898, -0.40600497, -0.31757417, -0.04765106, 0.00859381, -0.17790726, -0.29277769, 0.07640602, -0.23496903, -0.15034732, 0.05586676, -0.08745986, -0.01277168, -0.16491151, -0.07909479, -0.13456245, -0.25054455, -0.16112657, -0.11184506, -0.26549593, -0.10473227, 0.05726525, 0.08201487, 0.05127744, -0.02672741, -0.13666727, 0.12752225, -0.30222118, 0.38583279, 0.00704929, -0.12171587, 0.41050982, 0.34983334, 0.01796343, 0.10618386, 0.34170443, 0.12258683, 0.07032957, -0.22093210, 0.09619763, -0.02651726, -0.15355492, -0.01775882, -0.28646380, 0.07780976, -0.06274460, 0.16774906, -0.01371026, 0.14542553, 0.11574686, -0.22013839, 0.26052719, 0.09864935, 0.05542171, -0.07968081, 0.11497263, -0.06774481, -0.10097203, -0.07516448, 0.01179889, -0.08748759, 0.05874443, 0.01278280, -0.12646396, 0.36638629, -0.17130232, 0.08032506, -0.03455773, -0.11376803, -0.16684325, 0.14813997, -0.17365570, -0.18591814, -0.03431001, -0.07958188, -0.18628973, -0.25887334, 0.04428097, -0.26704830, 0.16287965, -0.26457104, -0.16894892, -0.21453045, -0.05530476, -0.09549826, -0.04130826, 0.08119210, -0.15837495, -0.21467125, 0.08497681, 0.33192196, -0.08065145, -0.14826025, 0.13495143, -0.03922775, 0.07699152, -0.19763596, 0.58186156, 0.04634796, -0.07419667, -0.10054813, 0.05310219, -0.37344548, 0.14892569, -0.37504253, 0.08703968, 0.06907278, -0.19603890, -0.18898523, -0.04471763, -0.44185281, -0.00194132, 0.13809721, -0.27143246, -0.11753415, -0.13549978, -0.18247014, 0.06190564, 0.41364226, 0.10535865, 0.14859520, 0.01188464, -0.19437507, -0.02697549, -0.08376743, -0.10021788, -0.13301055, -0.17208038, -0.22597726, -0.13030489, 0.09339960, -0.08084531, 0.14956923, -0.02959999, -0.28095639, 0.01764924, 0.31926900, 0.12908375, -0.25665376, -0.20146975, 0.07637686, -0.20229545, -0.34981975, 0.02662869, -0.15357940, -0.04149121, -0.07678970, -0.18055212, 0.28569072, -0.02096923, 0.03739714, 0.23394711, 0.46018773, 0.11429004, -0.14422151, 0.39413208, 0.28486502, -0.01168015, 0.32202131, -0.07664781, -0.03114683, 0.21969047, 0.13090537, 0.13467403, -0.06323583, 0.08002851, 0.12281384, -0.03785282, 0.21148810, 0.04439255, 0.09443808, 0.24230240, -0.04702507, 0.28686121, 0.04868771, 0.25161320, -0.11693917, -0.16914614, 0.09732000, 0.24983971, 0.08440681, -0.12902103, -0.12746924, -0.23252189, 0.08108155, -0.10987137, 0.19227490, 0.21137019, 0.22811529, -0.01835168, -0.01502836, 0.35987279, -0.27012494, -0.34489036, -0.18067083, 0.01557001, -0.08482716, -0.07175423, 0.18493055, 0.52556115, 0.19844414, 0.16642281, -0.08284419, -0.15481874, -0.09415448, -0.21533613, 0.09650467, 0.13461664, 0.00508144, -0.29707476, 0.19444625, 0.40459037, -0.18807825, -0.00139647, -0.01783596, -0.09366889, -0.04091072, -0.06334683, -0.22110301, 0.12128825, 0.18881871, 0.02326913, 0.08396880, -0.09329866, 0.30418324, 0.38711539, -0.23842990, -0.06068115, 0.06249529, -0.20599751, -0.01868750, -0.03330495, -0.06446712, 0.21023750, 0.13003625, -0.02458077, 0.20840083, 0.24158335, 0.10058830, -0.17289189, -0.17852433, -0.01555047, -0.33745754, -0.10530242, 0.42390347, 0.07132402, -0.05350832, -0.30096900, 0.13052602, -0.09489463, 0.34382465, -0.05638577, 0.05911017, 0.05314099, 0.04937581, -0.36928412, -0.13044913, -0.07029223, 0.21194537, -0.14086024, 0.09487209, 0.02973372, -0.35632196, -0.10273214, 0.07142986, 0.05174528, -0.13610286, -0.10962692, 0.23097494, -0.03967943, -0.06591404, 0.18753786, -0.14030866, -0.22077069, 0.07184355, 0.02373526, 0.17250726, 0.19774213, 0.39272636, -0.02202351, -0.28005502, -0.23018786, 0.19437169, -0.31490692, 0.43723297, -0.15800448, -0.03502410, -0.04105086, -0.07514511, 0.19147883, 0.09463738, -0.12955816, 0.47249812, -0.35127410, 0.24671841, 0.12253268, -0.18059622, 0.10972150, -0.06488240, -0.24231027, -0.17425951, -0.26090714, -0.30223349, 0.04192085, -0.12497441, -0.01981576, 0.15462300, 0.05445582, 0.00687735, 0.03696691, -0.21857387, 0.01289150, -0.19215286, -0.02638349, -0.02484476, -0.03381440, -0.23448654, -0.18584785, 0.02238656, -0.12625043, 0.11761857, 0.05239168, -0.14696692, -0.10448311, 0.24784717, 0.06755374, 0.11461618, 0.30699220, -0.04230390, 0.04731255, -0.11234805, 0.37233594, -0.08376017, 0.33843118, 0.61090213, -0.03348095, -0.17784588, -0.15318787, 0.08853766, -0.16551688, -0.10163723, -0.00780195, -0.13007100, -0.16181818, -0.27478269, 0.51905107, 0.17692120, 0.05652078, 0.09585801, 0.03230584, 0.00218286, -0.06556472, 0.01294860, -0.08566662, 0.40964976, 0.11486801, 0.19375327, 0.00455839, -0.00364369, 0.42155173, -0.19499882, -0.21700366, -0.07155031, -0.09666904, -0.12116499, -0.22240107, 0.01842386, 0.04546282, 0.19610599, -0.08518224, -0.06165506, -0.10144367, -0.33104131, -0.26488841, 0.24703541, -0.14024055, -0.32042247, -0.01997068, -0.16208349, 0.01987038, 0.09307764, -0.04422080, 0.32987288, -0.18651192, 0.27744985, -0.25747916, -0.04970382, 0.36089876, 0.12347944, -0.27834138, -0.13471295, -0.14184535, 0.29403263, -0.20095499, -0.04464428, 0.21521977, -0.49213469, 0.22770144, 0.02904219, 0.02919028, -0.24138737, -0.17174539, 0.06295662, -0.05105171, -0.14857908, -0.17217439, -0.44216216, -0.01568553, -0.20878291, 0.17875248, -0.06810470, -0.00886612, 0.16531031, 0.36722910, -0.04418762, -0.17045838, 0.03458861, 0.01900139, 0.30030417, -0.27828187, -0.07643457, 0.20120381, 0.13721041, 0.42687798, -0.09261290, 0.15142447, 0.26332322, -0.29985043, 0.17200512, 0.05499529, -0.11005874, 0.17677546, -0.15946591, 0.08463960, -0.02865616, 0.06760264, -0.01549511, 0.51874125, -0.10753727, -0.09104550, 0.01239439, 0.28785643, -0.14229266, -0.07762037, -0.07039671, 0.03734501, 0.02415841, 0.32247001, 0.15193667, -0.13937913, 0.28374293, 0.13717437, -0.25862783, -0.17446356, 0.06743687, 0.03009976, -0.01888424, 0.00537410, 0.01875244, 0.03506047, -0.07457837, -0.12346651, 0.34816024, 0.08411635, 0.19114304, -0.16046813, -0.11090898, -0.10141893, -0.17858550, -0.24559100, 0.25364318, -0.28066841, 0.46463126, -0.11963144, -0.03503145, -0.21772644, 0.10122126, 0.20146990, -0.14283521, 0.14158471, 0.45268202, 0.35375336, 0.09552452, -0.23870710, 0.02782369, 0.51381773, -0.05533475, -0.22342317, 0.01750704, 0.08545103, -0.07023657, -0.19549528, -0.08121321, -0.23717870, 0.03402410, 0.23628463, 0.28282335, 0.27477962, -0.03599929, 0.13128519, -0.16259830, 0.12877153, 0.00956091, 0.08460283, -0.08955833, 0.13925710, 0.04851376, 0.30365089, -0.22263901, -0.30163994, 0.10155211, -0.19304956, -0.25280300, -0.34329498, 0.42459413, 0.04183459, -0.02265891, -0.09882299, -0.13264976, 0.06509168, 0.21044630, -0.24287440, 0.04931494, 0.19820166, -0.19093561, -0.02403515, 0.06287150, 0.19914354, 0.30059913, -0.18999371, 0.00698012, 0.34392628, -0.16792645, 0.05607640, -0.03454737, 0.14639743, -0.29575509, -0.18017109, -0.32616484, 0.20923528, -0.17761451, -0.22026891, 0.06694183, 0.28265551, 0.14922027, -0.31334046, 0.05808748, -0.04683879, -0.12288728, -0.04259748, 0.00342071, 0.41188630, -0.20299268, 0.02814016, -0.17289783, 0.15386727, -0.17053746, -0.39359337, -0.10902005, -0.16979983, 0.01870786, 0.10319287, 0.25816655, 0.21863019, -0.21095896, 0.52990532, -0.05576398, 
bias
0.07633734, 0.49901900, 0.95054662, 1.39024079, 0.72344303, 1.31815886, -0.99815810, 0.04984230, -0.15031156, 0.40617085, -0.16544455, 0.58881426, 0.83506948, 1.22012591, -1.09490335, 0.52410156, 0.48643297, 0.61863804, -0.85402977, 0.49701017, 0.12038571, 0.33895150, 0.50392962, 0.20318283, 
layer23
kernel
