layer0
kernel
-2.41977596, -1.76411259, -0.15907444, -1.42659807, -1.60273266, 0.25751618, 0.46592674, -1.12504828, 0.39422798, 1.66897404, 0.28677338, -1.35480201, 1.76604390, -1.68567431, -3.25235963, -0.04788254, -2.08021593, -3.17303395, 1.73379576, 3.21391916, -0.89336807, -0.31598759, 3.05950999, 1.30144978, -1.70181096, 0.04618492, 1.24850941, -3.13943791, -3.21966219, 1.95212066, 0.26451680, -4.03259993, -3.24818611, 1.85228622, 0.64223880, -0.90608710, 2.30171943, 0.39506191, -0.78221840, 0.71731091, -1.48038995, -2.10699677, -0.91702628, -2.26011205, -2.39658403, -4.45649767, -2.55126286, 0.86447299, -3.41847324, 2.28847170, 4.14771843, 0.72158033, 5.07624674, 0.83983630, -0.78711778, -6.17709589, 0.60079372, 3.41812611, -2.61914849, -2.40567160, 6.79630327, 4.10225058, 1.19347286, -1.75327945, 2.33535695, -2.39596057, -2.53971839, 6.13929701, -6.24641037, -1.45448899, 5.74466801, -3.20776844, 
bias
1.92577744, 1.40750146, -3.08930016, 3.96683550, 2.28057194, 0.19192123, 0.06086755, 4.04947519, 
layer1
kernel
-0.12836140, -0.13553581, 0.39381450, -0.31359944, -0.11202449, 0.08669797, -0.01580747, -0.03094504, -0.05308910, -0.09795038, 0.22411047, -0.08870386, -0.04517471, 0.34980038, -0.07953571, 0.62406147, 0.06725397, -0.37713927, 0.07846930, -0.09496915, -0.21487814, 0.32938859, -0.60616016, 0.07877345, 0.21876515, -0.24405527, -0.13178077, 0.14901888, -0.16614358, 0.52167946, -0.04621400, 0.10240795, 0.08313850, -0.05201344, -0.15318143, 0.18121704, -0.13169360, 0.17430036, 0.22428492, 0.07170293, -0.44266400, 0.46159229, 0.51579607, -0.46589416, 0.26779234, -0.02906461, -0.03522168, 1.07633173, 0.17487574, 0.11330900, -0.77547890, 0.85538465, -0.27967018, 0.09259572, 2.02253270, 0.89009786, -0.09470960, -0.21620923, 0.24402964, -0.17808497, -0.13729887, 0.26326349, 0.13403599, -0.02857173, 
bias
2.17121649, -1.20518947, 2.19589806, 0.54143119, 0.69183469, -0.97219205, -6.09927034, 1.60976243, 
layer2
kernel
-0.17285584, -1.06633365, 0.07160962, 1.26955605, -0.80938578, -2.18872857, 1.93061292, 1.79396331, -0.76617181, 0.87139171, -1.02132881, 0.84817970, -0.17581536, -1.87327266, 1.17001128, -1.72647238, 1.01819205, -0.19259702, -0.12042866, 0.34119684, -0.34140942, 0.50722468, -1.53485429, 1.76359427, 0.53953743, -2.23467970, 0.80526704, -0.19640474, 0.53453010, 0.24650799, -0.41685903, 3.16308975, -1.53230047, 0.48929399, 0.45665532, -2.31791949, -0.28692722, -0.84005165, 0.15673472, -0.08878083, -2.30316734, -2.51240540, -0.31443813, 3.27961111, 2.76039100, -0.18777217, 0.14047077, -0.04860038, 1.27212059, -1.26710379, 0.28237492, 1.03848040, -1.15960062, 0.02333714, 0.06679387, 0.16171890, 0.19720092, 0.13302228, 0.27806038, 0.25176692, 0.07117610, 0.11916874, 0.15139942, -0.76661158, -1.81936479, 0.06600830, -1.42282212, -0.83420408, 1.21215880, -0.00926756, 2.85015035, 0.78181988, 
bias
-0.08102907, 1.15449739, 0.68868309, -0.87931472, 0.31370729, 0.00669941, -0.53918386, -0.29350045, 
layer3
kernel
0.31022757, -0.51688904, -1.13828564, -0.43027011, -0.18394753, 0.03230556, -0.00981230, 0.09197377, 0.05832149, 0.47462854, 0.32984671, -0.12760234, 0.03545497, -1.27957773, 0.03743950, 0.00145045, -0.41651291, -0.11170973, 0.28340054, -0.43986124, 0.01217737, 0.05635806, -0.70903808, 0.53405970, 0.11337838, -0.07393000, -0.07444380, -0.43318987, -0.38386515, 0.18679458, -0.05255025, 0.85770226, -1.06200802, -0.01518104, -0.06870253, 0.12909426, 0.04789785, 0.06233092, -0.23225886, -0.34772342, 0.12076213, 0.17553404, 0.01735243, 0.04010407, -0.06425050, -0.02972560, -1.04048610, 0.09058660, -0.05926169, 0.16757479, 0.14873315, 0.57766992, -0.21094215, 0.05831435, -0.06378789, 0.75198138, 0.32667670, 0.29585814, -0.77757591, 0.87240219, 0.49309689, 0.43643817, -0.30628905, -0.00780836, 0.25029644, -0.13174129, 0.19455515, 0.03770030, 0.94460541, -0.02085804, 0.08073499, 0.41548252, 0.15289454, -0.64516354, 0.39516944, 0.20408510, 0.26218233, 0.83584154, 0.02342848, 0.07637956, -0.02119427, 0.13785529, -0.38386995, -0.53504920, 0.08098889, 0.03901400, -1.49507236, -0.46050459, -0.10054508, -1.11295187, 0.28936747, -0.31339711, -0.11502610, -0.52055794, -0.19008711, -0.21816386, -0.00229744, 0.03873125, -0.35014948, -0.95806372, 0.25662419, 0.21803553, 0.02642279, 0.14504020, 0.48771068, 0.20157617, 0.24971987, -0.20498578, -0.02998753, 0.04064256, -0.10453866, -0.07637528, 0.71654087, -0.10359931, -0.10032244, -0.07738440, 0.16006219, -0.13233489, 0.10519573, -0.46413833, -0.43897566, 0.02054508, 0.13968955, 0.18069464, 0.68943000, 0.00345077, 0.21574463, -0.63906687, 0.05529987, 0.00078158, 0.07872294, 0.03983570, -1.03259420, 0.04973277, -0.03224795, 0.05600092, 0.04985651, 0.20910086, 1.05528307, -0.06314638, -0.17789178, -0.56384408, -0.20077842, 0.10943985, 0.06076624, 0.07342403, 0.04332858, 0.74565881, -0.00058192, -0.16136467, -0.35848981, -0.24908404, -0.04566824, 0.28532302, 0.11046839, 0.00948547, -0.08931291, 1.05593431, -0.02973265, -0.01692438, -0.66857719, 0.10252345, 0.09242645, 0.01969887, -0.12916403, 0.22461957, -0.08170809, 0.20846435, 0.43314064, 0.21348804, 0.05925266, 0.23263058, 0.25663987, -0.06574167, 0.06464665, 0.74753261, -0.30921516, 0.04082789, -0.02698679, -0.14401925, -0.37543711, 0.06738845, -0.21463804, -0.77528119, -0.46683240, 0.10170503, -0.50126052, 0.05065510, -0.07319919, -0.18714356, 0.07075132, 0.16945574, 
bias
0.22169133, 0.07657354, -0.06939474, 0.17719471, -0.05986879, 1.50648880, 0.37130231, -0.03027322, -0.18780884, -0.12842643, -0.66839391, -0.01368731, -0.15701129, 0.89472359, 0.00046984, 0.26319528, 0.08310425, -0.20530111, 0.68517327, -0.30640811, 0.99367934, 0.49962834, 0.21088262, 0.42182225, 
layer4
kernel
-0.48603010, 0.57114136, -0.23335604, -0.24301505, 0.03541636, -0.62601572, -0.34968409, -0.55126339, 0.16560300, 0.17596193, 0.18072145, -0.02523241, 0.03013371, -0.01204421, 0.27013654, -0.19196516, 0.13741836, 0.04820774, -0.11379378, 0.07223431, -0.44899067, 0.15584801, -0.10581585, 0.17514347, -0.10923612, 0.00249125, 0.03206883, 0.05881945, -0.01894614, -0.00505230, 0.10912976, -0.01339525, -0.08812281, -0.11349069, 0.07121089, -0.01739056, 0.04028227, -0.02932379, 0.14995810, -0.46189526, 0.01551945, 0.02973360, 0.00871214, 0.01196781, -0.21309836, 0.01382711, -0.17752126, 0.05828331, 0.07718774, -0.08828747, 0.26103491, -0.08892538, -0.06513114, 0.20349495, -0.17466119, 0.12369176, -0.13881035, -0.21931525, 0.14991008, -0.39959010, -0.29740930, -0.93692863, 0.32005769, -0.06999400, -0.16628696, 0.22141793, 0.79150206, 0.37310264, -0.26686373, 0.13134584, -0.47293440, 0.25419852, 0.01541540, -0.06777986, -0.15951672, -0.12752491, -0.06829586, -0.11993239, -0.00638085, -0.07338211, 0.15745273, -0.13194774, 0.02640798, 0.05030968, 0.09480468, -0.35226703, -0.03279473, 0.12033509, 0.16665831, 0.05474562, -0.10259540, 0.06453667, 0.13402149, -0.07348547, 0.26172620, 0.22382537, 0.08343244, 0.09881453, 0.01784322, -0.00869088, -0.06761966, -0.02799540, -0.15800481, -0.03008736, -0.07906393, -0.15751258, 0.06205134, -0.03467122, 0.10733354, -0.18012427, -0.13475120, -0.09650329, -0.02129000, 0.27337849, -0.30461523, 0.21101899, 0.24191374, -0.04183899, -0.03531234, 0.12848105, 0.16608381, -0.13994959, -0.06286133, 0.24881645, 0.72928423, -0.10909882, -0.19159949, -0.12750103, -0.06916293, 0.44660154, -0.09293889, -0.16824879, 0.58608323, -0.09900706, 0.05345296, 0.52433950, 0.39795774, -0.25035161, 0.05342281, -0.45849556, -0.16678047, -0.19994362, 0.32150161, -0.34537908, 
bias
0.09193311, 1.47630095, 1.46659184, 1.69832647, 0.85457039, 0.86643934, 1.44656897, 0.97475636, 1.57174253, 1.15436864, 0.46180671, 0.36740533, 
layer5
kernel
-0.16187350, 0.31335285, -0.37846911, -0.02124685, 1.27542257, 0.19061024, -0.21812415, 1.28153670, 0.01893492, -0.03439864, -0.05034520, 0.01169241, -1.48326516, 2.18982053, -0.43930039, 0.12746811, -0.33198079, 0.09515739, -0.11845947, 3.18296432, -0.01727299, 0.46978027, -4.95929289, 0.42108902, 0.05108635, 1.04325485, -0.37487745, 0.05657796, -0.09767671, -0.04919667, 0.05532386, -2.59133530, 0.03264251, -0.02063895, 2.01115131, -0.06324262, -0.05667023, 0.08947609, -0.13342069, -0.25390214, 2.28902555, -0.97410536, -0.12194628, 0.36132228, -0.20776032, 0.12725461, -0.06272360, 0.06155214, -0.02021614, -0.66726667, 0.03906000, 0.07115815, -0.09505604, 0.08347527, -0.26092863, 4.05405378, -0.23694539, 0.45301649, -3.96167374, 0.33199003, -0.38684055, 0.27225402, 0.24316327, -0.06532753, -2.07981515, 0.08304817, -0.05030108, 2.50466609, -0.24553372, -0.02810861, 0.02705315, -0.03288596, -0.20278342, 2.48351693, 0.02295525, 0.19965118, -4.98188305, 0.28306153, 0.33039314, 2.32017636, -0.18863034, -0.32429960, 0.23757936, -0.10607577, -0.83873862, 1.97502077, -0.17277636, -0.13112406, 0.09858026, -0.01892855, 0.02834804, -0.46277970, 0.17040585, 0.00252487, -1.51824784, -0.00845677, 0.20439173, -0.30666700, 0.12681180, -0.12533803, 0.52470064, 0.07049462, -0.00902030, -1.10841405, -0.26812330, 0.15125234, -0.27761668, 0.22116967, 
bias
-1.03787267, -0.12904541, 0.43433666, 0.83501297, -0.41886178, 2.67140698, -0.68519580, -0.00530216, -0.40687969, -0.68032020, 1.66704428, 1.67666721, 
layer6
kernel
0.14172348, 0.10324755, 0.14354484, 0.09670209, -0.02532809, 0.01636366, 0.19647770, 0.15822944, 0.15401757, -0.09175030, -0.38248265, -0.09374240, 0.26712230, 0.75654769, -0.07215887, -0.21423566, -0.47777241, 0.02106501, -0.26413435, 0.85574746, -0.11809853, -0.45207608, 0.11974189, 0.14043342, 0.01873360, -0.00764444, -0.08563033, -0.13866954, 0.48999926, -0.67296255, -0.12621193, -0.22964783, -0.03444717, 0.57179165, 0.37498659, -0.16610144, -0.38298860, -0.24324445, -0.34188738, -0.14787096, 0.57168055, -0.74692118, -0.18056510, -0.16655333, 0.25482753, -0.52833742, 0.03017203, -0.70507264, -0.26789239, 0.27453160, -0.01394235, 0.46740085, 0.00610497, 0.03037442, 0.27951100, 0.34988672, 0.09087428, 0.10572952, -0.08269974, -0.08730569, -0.18500344, 0.14202657, 0.14045875, 0.13105179, 0.08184973, -0.06036129, 0.19053695, 0.24273632, 0.15696703, 0.05086211, -0.06280526, -0.11113118, 0.03522995, -0.18891202, 0.07878976, 0.11975127, -0.17485061, 0.33777958, -0.06407878, -0.04952063, 0.02649889, -0.27572596, -0.09911767, -0.50712788, 0.02494658, -0.05545958, 0.32727292, 0.15962535, 0.20628507, -0.22347550, 0.12941933, 0.13252997, 0.29682130, 0.07260907, -0.34151641, -0.32596317, 0.01463103, 0.19527845, -0.07753704, -0.10150123, 0.29410601, -0.39273548, 0.00752594, -0.07357601, -0.06293076, 0.37075180, 0.13833874, 0.04359601, -0.13641256, -0.19874582, 0.92123514, -0.22915579, -0.01871799, -0.27657232, -0.49059519, -0.31966513, 0.74136943, 0.02835623, -0.32600656, 0.14887920, 0.03054953, 0.08021947, -0.29231706, -0.41288584, 0.41365260, -0.35825610, -0.32758677, -0.35844779, -0.26893169, 0.35787275, 0.19043738, -0.00246493, -0.19713835, 0.00705936, 0.12727371, -0.56389952, -0.01311378, 0.09035980, 0.05350251, -0.29032898, 0.09539866, -0.09522881, -0.55710554, 0.18219163, 
bias
1.10075581, -0.20038483, 1.94255519, 3.27398181, 0.44720256, 0.95670122, 1.06086540, 1.66567922, 1.68211889, 1.17828846, 1.85720515, 1.10432816, 
layer7
kernel
1.58458340, -0.09727737, -0.01892115, -0.15743807, -0.21267332, -0.07212247, -0.36870411, -0.27089903, 0.04534040, 0.04652171, -0.15417506, -0.04010999, -0.14056851, -0.69305360, -0.28113702, -0.00521870, -0.03286621, 0.00265065, -0.04470761, 1.02843654, 0.21788909, -0.46063367, -0.20949632, 0.02410902, 0.29632917, -1.06136191, -0.22466786, 0.07684787, -0.13164014, -0.37064534, 0.18213224, -0.55624545, -0.42280203, -0.08849990, -0.02288790, -0.20932029, -0.28478876, 0.43279576, 0.09567448, -0.77620530, -0.29601401, 0.25298390, -0.11287613, -0.00960772, 0.16650788, 0.14029248, -0.36122814, -0.17544891, -0.04038407, -2.01008129, 0.03611448, 0.10421965, 0.70112920, 0.25392607, 0.06087370, -0.21695031, -0.13272254, -0.37536657, 0.43662313, -0.16998695, 0.41756552, 1.25575936, -0.15645945, 0.16365519, -0.72841853, 0.39135769, 0.41257933, -1.48895633, -0.08775436, 0.61600119, -0.62900186, -0.19462731, -0.30176258, -0.86217874, -0.34002176, -0.58574271, -2.48523021, -0.82391959, 0.27239460, 0.76033390, 0.23817688, 0.01389307, 0.11186931, 0.08900791, -0.01686604, 0.48358110, 0.12392589, 0.10047155, 0.19501363, 0.03182148, 0.07393715, 0.28021517, 0.06008990, 0.12477852, 0.52609324, 0.24240349, 0.14634140, 0.34704986, -0.00616356, -0.04444695, -0.10404284, 0.02414739, 0.28116411, 1.50665176, 0.06417086, -0.27025688, -0.90505755, -0.14676280, 
bias
1.03900027, 2.04301262, 0.69863701, 1.01010299, 1.35456455, 3.22032070, -0.11935282, 1.06640351, 4.36660528, 0.10710734, -0.21987069, -0.40804285, 
layer8
kernel
-0.08372892, 0.01661565, 0.23131782, -0.06398693, -0.07331835, 0.19538864, 0.55353767, -0.08664896, 0.28565592, 0.04288013, -0.36411607, 0.20326005, -0.03731234, 0.25674668, 0.10249086, -0.28073993, -0.28640762, -0.16407983, -0.01040259, -0.27204946, -0.03943773, 0.50291365, -0.27677253, 0.16540229, -0.45848122, 0.26706201, 0.17473815, -0.21487178, -0.68838245, 0.80069053, -0.08910325, 0.35674331, 0.53808784, -0.10099469, 0.39109638, -0.25583121, -0.51108569, -0.56034148, 0.39540228, 0.37868240, 0.88931620, -0.62993228, -0.05580821, -0.48939502, -0.22413661, -0.35247287, -0.41618913, 0.11144695, -0.11817378, 0.80008024, 0.34992570, 0.71954703, 0.59699643, 0.30528226, -0.42148647, -0.12834986, 0.03061029, 0.67490357, -0.55629212, -0.44074443, -0.30228102, 0.27169126, 0.15309946, 0.08220055, -0.06404259, -0.38757068, -0.72029078, 0.09380355, 0.01911860, 0.28766423, 0.45568186, -0.04531955, -0.05691767, -0.59167343, 0.16500814, 0.38273391, -0.69479144, -0.18904971, 0.02112085, -0.13922864, 0.02119326, -1.02422845, -0.55652833, 0.25509158, -0.11146022, 0.09134851, -0.02830363, -0.12493068, 0.22893515, 0.17505331, 0.22454943, -0.07649968, -0.01616455, 0.33156127, 0.12474272, -0.02145876, 0.16236341, 0.01597244, -0.14296024, -0.13401265, -0.03259835, -0.64864939, -0.20227565, -0.04973950, -0.38022193, 0.13944152, -0.03503631, -0.01119704, 0.00023489, 0.14160855, 0.07429243, -0.23906857, -0.14025494, -0.44148549, -0.19085918, -0.15274982, -0.44939891, 0.17451172, -0.11141261, 0.04964109, -0.41362262, 0.10006325, 0.06810150, -0.05104131, -0.12749882, -0.07506485, 0.05887507, -0.05901434, 0.04693294, 0.26808873, -0.07506485, 0.01192473, 0.99824303, -0.14220922, -0.06007477, 0.33628395, 0.03454194, 0.06045365, 0.30664653, -0.05927489, -0.10802512, -0.34925035, 0.17310962, -0.15248129, 
bias
0.19726390, 1.43344605, -1.28343320, 2.59182787, -1.47539496, 1.26344800, 3.78580141, 0.05114007, 2.45244932, 2.28026104, 1.53819025, -1.19111478, 
layer9
kernel
0.16670626, -0.70207316, 0.85462236, 0.73038721, -1.37987709, 0.10133833, 0.53998959, -0.62233150, -0.29094142, 0.22410943, -0.08675878, -0.28654787, 0.31609464, -0.08202015, -0.31274971, 0.27651313, 0.91985214, 0.20222810, 0.44821885, 0.87104166, -0.46871397, -0.21263663, -0.30564427, 1.13435912, -0.27200559, -0.61173409, 0.38851577, -0.56625551, -0.06883337, -0.00085174, -0.68278021, 0.33749294, -0.09689283, 0.34684610, 0.78995174, 0.08646795, 0.34674194, 1.00762618, 0.05879584, -0.05720819, -0.07657747, 0.03289074, -0.12955193, -0.59610826, -0.11589818, 0.02589572, -0.31678653, -0.92902166, -0.53837299, -0.75550425, -0.05102936, 0.06852765, 0.10112079, 0.59511787, 0.71571869, -0.40386984, -0.50526333, -0.12951100, -1.01819503, 0.68845320, -0.40195274, -0.19011278, 0.12312066, -0.87415975, -0.89499211, 0.35915866, 0.18208322, -2.04157567, -0.05934231, 1.44544840, -0.10115734, -0.73714662, -0.03159532, 1.17885435, 0.25804415, 0.18636522, 0.18425258, 0.15294020, -0.08141217, -0.68087441, -0.08216669, 0.00934899, 1.81027114, -0.96020997, 0.60072988, -0.58785921, -0.68004894, 0.53727460, -0.97457719, -0.15242735, 0.08248993, -0.05164559, 0.13403802, 0.02176005, 0.10004098, 1.86275136, -0.56527376, -0.23154384, 0.07897972, 0.08016475, 0.40257066, 0.00119647, -0.12209110, -0.50855118, -0.83464503, -0.33482853, -0.41072300, 0.64248258, 
bias
0.33723593, 0.42437083, 0.12944329, -0.13386719, -0.26458782, 1.28557634, 1.04368496, 3.35970068, 0.34202075, 0.11575383, 0.02952528, 1.75158751, 
layer10
kernel
-0.25333357, 0.02384736, -0.00798968, -0.14003429, 0.37584737, 0.46046492, 0.21128435, -0.48719993, 0.02769214, 0.36053315, 0.27928990, 0.23127072, 0.32919773, -0.28951126, 0.38201782, -0.26038885, 0.12334208, -0.02050348, -0.17958835, 0.69094408, -0.29864773, -0.08329874, 0.24468556, -0.04125679, 0.09744455, -0.35942465, -0.01240641, 0.26691857, -0.03658688, 0.11250088, 0.42808151, -0.17067853, -0.68849576, -0.40977299, -0.11503034, 0.41218200, 0.07023515, -0.53327632, -0.10656588, -0.23088209, -0.00062304, 0.03527720, 0.02137383, -0.20968385, -0.03901243, 0.04182184, -0.55268681, -0.41553670, -0.05603255, 0.07532128, 0.44713196, -0.26954862, 0.04023482, -0.41638282, -0.02632366, -0.07616759, -0.58338732, -0.27519068, -0.63303727, 0.39099362, 0.20846218, -0.95513576, -0.22138338, 0.25807962, -0.33595145, 0.14041047, 0.33285034, -0.18761596, 0.19967575, -0.21811001, 0.38866997, 0.21500891, -0.22883892, 0.60229725, -0.52658474, -0.21310093, 0.50673503, 0.40493432, -0.37090620, 0.09513687, -0.20700423, -0.26173276, -0.38536814, -0.25875530, 0.31254125, 0.06575505, 0.39501205, 0.02704869, -0.08015855, -0.10337754, 0.05525352, 0.33181012, 0.24471478, 0.16224398, 0.02750633, 0.19365226, -0.09588676, -0.63024926, -0.01930343, -0.07121653, -0.45769399, -0.00079650, 0.00672127, -0.11919399, -0.43043408, 0.01983159, -0.36064869, -0.20022409, -0.15393239, -0.03714873, -0.06479678, -0.10237251, -0.06031332, 0.04475462, -0.14774095, 0.04894453, 0.00416989, -0.01706653, -0.15617412, -0.15670788, 0.21095419, 0.01985659, 0.13428862, 0.23190802, -0.04597810, -0.27452362, 0.13860682, -0.04523481, -0.05489764, 0.35904685, -0.13619995, -0.13195255, -0.05989424, 0.17744163, 0.37123004, -0.21619931, 0.30566716, 0.04189960, -0.21742971, 0.30795220, -0.84862626, 0.15283358, 0.20477414, -0.00731101, 
bias
-0.11068565, 0.43672395, 0.54353404, 2.39368439, 0.41027653, 0.41717973, 1.12468851, -0.31743503, 1.55115342, 1.85969234, 1.08184123, 0.30810690, 
layer11
kernel
-0.16797048, 0.14164764, 0.02024381, -0.39236394, -0.38008782, -0.16100614, -0.09142175, -0.12618443, -0.02812296, -0.18284044, 0.62919301, -0.57094294, -0.97730637, 0.77019507, 0.36059555, -0.01458418, -0.10378680, 0.55892307, 1.58526182, 1.21661866, -1.32153285, 1.64686275, -0.55103970, -0.27503860, 0.30006397, -0.27744490, -0.26685724, -0.31296274, -0.87736565, -0.61225379, 0.59055746, 0.00596279, 0.08255024, -0.05372081, 1.39688981, 0.49604446, -0.17129846, 1.79875636, 1.90560341, -0.35950619, 0.08338241, 1.06062901, -0.10819495, 0.16039319, 0.51316017, 0.56580848, 0.37735963, -0.16258334, 0.43555707, 0.19503072, -0.47989798, 0.09433991, 0.60784000, 0.20865631, 0.14148112, 0.44881678, 0.24027273, 0.04734065, 0.52438873, 0.24993555, -0.23508076, -0.50592840, -0.27387631, 0.62175316, -0.66737819, -0.35023937, 0.05577327, -0.75147146, -0.08224810, 0.34084597, -0.85882449, -0.05205505, -1.33674574, 2.45884705, 0.38864449, -0.50207663, 1.54288936, 0.83095008, 1.52163744, 2.53322887, 1.73840702, 0.41564444, 0.32706717, -1.09620512, 0.38497680, 0.12291526, -0.66229057, 0.59573531, -0.65413433, -0.97679704, 0.00696449, -0.06356607, 0.39330465, -0.01902658, -0.49389270, 1.08890569, -0.49389270, 0.93562865, 0.77756166, -0.09080192, -0.05396845, -0.07009152, -0.46925566, -0.31733447, -0.42850947, 0.13296476, -0.05383353, 0.22707225, 
bias
1.87210488, -0.67037731, -0.74549407, -0.10203496, -0.77975291, -0.85840029, -0.39160508, 1.72429478, -1.04894125, 2.06630802, -1.92291701, 1.68870008, 
layer12
kernel
-0.04292235, -0.09645774, -0.08047102, 0.10807835, 0.13702911, -0.22408289, -0.19990128, -0.30818114, -0.02901793, 0.11640757, -0.15006031, -0.24745844, -0.03125137, 0.04386275, 0.02183062, 0.14965728, 0.12547567, -0.13810384, -0.21333551, -0.20191643, -0.19304983, 0.17746612, -0.19506496, 0.09941328, -0.06465221, -0.08510582, -0.10142841, 0.04839680, -0.01130994, 0.05719622, -0.03842189, 0.07019383, 0.05084855, -0.09135274, -0.14455228, 0.18082468, 0.08524016, 0.04272084, 0.09551735, 0.17357020, 0.01067181, -0.11734796, -0.00594884, 0.14535832, 0.19224378, -0.05494599, -0.09303202, 0.04480315, -0.03229163, -0.27989408, 0.03131839, 0.06902523, 0.08414789, 0.18217072, -0.16420320, -0.36593854, 0.17368604, -0.06538182, 0.09278229, -0.26931319, -0.20782433, -0.01648271, 0.08814068, 0.06967406, 0.09238301, -0.12327716, -0.05744616, -0.25693557, -0.00591743, -0.06767767, 0.02944677, 0.06488272, 0.01574654, -0.12197951, 0.13295966, 0.02565363, -0.01257727, -0.00714958, -0.06942451, -0.03528622, 0.04107575, -0.09632588, -0.13006490, -0.00618881, -0.03523631, 0.04966024, 0.01260846, -0.03007065, 0.04484394, 0.00148560, 0.25354171, -0.08334934, -0.12866743, -0.00084847, -0.16550085, -0.11209738, -0.35973927, -0.38532639, 0.17834961, 0.02305372, -0.22838378, 0.03439057, 0.16796277, -0.23218384, -0.08531141, -0.27639124, 0.08588142, -0.10747845, 0.05456257, -0.09557158, 0.21103016, 0.05310588, 0.03977399, -0.29665825, 0.13528223, -0.35872594, -0.10842846, -0.07017449, -0.00587426, -0.07562125, 0.10830179, 0.02164453, -0.14845578, 0.00407319, 0.11596525, 0.15478922, -0.03613226, -0.04769079, 0.11463523, 0.16112266, -0.09835830, 0.03518225, -0.23522389, -0.01599985, 0.01586526, -0.04148402, 0.05715928, -0.08816146, 0.00192279, 0.07340455, 0.18100967, 0.07486124, 0.11216519, 0.15048249, 0.16744073, 0.13043983, 0.02458920, -0.07464578, -0.20397325, 0.23418283, -0.09320477, 0.11275904, 0.12130671, 0.12751256, -0.04516802, 0.03363451, -0.08576947, -0.06820575, -0.32879269, -0.19097610, 0.08266654, 0.10116699, -0.07283086, 0.09226803, -0.10871938, 0.01437297, -0.19202992, -0.17575422, -0.09103858, 0.06943521, 0.01500234, -0.02293528, -0.04865148, 0.36509106, 0.19530849, -0.00715355, 0.21650203, -0.02448674, -0.28757653, -0.07359196, -0.02581866, -0.18558989, 0.04349946, -0.16299126, -0.00207288, -0.15584868, 0.08184690, -0.17118765, -0.15444358, 0.07095740, -0.05318878, 0.07002067, -0.10003155, -0.09359521, -0.07884525, 0.18129043, -0.19899039, -0.31323552, 0.34684756, -0.19916917, -0.13274965, -0.02762266, -0.10003155, -0.01962192, 0.11174213, -0.18325709, -0.02174502, -0.07352632, -0.13194510, -0.05689909, 0.06168165, -0.23635694, 0.05828470, 0.16126624, -0.15697534, -0.08876795, -0.31699008, 0.14749961, 0.07884525, 0.08407478, -0.13346480, -0.03224878, -0.27783564, -0.17601620, 0.09095810, 0.09064522, -0.21740548, -0.28015986, -0.25781143, -0.04429458, -0.14758900, 0.26120842, 0.04599306, 0.09448914, 0.00805102, -0.25924173, -0.07200663, 0.01230281, 0.10852396, 0.07558238, -0.11304356, -0.03422881, 0.01697562, 0.24912609, -0.07040067, -0.01675009, 0.11686026, 0.05520329, 0.19277780, -0.10908808, -0.12234242, 0.06557776, 0.14010739, -0.01790377, -0.05912407, 0.03185206, 0.08854732, -0.09257220, 0.04080394, -0.05038037, 0.02302161, -0.04767399, 0.06929036, -0.01219608, -0.08167727, 0.06859642, -0.05128250, -0.00877406, 0.00221954, 0.01633372, 0.06075484, 0.03716073, 0.09215584, -0.00456269, 0.11540297, 0.13878891, 0.02871195, -0.07723603, -0.04732702, 0.02829559, -0.06679216, 0.03426351, 0.01121588, -0.00904730, -0.02770573, 0.04843733, 0.10714503, 0.06054666, 0.16801788, -0.06687057, -0.00194481, 0.06034493, -0.09644199, -0.12391834, 0.05028172, -0.11691187, 0.10372322, 0.05498705, -0.19824186, -0.04581681, -0.06614931, 0.16444595, 0.11203482, -0.26610845, 0.07411745, 0.02708138, 0.03396764, 0.01288813, -0.24398999, 0.24989741, -0.25429362, -0.18148129, 0.15331803, -0.03558187, 0.29262313, 0.01735303, 0.03822647, -0.12749027, 0.05742557, -0.07762069, -0.24137974, -0.12584168, -0.12433048, -0.01071578, -0.06669884, 0.21692578, 0.00562836, 0.28850168, 0.02510652, -0.04880487, -0.08641312, 0.03561622, -0.20964456, 0.02100223, 0.09829664, -0.07645294, -0.14245701, -0.08977426, -0.16844243, 0.05642038, -0.09717833, 0.08934710, -0.08044799, 0.12999825, -0.04712971, -0.06268536, 0.07008942, 0.15448861, 0.15107135, 0.10835561, -0.00806260, 0.08835040, -0.02002301, -0.12821843, 0.16488278, -0.06610262, -0.08101753, -0.19122416, 0.10429762, -0.22582391, 0.18068761, 0.06507032, 0.12700815, -0.18068761, -0.14167389, -0.05848498, 0.04833999, 0.06126150, 0.20332696, -0.00233157, 0.16075359, -0.11419342, -0.00505915, -0.00826283, 0.16602187, -0.00400238, -0.00136713, 0.11483416, -0.28363255, -0.08863517, -0.31837469, 0.06524830, 0.10408404, 0.02557605, -0.01081183, -0.06918375, -0.15925992, 0.05417106, -0.04515747, -0.09765713, 0.02871215, -0.02257873, -0.08655430, -0.10183562, -0.04578424, -0.03199524, -0.03315925, 0.12738405, 0.14003889, -0.09616482, 0.06673635, -0.05945385, 0.07413824, -0.01872856, -0.04844056, -0.27076572, -0.00052231, -0.19173270, -0.00520818, -0.09121033, -0.02037011, 0.04035221, 0.11860924, -0.08565892, 0.05787200, 0.16737811, -0.00743546, 0.05291751, 0.02011641, 0.16797504, 0.08536045, -0.04139683, -0.05712584, 0.00080259, -0.12022094, 0.13263701, 0.01874348, 0.24569483, 0.09801529, 0.08876293, 0.03033878, 0.00375504, -0.21307559, -0.28856927, 0.20131645, -0.00940731, -0.10765491, 0.14957625, -0.08343109, -0.15569100, 0.03777623, -0.13628842, 0.11523956, -0.17697504, -0.12452928, -0.07143677, 0.04997634, 0.07390618, -0.10336283, -0.22554028, 0.01830016, -0.31608564, -0.01100949, -0.02431202, -0.09113333, -0.02099006, 0.04727174, -0.04747752, -0.07808068, -0.01712424, 0.04568425, -0.06702709, 0.01106829, 0.01799148, 0.13769951, 0.04212711, 0.08013853, -0.03136750, 0.03433669, -0.07184834, 0.03351355, -0.07908021, 0.07090761, -0.10395078, -0.02925086, 0.07284787, 0.04927079, 0.11253496, 0.09907074, 0.08207878, 0.00707227, 0.06025038, 0.06733867, 0.03149161, -0.14355904, -0.04052276, 0.06729596, 0.17046034, -0.10017534, -0.04272183, 0.00676803, 0.15175752, 0.16243264, 0.06093359, 0.07216382, 0.19744705, 0.07002880, 0.05922557, 0.05867046, 0.08642578, 0.05452852, -0.03010384, 0.03956200, 0.09923593, 0.10845923, 0.00229382, -0.00185614, -0.02707211, -0.04513441, -0.24527159, -0.11375409, -0.15226993, -0.18907775, 0.10324977, -0.03458739, 0.01116618, -0.03345583, -0.02747776, 0.15799180, 0.05956718, 0.12895547, -0.14586486, -0.03981820, -0.06725326, -0.02143564, 0.05952448, -0.00217372, 0.01946075, -0.15624975, -0.12543406, 0.27040976, 0.03175519, -0.27608854, -0.01144106, 0.03701641, 0.12334627, -0.16551951, -0.17637599, 0.02854001, 0.03261118, -0.04693338, -0.07783258, 0.12610215, -0.03590988, -0.00885742, -0.07006603, 0.03565935, -0.09612156, 0.06104680, 0.01748519, 0.02682802, -0.21145074, -0.04167217, -0.00974473, -0.23583606, -0.20811029, 0.11532918, 0.11098659, 0.12368032, 0.06518061, -0.13971449, -0.08255097, 0.01650393, -0.06964847, -0.02067950, 0.05052437, -0.06835404, -0.00935327, 0.12309574, -0.01766265, 0.11549620, 0.06184016, -0.02465673, 0.30348027, 0.28911629, 0.18806757, 0.20555885, 0.05074984, -0.10493900, -0.06818635, 0.05038992, -0.06506698, -0.15764844, 0.00159718, 0.10805837, -0.00654869, -0.16164765, -0.05394920, -0.10101978, -0.01254749, -0.17308536, 0.01131773, 0.12573484, 0.12429512, -0.05762846, 0.08950209, 0.00877324, -0.08918215, -0.14589080, -0.17388520, -0.01952609, 0.02405518, 0.04863027, 0.05742851, 0.03867226, -0.01677664, -0.04547090, -0.04115176, 0.22283539, 0.06238751, 0.04051189, 0.16748647, 0.11525693, -0.08518295, -0.16492699, 0.11797639, -0.03651269, 0.03787242, -0.10477903, -0.08598279, 0.08838231, -0.04479104, -0.04303139, 0.04659067, -0.00273037, -0.05093486, -0.10672801, 0.05020226, -0.04353176, 0.03477914, 0.08212813, -0.08498140, 0.13934791, 0.01506646, 0.04970101, 0.01906683, 0.04222080, -0.00277857, -0.04006156, 0.05706555, 0.12176555, -0.03344890, 0.02286478, -0.05814517, 0.00236769, 0.03967598, 0.12107151, -0.00387506, -0.07198742, -0.05671853, 0.07071502, 0.03360313, 0.05074207, -0.13248461, 0.07511061, -0.03875060, -0.01283975, 0.09161334, -0.20173444, 0.14127581, -0.07379964, 0.03049922, 0.12739499, 0.09431239, 0.03144389, -0.02454204, 0.06967396, -0.01577014, 0.03267774, -0.04769601, -0.02995942, -0.15685315, 0.13197659, 0.01981447, 0.01243026, -0.14748444, 0.21231365, -0.06123202, -0.08857060, -0.05571634, 0.00170866, 0.03773044, -0.06231118, -0.10999382, -0.03171515, -0.01179076, 0.00810865, 0.04852198, 0.06562858, 0.08833079, -0.09648440, -0.02166303, 0.17314434, -0.05004079, -0.03962895, -0.06271087, 0.04796242, -0.18689357, 0.12238411, 0.03175512, 0.09784333, -0.01797592, -0.02448082, 0.03958898, -0.00254925, 0.02813795, -0.03591186, 0.03149532, 0.03417322, 0.19776504, 0.09928221, 0.01375922, 0.17234497, 0.16850796, -0.03235465, -0.11758786, -0.03159525, -0.12222423, 0.12654085, -0.14980263, 0.07326032, -0.00014885, 0.14101629, -0.05078421, 0.28386736, -0.11238055, -0.20090890, -0.16224737, -0.00552893, 0.13341504, -0.08636592, -0.30038044, -0.27705246, 0.00038984, 0.28491580, -0.04324849, -0.05943391, 0.01507964, -0.12981100, -0.11113551, -0.07653672, 0.12063708, -0.31453449, 0.18741013, -0.16539271, -0.09232897, -0.21388344, -0.08125474, -0.05995813, -0.01125444, -0.19474927, 0.25595242, -0.04803203, -0.12312714, 0.18452689, -0.10071656, 0.10930073, 0.04403483, -0.14481692, -0.05897522, -0.28386736, 0.08223766, 0.07339138, 0.01969117, 0.00646270, 0.15556352, -0.15163183, 0.08839729, -0.09483701, -0.27836120, 0.23029533, -0.09799285, -0.00212412, -0.34309635, 0.23320842, -0.09661723, 0.03254965, -0.25084874, -0.06238851, -0.10333350, 0.02779566, -0.23029533, 0.20585781, 0.02207064, 0.05684556, -0.08282055, -0.08763523, -0.23595966, 0.01212773, 0.13181697, -0.03089081, -0.35183561, 0.17268105, 0.06736503, -0.20440127, -0.07695393, 0.29098454, -0.04515278, -0.00736868, -0.09232853, -0.00843074, -0.03006139, 0.01113647, 0.01222888, -0.15026650, -0.17802170, -0.03099196, -0.00808178, 0.18902667, -0.09669815, -0.04903688, 0.06667721, -0.01186474, 0.05636005, -0.03649445, 0.11093988, 0.26058856, 0.12612571, -0.13147002, -0.27213225, 0.20383197, -0.07214818, -0.14707540, -0.03879969, 0.07209474, 0.08844833, -0.19720504, -0.03003502, -0.05659624, 0.09090671, -0.05280178, -0.02404939, 0.04080380, 0.18298917, -0.10587078, 0.18779905, 0.09422018, 0.01556530, -0.06370417, 0.11212362, -0.03051601, -0.10212976, -0.01400209, 0.08737946, 0.10111434, -0.07182752, -0.04050987, 0.06386450, -0.14044847, 0.01764958, 0.03866608, 0.05389737, 0.11907122, -0.00285086, 0.06231465, -0.00056992, -0.00768245, 0.12922542, -0.02054887, -0.04029610, -0.18737151, -0.11479577, -0.11265805, 0.00550798, -0.11648022, 0.05260508, -0.02150933, -0.01252420, 0.23667131, 0.04624849, 0.05755291, 0.13297299, -0.07847811, -0.01590006, 0.10761535, 0.13159859, 0.15077144, 0.07284308, 0.18045844, 0.17372389, 0.08940458, -0.08129563, 0.11854181, 0.00520124, -0.05731239, -0.09194721, 0.23021163, -0.07985251, 0.15049656, -0.12369581, 0.03142217, 0.00425419, 0.06854809, 0.10301112, 0.15118377, 0.04861932, 0.01663880, -0.08679322, 0.07703499, -0.05535387, -0.07779092, 0.04889420, -0.21124494, 0.21385631, -0.02853593, -0.06830757, -0.04803520, -0.20382319, -0.01750639, -0.27955252, 0.16135430, 0.05549131, 0.03102863, -0.11259335, 0.19778025, -0.11992501, -0.05498745, -0.02098033, -0.11564821, 0.13013697, -0.12612201, -0.24386498, 0.19655831, 0.05071065, -0.13319182, 0.12472551, 0.22204456, -0.12114695, -0.10430159, 0.01717267, 0.00661704, 0.03777114, -0.11591005, 0.05542386, -0.16112196, -0.24665800, -0.14942621, -0.22815427, 0.02058756, -0.05363458, -0.04660841, -0.32573518, 0.04202612, -0.25154576, -0.40533605, 0.11835394, -0.10369062, 0.01328863, -0.07693879, 0.14610951, -0.27074772, -0.24735625, 0.27458814, -0.00765897, 0.03395257, -0.01646351, -0.11285520, 0.09696993, 0.20755580, -0.13022424, -0.01198263, 0.14765856, 0.00207184, -0.02844284, -0.05968418, 0.01703263, 0.02979121, 0.10491797, -0.22978154, 0.12455828, -0.15010087, 0.04024739, 0.08217387, 0.06446705, 0.10105096, 0.02476664, -0.06833406, 0.08013860, -0.00268242, 0.16475479, -0.00476379, -0.11509430, -0.19843844, 0.22062284, -0.02317659, 0.00973748, -0.19609788, -0.00029177, 0.00955939, 0.15193261, -0.03755066, 0.14674269, -0.11448371, 0.07983331, 0.05922624, -0.07474515, -0.04047636, 0.15366259, 0.05296780, -0.05011843, 0.04831213, 0.11865601, 0.01539170, 0.12608473, -0.00023970, 0.02862093, -0.01344548, -0.16129483, -0.07716227, -0.01110648, 0.28437075, -0.08806501, -0.20692749, 0.10132816, 0.08070285, 0.18321121, -0.22142704, -0.05097318, -0.05383937, 0.14803016, -0.03768194, 0.02222700, 0.10936473, -0.18950558, -0.38395673, 0.06828270, -0.03383225, 0.10970192, 0.06299993, -0.06271893, -0.19849753, 0.06670911, 0.18624599, 0.04043572, 0.01541278, -0.04723589, 0.00739729, 0.10290175, -0.11352351, 0.09424699, -0.11470370, -0.08547983, 0.01685993, -0.17894001, 0.08171444, -0.03931173, 0.01853187, -0.08165824, 0.03976133, -0.03537774, -0.08851461, 0.05456996, -0.22670981, 0.18040121, 0.09430319, 0.06474212, -0.26247895, -0.21100706, 0.19689380, -0.03367465, 0.02251895, 0.16742200, -0.02016674, -0.16603835, -0.09782425, -0.00358669, 0.28807652, -0.15330873, -0.15759806, -0.01023038, 0.18402582, -0.17627737, -0.14085586, -0.18056670, 0.18222708, -0.20325860, -0.12224573, -0.14417663, 0.05299390, 0.05008823, -0.05181780, -0.10149094, -0.05327063, -0.11096896, 0.02921237, 0.00542219, 0.07713865, 0.04292783, 0.03350170, -0.06724553, 0.01528072, -0.01528072, -0.07575499, -0.17046604, -0.10979285, -0.05486184, -0.18333401, 0.02561487, 0.18831515, 0.01128542, 0.17184968, 0.02720607, 0.15192509, 0.04711338, 0.01989310, -0.03048822, -0.06198659, 0.03466658, -0.10073969, -0.14371705, -0.03156725, 0.07870001, -0.04570937, -0.14123759, 0.05537469, -0.01262690, 0.12259570, 0.05500736, 0.12232020, 0.06602719, -0.00594612, 0.00332891, -0.11423899, 0.03478136, -0.14399256, 0.00794347, 0.10266816, -0.16851169, 0.03299064, 0.13976829, -0.04701798, 0.12461600, 0.10643327, -0.02610324, -0.18641894, -0.13067691, 0.13976829, -0.01720702, -0.08719447, -0.10083152, -0.08526600, -0.08701081, 0.02490943, 0.00559314, -0.00749579, 0.01479643, 0.08756180, -0.02608028, -0.12819745, -0.09095958, 0.00373067, -0.07305235, 
bias
1.75535798, 1.06643081, 0.20768796, -0.07108667, 1.95945239, 0.75687182, 0.84114736, 0.71158218, 0.70055312, 0.72728133, 1.01647663, 0.06759079, 1.17663002, 1.86549807, 1.08086097, 2.38789177, 1.39678419, 0.96451443, -0.18701875, 3.02087641, 0.54341316, 0.49799743, 1.27998149, 1.37361944, 
layer13
kernel
-0.30391482, 0.09883129, 0.25496605, -0.70100921, 0.29349601, 0.49892357, -0.52172703, 0.31669262, 0.45174402, 0.22035615, 0.29092774, 0.09494480, 0.30821055, 0.53665417, 0.22689261, 0.18723072, 0.39706206, 0.19565056, -0.01337739, -0.07214305, 0.36766011, -0.02724814, 0.35581970, 0.64302570, 0.13297698, 0.42777300, 0.45934743, 0.45273879, 0.52911264, 0.25096726, 0.44207397, 0.66225088, 0.29861495, 0.09495129, 0.21914484, 0.16246648, 0.10947660, 0.28205621, 0.21230505, 0.27115759, 0.30014792, 0.14495161, 0.23715390, 0.22200483, 0.02860887, -0.35354981, -0.46823436, -0.19229750, -0.49051386, -0.82470608, -0.42184922, -0.18134038, -0.48941815, -0.23521289, 0.18134737, 0.26892325, 0.08841312, 0.21868852, 0.42532068, 0.19373859, 0.12357743, 0.23844750, 0.15589510, -0.18949950, -0.27709976, -0.18347886, -0.23977181, -0.44251671, -0.31186891, -0.17414688, -0.36063606, -0.22231196, -0.09427392, -0.25644419, -0.19508246, -0.08686269, -0.50236917, -0.37199545, -0.02773231, -0.37135795, -0.26823837, -0.13279168, 0.01971942, -0.35309869, 0.35613608, 0.66177529, -0.27849233, 0.51863742, 0.65114433, -0.13924617, 0.11704311, 0.14691937, 0.02473609, 0.18018916, 0.35691825, 0.20680499, 0.08523719, 0.22570223, 0.15517028, 0.55064672, -0.08284066, -0.01888280, 0.91882741, -0.38956764, -0.03334945, 0.71686947, -0.29562744, -0.07702015, -0.19535579, -0.38408935, -0.29800037, -0.28116885, -0.58937848, -0.41416532, -0.18804374, -0.36946526, -0.22487991, -0.12916327, -0.52330530, -0.51221830, 0.00436550, -0.36171260, -0.33177775, -0.01516664, -0.13380595, -0.04171475, 0.23254544, 0.23809987, 0.12377120, 0.28401649, 0.42509899, 0.26383540, 0.07614197, 0.27642542, 0.21125346, -0.08058926, -0.13158140, -0.14711772, -0.18886617, -0.31871167, -0.24233197, -0.13878539, -0.22757679, -0.14694414, -0.43018469, -0.68210793, -0.25511524, 0.14977892, 0.23375332, 0.43092132, 0.27844146, 0.14179890, 0.14769183, 0.09542634, -0.91609293, -0.18035837, -0.63295192, -0.75641453, 0.23787139, -0.48603132, 0.23766561, 0.64941359, 0.06572696, 0.09144863, 0.03266820, 0.21525858, 0.30218780, 0.14049277, 0.15388367, 0.28924325, 0.11683553, 0.02097829, -0.11591437, -0.15765506, -0.00053150, -0.19920383, -0.24372724, -0.02991416, -0.20323397, -0.25505000, 0.02355929, 0.20405602, 0.22646804, -0.04103532, 0.32828259, 0.46830431, -0.10576335, 0.08377823, 0.23415215, 0.11667147, 0.17653587, -0.01100884, 0.33788374, 0.44183281, 0.12761867, 0.24557225, 0.28186566, 0.06400658, -0.06131126, 0.46125224, 0.37379074, -0.26944187, 0.12262252, 0.40277654, -0.35917184, -0.41386676, 0.02704816, 0.16033325, 0.40944737, 0.29008988, 0.30281720, 0.60128850, 0.38523439, 0.16731776, 0.34425861, 0.17771691, 
bias
-0.34899911, 0.68436408, -0.13114178, 0.13835323, 0.16068557, 6.05883074, 0.18426973, 3.15852880, 2.24989700, -0.24469554, 0.07448983, -0.71358901, 5.36527252, 3.84868598, -0.36633170, 3.67980647, 0.00066803, 1.62340462, -1.04510736, 2.56537461, 0.12361050, 0.21162522, 0.83699596, -1.51222944, 
layer14
kernel
0.35598254, 0.15579350, 0.11681955, -0.30217597, 0.15876003, 0.24079968, -0.04795023, 0.05089118, 0.24366391, -0.11487597, -0.42431480, -0.18157154, 0.55484176, 0.02754261, -0.07723184, -0.22852442, 0.04442110, 0.04523944, 0.07758987, -0.33143201, -0.11743332, 0.25389329, 0.47014245, 0.04002246, 0.04131682, 0.01290411, -0.14395773, 0.35468534, -0.45152533, 0.08677716, -0.98402691, 0.03835716, -0.11749840, -0.27418268, 0.02262658, -0.11140151, -0.04199754, 0.02705127, -0.03826837, -0.12022129, 0.00729926, -0.28507420, 0.22564429, -0.15567799, -0.02992214, -0.09334759, -0.12146434, 0.07434659, 0.09440159, 0.07978457, -0.14335339, -0.26950133, -0.07422706, -0.14426695, 0.14396243, -0.06981150, 0.03189860, 0.08526596, 0.47748935, -0.10901862, 0.21149002, -0.15880784, -0.01657738, -0.13695844, 0.00339256, 0.01102938, -0.12995446, -0.21849401, -0.03334508, 0.01168600, -0.34532711, -0.05245379, -0.06846664, -0.09120647, -0.30476308, -0.05990831, -0.16609958, 0.65154535, 0.10121693, 0.32231227, 0.25656453, -0.00321710, -0.50324219, -0.09429611, -0.52746505, 0.25730604, 0.19489512, -0.33813128, -0.19131112, -0.20008573, -0.28647235, -0.19118753, -0.00741902, 0.30229133, -0.27732697, -0.05067026, 0.17994434, -0.32301864, 0.20104606, -0.00502905, 0.05901525, 0.11907399, -0.07240673, -0.25693083, -0.15466866, -0.18458208, 0.20069823, 0.23223487, 0.17507471, -0.52823865, 0.23722044, 0.22029269, 0.00112230, -0.18574151, -0.08260976, 0.30075750, -0.07031974, 0.41275892, -0.08278368, 0.20939399, -0.21299122, -0.12001593, 0.17866568, 0.00110258, 0.56155598, -0.17545538, 0.33238980, 0.31609133, 0.35856611, -0.07760289, -0.14989643, -0.15681094, -0.11538568, -0.05914365, -0.18755576, -0.14915560, 0.01872162, -0.02525026, -0.13273366, 0.36622143, -0.00989329, 0.08414697, -0.09285183, 0.37782791, 0.41282344, 0.16390474, 0.61195838, -0.14802009, 0.31396589, 0.10551313, -0.30207458, 0.47032765, 0.12485868, 0.12778713, -0.33313397, -0.08678876, 0.29870242, -0.17819206, -0.26977283, 0.04894070, -0.16470341, 0.01239047, 0.06775380, 0.49836981, -0.31503078, 0.19008335, 0.05093737, -0.23534130, 0.09795506, -0.21322311, -0.23144731, -0.12589884, 0.00888904, 0.07608602, -0.03703688, 0.04430758, 0.00855683, -0.31649357, 0.08610933, 0.29067594, 0.20122552, 0.06275958, 0.10858584, -0.09309527, -0.02435588, -0.14381929, 0.06378469, 0.03542328, 0.03432224, 0.28369001, 0.12665817, 0.03475886, -0.03420535, -0.24088416, -0.33661011, -0.07321662, -0.16075289, -0.02488776, -0.17046280, -0.11926512, -0.11083025, 0.26344252, 0.05561128, -0.30875543, -0.01993473, 0.15575083, -0.58730221, 0.18223239, 0.03101776, 0.27109274, -0.08807572, 0.06208456, 0.11553808, 0.06183935, -0.10278770, 0.19655205, -0.16461116, -0.62591738, 0.05349572, -0.16403033, 0.24674250, -0.17192981, -0.29390702, -0.33874819, 0.10803697, 0.10344830, -0.17576337, 0.12917969, 0.46351343, 0.43214786, -0.26834989, 0.13800852, -0.10327405, 0.11326456, 0.02833066, 0.13975105, 0.00666518, 0.55156940, -0.15276195, 0.17343999, -0.09365944, 0.45095286, 0.40238869, 0.24958506, 0.10302538, 0.01827660, -0.20587732, -0.32711425, 0.07466739, 0.23102662, 0.22339511, -0.07757256, -0.30023053, -0.05979461, 0.27716255, 0.33110347, 0.50506717, 0.26346052, 0.60115486, 0.66255379, -0.11898217, 0.32780802, 0.14820740, 0.41348907, 0.13483374, 0.42267880, -0.19795591, 0.02239738, 0.00515302, 0.02029997, 0.14132574, 0.09198657, 0.00976296, -0.18906687, -0.07111231, -0.17288682, -0.29543570, -0.10986453, 0.35016823, 0.09493294, 0.03223525, -0.03156108, -0.10636884, 0.01870194, -0.24529754, -0.42068127, 0.00944460, 0.14941576, -0.31732258, 0.71053857, -0.13217191, -0.28267556, -0.02021075, 0.09257533, 0.24674535, -0.20476563, -0.00638747, -0.20989853, -0.61594677, -0.09651666, 0.51402223, 0.24417889, -0.91732073, -0.05041231, -0.49642375, -0.40036541, 0.23647957, 0.14848717, -0.27350968, -0.58844912, -0.54335302, -0.08455519, -0.22232103, 0.37326005, 0.08523968, 0.24724491, -0.07990596, 0.28074262, 0.35810634, -0.02838830, 0.24983700, 0.07796190, -0.42071512, -0.08852963, -0.04780401, -0.21354783, -0.15572442, -0.25083396, 0.03805877, -0.13618410, -0.01945309, 0.07023550, -0.53556436, 0.10173929, -0.04207151, 0.02216979, -0.11899299, 0.02651426, -0.20856999, -0.10738608, -0.00878271, 0.14300424, 0.07885612, 0.14238402, 0.22806253, -0.14645973, 0.46392205, -0.03849773, 0.16462322, -0.01768725, 0.14406747, -0.08718474, 0.03628267, -0.08457097, -0.26562992, 0.04563022, 0.04131086, -0.37921816, 0.29699516, 0.16329418, 0.11898542, -0.11004274, -0.06611439, 0.19619283, -0.30036482, 0.21981242, 0.35060766, -0.10656124, -0.55075985, -0.00170875, -0.33695471, 0.09959824, -0.10226057, -0.08751538, -0.14799793, -0.24165714, -0.05218839, 0.03257934, 0.22636585, -0.30910268, 0.45409697, 0.07051747, -0.10642471, 0.95079118, -0.28260350, -0.25818288, -0.17401618, -0.37690705, -0.24389911, 0.77224481, -0.68869245, -0.43588519, 0.32806581, 0.30856001, -0.07088125, -0.19997269, 0.15120824, -0.29688728, 0.08854397, 0.13285436, 0.15090105, -0.04523192, -0.05506160, 0.04365763, -0.16510803, 0.11473088, -0.27983889, 0.27861020, -0.15151945, 0.13861111, -0.26677260, 0.26738727, 0.32475773, 0.10116664, 0.36409745, -0.28357393, -0.09189516, 0.27148515, -0.16760367, -0.08882175, 0.21677834, 0.23255521, 0.65566230, -0.12252688, -0.09752976, 0.30324379, 0.20182104, -0.12693211, 0.29566270, 0.04113256, 0.01756970, -0.13604993, -0.21256840, -0.25454620, 0.13765590, 0.56625360, -0.05956158, -0.10756809, 0.15987287, 0.20140409, 0.27665150, -0.38673156, 0.26370093, -0.27397209, -0.13732097, 0.21580604, -0.16132423, 0.12425873, 0.00910589, -0.28848568, -0.18376449, -0.25744891, 0.32555118, 0.16523173, -0.26280779, -0.17583783, -0.23140857, 0.19006926, 0.30340913, -0.14598417, -0.08450913, -0.29196835, -0.49149531, 0.18884891, 0.11967041, -0.00970082, -0.18015394, 0.12691623, 0.34139246, 0.00846140, -0.16322160, 0.56166536, -0.17756069, 0.31164646, -0.32674828, 0.15864529, -0.03809775, -0.40912181, 0.05022496, 0.30752781, 0.19687267, -0.15014336, -0.39821512, 0.53555870, 0.37688217, 0.18488559, -0.10930599, -0.07288758, 0.20753916, -0.15095603, 0.09813158, 0.07964302, -0.03012010, -0.16162251, 0.00159759, 0.54368550, -0.16040349, 0.28626791, 0.05107210, -0.02524399, 0.08975077, 0.15268299, 0.02529479, 0.14404821, -0.05524162, 0.23109046, -0.19895788, 0.21260321, 0.36211506, -0.42902124, -0.50649160, 0.55637777, 0.01812960, 0.32543403, 0.11928669, -0.14334944, 0.17298771, -0.26777148, 0.33453095, -0.19323564, -0.07306860, 0.17225409, -0.04001900, 0.35272473, 0.07534282, 0.47920090, -0.38559091, -0.40085024, 0.17244068, -0.31218189, 0.12569724, -0.19200444, -0.18585584, 0.17956747, 0.01987819, 0.26564807, -0.26131609, 0.04021054, -0.35354531, 0.12241331, 0.00487348, 0.70429575, 0.29988468, -0.25866100, -0.14463218, -0.00693466, 0.13918227, 0.24678300, 0.40273422, 0.03710129, 0.41335455, -0.41447249, -0.05114118, 0.31198686, 0.41118532, -0.01485193, 0.22512397, -0.16370316, -0.00849676, -0.07765406, 0.10039775, 0.07675459, 0.18383411, -0.15076795, 0.40467489, 0.01707918, -0.28406054, 0.14657044, -0.07032982, 0.16558775, 0.10211103, -0.25921810, -0.27566549, -0.24705385, -0.17501076, 0.17869429, 
bias
0.30106723, 2.78277540, 1.55421782, 1.89166927, -0.31685221, -0.46418571, -1.76756525, 0.24399781, 2.40015602, -0.38689566, -4.78451967, 0.55465043, 2.35678744, 1.06870270, -0.15126747, 0.44667393, 0.72844183, -1.47690296, 0.76022017, -0.41541508, -0.94159389, -1.34545732, -1.28704691, 0.17603654, 
layer15
kernel
0.59866983, -0.35790607, -0.26499563, -0.08494114, -0.38045338, -0.08396927, -0.19242959, 0.07256604, -0.25592488, -0.13735715, -0.30218571, -0.38408169, 0.15018579, 0.15303659, 0.36879098, -0.80289137, 0.18983795, 0.08643134, 0.24102291, 0.09828811, -0.12692578, -0.83139950, -0.69093239, -0.27445513, 0.06594971, 0.29900652, 0.00566300, 0.67257053, 0.30987951, 0.08607764, 0.10012189, 0.12756318, -0.09940997, 0.25900954, 0.27544844, 0.15040934, -0.04520694, 0.49860311, -0.12167365, 0.51128823, -0.09306740, 0.38003600, 0.60785049, 0.33084878, 0.30703181, 0.24166459, 0.08866644, 0.22470795, 0.18840107, 0.19998559, -0.11194316, -0.28241870, 0.12938093, -0.47167334, -0.34631652, 0.37558270, 0.17767014, -0.33802444, 0.02405315, 0.15547661, 0.31339207, -0.15779351, 0.17962120, 0.67458558, 0.03697905, -0.38728920, -0.39777625, 0.15328164, -0.22534962, -0.14816006, -0.16535394, 0.27388272, 0.29474708, 0.45087269, -0.31648609, -0.24152885, 0.24901047, -0.08505034, -0.21936636, 0.13149278, -0.17518254, -0.25169256, 0.10763633, -0.56577891, -0.24872814, -0.25987998, -0.63974798, 0.02447403, 0.10495424, 0.52964133, -0.28670081, -0.37125710, 0.42009929, -0.00423708, 0.29079452, -0.23828213, -0.44418854, -0.13408209, -0.48653024, 0.20158915, 0.18654321, -0.20172231, -0.18454595, -0.35977140, 0.31503299, 0.20105655, 0.38773292, -0.08887765, -0.14473410, 0.45271012, -0.09593460, -0.30251688, 0.36110291, -0.51289397, 0.19493166, 0.34459230, 0.02882698, -0.40823802, 0.00379894, 0.03701571, -0.47044420, 0.27203268, -0.04650271, 0.29918373, -0.26994413, -0.17752612, -0.43989927, 0.06653966, -0.12315875, -0.02033066, -0.01855213, -0.03782220, 0.28743568, -0.01634121, -0.36914989, 0.30571041, -0.50464410, -0.57382709, 0.54093254, -0.09039474, -0.64327109, 0.54145467, -0.20311077, 0.09620349, -0.68680000, -0.04678274, 0.20060243, -0.04369042, 0.24236397, -0.49330071, 0.10379154, -0.52563220, -0.30567989, -0.35736135, -0.25301868, 0.27555278, 0.29245335, -0.01694650, -0.50211841, 0.13667418, -0.02867280, -0.04797680, -0.57951808, 0.00735190, 0.03851616, 0.23905735, 0.12105952, 0.26257119, 0.29858214, -0.24991757, 0.00890431, -0.12325326, -0.25583008, 0.35975397, -0.02751595, -0.05918203, -0.22842784, -0.24787094, -0.10051280, -0.16486828, -0.36339244, -0.16282164, 0.10159297, -0.34724671, -0.18385656, -0.25946856, -0.03826081, -0.08220673, -0.25946856, 0.91916907, -0.40341562, 0.05554356, -0.01332182, -0.20269147, -0.29516578, 0.49679971, -0.10586957, -0.28529558, -0.25286496, -0.34052166, 0.19787388, -0.15087295, -0.67352319, 0.08107658, 0.25051489, 0.10146324, 0.05305229, -0.45567390, 0.76893502, -0.45026881, 0.27284035, -0.18823868, 0.82439613, -0.38987264, -0.40961301, -0.34146169, -0.10768363, -0.00292452, -0.12208913, 0.17613527, 0.15386295, 0.72211373, -0.19759026, 0.07238506, 0.18727143, -0.41418353, 0.07013740, 0.05100669, 0.18369560, 0.19902059, 0.36779988, -0.03928307, 0.03397040, -0.24152192, 0.09031530, -0.31651223, 0.34062356, -0.33776289, -0.27115023, -0.26808524, -0.20194748, -0.47451934, 0.45543167, 0.04480829, -0.28249744, -0.14353923, -0.07019489, -0.16444023, -0.06294157, 0.08217239, 0.05950579, 0.66386896, 0.26169187, -0.01679714, 0.21359096, -0.25043017, -0.43061772, 0.01550873, 0.26092836, -0.09033237, -0.11280809, -0.06957453, 0.07482364, 0.40542200, -0.18461448, -0.27708006, 0.43477818, 0.30684638, 0.72515810, -0.20108095, -0.13854003, -0.26488853, -0.02390805, 0.21089751, 0.24335545, 0.18081452, -0.27613005, 0.73022467, -0.69665843, -0.22118905, 0.23037228, 0.14146917, -0.46929446, -0.60957611, -0.39551198, -0.09468221, -0.15429401, -0.42781159, 0.30550888, -0.11795667, -0.04652673, -0.12774007, 0.45804098, -0.09649990, 0.02112325, -0.08477093, -0.30906647, 0.34975654, 0.00236073, -0.32440865, -0.34442014, -0.00510015, -0.48783588, -0.22412880, 0.30328539, 0.06031244, 0.77911437, 0.19577916, 0.12118074, -0.24925435, -0.27526930, 0.37110212, 0.01181295, -0.13396128, 0.22115789, -0.20349936, -0.01584701, -0.63132298, -0.20630036, -0.14553066, 0.10369821, 0.11228391, -0.03251605, 0.02361068, -0.47178724, 0.04365920, -0.22310641, -0.56848294, -0.36729747, -0.78720516, -0.37411731, -0.13944151, 0.26378193, -0.33441606, -0.32199419, -0.00536226, -0.18075246, -0.15708986, 0.05125862, -0.45466861, 0.12698510, 0.17418639, -0.48613614, 0.24393529, 0.10357029, -0.46111077, -0.63480163, -0.25359854, 0.36943373, -0.04633408, 0.57929987, -0.37315038, -0.09434064, -0.66354364, -0.21457385, 0.29733098, -0.34539947, -0.24628915, -0.23253760, 0.04020163, -0.03909364, -0.27714512, 0.28200021, 0.59960449, 0.11753380, -0.29595861, -0.02890300, 0.30728719, -0.24902602, 0.16062279, 0.03982697, 0.05704739, -0.02089968, -0.12329923, -0.00180328, -0.22110921, 0.25489259, -0.07120809, -0.04592112, 0.09846743, -0.38739628, 0.12137742, -0.24133877, 0.14575405, -0.11331706, -0.03666842, -0.35230327, -0.18784733, 0.27735528, 0.18426701, -0.15001531, 0.23379475, -0.58573997, -0.05734476, -0.21983151, -0.33893675, 0.09571382, -0.16791689, 0.10108431, -0.36185077, -0.30623651, -0.01699159, 0.27186546, 0.04215824, -0.41316867, -0.17281000, 0.33058268, -0.16421723, -0.42645589, 0.06037549, 0.12081271, 0.10630530, 0.06562284, -0.03048098, -0.25174972, -0.12741821, 0.07556196, -0.43509859, -0.30545798, -0.20544951, -0.08457506, -0.07130234, -0.14383934, -0.27483809, -0.01679155, -0.77932531, -0.33558398, -0.43262926, -0.08550107, -0.03410783, -0.07815477, -0.34570831, 0.37586662, -0.50318760, -0.09941825, -0.08599444, 0.04053521, 0.60119897, 0.36484620, 0.10979385, -0.02226066, 0.01341648, 0.26847616, 0.37070811, 0.28137240, 0.36461172, -0.22697373, -0.19871925, -0.19520210, 0.12227975, -0.30950963, -0.56040001, 0.09566661, -0.08910125, -0.03836630, 0.01944694, 0.22968769, 0.02300902, 0.40163147, 0.05720726, -0.40270478, -0.41622844, 0.05476549, 0.18761407, -0.28013313, -0.18804339, -0.25201249, 0.22131591, 0.61521959, -0.34903944, -0.02094290, -0.29258350, 0.00471249, 0.24900723, -0.21015351, 0.38188264, -0.12675756, 0.13630998, -0.10931632, 0.49930242, 0.03347020, 0.23254320, -0.31404141, -0.23165321, -0.41448379, -0.21042044, 0.08728316, -0.42262089, -0.19440052, -0.25403026, -0.22745751, 0.17888917, 0.20113906, 0.17927060, -0.33845273, 0.25314024, -0.02819380, 0.52992898, 0.19147626, 0.21042044, -0.20495333, 0.33133274, -0.11716160, -0.12962154, -0.18436898, -0.06659266, 0.36722940, -0.12693551, 0.36895350, -0.18189062, 0.10215184, 0.37218612, 0.15139592, 0.44050288, -0.19395919, -0.03733714, -0.06928653, 0.06971756, -0.06427592, 0.42563266, 0.14773224, -0.42972738, -0.31270531, -0.07456654, 0.27994776, 0.44352001, -0.43920982, -0.11788408, 0.02832239, 0.13627134, 0.42052290, -0.11553170, -0.43322828, -0.18671915, -0.07218395, -0.30393243, 0.54508537, 0.48479715, 0.04524732, -0.03381871, -0.26955318, -0.07430152, -0.21586676, 0.42500716, -0.10693689, 0.44867402, -0.26257768, -0.15732241, 0.10500617, 0.10743514, -0.11453520, 0.24102838, -0.34770370, 0.18223272, 0.05335136, -0.18243714, -0.00475895, -0.31622437, -0.23548187, -0.25387889, 0.56621945, 0.14554088, -0.16046292, -0.22301279, -0.08278660, -0.00394131, -0.15719233, 0.01789877, 0.04103558, -0.13859090, 0.28167883, -0.19408858, 0.07747190, 0.17293200, -0.26471269, -0.28842440, 0.68545663, 0.03988501, 0.02564036, 0.28309357, -0.26235852, -0.09664939, 0.01086020, 0.07989854, 0.04982413, 0.01575479, -0.38694027, -0.27332583, 0.45685685, 0.12826607, 0.03844983, -0.06259076, 0.16579482, 0.07681398, -0.48461783, -0.04159865, -0.34804061, -0.19329877, 0.50586700, 0.21300565, -0.04103256, 0.22964889, -0.35308015, -0.44675449, 0.12483238, 0.10755201, 0.04643685, -0.16973469, -0.50520086, -0.34240502, 0.28235736, 0.28555992, -0.22804762, -0.04103256, -0.06521842, -0.10428274, -0.07292453, -0.06742016, 0.16973469, -0.26554403, 0.00720572, -0.16906749, 0.25460202, -0.54256386, 0.22359495, -0.01968979, -0.16114183, -0.39475486, 0.08137023, 0.13119417, 0.33826995, 0.15922348, -0.01020458, 0.26281467, 0.14377007, -0.18298978, -0.23936810, -0.36555323, -0.21219140, 0.02850889, -0.25407550, -0.19524592, -0.06426490, 0.15176322, 0.08584639, 0.00774669, -0.08552667, 0.08312873, 0.13105831, -0.18534650, -0.34272006, -0.09101559, -0.12991868, -0.02384173, -0.14535558, -0.13644569, 0.15882403, 0.06495934, 0.04732086, -0.10199755, 0.12546372, 0.22709867, -0.18731496, 0.78034085, -0.04159677, -0.21342301, -0.21818878, 0.04576680, -0.52754855, 0.23207164, -0.29257601, 0.25486439, 0.09393033, -0.18940330, -0.47102287, 0.30990151, -0.14920866, 0.13266802, 0.22282740, -0.09864398, -0.01504085, -0.34006891, 0.19934483, 0.09607290, 0.16146417, 0.65065604, -0.50530398, 0.16146417, -0.06226312, -0.36646539, -0.22711255, -0.17320547, 0.01451592, 0.34178296, 0.05690669, -0.37263599, -0.07876820, -0.27194497, 0.37257659, -0.04024516, 0.00171744, 0.61007923, 0.07981645, -0.26026452, 0.06057365, -0.28092995, -0.38395756, -0.07839383, 0.03919692, 0.10392611, -0.22971563, 0.48788366, -0.12915888, -0.23151264, -0.21563919, -0.20201199, -0.51603657, 0.26610476, -0.03343156, 0.05690479, 0.47772515, -0.08092612, -0.07950220, -0.17383690, 0.25915343, -0.18439764, 0.07006873, -0.01018251, -0.06072425, -0.36642209, -0.10275955, 0.39917225, -0.08389262, 0.16339482, 0.56054986, 0.06472903, -0.02006837, -0.31919539, -0.45256925, 0.07635771, -0.17905794, 0.08347731, 0.05419796, -0.07457781, -0.45661604, -0.04667038, 0.11200891, 0.17740542, 0.15989678, -0.42948344, -0.07925268, 0.01952329, 0.24465714, 0.02121908, 0.07304929, 0.29126954, -0.23538105, -0.23398963, 0.15108448, -0.27642778, -0.38611767, -0.45406511, 0.11461782, 0.04971410, -0.21021962, -0.27271736, 0.22691661, -0.11693684, -0.00132447, -0.00022630, 0.18950588, 0.08135599, -0.14176403, -0.07360201, -0.10417140, 0.12609367, -0.00132828, -0.06527966, -0.11521372, -0.01730439, -0.04766065, -0.18577097, 0.33776540, 0.06633517, -0.02693598, 0.17521580, 0.01154979, 0.04262664, -0.04538722, 0.29554471, -0.05070541, -0.15256278, -0.07329361, 0.36551619, -0.25103855, 0.17730074, 0.21778673, -0.09829593, -0.20776042, 0.12723263, 0.05187665, 0.23961617, 0.25827274, -0.06152221, -0.23301657, -0.17768148, -0.41856679, 0.29444361, 0.40841359, 0.05187665, -0.24596193, 0.01182692, -0.09740753, 0.25230771, 0.00468794, -0.28733635, -0.06264491, 0.16175349, 0.01232377, 0.00985577, 0.19095898, 0.22828670, -0.07435303, -0.19130461, -0.00454446, -0.07037832, 0.20184623, 0.17298637, -0.06942785, -0.19959965, 0.06657642, 0.00232083, 0.09124555, -0.26302224, 0.36118034, 0.13937414, 0.45138901, 0.02395628, 0.05836778, 0.18214549, -0.31007332, -0.38070565, 0.06742799, -0.26371232, -0.38643262, -0.17044488, -0.39706838, -0.29125619, 0.35616159, 0.12783365, 0.10628942, -0.36570653, -0.17535369, -0.08208625, -0.13881031, -0.32289076, -0.19198911, 0.26084882, -0.01007329, -0.22471452, 0.09913073, -0.04949719, 0.31770924, 0.02481677, 0.03278975, 0.01832517, 0.08739438, 0.69106293, -0.24033453, -0.07485166, -0.15806514, -0.22374578, -0.38356420, -0.12502252, -0.26042983, 0.30992636, -0.14228560, 0.22549906, 0.05822920, -0.09420520, 0.22617340, 0.44263634, -0.02628238, -0.13466556, -0.12313436, -0.14660136, -0.04207877, -0.04413551, -0.23558669, -0.42638785, -0.14166662, 0.08300128, 0.05015239, 0.31386882, 0.29073581, -0.57406908, 0.21134329, -0.06440233, 0.24835612, -0.15878506, -0.31405389, -0.28444362, -0.18302846, -0.01146820, 0.21374911, -0.05306715, -0.44267350, 0.41528401, -0.09549312, 0.11779334, 0.60775071, 0.40603080, 0.14043212, -0.20654030, -0.19889775, 0.14797916, 0.15504853, 0.08655205, 0.15801002, 0.33569965, -0.09080322, 0.03790234, -0.03451096, -0.05440551, -0.11234570, -0.03983687, -0.33436221, 0.11234570, -0.15160938, 0.11282336, -0.05832232, -0.16383748, 0.07255660, -0.02861185, 0.29863322, -0.27150211, -0.18886156, -0.10034297, 0.06080521, -0.25176066, 0.12161043, 0.03186012, -0.17046809, -0.17309573, -0.30349231, -0.16997540, 0.04922718, 0.17867947, -0.26900455, -0.10009663, 0.17063232, 0.02703594, -0.05928611, 0.29922241, -0.28493461, 0.02512680, 0.22548428, -0.07956820, -0.14312422, 0.15133558, -0.08617284, -0.18577833, 0.30847120, 0.17486431, 0.11219860, 0.21252370, -0.00005177, 0.34948874, 0.19885118, 0.33701557, -0.13720492, -0.20784625, 0.01050175, 0.00359241, 0.09600746, -0.37443510, 0.21600179, 0.02254766, 0.13384676, 0.00141298, -0.13084839, -0.34852928, 0.06320541, -0.19489335, 0.11289328, 0.53834391, 0.05625121, -0.16689704, 0.12064532, -0.00935620, -0.04687058, 0.01362308, -0.04006311, 0.06840043, 0.17262965, -0.12728994, -0.10416408, -0.05768436, 0.20819788, -0.17158736, 0.37157717, 0.07791135, 0.33457580, 0.04152883, -0.01044735, 0.12813680, 0.24819584, 0.18474630, -0.23331371, 0.06482817, 0.17535765, -0.00977500, 0.24509449, -0.05287812, -0.07427311, 0.27082264, -0.07054929, -0.00624162, -0.03656106, -0.09214740, -0.02246135, -0.25538576, 0.15964994, 0.09221511, 0.12227642, 0.10318343, 0.05826072, 0.00305945, 0.10169390, 0.03180473, 0.00077756, -0.25132340, -0.33579451, -0.09352124, 0.13229573, -0.03054633, 0.08583088, -0.03554775, 0.01555550, -0.30890512, -0.24695201, -0.20435925, -0.01433204, 0.17004840, 0.06921325, 0.25276011, -0.00689712, -0.22651610, -0.20812376, -0.16510075, -0.05947930, 0.18349309, -0.24437064, -0.04326500, -0.11024643, 0.17897567, 0.19176611, -0.37129804, 0.58879477, -0.09627145, 0.20040773, -0.27497804, -0.14807257, 0.00603517, -0.24701418, 0.08588209, -0.13069224, -0.27672580, 0.04097484, -0.09869886, -0.09714531, -0.25478190, 0.02439556, -0.05451984, -0.03415379, -0.08335757, -0.22642966, -0.16351095, -0.15962708, 0.34391674, 0.12019218, -0.16668104, -0.10049351, -0.28220615, 0.28244859, -0.18243997, 0.16425659, -0.12067707, 0.35736412, 0.46622199, -0.18704642, -0.12285908, 0.04418563, -0.08740147, -0.21044238, 0.09388688, 0.16765082, -0.07024848, -0.40367115, 0.22353442, 0.27250832, 0.02789634, -0.20377514, 0.34378719, 0.08763233, 0.28532696, -0.32245854, 0.61933362, -0.18112755, 0.11352672, 0.24961667, 0.07537358, 0.32316920, 0.89968598, -0.15225728, -0.00297308, -0.11663583, -0.01339136, -0.25157097, 0.14088684, 0.08936454, -0.33294067, 0.26311907, 0.44024917, 0.01119278, -0.01769969, 0.65877479, 0.62786144, 0.02372495, 0.17167179, -0.43909556, 0.08715288, -0.19956072, -0.07801151, 0.09916060, -0.23566137, -0.14184615, -0.02579725, 0.35697818, 0.25177497, 0.11992235, 0.52245241, -0.15602301, 0.05546796, 0.15733999, 0.41988319, -0.19646195, 0.45025113, 0.16144586, 0.04977398, 0.23659101, -0.08358929, 
bias
1.29895163, -4.32801104, -0.03039855, 0.42614496, 0.70879638, 1.51234818, 2.50041246, 1.28175569, 0.99133354, -0.39130977, -0.20849878, 0.36931133, -0.83719331, 2.80130410, 1.73124421, 0.15818453, 1.76990485, 3.33300114, -0.50147361, -0.28367394, 0.64665675, -0.66430306, -1.10419786, 0.77941716, -1.50260532, 2.51576304, 1.38032711, 0.12928027, 0.91835290, 0.84003454, 0.24880892, 1.86175644, 0.58312523, 0.65106636, 0.32413131, 1.88937068, -0.38062525, 0.72792459, 1.09297454, 1.93276370, -0.72183168, -1.59038997, 1.25359845, 1.65115333, 1.16049242, -0.23724183, -2.67122722, -0.81847560, 
layer16
kernel
0.06026340, -0.05535085, 0.04544106, -0.06746282, -0.08516493, -0.01778681, 0.06746282, 0.02183119, 0.07144368, 0.00265876, 0.20192261, 0.00731588, -0.10011432, -0.04819378, -0.07394230, -0.06293142, 0.07567863, 0.09011982, 0.16863587, -0.05200524, 0.14712231, 0.11332737, -0.01525642, -0.02543090, -0.20312445, -0.00588357, -0.02629448, -0.06501790, -0.08942383, -0.08464594, 0.10517792, 0.10324094, 0.08051372, -0.07980350, 0.11531477, 0.06543758, -0.13365149, 0.00138211, -0.12015721, 0.23140432, -0.06001404, -0.05581725, 0.05610780, 0.11008493, -0.07644607, -0.13842937, -0.01775563, 0.08477508, 0.08626179, -0.10378456, -0.17273991, 0.04780904, -0.04356356, 0.11141021, -0.19610360, -0.02537827, 0.14277813, 0.05565102, -0.08442298, 0.18236661, 0.02831225, 0.15262116, -0.06230319, 0.12644517, -0.01499441, 0.01523778, 0.00972135, -0.13077179, 0.02144376, 0.12936564, 0.02382340, -0.06149194, -0.11349566, 0.20384163, 0.02600457, -0.16764109, -0.15622161, -0.11427249, -0.26894042, -0.02085803, -0.04385236, 0.23444894, 0.35268328, 0.11963266, 0.16422302, -0.00791401, 0.13268350, 0.09547307, -0.04831916, 0.21829076, 0.13928659, -0.01243908, -0.19343202, -0.12996458, 0.15295890, 0.16064957, 0.09995152, -0.08106083, -0.10326444, -0.04786113, -0.02706727, -0.15789239, 0.03968456, -0.27433804, -0.08275253, 0.01385083, -0.01800960, -0.23838931, -0.07267279, -0.10277103, -0.17213090, -0.18383186, -0.08585399, -0.03274152, -0.18890697, -0.10199566, -0.04994052, -0.00797392, -0.04796686, 0.00599145, 0.03093083, -0.05426686, 0.14748365, 0.06220110, 0.01922040, 0.00573854, 0.07590571, 0.24252489, 0.09190149, 0.09580497, -0.04319285, 0.10785484, 0.11498294, 0.01394858, 0.13670665, -0.41342944, 0.20824216, -0.08600384, 0.04696904, -0.13288803, -0.06164952, 0.11464351, 0.06084337, -0.11048545, -0.07715871, 0.04856650, -0.07200406, -0.04496898, -0.00866492, 0.24677902, -0.01676605, -0.03672690, 0.21187772, -0.04888866, 0.01626937, -0.12295996, 0.32087716, -0.13262494, -0.11007332, 0.18331236, -0.10405956, -0.18492319, -0.01112814, 0.01175905, -0.11834224, -0.33677068, -0.14647806, 0.25064501, 0.16756730, -0.13774003, -0.24002503, -0.02411154, -0.04115318, 0.09792346, -0.04664027, 0.03404810, 0.17600897, 0.08948178, -0.13007218, -0.08160288, 0.25099921, 0.04614784, 0.10115944, -0.05409708, 0.02054141, 0.04762513, 0.25718978, -0.04913760, 0.07316121, -0.14231262, -0.01337478, -0.02163180, -0.12932946, 0.00949361, 0.12020858, 0.00388441, 0.01485798, 0.24345744, 0.00218338, -0.01093337, -0.03873452, -0.09956965, 0.21188515, -0.02021504, -0.02645641, 0.14979298, -0.07776138, 0.23316722, 0.03472952, -0.04051777, -0.09582775, 0.09746483, -0.00069110, -0.08284803, -0.11775295, 0.00535340, 0.02438771, -0.05593870, 0.03016718, 0.04779861, 0.03283712, -0.02650413, -0.04740789, 0.09618331, -0.10100224, 0.01810356, 0.00334151, 0.03991900, 0.02472959, 0.05421300, 0.01023209, -0.08517791, -0.00232807, -0.07912168, -0.09592283, -0.03291852, -0.07273985, 0.09930910, 0.07280497, 0.00443228, 0.04634840, 0.08876719, 0.03178778, 0.04908510, 0.07073306, 0.10659080, 0.14595713, 0.12315132, -0.10525754, -0.13774703, 0.19381422, -0.08820581, -0.04519057, 0.15241292, -0.08666204, 0.10595926, -0.10013501, 0.10371376, -0.20419963, 0.16630691, -0.03508585, -0.02340226, 0.20321722, 0.08974960, -0.02583577, -0.16345613, -0.04924715, -0.00176443, -0.10375200, -0.14149062, 0.22339395, -0.14219165, -0.05082446, -0.00252297, -0.06472816, -0.06338453, -0.10410251, -0.01602139, -0.13062470, 0.05958730, -0.06951851, -0.01334142, -0.18308489, 0.13518138, -0.03940356, 0.03107886, -0.14324319, 0.12910581, -0.06204089, 0.03124584, -0.04296656, 0.03764152, 0.02356821, 0.13997236, 0.10948724, 0.05713848, 0.13005483, 0.00634989, 0.08165054, 0.02992163, 0.07922751, 0.12126430, -0.10621896, 0.20376009, -0.08841249, -0.04443165, -0.04775627, 0.16296299, -0.09985146, -0.15045339, -0.02986528, 0.02361047, 0.15163371, 0.20959464, 0.02589819, -0.01532280, 0.19358099, 0.05378037, 0.25111678, 0.00658083, 0.01554423, 0.00127321, -0.15390113, -0.06639289, 0.09466479, 0.07050259, 0.28030980, 0.07277001, -0.10224647, -0.05066267, -0.02136335, -0.17714219, -0.01950336, -0.10111276, -0.09643621, -0.14823258, 0.00727430, 0.00026767, 0.31017604, -0.06270444, -0.03717166, -0.06158905, -0.10950243, 0.08724307, -0.27021590, -0.11958945, 0.25838304, -0.03006710, -0.09417790, 0.18680395, 0.04267588, 0.06566266, -0.04776789, 0.03671096, -0.12948249, -0.02188351, 0.19204146, 0.21745300, -0.08258753, -0.06706902, -0.07428213, 0.02413161, -0.26370445, -0.19213082, -0.01835443, -0.13438784, 0.13323529, -0.36259362, -0.05359378, 0.00133894, -0.02890030, -0.09894679, 0.14372353, -0.07105498, -0.05157681, 0.34668836, -0.25586706, -0.09312639, 0.01362175, -0.10349938, -0.04105975, -0.24480255, -0.08776702, -0.01398193, -0.07483738, -0.17722477, 0.01494435, 0.06990305, -0.18061712, -0.06589390, -0.02115081, -0.16941208, -0.00675258, 0.02089381, 0.15121673, 0.05219598, -0.11030289, 0.08126229, -0.01634498, 0.22718489, -0.05489445, 0.04638787, 0.04600237, -0.00801829, 0.05096240, 0.13261019, -0.11842398, -0.07380939, 0.00880981, 0.04511447, 0.00070348, -0.00415860, 0.00036105, -0.08399677, -0.00529562, 0.01960154, -0.06012207, 0.20291199, 0.00268648, -0.05338583, -0.11547837, -0.02090754, 0.00598013, 0.02607428, -0.19594662, -0.01134162, -0.03246684, -0.04674124, -0.17147622, -0.01523673, 0.09238269, 0.17193446, -0.10625205, -0.03387173, -0.02816047, -0.07605588, -0.17880201, -0.06706490, 0.08453795, 0.00944337, 0.09211527, -0.03859342, 0.13322504, -0.10738300, 0.18151627, -0.03440893, -0.14996298, 0.19949827, 0.05018558, 0.09946640, 0.17337349, -0.09109742, -0.12904054, -0.00879308, -0.15607007, -0.05253228, -0.10705160, -0.03694337, -0.00568247, 0.15168905, -0.03874453, 0.20188662, 0.08637740, 0.01177607, -0.30478773, 0.02153562, 0.05383904, -0.15035777, -0.01631812, -0.13900262, -0.12106933, 0.09115440, -0.10031682, -0.12686436, -0.17385116, 0.18544124, 0.13704483, 0.15912864, -0.08653402, 0.02141815, -0.09495617, 0.00243548, 0.25521082, -0.03141135, -0.14297582, -0.05518908, -0.02634376, 0.00795600, 0.05802590, 0.06792899, -0.12574857, 0.00090504, -0.04036024, -0.12409806, 0.03141135, 0.03117925, -0.06251324, -0.03992182, 0.16866195, -0.05291962, 0.13833375, 0.11687706, 0.02487377, -0.12585174, -0.12997802, 0.11020345, -0.06628806, 0.01723057, -0.10385250, 0.04207506, -0.05849371, 0.16815589, -0.02446560, 0.03581432, 0.02572857, -0.04976115, -0.06791189, -0.15198983, 0.13827755, 0.08934635, 0.15891814, -0.08552135, 0.38509864, 0.01912503, -0.03274710, -0.07981992, -0.11496667, -0.13539076, 0.16831173, 0.18156813, -0.18588763, -0.09808254, -0.03247076, -0.02762993, 0.12638274, 0.14961870, 0.10076361, -0.06471809, -0.11022183, 0.04796140, 0.15863007, -0.03751639, 0.10158283, 0.03483531, -0.01515550, -0.05242985, 0.05645145, 0.09882728, -0.03228457, -0.13919231, -0.11051973, -0.02243536, -0.16196972, -0.16357525, -0.25254053, -0.26632923, -0.22628540, -0.11777040, -0.06077406, 0.02538155, -0.15195876, -0.07909600, -0.11890372, 0.05312418, 0.13543124, -0.16508634, -0.09274301, 0.18076387, 0.01707057, -0.11569265, -0.10143176, 0.20853011, 0.46654835, -0.04181463, -0.30221754, -0.08646255, 
bias
0.51020032, 0.69774634, 0.98779666, 0.06305277, 2.73270202, 0.41749063, 0.76262194, 0.58099198, 0.41016969, 1.49691737, 0.55500305, 1.72439408, 0.60615611, 0.43845147, 0.42076531, 1.35789406, 0.80211627, 1.41975844, 0.81893378, 1.15481305, 0.61566329, 0.24320060, 0.72563034, 1.06985116, 
layer17
kernel
0.51003361, -1.69225013, -0.83728057, 0.23253699, 1.06281567, 0.02142031, 0.04565059, 0.43153852, 0.66997188, -0.48694623, 0.46384293, 0.99674189, -0.82003981, -0.31354463, 0.69309866, -0.47704482, 0.07038886, 0.60931748, -0.54691249, 1.40310359, -0.52314907, -0.63487244, 1.89113963, -0.44653878, -0.07439358, 0.17352590, 0.22362407, -0.09994198, -0.27989727, -0.03341973, -0.19525632, -0.13046944, -0.07672917, -0.29557151, -0.48903650, -0.12233377, -0.27626890, -0.95457900, -0.40784600, -0.14942171, 0.57145739, -0.59166694, 0.19994560, 1.35877001, 0.25240445, -0.29749709, -1.63809335, -0.13701135, -0.19058406, 0.66983330, -0.07024882, 0.28936240, 0.90969032, 0.23323306, 0.75428110, 0.12705089, 0.03888683, 0.68432593, -0.51314157, -0.29216561, 0.08970719, -0.78390914, -0.12581639, 0.25971514, -0.62308168, 0.02009468, -0.53820485, 1.53560483, 0.49400637, -0.17004693, 0.30606490, -0.14745875, -0.26040101, -0.53386873, -0.37800145, -0.52920204, 2.02534103, 0.54786879, 0.22878420, 0.12028380, -0.12250047, -0.47440290, -2.66410828, 0.11735317, 1.32806194, -0.34465736, 0.04724068, 0.38291565, 0.30423665, -0.02933829, 0.19519569, -0.58996570, -0.29014331, 1.52561450, -0.91122049, 0.41021055, 0.47796443, -0.50008816, -0.39730504, -0.13805567, -0.01814797, -0.13289393, -0.16845249, 2.16169763, 1.39088011, 0.09069888, -1.04545414, -0.50994563, -0.06377495, 0.34371340, -0.10226369, 0.54510802, 0.28307128, -1.62816334, 0.55047852, 0.87405246, -0.11949412, 0.02062945, 0.03565090, -0.00680587, -0.50632292, 1.51650369, -0.58619082, -0.20336729, 0.61872959, 0.62316668, 0.81078273, 0.80320925, -0.62102509, 0.22489017, -0.27327627, -0.44388986, -0.55076003, -0.38098794, 0.02703310, 0.95552886, 0.08161616, -0.10102099, -0.11249012, 0.60751617, 0.11341692, 0.04405187, -0.14446466, 0.52225071, -0.95743436, 1.31034815, -0.17531511, 0.63939673, 1.16253948, -0.45463598, -0.05008262, -0.44425619, 0.00901747, -0.49423623, -1.13832831, -0.45437074, -0.16954848, 0.34846297, -0.29298747, 0.37944278, -0.30979821, -0.14012966, -0.90790892, -0.95330435, 0.25431767, -0.12397771, 1.40450752, 0.03632496, 0.15613282, 0.33788654, 0.29799360, -0.24195154, 1.25307965, 0.22071290, -1.19515610, 0.74480045, -0.08471321, -0.49428105, -0.07928287, 0.27320611, 0.32871830, -0.35630146, 0.12298441, -0.15421493, 1.76167476, -0.85712957, 0.65515703, 0.37157479, -0.55850196, -0.12765858, -0.56173199, 0.06027131, 0.08796353, -0.52160829, 1.15021312, 0.18484344, -0.42867216, 0.45919365, 0.38008603, 0.49128139, 0.07509299, 0.23524322, 1.46720135, -0.42456418, -0.56984019, -1.58272898, -0.37604254, -0.15804631, -0.86717361, -0.41741350, 0.23379913, 1.24724579, 0.46070084, 0.26971334, 0.20692293, 0.44976008, 
bias
1.21763527, -0.77816540, -1.51719022, 2.53842497, 0.14212918, 0.21757175, 0.05671256, -0.22533005, -0.42939866, 2.84001327, 0.18086167, -1.70828700, -0.19553506, -0.89014709, 0.36981204, -1.91050935, -0.13105732, 3.68814588, 0.49772191, -0.26835483, -0.55768502, 1.30889940, 0.36375934, -1.11596775, 
layer18
kernel
-0.17546706, 0.37963417, -0.04605427, -0.16590036, 0.02452922, -0.04214593, -0.17126705, 0.60573465, -0.18118374, 0.22866717, 0.08312518, -0.09391687, 0.20463379, 0.35116744, 0.07530850, 0.18328373, 0.20521712, -0.06988349, 0.06860015, 0.18608375, -0.24266720, -0.30216733, -0.04748344, -0.06212514, 0.22538209, 0.09132227, -0.04103655, 0.14405318, -0.17190699, 0.15553491, 0.25642529, 0.04728240, -0.02485050, 0.21677080, 0.31766117, 0.45629242, -0.10928905, 0.15149504, -0.04930233, 0.00121262, -0.10094354, -0.26854488, -0.18094355, 0.10078406, 0.18732229, 0.30596682, 0.06325582, -0.18136880, -0.39342302, -0.16898826, 0.00585477, 0.01237172, 0.24279922, -0.10153422, -0.09261686, 0.03494101, -0.19423938, -0.18399766, -0.04229121, 0.51420462, -0.02798813, 0.26734400, -0.00084842, 0.12025183, 0.03496309, 0.19476911, -0.18276159, 0.10656679, -0.25392383, -0.28323632, 0.16210158, -0.15097697, 0.50287956, -0.04766399, 0.04881738, -0.39976621, 0.14924912, 0.38454139, -0.11741546, 0.24290468, -0.08027619, 0.33125463, -0.21084034, -0.10132562, 0.00809538, -0.00657795, -0.30841744, 0.28488821, -0.21337780, -0.17058690, -0.29988232, 0.23990585, 0.17485446, -0.11585838, -0.24636486, -0.01856964, -0.28174946, -0.38026151, -0.05379936, -0.00570659, 0.60510963, -0.32661882, -0.03443535, -0.05439469, -0.00318425, -0.08071470, -0.33363748, -0.00143840, -0.40006417, -0.19376542, -0.16431208, -0.26846412, -0.07501204, 0.26696011, -0.18060541, -0.30029881, -0.09531604, 0.05900069, 0.56951493, 0.48478955, -0.12811080, 0.17458792, 0.10962059, -0.32049713, -0.21169414, 0.08433804, 0.33357865, 0.21672548, -0.30967972, 0.00580964, 0.01666635, -0.31445950, 0.38842037, -0.24791987, 0.10163331, -0.07157099, 0.10352007, -0.05128834, 0.54741108, -0.10609864, -0.04021937, 0.03308114, -0.03559681, -0.06226298, 0.01241698, 0.08494647, -0.30535904, -0.00962652, -0.04581282, -0.14201078, 0.24134660, 0.30177289, 0.06280211, 0.20512667, 0.35968891, 0.02792699, -0.09010153, 0.15214159, -0.19634065, 0.05778153, -0.26071170, 0.04939895, -0.08378097, 0.07844660, 0.17823069, -0.14344522, 0.15133472, -0.00982824, -0.22262976, -0.21711327, -0.00462170, -0.07920103, -0.08622798, 0.11335073, 0.10691483, -0.13948838, 0.27950215, 0.01673007, -0.02144207, 0.09634155, -0.02791081, -0.10671780, -0.15196615, -0.01799426, -0.13141066, 0.07821594, 0.05608431, -0.08340407, 0.12720762, -0.12990020, 0.04803943, 0.03437955, -0.26069018, -0.01964052, 0.12223022, -0.14251739, 0.03598437, -0.15428396, -0.25947294, 0.24101162, -0.36374900, -0.09078510, -0.05609403, 0.02026181, -0.07379459, 0.29132381, -0.06273808, 0.29294679, -0.15184949, -0.10772489, 0.19648127, -0.06314383, -0.03190158, -0.11867996, 0.17233953, 0.09976217, -0.51532239, 0.01896446, 0.02722708, 0.06160575, 0.05430092, -0.00602776, 0.15447411, -0.37065613, 0.52063495, -0.17235306, -0.27196434, 0.02541365, 0.00007353, 0.24826196, -0.02819766, 0.07866737, -0.01078484, -0.21556903, -0.05700830, -0.14670953, -0.14323592, -0.00689617, 0.16080837, 0.36656952, -0.16899966, 0.15429099, -0.25034764, -0.07219257, -0.14808732, 0.10816378, 0.15749288, 0.12367293, -0.14958821, 0.19681606, 0.02307611, -0.01874856, -0.06598891, 0.08389948, 0.03507068, -0.13648048, 0.68360311, -0.32619235, 0.40063626, -0.02971753, 0.23854066, 0.04400095, -0.09865818, -0.00133673, 0.08271734, -0.17037673, 0.10267082, 0.32345632, 0.09544309, -0.00026255, 0.00013984, -0.18347313, -0.17692493, -0.14801401, 0.15975134, 0.10884836, 0.10761286, -0.00067663, -0.20484744, 0.17593652, -0.20262352, -0.15814519, -0.01230876, 0.06152836, -0.09556664, 0.79665637, 0.23326415, 0.08537369, -0.13560444, 0.00584711, 0.21594918, 0.34149539, -0.10912583, 0.23146068, -0.37809283, -0.26078710, -0.30102006, 0.51187950, -0.01708689, 0.01235315, -0.08028413, -0.23146068, -0.21401024, 0.02128287, 0.00497610, 0.51915056, -0.31943998, -0.31459263, -0.11167069, 0.12336490, -0.22661333, 0.03799106, 0.05291680, -0.01136791, 0.02681865, -0.19837795, -0.08317784, 0.01997389, -0.06856769, -0.03196223, 0.21935254, -0.48769915, -0.12200484, 0.17356069, -0.04335015, -0.09158369, 0.03822659, -0.22655755, 0.04487120, -0.06496518, -0.10111032, 0.17436126, 0.02535763, 0.11455967, -0.08854157, -0.12888964, -0.03439850, -0.07467874, 0.02385236, 0.22697708, 0.06387949, 0.14559703, -0.07038797, 0.47208148, 0.00504106, 0.05597290, -0.09584334, -0.17519854, -0.27133113, 0.37855226, 0.13209796, 0.16006030, 0.02095970, 0.31761363, -0.19361512, 0.46822461, 0.25204676, -0.08808138, -0.23526937, 0.09786820, -0.02237025, 0.03530385, 0.05939687, 0.04188636, -0.12187928, -0.00402407, 0.18924716, 0.04188636, -0.21475437, -0.27255705, 0.24828404, -0.00424263, -0.20302929, 0.45830724, -0.07281902, -0.00377659, -0.06315095, 0.04936882, -0.00388908, -0.12280495, 0.46776959, -0.06659649, 0.09246369, -0.19305266, -0.05676484, -0.06584899, 0.03507367, -0.04429076, -0.02481523, 0.05906912, -0.01264026, -0.19249530, 0.02258851, 0.16688244, 0.05189042, -0.11512495, -0.04008103, 0.03252568, 0.14357384, -0.15624733, 0.28023487, -0.12381028, -0.21855129, -0.21713328, 0.58138543, -0.18575974, 0.03507367, -0.25134283, 0.04399084, -0.14167725, -0.14818579, -0.34844002, -0.03236843, 0.54299927, 0.17305776, -0.05613627, -0.04771002, -0.34844002, -0.24895214, 0.16910614, -0.21176040, -0.14214215, 0.28707367, 0.09106162, 0.32310316, 0.15097517, 0.47605413, -0.09908109, -0.13574982, 0.14690733, -0.01297352, 0.01473141, 0.72543156, -0.21869628, -0.25240299, -0.00142838, -0.21619949, 0.12994668, 0.01620078, 0.05518478, 0.25126806, -0.13959338, -0.11791668, 0.14356554, -0.08273461, 0.07774103, 0.39562804, -0.13403234, 0.27873278, -0.24831732, 0.44828767, 0.02143553, -0.01171081, 0.07206650, -0.00696194, 0.26556787, 0.13919492, 0.26990235, -0.26841703, -0.08933089, 0.17187178, 0.13940711, -0.02213380, -0.26438549, 0.31679577, 0.03341951, -0.06885481, -0.02422915, 0.01977321, -0.04694646, 0.40039760, -0.24210581, 0.00062786, -0.18428475, 0.07293941, 0.18810412, -0.21812864, -0.13993758, 0.20645833, -0.46426600, 0.17916377, -0.15283708, 0.11042977, 0.36857361, -0.20847888, -0.44200370, -0.27109370, -0.27621675, -0.28603590, -0.12466042, 0.10786826, 0.22626719, 0.00282167, -0.19069059, 0.28062823, -0.32986626, -0.17887916, 0.26796296, -0.00910761, 0.27095139, 0.29827425, 0.49778783, -0.24619009, 0.19538669, 0.27267402, -0.19582281, -0.32045972, 0.33302194, -0.02897315, -0.22377990, 0.24447061, -0.05135730, -0.46430942, 0.17229944, -0.00119503, -0.23178524, 0.62515509, -0.29607424, 0.10197565, 0.05948580, -0.06570533, 0.06995431, -0.06256478, -0.09347768, -0.25444651, -0.21097137, 0.19422174, -0.06019396, -0.06016801, 0.25442475, 0.41404372, 0.09795133, -0.19736572, -0.09173336, 0.01809612, 0.01536205, 0.12406681, 0.03072409, 0.23101592, -0.14908500, 0.03308326, -0.10424246, -0.06082639, -0.05991198, 0.01179586, -0.09802449, -0.02949879, -0.08156515, 0.12392051, -0.34118372, 0.05749794, -0.13028479, 0.01566091, -0.09305008, 0.09591561, -0.09225410, -0.05758917, 0.05352966, -0.04604745, 0.04226655, -0.00817372, -0.00228969, 0.12162577, -0.06101188, 0.23274460, 0.05516142, -0.03649569, -0.00129471, -0.11653150, -0.09575641, 0.00145639, -0.06081288, 0.00053915, -0.03534152, 0.06749912, -0.06435499, 
bias
0.30414331, -0.58274531, 1.77386248, -0.23272851, 0.54912686, -0.05091921, 0.40301958, 1.53692746, 1.42222786, 1.48195386, -0.21033931, -1.03563082, -0.11802987, 1.44558024, -0.60473406, 0.24614131, 0.77402866, 0.40076345, -1.93194628, 0.66297740, -0.77888066, 0.05506797, 1.09990275, 1.43827081, 
layer19
kernel
0.25786525, 0.64853311, -0.01046432, -0.10686675, -0.06959239, 0.31611916, -0.23423778, -0.03213131, 0.49726304, -0.22678734, -0.04850256, -0.21769312, -0.28533146, -0.09425790, -0.81317568, 0.01478996, 0.32151890, -0.58581996, -0.28741071, -0.06274660, 0.10140002, 0.12388066, -0.17993997, 0.09158252, 0.31548780, 1.49415636, -0.31795403, 0.28453413, -0.16991578, -0.18085146, 0.22284037, 1.28669679, -0.50716817, 0.06004310, -0.08047013, 0.39162132, 0.46204153, 0.29005560, -0.10612623, 0.02988710, 0.90406352, 0.68248379, -0.27231103, -0.27959087, 0.79122621, 0.55742127, 0.21009240, -0.37357002, 0.42279261, -0.54503411, 0.25377336, -0.00952465, -0.68846416, -0.11767782, 0.23710649, 0.42932388, 0.02204170, -0.62614530, 1.47236228, -0.15043601, -0.16493864, -0.12407806, 0.07907386, -0.16179416, -0.13103564, -0.05006516, -0.72704595, -0.96665400, 0.65246207, 0.13756908, 1.70074725, 0.05325847, 0.18206993, -0.64507711, -0.20916213, 0.73341566, -0.47918543, -0.70414066, -1.10525942, 0.07858025, 0.04635207, -0.03757524, 0.25327009, -0.47188967, -0.24648286, -0.86519057, -0.18789853, -0.19915101, -0.62406605, 0.05782524, -0.14480720, -0.40092820, 0.53424013, -0.02724956, 1.28879237, -0.18491656, -0.07430569, 0.05871680, 0.06227288, 0.36208594, 0.22781526, -0.09622542, -0.27835214, 1.03948545, -0.09223267, -0.27858028, 0.41752821, -0.01395326, -0.37938806, 0.52861404, 0.27927178, -0.12635730, 0.22910824, 1.03868020, -0.10232940, -0.03751726, 0.17578314, 0.06223793, 0.14841352, 1.07520986, -0.31761196, -0.60719931, 1.06773663, -0.18939948, 0.05931870, -0.07998683, 0.61571771, 0.51083696, 0.24941784, 0.47457224, -0.14636341, -0.08590045, 0.01619194, -0.22972010, -0.18523711, 0.09674883, -0.07233725, 0.20953271, -0.30466607, 0.77542657, -0.57821935, -0.13534066, 1.06932282, 0.06767033, -0.03634691, 0.60324258, 0.10622165, 0.26133624, 0.83668917, 0.07265079, 0.44382402, -0.69069898, 0.26357430, -0.33220536, -0.36456093, 0.44625080, 0.30513558, 0.20502549, 0.47988778, 0.00002026, 0.11348481, 0.56253868, 0.20852798, -0.40453264, 0.09894886, 0.26473734, 1.06652164, -0.03778842, 0.01621844, 0.39550418, -0.11496707, -0.27621606, -0.22877109, 0.06676804, 0.03728744, -0.36230716, 0.34954014, -0.62696391, -0.50515968, -0.25568533, -0.23487028, -0.37679517, -0.36194706, 0.28558528, 0.45739925, 0.15388052, 0.38875079, 0.62670642, 0.09053497, 0.17447490, 0.03722742, -0.08530223, -0.11173319, 0.12568711, 0.56549013, 0.05105402, 0.45100689, 1.00468206, 0.42187509, 0.00404449, 0.16036576, -0.39348391, 1.18444431, -0.47865742, 0.04108957, 0.85306603, 0.14683560, -0.97959614, -0.59292907, 0.00588842, -1.09075177, -1.02298844, 0.82088727, -0.17683850, -0.18575473, -0.39053074, 
bias
0.67326534, 2.66332340, -0.13155633, 0.02882683, -0.22496995, 1.12402475, -0.44029844, 0.75822693, 2.23966217, 3.02142763, -0.07232398, -0.20224124, -0.33793622, -0.03707582, 0.63711530, -0.17369258, -0.12776268, -0.22480404, 0.29794598, 2.52762508, -0.16222173, -1.12551594, -0.73753452, 5.30929041, 
layer20
kernel
-0.05854350, -0.04661984, 0.20609462, -0.19440608, -0.18715112, -0.15127936, -0.21254347, 0.23672669, 0.24089156, -0.09901678, 0.38746864, 0.26010379, 0.09122442, -0.29449767, 0.03714808, 0.07060152, 0.10311449, 0.18177707, 0.20582592, 0.11010075, 0.06992976, -0.00980763, 0.25405797, 0.15302593, -0.14069408, 0.17607093, 0.20026542, -0.01306300, 0.05799565, 0.07598904, -0.25068760, -0.05138791, -0.05906305, 0.01834919, -0.26125997, 0.01162073, 0.09728630, -0.03913817, 0.13398468, 0.10262332, -0.23442237, 0.03301330, -0.32672745, 0.19975714, 0.13693276, -0.17037810, -0.34156945, -0.05337023, 0.14196044, 0.03295966, -0.14196044, 0.39262399, -0.05856187, -0.10385483, 0.21740617, 0.08463190, -0.22114868, 0.04844007, 0.03089702, -0.12112144, -0.00687368, 0.34278047, -0.16101326, 0.04563318, -0.31573227, -0.19052811, 0.18916719, 0.12818119, -0.09364796, -0.03712746, -0.05299063, 0.01625656, -0.26451495, -0.14073163, -0.22214413, -0.06209342, 0.01490545, -0.02139978, -0.10522085, 0.16302675, 0.11157648, 0.15636848, 0.49109793, -0.07152597, 0.09291314, -0.07117288, -0.32020229, 0.01433798, 0.23788185, 0.03921822, -0.03755366, -0.07793203, 0.13931927, -0.25341782, 0.16242145, 0.01107190, -0.05354189, -0.07939653, -0.13581115, -0.04683058, 0.11352267, -0.11887190, 0.02404680, -0.22209235, -0.24210244, 0.06929242, -0.05869300, 0.08543918, 0.07781157, -0.21595062, -0.16978870, -0.05502779, -0.40139079, 0.23893254, 0.10322044, -0.20802584, 0.00565261, 0.13908014, 0.07464165, -0.06637014, -0.00710680, 0.14728202, -0.04111348, 0.22807798, -0.05729469, 0.04221424, -0.16753605, -0.06010163, 0.10138022, -0.01563083, -0.12691791, 0.24987307, -0.11558006, 0.11756143, 0.05569858, 0.06109232, -0.07743864, -0.06978834, -0.08019055, 0.30689257, 0.09009741, -0.18404748, 0.66750234, 0.11756143, -0.06391822, 0.00813283, -0.01123231, -0.37062395, 0.50320762, 0.29907623, -0.18700741, 0.01085084, -0.13207504, 0.19972324, 0.25007790, 0.32179517, -0.03267967, 0.33993644, -0.36214674, 0.06552889, 0.08146606, 0.08892601, -0.25991148, 0.14979243, 0.33298510, -0.14902948, -0.07561678, -0.22566353, 0.09527623, 0.08522265, -0.19716175, 0.01632542, -0.21391770, 0.07889263, 0.00585295, 0.06306756, -0.03844561, 0.18189521, 0.04700977, 0.24780197, 0.02550629, 0.07242297, 0.04014448, 0.22173715, -0.05422414, -0.27759033, -0.10677268, 0.20237471, -0.00063671, -0.23551427, 0.32394847, -0.11915347, 0.10972220, -0.01773272, -0.08678310, 0.08541547, -0.15603553, -0.16001412, -0.17219856, 0.07124172, -0.15342458, -0.06166822, -0.13477491, 0.03664659, -0.07416350, -0.09386998, -0.15703018, -0.11133850, -0.06403051, 0.00590573, 0.25351110, -0.07279586, 0.03773449, -0.15690584, -0.10947353, -0.06514949, -0.13669397, -0.25134054, -0.03754185, -0.25991452, -0.17772666, 0.08378018, -0.01814318, -0.09070062, -0.26897848, -0.19977407, 0.26456898, -0.21385993, 0.06442744, -0.06301886, -0.04697324, -0.15249462, -0.06357004, -0.29715016, 0.04914736, -0.48087862, -0.02096036, 0.28171697, 0.25550506, 0.53158766, 0.23699158, -0.10891940, -0.08009348, -0.15931639, 0.05305710, -0.14770864, 0.47707856, 0.21919303, 0.06340734, -0.00519628, -0.19907293, 0.23970006, -0.02604489, 0.03958727, 0.05784529, 0.22248189, -0.15099749, -0.11530366, -0.00870581, 0.21706495, 0.12439640, 0.06234330, 0.12942642, -0.28729182, 0.02950069, -0.21202770, -0.18963212, -0.19803046, 0.07929739, -0.16224621, -0.06688245, -0.14922270, 0.06803874, 0.03687967, 0.14727527, 0.07169019, 0.21190597, -0.23673585, -0.22030433, 0.11879393, 0.26412174, 0.03462794, -0.14374553, 0.15384787, 0.34128913, 0.12621856, 0.12317567, 0.02945505, 0.12042914, -0.26141292, -0.10560608, -0.09163946, 0.39159235, 0.00716860, -0.03124372, -0.21556026, -0.32044166, 0.13624041, -0.05856756, 0.01996172, 0.15284224, -0.30831969, -0.18406948, -0.03228134, -0.20607349, -0.28987321, 0.48145306, 0.02552861, 0.18525533, -0.10488140, -0.18565062, 0.21318857, -0.05055475, -0.31284773, 0.21148095, -0.27091172, 0.39697701, 0.20890819, -0.12432867, -0.17996462, -0.11982634, -0.01960122, 0.20865090, -0.24428365, 0.13905773, -0.12992442, -0.08663772, 0.13892908, 0.27811545, -0.07319505, -0.02505226, -0.15320791, 0.09609262, -0.06927159, -0.17726323, 0.38179770, -0.10211578, 0.06384825, 0.55635494, 0.03246785, 0.15690203, 0.24255086, -0.11444010, 0.00101786, -0.08621844, 0.27175638, -0.26927081, -0.06591956, -0.04965975, -0.20837419, 0.20236737, -0.18952523, -0.00211501, -0.22743027, -0.05727183, 0.26036417, 0.08590774, 0.10801902, -0.05540765, 0.24959333, 0.10108143, 0.15733545, 0.24904121, -0.05967223, 0.21915627, -0.01698119, 0.21700768, -0.32424191, -0.00523109, -0.48323762, -0.09414735, -0.08711559, 0.00618635, -0.10225339, -0.05962340, 0.33850074, 0.09102213, -0.18624376, 0.02348801, 0.11455896, -0.16192563, -0.09473333, -0.15762845, -0.15235463, 0.07058675, -0.14195716, -0.12852274, -0.23980461, -0.17475957, -0.00193295, -0.03042339, -0.05871966, -0.05706835, -0.20207626, -0.24607402, -0.18964940, -0.14251694, -0.08122234, 0.50871718, -0.25838891, -0.24428277, 0.00610497, 0.29018375, -0.19905351, -0.02607119, 0.08066257, 0.04164674, 0.24002853, -0.13401631, 0.24727884, -0.06562825, 0.01626907, 0.07749543, 0.01803535, -0.21890801, -0.09824918, -0.07953768, -0.03480119, 0.38769791, -0.06457952, -0.16271831, 0.00669944, -0.25301924, 0.16779636, 0.19936857, 0.19285542, 0.34067076, 0.19804387, -0.17949794, -0.08577485, 0.11513922, -0.28194204, 0.70517570, -0.12201826, -0.13213883, 0.03882955, -0.31194231, -0.05447972, -0.10422562, -0.06268229, -0.02124097, 0.25334090, 0.18494539, 0.09622710, -0.27554089, 0.26950118, 0.05896869, -0.21922477, 0.17498805, -0.41788191, -0.18723068, -0.03074942, 0.18918951, 0.04040069, -0.18510863, 0.21579683, 0.15007842, -0.10680557, -0.28236768, 0.27700266, 0.10016993, -0.08739279, 0.25737813, 0.20866971, 0.04334344, 0.41169205, -0.21657600, 0.10419367, -0.03921381, -0.21954086, -0.10962924, 0.05721475, -0.09099298, 0.04743777, -0.32500517, 0.13694832, -0.06942715, -0.04461409, 0.10292301, -0.12890084, 0.05576909, -0.02020301, -0.29391524, 0.21148990, 0.43060634, 0.24478269, 0.12943123, 0.13500448, -0.18406367, -0.18347703, -0.36490074, -0.17482384, 0.16191737, -0.17629047, 0.25240925, -0.01789304, 0.35228762, 0.11293150, -0.23568951, -0.25152925, -0.01802137, -0.29450190, -0.02161465, -0.02322796, -0.19923805, 0.04935114, -0.07146748, 0.12681563, -0.14163625, -0.03976357, 0.09847310, 0.08838896, 0.03286893, -0.05202496, 0.00677528, 0.00565800, -0.40489328, 0.18182001, 0.02448458, 0.19587667, 0.35813957, -0.06463014, -0.01578511, 0.00857056, 0.13071178, 0.00984540, -0.01914649, 0.03626851, 0.26136923, -0.06954718, -0.15124175, -0.19769552, -0.16165380, 0.03804404, 0.03784381, -0.11880419, 0.19969784, 0.10652331, 0.09237360, 0.39779383, 0.34546658, -0.26096877, -0.10058311, 0.26924503, 0.11733583, -0.07288437, -0.39218733, 0.17126493, 0.03884497, -0.29340631, -0.05102573, -0.15751567, -0.16052581, 0.28884119, 0.23473611, -0.00299999, -0.11347333, 0.01052628, 0.08989446, 0.28463069, 0.05239457, -0.22526245, 0.16326265, -0.05794719, 0.14378902, 0.02699992, 0.08647341, -0.01622363, -0.02999991, 0.11842068, 0.41768292, 0.01682889, -0.02243414, 0.02434203, -0.02805254, 0.05815771, 
bias
-0.90845060, 0.99520546, 0.32783520, 0.29930770, 2.34324646, -0.94005442, -0.35635695, -0.54214084, 1.98173654, 1.38768864, -0.57648909, 0.77504301, 0.87642980, 0.38288960, -1.18011892, 0.46539253, 1.11194849, -0.17646232, -0.88930613, -0.48753595, 0.47382289, 0.25060496, -0.03449820, -0.44788098, 
layer21
kernel
-0.18119858, -0.31715438, 0.06922832, 0.38285875, 0.55337185, -0.07502577, -0.25417820, -0.31283471, 1.01307511, -0.10440758, -0.60635978, -0.49317265, 0.02872314, -0.39893422, 0.63718307, -0.49923623, -0.51490051, 0.82818645, 0.17607945, -0.39795709, 0.17871042, 0.22548303, 0.62909180, -0.67235649, -0.23327847, 0.92453891, 0.57491350, -0.02815355, -0.21956499, -0.16739652, -0.29362461, 0.75889325, 0.04849271, 1.26424122, 0.06251503, 0.00313630, 0.33563629, 0.56250155, 1.02046990, -0.51164758, -0.47068185, 0.19056116, -0.69274426, 0.10813534, 0.22587644, -0.14451149, 0.11130277, 0.22324829, -0.04432293, 0.66246039, -0.36872390, -0.12222951, 0.71816534, 0.04092171, -0.17563249, -0.45082268, -0.41731063, -0.40899378, -0.26247028, -0.10683495, -0.08940624, -0.23274975, -0.15263882, 0.55386323, 0.88512951, 0.37946641, -0.02117884, 0.11750606, -0.33769298, -0.48872003, -1.54474092, -0.50829220, -0.45527795, -0.35089102, 0.00907228, -0.71058577, -0.18362039, -0.32427025, -0.57308006, 0.30268019, -0.20531526, 0.44557109, 0.36018291, 0.21851614, 0.10130144, 0.93461251, 0.12565649, -0.14050238, 0.11352748, -0.05880141, 0.10196996, 0.66533363, 0.42354244, 0.15083396, 0.48782429, 0.12758482, 0.30688879, -0.33282995, -0.47444585, -0.35564482, -0.43083236, 0.19083063, 0.13209851, -0.63063866, -0.46959686, 0.81743675, 0.57652444, 0.15089539, 1.09050167, -0.30062628, -0.53717101, 0.57729161, 0.08198266, -0.15908954, -0.79962695, -0.27750120, -0.35829973, -0.34852803, -0.73207009, 0.20110044, -0.43721491, -0.49065742, -0.31973356, 0.57220328, 0.27158925, -0.26007146, 0.22321030, 0.25325784, -0.09914038, -0.02563121, -0.02150380, -0.18507305, 0.08300221, 0.98727638, 0.27653643, -0.18861057, -0.78297639, 0.97187233, -0.25552309, 0.10971371, 0.85602379, 0.04162415, 0.31787017, 0.60092866, 0.17561494, -0.35490060, 0.59349734, -0.21695884, -0.14190228, 0.43082651, 0.26564416, 0.32283011, 0.61822641, -0.06596279, -0.05757139, 0.08248004, -0.54469758, -0.47671661, -0.48096544, -0.06458193, -0.31823596, 1.12168610, -0.26508981, -0.33700249, -0.82290649, -0.54822832, 0.00541108, 0.26043665, -0.14833750, -0.31077552, -0.24365702, 0.45712927, -0.58042622, -0.35942227, -0.13412906, -0.61415839, 0.10105116, -0.17782097, -0.42107072, -0.36611053, -0.45306611, -0.13453032, -0.62065005, -0.31537780, 0.11916144, -0.42927593, 0.00100003, -0.01598732, -0.00487186, 0.09736779, 0.78420544, 0.46552330, 0.19118297, 1.17683446, -0.15578847, 0.05647990, -0.38710275, -0.33578730, 0.45567062, 0.35682255, -0.02683282, 0.16608161, 0.25734219, -0.19948763, 0.32288963, 0.54714197, 0.12034594, -0.40471566, -0.74635875, 0.33930707, -0.21447593, -0.64123780, 0.32529092, -0.55159295, -0.28514057, 0.28222054, 
bias
-0.17775255, 1.30872571, -0.26212895, -0.39163315, -0.60567117, -0.11690944, 1.46235871, 0.98905307, 3.18088889, -0.81430554, 0.12103868, 0.32734483, 0.47032875, 1.45172405, -0.18301535, 0.14099163, -0.34363687, 1.02025199, 1.53577614, 1.30196738, 1.65609908, -1.09945011, -0.99865937, 1.59996724, 
layer22
kernel
0.28967720, 0.24780336, -0.10117017, 0.71065879, 0.36549875, 0.00679515, -0.08247650, -0.09488910, -0.06198823, 0.10348819, 0.04501437, 0.17901064, -0.03906978, 0.01949750, 0.10603053, -0.12158367, -0.13863230, -0.17736560, 0.06942831, 0.12973411, -0.21714574, -0.00711762, -0.04493960, 0.19052595, 0.11920389, 0.11519065, -0.07218397, 0.13840233, -0.23992629, 0.04064755, -0.00419966, 0.10586260, -0.29394227, 0.06800804, 0.16833888, 0.18189710, 0.07066546, -0.04769783, -0.00174393, 0.36834979, 0.29632851, -0.06285592, 0.11068933, 0.11931235, -0.05710723, -0.05195511, 0.12495258, -0.17452143, -0.03416236, 0.22067432, -0.19625187, 0.16906735, 0.18491288, -0.21485946, -0.18971014, 0.01384666, 0.16615991, 0.13992031, 0.14544444, -0.13970226, 0.10176023, 0.01796250, -0.11709695, -0.11782381, 0.38843334, -0.23666522, -0.20381120, 0.07006919, 0.13127069, 0.62451708, -0.06727078, 0.05880288, -0.05793446, -0.00510899, 0.07793040, -0.16906105, -0.17219001, 0.19604824, 0.00408230, -0.20748846, -0.17815456, -0.03788962, 0.06233454, -0.02038706, -0.01095743, 0.01420250, -0.11929120, 0.24718702, -0.15947865, 0.03104505, -0.09562852, -0.21257301, 0.08780615, 0.01282136, 0.35337573, 0.16818103, -0.21356495, -0.27246112, 0.55128938, 0.11255270, 0.11454244, 0.08396684, 0.20321831, 0.27909356, 0.02107462, -0.23439084, 0.07302329, 0.20998342, 0.15374023, 0.34382629, 0.06244453, -0.25707382, -0.11009870, -0.21064666, -0.15148519, -0.03747335, -0.01953257, 0.04549862, 0.20679983, -0.15493406, 0.31904155, -0.16748576, -0.00641277, -0.00111835, 0.31107658, -0.11073530, 0.06537918, 0.05337640, 0.01591612, 0.28917289, -0.09469472, -0.00630215, 0.05802264, -0.39293882, -0.06443887, -0.06421762, -0.05796733, 0.17401260, 0.02161329, 0.10625499, -0.00976263, -0.34780398, -0.09795815, 0.12058089, -0.18687679, 0.32836705, 0.38685170, -0.40695581, -0.27399457, 0.28892034, -0.23926930, -0.23287255, -0.16875264, -0.00696790, -0.47061881, -0.08506168, 0.01907605, -0.17591092, 0.08331019, 0.15298919, -0.19860418, -0.19281664, -0.22860804, -0.03813307, 0.23317716, -0.06815596, 0.21474838, -0.15961440, 0.20776616, 0.24002053, -0.16676195, -0.20999652, 0.06746825, -0.01947272, -0.41930678, 0.35788622, 0.07051354, -0.32803378, 0.41244414, -0.05507262, -0.08728410, 0.36920956, 0.02044850, 0.47660977, -0.27673560, -0.10937319, 0.36783704, -0.05923309, -0.15749739, 0.08402434, -0.24190776, -0.13639480, -0.09138245, -0.23606633, -0.16327320, -0.26446167, 0.11352120, 0.21657461, -0.10666300, 0.00221463, 0.47694543, 0.22993004, 0.19142790, -0.10094783, -0.13584042, -0.05381278, 0.15280542, -0.30994233, 0.02806446, 0.19311236, 0.27023700, 0.27986252, 0.22668143, 0.10479805, -0.19263108, 0.20935546, 0.17807969, -0.19162518, 0.17124481, -0.29775223, 0.15049164, -0.06803813, 0.05178975, -0.12333852, -0.14974602, -0.17447585, -0.14514799, -0.05039171, -0.19187373, 0.06316051, 0.09388640, -0.12302784, -0.40611616, -0.09699316, 0.22045594, -0.05495865, 0.23959361, -0.12899283, -0.30943367, -0.08761074, -0.00332778, 0.47680277, 0.03432196, 0.03157983, 0.07438239, -0.05709430, 0.05135581, -0.02565975, 0.42624599, -0.05840180, -0.35128248, 0.08280852, -0.08193686, 0.15617397, -0.15457591, 0.53636682, -0.24813502, 0.36348584, 0.03904349, -0.26208171, 0.15414008, 0.17200929, -0.13481809, 0.37452698, -0.10106017, -0.09117842, -0.08949642, -0.13315833, -0.08115650, -0.06798083, -0.11038125, 0.17422716, 0.55646169, -0.08192742, -0.13778384, -0.04863783, 0.18305767, -0.28818268, 0.46591401, -0.06461684, -0.31481433, -0.00802016, -0.07484900, -0.06654412, -0.33976400, -0.42134100, 0.01830927, 0.31845868, -0.07332102, -0.03305296, -0.06594992, -0.17425443, 0.09952939, -0.00912125, 0.01028639, 0.22589116, -0.07137100, -0.19749875, 0.05202673, 0.06949897, -0.00113467, 0.21185096, -0.24320740, -0.11115155, -0.02884090, 0.11684563, 0.03925405, -0.19047865, 0.08197914, 0.28938404, -0.14297600, 0.17612647, 0.34169343, -0.19911024, 0.09189162, -0.14792654, -0.08957148, -0.16381598, -0.28305715, -0.13442753, 0.23904477, -0.08141584, -0.15369172, -0.05403115, 0.06426086, 0.11375719, -0.07508818, -0.01314746, -0.36812896, 0.59676826, 0.13625552, 0.07375234, 0.27602640, -0.27827623, -0.12669373, 0.02295533, -0.01726493, -0.15369338, 0.43038690, -0.05899915, -0.07502783, 0.07929077, -0.04328310, -0.14562219, -0.32648474, 0.07320897, -0.00892376, 0.41356248, -0.02054739, 0.10395902, -0.09543312, -0.05871496, 0.05686769, 0.04746079, -0.34944779, -0.10270855, 0.08253061, 0.00676742, -0.00276559, 0.02300569, 0.17070213, 0.00470701, -0.10410681, -0.07725387, 0.59820110, -0.15830846, -0.11245189, 0.01742343, -0.18772277, 0.49938223, -0.04498902, 0.32917583, 0.10418944, -0.24308115, -0.14665841, 0.50665319, 0.01408747, -0.11443488, -0.12955515, 0.14715415, 0.16599253, 0.24489889, -0.18260005, -0.11807035, -0.27877337, -0.03247736, -0.14673640, -0.06450341, 0.00502472, 0.26948953, 0.32467684, 0.01885782, 0.29785684, 0.43144110, -0.22835691, -0.15137832, 0.05451038, 0.35768607, 0.49178612, -0.18580593, -0.13758150, 0.16453044, -0.14892842, -0.11392057, 0.12243076, -0.00996886, 0.47682881, 0.29037818, -0.04644264, -0.10804722, -0.14823371, -0.32060876, 0.07043678, 0.10878323, 0.13947512, 0.48194358, 0.12313555, 0.03617521, 0.44278750, 0.14911693, -0.57556486, 0.02198849, 0.47252256, 0.10061345, -0.12269394, -0.02414134, 0.27762541, -0.08692354, -0.27924463, 0.02609178, -0.02139968, -0.30853808, -0.10963538, -0.09638755, -0.00608215, -0.21196538, -0.09567881, 0.44639212, 0.10527395, -0.19713652, -0.03682680, -0.22592194, 0.27498800, -0.15406743, 0.33953714, -0.14872468, 0.08570205, 0.09224419, -0.01435182, -0.01459715, 0.09142642, -0.13149704, 0.11252483, -0.10336583, 0.03630888, -0.00857293, -0.24884848, -0.00232067, -0.15232773, -0.03995274, 0.04014299, 0.59003216, 0.02016662, 0.19304147, 0.07673462, -0.04458218, -0.07565653, -0.10641380, 0.03051945, -0.02200571, 0.08034939, 0.24149209, -0.14192735, -0.02357529, 0.07254910, -0.01405480, 0.02844254, -0.18226059, -0.09683783, 0.08212507, 0.10338968, -0.18194492, 0.48387939, 0.00652312, -0.07103956, -0.00838162, -0.32703030, 0.37748343, -0.19867548, -0.17174973, 0.32075635, 0.07267340, 0.11227779, 0.18952596, -0.01391219, 0.15331997, 0.11253921, -0.04094414, 0.11887852, 0.10155977, 0.14586963, 0.04816573, -0.10090624, 0.00827951, -0.26684222, -0.34689489, -0.31270573, -0.12641650, -0.04515471, 0.39559358, -0.14692999, -0.30319947, 0.24866359, -0.18862410, -0.06254114, -0.08955892, 0.34289226, -0.03669081, -0.24132544, 0.00397136, -0.31103796, -0.05391047, -0.05090849, 0.26267281, 0.09648014, 0.10598639, 0.17845073, 0.05803818, 0.03845375, 0.05272211, -0.37374344, -0.32031298, 0.19955471, -0.21385680, 0.01602240, -0.07967347, -0.06446063, 0.09330094, 0.61472028, -0.25109622, 0.30870938, -0.04843823, -0.09350333, 0.10780542, -0.31086820, 0.14315589, -0.04034270, -0.31410640, 0.28469265, -0.17810157, 0.04948390, -0.04631316, 0.03910738, -0.32811317, -0.26993811, -0.05757683, 0.04430425, -0.13010868, -0.24870199, -0.29222110, 0.15313941, -0.09189861, -0.20473424, -0.23793438, -0.28339764, -0.31136352, 0.30044636, -0.09444096, 0.34007716, -0.46928856, 0.05660475, 0.15463491, -0.29895085, 0.27606967, 0.10677885, 0.22970912, 
bias
-0.17421728, 0.28374708, -0.70948833, 0.83456099, -0.25965148, 0.90788633, 0.99195719, -0.60919482, -0.57821846, 1.23575628, -0.90108776, 0.54084897, 0.59103835, -0.41613054, 0.80896264, -0.50654614, -1.53631175, -0.67799473, 0.43970957, 0.33438680, -0.39285600, 0.68372452, 0.50636429, 1.45548844, 
layer23
kernel
