layer0
kernel
0.04304393, -0.11558779, 0.20983915, -1.13695335, -2.35405755, -0.91282809, -0.57441378, -2.66872358, -0.86978418, 5.21217823, -3.27698374, -2.00656629, 6.91694403, -14.02149391, 6.85168982, -2.02695823, -5.50174379, 7.63474035, -1.96197903, -0.81761223, 2.49059510, -2.83913326, -4.41772032, 1.20245636, -0.65931785, -0.84084815, -1.41012704, -0.38985223, 0.88290066, -1.41722751, 0.64325619, 0.27375653, -4.96717596, -0.78142440, 0.16224733, -1.88849008, 0.98552114, -0.52089596, -2.28209496, -0.07155970, -1.67718351, -3.93895841, -0.46579745, -3.62946868, -1.34971845, -3.87781692, 1.18401206, 0.46855640, -3.13159752, 2.39011097, 3.63486171, -1.56106591, 0.43700379, 0.45435771, 2.53131890, 0.46095002, -4.12782955, 2.78811932, 1.87233353, -3.10878015, 1.54895520, 1.83428895, -3.91043234, 0.03956052, 0.11023960, -0.13032629, 0.86167192, 1.81824160, 0.90848815, 0.63708049, 1.81571102, 0.92177385, 
bias
3.74914670, 0.03052513, 1.65581894, 1.96201658, 1.35916996, 0.38672373, 0.56634462, -3.16141701, 
layer1
kernel
0.68415767, 0.05419826, 0.32242173, 0.42793745, 1.05922425, -0.27678108, 0.09608258, -0.37574446, 0.03169132, 3.06384945, 0.28593951, -0.28538394, -0.20223184, -0.69447744, -0.21408425, -0.00602459, 0.12487982, 0.04492215, 0.44448495, -0.37471464, -0.18284631, 0.40869761, -0.47696424, -0.13179670, 0.37228459, -0.03722127, 0.56763333, -0.24468938, 0.07152957, 0.30064714, -0.77391469, 0.31244287, -0.61994219, 0.00799264, -0.01689190, -0.27892309, -0.32345918, 0.35068980, -0.07386626, 1.05868614, 0.44275782, -0.00779107, 0.28011990, 0.14312136, 0.34536639, 0.02740927, -0.01326217, -0.42477196, 0.37803447, -0.00805819, 0.13279238, 0.17771576, 0.39479834, -0.06262903, 0.01197250, -0.35241780, 0.14858769, 0.04233588, -0.24307539, 0.46097404, 0.70914471, -0.46277237, 0.31530863, 0.02429630, 
bias
0.67723596, -0.07643357, 1.53642416, 1.12039936, -0.38624755, 2.26164174, 1.92574346, 1.67265427, 
layer2
kernel
0.23626933, -0.12593155, -0.13955642, 0.54782981, 0.64706296, -0.85876024, 0.17216158, -0.15034606, -1.09250939, -0.03665685, -0.16283558, -0.17929505, -0.12834610, -0.51765633, -0.39753997, -0.10296587, -0.33622533, -0.18620551, 0.34895393, -1.51602399, -0.21196909, 1.26276970, -1.88014972, -2.29679370, 0.02031431, 2.64224648, 1.13730967, 0.11795662, -0.17417675, -0.02392876, 0.01737073, 1.08261883, 0.70281023, -0.06860264, 0.44037139, 0.32722694, 0.15412770, -0.13922898, -0.02483120, 0.58409959, 1.14519763, -0.37255517, -0.05214552, 0.15822268, -0.72001773, -0.24233013, 2.04232216, 1.50337601, -0.07543778, 0.32498157, 1.12679839, 0.13815996, -2.87568355, -1.91223168, 0.08699588, 3.45353413, 1.50725424, -0.07567883, -4.13129282, -4.47522974, 0.22646748, 2.11420226, 1.15623593, 0.28437358, -0.82164931, 0.09912559, 0.72290063, -2.79662299, 1.42921758, 0.13285844, -0.67993367, 1.80762851, 
bias
0.77423358, 0.74295253, 0.73949015, -2.97203922, -0.46835452, 0.09249850, 0.43972063, -0.40487808, 
layer3
kernel
-0.30324718, -0.30181813, 0.13147381, 0.50931811, 0.45615694, 0.03401170, 0.01220956, 0.00975336, -0.22929855, 0.00341931, 0.62458587, -0.25448060, -0.10640304, 0.23710144, 0.55045837, -0.02305399, -0.00447972, 0.07167544, -1.02398980, -0.14392659, 0.08808308, 0.12454449, -0.32930407, -0.40222687, 0.18401492, 0.07197227, 0.18937932, -0.04949871, 0.10834447, -0.07867776, -0.74711359, -0.01544295, 0.58562458, -0.13515764, -0.20967890, 0.05044245, -0.32392138, -0.60952759, 0.18032737, 0.08247428, -0.22726442, 0.05307042, -0.10787568, -0.24650539, 0.22079818, -0.72863400, -0.09793977, -0.04569734, 0.65730846, 0.05113290, 0.05990570, 0.50771964, -0.50571442, 0.60597503, 0.06351509, -0.05980545, -0.05684246, -0.36975130, 0.14587946, 0.01221870, -0.15883501, 0.09729616, -0.04757925, -0.47650501, -0.53044379, 0.07860145, -0.06927507, -0.64737153, -0.05201430, -0.22754516, 0.10263660, 0.21678038, -0.06859205, 0.09685612, 0.07738148, -0.19715907, 0.27729803, 0.79552990, -0.38707978, 0.04696315, -0.00628975, 1.02586925, 0.20079629, -0.02469806, -0.03931468, -0.12121530, 0.07464436, -0.79081380, -0.04695307, 0.36887261, -0.46126842, 0.25817528, -0.17812851, -0.36158755, -0.02283243, -0.19367589, -0.26457289, -0.06316981, -0.18507965, 0.25000924, -0.16833146, -0.20777467, -0.18580784, -0.17112283, 0.48731038, -0.10966665, -0.12215479, 0.57936275, -0.41467190, -0.15552923, 0.09019823, -0.16458178, -0.68255848, 0.01155372, -0.08696564, -0.62567860, 0.55879205, 0.07333817, -0.16392463, -0.01322424, -0.31765157, -0.07882026, 0.10338761, -0.14169328, 0.17768230, -0.02513305, -0.03652778, -0.60383970, 0.00705370, -0.04124204, -0.02876032, -0.04486435, 0.00436424, -0.51323420, -0.17264919, 0.05184713, 0.13354702, 0.02274702, -0.36311373, 0.12170181, -0.05120701, 0.16384146, 0.26981950, 0.26059490, -0.15064716, 1.22577858, 0.06562884, -0.22570565, 0.07225610, 0.02823214, -0.03927127, 0.12550142, -0.21753739, 0.10789294, 0.00984494, -0.11472382, 0.25128314, -0.16627657, 0.74544215, -0.00834156, 0.13842304, 0.02085479, -0.02871974, 0.17201398, -0.12868066, 0.47047600, -0.56018710, -0.02197111, 0.57481211, 0.56796169, 0.24256699, 0.59287232, -0.52218848, -0.13459510, 0.04055757, 0.11544507, -0.22649996, -0.07675952, -0.04623385, -0.03414233, 0.08129384, 0.59248418, 0.41391844, -0.09646221, 0.11516652, -0.05849648, 0.41845527, 0.06778082, -0.02328697, 0.12582070, -0.09040826, 0.71190161, 
bias
-0.13907708, -0.20537125, 0.00971603, 0.10501321, 0.04906486, -0.03505817, -0.21130078, 0.08153124, -0.02803241, 0.12618575, -1.09075248, -0.06637432, 0.05378436, 0.19229257, 0.14644694, 0.60482216, 1.12592912, 0.47157067, 0.32648927, -0.07043762, 0.82143664, 0.33741331, 1.02164471, 0.13928376, 
layer4
kernel
0.21227162, 0.38925847, -0.32150424, -0.16478734, 0.23929824, -0.12696883, -0.12077523, 0.12218287, -0.11326784, 0.10895108, -0.55254436, 0.00601765, 0.25018767, -0.15990046, 0.20496331, 0.02608477, 0.22482972, -0.25277191, -0.10054346, 0.20673998, 0.18364325, -0.14568707, -0.79013437, -0.11314169, -0.09661251, 0.23482785, -0.08472600, -0.70102817, -0.05604631, -0.06471933, 0.00187239, 0.02394580, -0.06371727, 0.38783222, -0.06679256, 0.28859359, -0.22937068, 0.13989985, -0.04048555, -0.14079456, -0.28386655, 0.04892428, 0.24238463, -0.10386751, -0.29541641, 0.26125485, -0.23636568, 0.13453160, 0.13656138, 0.50425994, 0.45621458, 0.39323619, -0.18460676, 0.13483003, -0.38998988, -0.06736091, -0.08375476, -0.30948144, -0.01716486, 0.39604965, -0.02254006, 0.07069207, -0.10029750, -0.05272146, -0.10275502, 0.04392815, -0.03672839, 0.01700104, -0.02355762, 0.05587016, 0.08847068, -0.01969855, 0.09922164, 0.01948557, -0.00257279, -0.00822576, -0.18155099, -0.00845639, -0.00831289, -0.21172749, 0.44280729, 0.00795926, -0.01839905, 0.02683494, 0.01615330, 0.08148513, -0.11510399, 0.19421455, -0.06442574, -0.13235085, -0.03852422, -0.09123335, 0.15934591, 0.06767515, -0.00871716, 0.00527248, -0.05942649, -0.24416928, 0.28955606, -0.10061210, -0.12136649, -0.23310985, 0.36769021, -0.05626666, -0.10499279, -0.26772442, -0.11332327, 0.18585591, -0.06806596, -0.03095553, -0.00402558, -0.09775431, -0.71889246, -0.08819611, -0.05028916, 0.34438482, -0.09022361, -0.02161456, 0.29471114, 0.08327219, 0.04241668, 0.18811534, -0.13473535, -0.01159654, 0.18373002, -0.05175440, -0.14229625, 0.08332118, -0.08589189, 0.18947630, -0.13239147, 0.03965695, -0.27299494, -0.44127950, 0.11859027, 0.62365967, -0.50744265, -0.98496801, 0.40675959, 0.03613803, -0.31787083, 0.38000664, 0.02635739, 0.78993058, 
bias
0.59460127, 1.08609903, 0.71838599, 1.37547970, 0.92689776, 1.41120005, 1.14342070, 1.29082346, 1.26797295, 0.93496752, 1.53576612, 0.02711084, 
layer5
kernel
0.02385843, 0.04637329, 0.23125574, -0.32815516, -0.64719039, -0.18288746, 0.05398682, -0.04425616, 0.05541181, -0.13403596, -0.56408620, 0.09621555, -0.01791421, 1.02513492, 0.45930237, -0.09687045, 0.02187089, -0.08109830, 0.01657563, -0.06162769, -0.04785981, -0.07964282, 1.53881097, -0.49667019, -0.01529290, -0.31173009, 0.02975916, -0.47753289, 0.32545507, -0.04403654, -0.47668093, 1.03941143, 0.18700887, -0.55335879, 0.86944216, -0.00324816, -0.03028683, -0.34289455, 0.02074257, -0.10092870, 1.79107344, -0.18558387, -0.02077339, -0.28569067, 0.00953398, -2.68478537, 3.04991603, 0.13105108, 3.13582921, -2.27267075, 0.15789893, 0.03853086, -0.03370664, -0.03825819, -0.02286138, 1.73999918, 0.03276255, -0.01163885, -1.49556518, -0.05918980, 0.00964776, -0.08449480, -0.02246316, -0.69565785, 1.53947031, -0.50378108, 1.19191980, -3.51783442, 0.95409280, -0.13137574, 0.65444195, -0.37066478, 0.30019158, -0.32010525, 0.00300935, 1.11873376, -0.96774632, -0.00751408, 0.18145242, -0.21875346, -0.02563517, -0.03928393, -0.55373013, -0.31051636, -0.04116147, 1.60601950, 0.31687111, -0.09488802, -0.30242848, -0.06961343, 0.01886433, -1.94867790, 1.35185039, -0.28529075, 2.58002067, -1.21019363, 0.01962835, -0.12044411, -0.09141169, 0.19332568, -0.27226698, -0.02897368, -0.10008632, -0.71248567, 0.01456236, 0.09575663, -0.49418876, 0.04787831, 
bias
2.27310967, -0.09106195, -0.15456197, -0.99832183, 1.36294985, -1.15496552, 1.87334168, 1.17973065, -0.12964177, -0.14271793, 0.08420646, 1.12176299, 
layer6
kernel
0.04942140, -0.13723361, 0.03776898, 0.13842319, -0.04239210, 0.56753510, 0.17703028, -0.08597378, -0.07797119, 0.10727797, 0.08110734, 0.04074292, 0.57701081, 0.57356083, 0.42219251, -0.05301664, 0.01468941, 0.57571709, 0.20872439, 0.96772218, -0.11794653, -0.21368375, -0.37238330, 0.15179956, 0.14211375, -0.44008252, -0.60389304, -0.20141821, -0.70152843, -0.07711388, -0.19635564, -0.07390457, 0.08289969, -0.12159223, -0.06499986, 0.10269798, 0.15871565, -0.49864107, 0.45139083, -0.44083491, -0.27294567, -0.17781682, 0.05328221, 0.16185729, -0.15997231, 0.18611075, 1.25967193, -0.60269219, -1.31102157, -0.40211102, 0.26279485, -0.00008723, -0.15582474, -0.05341795, 0.08757592, -0.22132213, -0.25058120, 0.19635797, 0.37741530, -0.27380058, -0.21361437, 0.31316447, -0.16418083, 0.15769215, 0.03242208, 0.02516500, 0.72741586, -0.03141890, 0.03583718, 0.61813271, 0.04977505, 0.12226050, -0.18938281, -0.01210346, 0.20687041, 0.18600452, 0.29212248, -0.04429034, 0.02141238, -0.09806969, 0.42844629, -0.08371197, -0.13205129, -0.27443615, -0.02826560, -0.02990825, 0.02892667, -0.00122823, 0.27372161, 0.00438958, -0.02992829, 0.09855901, 0.02650276, -0.01649662, 0.00499055, 0.09222880, -0.05806930, 0.17906365, -0.00654776, 0.01547351, -0.05051963, 0.01822565, -0.77638590, 0.03098027, 0.02343060, 0.25821882, -0.00623181, 0.00777417, 0.25927737, 0.08623668, 0.21318048, 0.38579568, 0.33643651, 0.04357931, 0.00511498, 0.04521043, 0.45444462, -0.07666270, 0.03464360, -0.09432137, 0.01724534, -0.01944517, 0.15080845, -0.07103669, 0.38382936, 0.05218563, -0.05693854, 0.05160758, -0.01586443, -0.00380754, 0.08285473, -0.07906525, -0.19841249, 0.62445271, -0.00596515, -0.08742158, -0.05359109, 0.03425618, 0.34753552, 0.05466650, 0.02002945, 0.74346435, 0.14580719, 0.03739278, 
bias
0.01227653, -2.30522990, 2.28240371, 0.04840458, 3.31661057, -1.28769648, 0.95819873, 0.41907203, 2.18085337, -0.91020894, 0.05233383, -0.38143283, 
layer7
kernel
0.04785233, -0.04989924, -0.12809139, -0.08183112, -0.21233332, -0.62590116, -0.17557983, -0.50399601, 1.99415016, -0.05862354, 0.03569490, -0.00462235, 0.01282051, 0.79505247, 0.08216699, 0.00579997, 0.32866797, -0.13728252, -0.20272592, -0.84488958, -0.22974472, -0.36330932, -0.21020283, -0.33985904, -0.28955990, -0.67529994, -0.42074549, 0.08511946, -0.16600645, -0.04020836, -0.18450387, -0.43672708, -0.15589558, -0.13308732, -0.51635998, -0.10440066, 0.16758029, -0.03455082, -0.28428078, -0.29356837, 0.72321999, 0.35050529, -0.00574795, -0.03561081, 0.29881787, -0.05106667, -0.01284627, -0.02620998, -0.06682848, 0.07224163, 0.04569333, 0.01039842, 1.02085578, -0.12195501, 0.03694370, 0.26727775, -0.08209711, 0.03085438, 0.97168177, 0.56282735, -0.01319127, 0.44212827, 0.14016314, -0.25392500, 0.19715373, 0.04960461, 1.26358259, -0.82177836, -0.04011931, 1.38049769, -1.22198772, 0.10061444, 0.01189664, -0.06598342, -0.05147034, 0.07350569, -0.20588136, -0.04210838, 0.14905548, 1.89038002, 0.01341949, 0.07651431, 0.16986178, 0.43883902, -0.17033263, -0.01257336, 0.94783574, -0.04111173, -0.21471094, 0.07021660, -0.12063476, -0.07838126, -0.08450697, 0.11047164, 1.79539037, -0.04110492, -0.09905554, 0.98067075, 0.07650179, -0.07994603, -0.04531486, 0.07147902, -0.14753677, -0.98900509, 0.18939941, -0.02821731, -1.19889975, 0.11294194, 
bias
-0.23643079, 0.04389530, 1.84577894, 1.91427970, -0.20430058, 0.50943923, -0.69257450, -0.55322623, -0.86144006, -0.50306070, -0.37558150, 1.81871164, 
layer8
kernel
0.94728976, 0.75059015, -0.39193135, 0.49664211, -0.35229784, -0.35425505, -0.01363166, 0.00656736, -0.02643763, -0.13835029, 0.06045945, 0.10287587, -0.00665162, -0.21295725, -0.34039459, 0.16145572, 0.20547952, 0.51817489, -0.07830550, -0.10200252, 0.48068097, 0.21632749, -0.38905248, -0.55946040, 0.04370125, -0.06942782, 0.02756764, 0.07931147, -0.10397215, 0.01411085, -0.27964923, -0.13953392, 0.06182128, 0.05755774, -0.44573334, 0.02681668, -0.09560948, -0.05325615, -0.03525949, 0.08163148, 0.08170138, -0.48503637, 0.25663596, 0.24391599, -0.43807033, 0.05699527, 0.14579047, 0.21344396, -0.06081524, -0.02626710, 0.14117198, -0.01662780, -0.04109849, 0.06984114, 0.26955000, 0.02609184, 0.11216644, 0.28164291, 0.16667232, -0.02035207, 0.61645401, 0.63922244, 0.02438707, 0.52139604, -0.25443670, -0.18798149, -0.37994742, -0.23721811, -0.05848629, 0.17047828, -0.15482502, -0.12003208, -0.21757083, -0.00210718, -0.12172348, -0.02028175, 0.23196113, -0.06898104, -0.06016863, 0.32846856, -0.04013442, -0.30496880, -0.07089534, 0.09267883, 0.02488513, 0.12667720, -0.30915833, -0.07428747, 0.15422596, -0.11625812, 0.19766824, 0.08046828, -0.07758390, 0.02163284, 0.38615358, -0.18978035, 0.00097769, -0.26655978, -0.44436494, -0.53075278, 0.63962513, -0.64495045, 0.38342008, -0.30857033, -0.06527165, -0.23164962, -0.03278375, -0.30176580, 0.06041705, -0.08599468, -0.00809061, 0.05193605, -0.00304912, -0.01078299, -0.27677685, -0.19255915, 0.04894750, 0.02490453, -0.39998025, 0.05917855, -0.23109633, -0.15715013, 0.18862645, 0.22357441, 0.09373461, -0.24533011, 0.33767605, 0.00791971, -0.18133599, 0.03656807, 0.27935231, 0.17624423, -0.37234661, -0.50493640, 0.53974611, 0.05387683, -0.13620767, -0.17678641, -0.13542543, 0.06639268, -0.18451104, 0.10403802, -0.40480959, 0.20690268, 
bias
-0.64839268, 0.83820939, 2.74179983, 0.17960671, -0.33379436, -0.14245956, 1.30883098, 0.06822872, 1.46911597, 2.40425014, -0.61363840, 1.65729272, 
layer9
kernel
0.49840105, 0.19527291, -0.03198732, 0.48431805, -0.04390206, -0.09755059, 0.06169903, -0.05744836, -0.10407685, 0.16892016, 0.08368216, 0.09357288, 0.18792367, 0.60900164, 0.22248563, 0.14113724, 0.19670308, -0.06517873, -0.20873125, -0.45339164, 0.62722027, 0.14440097, -1.42758489, 2.15164280, 0.06176392, -0.62482500, 0.36510861, 0.54823953, 1.19917428, 0.35401154, -0.15834841, 0.10245604, 0.07993166, -0.04628462, -0.14032890, -0.29006621, 1.27054095, 2.39570665, -0.20287831, -1.13113999, -1.40496349, -0.37065744, -0.19528593, -1.01712978, 0.47047853, 0.41942471, 0.46080476, 0.35434157, 0.39069974, 0.32079563, 0.28825405, 0.28524095, 0.59780073, 0.28142434, 0.19812723, 0.01915516, 0.12558064, 0.16839385, -1.41576624, 1.01265025, -0.64498562, -0.49088663, 1.57815623, -0.08378260, -0.86581355, -0.17885633, -0.13897701, -1.40394413, -0.26257887, 0.06516425, 2.11216235, 0.38702154, 0.02358400, 0.31342345, -0.05196203, -0.16768475, 0.14456683, 0.53437531, -0.23416206, -0.20177568, 0.14382111, 0.35765049, -0.21733558, -0.30331659, 1.57854271, -0.49644023, -0.88688171, 1.04092312, -0.74427909, -0.26709399, -0.23160283, -0.06297180, -0.30648822, 0.22840735, 1.24929380, 0.23174177, -0.06418747, 0.57463068, -0.11858010, -0.07641549, -0.95107776, -0.22553131, -0.57956302, -0.02726263, 0.05656494, -0.26020601, 0.30012563, -0.10744789, 
bias
0.67189288, 0.05283499, -0.56629944, -0.13712656, 0.00182563, -1.83925915, -0.76317751, 0.18036371, 0.84941399, -0.13204470, -0.31219018, 1.88495898, 
layer10
kernel
0.23392828, 0.22551593, 0.35299551, 0.12545739, 0.14875315, -0.04808795, 0.13564928, 0.10652958, -0.13710527, 0.23489894, 0.24363485, 0.19542557, -0.40405601, 0.21530205, -0.22244962, 0.23236868, -0.15257856, -0.18962918, 0.06578674, 0.15637115, -0.00654129, -0.01976520, -0.17825143, -0.29728022, 0.63882548, -0.69210672, -0.43393990, -0.25583228, -0.29332140, 0.12626827, -0.06728815, -0.21902980, -0.24113876, -0.26324773, -0.00763000, 0.38670087, -0.04649998, 0.01962087, 0.86862904, -0.45626628, 0.32549986, -0.36421049, -0.10958181, 0.49710131, -0.12817000, 0.30543640, -0.16416617, -0.39583993, 0.14115496, -0.25947800, -0.09797578, -0.08514962, 0.26095536, -0.19541433, -0.28983104, 0.01026597, 0.11033188, -0.14652717, -0.26082107, 0.14867607, 0.27361217, -0.07352976, -0.15225647, -0.36069614, 0.11173434, -0.21237250, -0.15436333, -0.14467174, 0.12669311, -0.39496788, 0.04449007, 0.27515721, 0.04936936, 0.10841899, -0.56532758, -0.08857444, 0.41367006, 0.03455317, -0.43087941, -0.25491369, 0.58554858, -0.01788160, 0.08190581, 0.04829377, -0.17060791, 0.70504707, -0.08193147, -0.47056040, 0.13182436, 0.06511866, 0.01579611, 0.00993766, 0.18717274, -0.38466132, -0.05014087, -0.04949613, -0.03986723, 0.18617928, 0.01416510, 0.42234135, -0.40277135, 0.40197799, -0.18776603, 0.30571485, -0.69817227, -0.33983007, -0.04380105, -0.27080622, 0.00182294, 0.04325560, -0.00109508, 0.35851184, -0.13258873, 0.10992903, 0.05694408, 0.40231496, -0.05134233, 0.02798768, -0.40534750, -0.08373138, -0.07655096, 0.11273400, 0.34740874, 0.13584737, -0.19224657, -0.12039554, 0.41513929, -0.23641306, -0.07526331, 0.45711675, 0.31624755, -0.06306280, -0.17615661, 0.34214252, -0.05273511, 0.51829916, -0.62936324, 0.38140145, -0.15673056, -0.56996632, -0.19527754, -0.11930238, 0.75670046, -0.37021369, 
bias
-0.53161347, 1.62856197, 1.06228280, -0.35078773, 1.13848662, 1.01413977, -0.66479504, 0.74723047, 1.15338182, 1.01635504, 0.10315007, 0.00640094, 
layer11
kernel
-0.45502979, -0.56707919, 0.12263941, -0.13749962, -0.87726462, 0.18976656, 0.41506094, -0.27602407, -0.52779353, 0.09096865, 1.97415829, -0.64019769, 1.60474241, -1.81900370, -0.75213069, 0.06003008, -1.45919263, 0.66494852, -0.47583765, -1.15375698, 0.22199121, 1.04126823, -0.23829213, -0.81230861, 0.54601872, 0.73067957, -0.56592828, 0.27245167, 0.36913860, 0.01966755, 0.04161777, 0.64664471, 0.14486733, -0.05376478, 0.44674900, 0.45164040, -0.85969663, -0.87635738, -0.57836729, -0.01951692, -0.61121285, 0.03766528, 0.30132222, 1.32143843, 0.43865472, -0.55778980, -0.77306712, -0.03594464, -0.68332088, 2.76509237, 0.79521966, -0.14427556, 0.14235853, -0.36892512, 0.41861933, 0.59672284, -0.47240558, -0.12761547, 1.23606873, 0.76366311, 0.17861092, -0.05324711, -0.16085130, 0.47312203, -0.01000497, -0.78769594, 0.79274064, -0.06238328, -0.92390317, 0.17881706, -0.47708571, -0.34646368, -0.63299602, 1.29344201, 0.62915307, -0.35712397, -0.92561263, 0.61323208, 0.28355807, -0.55394018, 0.23675589, 0.44497386, 0.97856194, 0.36478615, 0.34548673, 0.63823986, 0.23172891, -0.63769621, -1.12534618, -0.66107297, -0.29313904, -0.21814667, -0.18072164, -0.42490929, -0.67336595, -0.49264434, -0.15894966, -0.44283915, -0.05741825, -0.10379112, 0.49243963, -0.15881178, 0.20815045, 0.52198601, 0.12320460, 0.20114265, 0.09091193, 0.31705534, 
bias
2.10611033, -0.71606833, 0.07534552, 0.14377791, 1.44762421, -1.53330350, -0.22304797, 0.94979012, -0.63710320, -1.27414811, 3.35563946, 0.28101283, 
layer12
kernel
-0.00173381, -0.11003117, -0.12461762, -0.15798664, -0.28799924, -0.06327458, -0.18755917, -0.28133878, 0.22485788, 0.18596067, -0.24483933, 0.36259666, 0.42467234, 0.10603487, 0.24270797, 0.17397179, -0.05404981, -0.24856919, 0.22392541, -0.09950760, -0.13947050, -0.13787198, -0.19488572, -0.20434359, 0.02074740, -0.16811056, 0.17104118, 0.15385714, -0.03550037, 0.00151838, 0.14146864, 0.07080092, 0.20887272, -0.18356289, -0.04572421, 0.05658080, 0.02336164, 0.03265302, 0.23671354, 0.02520992, -0.34314805, 0.03972978, 0.07493042, 0.08751874, 0.00208869, -0.04395918, -0.05131901, -0.13500798, 0.11372986, 0.05516853, -0.08340661, -0.11846566, -0.08354798, 0.15903804, 0.15013191, 0.01162745, 0.01524115, -0.00856155, 0.01177765, 0.04969055, 0.21162660, -0.01947332, -0.10227913, -0.07428844, -0.03767435, 0.07029481, -0.07001208, 0.06121197, 0.23777953, -0.00685631, 0.06612448, 0.00566352, 0.09111112, 0.00550007, -0.14815277, -0.01271421, 0.01707008, 0.16313767, -0.08178089, -0.08566849, 0.08552712, -0.00780612, 0.16822690, -0.03601328, -0.06651324, 0.06513491, -0.00981618, -0.04120852, 0.07301613, 0.12928025, 0.03523576, -0.00572095, 0.09415051, 0.20187227, -0.00484624, -0.03820447, 0.10038084, -0.48914924, -0.32853991, 0.30108532, -0.35576570, 0.30977929, 0.29650956, 0.07212549, 0.14470856, -0.31252474, 0.01348421, -0.21414579, 0.05785483, 0.14916994, -0.12789263, -0.04309798, -0.13223960, 0.20625259, -0.02528110, 0.16278283, 0.03883680, -0.13624340, 0.05244970, -0.08899862, 0.17502300, 0.31755808, -0.08207778, 0.38756728, -0.35919753, -0.03414664, -0.43355373, 0.01193989, -0.07372701, 0.46169466, -0.11816912, -0.13487066, 0.14619568, 0.15889344, -0.03317429, 0.14367901, 0.04535727, 0.18531847, -0.26081860, 0.40587035, -0.17250633, 0.09323121, 0.34455508, 0.02300752, -0.11248573, -0.27349472, -0.29976144, 0.11669642, -0.36232036, 0.25625092, 0.32983783, 0.01412338, 0.07183246, -0.21113633, -0.21213886, -0.17013216, -0.03205643, 0.14125882, 0.09940250, 0.05519019, -0.22196382, 0.18908030, 0.01309577, -0.01347172, -0.10657071, -0.04228240, -0.20672512, -0.19138615, 0.29535022, 0.41184616, 0.07348667, 0.04085378, -0.11920279, -0.19108538, 0.04794679, 0.00379088, -0.09499130, -0.10837529, 0.13013056, -0.03807171, -0.16882886, 0.37896264, -0.15419167, -0.28311917, -0.06812304, 0.23720254, -0.18356629, 0.10987911, -0.09834982, -0.10687147, 0.04834781, -0.29775634, -0.06105840, 0.12681729, 0.03352696, 0.22274564, 0.09098805, 0.22715835, -0.03412651, -0.04969089, -0.04676507, -0.01585216, -0.08667127, 0.01520464, 0.07242591, -0.05597420, -0.13353227, -0.04702888, 0.06945213, -0.00921512, -0.09612022, 0.31368572, 0.18936257, -0.04429492, -0.09947771, -0.09947771, -0.00904125, -0.07228202, -0.09899806, -0.05726923, 0.07727029, 0.17516518, -0.07367298, -0.00854961, 0.18303131, -0.08940523, 0.13986355, -0.15933700, -0.06695800, 0.01394559, 0.11789595, -0.09741525, 0.11847152, 0.27070981, 0.15761030, -0.13804090, 0.04271210, 0.03321519, 0.03374280, -0.16058406, 0.02844281, 0.01288735, 0.05572259, 0.03222264, 0.05425171, -0.09577855, -0.17787446, 0.03530124, 0.01508512, -0.06721602, 0.06088779, 0.03509600, -0.03831142, -0.05746713, -0.02664696, -0.02423540, 0.11876541, -0.04505013, -0.05435433, 0.12656452, -0.00475900, -0.04002175, -0.30868059, -0.01790717, 0.00881676, 0.01198942, 0.06451370, -0.12984836, -0.03814039, 0.15735048, 0.01729145, 0.00909896, 0.32181594, -0.04364765, 0.03837984, -0.04884706, 0.08407989, -0.00082310, -0.04255304, 0.05473060, -0.06957628, -0.03401849, -0.06006684, -0.03612220, 0.00095458, 0.03892714, -0.01205784, -0.05267821, -0.02872975, -0.08253007, -0.10416188, -0.00770780, -0.16270885, 0.10956983, 0.11826958, -0.08893731, -0.09746072, -0.19880106, 0.02338058, -0.04884792, -0.12802741, -0.05040565, 0.07089121, 0.08305910, 0.03809080, 0.14836602, -0.19833080, -0.26310867, -0.44697908, -0.20174016, -0.23395275, -0.14366345, -0.09146494, 0.11509535, 0.09199398, 0.07700454, 0.17893271, -0.31883410, 0.01681168, 0.06454274, -0.24547404, -0.20409144, -0.08288275, 0.00507363, -0.07412422, 0.20609003, 0.04364571, -0.07582890, -0.18692707, 0.27368945, 0.13555151, -0.07770994, -0.04282276, -0.11868106, -0.13602178, -0.04382205, -0.03791534, 0.00254385, -0.00024372, 0.00954056, -0.03303044, -0.08873953, 0.00493781, 0.02250231, 0.00945238, -0.05678483, -0.01155977, -0.04193613, -0.06267494, -0.01613606, -0.06563763, -0.04902542, -0.04436976, 0.02274920, 0.05607944, -0.04729718, -0.01370243, 0.07512528, 0.00986681, -0.05533876, -0.00803717, -0.04599219, -0.03560515, 0.11173563, -0.08528306, -0.00947002, -0.11138292, -0.06408574, -0.08133282, -0.00164888, -0.07293853, 0.05131797, -0.02049192, -0.00405165, -0.01500742, 0.03082605, 0.04348801, -0.06655465, 0.02105624, -0.01438138, 0.03363002, -0.02334880, 0.06694262, 0.18171148, -0.89110130, 0.18210714, 0.04323245, 0.02170620, 0.04572922, -0.29313490, 0.14071915, 0.08219114, 0.57763231, -0.06208198, -0.16240285, -0.15421523, -0.12812281, -0.01772485, 0.06302670, -0.11606631, 0.01209024, -0.04966558, -0.43367410, -0.17346965, -0.04240019, -0.03212067, -0.02622739, -0.05978764, 0.06068738, -0.00391949, 0.35719630, 0.08165130, 0.03149086, 0.00633754, -0.09717179, 0.01615031, 0.15979362, 0.06725547, -0.05407430, -0.22331516, 0.26344353, -0.11408688, -0.19848238, -0.02786941, -0.00698422, 0.09028879, -0.52364796, -0.01718501, -0.16816118, -0.19938213, -0.28143829, -0.53084588, -0.00536003, 0.02030080, 0.10207365, 0.02674837, -0.13247305, 0.15142737, -0.07576547, -0.12356556, 0.01413805, 0.06178278, -0.14645575, 0.08824632, -0.12149405, 0.02881988, 0.18861097, 0.02440497, -0.16033486, -0.09865566, 0.12139048, -0.01083011, 0.02858683, -0.10518091, 0.12273695, -0.06183457, 0.14676647, 0.15815978, 0.12636210, -0.14873441, 0.11797249, -0.12180477, 0.16944951, 0.00346331, -0.08555336, -0.04117126, 0.06359535, -0.05960770, 0.06007379, 0.13889474, 0.24402386, -0.10979002, 0.15722759, -0.00633429, 0.15039161, 0.06613295, 0.05080378, 0.07602441, -0.11527952, -0.21077612, 0.02466998, 0.27853203, 0.36324114, -0.26243907, 0.04202297, 0.00023280, -0.42761296, -0.22406355, -0.18568802, 0.27269611, -0.23821120, 0.13015845, -0.17189404, 0.02820689, 0.16305177, 0.14775461, -0.15465160, -0.28755116, 0.09346297, -0.16694237, -0.01599349, -0.06980985, 0.22406355, 0.17056771, 0.03698286, -0.00166622, 0.00783095, -0.17551939, -0.08904182, -0.03815447, -0.05659063, -0.07038460, -0.04401248, -0.00532471, -0.13908917, -0.28843540, 0.10911381, -0.11044016, 0.33105519, 0.09487773, -0.13961971, -0.13033530, -0.04796940, 0.13095427, 0.42796665, -0.20018937, -0.03470597, -0.18869439, 0.05039669, -0.07950024, -0.01313368, 0.17514487, 0.12540267, -0.19582714, 0.04348078, 0.17750108, 0.10655300, -0.07928207, 0.21328054, -0.03270331, 0.06715196, -0.05353830, 0.20001596, -0.05366920, 0.11178903, 0.04232449, 0.01193376, 0.12522814, -0.00603233, -0.12932970, -0.01947145, 0.09058315, -0.05048396, 0.09651730, -0.24050786, -0.03420866, -0.03584492, -0.04415710, 0.01430088, 0.06950817, -0.07622772, 0.17531940, 0.01589350, 0.13779458, -0.16641816, 0.14573589, 0.07304247, 0.27524012, -0.13884179, 0.08329635, 0.01069566, 0.27366930, 0.11475610, -0.07251888, -0.49497843, -0.03313964, -0.12901439, -0.05794204, -0.20297784, 0.13274871, -0.16611658, 0.08697329, 0.18442674, -0.15455227, -0.02111090, 0.08287759, -0.20695306, 0.08986437, 0.11925700, -0.02374600, -0.12937579, 0.00395641, -0.01393590, -0.01441775, 0.08805744, 0.24694632, -0.01364981, -0.05487027, -0.09486353, -0.21574676, 0.06998820, 0.00339175, -0.01400366, 0.06992797, -0.01594611, 0.11100538, 0.01992134, -0.01468126, 0.13901271, -0.14913149, 0.02112596, -0.14949287, -0.07492713, -0.05303323, 0.04993134, -0.12780978, -0.09468284, 0.23935723, -0.02452900, -0.22996123, -0.10269353, 0.07113259, 0.25080109, 0.01955996, 0.02655007, -0.00396898, -0.35985422, 0.17631894, -0.16874181, 0.10132927, 0.20325990, -0.01909320, 0.05887321, -0.10199077, -0.24475379, -0.13181825, 0.20698833, -0.04188477, -0.03623198, -0.16874181, -0.25786346, -0.00960674, -0.48734269, -0.04332804, 0.07372682, -0.17716084, -0.08713716, -0.21372359, -0.00495747, 0.00305191, 0.00288841, 0.06897607, -0.26002836, 0.02665531, -0.59558761, 0.07270450, 0.03728436, -0.49888879, 0.10529825, 0.08491213, -0.17884466, 0.19640440, 0.01685313, 0.04774804, -0.09663866, 0.12556411, 0.05087511, -0.11624301, 0.03002293, 0.01439507, 0.15466996, 0.01680803, -0.02303928, -0.08579351, 0.03442474, 0.02861701, 0.09231045, -0.14406256, -0.02637441, 0.03195214, 0.00228212, -0.10994450, 0.01378140, -0.08019662, -0.19259456, -0.08257338, 0.10925447, 0.04416181, 0.00435580, -0.00389339, 0.05136877, -0.14122579, -0.15418299, 0.02986289, -0.09790734, 0.01103087, -0.06969286, -0.03084043, -0.06766111, 0.10158750, -0.04412347, -0.02750529, -0.08096331, 0.00991916, -0.06532267, -0.02744779, -0.05658232, 0.07486807, 0.04266675, 0.04707526, -0.02344179, -0.02146755, -0.02279010, -0.01887994, -0.07279798, -0.02869368, -0.06114417, -0.11715146, 0.01527646, 0.12504846, -0.12579308, 0.05971417, -0.00490765, 0.11899926, -0.00285832, -0.07373091, 0.13029847, -0.10262255, -0.13823652, -0.09811717, -0.12786698, -0.05234823, -0.07408848, 0.16290884, -0.00659716, 0.00089839, -0.04551864, -0.05856995, -0.01088800, -0.04641257, -0.07709207, 0.12464886, -0.03073313, -0.01764607, 0.01430279, 0.06625770, 0.12586460, -0.08488709, 0.09225303, -0.02422536, 0.04580470, 0.15661560, -0.03986904, 0.03434459, 0.09067972, 0.05417184, -0.09561419, 0.11485144, 0.12414826, 0.09797414, -0.04097751, 0.03493458, -0.04984524, 0.04498229, 0.00390422, -0.05220520, -0.20267060, -0.25144315, -0.04816994, 0.01635656, -0.06874829, 0.13583554, -0.06233486, 0.13666606, -0.02203175, -0.00223057, -0.03368205, 0.06251942, -0.03012928, 0.08909594, 0.06985565, 0.00998350, -0.06196574, -0.04710872, 0.15244587, -0.00644227, -0.06021243, 0.17431612, 0.00905493, -0.07594609, -0.08254409, -0.08346688, -0.04078757, -0.01263077, -0.08314390, -0.05772088, 0.13888077, 0.02809913, 0.01012192, 0.07562312, -0.00478989, -0.01670260, -0.01460324, -0.07673047, 0.11922522, 0.02563065, 0.03368205, -0.07382367, 0.01005847, 0.14801645, 0.13768114, -0.12900685, 0.00578189, 0.12568478, 0.01575674, -0.07068616, 0.04527783, 0.47182894, 0.34995717, -0.21321030, 0.00656904, 0.00025077, -0.31968498, -0.45069057, -0.20903483, 0.24426542, -0.40006292, 0.18241616, 0.02340551, 0.19115856, 0.18541728, -0.07633294, -0.09486162, -0.35778621, 0.12741730, -0.28836888, -0.12030593, -0.07770302, -0.04276602, -0.15370975, -0.33456010, -0.30559275, -0.00752320, -0.40345550, 0.24596171, -0.01533183, -0.31420466, 0.07718109, -0.17563102, -0.11306410, 0.10921483, 0.17471762, 0.19259389, 0.02192125, 0.16467038, -0.02619459, -0.18085036, -0.08918558, 0.13074464, 0.05013835, 0.22430141, -0.06455679, -0.14796847, -0.08768502, -0.00712809, -0.00569734, -0.03397871, 0.03438933, 0.05656274, 0.19802094, 0.06446716, 0.14433253, 0.04855568, 0.01660440, 0.05569018, -0.08664057, 0.08643527, -0.08607598, 0.04085657, -0.00680729, 0.00521293, 0.08381757, -0.08818039, 0.12236442, 0.08350961, -0.19483864, -0.00615287, 0.04922293, 0.07119104, 0.06503176, 0.07858218, -0.04622028, 0.03505658, 0.03913711, 0.18210946, 0.02817872, 0.11281753, -0.06226008, 0.01393538, -0.06980520, -0.07647776, 0.11897681, -0.03531322, 0.00567488, -0.06379990, 0.04681055, -0.03749463, 0.04776010, -0.03831587, 0.15038915, -0.13458033, -0.18929529, -0.05925063, 0.03288365, -0.00600990, 0.11573844, -0.07952137, 0.04336438, -0.11513782, -0.02415972, -0.01970016, -0.04997114, -0.09844074, 0.12132415, 0.12853153, 0.01479014, 0.00628393, -0.03663749, 0.08540740, -0.01611149, -0.08636838, -0.02139690, -0.04922037, -0.02168219, -0.10288528, -0.13645965, 0.02262816, 0.07189357, -0.09856086, -0.01980527, 0.13934259, -0.11898176, 0.08979189, -0.05309433, -0.08570771, -0.07994181, -0.03678764, -0.06108251, 0.13141447, 0.15243599, 0.15063414, 0.12913214, -0.03465546, 0.14450788, 0.20913401, -0.24240807, 0.14246579, 0.10618866, -0.03949041, -0.09267484, -0.07697127, 0.16997604, 0.03963837, 0.00709980, -0.16473633, -0.13853781, -0.02306780, -0.12135157, -0.11778858, 0.24060726, -0.09080409, 0.06119976, -0.11558790, -0.08184420, -0.03793547, 0.05747957, -0.12952551, 0.06146174, 0.02722027, 0.03683513, 0.14786448, 0.04883405, 0.18663830, -0.05878949, 0.01212992, -0.04639759, -0.07141718, -0.16693701, 0.08215858, 0.06974047, 0.27518931, -0.07718085, 0.13979533, -0.00968690, 0.00022146, -0.13990013, 0.15635280, 0.00730284, -0.04668577, -0.01093134, -0.22740321, 0.06413399, -0.07618532, -0.16515552, 0.06984527, -0.07120759, -0.12386663, -0.12753442, -0.10266018, 0.13041078, -0.05541607, 0.10021994, -0.11361287, 0.28442940, 0.20339087, -0.26422653, 0.02247288, 0.26014054, -0.37000793, 0.05203946, -0.07559058, -0.00420302, 0.06917787, -0.17626451, -0.06883737, -0.06412714, 0.31030726, 0.16888705, -0.02228844, 0.14993267, -0.09868770, -0.58202475, -0.06049516, -0.22711223, 0.15946661, 0.19669440, 0.12518980, 0.12825428, -0.33845511, -0.19022493, 0.21008733, -0.00476697, -0.44559851, -0.22404775, -0.11412361, -0.05595519, 0.02762291, -0.01678372, 0.04091652, 0.10039019, -0.00886004, 0.03972478, -0.02799178, 0.17501602, -0.01149181, 0.21769178, 0.16621849, 0.05916080, -0.07128724, -0.01142245, -0.10665179, -0.22791620, 0.06996804, -0.12562791, 0.06697448, -0.34522304, 0.05469583, 0.18539755, 0.09498200, 0.19919835, -0.04655234, -0.06047999, 0.07194684, -0.08158710, 0.08163784, -0.17758386, 0.02752550, 0.05926227, -0.14135675, 0.00410663, 0.17403218, -0.03247248, 0.14683649, -0.20335889, -0.10315085, -0.08113045, -0.08346441, -0.00531800, -0.01542443, 0.08001421, 0.08919784, 0.02628241, 0.00620275, -0.05581207, 0.06514791, -0.21675380, -0.10726065, 0.00814349, -0.13526817, 0.10127354, -0.08006495, -0.20721500, -0.12268508, -0.02077731, -0.10089460, 0.04391740, 0.09026453, -0.42155841, 0.03003756, -0.00237089, -0.26071018, -0.24977641, -0.26095316, -0.02306726, -0.15683918, 0.09384838, -0.04561821, 0.03826827, 0.03195097, 0.07665803, 0.12683199, -0.19486447, 0.06180630, -0.32655591, -0.26289696, -0.02593738, -0.44148222, -0.18951906, -0.00291947, -0.18332325, 0.14979295, -0.04385665, 0.23082450, -0.08716662, 0.13096254, 0.05397041, 0.10836603, -0.00965818, 0.16801594, 0.27504560, 0.05178365, 0.01687145, 0.05126734, 0.00584274, -0.15853998, -0.12974766, 0.17105310, -0.04084986, 0.17773487, -0.04179138, -0.05284666, -0.16935229, 
bias
-0.06405061, 0.36959976, -0.12830697, 1.77218771, 0.44107229, 1.52678132, 1.60594106, 1.06742072, 2.68372059, 0.26216105, 0.09495342, 1.09433973, 0.60460830, 2.19016147, 2.27016759, 0.35322565, 0.98343539, 1.85945785, 0.64271903, 0.93645620, 0.60163981, 2.08863592, 1.74462843, 0.24352378, 
layer13
kernel
0.15781207, 0.31607375, 0.24998151, 0.29067096, 0.47478503, 0.30775601, 0.25695041, 0.33023638, 0.19827670, 0.13353719, 0.26707438, 0.18728143, 0.19626375, 0.42606148, 0.27246377, 0.11153051, 0.26393059, 0.15614271, 0.20076929, 0.07446209, -0.34899756, -0.14996804, 0.07076509, 0.39736313, -0.79681396, 0.07959441, 0.60056806, 0.11961356, 0.21168493, 0.14039208, 0.20315416, 0.37194151, 0.24982965, 0.14429185, 0.28102788, 0.19888878, 0.13975249, 0.34708050, 0.32893765, 0.06928463, 0.26885593, 0.24019548, 0.01128176, 0.09077996, 0.06415731, -0.17390579, -0.40619782, -0.33002007, -0.20886235, -0.67858338, -0.56381559, -0.01904444, -0.32325429, -0.30972269, 0.19625190, 0.34927461, 0.29357132, 0.54756969, 0.84092593, 0.56649590, 0.59961677, 0.83834505, 0.52434206, 0.92036933, 0.86839020, -0.00615751, 0.92375928, 0.51385874, -1.13450074, 0.47798187, -0.18574059, -1.35484695, -0.01682668, -0.06511550, -0.06139044, -0.09093527, -0.22364964, -0.23942636, -0.07409947, -0.17442042, -0.17588122, 0.02317628, -0.02378784, -0.03188583, 0.23129882, 0.31362838, 0.19991910, 0.27921191, 0.40085047, 0.23636006, 0.18548888, 0.42569500, 0.40134713, 0.10655466, 0.45527899, 0.53198785, -0.23928982, 0.15865386, 0.34479725, 0.03009991, 0.15382367, 0.13796556, 0.21140082, 0.33814371, 0.21896392, 0.21359655, 0.23726173, 0.11478832, -0.57587755, 0.32189894, 0.67486781, -0.75434905, 0.08959701, 0.71280205, -0.59321892, -0.21676697, 0.39343205, -0.11972859, -0.28372824, -0.27408698, -0.20226949, -0.37896016, -0.35534894, -0.16114661, -0.30773297, -0.23316085, -0.57622516, -0.17174847, 0.59253699, -0.81407452, -0.01258951, 1.07582259, -0.47000852, -0.02624594, 0.68737322, 0.15425281, 0.23281962, 0.20100006, 0.35957405, 0.60391682, 0.51408875, 0.25573492, 0.49968484, 0.41247571, -0.12534219, -0.41181168, -0.49658903, 0.37281913, 0.64803112, 0.38615206, -0.06352013, -0.00073602, -0.09792162, -0.16348121, -0.25434253, -0.18431620, -0.25226766, -0.37139887, -0.28529242, -0.19711113, -0.30016223, -0.22391133, -0.02994193, 0.19171636, 0.42949158, -0.45208097, 0.01757461, 0.58820397, -0.63778323, -0.24848317, 0.35116217, -0.01880897, -0.06075385, -0.01620888, -0.20675148, -0.62292325, -0.48351905, 0.56923378, 0.72716242, 0.45494747, -0.06270888, -0.32358673, -0.25842306, -0.25038919, -0.53603816, -0.28297102, -0.19906163, -0.32336357, -0.10382671, -0.11951545, -0.23862530, -0.17251325, -0.17021488, -0.35340878, -0.24389803, -0.12661336, -0.26201463, -0.17454122, -0.23755856, -0.27493665, -0.15241957, -0.28075102, -0.36817423, -0.21679294, -0.14608605, -0.28012806, -0.21430108, 0.13157588, 0.27245730, 0.24497351, 0.22463119, 0.55313808, 0.45705307, 0.16955544, 0.44493425, 0.34300619, 
bias
0.51931691, -0.49532747, -0.05819179, 0.27435386, 0.09937644, 4.93203449, 0.57345879, -0.95719832, 2.59097958, 0.12075830, 0.09261045, 0.00798917, 0.05672918, 3.67336750, -0.63825542, 0.39999890, -0.25676170, 3.86137509, -0.10069114, -0.30921009, 2.88790226, 4.67237711, 3.58557367, 0.83879805, 
layer14
kernel
0.40922275, 0.39167210, -0.06947134, 0.10186692, 0.10640084, 0.04650923, -0.19495851, -0.10420701, -0.16790126, 0.15576206, 0.07853918, -0.15824839, -0.13301933, 0.47562271, 0.01816310, -0.01642632, 0.15327571, 0.15649334, -0.01025616, 0.05323698, -0.17770037, 0.47650024, -0.24483162, 0.08585195, -0.20382684, -0.20403622, 0.22047217, -0.79478860, 0.11588922, 0.07066416, -0.32013482, -0.24078158, -0.07244385, 0.30715355, -0.13609393, -0.04169185, 0.48407567, -0.21324873, 0.22256593, 0.22172843, -0.06741884, -0.40451306, -0.10950328, 0.00387671, -0.39488178, 0.16247523, -0.06715712, 0.26674411, 0.35383675, 0.13378644, -0.10925032, -0.08678040, -0.09924217, -0.17136545, -0.03667505, -0.27325493, 0.05333379, 0.04448787, 0.25775844, -0.06163087, -0.01657803, -0.11841908, -0.09840277, 0.07670767, 0.01012922, -0.44423297, -0.16477944, -0.12597363, 0.22147080, -0.07761163, -0.19848433, 0.16555427, -0.03121360, -0.47741190, 0.10322168, 0.17660511, -0.46808743, 0.70194465, 0.03480351, 0.04021170, 0.06135489, -0.16149950, 0.08452615, 0.15170883, 0.07291721, 0.28570119, -0.12364222, 0.21576780, -0.34649661, -0.23702754, 0.03869647, -0.11972595, -0.10387439, 0.39945948, 0.14760606, 0.17035772, -0.19722804, -0.25254408, -0.07519525, 0.28184843, 0.25369650, 0.06165434, -0.17994177, 0.12306174, -0.65852433, 0.35593241, 0.10042496, -0.12586047, -0.03584842, 0.36877364, 0.36844435, 0.40137058, 0.38227338, -0.15351848, 0.21204484, 0.20628275, 0.20957537, -0.13145792, 0.07490715, 0.13236339, 0.15268715, 0.41751173, -0.23766631, -0.18097182, -0.17483930, -0.81249589, 0.10212518, -0.35568595, -0.44003934, 0.03620062, -0.19624053, -0.38797554, -0.23879269, -0.20500126, -0.20274851, -0.64579153, 0.13516568, -0.22202213, -0.08266382, 0.16132273, -0.04555584, 0.54266512, -0.79847866, -0.45655960, 0.24768434, -0.17438316, 0.29967576, 0.17226335, 0.19591609, -0.20975071, -0.49626127, 0.23050264, 0.29097334, 0.01315126, 0.17761868, -0.10811087, 0.08786100, -0.45051774, 0.14928003, 0.07915858, 0.15954442, -0.26352721, 0.16054855, 0.10353652, -0.01585682, -0.67477250, -0.34051019, -0.18185833, 0.17642750, 0.10006856, -0.33591956, -0.70570999, -0.11267053, -0.08114071, 0.36700109, 0.08129014, -0.05713223, -0.22275093, 0.36182082, -0.04971052, 0.06828970, -0.00841791, -0.07366920, -0.14524636, 0.13388965, -0.22573954, 0.48056820, 0.21079649, 0.04423140, -0.31480005, 0.03501653, -0.11486217, 0.66357446, -0.53193784, 0.13848804, 0.10170390, -0.01303590, -0.03669989, 0.16061467, 0.14983214, -0.41580108, 0.61100966, 0.31606272, 0.27338189, 0.31538883, -0.04478678, 0.01435564, -0.74983466, -0.05643977, 0.04590996, 0.32370034, -0.00118022, -0.06800852, 0.18970503, 0.53777838, -0.13208592, -0.02928861, 0.01533024, -0.06941997, -0.12098908, 0.33824053, -0.22293727, 0.31073698, 0.01233857, -0.16330221, -0.19040905, 0.19331808, 0.76692533, 0.45645282, -0.30386111, 0.40276805, 0.08938647, 0.08773362, -0.11259258, 0.07351905, -0.04366846, -0.15126942, -0.00542137, -0.30544785, -0.13923661, 0.34054714, 0.17115735, 0.02734172, 0.56237411, -0.19354625, 0.13403888, 0.19884889, 0.23007554, -0.12196065, -0.00506788, -0.01225314, 0.15672238, -0.17336677, -0.35881177, 0.02829914, 0.06392623, -0.08624150, 0.21107441, -0.05206895, -0.12984096, 0.14133000, -0.33200401, -0.03023240, -0.17896400, 0.11666390, 0.14149512, -0.30011523, -0.49533996, -0.22819032, 0.48163998, -0.02005495, 0.30396834, -0.06202453, -0.08781902, -0.33907455, 0.59081167, 0.03111929, 0.25451997, 0.15862010, 0.07893544, -0.11291782, 0.18773256, -0.06737608, -0.20153958, 0.55698985, -0.59594917, -0.24488717, -0.51160866, -0.44645175, 0.62515485, -0.00736309, 0.09363553, 0.14075929, -0.06586616, 0.28656757, 0.21848290, 0.40238798, 0.18926005, 0.02572300, 0.07772361, -0.20853795, -0.27509260, 0.05209624, -0.10832345, -0.03811593, -0.48286557, -0.00894089, 0.07240689, 0.12224638, 0.21909490, 0.11184244, 0.14351328, 0.13350244, 0.34225404, -0.07940086, -0.18656608, 0.37806228, -0.19499917, -0.12552342, -0.01905556, -0.18358207, 0.00750465, 0.02971045, -0.02742379, 0.07200568, -0.05209060, -0.38688460, -0.14725487, 0.23677544, 0.36534777, -0.10768418, 0.13479984, -0.15400134, 0.28439003, 0.03066729, -0.17956012, -0.41662753, -0.15962781, -0.04853058, -0.17703044, 0.29812384, 0.04915211, -0.14357179, -0.28859380, -0.47815830, -0.59293288, -0.12938036, 0.19173983, -0.28072119, -0.70853615, -0.10358715, -0.35571828, -0.03656626, -0.43713778, 0.12616916, -0.08302511, 0.38534421, -0.02593563, 0.53036624, -0.09835600, 0.05077152, -0.09030183, -0.09849078, 0.45798588, -0.26517323, 0.10340416, 0.08911071, 0.06175216, -0.03385388, -0.20308606, -0.13668109, -0.04589536, 0.17137247, -0.17673253, 0.04924539, -0.15469679, -0.39158091, 0.18968596, -0.07344003, -0.32696259, 0.34393609, 0.47615045, -0.20636164, -0.11762316, 0.56881440, 0.18018344, 0.18228115, -0.11255945, 0.43897632, 0.18680783, 0.10913684, 0.03643415, -0.21021400, -0.06547106, -0.53480917, 0.00166731, -0.07231627, -0.00095226, -0.18559335, -0.06177245, -0.24090701, 0.02065982, -0.16814913, -0.32194540, 0.27027515, 0.62401766, 0.05846025, 0.57676363, -0.01272087, 0.65726757, 0.00779069, -0.17831658, -0.68634385, 0.45337462, -0.00706154, 0.10266440, -0.33078757, 0.07524834, 0.20784158, -0.25181496, 0.14941978, -0.20317501, -0.07529321, 0.14663780, -0.26401982, 0.07533808, -0.10329259, -0.25504565, -0.47778434, 0.04715922, 0.19958535, -0.07825468, -0.24575083, 0.04754804, -0.00017499, 0.18152831, -0.32345045, -0.36415678, 0.13552739, 0.07030784, -0.15457411, 0.22044688, 0.28095633, 0.28934512, -0.06174713, -0.07577432, 0.03537739, -0.21755894, -0.48545071, -0.18194088, 0.12356302, -0.30584770, 0.13875914, 0.50855434, -0.03871229, 0.37983423, -0.30775121, 0.16438884, -0.02692524, -0.12257482, 0.16188000, 0.07598205, 0.23344171, 0.25685757, -0.01155859, -0.71967906, -0.26091948, -0.48313114, 0.05662813, -0.01620293, -0.31444144, 0.73067015, 0.18816310, 0.06797765, 0.45971531, 0.17430474, -0.02688044, 0.22782668, -0.35410503, 0.18971619, -0.21608889, -0.33971834, -0.08208401, -0.72846824, -0.07735597, -0.05564201, 0.03213315, -0.06737456, 0.11881386, 0.05060753, 0.01779581, -0.07845043, 0.13238509, 0.09079586, 0.10103995, -0.36143231, 0.12275390, -0.27265024, -0.20785861, -0.01880271, -0.11933921, 0.05043241, -0.32413334, 0.05586090, 0.22506823, 0.47864798, 0.05556507, -0.01214305, -0.64539719, -0.01305428, 0.30520287, 0.13337776, 0.12948982, -0.05972300, 0.06976683, -0.38252959, 0.36524987, 0.18294893, 0.25077179, 0.31427473, -0.53091908, -0.03140047, -0.26761952, -0.18068098, 0.12063397, -0.41125709, -0.10578422, 0.36719385, 0.44478309, -0.23321791, -0.28780082, -0.32546753, 0.21528673, -0.29456729, 0.58687907, -0.15168186, -0.12078162, -0.25351733, -0.07476957, -0.34892467, -0.10160993, -0.10459846, 0.17818390, -0.33674499, -0.00835237, 0.33854941, -0.03309935, 0.09619675, 0.47410449, -0.25329179, -0.04635037, 0.23615004, 0.00907210, -0.05495152, 0.07284096, 0.40579584, 0.31612220, -0.10733663, -0.01707800, -0.27415374, -0.22358023, -0.11858357, 0.29664764, -0.61895943, 0.09873158, 0.16817580, -0.20923848, -0.08620142, 0.02785317, -0.46225703, -0.29559088, -0.04347813, -0.39069927, 0.14054908, 0.07518093, 0.19444384, 
bias
-3.28919601, 3.15650702, 3.28644586, -1.52308071, -0.49891579, 4.56072474, 3.94475484, 3.17495322, -1.63737047, 1.64358926, -0.14553994, 0.30039898, 0.42139298, 0.26519823, 4.91853237, -0.55229402, -3.85242128, 1.40711808, 0.88018334, -0.39709067, 4.12053108, 0.41841882, 0.58287656, 2.40082717, 
layer15
kernel
0.01160436, 0.04814150, 0.02682927, 0.25229859, -0.45239747, 1.09576952, -0.10588478, 0.25675467, -0.25505710, -0.20540373, -0.36348820, -0.01850066, -0.12116273, 0.16402590, -0.04339366, 0.51732880, 0.23192796, 0.42969272, -0.14280652, -0.07914834, 0.00832861, -0.15553816, 0.39298317, -0.38407102, 0.64054435, 0.20735371, 0.22381775, 0.23158380, 0.15423389, -0.14048797, 0.09031924, -0.03966513, -0.64924234, 0.51815128, 0.12790695, 0.04003402, -0.06690457, 0.35723862, 0.12813993, -0.01188207, 0.10950140, 0.05789595, 0.23329234, -0.35817054, -0.14173053, -0.08162125, 0.01793959, -0.09427993, 0.26517150, -0.33710310, -0.03207966, 0.07757029, 0.26745749, -0.15491198, -0.05878730, 0.07939906, 0.12801383, -0.01943067, -0.19979303, 0.19019198, -0.18943000, 0.04918627, -0.26334274, -0.27462015, 0.09326722, -0.26029480, -0.04381426, -0.12412770, 0.01454443, -0.10865936, 0.13357633, -0.41878811, -0.25701439, -0.25237307, -0.06217467, -0.40186301, 0.30323446, -0.42623007, 0.00714332, 0.32895523, 0.17327683, -0.00390103, 0.00195958, 0.11158564, 0.33320981, -0.59912014, -0.58248866, -0.46065336, -0.10472032, -0.37788275, 0.21756299, -0.64708066, 0.07841937, 0.41114569, -0.08871735, 0.07010363, -0.55664527, 0.27366367, 0.01150182, 0.03491693, -0.41647112, 0.53071713, -0.05605952, 0.14108567, 0.13004595, -0.04314608, -0.06851720, -0.32855844, -0.27325854, -0.11971519, 0.18625739, -0.21755350, -0.23274578, 0.03005540, -0.51329660, 0.17876254, -0.12184212, -0.20286763, -0.21755350, -0.08046846, -0.50063002, -0.30525306, -0.23006481, -0.05826621, -0.31556568, -0.19218943, 0.19631447, 0.53550535, 0.01789471, 0.23231483, 0.15787658, -0.26625267, 0.48675486, -0.23550236, 0.06961007, -0.07546951, -0.35306603, 0.29831550, -0.17709552, 0.13462634, 0.25856510, 0.10284478, -0.02432837, 0.39450395, -0.71793544, 0.07414933, 0.02954387, 0.04532957, -0.22090322, -0.26473629, -0.12087886, -0.15824318, -0.31127271, 0.53681028, 0.06285314, -0.43910307, -0.41091087, -0.25276425, -0.06821159, -0.46690908, -0.38040152, -0.50823188, 0.30258334, -0.24465418, -0.28327364, -0.17533228, -0.45107511, 0.21511030, 0.40209326, 0.06089171, -0.19226529, 0.06131537, -0.13510950, -0.46248430, -0.07082850, 0.12078204, 0.03293005, -0.07175285, -0.01873739, -0.16376443, -0.15328844, 0.47511712, -0.00985976, -0.22569603, -0.15313438, -0.14019345, 0.26867843, 0.06790138, -0.14003938, 0.04228912, -0.12447945, 0.42335337, -0.23144503, 0.11236166, 0.05381915, 0.23762174, -0.26596195, 0.37859613, 0.54355067, 0.00284708, -0.04791494, 0.35443428, -0.04557596, -0.39966962, 0.43600321, -0.25742355, 0.25306353, -0.04157927, 0.07834432, -0.18875305, -0.05077621, -0.02368497, 0.17503712, 0.28903380, 0.05168455, -0.82259274, -0.27072653, 0.30134353, -0.24930973, -0.01981432, 0.24719821, -0.21356478, -0.17118363, -0.37464330, 0.23543406, -0.36680052, 0.15972112, -0.17193775, -0.27570367, 0.12390075, -0.27932343, -0.16560319, -0.10399217, -0.64612395, -0.26107389, -0.20361049, -0.04004340, -0.07461947, 0.17736736, 0.19893499, -0.12131013, -0.06515568, -0.38118961, 0.14988284, -0.09240710, 0.19967861, -0.47037610, 0.09100324, -0.22973777, 0.39341149, -0.45716330, 0.07770785, 0.15194733, -0.18464905, 0.47334898, 0.52322733, 0.11371277, -0.16871110, 0.27433100, 0.10702378, -0.01187089, -0.14996542, -0.29233345, 0.44328985, 0.21696684, 0.55648142, 0.09970441, 0.46331647, -0.41888395, 0.17620717, 0.05567502, -0.39129281, -0.14422651, -0.13562667, -0.01640465, -0.08026519, -0.28827387, -0.30941513, -0.23076242, 0.24778295, -0.37767640, -0.62671345, 0.16930938, 0.08483385, -0.00331732, -0.15685754, -0.40204260, 0.39595103, -0.18222542, 0.16587763, -0.38664782, -0.11698422, 0.42804226, -0.13018243, -0.10633565, -0.13130729, -0.17937580, -0.10101137, -0.16137823, -0.39474675, -0.00747555, -0.07667716, -0.25001627, -0.49733290, 0.45173904, -0.22212003, 0.52102971, -0.19947308, -0.24266726, -0.50723159, -0.00254028, -0.24506694, -0.02408181, 0.05227515, 0.09546577, 0.28913835, -0.13705094, 0.04632322, 0.03743449, 0.37873051, -0.08007691, 0.36244103, -0.31858471, 0.38781503, -0.07169723, -0.00969146, 0.14950301, -0.25499308, 0.08356192, 0.00639734, -0.25687262, -0.01396941, 0.12138798, -0.28334305, -0.09233318, 0.14402097, -0.02690229, -0.25062659, -0.02721193, -0.25106373, 0.08261935, -0.14483885, -0.37535703, -0.00463322, -0.51553303, 0.02098269, -0.21609257, -0.07839366, 0.22235824, -0.18724138, -0.10163490, -0.27364925, -0.36486569, 0.30075189, 0.53301865, -0.14789882, 0.04415108, -0.08407648, -0.06830303, 0.08567932, -0.19549441, -0.25374228, -0.05952204, -0.28741685, -0.11731485, 0.10084163, -0.20495969, 0.17692791, -0.13087569, 0.46998751, 0.06484626, 0.69642609, -0.23280945, 0.12668912, -0.10348098, 0.27121666, 0.18175156, 0.31271824, -0.10257086, -0.04741741, 0.08982914, -0.03692824, -0.46962345, -0.03956760, 0.00017752, -0.26187804, 0.14213039, -0.19808725, -0.04764326, 0.10232110, 0.23405951, 0.34565344, -0.05815515, 0.07162477, 0.09312818, 0.45660788, -0.06662862, 0.34853125, -0.15516035, -0.11287296, -0.15116343, 0.53238946, -0.25052682, -0.27962437, -0.04384619, 0.18193969, -0.05379852, -0.24700952, -0.04336201, 0.05463846, 0.50072080, -0.22413395, 0.18656129, 0.34354806, -0.23138808, -0.27137879, 0.30299935, -0.28718907, 0.23287611, 0.02594746, -0.83403867, -0.44045576, 0.07161126, -0.37870267, -0.53606147, 0.04271100, 0.38800284, 0.66477573, -0.48509654, -0.11308999, -0.19679147, -0.02555220, 0.12802477, 0.10196576, -0.29888895, 0.38535750, -0.22900343, -0.04715793, -0.08370470, 0.26868421, -0.07901605, 0.18053763, -0.17658928, -0.08271762, 0.43629104, 0.45129469, 0.22722669, 0.29099229, -0.30224505, 0.12812348, -0.01884096, -0.05443767, 0.12466868, 0.08271762, -0.30027089, -0.00492308, -0.41709507, -0.27216926, -0.15333357, 0.07662345, 0.03144249, -0.24772604, -0.21149459, -0.03707656, -0.27182257, -0.32434949, -0.19017178, -0.34688580, -0.13140401, -0.03209257, -0.46043414, -0.09092534, -0.37618300, -0.66118062, 0.15472043, 0.44309852, -0.04134546, 0.02016350, 0.18999842, 0.32781661, -0.29746205, 0.16966888, -0.07567412, -0.25486434, 0.06597231, -0.05717300, -0.26316726, -0.11380450, -0.18230380, -0.22742851, -0.12255869, 0.41081530, -0.34276724, -0.11524849, -0.45991099, 0.01124169, 0.46568695, 0.58084518, -0.12950790, 0.00195023, -0.01696689, 0.44547108, -0.23988292, 0.50286967, 0.01036999, -0.25160831, -0.08114081, -0.06429033, 0.28913891, -0.23475783, -0.31747836, -0.53040719, -0.54649168, 0.03106807, -0.01698213, 0.25524649, 0.42700648, -0.67823184, 0.10387938, -0.20354614, 0.23322597, 0.06936462, -0.14265463, -0.20373763, -0.33988184, 0.00246983, -0.32935029, -0.21331176, -0.54275906, -0.22678410, 0.20992483, 0.27899337, -0.46625793, -0.42601326, 0.53115696, -0.32757702, -0.15825941, 0.26304054, -0.18363892, -0.31561238, 0.00898480, -0.47242153, 0.07777008, -0.07536809, -0.33700368, -0.36999705, 0.06372071, -0.22261460, -0.03002487, 0.04953538, 0.36328962, 0.17638762, 0.12455828, 0.32651007, -0.03411813, 0.68925530, 0.18038796, -0.20697351, 0.30012143, -0.06912246, -0.20224719, 0.01616057, 0.37397021, 0.03217345, -0.40685755, -0.51871383, -0.38204435, -0.48602343, -0.18078181, -0.20145947, -0.18540967, -0.13863878, -0.02397624, 0.36038205, 0.66719913, -0.35723117, -0.15050720, 0.07620476, 0.33324197, -0.06244091, 0.09724220, -0.05919577, 0.17859443, 0.20612213, 0.21843128, 0.08359025, -0.22626436, -0.16606148, -0.01056768, 0.11839154, -0.14894059, -0.17188035, 0.01681316, 0.06719671, -0.18094435, 0.11492260, 0.02895445, 0.07228822, 0.07486195, 0.14547165, 0.28193745, -0.01192812, -0.41758287, 0.03514360, -0.11454941, 0.46292946, -0.23442212, -0.32038346, -0.44321355, -0.10715595, -0.50472718, -0.00208095, -0.13692696, 0.17645736, 0.04315319, 0.19765195, -0.05619033, 0.07368819, 0.23856245, -0.17734458, -0.06880851, -0.26103860, 0.16176900, 0.29100677, -0.13274427, 0.06972225, 0.16226511, 0.17871717, -0.35955718, -0.02744775, -0.10076889, 0.04040043, 0.05273948, 0.18986212, 0.00151439, -0.29932141, 0.14952803, -0.32824519, -0.08352076, 0.01103715, 0.21732645, 0.18880069, 0.20392598, 0.21586700, 0.30515924, 0.12783518, 0.02199137, 0.35663828, 0.18088758, 0.00999490, 0.15565549, -0.20542838, 0.13952540, 0.06043028, -0.07143331, 0.00114765, 0.03335475, -0.05622493, 0.22236499, -0.06561495, 0.32813239, 0.21648903, -0.18722440, -0.07160614, 0.12984733, -0.07696363, 0.09528282, -0.10161965, 0.00601638, 0.03205858, 0.06354108, -0.14770566, -0.07144214, 0.59917533, 0.39553916, -0.29046187, -0.01501686, -0.02322196, 0.35851440, 0.41118345, 0.08773825, -0.51182818, 0.83436084, 0.59187472, 0.06355483, 0.29385144, 0.49044770, 0.16517736, -0.33687317, 0.02375973, 0.01356651, 0.05703638, 0.60647601, 0.31340677, 0.30063063, 0.40779385, -0.34995434, -0.08554538, -0.35543063, 0.00063140, -0.18107177, 0.20156381, 0.00792189, 0.01126178, -0.05913539, -0.33228880, 0.28953817, -0.13302150, 0.00597316, 0.37309620, 0.15581006, 0.27063605, 0.08647282, 0.11341276, -0.15006876, -0.14909714, -0.16870590, -0.15996146, 0.20845336, -0.36214355, -0.24831040, -0.02614120, -0.11200419, 0.09414965, -0.16259207, -0.07199679, 0.07534452, -0.04095799, -0.48041946, 0.02963358, 0.00649397, 0.08935537, 0.05827525, 0.70558506, 0.03508914, 0.14853987, 0.02870366, -0.43446055, 0.26550367, -0.18251310, 0.27691072, -0.24434273, 0.09357103, 0.33444205, 0.09874886, -0.01450438, 0.18388657, -0.02065491, 0.17885046, 0.06734114, -0.10630304, -0.03644384, 0.10902528, -0.03729454, -0.11147528, 0.03229244, -0.55261248, -0.03079522, -0.21355887, -0.03479349, -0.07404463, -0.33075082, 0.28991741, 0.05597584, 0.11249612, -0.00310079, -0.18851437, 0.10997806, -0.24880372, 0.03678228, -0.49920234, -0.10167459, -0.06858051, 0.22421575, -0.25279096, 0.14898983, -0.21411474, -0.28548631, -0.23365220, 0.47155747, -0.47076002, 0.13390478, 0.47926614, 0.48537990, -0.13257569, -0.02927298, -0.27830929, -0.13822429, 0.37161067, -0.36602855, 0.23484838, 0.48032939, 0.24016386, 0.69568467, 0.00304762, 0.52776074, 0.17528418, -0.50186342, 0.19327603, 0.38491642, -0.14829642, -0.13112238, 0.62480772, 0.40481651, 0.32358059, -0.00549467, 0.73003274, 0.58010066, -0.12594292, -0.46097288, 0.46833315, -0.17146774, 0.37074104, -0.11244903, 0.12860079, -0.00620173, -0.16697080, -0.25726405, 0.12176447, -0.24006532, -0.16494040, 0.15944637, -0.15024984, -0.02582792, -0.05825466, 0.51548356, 0.16804573, 0.06371883, -0.10492408, 0.02939606, -0.17676452, 0.03418841, 0.06246476, 0.02178205, -0.08557552, -0.06359939, -0.27040192, 0.03168026, 0.28807840, 0.02275246, -0.17939276, -0.17435746, 0.12127360, 0.08120466, 0.16283605, 0.21933366, 0.23896275, -0.06588545, -0.26763827, -0.27805024, 0.17529625, -0.28590187, -0.45232236, 0.12554079, -0.21028721, -0.01338832, -0.05696701, -0.06618415, -0.12400460, 0.08623995, -0.09234203, 0.21421304, 0.02709667, 0.38268179, 0.08310101, 0.17457531, 0.02804264, 0.17773505, -0.27742466, 0.26052007, -0.01086159, -0.28390211, 0.28090036, -0.23776999, 0.07587311, 0.23682208, 0.02796365, -0.13531561, -0.07456972, 0.22781684, 0.33429986, 0.40223417, 0.11311848, 0.29101151, 0.24045578, 0.17678712, -0.06189130, -0.02411272, -0.45588931, -0.43081185, 0.21836317, -0.37781796, -0.11610154, -0.20594274, -0.14064670, 0.15768045, 0.16430467, -0.26899126, -0.09853549, -0.20132942, -0.25787199, -0.52473402, -0.24864538, 0.58387899, 0.29288581, -0.03844422, 0.51574397, 0.02905496, 0.13686143, 0.40052962, 0.14407711, -0.27608865, -0.03493803, -0.12439971, -0.13440888, -0.18889490, -0.46027139, -0.14840667, -0.04556807, -0.05531384, 0.01889890, 0.25286329, -0.21478328, -0.06505962, -0.19055055, -0.04575621, 0.11318643, -0.28161144, -0.09211449, 0.02765692, -0.56864136, -0.19822676, 0.00886621, 0.02127890, -0.02746878, -0.33052844, -0.28584984, 0.04445328, 0.20141779, -0.18494640, 0.09364047, 0.07554788, 0.16224962, 0.00934621, -0.01924364, -0.20128809, 0.11290032, -0.53642237, 0.18624337, -0.31075147, 0.25018346, 0.20219597, -0.04575024, -0.03754697, -0.00404894, -0.06481554, 0.08936050, -0.17833191, 0.10836095, 0.24343927, 0.27032351, 0.17395896, -0.04826607, 0.11915686, 0.20446044, -0.22138707, -0.21367791, -0.09150442, -0.00468468, 0.52791017, -0.33467826, 0.02180772, -0.27685955, 0.16256280, 0.16683637, -0.03697466, -0.10725793, 0.03448175, 0.00182124, 0.00497534, 0.03022914, -0.09242617, -0.13926773, -0.08023396, -0.20928393, -0.39191669, -0.05286330, 0.05105557, -0.12024012, -0.03018915, 0.07034667, -0.22085343, -0.40513897, 0.13718118, 0.29192320, 0.03235843, -0.01490089, -0.39398268, -0.04369551, 0.31816116, -0.26423904, 0.02488217, -0.16806760, -0.09508680, -0.31526878, -0.02884627, 0.19626825, -0.13428880, -0.11407904, -0.30373207, 0.48934612, -0.08495343, 0.27985716, -0.14199294, -0.16218790, 0.17071466, -0.38056263, 0.08351734, -0.04005332, -0.01921886, 0.00065038, -0.05506490, -0.31845194, -0.10806543, 0.17295854, 0.14459585, 0.00469252, 0.21469477, 0.12395213, 0.11677170, 0.01401305, -0.08109395, -0.16744332, -0.00536464, 0.33470294, 0.50187069, -0.07306701, 0.21474628, -0.10921016, 0.01504051, -0.14613402, -0.18076164, 0.20703085, 0.17120919, -0.01967895, -0.37879115, -0.13731638, 0.33341703, -0.23954590, -0.13538752, 0.46733496, -0.26324332, 0.30971962, 0.15008359, -0.10094362, -0.03931198, -0.16463630, 0.24685012, -0.03886377, 0.35577300, 0.50455081, -0.47575510, 0.07751887, -0.26270860, 0.43527418, -0.60846573, 0.05712191, -0.02177936, -0.38352537, -0.51331472, -0.39187196, 0.08101400, -0.18852839, -0.10412359, -0.35034773, 0.08743043, 0.13625793, 0.39750588, -0.02918695, 0.18279012, 0.13437262, -0.09810749, 0.10555217, 0.32137391, -0.19827886, 0.04452061, -0.03738920, 0.15375826, -0.07636316, -0.02738312, -0.02990768, 0.09493798, 0.13909003, -0.18913886, 0.01903551, -0.00521956, 0.27980170, 0.16157147, 0.49591827, -0.06574897, -0.19105531, -0.23601818, -0.31282359, 0.01382055, -0.09021261, -0.09137331, 0.15721110, 0.01847456, 0.08660152, -0.25329170, -0.26464084, -0.16262773, 0.12355064, -0.16856022, 0.04168867, -0.21473050, 0.13915569, 0.00148413, -0.09498439, -0.07918590, 0.14818339, 0.35491791, -0.18622874, -0.07763829, -0.18803427, -0.15837181, 0.22143680, 0.36214009, 0.10336561, -0.13331568, -0.10347373, 0.15310220, 0.19299960, -0.17742988, 0.22727460, -0.20294692, 0.19008027, 0.14780417, 0.23960061, -0.23743816, -0.05106110, 0.04430341, -0.16434699, 0.21224549, -0.00715639, -0.15104786, -0.00211685, 0.14585796, -0.15310220, 0.07557799, -0.16878004, 0.18629597, 
bias
-0.62016982, -2.76694512, 1.37009811, 1.02199316, 2.45175982, -0.78544897, 2.38495851, -0.77939600, -0.17661965, 2.62830615, -0.86165583, 0.42666882, 1.84244490, -0.53166664, 0.53230906, -0.65484494, -1.11421871, 1.35411990, -1.85577214, 2.23072624, 0.57545137, 1.50200462, 0.97393173, 1.11893380, 0.32989889, 0.08948761, -0.25539768, -0.43292308, -4.92874289, 1.31751847, -0.98905420, 0.68115163, 0.30776179, -5.01771688, 0.73010957, 0.52005661, -0.84848851, -0.01069635, 3.35385656, 0.76837075, -0.57971525, 0.94118834, -0.58223426, -1.88246047, 1.75381374, -0.67893219, 0.69559884, 0.66607028, 
layer16
kernel
-0.02980219, 0.31333870, 0.37775695, -0.35202467, -0.01758154, -0.05627843, -0.07977884, -0.36970466, 0.10608003, 0.11588281, -0.16796005, -0.18992877, -0.06888200, 0.01069443, 0.15938263, 0.22966503, 0.09137587, 0.23001511, -0.21040957, -0.24524443, -0.00089508, -0.07907864, 0.28743136, -0.33434466, -0.13057944, 0.12521021, 0.22579360, 0.05297631, 0.07531226, 0.11747853, -0.00255485, -0.00234232, -0.09406874, -0.06829648, 0.06385793, -0.19114424, 0.10774235, 0.14747459, 0.06801012, 0.06833228, -0.10187200, 0.08368824, -0.00492179, 0.12227504, 0.08375984, 0.13773839, -0.08404619, -0.06002788, 0.03702749, -0.35290742, 0.03945894, 0.04960155, -0.16881201, -0.21660735, -0.18423434, 0.02056311, -0.07870947, 0.13838416, -0.04400922, -0.10149562, 0.28010288, 0.25370431, -0.32095122, -0.09302028, 0.10767844, 0.00882269, 0.03223406, 0.17395279, 0.18909724, -0.11351392, -0.04136936, 0.49240309, 0.24351110, 0.13998337, 0.01291137, 0.32052562, -0.07066241, -0.06971551, -0.02386977, -0.25866151, -0.12822603, -0.03436458, 0.01370046, -0.26450071, 0.03683046, -0.07496291, 0.27965111, -0.36234704, 0.16539186, -0.10052921, -0.16349806, -0.00806344, -0.13998337, 0.07373983, -0.14100918, 0.11433817, -0.11285444, -0.00525318, -0.06066100, 0.03456428, -0.11292385, 0.00658057, -0.19614185, -0.05191582, -0.07787373, -0.08890931, 0.10265173, -0.01083604, 0.00113110, -0.02181089, -0.01704789, -0.07114133, -0.08974218, 0.08071938, -0.00704906, 0.01202462, -0.09349012, -0.03334967, -0.04684917, 0.17046157, 0.10232897, -0.53669316, 0.13320242, -0.11708609, -0.02002405, 0.03024239, 0.25125939, 0.57242090, -0.27689016, -0.39630634, 0.13941595, 0.31999648, -0.10019308, 0.29378319, -0.16601759, 0.11669774, -0.32485080, 0.14320230, -0.18397856, 0.26368642, 0.08640682, -0.18426982, -0.24019153, -0.26679319, 0.06425633, -0.11035845, -0.11494477, 0.06387413, -0.07108804, 0.06100767, -0.13128355, -0.14867337, -0.03587844, -0.13491440, 0.10997625, -0.07839749, -0.24880813, -0.15822820, -0.07725091, 0.04177855, -0.20046061, -0.08728350, -0.01107167, -0.36614162, -0.11886226, -0.14370485, 0.02282413, -0.19014138, 0.07038672, -0.46007156, 0.25990748, -0.63930190, -0.38762674, -0.56356412, 0.00848228, -0.10208131, 0.13324669, 0.17135078, 0.83593780, -0.17005712, -0.55791909, -0.24955824, 0.18781550, -0.13806851, -0.06715257, 0.23309352, 0.09367254, 0.05351037, -0.69481152, 0.22933015, -0.15476845, -0.00859253, -0.28420153, 0.05215934, 0.27784881, -0.10164385, 0.00658783, 0.26246849, 0.08609635, -0.15505701, -0.05905541, -0.05817773, 0.30677050, -0.02302868, 0.10465304, 0.23187502, -0.12245743, -0.24758969, 0.12839222, -0.06641121, 0.02555724, -0.04446918, -0.04214960, -0.06010027, -0.18974632, 0.45806602, -0.37832436, -0.29682362, -0.51556754, 0.10585032, -0.21733527, 0.32077074, 0.02416094, -0.07792878, -0.26382086, -0.06414409, 0.04726539, 0.23464160, -0.14589636, 0.04814580, -0.26482704, 0.17427069, 0.03926624, 0.36987242, -0.03257513, 0.32882020, 0.20596541, 0.36222544, -0.15887611, 0.49141917, 0.35885504, -0.03191635, -0.12820911, 0.09014874, -0.12331564, 0.04635211, 0.06470265, -0.22988471, -0.03697294, -0.06954176, 0.07459835, 0.12918782, 0.00570906, -0.00937917, -0.04482969, 0.09699961, -0.11004888, -0.06176656, 0.20715722, -0.04325291, 0.01980499, -0.12462057, 0.12527303, -0.12886158, -0.12590896, 0.02699397, 0.02711195, -0.07277047, -0.11042989, 0.06073644, 0.09948128, -0.10127459, 0.16262454, 0.01840498, 0.06352078, 0.04141121, -0.14997701, 0.11241197, 0.04101007, 0.32392767, -0.14016102, 0.12147288, -0.04462028, -0.03900440, 0.00136341, 0.04226067, 0.01023482, 0.00787521, -0.26806173, -0.00788519, -0.18743433, -0.58820403, 0.07143671, -0.20637272, -0.65003228, -0.17838290, 0.11996633, -0.21096806, -0.61828268, 0.01281126, 0.53612345, -0.39269304, -0.27794868, -0.29243100, -0.01571817, -0.03307255, 0.33782741, -0.30774879, 0.29995063, 0.18269974, 0.67955393, 0.28365806, -0.12444075, 0.13562521, 0.15126176, -0.07992007, 0.13888283, 0.10131171, -0.28710416, -0.15278198, 0.03629522, 0.22564389, -0.10489509, 0.08035441, 0.05049298, -0.04997719, 0.08415496, -0.03941710, -0.03928136, 0.01460496, -0.12454934, 0.02893845, 0.26191196, -0.18199189, -0.13899142, -0.07438213, -0.20551856, 0.10605729, -0.15691619, -0.24908710, -0.53184867, -0.18347391, 0.11829467, 0.13348290, -0.12558503, 0.38257000, 0.22096716, 0.12671329, -0.02660111, -0.10119706, 0.01209635, -0.29439145, 0.37562680, -0.02234841, -0.19770746, 0.04491379, -0.19718672, 0.17930800, 0.14875793, -0.27043742, 0.47186708, 0.01916960, 0.30055115, -0.16797060, -0.17703819, -0.23311642, 0.02370340, 0.08913534, -0.37397227, -0.16268851, -0.29791012, -0.26604149, -0.12500957, -0.28576130, -0.05691456, 0.30565718, 0.12360100, -0.20195207, 0.21022736, 0.24456096, -0.17096378, -0.05035596, -0.30847430, -0.14499348, 0.00469682, -0.01705572, -0.14309485, 0.38315621, -0.25294405, -0.17384709, -0.11732947, -0.15334560, -0.33245659, -0.00202050, -0.06597186, -0.13242854, -0.04945292, -0.08034368, -0.13949324, -0.12868841, 0.27012098, -0.06811897, 0.22149920, 0.01076155, -0.29006839, 0.23867613, -0.02249277, -0.12328599, 0.37903744, -0.02534949, 0.29537275, 0.04099115, 0.02282591, -0.03949065, 0.05911093, -0.09412278, -0.00341877, 0.17378612, 0.20570603, 0.19988587, -0.06902338, -0.19370197, -0.31556141, 0.63476044, 0.01875635, 0.16451025, 0.12713397, 0.25681424, -0.09366808, 0.15705319, 0.32501915, 0.24917530, -0.09218735, -0.02866458, 0.00626078, -0.09930231, 0.15181991, 0.05988850, 0.04110296, -0.00280727, 0.21703184, 0.08333204, -0.03434631, -0.11854853, 0.00115730, 0.02593889, 0.11547732, 0.15100093, -0.12397432, 0.09914874, -0.13943271, 0.14465377, 0.15048906, 0.16226201, -0.12581705, 0.05039336, -0.07857267, -0.06871982, 0.03400981, 0.18435317, -0.06261806, 0.04918919, -0.03235934, -0.08062325, -0.11403289, -0.10543041, 0.22166394, -0.09292681, -0.06321824, -0.11913437, -0.11353275, -0.02411946, 0.01654227, 0.06631913, -0.12653650, -0.18315282, -0.07697220, -0.02638261, 0.23766856, 0.22006348, 0.07770528, 0.04654033, -0.01972399, -0.19320193, 0.10405570, 0.10545346, 0.17270140, 0.07247661, 0.06900808, 0.06424534, -0.06874924, 0.07330491, 0.04814517, -0.00294436, 0.28555784, 0.19527268, 0.07874066, -0.07092354, 0.03396047, 0.09002630, 0.05818836, -0.13366757, -0.02684223, -0.10524639, 0.10640801, 0.03852704, 0.39798474, 0.26913464, -0.35292989, -0.22373843, -0.15385216, 0.09557095, -0.06698500, -0.14907362, -0.23039426, -0.08763515, -0.05179605, 0.10606669, -0.29900056, 0.08806181, 0.02188746, -0.12210896, 0.17646495, -0.17399034, -0.05034541, -0.03018592, 0.30770433, 0.33330369, -0.07417224, -0.09258125, -0.04450334, -0.22936796, 0.01253332, -0.16681306, -0.29335269, 0.11676914, 0.11736491, 0.17050678, 0.06898912, -0.10181554, -0.06434218, -0.04024365, 0.04840558, -0.23723200, 0.01744090, 0.00190644, -0.03988620, -0.02371128, -0.13213977, -0.03914149, -0.26475617, -0.13595265, 0.31760353, -0.16398136, 0.33738017, 0.02470609, -0.09764719, -0.17022042, -0.15974350, 0.03867041, -0.08022491, -0.13160887, -0.13278605, -0.17257479, -0.08528679, -0.00623906, -0.17528230, -0.06244947, 0.13290377, -0.10182618, -0.06144886, -0.00725806, 0.01646582, 0.08340330, 0.02295504, -0.06804108, 
bias
0.96709996, 0.82889152, 0.78378570, 1.00155783, 1.40908027, 0.80560207, 2.11771321, 0.80267847, 0.59599513, -0.43568453, 0.88412154, 0.82097077, 1.37230825, 1.23655927, 1.33631063, 0.87627327, 1.64447618, -1.64571869, 0.68760216, 0.81589711, 0.75806653, 0.10901816, 1.83531022, 1.14244056, 
layer17
kernel
-0.27427629, -0.66450429, -0.22073658, -0.16704389, 0.59230220, 0.13209012, 0.17729293, 1.01327729, 0.09009968, 0.27495471, -0.59528661, 0.28860632, -0.05556777, -1.51898062, 0.07037303, 0.00381548, -0.96291834, -0.23188488, -0.25883961, -0.43285623, -0.15410589, -0.19651738, -0.85340989, -0.53419054, -0.07887404, 0.06904008, -0.37263837, -0.26288161, 0.17160650, 0.06310090, -0.87549585, -0.62309223, 1.62525558, -0.17195576, -0.78701490, 0.65475911, -0.71615517, 0.05164581, 0.35724291, 2.10005403, 0.66718733, -0.46658596, 1.42118132, -1.18524516, 0.19865377, -0.09124789, -0.71867067, -0.46613777, -0.59989035, 0.91763598, 0.34902108, -0.11994480, 1.17249787, 0.15313341, -0.06743534, -0.33509302, -0.29531375, 0.84104747, 2.20642352, 0.54971164, -0.30800521, -0.42279685, -0.58683896, -0.25897768, -0.33737165, -0.23333110, -0.13424800, 0.19631541, -0.22143321, -0.26915702, -0.44260201, -0.37280098, 0.12509924, 1.16423452, -1.13512862, -0.06968615, 0.91422260, -0.10578862, 0.15177961, -0.71010840, -0.03232430, -0.05822854, -0.06337847, 0.26724702, 0.30927044, 0.56910157, -0.17825623, 0.31201708, 0.67182547, -0.03663317, 0.21439236, -0.87334877, 0.51557076, -0.51522774, 1.42425132, -0.21524994, 0.13378084, 0.80199897, -0.12048851, 0.00077889, -0.51138109, -0.16136436, -0.03196132, -1.48773217, -0.47012681, 0.34443021, 1.79112291, 0.59861666, 0.00113125, -1.08078134, -0.20883770, -0.04271470, 0.55332750, 0.43689588, 0.10894675, 0.66938955, 0.41730580, -0.12417294, -0.21841058, -0.03769088, 0.01840644, -0.64686996, -0.21774164, 0.66894513, 1.18403292, 0.89036596, 0.33305609, -0.20685905, 0.33123466, 0.40539169, 0.34736708, 0.56307292, -0.06895301, -0.13322243, 0.14245953, 0.21879362, 0.26791054, -0.15451859, -0.44111237, 0.50903004, 0.64392537, -0.10587167, -0.15028842, 0.52595073, 0.24520391, -0.28688857, -0.04092862, -0.31206286, 2.06102061, -0.81669247, -0.05202410, 0.24062677, -0.17033498, 0.27654061, 0.14085583, 0.05081153, 0.48428330, 0.10122959, 0.41795850, 0.10482688, 0.22561666, -0.00921802, 0.46226540, 1.15947759, 0.45349303, -0.93978709, 0.24429125, 0.50002468, -0.51413679, -0.34688976, -0.44357646, -0.23928672, -0.77582651, 0.06162686, -0.36344305, 2.67166734, -0.05280153, 0.21983089, -0.18332613, -0.23948729, -0.20554261, 0.72912645, -0.21273237, 2.08418512, -0.85205728, -0.92705637, 1.09904671, -1.62742376, 0.05184382, -0.01153055, 0.63376826, 0.35044625, -0.40727538, 0.43445453, 0.04704875, 0.21866858, -0.11767334, 0.09970834, -0.17581221, 0.74780071, -0.37270272, -0.52360421, 1.51284730, -0.63426530, 0.38300234, 1.15451610, 0.06179775, 0.10199547, -1.25197840, 0.02659933, 0.53239202, 2.53546476, -1.48643470, -0.22657937, 0.19310215, -0.07639524, 
bias
0.22123176, 5.17336369, 3.13892770, -0.17082402, -2.05914783, -0.60500336, -1.24101996, 2.07955122, -0.16849595, 0.00631076, 0.63593602, 1.38427055, -0.24913980, -0.47275352, -0.00550258, -0.44208246, -0.04497391, -0.39754242, 0.09063733, -0.71374571, -0.40080026, 0.01585132, -1.64709759, -0.47038117, 
layer18
kernel
0.06066582, 0.11436480, -0.10025016, 0.03673426, 0.19796692, 0.05487520, 0.08414499, -0.01030889, 0.04655118, -0.08450691, 0.29459795, -0.14051308, 0.08224494, 0.01055771, 0.01578850, 0.15607539, -0.01257651, 0.10504552, 0.00868593, 0.00670106, -0.10649318, -0.24157755, 0.05387994, -0.01135505, 0.18550631, -0.10426389, 0.31006691, -0.13968581, 0.08474569, -0.05218755, -0.01064187, -0.00794491, -0.09108493, -0.01158024, 0.04890671, -0.16003811, -0.05810974, -0.05443965, 0.02410581, -0.10559846, -0.19707265, -0.00428177, 0.20941749, -0.13901852, -0.06055647, -0.22031656, -0.13345778, -0.12889796, -0.00733812, -0.05989059, 0.17005134, -0.00647008, 0.00400146, -0.06598805, 0.08556766, -0.01817381, -0.15121695, -0.00145450, -0.02408496, 0.08251894, -0.02374621, -0.04556156, 0.05132027, -0.04312258, -0.17005134, -0.03362071, -0.01001846, 0.02869193, -0.10955100, -0.12567538, -0.09776258, -0.07987670, 0.08818268, 0.05801492, 0.11760071, -0.08996776, 0.08525516, -0.12916799, 0.00155078, -0.07225981, -0.08618340, -0.01464654, 0.00129418, 0.08889671, -0.09882173, 0.10460537, 0.02856119, 0.04873253, -0.06365576, 0.17236680, 0.01908245, 0.00508746, -0.18079235, -0.16694017, 0.16594052, -0.12923940, 0.06736011, 0.52480149, -0.13899924, -0.07081093, -0.17461175, 0.22927283, 0.23714070, 0.03664776, 0.19407441, 0.28227749, 0.20622131, 0.12533396, 0.10663050, 0.16743404, -0.47510961, 0.27095878, -0.37572584, -0.14617695, 0.10870099, -0.02237860, 0.05290115, -0.08647768, -0.12843971, 0.18841505, -0.02506221, -0.49442896, -0.20038120, 0.05329907, -0.15529543, 0.04936717, -0.14166485, 0.27540764, -0.03195032, 0.12686926, -0.10176336, -0.15389742, 0.21005076, -0.13350980, 0.05140593, 0.29684377, 0.17521705, -0.22624436, -0.01948474, -0.12919928, -0.09057929, 0.01702366, -0.03998886, 0.23439941, 0.18705381, 0.10039700, -0.25028989, 0.16800493, 0.03087637, 0.17003474, 0.40408620, -0.11156090, -0.06089398, -0.02679726, -0.23436375, 0.26699668, -0.03066168, 0.22421476, -0.00432064, -0.02392821, -0.02523587, -0.00321548, 0.16472602, 0.16488217, -0.01882444, 0.31899077, -0.21734467, -0.03189127, 0.40141639, 0.20246330, -0.14792983, -0.00286575, 0.07628416, -0.42172539, -0.07622147, 0.07866608, 0.16046627, -0.07434101, -0.21324462, -0.00248574, 0.47061747, -0.06377907, -0.02402293, -0.11232638, 0.01679881, -0.07747512, -0.17124759, 0.12135261, 0.02663991, 0.27254191, -0.08625062, 0.08299115, 0.18935753, 0.14587466, 0.03105919, -0.25696304, -0.14214756, 0.08287627, -0.07112554, 0.40521890, 0.06227368, -0.15695244, 0.13365805, 0.10684361, 0.17010084, -0.15684891, 0.02012377, -0.24308993, -0.25013000, -0.16192192, -0.20209180, -0.07288557, -0.25406417, 0.02404499, -0.14887705, 0.04661467, 0.16472770, -0.10501920, -0.28592324, -0.18869579, 0.60199714, 0.35096738, -0.21376489, 0.25695828, 0.36892229, 0.11170994, -0.19648753, -0.19445491, 0.13931982, -0.13152808, -0.22663821, -0.04624233, -0.06788136, -0.27897844, -0.23493811, 0.17480615, 0.15126152, 0.00785527, 0.01771140, 0.05466927, -0.09322744, 0.01659299, -0.00340152, 0.24694215, 0.17832333, 0.02494743, 0.60030770, -0.12446969, -0.07596574, -0.09008895, -0.01673565, -0.17275965, -0.02942335, 0.34551930, -0.07325523, -0.16491342, -0.02821075, -0.40857443, 0.04711302, -0.00548344, 0.07318389, 0.02182678, 0.28175086, -0.13944885, 0.13789475, -0.09295759, -0.13428666, 0.14458612, 0.14930944, -0.00893003, -0.13218740, 0.19732986, 0.01256272, 0.43690723, -0.30071813, 0.06150158, -0.15298313, 0.24836798, -0.10863639, 0.42457411, 0.32722121, -0.18539037, -0.04011543, 0.19483700, 0.20953178, -0.01280053, 0.31147680, 0.06173119, 0.06147987, 0.22020011, -0.22883195, 0.12243126, -0.02373757, -0.07169715, -0.07878760, -0.06368187, 0.14832680, -0.11450405, 0.07297432, -0.01142839, -0.03525404, 0.05606295, -0.15590167, -0.07535248, 0.16920176, -0.05509407, -0.02400181, -0.11203782, 0.01516078, -0.02530099, 0.14859103, 0.26653022, -0.06720256, -0.05303732, -0.04403305, 0.19867946, -0.03054496, 0.04220292, -0.08272211, 0.00708720, -0.04044598, -0.15973419, -0.06877647, -0.05062154, -0.00014226, 0.07287598, 0.02320611, 0.17056859, 0.11471286, -0.01661763, 0.14077400, -0.01545549, -0.01328678, 0.11925160, 0.07898863, 0.19662972, -0.05978286, -0.07205888, 0.01221898, 0.05188787, 0.04956044, 0.02644593, 0.05736416, -0.03641734, -0.00267540, -0.04264662, -0.03110077, 0.04123192, 0.09839071, -0.15552670, 0.13818510, 0.00108884, 0.07484265, -0.01290351, -0.01548193, 0.09994233, 0.01193375, -0.08479126, -0.20590858, -0.02628620, 0.03062682, -0.15108812, -0.07132618, 0.12452179, 0.01019058, -0.18042439, -0.07189276, 0.03113045, -0.10022178, 0.08523888, -0.04768719, -0.11690443, -0.15599848, -0.10733552, 0.10790209, -0.18634202, -0.20333943, 0.05552488, -0.14441507, -0.19440004, 0.28278661, -0.29260731, 0.06336258, -0.11117567, 0.06071125, -0.15835989, 0.01442348, 0.19032365, 0.00531348, 0.08833139, 0.09264186, -0.11505628, 0.08693878, -0.05540607, 0.01656214, 0.35783499, 0.03756737, -0.38727880, -0.04701724, -0.05955074, 0.25345540, -0.05209032, -0.05587027, 0.21645170, 0.11591838, 0.31194511, -0.13057396, 0.29045910, -0.00996195, -0.14701028, 0.20079960, 0.17645395, -0.04439960, 0.10138819, -0.00742594, 0.07714658, 0.06528588, 0.28590533, 0.08432543, -0.18352875, 0.05498580, 0.16272052, -0.07007178, -0.01320674, -0.01529406, 0.38724151, 0.05441357, 0.05090218, 0.01119744, -0.08136026, -0.16729832, -0.00740644, -0.01553863, -0.12369817, 0.05016648, 0.05304259, 0.28771278, 0.24149141, 0.11066660, 0.14070031, -0.25981706, -0.15424092, 0.07640780, -0.34554040, -0.20555276, -0.19761164, 0.07126644, 0.14772514, -0.22133319, -0.00083356, -0.14701247, 0.92687088, 0.28140062, -0.28567660, 0.08134554, -0.07885122, 0.04691429, 0.05327281, -0.00711576, -0.01391937, -0.09179386, 0.03431287, 0.00343649, -0.09516966, -0.09022158, -0.06136547, -0.11172493, 0.14936735, -0.09720439, -0.04187372, 0.39436680, -0.16222312, 0.01433557, -0.11024512, -0.01612751, 0.09063777, -0.02464793, -0.02908733, 0.07158534, -0.08259135, -0.09119677, -0.22769867, -0.06297269, 0.18576576, 0.27315044, -0.06359582, -0.11920092, -0.17388965, 0.03929378, 0.15394953, -0.31962854, -0.18268676, 0.02893884, -0.08159325, -0.16113384, 0.10849776, -0.05725456, 0.08137332, -0.29851547, -0.22579263, -0.09185655, 0.28136107, 0.23414989, 0.00329434, 0.13473727, -0.23369637, 0.13693275, 0.06301833, 0.03659129, 0.03925432, 0.58253336, -0.05378919, -0.03614406, 0.10066670, 0.32395488, 0.00902077, -0.05838344, -0.08131398, 0.09570655, 0.40266681, 0.25516325, -0.34151870, 0.41340026, -0.27744329, -0.02931369, -0.09424290, -0.01631362, 0.20930217, -0.01292796, -0.04842325, -0.04794664, -0.11943766, 0.20665669, -0.02754787, 0.00757805, -0.00434010, 0.00474819, 0.04518232, 0.27204713, -0.04017795, 0.10828505, -0.13897853, -0.12210666, -0.06305508, 0.03588849, -0.07906906, 0.04008263, 0.15975858, 0.09341493, -0.05366592, -0.08326320, 0.04356186, -0.32890514, 0.08604653, -0.23843198, 0.04141634, 0.04617649, 0.21284238, -0.14601836, 0.06227610, 0.31022838, -0.00223037, -0.31532204, -0.26753861, -0.04996641, -0.21162960, 0.14783752, -0.03617107, -0.05224037, -0.06494422, -0.22800209, -0.04080995, 0.07246343, 0.03523117, -0.02045045, -0.15814613, 
bias
0.19350618, 1.48419297, 1.59628916, 0.95482880, -1.73503244, 1.91031373, -0.38761687, 0.69013768, 0.82822859, 1.04795074, -0.23153275, -0.71113759, 0.62273979, 0.99508971, 2.22341633, 2.10405087, -0.11780399, 0.54952908, -0.38605922, 1.06489420, 2.40980291, -1.56386948, 0.70176041, 2.28059769, 
layer19
kernel
-1.20486593, 1.20027781, 0.26106960, 0.10180108, 1.70039344, -0.76806766, -0.02064698, -0.56526840, 0.32186347, -0.43815628, -0.38959217, 0.40721914, -0.54895443, -0.42268771, 0.86480111, -0.45218593, -0.04426979, 1.09718943, 0.99114299, -0.61315620, -0.25472477, 1.52304971, -1.20511687, -0.51651472, 0.98609644, -0.30329785, -0.15253207, -0.20838749, -0.20878179, 0.03482161, -0.01473696, -0.95183992, -0.86509395, -0.34106940, -0.59618145, 0.13810353, 0.02843589, 0.15776381, 0.17150167, 0.29425609, 0.39825022, 0.51110744, 0.34448051, 0.48304087, 0.25186077, 0.18683070, 0.20487294, 0.20822504, 0.18495747, 0.37898535, 0.32022488, -0.05200696, 0.49492884, -0.05673935, 0.32797697, 0.97582901, 0.18784408, -0.05761352, -0.39999387, -0.13653204, -0.18574359, -0.12220368, 0.03372041, -0.00073642, -0.10278257, 0.05649491, 0.04602138, 0.35272706, -0.15852302, 0.40651482, 0.52793670, 0.12115562, 0.06390042, 0.39412865, 0.01480550, -0.24236515, 0.54041499, -0.05927905, 0.17344399, 0.85717845, 0.04099326, 0.25313157, 0.33295959, 0.18592270, -0.07183590, 0.52084529, -0.14311093, 0.42288300, -0.03089364, -0.33968985, 0.36755151, 0.19046567, 0.55775481, 0.29566777, 0.26234940, 0.46829370, -0.14547275, 0.07588457, 0.08165625, 0.44665784, 0.46737659, 0.65721822, -0.02127587, -0.04625583, 0.29030350, 0.21296954, 0.23164052, 0.18755293, 0.08334045, -0.05074158, -0.05707910, 0.54113305, 0.50269371, 0.23063600, 0.10728219, 1.14058781, -0.34628537, -0.20923734, -0.29175508, -0.13964543, -0.20727538, -1.03037560, 2.44114065, -0.08303710, -0.60705370, 0.44294146, -0.93751365, 0.04155591, -0.88734847, -1.15708923, 0.05163007, -0.84705186, 0.00228885, 0.49959609, -0.25432116, 0.58688188, 0.57255918, 0.10331566, 0.74338371, 0.09248629, -0.17650123, 0.31352767, -0.43981206, -0.34828645, 0.20557903, 0.52439755, 0.09300456, 0.39025816, 0.02118490, 0.24433884, 0.12929440, -0.06336470, 0.10373951, 0.09846109, 0.37635660, 0.12506221, 0.00266512, 0.16995160, 0.44606140, 0.27266148, 0.06798064, 0.51921445, -0.00962239, 0.53902400, -0.21111016, 0.09305663, 0.78217566, -0.28201047, -0.29382718, -0.28791881, -0.19190800, -0.54722613, -0.92765409, -0.70696735, 0.27040541, 0.11948518, 0.44426036, 0.14955696, 0.53632009, 0.50873423, -0.01685912, -0.39217988, -0.17135158, -0.02030083, -0.41342410, -0.41845563, -0.16464287, 1.10973203, 0.60937428, 0.17648323, 0.35092914, -0.08989694, -0.05312960, 0.82766306, 0.48921254, 0.03172178, -0.03189686, 0.00966137, 0.00481078, -0.80530572, -0.52459306, 0.69159025, -0.48132393, 0.82318550, 0.51529557, 0.33059731, 0.30020168, -0.00861206, -0.34663159, 0.25396895, 0.13728735, 0.66696870, -0.59061366, 0.05252568, 0.92485654, 0.04980775, 
bias
-0.89067650, 0.19903454, 0.24849522, 4.31309700, 0.25379598, -0.00937450, -0.16116399, 0.22101808, 0.13758719, 0.10810512, -0.08374989, 0.15595484, -0.82152116, 0.18054880, 6.43933487, -0.34432578, -0.38081694, -0.34264255, 1.79041028, 1.12930381, 0.14303651, 0.11437541, 0.64342791, -0.18184441, 
layer20
kernel
0.05562944, 0.06252022, -0.00349378, 0.20656835, -0.06530750, 0.09267703, -0.11528496, 0.11303965, -0.04571912, -0.09314158, -0.02253051, 0.06441712, 0.12062725, -0.12627922, -0.07328221, 0.06763023, -0.08330867, -0.02916965, -0.17327584, 0.11048464, -0.19092861, -0.00519711, 0.10266478, -0.04200274, -0.09440439, -0.03628506, -0.00361502, -0.13264227, -0.38327143, -0.16976425, -0.12103700, -0.09202383, 0.21544139, -0.05850989, 0.20249705, -0.25055477, 0.24415699, 0.12282242, -0.09433000, -0.18806486, -0.28343636, -0.37880784, 0.04627229, -0.02272698, -0.15019895, -0.25025719, -0.03613628, 0.08116248, 0.03767380, 0.00843201, -0.27371606, 0.05532156, -0.11123770, -0.13858768, -0.07053702, 0.77228582, 0.10404886, 0.16723490, -0.28603977, -0.05445674, -0.42160058, -0.16031633, -0.01595866, 0.30549827, -0.12161555, 0.12853412, 0.28755322, 0.23977183, -0.16723490, 0.31890300, -0.53359503, 0.06356440, -0.06241082, 0.15875095, 0.27009645, 0.42206153, -0.01446775, -0.31559041, -0.01457527, 0.14489250, -0.32705948, -0.02915054, 0.01878059, 0.04628245, -0.16477221, -0.01093145, -0.01714386, -0.15167837, -0.12157208, -0.42703149, -0.41097477, -0.03032134, 0.19631214, -0.22880782, 0.54095751, -0.05925683, -0.06066193, 0.12152396, -0.04918986, 0.25745472, 0.01865880, 0.22223812, 0.10444925, 0.03373257, -0.05255811, -0.08437312, -0.37644416, 0.00622794, -0.02696271, 0.25465339, 0.12172406, -0.11645491, 0.13966586, 0.01274768, 0.07263425, 0.10258170, 0.11725529, 0.17928453, 0.19062321, 0.11098566, 0.15144691, 0.21041320, 0.11548223, 0.18986195, -0.04402710, -0.08267926, 0.06303702, 0.23523279, -0.13856286, 0.03475928, -0.14638814, -0.17468564, 0.25151569, 0.07078325, -0.04770262, 0.13350409, 0.36106968, -0.27301547, 0.17942823, 0.07955705, 0.01068072, 0.09738132, 0.11200432, 0.01801199, -0.36685792, -0.13691473, -0.14436051, 0.04765299, -0.01527480, -0.19534220, -0.03915604, -0.03547695, 0.08961214, -0.19954687, 0.31587622, 0.32708868, 0.05168246, 0.08899896, 0.50175792, -0.14322175, -0.05089409, 0.19341506, -0.08098380, -0.15057993, -0.05391620, -0.06534766, 0.05369721, -0.21216090, -0.21737672, 0.36162049, 0.03896772, -0.09032087, -0.25360617, 0.06778278, -0.03275395, 0.24400115, -0.39397424, -0.45093030, -0.02961547, 0.11997847, 0.12806690, -0.08610814, 0.02306468, -0.15831429, -0.01743016, -0.16808781, 0.07789332, -0.02031588, -0.13876723, -0.09756676, 0.05788287, 0.27315322, -0.23875357, -0.06465931, 0.14127873, 0.13492492, 0.11578876, 0.54089570, 0.13163589, -0.01917354, -0.05509123, -0.23516554, -0.25998276, -0.07048986, -0.20287326, 0.39857045, 0.04301900, -0.17611253, -0.05595086, -0.31484973, -0.06611695, 0.09725060, -0.05449322, -0.02762036, 0.12087180, 0.17940156, -0.02992296, 0.04884924, -0.65192163, 0.19709258, 0.02352693, -0.00967509, 0.02703041, -0.14363022, -0.11799622, 0.67147130, 0.03486025, -0.17365292, -0.39119285, -0.16128476, 0.10343371, 0.26471847, -0.14133613, 0.06084336, 0.14023896, 0.18811569, 0.29384348, -0.23499499, 0.06189066, 0.29344451, 0.18624328, -0.24356230, -0.22317833, 0.06097769, 0.28189114, -0.17578995, 0.00640810, 0.09068253, 0.16577220, 0.23049566, -0.20732413, -0.05588169, 0.21603523, -0.05988880, 0.01095421, 0.13223447, 0.07988077, -0.01391598, 0.42719224, 0.04344660, 0.19251527, -0.25314450, 0.12901136, 0.35750347, -0.03053605, 0.26603043, 0.01150073, -0.18524911, -0.15148710, 0.08453758, -0.05121749, 0.05417829, -0.07556678, 0.04600294, 0.05877417, -0.01514650, 0.12700523, -0.08360957, 0.01589775, -0.00068427, 0.06412129, -0.03528659, 0.03617042, -0.06880555, -0.14821696, 0.05263161, 0.06076277, -0.10941717, 0.09878729, -0.09131783, -0.07601276, 0.06543102, 0.16593923, 0.00139824, 0.05030902, -0.12844545, -0.06187937, 0.05290869, -0.20665511, -0.22847766, 0.12925099, 0.24151260, 0.13591491, -0.05228623, 0.13569522, -0.03172690, 0.03480257, -0.10618353, 0.35208991, 0.38372529, -0.01464600, 0.25586569, 0.09335475, 0.12988487, 0.18580753, -0.12281937, -0.02431583, 0.11560354, 0.04104001, 0.05795210, -0.21316753, 0.37191570, 0.07279716, 0.16025147, 0.12469850, -0.06043254, -0.01921402, 0.34756228, 0.03953671, -0.22594555, 0.03186990, -0.40619087, -0.27104446, -0.07080530, -0.09260310, -0.04724111, -0.06337217, 0.13045394, 0.26535937, 0.06176468, -0.18449031, -0.00342558, -0.07895245, 0.04358769, -0.41324839, -0.11963430, 0.01089692, -0.20378017, 0.03038773, 0.17286693, -0.04120737, -0.01571939, 0.01211027, -0.26758513, -0.04439143, 0.11042215, 0.04374226, 0.06052816, -0.03180974, 0.13787311, 0.00490536, 0.08145333, -0.13057336, -0.06072459, 0.20161803, 0.03871137, 0.12277794, 0.00209142, 0.16618428, -0.00176477, -0.07113325, 0.14642996, 0.01377487, -0.01543583, -0.11657703, -0.08109899, -0.17566280, 0.11675420, -0.06023737, 0.08220629, -0.09903733, 0.06701408, 0.01412921, 0.03153604, -0.11355533, 0.11766903, 0.15023585, 0.11604069, -0.03670194, 0.06221975, 0.28058881, 0.71029931, 0.34023747, -0.16523372, -0.14526512, -0.05433515, -0.10309967, 0.05964869, 0.06877597, -0.03417373, -0.04572209, -0.19728632, 0.17706062, -0.02176834, 0.04730758, -0.15846325, -0.02860309, -0.07708907, -0.00813221, -0.06754238, -0.03418531, -0.02410157, -0.17293499, 0.03729118, 0.25029194, 0.09657194, -0.08178798, -0.05772782, 0.04360645, 0.04849303, -0.14651437, -0.10087875, 0.20142621, -0.02259005, 0.03399896, -0.02012606, 0.12274409, 0.16746865, 0.01118114, 0.08514232, 0.00969032, -0.03615236, 0.41642591, -0.14717434, -0.03121645, 0.09210015, -0.14686450, -0.25453416, 0.08753000, 0.22525421, 0.09566332, -0.17955269, -0.13927341, -0.43129829, -0.04349389, 0.38699105, 0.13478070, 0.15089244, -0.00232381, -0.03137137, 0.24926686, -0.31324896, 0.00601285, 0.35321841, 0.18993236, 0.25546366, -0.10786681, -0.22697768, -0.02934892, -0.06646387, 0.11634750, -0.01001722, 0.00886780, -0.19381721, 0.30892596, 0.05107474, 0.04257023, -0.01255429, -0.05231350, -0.12692454, -0.03635264, -0.08890436, 0.05393340, 0.21478073, 0.12416118, 0.10138717, -0.17780872, -0.04866870, -0.00001312, -0.00828416, 0.31195453, -0.17015702, -0.21644494, -0.07529937, 0.12843269, 0.20780669, 0.26501465, -0.25931016, -0.40159661, 0.12117983, -0.15679219, -0.30853182, 0.16290414, 0.16673431, 0.11539383, 0.14481275, -0.01153123, -0.04482105, 0.50069189, -0.16013339, 0.03991111, -0.21465209, -0.07285458, 0.38171238, 0.36095023, -0.10250782, 0.04639693, 0.23211247, -0.00748252, -0.21864927, 0.05589787, 0.02839629, 0.28272730, 0.41207632, -0.01450703, -0.21217330, 0.48876548, 0.04554483, -0.07558141, 0.17186889, -0.20211850, 0.01898056, 0.15397476, 0.36947125, 0.01142881, -0.20689027, -0.25614172, 0.25256291, 0.12342855, -0.04926495, -0.48060963, 0.13653311, 0.36103055, 0.19509409, 0.21262144, -0.03378519, -0.05196776, 0.35578874, -0.10016796, 0.03550516, 0.17969625, -0.10287078, 0.12572184, -0.14660724, 0.23358874, 0.22752787, 0.24865897, -0.00582539, -0.30156863, -0.13129129, 0.02780623, -0.03407185, -0.00375623, 0.02529196, -0.02100544, -0.03717933, -0.08355037, 0.20056804, -0.23486023, -0.06852545, -0.11513218, -0.00969992, -0.41386306, 0.27740139, 0.11937451, 0.04165734, -0.06057107, -0.00141319, -0.09409729, -0.06469557, 0.05644659, -0.08225410, -0.13917206, -0.24558389, -0.01045853, -0.08749810, 
bias
1.18914711, 2.02594233, -0.35065004, 1.79877639, -0.35802436, -0.34567559, -0.28756148, 0.76048046, 0.55909586, 0.22036698, -0.97989380, 0.95037651, 0.29411492, 0.43854058, 1.61473775, 0.46855462, -0.65680027, 0.72202778, -1.24529803, 0.54270190, -0.97591656, -1.95776987, -1.31820226, 1.68357968, 
layer21
kernel
-0.01008359, -0.74479181, -0.75952399, -0.50293911, -0.53322184, -0.25228801, -0.20512468, 0.38201272, -0.63102692, 0.10771471, 0.30298612, 0.32960704, -0.01959061, 0.03512269, 0.19465588, 0.18850075, 0.18757749, 0.64136422, 0.26521748, 0.18612187, 0.21578273, 0.15213548, 0.13372102, -0.22245641, 0.32280898, 0.27905923, 0.31168616, -0.25538036, -0.16824895, 0.22251378, -0.52278852, 0.79551125, 0.33426020, 0.38516843, 0.18265431, 0.11971829, 0.49344867, -0.29309452, -0.82241446, 1.23974609, 0.45670250, -0.58181447, 0.25612959, -0.25437978, -0.61812317, -0.59118825, 0.36221603, -0.79687524, -0.88656682, -0.73564351, -0.43487483, 0.83180320, 0.59291309, 0.96763420, 0.95711333, 0.66762930, 0.10568572, 0.46520409, 0.19040787, 0.15729345, -0.66335648, 0.16837610, 0.55600166, 0.24030209, 0.81216705, 0.35388306, -0.33210286, 0.53928465, -0.10008087, 0.46044400, 0.03836283, -0.61452532, -0.08148728, 0.27521932, 0.23487511, 0.03562572, 0.19033672, 0.46495688, 0.34891737, -0.10785082, 0.21929666, 0.35540372, -0.00858755, -0.29436290, 0.45038229, 0.25571156, -0.32123029, 0.19797024, 0.30049056, 0.16108650, -0.60121661, 0.56211567, 0.28058863, -0.59370923, -0.80141366, 0.46889892, 0.39664033, 0.25587681, 0.30795929, -0.11211721, 0.02650767, 0.48601189, -0.68669659, -0.67623001, 1.53084648, -0.37725082, 0.63982463, 0.17474586, 0.09953481, -0.09996177, -0.36611733, -0.27133244, 0.66221339, 1.03494859, -0.51064295, -1.10326207, 1.09984636, -0.38692832, -0.50575924, -0.63623506, 0.24388129, -0.15111905, -0.28238887, -0.12458721, 0.27286121, 0.25420290, 0.09898414, -0.10988873, 0.17141800, -0.43281201, -0.36517197, -0.36158976, 0.33061442, -0.04293352, 1.87622106, -0.39261320, -0.82622629, -0.42011946, -0.68921393, -0.56154323, 0.52599269, -0.46968266, -0.51742941, 0.60306215, -0.06514848, -0.40104726, -0.45382577, -0.09704997, -0.45764527, 0.20139170, -0.21302380, -0.38750541, -0.06349915, 0.30274111, 0.29661825, 0.19026202, -0.08141128, 0.23244168, -0.24831575, 1.14293277, 0.52339065, 0.58144438, -0.33455056, 1.37819624, 0.66830122, 0.15557700, -0.03202027, 0.49952617, 0.18597251, -0.00343699, 0.15347731, 0.12338353, -0.14583322, -0.18642227, 0.16397259, -0.71731269, -0.15238854, 0.72952533, -0.21874984, -1.26795888, -0.40577316, -0.11106929, -0.38440552, 0.25916168, 1.34298646, 0.52847826, 0.28624144, 0.23715939, 0.53778696, 0.33533254, 1.15421271, 0.05843403, -0.58032143, 0.42471170, 0.10794622, -0.26572612, -0.01098150, -0.24322058, -0.56789690, 0.23889166, -0.14673693, -0.15301162, -0.20971058, -0.55247474, -0.48473838, -0.30073133, 0.04241083, 0.13646695, 0.07933602, 0.34755021, 0.30727538, 0.22151157, -0.46208179, -1.35711801, -0.05056829, -1.24636221, 
bias
4.25918961, -0.12630653, -0.06736559, 0.19391131, -0.24675415, 0.66074932, -0.06561738, 0.15860593, -0.05104488, 0.00575575, 0.40069437, 0.09138328, -1.39913154, 2.07686591, -0.11573732, 2.99193311, 2.02820921, -1.68902206, -0.34461814, 2.74143410, 0.54951227, 0.44243178, 2.12722635, 1.85819149, 
layer22
kernel
-0.03955658, 0.12931852, -0.04311530, -0.04623603, 0.07566393, -0.04626340, -0.18406811, 0.29104879, -0.06849173, -0.10446221, -0.22666329, 0.20804843, 0.18822908, 0.01378321, -0.01613744, -0.09997275, 0.06006030, -0.02841504, -0.15286085, 0.16118279, -0.04333430, -0.09061056, 0.02315908, -0.02753904, -0.15199240, -0.12767620, 0.01838304, 0.07074390, 0.17222346, -0.05822917, -0.14265499, 0.06717753, 0.04318555, -0.03247022, 0.11178963, 0.09103981, 0.09084529, 0.05975299, 0.21618715, 0.13798627, 0.02008517, 0.00256536, -0.11574507, 0.45338348, 0.22357926, 0.00263425, 0.01671333, 0.01917737, -0.03243083, 0.00175233, -0.04749879, 0.23577274, 0.01207097, -0.05281334, 0.03949676, -0.22864641, -0.09457482, -0.07361859, -0.07657783, -0.12392563, -0.07247113, 0.00512582, 0.25389051, 0.04369405, -0.08690497, 0.16330162, -0.04879723, 0.21922517, -0.02852041, -0.06920993, 0.17501777, 0.02340214, -0.19075239, -0.11755136, 0.13519940, -0.14801343, -0.08010679, 0.17525280, 0.08724274, 0.14647880, -0.07059219, -0.13028865, -0.08286910, -0.14739957, 0.36738634, -0.33086255, 0.12629865, -0.03121019, -0.14985496, 0.14034036, -0.04177984, 0.26257229, -0.19366816, 0.23525617, 0.07676902, 0.17847548, 0.24240470, -0.18524490, 0.00172274, -0.21434921, 0.01737081, -0.03021865, -0.17161046, 0.14866789, 0.14512818, 0.38386205, -0.24712431, 0.00510882, -0.06069950, 0.04680285, 0.12061240, 0.23191667, -0.08364207, 0.14512818, -0.12041575, -0.14421047, 0.35213575, -0.01135657, -0.35606876, -0.06040452, 0.09662045, -0.12841839, -0.08638283, 0.35081527, 0.23890916, -0.15606467, -0.09039295, 0.42875323, 0.28740808, 0.20097809, -0.12870146, 0.33571830, 0.07359761, 0.72767276, -0.26853690, -0.25400609, -0.25740293, 0.00811461, 0.14417583, 0.22381221, -0.13106035, -0.07822105, -0.06222772, -0.05566999, 0.22412023, -0.38877195, 0.06176078, -0.08632100, 0.05108526, -0.05750367, -0.07302573, -0.13242872, 0.32799360, 0.06614887, -0.06686930, -0.22084552, 0.34842771, 0.21128342, -0.13439354, -0.11526931, -0.04781057, -0.10230152, 0.09778243, -0.15456568, 0.04826903, 0.03733154, 0.11808556, -0.03007809, -0.27837718, -0.11781606, -0.06986145, -0.09403913, 0.30669579, -0.00059797, -0.01017700, 0.00874938, 0.51481080, -0.01771582, 0.13658382, -0.04224414, -0.15682092, -0.02178996, 0.12856911, 0.14693613, 0.03177494, 0.03307733, -0.00495075, 0.08174992, 0.02830190, -0.06812494, 0.00317666, 0.10552686, 0.02161677, -0.25586665, -0.11543310, -0.03991451, -0.05159575, -0.00478187, 0.03178936, -0.07069092, 0.08896711, -0.06788915, -0.02094865, 0.06366494, -0.00091529, 0.09982938, -0.09767416, -0.01146572, 0.04342750, 0.07181163, 0.06737190, -0.12129528, -0.00135239, -0.08004454, -0.01282351, -0.05905278, -0.06044523, -0.34711316, -0.12610875, -0.03906472, -0.03082659, -0.28372055, -0.19906823, -0.17616571, 0.10658848, 0.20428653, 0.21878178, -0.09731151, -0.03416049, -0.22380681, -0.09267303, 0.17345993, -0.22226064, -0.10108028, -0.51912355, 0.11402938, -0.20853847, 0.53071976, -0.13644871, -0.33938235, 0.21720651, 0.16684857, -0.00460098, -0.07599194, 0.00612726, -0.00803907, -0.23561041, 0.06077333, 0.21397066, 0.07402010, -0.00018980, 0.00408905, -0.05083825, -0.06213845, 0.00814651, -0.08792415, 0.24976726, -0.15006261, 0.16593850, -0.04671760, 0.07513242, 0.00234315, 0.19667909, 0.14824243, -0.03135883, 0.12210690, 0.18404141, 0.07413866, -0.02256465, -0.08771335, 0.23612121, 0.00567787, -0.06310923, 0.22580966, -0.03857038, -0.25791901, 0.14723313, 0.05214506, 0.14475313, 0.31587249, 0.04689140, 0.05929135, 0.09417438, 0.05436400, 0.26601163, -0.14488366, 0.10748801, -0.09175965, 0.09639397, -0.14050265, -0.26195154, 0.05809893, -0.05389810, 0.05419816, 0.24289779, -0.05547341, -0.16923329, -0.06920111, 0.08364145, 0.20088953, -0.14132781, -0.04399616, 0.00729050, -0.06593797, -0.13967748, 0.37987474, 0.05142262, -0.14777908, -0.25159949, 0.04950974, -0.06121204, 0.68353450, 0.11628781, -0.02368477, 0.02152184, -0.11403083, 0.16164219, -0.07582352, 0.15196946, -0.02187113, 0.10607769, -0.08372292, -0.07281422, 0.27427587, 0.09785587, -0.09296576, 0.03495620, -0.06249663, -0.02079639, -0.03224246, -0.00821511, 0.28459343, -0.09398677, -0.18646888, -0.07646836, -0.00525955, -0.03403238, 0.01739819, 0.27299991, -0.08311310, -0.13298096, 0.27485201, -0.02326704, 0.07283393, 0.07487124, 0.05792451, -0.08843789, 0.09806883, -0.10492160, -0.02030367, -0.13196230, -0.08769705, -0.09288294, 0.18826622, 0.07366738, -0.07167637, -0.12149792, 0.04931223, 0.14298230, 0.06111938, -0.22807093, -0.02294190, -0.12501962, 0.06156118, 0.05207486, -0.01545270, 0.19312136, 0.11733072, -0.05482090, -0.15927020, 0.11074022, 0.02945750, 0.11133936, -0.00278972, -0.20730090, -0.01069707, -0.03390109, -0.09191738, 0.09551220, 0.02888333, -0.07074793, 0.10974167, -0.13480550, -0.13939887, 0.02516072, 0.21332322, -0.04799462, 0.19582550, 0.26631275, -0.14060222, 0.15636256, -0.03577104, -0.11534842, 0.05382719, 0.12831658, 0.04206898, -0.14134680, -0.32637584, 0.06130406, 0.24360296, -0.11044658, 0.01541133, -0.08178011, 0.04330995, -0.07669212, -0.08506868, 0.02440063, -0.08755063, 0.19540970, -0.06809007, 0.06058659, -0.08285755, -0.07303917, -0.12620211, -0.24665685, -0.25942874, -0.18471326, 0.35920900, -0.12524422, -0.13729768, -0.00479694, 0.16890806, -0.06062650, 0.16379932, -0.25176561, -0.31626359, 0.42945433, -0.08692858, 0.08405491, 0.05208531, -0.27603218, 0.10504868, -0.17394650, -0.08664474, -0.14290223, -0.05502557, -0.07518792, -0.03192715, -0.10192049, -0.00472491, 0.09904602, 0.02433033, 0.27381378, 0.30518657, 0.07699473, 0.04574514, 0.06143153, 0.08664474, -0.45892966, 0.05995323, 0.44020453, 0.01421836, -0.03426779, 0.56405312, 0.29565978, 0.03437045, -0.22349766, 0.36396408, 0.08154856, 0.05458681, 0.19727726, 0.08584058, -0.16606250, -0.24285081, 0.20554918, -0.10488158, -0.09028868, -0.29310659, -0.10737877, 0.26797870, -0.15958545, -0.25408813, 0.09614145, -0.22599484, 0.02877610, -0.20882672, -0.13398935, 0.06769700, -0.03712605, 0.01118854, -0.11526907, 0.00783535, -0.21707606, 0.18145764, 0.05339258, 0.27358875, -0.05216556, 0.05255120, -0.18734729, 0.01723076, 0.10362998, 0.32954052, -0.28214279, -0.00831301, 0.27148530, 0.17220245, 0.05311212, -0.14015989, -0.01873823, 0.19071281, -0.01901869, 0.02730979, -0.00962328, 0.08378743, -0.15832406, -0.04371466, -0.21823353, 0.65866435, -0.39003438, 0.06296723, -0.09977361, -0.11562866, 0.05334094, 0.16545884, 0.07332963, -0.30373758, -0.05450176, 0.01820500, -0.19490394, -0.10413375, 0.09558334, -0.02429221, -0.01959232, -0.23669334, -0.01736978, -0.30758810, 0.83805299, -0.01302380, 0.09157262, -0.00338428, -0.03327930, -0.00326915, -0.14009787, -0.02226296, 0.03461241, 0.05453636, -0.27845058, -0.14193998, 0.08905183, -0.14892064, 0.12361576, -0.09802003, 0.19206496, 0.05778431, 0.09545076, 0.07470270, -0.01877263, -0.07426641, -0.06306828, -0.04583479, -0.04520459, 0.04018724, 0.00371534, 0.00719579, 0.24204147, -0.05255507, 0.05809872, -0.13279708, -0.18203221, 0.18077941, -0.11676120, 0.09070291, 0.25907958, 0.03335587, -0.07466704, -0.03561091, -0.24016227, 0.16850196, 0.04682350, 0.00304000, 0.14043917, -0.16361602, 0.17702101, 0.08268497, -0.11049719, -0.16862723, 
bias
0.79864985, -0.52937412, 0.42347917, 0.97537833, 1.04484749, -2.00152349, -0.41551086, 0.50640470, 1.45354986, 1.78411818, 0.41508371, -0.03433287, 0.08729088, 0.63184410, 0.94005901, 1.49147058, 0.62996984, 1.11131942, -1.86848521, 1.09101963, 0.03752226, -0.53598404, 1.84351194, 0.87425506, 
layer23
kernel
