layer0
kernel
8.86098385, -0.63190770, -9.04236794, 1.82896340, -0.64912248, -0.48243320, -10.58749771, 0.00240278, 10.69498539, 0.11447506, -0.90907079, 0.77896321, -5.09214258, -9.21520710, -5.82343674, 4.89922428, 9.61001682, 5.44657326, -5.08111048, -9.70809174, -4.33565283, 5.27818584, 8.18290138, 5.15394258, -0.29962915, 2.06821775, -1.34096766, -1.79589212, -1.07381225, -2.38472533, -0.35320193, 0.34144485, 0.37426665, -0.71228236, 0.88178009, 2.00555992, -0.06333820, -0.21188620, 0.13220528, 0.59809470, -1.79916263, -2.22456121, 0.48166302, -2.07105350, -1.86290729, -3.38982081, 1.15793097, -0.50162274, -2.05400157, -3.42075777, -0.08411021, -0.59277666, -2.20758224, 0.97230846, -1.48970211, -0.50769597, 1.83737600, -6.13379669, -1.88035548, 6.45307302, -1.71918213, -2.25182176, 2.20577216, 0.37917963, -3.00748253, 0.31409049, -0.63385856, -0.52476835, -2.42837167, -1.14929950, 1.35450256, -0.48989195, 
bias
-0.00525167, 0.06700841, 0.02647958, 1.32288659, 7.29389763, 2.66162205, 4.73352575, 2.25669169, 
layer1
kernel
0.08918504, 0.30439550, 0.55957562, 0.06777778, 0.27580506, -0.15418911, 0.07115600, 0.12374957, 0.33503845, 1.94421613, 1.79933465, -0.32277027, 0.03576397, -0.00612040, 0.06156003, -0.05484173, 0.60140294, -0.16357808, -0.08994590, -0.33597437, -1.07405984, 0.26484069, 2.35858130, -0.23912087, 0.81594282, -0.10504986, -0.25382417, -0.55544883, 1.60668850, 0.27327785, -3.00587106, -0.17619474, 0.04472044, 0.03841962, 0.09120818, 0.01472432, 0.44443819, 0.08805777, 0.09397440, 0.15183434, 0.74163073, 0.24166818, 0.39432722, -0.79738742, -0.80612040, -0.72483659, 0.16810969, -0.57738376, 0.04000913, 0.02014338, 0.05253319, 0.06737081, 0.35462219, 0.00390413, 0.07014708, 0.09377622, 0.03671499, 0.03266579, 0.03421402, 0.02876972, 0.47555950, 0.15910964, 0.06298373, 0.12324531, 
bias
-0.65779185, -0.29628330, -2.97187304, 2.94373178, -0.74121141, 2.34461427, -0.21220660, -0.09567404, 
layer2
kernel
0.28006911, 0.55425239, 0.48386723, 0.33157045, 0.15523972, 0.27663571, -0.22991665, -1.06337976, -0.84315032, -0.07705022, -0.19059120, -0.14609025, -0.13070564, -0.28302604, -0.24017797, -0.01303242, -0.01308010, 0.00262635, -0.06391987, -0.12358079, -0.10356368, -0.22671857, -0.37024549, -0.34128457, -0.17916021, -0.29358423, -0.22742841, -0.03438964, -0.06836825, -0.04548749, -0.18386811, -0.34417042, -0.27593917, -0.22264209, -0.40856537, -0.29018828, 0.13695705, -0.70844561, -1.12022674, 0.55328828, -0.10669909, -3.20324802, 1.08200622, 2.25319362, -0.01785902, 0.10629047, 0.31427896, 0.32379586, 0.14441340, 0.40059501, 0.35566640, 0.01882631, 0.09278975, 0.02987863, 0.94081527, 2.67657876, 0.33294559, 1.22658455, 1.15066862, -1.80246103, -0.57370752, -1.71353090, -3.31427264, -0.14559758, -0.44579163, 0.10931356, -0.32765225, -1.19616139, -0.20685932, -0.13694480, -0.77344388, -0.32165298, 
bias
0.01489275, 0.79602665, 0.57192910, 0.55746120, 1.55884242, -0.47067156, 1.65796030, 6.96798515, 
layer3
kernel
0.07754730, 0.29432854, -0.12915109, 0.02381931, 0.79076719, 0.00308008, 0.87641478, -0.47672611, 0.03983583, 0.08570494, -0.25619903, -0.41349533, -0.08764420, 0.38225156, 0.01224164, -0.23831467, 0.32103866, 0.27960548, 0.12004651, 0.04770991, -0.02049365, 0.06640287, 0.18548900, 0.37811220, 0.29270044, 0.77101582, 0.36385283, 0.13968712, -0.35980737, -0.02889822, 0.78434205, -0.24332212, -0.10594925, 0.52335232, -0.21633728, -0.24392107, 0.44303167, -0.73007226, -0.06563041, 0.14256911, 0.04975187, -0.13219611, 0.20138510, 0.61723220, -0.33381897, -0.03242490, -0.93203014, 0.36449036, -0.06764005, -0.07106154, 0.10343401, 0.08153653, -0.02958265, 0.13633287, -0.33730543, 0.30087981, 0.23424253, 0.22849013, 0.03237389, 0.00037180, 0.26728529, 0.30688313, -0.40828565, -0.30206716, -0.18432146, -0.41187522, -0.07324661, -0.05188605, 0.33183706, -0.24099082, -0.23500256, -0.01044294, -0.09311444, -0.22200479, 0.57574254, 0.70165157, 0.16196226, 0.21937013, -0.07758380, 0.01972528, -0.13231063, -0.14870310, 1.24248207, -0.06640622, 0.15781932, 0.10680194, -0.03533580, -0.12704162, -0.07845750, 0.01557326, 0.01820525, 0.06848025, -0.38924250, 0.04713281, 0.43459365, 0.00545429, 0.18080933, 0.69118780, 0.14354697, -0.02671595, -0.16420537, -0.12713608, 0.01145745, -0.32648006, -0.22977929, 0.15750076, 0.02096192, 0.08344676, -0.15944804, -0.06460395, 0.34982350, 0.31660515, 0.03006051, 0.13964990, -0.07887834, -0.06977074, 0.19191018, -0.02835283, -0.09844884, 0.58635610, 0.05424218, 0.11157230, -0.07606094, 0.00079802, -0.10328361, 0.09263833, -0.01015263, -0.51519912, -0.05136338, -0.22536285, -0.10106763, 0.00043071, 0.06207848, 0.21886466, 0.11931788, 0.31025413, 0.14805777, 0.26000765, 0.19242109, -0.21278965, -0.72462666, 0.04887681, -0.33237773, 0.28238219, 0.76470751, 1.07318521, -0.03533889, -0.01955013, -0.12090451, -0.13324721, 0.10802124, 0.08923689, -0.00759662, -0.15270177, 0.07947608, 0.07687976, -0.18385755, -0.03206930, 0.07894720, -0.54695696, -0.00228702, -0.01916339, -0.13997605, 0.66165555, -0.15480345, 0.08508749, -0.20078199, -0.03720452, 0.80147445, 0.78267819, -0.09210190, -0.02817096, -0.47629839, -0.21333808, 0.58193362, 0.28795940, 1.00903165, 1.60564911, 0.77076191, 0.70915121, -0.36683488, -0.11292668, 0.24345639, 0.10294638, -0.38041967, -0.31848040, -0.04256916, -0.06481099, 0.14707759, -0.22996357, -0.16430797, -0.38019443, 
bias
-0.25595748, 0.97166377, 0.58245528, -0.18740684, 0.16914184, -0.82271540, 0.84472096, 0.41669437, -0.30462810, 0.81870604, 0.53309935, -0.02936478, -0.46074572, 0.28853109, 0.15080418, 1.21357632, 1.03272808, -0.08204415, 0.59247869, -0.07479712, 0.45678553, 0.19621950, -1.38173020, -0.53061873, 
layer4
kernel
0.10325836, -0.08658395, -0.24861279, 0.47098389, -0.02601960, 0.02419157, 0.37995797, 0.16701750, -0.07435149, 0.16934098, 0.60793275, -0.17111777, -0.21097350, 0.05691705, 0.09832133, -0.17123130, 0.30848226, 0.07073078, -0.18482342, 0.10563449, 0.02410018, -0.14995666, -0.34305355, 0.27996832, 0.09024867, -0.14618406, 0.07074180, 0.59178692, 0.04738643, 0.04394923, -0.01326409, 0.71399868, 0.02999476, 0.04941350, -0.19941668, 0.34501317, -0.22597337, -0.03675194, 0.64373225, 0.29668385, 0.74913090, 0.36455923, -0.16960511, -0.31586242, 0.21379915, -0.05786920, 0.06499861, -0.42793185, 0.43569469, -0.23743883, 0.77577317, 0.12740619, -0.29300961, -0.17324287, 0.36201105, -0.92116898, -0.07399171, -1.34158480, -1.04685020, 0.43914479, 0.08988174, -0.12186185, 0.26673096, 0.92397207, 0.43836522, 0.27010536, -0.31688684, 0.36412844, -0.04984909, 0.22501113, 0.05383702, 0.32701004, -0.02784512, 0.27344564, 0.27481857, 0.05769245, 0.39563808, 0.17241949, -0.08924167, -0.08380708, -0.11544210, 0.03724124, -0.07316673, 0.03003325, -0.39215094, -0.48831627, -0.15338524, -0.27935886, 0.41312155, 0.00905763, -0.36219287, -0.01117810, -0.07665517, -0.08096164, -0.91072482, 0.82504481, -0.36846241, 0.13663727, 0.19474977, 0.75817025, 0.34867501, -1.12809074, -0.12788916, -0.12309852, 0.69485056, 0.16506866, -0.05920602, -0.27264968, 0.09195304, 0.02723544, -0.06825197, 0.46499249, 0.09611112, -0.01042491, -0.10466489, 0.21930918, -0.14707734, -0.14624572, -0.10698154, 0.11523830, -0.13394062, 0.27285472, 0.28245866, 0.03687226, 0.46030298, -0.19996768, 0.15966545, -0.11276051, -0.00262474, 0.17450011, 0.13505536, -0.01225145, 0.24976456, 0.49520731, -0.04501884, 0.27623564, -0.54490811, -0.13649714, 0.14451049, -0.01343813, 0.06932902, 0.01188498, 0.16107742, -0.27587548, 
bias
-0.28764993, 0.90485179, -0.89860439, -1.69265592, 1.37619615, -1.37729383, 0.33599895, 0.71020216, -0.94441628, 0.41044962, -0.16744900, 0.78615701, 
layer5
kernel
0.42460853, 1.69927824, 0.45668629, -0.61074406, -0.67532170, -0.26042092, -0.10536074, -0.49467313, 0.00308148, -0.27907899, -1.73008871, -0.32095760, 0.24122074, 1.47010636, 0.40169954, -0.21106814, 0.66235197, -0.00666917, -0.14231056, -0.85099322, -0.15965092, -0.14673534, 1.16527236, -0.02047957, 0.02995697, 0.54436779, 0.15020341, -0.05745647, -0.61559379, 0.13574189, -0.20828952, -0.39928707, -0.49077728, 0.38073751, 1.42863035, 0.25356302, 0.12541305, -0.12009048, 0.16682929, -0.18712159, 1.10576379, -0.06204120, -0.18562461, -0.89286101, -0.15011309, -0.00571575, 0.03757568, 0.18537711, 0.15614846, 1.65479147, 0.01943424, -0.32308903, -1.21411324, -0.51802164, -0.13854375, 2.77123904, 0.07741348, -0.29273397, -0.92059278, -0.29418942, 0.30747071, -0.66042525, 0.24488497, -0.25324285, 0.01738981, -0.21598738, -0.51811820, 0.34174424, -0.34394497, -0.12245573, -0.22243242, -0.13982590, -0.64682680, -0.08682801, 0.90636158, -0.84873682, 0.03671345, 0.36942387, -0.15712798, -0.02797481, 0.18862058, -0.42616522, 1.25890183, -0.08327366, -0.02403302, 1.12734342, 0.45625570, -0.12919664, -0.63714850, -0.30965206, -0.43158084, -0.83897054, 0.10673712, 0.47198525, 0.74838227, 0.09554227, 0.32194850, 0.59757346, -0.27974263, 0.42802995, -0.89763457, 0.60850173, 1.50298679, 0.09771618, 1.43117595, 0.52220285, -4.23809481, 0.71306831, 
bias
-0.12558520, 0.86028522, 0.34183806, -0.15866223, 0.01343670, -0.00259291, -0.08330035, 1.47649336, 0.45816630, 0.33681619, 0.22458184, -0.04909468, 
layer6
kernel
0.06263857, -0.13238937, 0.24283239, -0.05486590, 0.09931743, -0.01778062, -0.16957626, -0.11023981, -0.04495955, 0.25217992, -0.15362450, -0.00391174, -0.39125308, -0.72970158, 0.19458708, -0.14354955, -0.03328874, 0.08715880, 0.72637528, 0.43158418, -0.08009046, 0.00073412, -0.42784211, -0.06839653, -0.02887649, 0.07507886, -0.12392825, 0.36528754, -0.05363206, 0.12037885, -0.24737523, -0.16182864, 0.00024322, 0.24857841, 0.26253539, 0.13956968, -0.15557531, -0.08772269, -0.02055081, -0.06612319, -0.38680407, -0.40387762, 0.11907325, 0.48129731, -0.06384180, 0.04386134, -0.30732378, -0.88841301, 0.11453021, -0.03611558, 0.24297844, -0.09625233, -0.03408238, 0.05445635, -0.00639831, 0.12937051, 0.05533671, 0.79483634, 0.08069936, -0.05160567, 0.19086301, 0.36523443, -0.04705609, 0.24473564, -0.17514101, 0.05076671, -0.62624180, 0.41998661, -0.07685095, 0.00084648, 0.70144361, 0.10983419, -0.12728557, -0.19591287, -0.15834846, 0.67326987, -0.42505580, -0.36870918, -0.75648952, -0.21498403, 0.83970916, -0.19966930, 0.16167146, 0.07039715, 0.25945550, 0.16921648, 0.00393973, 0.36358872, -0.28329501, -0.16424382, 0.01983577, -0.02263289, -0.29675043, -0.25770047, 0.03020156, 1.00915623, -0.34309435, 0.19909489, 1.03804827, 0.01153365, -0.03768247, -0.03846507, -0.26733810, -0.49930245, 0.22366871, -0.59665859, -0.56879783, 0.01193474, -0.12821786, -0.34033969, 0.02686670, 0.09436385, -0.27870512, 0.04422954, 0.64018953, -0.44448856, 0.19840026, -0.16803287, 0.27713051, 0.21155946, -0.33402750, 0.41092417, 0.75586760, 0.03796318, 0.51474679, 0.40583006, -0.20618981, 0.65495586, 0.15415721, -0.00218319, -0.23566283, 0.04599852, 0.37022004, 0.44701880, 0.24312647, 0.00263474, 0.62816364, 0.38190681, 0.12625881, -0.08738988, -0.04557317, -0.50211352, -0.37188959, -0.01780406, 
bias
1.09152114, 0.18334933, 0.61502731, 0.36179510, -0.80531788, -0.98007298, 1.76797926, -0.67591536, 1.71030700, 0.90140873, -1.68975091, 0.77862740, 
layer7
kernel
-0.52092218, -0.49948180, -0.41213202, -0.40339705, 0.14313449, -0.60430151, -0.12238892, -0.22472711, 0.09901293, -0.04385092, 0.11236127, -0.04956905, -0.05464389, 0.12572740, 0.03248613, 0.12830056, 0.59411377, 0.12351163, -0.14573097, -1.32077396, -0.02131629, -0.00943037, -0.25384495, 0.04921555, 0.01534285, -0.06468031, 0.08024956, 0.35633695, 1.04893923, 0.33235526, -0.37979734, -1.27311611, -0.57347572, 0.01024762, 0.30576682, 0.16304958, 0.30371103, 0.53118491, 0.03118793, -0.23217681, -0.60494679, 0.19059290, 0.34999788, -1.27127945, 0.64405549, 0.04154454, -0.29698509, 0.05276491, -0.03812421, -0.56560642, -0.02727925, -0.06465265, 0.05092961, -0.10219290, -0.07235832, -0.11629348, -0.10254633, -0.09818067, -0.52239180, -0.11601482, -0.04075380, 0.03316036, -0.06845710, -0.66223758, -0.22712244, -0.63997751, -0.63997751, -0.32851020, -1.11856937, -0.17295043, -0.18381962, -0.24642612, -0.08314195, -0.02737654, -0.09339715, -0.37675759, -0.02043338, -0.30351874, 0.03675147, -0.05959460, -0.00039509, 0.10442330, -0.03107908, 0.09753028, 0.17075357, 0.20594428, 0.06397212, 0.14414890, -0.08942795, 0.10478609, -0.01877350, 0.02677383, 0.00734121, -0.13515708, 0.86888427, -0.12230807, -0.06485116, 0.49989936, -0.26425332, -0.16945873, 0.22250529, -0.19960982, -0.15156157, -0.45532966, -0.24830300, -0.03960352, -0.12302285, -0.05457829, 
bias
2.49481750, 0.10124770, 1.90841401, -0.09401701, 1.08741450, 1.54346716, 1.32928276, 0.27297503, 1.18429339, 0.60108370, -0.16405417, 1.65037453, 
layer8
kernel
0.97531819, 0.08730899, -0.09313547, -0.10973212, 0.16164081, -0.11114460, 0.14195435, -0.18980214, 0.27031356, 0.57487977, -0.36018267, -0.06113395, 0.51932704, -0.95842010, 0.68324256, 0.26405132, -0.47732955, -0.35948589, -0.19463012, 0.06946038, -0.54408675, 0.47074786, 0.62651461, -0.67634749, 0.10607101, -0.79531956, -0.58019567, -0.26240861, -0.43663770, 0.60064310, -0.13067181, 0.26347357, -0.05963832, -0.62492436, 0.00748807, 0.22257872, 0.15043323, 0.14610422, -0.32395452, 0.04175695, 1.51515484, -0.21164067, 0.02571855, 0.05519493, 0.05354149, -0.11658275, -0.31048650, 0.23220350, -0.51651317, 1.79734039, -0.19447663, 0.15422206, 0.11579724, -0.88664615, -0.23028751, 0.28256619, 0.31341058, 0.05528469, -0.32465050, 0.01510363, 0.22166458, -0.05436996, 1.14230800, 0.12364013, -0.92673039, 0.00048569, -0.05069245, 0.31322166, -0.03287559, -0.52144432, 0.39082965, 0.44206104, -0.10793038, 0.19652538, -0.04941268, 0.63182753, -0.20614192, -1.04758966, -0.21442851, -0.46323109, 0.38343421, 0.02231499, -0.20972255, -0.22118056, 0.24553142, -0.03679450, -0.16008836, -0.09242638, -0.51547515, 0.91640025, 0.40092510, 0.05545583, -0.70467049, -0.43989089, 0.47533569, -0.61922741, 0.14712414, -0.50121087, 0.62634307, -0.35698485, 0.07918790, 0.74397421, 0.40915170, 0.40335539, -0.44836208, -0.41324323, 0.12035879, 0.73033577, 0.26666787, 0.72524613, -0.41067132, 0.23359935, -0.30383462, -1.18933582, -0.71846288, -0.62067050, 0.85412854, -0.14280227, -0.26440677, -0.37929866, 0.67579919, 0.04508881, -1.31151938, -0.27245152, 0.31274366, -0.16020918, -0.18973541, 0.09582704, 0.71673089, -0.21702321, -0.18653762, 0.63103014, -0.53624696, -0.37870863, 0.25270602, -0.89421207, 0.33133501, -1.30403590, 0.35852578, 0.08444557, 0.58754498, -0.22285223, 1.30067217, -0.02230274, 
bias
-0.83069265, 1.42814195, 1.60173202, -1.22522449, 0.41512066, 0.41464603, 2.40279722, 1.30012548, -0.57599580, 1.55018568, -0.39915812, 0.44071078, 
layer9
kernel
-0.52789974, -0.21653721, 0.63371098, -0.49465308, -0.05716987, 0.80717206, -1.39000118, -0.21147792, 1.49176490, 0.13200682, -0.77543885, -0.02885118, 0.20712113, 0.35653991, 0.21096796, -0.02897772, 0.68392491, -0.05003403, 0.25084019, 0.80545235, 0.18840775, 0.08476498, 0.35608694, 0.42148060, -0.18544653, -0.00967795, -0.37706226, -0.27346972, -0.57890671, 0.00380469, 0.40833151, -0.06362230, 0.37012067, -0.34964165, -1.01945519, -0.30768466, 0.01278520, 1.29732430, -0.04401175, -0.12687005, -0.23135760, -0.18648499, -0.30302465, 0.58452767, -0.31141812, 0.28112185, -0.58659285, 0.22372745, -0.18182796, -1.07452416, -0.17724274, -0.04794724, 1.80752814, 0.17328995, -0.64021266, -0.13547687, -0.67502910, 0.04154931, 0.88392770, 0.03233320, 0.21217541, 0.30024049, 0.22733080, -0.09975804, -0.40031317, 0.01925506, -0.07958226, -0.22417538, -0.15500127, 0.31400567, 0.65843511, 0.33370107, -0.06715180, -0.06875383, -0.11107415, 0.12673846, 0.76612687, 0.21912225, -0.01772247, 0.70311362, -0.07476145, 0.13509372, 0.61127204, 0.14773849, 0.16319321, 0.68476301, 0.13984901, -0.08705439, -0.22544439, -0.01721094, -0.19218998, -0.26078007, -0.15735370, 0.19494539, 0.76442999, 0.19278042, -0.07734834, 0.84394330, -0.08389245, -0.25445250, -1.58139074, -0.62093288, -0.60028613, -0.23399688, -0.54255158, 0.06452120, -0.27184933, 0.15207885, 
bias
0.52109993, -0.36144567, -0.67146420, 1.35305357, -0.08406827, -0.15925339, -0.08192317, 0.46149224, -0.08266008, 0.05831076, 0.03464276, 1.00889587, 
layer10
kernel
0.08315919, -0.17382951, 0.05633364, 0.08244383, -0.61806053, -0.61472219, 0.18503663, -0.01341277, 0.40750980, 0.02202675, -0.27326286, 0.11833045, -0.07157803, -0.21822813, 0.05645380, 0.33662638, -0.55665141, -0.12688379, 0.24538186, 0.79464591, -0.60456979, 0.62014323, -0.38494405, 0.19726385, -0.08217546, -0.74254799, -0.63410103, -0.30965641, 0.23168215, 0.26327518, 0.06380222, -0.00824135, 1.15079260, 0.66098875, -0.44812796, -0.23145808, -0.06388924, 0.32829085, 0.16375014, 0.47909516, -0.48067632, 0.58305722, 0.14803724, 0.83406830, 0.06927510, -0.03125285, -0.13667257, 0.06290101, 0.01593767, -0.21571340, 0.01857034, -0.21514672, 0.47524947, 0.13439587, 0.35152593, -1.17792356, 0.54853916, 0.01681129, 0.29976985, 0.26728061, 0.07420865, 0.25634268, -0.00746769, -0.10122985, 0.72375357, 0.14769994, 0.82450521, 0.02572593, 0.04136873, 0.30432722, -0.13917112, -0.31293574, 0.14522445, 0.25194496, 0.33785552, -0.20186757, 0.25728655, 0.06120571, 0.27620468, -0.10187969, -0.36879224, 0.17382422, 0.54128104, 0.08285028, -0.03457690, 0.28469151, 0.68533641, 0.90858996, 0.26825038, -0.02116438, 0.52092493, -0.32766926, 0.21575406, -0.13419729, 0.11285264, 0.61207235, -0.02990736, 0.48323616, -0.19246876, 0.20485440, -0.40184489, -0.32910389, -0.03076748, -0.31593186, -0.14322114, 0.41678628, 0.39358780, -1.17329276, -0.01493286, 0.07780622, 0.44424385, -0.33353591, -0.40442288, 0.46175379, -0.34850407, 0.16577949, -0.31885016, -0.39171407, -0.25813025, -0.06908656, -0.05199710, 0.05519194, 0.80602455, 0.28985026, -0.03127697, -0.06746196, 0.44672132, 0.07227736, 0.66563696, -0.07065679, -0.31726104, 0.16965039, -1.28066647, -0.11065811, -0.04911172, -0.26499429, -0.01884793, 0.08040737, 0.12852640, -0.14200601, -0.16980116, 0.12110741, -0.02544405, 0.02842210, 
bias
0.16233584, -0.19809179, -0.07623962, -0.99177015, -0.45339850, -0.49213520, 0.45934677, -1.67957211, 1.28923297, 1.49131560, -1.27616191, 1.77784979, 
layer11
kernel
0.08440492, 0.27656612, 0.10659492, 0.15039423, 0.57038653, 0.26943213, -0.04699301, 0.29614308, 0.04413113, -0.25197223, 0.07859617, -0.20465486, -0.23469992, 0.01150276, -0.30045074, -0.18375394, -0.11052813, -0.18331850, -0.00030847, -0.21413605, 0.01652916, -0.11154527, 0.03213198, -0.20070429, -0.21830451, 1.01340234, -0.16781966, -0.01870066, -0.04608094, 0.00189867, 0.11212503, 0.29100430, 0.11583360, 0.09500249, 0.05452386, 0.09421343, -0.15391834, -0.06040556, -0.12067682, 0.12121405, 0.49667543, 0.30380741, -0.15794761, 0.23504110, 0.01563863, -0.06525644, 0.00839499, -0.09014510, -0.17080882, -0.12921996, -0.14559692, -0.06787819, -0.10285880, -0.13841404, 0.07544375, -0.35703903, 0.05907388, -0.15616271, -0.06422348, -0.14820804, 0.11689176, 0.49201721, 0.23914246, 0.28662068, -0.53862876, 0.23102717, 0.24299935, -0.79514128, 0.38642821, 0.36319512, -0.71074343, 0.33190155, -0.12758775, 0.03997942, -0.12094857, 0.21437821, -0.05927153, 0.20225449, 0.31444702, -0.10189700, 0.29866695, -0.11725189, 0.16167331, -0.13233450, -0.11663205, 0.08398747, -0.06647717, -0.23347071, -0.37004074, -0.17613609, -0.24133724, -0.11966240, -0.18916877, -0.09148833, -0.16440035, -0.12306806, -0.15650542, -0.10170531, -0.34211373, 0.12768555, -0.09439488, -0.14711224, 0.30107090, -0.01737277, -0.12160936, 0.21412148, 0.01547931, -0.23757043, 
bias
-0.91344404, 0.86661041, -0.09885342, -0.13605475, -0.03482430, 1.49628401, 0.69098425, -0.02136061, -0.31261253, 1.21731019, 0.79734004, 0.68908322, 
layer12
kernel
-0.48494583, -0.20911767, 0.11126035, 0.12968950, 0.02435010, 0.24018832, -0.20576690, 0.01714407, -0.28648967, 0.52637339, 0.33050644, -0.00012204, 0.01431687, 0.20470075, -0.17819932, 0.18155007, -0.28648967, -0.41214305, 0.13639101, 0.12413029, 0.30415729, 0.14210254, 0.25130674, -0.18292084, -0.04641559, -0.13471565, -0.06541590, 0.05167019, 0.00930025, -0.05037558, -0.03569698, -0.05776247, 0.02610163, 0.33873102, -0.21033612, 0.10821420, 0.00608277, -0.12671952, 0.07135588, 0.04142753, 0.11834262, -0.01462148, 0.07284088, -0.15588632, 0.00185743, 0.04089446, 0.05045173, 0.07805739, 0.16213845, 0.09771208, -0.21140133, -0.09112892, 0.07326557, -0.29557723, 0.24128450, 0.08328827, 0.14320257, 0.05151890, 0.08521145, 0.07359843, -0.44203439, -0.03515342, 0.08669081, 0.01065143, 0.39676583, 0.23063308, -0.19705148, -0.12012447, 0.08143907, -0.19305719, -0.18758354, 0.20459624, 0.03580064, -0.06120875, -0.07833240, -0.08365811, 0.01620830, 0.10488701, 0.09712034, 0.20356068, 0.00093038, -0.34439626, 0.09112892, -0.07404224, -0.07426415, 0.13854258, 0.02128437, 0.21421212, -0.01214929, -0.11006479, -0.16776004, 0.01394302, -0.04194001, -0.04046065, -0.03387747, 0.03713207, 0.09935281, 0.29524747, -0.10148525, 0.01799255, -0.04529034, 0.04936138, 0.03642128, -0.05214811, 0.15751055, -0.34022278, -0.24833354, 0.03336800, 0.02041579, 0.03852950, 0.09513637, 0.05243890, 0.16487719, 0.13473210, 0.02655870, -0.01955554, -0.14607285, -0.22720291, -0.12998255, 0.01542392, 0.15586273, 0.12513606, 0.09247080, -0.00727578, -0.04764088, -0.11660627, -0.15343951, -0.19550693, 0.05117881, -0.00766955, 0.01233429, -0.03693017, -0.07327875, 0.02893347, 0.12697773, -0.10303613, -0.02621945, -0.11980494, -0.09440940, -0.03942610, -0.03770560, 0.06508821, 0.02048849, 0.00372270, -0.26439190, -0.13904908, -0.10806100, 0.27948865, 0.01662381, 0.28445470, -0.40046135, 0.01515883, -0.30729848, -0.00566749, 0.42549020, -0.16288607, 0.01175089, 0.05502371, 0.18771626, -0.13398372, 0.03337178, -0.22188261, 0.17003717, -0.17381135, 0.55420989, 0.15116622, 0.71789056, -0.17440727, -0.14163142, -0.15414584, 0.03277586, 0.03841231, 0.00797049, -0.02927480, 0.03570582, -0.15215942, -0.09221934, 0.13090478, -0.02731321, -0.04854303, 0.12901768, -0.13646674, 0.01426495, 0.21910162, 0.08134371, -0.33073816, -0.04223616, -0.09599353, 0.03205578, 0.19298026, -0.08933903, 0.02244649, -0.19077817, -0.05097035, 0.15579616, 0.02982787, -0.04240517, -0.11143753, 0.10164016, -0.12766629, 0.27673051, 0.00600314, 0.14185144, -0.03726605, 0.01585310, 0.06749965, 0.31063059, -0.12946948, 0.08535129, -0.16685575, 0.08631299, -0.07363051, 0.15880148, -0.03843813, 0.21061331, -0.03128545, -0.01585310, 0.13523972, -0.10891305, -0.05235280, -0.10656890, 0.08943854, -0.02701789, -0.02350166, -0.05571876, -0.16709618, -0.08949864, -0.10614815, -0.08727469, 0.00906857, 0.01640909, 0.08090340, -0.04967806, 0.02949728, -0.09400663, 0.00835481, -0.06431400, -0.10777102, -0.12898864, -0.11239923, 0.02518189, -0.16950017, -0.05482953, -0.33840489, 0.02969726, 0.16860703, -0.10251386, 0.52993613, -0.12514035, 0.38385636, 0.26040307, -0.02669528, 0.01731720, -0.34277141, -0.04041507, -0.15471356, -0.19262286, -0.17863016, -0.03718981, -0.15173639, 0.12216318, -0.02642238, -0.09829620, -0.16106486, -0.08579209, -0.03510579, 0.12831600, 0.01057515, -0.03892649, -0.00793292, 0.11293396, 0.19083655, 0.03431188, 0.30525908, 0.02701781, -0.03602375, 0.01731720, -0.16950017, -0.17257658, -0.07373456, 0.31557995, 0.25623503, 0.29473975, -0.08316226, 0.25127310, 0.11253700, 0.11362863, 0.07204749, -0.29829943, -0.30605364, -0.09542417, -0.23927255, -0.04510098, -0.05582235, 0.19765304, -0.04656478, 0.14883322, 0.18277764, -0.06270618, 0.29608396, -0.07789809, -0.18388538, -0.14574736, -0.21031296, 0.06970870, -0.34466639, -0.43265286, 0.19986853, -0.24132977, -0.14258239, -0.10254537, 0.19496281, -0.28231627, 0.00163689, -0.01880196, 0.08917333, 0.11987364, -0.05851258, 0.08134001, 0.47284812, 0.16117664, -0.00487605, 0.10816322, -0.04874070, 0.18926585, 0.16616149, -0.07817502, 0.14471875, -0.02856395, -0.18341063, -0.13918003, -0.15896116, -0.06788883, 0.09241743, 0.04233162, 0.05297387, -0.04963250, -0.11415475, 0.13156107, 0.27025244, -0.00356734, -0.02247443, -0.09751737, -0.04575277, -0.02614444, 0.11764999, 0.18412958, 0.46277061, -0.10520691, 0.13785252, 0.26717663, 0.16483581, 0.02299872, -0.02051710, -0.35483742, -0.07570703, 0.16525525, 0.17504194, -0.22816968, 0.17252536, -0.01528296, 0.08227810, 0.02541044, 0.09618918, -0.00873375, -0.18860349, -0.31960532, -0.24270990, 0.11212751, -0.12373172, -0.07640608, -0.33526403, -0.36965725, -0.16665335, 0.20230485, 0.00692933, 0.40908363, -0.04998202, 0.01421691, 0.06085224, -0.11429456, 0.04575277, -0.06228529, -0.14624111, 0.03739895, -0.17884368, 0.45669866, 0.12406380, 0.00944713, -0.01895419, -0.02332939, -0.06239151, -0.14408183, 0.06167230, -0.05367108, -0.05253233, -0.08660493, 0.32580236, 0.55235362, -0.02804921, 0.16074353, -0.31501418, 0.16278130, -0.21935919, -0.02948763, 0.09427650, 0.16541840, -0.19814248, -0.42553285, -0.06802532, -0.08240953, -0.10554413, -0.09769276, -0.24429183, 0.04423144, -0.06185210, -0.17440854, -0.70386732, 0.21396512, 0.07659592, 0.01223407, 0.23913749, 0.00125955, 0.12196611, -0.39916182, 0.01781544, -0.11585282, 0.07527737, 0.11866973, -0.27186155, -0.30302733, -0.29991075, -0.05055533, 0.12494436, -0.07455500, -0.03588333, -0.00777583, -0.12408131, 0.06549289, 0.34841022, -0.09148423, 0.01184216, 0.00749367, 0.11983240, -0.02014910, 0.06838082, -0.06423149, 0.49340409, -0.16145839, 0.07468779, -0.15428837, 0.28998777, 0.01281310, -0.00909531, 0.05785814, 0.24112536, 0.34256795, 0.09254646, 0.07508612, -0.05208228, -0.10575790, 0.09878704, 0.02502871, 0.05938509, 0.04238947, 0.07960058, 0.08916061, -0.12673686, -0.03837292, -0.03614889, 0.01945202, 0.17208065, 0.06373358, 0.34681687, 0.05968384, 0.02434822, 0.13111855, -0.07588279, 0.27073491, 0.09911899, -0.05720944, -0.05508440, 0.14583616, -0.07304308, 0.00805745, 0.11483556, 0.57601118, -0.11108548, -0.04750092, 0.00269016, 0.03491734, -0.04210498, -0.04645923, 0.11425221, 0.67267972, -0.07016803, 0.16150312, -0.04920929, 0.05120933, -0.35267350, -0.01519821, -0.04916762, 0.22850442, -0.08533499, -0.17317002, -0.05320936, -0.13708599, -0.04520921, 0.02768804, 0.04104246, 0.29750577, 0.04754259, -0.10316867, 0.04095913, 0.07704316, -0.03133394, -0.07400143, -0.04708425, 0.02758387, 0.00703659, 0.08112657, -0.07595980, -0.08925173, -0.02943807, 0.10291866, -0.04650090, 0.11600225, 0.02687552, 0.09772193, 0.13942063, -0.20444359, 0.12187117, 0.03674885, 0.15464514, -0.33808938, -0.10192180, -0.07957251, 0.05137339, -0.02774913, 0.07537264, 0.12764600, -0.02366176, -0.36268863, 0.30419046, -0.12127119, -0.02919283, 0.00206361, 0.50548416, 0.01513078, 0.07177275, -0.07541014, 0.00983407, -0.03431142, 0.03729258, 0.08572231, 0.04631105, -0.06761038, -0.02184306, -0.16709475, 0.03498640, -0.11084652, -0.16349487, 0.03734883, 0.04567357, -0.02234930, 0.04859848, -0.01592763, -0.00399128, 0.02328677, -0.01501828, 0.11759631, -0.00464048, 0.00039608, 0.01304959, -0.15494514, -0.03174276, 0.07265043, -0.46304259, -0.17124084, 0.18213378, -0.01742410, -0.52359998, 0.09554408, 0.28026262, 0.02621692, -0.42427108, 0.11225275, -0.09868272, 0.05538787, -0.14299302, -0.21545881, 0.15545529, -0.09231312, 0.20788914, -0.45861155, 0.09429785, 0.19588843, -0.00117699, -0.31404921, -0.22930577, 0.21748970, 0.18490317, -0.03251730, 0.14179295, 0.15757848, 0.03046333, 0.02467068, 0.06540384, 0.15720923, -0.12813060, 0.24869153, -0.07117341, 0.11391439, 0.15573223, 0.08635892, -0.09346703, 0.04597193, 0.22912115, 0.01717024, -0.15443984, 0.26290774, -0.00099453, 0.14816254, 0.03016331, 0.14921404, 0.67928559, 0.18689606, -0.02254192, -0.25283957, 0.24409196, -0.20540062, 0.06960238, 0.12532634, -0.07040144, -0.02809329, -0.28446555, -0.20321371, 0.40575454, 0.08242940, 0.51812768, -0.52014637, 0.02525452, 0.34283903, 0.06960238, 0.00566176, 0.11052269, -0.00521229, -0.09672838, 0.19614834, -0.20590527, 0.01497187, -0.04760718, -0.12709267, -0.06657436, -0.12414877, -0.23988639, 0.10581244, 0.05589218, -0.17167185, 0.08373313, 0.23635370, -0.07006499, -0.16460647, -0.14711125, -0.03435960, 0.14643836, 0.17394286, 0.05963515, -0.06779398, 0.12305532, -0.07544813, 0.14803648, 0.28299892, -0.17463811, 0.61608917, 0.18009022, -0.09541204, 0.09464534, -0.25761250, 0.34194994, 0.11526115, -0.13911416, -1.07406700, 0.10043821, 0.13425837, -0.05903620, 0.12011694, 0.08446521, 0.30957800, -0.37960362, 0.21041761, -0.02919864, 0.01935927, -0.60791099, 0.43991765, 0.05247662, -0.13817708, 0.36290652, -0.02951810, 0.17838643, -0.14507741, -0.27533188, 0.43105796, 0.07279427, 0.02513085, -0.70741212, -0.10691260, -0.12906182, -0.21774390, -0.04940981, 0.05588419, -0.18230514, -0.11585747, -0.17037864, -0.29356238, 0.09737139, 0.10802006, 0.06210301, -0.11807240, -0.00776288, 0.29121894, -0.03254651, 0.48867962, -0.32734227, 0.48259139, 0.14581242, 0.17280345, 0.12034344, -0.36853909, 0.34986863, 0.09609210, 0.17331079, 0.11242878, -0.25489268, 0.01659035, -0.10796410, 0.25611031, 0.23317809, 0.53251463, 0.07772604, -0.01301353, 0.35595682, 0.15880057, -0.26158971, -0.64981401, 0.20750618, 0.00370683, -0.12308313, 0.44930923, 0.12074932, 0.17950046, -0.04439313, -0.64575517, -0.14469625, 0.10918174, 0.16367114, 0.01014066, 0.33200991, 0.13089633, 0.40790948, -0.04923832, -0.44322103, -0.46635619, 0.08741642, 0.25468975, -0.28695720, -0.16022116, -0.40993887, -0.06593008, -0.00737008, 0.05789231, -0.11385148, -0.05412778, -0.22241227, 0.14864790, 0.12473808, -0.26779008, 0.06216555, 0.15566824, 0.04171502, -0.13155493, 0.00540833, 0.02343926, -0.21590066, 0.24601687, -0.06313212, -0.15322639, -0.18975246, 0.17622052, -0.28060982, -0.08704195, 0.11629333, -0.15943277, 0.05977457, 0.00536699, 0.16502869, -0.11029045, -0.03662782, 0.19300827, -0.06969461, -0.03517797, -0.17652576, 0.04517432, -0.03782331, -0.10342272, -0.13175842, 0.11914217, 0.02511804, -0.04046866, 0.08114080, -0.09151869, -0.01277522, -0.25354591, -0.01714385, -0.02009443, -0.07920767, -0.01478625, -0.34773931, 0.12796025, -0.14056091, 0.20141529, -0.44151169, 0.18227009, 0.14261219, 0.10393107, -0.06075670, -0.16146435, 0.10412643, 0.16351561, -0.08297880, -0.08239272, 0.04078122, 0.02212442, 0.11545726, 0.01968244, -0.14612865, -0.24830149, -0.10754521, -0.01045171, 0.09797262, 0.03240520, 0.02786310, 0.03660542, 0.08830234, -0.64312232, 0.05792399, 0.04512797, 0.04446863, 0.00091193, -0.13675141, 0.70563728, -0.07286897, -0.16576225, 0.02678862, -0.20512712, -0.11321063, 0.09948665, 0.07750875, 0.20512712, -0.17767915, -0.09235604, 0.19125661, 0.04610476, 0.24752004, 0.01207672, -0.04621400, -0.15049362, -0.12450280, 0.09637043, -0.06648586, -0.01575754, 0.24121810, 0.08468916, -0.05227366, -0.01440689, 0.15701565, -0.02893546, 0.10396325, -0.03363230, -0.04110345, -0.16499785, 0.10629950, 0.09933942, 0.02161034, -0.02249860, 0.03536016, -0.02737796, 0.21220963, 0.05650811, -0.00372036, -0.00542388, 0.15458205, -0.20091774, -0.04862326, -0.07106102, -0.01670664, -0.09510496, 0.04010567, 0.13248500, -0.13978580, 0.05475593, 0.00114987, 0.07242384, 0.18427193, -0.02336253, -0.02077075, 0.25465155, 0.07641494, -0.16782083, 0.16655536, 0.02229175, 0.15224580, 0.21324344, 0.22448844, 0.47969490, 0.21420339, 0.05509361, 0.04031741, -0.08049769, 0.02045012, -0.08906856, -0.22873959, -0.28469029, 0.04600847, 0.16072111, 0.03949460, 0.10751309, 0.07000693, -0.23792757, 0.23628196, 0.13062018, -0.30032358, -0.15413867, 0.23641910, 0.05461363, -0.12431201, -0.10737596, -0.12506625, -0.04000886, -0.03119799, -0.04402003, 0.00533537, 0.04426001, -0.00832661, -0.04724268, -0.00663386, 0.09379969, -0.14316794, 0.12623189, -0.08392604, -0.04275154, -0.08351464, 0.06177889, -0.04264869, 0.04923112, 0.17320031, 0.12588906, -0.21269491, 0.02165004, 0.07610939, -0.06306010, 0.45582646, 0.06362063, -0.11076157, -0.01688609, 0.00970425, 0.03668697, 0.24147816, 0.00512889, -0.23430331, -0.09142314, -0.31434759, -0.22466213, 0.07617661, 0.06933808, 0.17163558, 0.35089445, 0.01591917, -0.25560361, -0.12690495, 0.24506557, 0.21715097, -0.34304696, -0.19562645, 0.10123248, 0.09355316, -0.02066970, -0.11031314, -0.19428118, 0.05249403, -0.12780181, 0.04714093, 0.06765648, -0.07163627, 0.04164770, 0.71344799, -0.01151197, 0.19002111, 0.10554860, 0.07556002, 0.01828743, -0.11064946, -0.23564860, 0.09697242, -0.27331650, -0.42488495, -0.28519982, -0.38183594, 0.04657182, -0.01027091, 0.22219379, -0.15340260, -0.36510885, 0.17455545, 0.12745036, 0.00544653, 0.21526134, 0.15438025, 0.10798618, 0.19446401, -0.37684068, -0.21917196, -0.22699317, -0.06301416, 0.22219379, -0.07487931, -0.26752132, 0.41096964, 0.23250359, 0.34911090, -0.31444865, 0.21277277, -0.28245276, 0.00022428, -0.05305988, 0.03619537, 0.03506218, -0.02590780, -0.03146264, -0.01130411, -0.19695258, 0.16984494, -0.05861472, -0.02243046, -0.39070556, 0.08625563, 0.03081828, 0.10416445, 0.23161481, 0.10887496, 0.15553565, 0.02370808, -0.16895616, 0.16291249, -0.08105630, 0.10407557, 0.32342705, 0.00519328, 0.18123838, 0.08808543, 0.00394969, -0.02203999, 0.02023282, -0.36217865, -0.04929654, -0.07251026, -0.00044102, 0.19107533, 0.05708413, -0.01191426, 0.16976193, -0.11103831, 0.13659948, 0.35979396, -0.05633890, -0.00392174, 0.07653446, 0.42239273, -0.28661299, -0.01387047, -0.27960789, -0.55325401, -0.49274182, 0.13697210, 0.26664099, -0.09091727, 0.13645044, -0.00499766, -0.19003202, -0.28139642, 0.06338127, 0.07444783, 0.13093579, 0.00338145, -0.04929654, 0.07809943, 0.04761979, 0.20284986, 0.03916150, 0.15545364, 0.03256627, -0.16588677, 0.03321834, -0.07407522, 0.01145494, -0.02842943, 0.07369472, -0.02578307, 0.18388397, -0.16251148, 0.19557834, -0.38994691, -0.10797134, 0.04667668, 0.05872391, -0.09799080, 0.29840818, 0.05665723, -0.15384151, -0.12410151, 0.40587544, -0.08392730, 0.33530596, 0.12752917, -0.00681752, -0.33591083, -0.15605941, 0.37482485, -0.12964626, 0.18640430, -0.04725636, -0.04657587, 0.06139547, -0.09582330, -0.18509372, -0.25324368, -0.22199149, -0.24719489, 0.02530421, 0.13549344, 0.23671027, -0.22521752, 0.25304207, 0.18620268, -0.16856030, -0.23570213, -0.15646267, 0.09698266, -0.39458433, 0.05544747, -0.36595327, -0.16029358, 
bias
-0.75335586, 0.79068375, 1.30722022, 0.91282725, 1.59757245, -1.03764820, 1.55995822, 1.56915545, 2.06554174, -1.10077500, -0.71670496, 0.49265185, 0.44603154, -0.25495517, 2.04099989, 0.06444252, 1.86565018, -0.17047977, 0.80931622, 1.38704062, 0.46201816, 0.04366255, 1.11338735, 1.46774447, 
layer13
kernel
0.00039900, -0.05190710, -0.08487443, -0.06370647, -0.30283359, -0.30141565, -0.09763598, -0.30911309, -0.32146952, 0.05660463, 0.17099230, 0.12604994, 0.08370820, 0.26981676, 0.20041208, 0.04701475, 0.15522590, 0.12848803, 0.04434434, 0.14024499, 0.13114682, 0.09719510, 0.31155691, 0.27738330, 0.08092195, 0.23596072, 0.21155098, 0.12003099, 0.52738577, 0.40228108, -0.03506406, 0.15818793, 0.12844081, -0.21948922, -0.22226933, -0.21128792, 0.18032663, 0.38680518, 0.43667629, 0.12566607, 0.17105183, 0.22457203, -0.33085224, -0.59237146, -0.59206736, -0.25231293, -0.46419474, -0.39477533, -0.35014856, -0.74454242, -0.65376318, -0.35701421, -0.52827424, -0.50386298, -0.08637398, -0.34067881, -0.30936739, -0.09754708, -0.41320351, -0.31445217, -0.04756925, -0.22306032, -0.13467920, 0.03967300, 0.12050302, 0.09787984, 0.10216703, 0.23177208, 0.22926572, 0.09695645, 0.18586616, 0.17359821, 0.04814928, 0.03385775, 0.08831526, 0.08197139, 0.11696962, 0.13037015, 0.08197139, 0.12908712, 0.09800927, 0.07905488, 0.10048239, 0.08399582, 0.12180906, 0.20419151, 0.15538722, 0.06398001, 0.14651372, 0.09377684, 0.00010911, 0.09674554, 0.06953585, 0.02393992, 0.25658599, 0.19559424, 0.00198301, 0.20242952, 0.14117487, -0.00655944, 0.02517627, 0.01194527, 0.02499687, 0.20260619, 0.15978858, 0.01995862, 0.15261245, 0.11254571, -0.20291224, -0.35503626, -0.26164368, -0.15633631, -0.41424909, -0.36346084, -0.18161008, -0.35599905, -0.31965297, 0.12303265, 0.33151707, 0.28834382, -0.02896860, 0.04171925, 0.00305135, -0.28230402, -0.38788840, -0.29415989, -0.31766343, -0.19201779, -0.20408545, -0.67223972, -0.20497279, -0.25519556, -0.51429534, -0.28128299, -0.23496448, 0.04189119, 0.09731079, 0.08759980, 0.11358506, 0.23587652, 0.20493531, 0.11284836, 0.19020140, 0.16354641, 0.14049432, 0.26651058, 0.26308155, 0.12306350, 0.31223077, 0.28556064, 0.03448064, 0.13573180, 0.13077877, -0.21312243, -0.37527242, -0.32122242, -0.26659539, -0.44624913, -0.42316726, -0.23658897, -0.45586655, -0.41585800, -0.12829566, -0.29491827, -0.21117143, -0.21378464, -0.40566814, -0.38003391, -0.15343216, -0.19163465, -0.22411299, -0.05271494, -0.04438598, -0.04520306, -0.21212490, -0.26737016, -0.27137649, -0.16784436, -0.22055928, -0.23025884, -0.22254179, 0.17481628, -0.08102702, -0.29831767, 0.04706081, -0.19502319, -0.32144925, -0.01700803, -0.25497919, 0.01213445, 0.10915169, 0.07999565, -0.00691789, 0.24285585, 0.13657306, -0.01196766, 0.18561125, 0.12336276, 0.07087644, 0.13100176, 0.12032427, 0.12842444, 0.26494902, 0.23961762, 0.09779108, 0.21296071, 0.16303423, 0.16980745, 0.19996335, 0.30206868, 0.20268162, 0.26163429, 0.31786865, 0.08656017, -0.00276075, 0.07526233, 
bias
2.45653462, -0.65734899, -0.52000320, -0.07773232, 0.00779281, 0.64368016, 1.84169805, -0.07031703, 0.05214638, 0.22619182, 0.24301779, 0.10575914, 0.92230010, 0.54262644, 0.59702045, 0.10409510, -0.55773020, 1.55470443, 2.67077255, 2.42257953, 1.14676106, -0.54064715, -0.08848166, -1.23221028, 
layer14
kernel
0.50550210, 0.30821303, 0.07510902, 0.04952693, 0.19534485, 0.19370759, -0.03433117, 0.07029959, 0.18040490, 0.26810032, -0.15523213, -0.11829159, -0.25397900, 0.07398341, 0.06415989, -0.47071046, 0.51696289, -0.19012609, 0.05402938, -0.03507305, 0.09439792, 0.34586987, 0.16546497, 0.12473828, -0.31465414, 0.12108418, -0.42640305, 0.19878674, -0.27662656, 0.32151833, 0.09959929, -0.66610032, 0.26234907, 0.14291228, 0.36846933, -0.53073859, 0.19796303, -0.20084599, 0.26331005, -0.09754004, -0.41898972, -0.54638892, 0.14620709, -0.02977339, -0.08168378, -0.02860648, 0.15265943, 0.14153945, 0.20773113, -0.18280339, 0.11173283, -0.12154482, 0.27880171, -0.09113651, 0.21109019, 0.12755576, 0.15168792, 0.61311620, 0.20313454, 0.19217339, -0.13365510, -0.03854075, 0.00298890, 0.16910198, -0.21497962, -0.20295773, -0.14514661, -0.05745755, 0.04037498, 0.22505680, -0.04103795, 0.02344710, 0.04890870, -0.60794461, 0.31494981, -0.34422314, 0.33089331, -0.30423367, -0.15943517, 0.63199055, -0.18609482, -0.30240408, 0.12088323, 0.20791915, -0.01292144, 0.13133799, -0.04845130, -0.16871378, 0.04162303, 0.60689914, -0.52378374, -0.24581768, 0.11402228, 0.08912688, -0.35676888, -0.03868263, -0.57401615, -0.49626756, 0.16567065, 0.16840012, 0.00426221, 0.12944312, 0.36756885, -0.10471246, -0.04648373, -0.06637578, 0.02264221, 0.14540640, 0.02508219, -0.55383462, -0.21538012, -0.02096730, -0.49295911, -0.00275790, -0.09296746, 0.23440371, 0.47310841, 0.02499948, -0.34804899, 0.23142610, 0.33361819, 0.15465385, 0.36031634, -0.13772331, -0.12350602, -0.10207154, 0.18308845, 0.56695557, 0.11417252, 0.01350508, 0.05941964, 0.03717119, -0.36487454, -0.21022069, -0.19361576, -0.04295036, -0.06837328, 0.22194183, -0.08231926, 0.54047447, 0.04658608, 0.44887599, -0.01377640, 0.11558340, -0.60635656, 0.26821497, 0.14083120, 0.11760383, 0.11173586, -0.27017096, 0.10495102, 0.43643001, -0.09889968, -0.47970626, 0.14462093, -0.30709025, 0.14070894, -0.16748154, 0.19009766, -0.12273830, 0.35770145, 0.31075773, -0.07047673, 0.05498162, 0.02088935, 0.00696057, -0.04370413, -0.31613669, -1.16125178, 0.10553953, 0.54354441, -0.01496530, -0.06477370, -0.21931939, 0.06417944, -0.03456578, 0.26701820, 0.36796215, 0.33405006, 0.20046173, 0.48427749, -0.07606453, 0.08038277, 0.21361455, 0.02997022, -0.06287209, 0.30821982, 0.09317905, 0.23595850, 0.49188393, -0.03959714, 0.08256171, 0.08990112, 0.10638545, -0.18304990, -0.10185841, 0.08266770, 0.05629276, -0.01965818, 0.29701322, 0.44994846, -0.14309385, 0.70621836, -0.04285926, 0.10136634, -0.07440093, -0.04325292, -0.06081980, 0.16612270, -0.20391366, -0.02630112, 0.12469044, -0.07592634, 0.14614467, 0.24249192, -0.03875048, 0.08593695, 0.60453409, -0.12715518, -0.28738996, 0.17432424, 0.20757887, 0.09705099, -0.58108079, 0.11997919, 0.21387975, 0.23663291, -0.35022369, -0.35022369, 0.28493962, -0.03854911, 0.47781643, 0.34042233, -0.28091407, 0.20145302, -0.09766358, 0.15183361, -0.40710661, -1.26577604, 0.06550286, -0.21300106, -0.17008489, 1.04999781, 0.38782516, -0.04867561, 0.00489142, -0.03039346, 0.51683694, 0.25486407, -0.09254619, 0.05147306, 0.14967997, 0.01614293, 0.19048981, -0.06964003, -0.05025535, -0.08984748, 0.02963650, -0.05798947, -0.42837173, -0.34648874, -0.03649848, -0.25999820, 0.31068140, -0.16567542, -0.19722591, -0.41482523, -0.02355675, 0.22792751, -0.11424672, -0.31012854, -0.46915430, 0.11544931, -0.20203629, -0.33814198, -0.08701143, -0.15011241, -0.12606046, 0.18463401, 0.27037209, -0.04120663, 0.15987466, -0.12415045, 0.30050775, 0.00791415, -0.15025388, -0.59761995, 0.07272175, -0.88201451, 0.33189794, 0.87592119, 0.01251996, -0.04351043, -0.04798525, 0.09306663, -0.23726039, -0.28238937, 0.17623153, -0.02782478, 0.43377140, -0.08187959, -0.30333531, 0.18403865, -0.26639429, 0.44519645, 0.17080463, 0.44748145, -0.12891275, -0.36807731, 0.24621002, -0.24392501, 0.12234334, -0.05302591, 0.37974361, 0.45713440, -0.06909892, 0.04097866, -0.32158035, -0.45040476, -0.23469597, -0.00108061, 0.21943413, 0.47155505, 0.09607754, 0.33816409, 0.07691010, -0.02202152, 0.42997551, -0.02651295, -0.16788033, -0.21246415, -0.32879066, 0.28240427, 0.02478548, 0.24707370, -0.25740850, 0.35183549, -0.02629698, 0.44647166, -0.10271486, -0.23955810, 0.42536813, 0.77291697, -0.33139145, 0.37953389, -0.07794294, 0.60046154, -0.06520662, 0.40030769, -0.03987826, -0.15539126, 0.13643105, -0.40327537, -0.07349141, 0.52725863, -0.23329298, -0.27764338, 0.00868666, -0.27500543, -0.00913490, -0.53515971, 0.08243499, 0.26223797, 0.40598321, 0.00909031, -0.10967050, -0.00670265, 0.07316763, 0.20380099, 0.17482531, -0.29299426, -0.05467338, -0.02062898, 0.01949585, 0.08708891, 0.46361083, -0.92722166, 0.05196197, 0.22371164, -0.04168289, 0.21173288, -0.23261479, 0.41601950, 0.27162674, 0.29797617, -0.15296540, -0.29539627, -0.28830162, -0.12824154, -0.06670065, 0.63207060, -0.04732468, -0.25691307, 0.19746833, -0.14544074, 0.20875530, -0.17295946, -0.33237454, -0.06885055, -0.28443179, -0.38762698, 0.12931649, -0.19983321, -0.31388542, -0.01425652, -0.00951331, -0.18231153, 0.18983617, 0.68548512, -0.40714839, -0.01798266, 0.11659396, 0.14369944, 0.36345601, -0.18286076, -0.91009641, -0.01118606, -0.38319850, 0.52430874, 0.44533879, 0.29646099, -0.30584678, 0.12840709, -0.59486389, -0.28432423, 0.28270599, -0.14523676, -0.12962078, -0.29921201, -0.50683177, -0.13083445, 0.27089286, -0.06483711, 0.23985195, 0.26184216, 0.10541698, -0.24143887, -0.05024309, 0.11981262, 0.20686664, 0.17150095, 0.00141689, 0.09113467, 0.05052647, 0.02194770, 0.04262020, 0.07101477, -0.37111309, -0.42302811, -0.06965455, 0.23645140, -0.24325250, -0.14384316, -0.11686549, 0.66061300, -0.21276093, -0.18416841, -0.47256252, 0.15265515, 0.13860379, -0.32222652, 0.02487979, 0.16602442, -0.40435198, -0.44609684, -0.57897091, -0.21213473, -0.17407326, 0.33614147, -0.01417074, -0.02094063, -0.67828542, 0.61444038, 0.54786694, 0.45510063, 0.01938884, 0.05085095, -0.15674779, -0.14951746, 0.10443031, 0.02964292, 0.07232273, -0.17673044, -0.01940503, -0.05075740, 0.07581676, -0.27832040, -0.19897203, -0.10887858, 0.51275873, -0.36608449, 0.47338513, 0.05586696, 0.03668735, 0.08806466, -0.18649870, 0.02432674, 0.07318684, -0.19882175, 0.17748185, -0.05004357, 0.06420755, -0.02928601, -0.04989329, -0.42284721, -0.23712973, -0.19652151, 0.44780824, 0.02288870, -0.08121647, 0.20006076, 0.29878718, 0.18189880, 0.15963879, -0.05178481, 0.12256981, -0.10487356, 0.14957987, 0.06147118, -0.14035919, 0.34889552, -0.15600640, -0.34237584, 0.19801171, 0.19540384, 0.20453139, 0.06268197, 0.06799085, -0.28093252, 0.17543650, -0.16812055, 0.30785519, 0.08435291, 0.17075428, -0.36696810, 0.11200720, -0.08874248, -0.15319601, 0.27317759, -0.05713758, -0.00597164, 0.56625456, -0.02297208, 0.11815260, 0.16519417, -0.06339271, 0.78836685, 0.34823924, 0.15348865, -0.29439387, -0.09422944, 0.11603098, 0.15650049, 0.00246931, -0.52516598, -0.17774259, -0.54973513, 0.08432855, -0.37365609, 0.10966551, 0.30046046, 0.14434387, -0.10499480, 0.14421590, -0.00600233, 0.13615415, 0.03336672, -0.71608889, -0.51339328, 0.07684264, 0.69203156, 0.06993256, 0.10307534, -0.15023023, 0.20768626, -0.13001186, 
bias
-1.44224465, 2.75062609, -0.47633088, 0.64190960, 1.93823528, -1.99819303, 0.15199956, -0.72301793, -1.02515924, 0.74311733, -0.45510530, 2.27687073, -0.17780374, -0.46107465, -1.44057918, 0.13458697, 1.88074577, 1.72206044, 0.25134069, 0.88807148, 1.48726475, 0.72330117, -1.24838364, 1.17518687, 
layer15
kernel
-0.31301373, -0.63018864, 0.17777516, 0.44709641, -0.41681221, -0.92193407, -0.45865527, -0.25776240, -0.14101800, -0.19453549, -0.45380056, -0.21788438, -0.58164144, 0.63018864, -0.29706252, 0.24551003, -0.41634986, 0.21152700, 0.18760018, -1.05231798, -0.13038386, -0.35208264, 0.36687797, -0.40247926, -0.45485976, -0.61347979, -0.19659950, -0.01202217, 0.09874657, -0.01424229, 0.38180518, 0.02316467, 0.23122783, 0.19280156, -0.22798841, 0.31076127, -0.13080569, -0.24798347, -0.49105194, 0.11460857, 0.02074907, -0.31612307, -0.10014287, -0.62956524, 0.09338477, 0.22687136, 0.52188230, 0.32394236, 0.34599787, -0.14796768, -0.11956830, -0.40693024, -0.18999264, 0.25199670, -0.38702771, 0.19121741, -0.35181555, 0.30313089, 0.47674221, 0.17100869, 0.09461358, 0.45224679, 0.26608154, -0.18892096, -0.07892120, 0.43785572, 0.08213622, 0.13916464, 0.37569860, -0.20790492, -0.13893498, -0.24740380, 0.65101266, -0.33046746, 0.05171306, 0.19885929, -0.10342612, 0.32633319, -0.12244385, -0.44043955, -0.44181764, 0.10535546, 0.16812773, -0.27548143, -0.01819087, -0.40157723, -0.10004979, -0.07820696, 0.24075341, -0.05898252, 0.11272827, -0.06621752, -0.09412397, -0.20450948, -0.01999962, -0.24847074, -0.43650094, -0.31095150, 0.00597015, 0.33634350, -0.21341389, 0.04010327, 0.31478044, 0.70372170, 0.25371867, -0.12252658, -0.04108570, 0.17099309, 0.26036897, -0.04179103, -0.64487672, -0.52678365, -0.55096656, 0.32525969, -0.30974236, -0.10418789, 0.48083621, -0.03335222, -0.02045468, 0.31054845, 0.08919277, -0.54439181, -0.33324558, 0.62021780, -0.12239095, -0.07723559, -0.13687566, 0.13716729, 0.12530734, 0.11918292, -0.36532581, -0.08078386, -0.37096414, -0.53350401, 0.08088107, -0.28969422, 0.53505939, 0.50511783, -0.13891713, 0.50978404, -0.21522920, 0.27841753, 0.08719990, 0.46506616, -0.45229685, 0.54458040, -0.52848446, 0.11696407, 0.15358241, 0.36484206, -0.50219434, 0.28624004, -0.39730227, -0.37503618, 0.03738960, 0.56979746, -0.35813540, 0.54001987, -0.48878103, 0.17866530, 0.16498372, -0.16981252, -0.20227273, -0.13379778, -0.83591753, -0.28087473, 0.13151751, -0.31923679, 0.18699355, -0.38650548, 0.09439094, -0.44060284, 0.53113770, 0.52085471, -0.13412568, 0.11054191, 0.60937768, -0.01548034, -0.68091136, -0.21068908, -0.28926438, 0.08410798, -0.32793728, -0.36392766, -0.08069895, 0.06728638, -0.07041598, -0.12361917, -0.14809710, 1.00326002, -0.20510052, -0.17916955, -0.36628795, 0.22535507, 0.29424033, -0.33411402, -0.37398767, -0.66822803, 0.81947303, -0.00642362, 0.11927732, -0.30688989, -0.49910858, 0.09054077, -0.13144568, 0.08119108, -0.75457513, -0.12848952, -0.20583072, -0.40066180, -0.38223740, 0.59893030, 0.31678957, 0.00510022, 0.50075853, -0.44521034, -0.29524466, 0.15434092, 0.48635122, -0.15714034, -0.19819839, 0.00391918, -0.26015872, 0.41095373, 0.54569876, -0.26015872, 0.10115210, 0.10441808, 0.03270647, 0.59422189, -0.51061279, 0.33536959, -0.20771639, -0.25026745, 0.01360048, -0.29076561, -0.28927261, -0.09140081, -0.09788612, 0.02603453, -0.52146351, -0.09332332, -0.54631782, -0.17266607, 0.33481684, 0.55970097, -0.31091842, -0.40961888, -0.70356941, 0.71026099, 0.25595206, 0.43781903, -0.15725160, 0.24926050, 0.43280035, 0.22906634, -0.29227766, -0.70548129, -0.47342765, -0.47701243, 0.12666161, -0.08878262, 0.12654212, -0.10180726, -0.25789613, -0.24030712, 0.44977635, -0.33944523, 0.20718494, -0.08508974, 0.02656913, -0.18399942, -0.26497743, 0.83787692, 0.01309183, -0.00735969, -0.23710911, -0.38535941, 0.62589496, -0.50802571, 1.04985881, -0.49843168, -0.00679219, -0.28782031, -0.58386409, 0.06487378, -0.17052211, -0.16481139, -0.44162527, -0.42358300, -0.39692968, 0.24951623, 0.02988249, 0.11532693, 0.10907365, -0.12045258, 0.19436432, 0.15581951, 0.25013131, 0.10712591, 0.14392801, 0.13090888, -0.10681837, -0.15069386, 0.20010504, -0.08119016, 0.21712217, 0.44613582, -0.60892624, -0.51789480, 0.14823355, 0.39098394, -0.68974441, 0.56559038, -0.22061044, -0.25606760, -0.14926499, -0.43453896, -0.08465534, 0.04957538, -0.03653490, 0.20304351, 0.32568869, -0.35263181, 0.38388586, -0.12523171, -0.20002587, 0.01732444, 0.36815107, 0.48368326, 0.38647240, -0.27395785, -0.16877183, 0.22481357, 0.30434972, 0.54532915, 0.53615242, 0.19122197, -0.35535684, -0.38437873, -0.05221252, -0.10206029, -0.35084233, -0.19326425, 0.09571847, -0.04132931, -0.64794040, -0.13844514, 0.08996784, 0.18498763, 0.57570815, 0.05481911, -0.04146367, -0.04498392, 1.01555097, -0.12683637, 0.01872986, 0.40093195, -0.47079945, 0.58129758, -0.29847017, -0.36847383, 0.13385549, 0.37080729, 0.01889304, 0.14923508, -0.06045771, -0.34174517, 0.33389628, -0.03590339, 0.26983231, 0.13226449, -0.26516539, -0.42214331, -0.03765349, -0.02084200, -0.61136532, -0.13756780, 0.64191240, -0.95883811, -0.15867497, -0.15178068, -0.06713988, 0.62791169, -0.88033491, 0.40134081, -0.14470851, 0.32685703, 0.00134256, -0.27515417, 0.56813693, 0.54317695, 0.12262090, 0.22543229, 0.01592190, -0.30982083, 0.16897517, -0.10697139, 0.40649128, -0.22186658, -0.11340948, -0.06665903, 0.11222091, -0.25395799, -0.11955043, 0.09771044, -0.11459805, 0.01582285, -0.45053667, -0.47564620, -0.64184737, 0.70163196, 0.65236944, 0.12387367, -0.49358156, 0.08244295, -0.69206643, -0.04480855, 0.74180722, 0.41442677, 0.18628879, -0.49692953, -0.37353411, 0.43068817, 0.02297223, 0.19011499, 0.29916209, 0.27476996, -0.12518893, 0.27237859, 0.42447060, -0.38931724, 0.25168100, 0.37510756, 0.03983025, -0.57389146, 0.52057457, 0.07813866, -0.22103427, 0.22523245, 0.01637291, 0.21389736, 0.02382468, 0.56549507, 0.55290055, 0.39756781, 0.01264702, 0.67212892, 0.06864028, 0.14536205, -0.02667157, 0.39525881, 0.43871000, 0.00371933, 0.28253764, -0.17999704, -0.19228449, -0.03854669, 0.06670309, -0.77683449, -0.28554055, 0.39046964, -0.51592278, -0.23423047, -0.29349360, -0.26475996, -0.16598807, -0.74656153, -0.04239495, -0.31530038, -0.39303514, 0.28040954, -0.50232559, -0.53362471, -0.26039860, 0.20729269, -0.24551868, 0.85687816, -0.06564482, -0.01639517, -0.31543747, 0.27799919, -0.31105641, 0.07268603, 0.66154248, -0.08104990, -0.08717345, 0.06158399, -0.19834326, 0.02225387, -0.09558711, 0.42177814, 0.37199318, -0.14069228, -0.04595151, 0.19874154, 0.27421552, -0.24374713, 0.04781845, 0.23498498, -0.49227363, 0.21068993, -0.06701055, 0.23717552, -0.00830983, 0.15181777, -0.19346029, -0.33444726, 0.10074501, -0.05742185, -0.32342973, 0.05004571, -0.18010853, 0.67599058, -0.53631073, 0.29990080, -0.20522477, -0.07464841, 0.24014471, -0.34975976, 0.00524908, 0.43659282, -0.21213406, -0.22912720, 0.11764477, -0.39663094, 0.10363944, -0.09775720, -0.29327288, -0.40332112, 0.65178055, 0.40615743, -0.18123925, -0.68808514, 0.27426970, -0.42204067, -0.02978110, 0.61944681, 0.05264872, 0.25342295, -0.00329276, -0.12869687, -0.13734758, 0.06867379, -0.64894426, 0.27767327, -0.28859299, 0.28150228, -0.31624687, 0.74481106, -0.39254320, -0.37495819, 0.23212580, 0.04475489, -0.71522158, -0.22998443, 0.00066584, -0.07253931, -0.35953805, -0.21991993, -0.14272311, -0.04740484, -0.37517011, 0.34412009, 0.22977029, 0.12623447, 0.11991739, -0.25760826, -0.41756949, 0.40257981, 0.05658602, -0.11006703, 1.06041241, -0.38459221, 0.04515639, -0.00962284, -0.21483171, 0.14676508, -0.03608456, -0.19541712, 0.00034398, -0.21644960, -0.14364487, 0.00547119, -0.14884521, -0.06506200, -0.19946183, 0.12700379, -0.18108730, -0.30369970, 0.23216617, -0.10129102, 0.17218895, 0.08228090, -0.31710503, -0.06691100, -0.30947787, -0.16571742, -0.12249684, 0.13890679, 0.01855017, 0.08374946, -0.05568092, -0.14183278, -0.13769701, -0.06206705, -0.07122049, 0.12674937, 0.07505216, 0.15375355, 0.01189036, 0.14645512, -0.16518775, -0.08247223, 0.19158372, -0.30580413, -0.25179577, 0.33475456, -0.49702293, 0.07213280, -0.38462713, -0.30531755, 0.25933746, -0.28828791, 0.04657194, -0.15797444, 0.10189801, 0.02318592, 0.20119479, 0.01930910, -0.13786496, -0.10865119, -0.23771200, -0.17058037, -0.09529490, -0.11275312, -0.26272377, 0.10685034, 0.10284846, 0.19028966, 0.21990360, 0.17208108, 0.04309531, -0.06863233, 0.26772615, -0.13076161, 0.03038932, 0.15807448, 0.41837320, 0.25530121, 0.60416830, -0.11127657, 0.02020021, 0.48066133, -0.39538270, 0.11582121, 0.14315581, -0.02888847, 0.10800177, 0.04795252, -0.20958759, 0.35367906, -0.15411639, 0.06392555, -0.13874485, 0.07064225, 0.07665720, 0.02250594, 0.13520271, -0.22348881, 0.01057629, -0.02641566, -0.36334819, -0.23097506, 0.02471211, 0.24810715, 0.16922560, -0.14494486, -0.10464132, -0.01588416, -0.05946930, 0.14013802, -0.11363874, 0.33746517, -0.26992285, -0.30714506, -0.01165506, -0.05287530, -0.42596042, 0.20151773, -0.45430848, 0.36605975, 0.07845017, 0.07481423, 0.06483078, 0.16417225, -0.49596253, 0.07754834, 0.16040747, -0.12138943, -0.09586514, -0.03181053, -0.33468801, -0.21470755, -0.23172376, -0.08990405, 0.00060542, 0.15195356, -0.10123011, 0.30108914, 0.16344219, -0.11824631, 0.41250730, 0.13190262, 0.17102905, -0.02181216, -0.07727738, -0.56012553, -0.05749740, -0.29913825, -0.11719973, -0.07826041, 0.51919097, 0.08803341, 0.29639697, -0.04741435, -0.08894963, 0.03783223, -0.08643003, -0.07253403, 0.67616987, 0.08917869, 0.39092028, -0.08345231, 0.32861733, 0.44650424, 0.11582540, 0.11887947, 0.48773411, 0.02485245, -0.12765990, 0.27135363, -0.04203156, 0.10887741, 0.13414305, -0.02806088, 0.61077619, 0.16073057, 0.17077623, -0.07373515, -0.06526331, 0.46719021, 0.55827087, 0.04497107, -0.02971841, -0.19046573, -0.02156468, -0.01734551, 0.12088279, -0.03509284, -0.01454109, 0.00943455, 0.07005174, -0.20908369, 0.10440790, 0.36780512, 0.33780208, 0.10427396, 0.53154516, 0.24972393, -0.56787503, -0.17882773, -0.32273644, 1.02288055, 0.13094634, 0.26206905, -0.07733329, -0.03714555, -0.24619675, 0.42079186, -0.19522908, -0.51108754, -0.33966687, 0.19364186, -0.36894241, 0.05149674, -0.10184715, 0.01730520, 0.37740764, -0.26718345, -0.47863752, 0.26559621, -0.25611883, 0.63910204, 0.34474000, -0.14267640, 0.52804977, 0.19893797, 0.15076630, 0.08324322, -0.16887663, 0.05465278, -0.00807266, 0.43979633, -0.09032188, -0.26347330, 0.66999072, 0.31789625, 0.46296287, 0.20298292, -0.02339636, -0.02491321, -0.41074622, -0.36717108, 0.21566935, -0.42471969, 0.14689732, -0.01141151, 0.28162235, -0.05989316, -0.16285038, 0.05385312, -0.05712673, -0.12319825, -0.27018777, 0.18332194, -0.18295309, 0.03527195, 0.19383436, -0.11056489, 0.11388461, 0.09682497, -0.14007346, -0.15833189, 0.05348427, -0.02349158, 0.73218119, 0.03437287, 0.03462645, 0.14680509, 0.05396687, 0.37925410, -0.13511652, -0.03472147, -0.07727157, -0.15860245, -0.12235874, 0.07785147, 0.38621289, -0.33315212, -0.30734658, -0.06821065, -0.03316299, 0.06444130, 0.09778551, 0.16730092, -0.25530064, 0.43173498, 0.16019717, 0.38766265, 0.09307383, -0.27806169, 0.18092856, 0.69529921, -0.09499242, -0.24162661, -0.05795880, 0.24289000, -0.12673552, 0.29468969, 0.03537540, 0.01215042, 0.24383757, 0.10612619, 0.10604723, -0.19393298, -0.12563004, 0.24904911, -0.07801539, -0.14497596, -0.09025464, -0.13099952, -0.11710204, -0.00131769, -0.10115153, -0.05736658, 0.03523721, -0.01476607, 0.27841404, -0.10149206, -0.19383731, -0.02820790, 0.00503153, 0.37063399, 0.27490565, -0.08075511, -0.23217876, 0.07236008, 0.20937437, 0.27816343, 0.34782958, -0.14108650, 0.04582805, -0.18243511, -0.00480051, -0.19759628, -0.16890284, 0.41574156, -0.21964887, -0.23217876, 0.27265027, -0.11245571, -0.19868410, -0.05452046, -0.28554597, -0.30380267, -0.05847845, -0.24874735, 0.22350179, 0.31549835, -0.05715912, 0.16202809, 0.11660032, -0.07053071, 0.17786007, 0.09877153, 0.09263842, 0.13984907, -0.15204397, 0.06147369, -0.16188547, 0.21836708, -0.29125121, 0.09185395, 0.58535504, -0.25217047, -0.18748376, 0.56087869, -0.04691462, 0.36867729, 0.35714519, -0.05499582, 0.47526172, 0.47596064, -0.03828740, -0.16109975, -0.30158150, 0.24077597, -0.13882186, 0.05814093, -0.16136183, -0.07098348, 0.15070339, 0.73875242, 0.02365388, 0.25248277, 0.23064171, -0.04407528, -0.42074639, 0.23186481, 0.05246215, 0.21420872, -0.02805951, -0.28917474, -0.06234276, -0.15204178, -0.09564145, -0.18003097, 0.19733082, -0.43404341, 0.23235247, -0.10408040, -0.11744208, 0.13917238, 0.08396757, -0.07190690, -0.18776667, -0.21505262, 0.04222992, -0.22208507, -0.57834947, -0.36118713, 0.03811593, -0.25429374, -0.13340558, 0.28650546, -0.14934860, 0.15567891, 0.29072568, -0.29940057, 0.15192762, 0.28392646, -0.02148205, 0.06939904, -0.01833154, 0.18006235, -0.12168276, -0.13903253, -0.06383070, 0.17748334, -0.47336707, -0.01768679, 0.10421578, -0.09642011, -0.33597574, 0.09196544, -0.05662117, 0.26141867, -0.08997903, 0.13911189, 0.31554648, 0.29153466, 0.19170296, 0.20905933, -0.15359727, -0.06658709, -0.24011809, 0.04100930, 0.22837317, 0.20775434, 0.08247534, -0.33590430, -0.13317418, -0.14315735, 0.08201859, 0.27665779, -0.45935634, 0.07823412, 0.24064007, 0.55801356, -0.20736285, -0.51755887, -0.23457676, -0.09962934, 0.28052062, -0.11738957, 0.09477185, -0.24753009, 0.10246289, -0.07741641, -0.10276648, -0.02889200, -0.11162130, 0.15624957, -0.04483068, -0.14886212, 0.00160810, 0.19430000, 0.25461394, 0.07205291, -0.24125582, -0.23255280, 0.41855457, 0.23396957, 0.09887036, 0.04789191, 0.48945895, 0.06999099, -0.04281400, -0.67409861, -0.08330635, 0.03077896, 0.02857681, -0.06241148, 0.37801963, 0.08835936, -0.41817057, -0.16729555, -0.05667563, 0.11697031, -0.15008800, -0.03653188, -0.48454252, -0.09709970, 0.01652470, -0.31465217, 0.01571383, -0.02345552, 0.35616881, -0.14271334, 0.05799041, 0.03092294, -0.09665069, 0.12189606, 0.01153338, 0.51927298, 0.24231331, 0.19562522, 0.32660538, 0.15770434, -0.04724265, 0.15094408, 0.03773602, -0.23196165, -0.00848334, 0.20671628, -0.16023944, -0.05249770, -0.03733991, -0.35259014, -0.09675632, 0.23006032, 0.08989042, -0.02046565, 0.09717002, -0.19008192, -0.02337701, -0.04207010, -0.14119884, 0.00516828, 0.23658046, 0.08422537, 0.24458569, 0.06821489, 0.26604655, -0.08993123, 0.21137246, -0.04115461, 0.22210290, -0.16521457, -0.08086146, 0.07004587, 0.08673766, 0.00431133, -0.16359650, -0.16759911, 0.07758272, 0.05480184, -0.04741850, 0.24344693, -0.24612918, 0.13986064, -0.01992535, 0.28993940, 0.27205768, 0.00641028, 0.33566552, -0.35354728, -0.05731732, -0.19363354, 0.08002073, -0.48740476, 0.23386742, 0.16936550, 0.16962095, -0.05996764, 0.14037155, 0.38394621, -0.50145471, -0.15953054, 0.18737493, 0.09930744, 
bias
2.84799170, 0.30990791, -0.44995806, 0.57481140, 0.03707602, -0.47085333, 1.58922553, -0.17417340, 0.20830074, 0.43848574, 1.61051404, 0.79574823, 0.47319034, -0.60379189, -1.14386427, 0.84053892, -0.26687437, -0.17354447, -2.44425678, 1.83147418, -0.27895474, 1.00817847, -0.04895431, -0.20144518, 1.54757297, 1.57979250, -0.22411802, -1.03287864, 1.04309177, 1.41188860, -2.01283169, -1.67432475, -0.49061134, -0.97972506, -0.35367489, -0.82474375, 0.92065656, -0.06747001, 0.36461312, -2.25951743, 1.88405967, 0.59285724, -0.73260254, -0.39823371, 0.84472001, -0.20050812, 0.27256346, -0.20459172, 
layer16
kernel
-0.21066187, -0.33188486, 0.14847967, 0.29806808, -0.29400268, 0.00925688, 0.09590659, 0.02575526, -0.20437898, -0.13000055, -0.31987342, -0.39101800, 0.00068106, -0.33983088, 0.21639040, 0.20899875, -0.34925520, 0.52369803, -0.37808263, -0.52924174, 0.19347630, 0.50004476, -0.01991124, 0.32837382, -0.06769527, 0.00947538, -0.02674110, 0.03291964, -0.05568010, 0.02527583, 0.02444552, 0.10540145, -0.00141490, 0.00086848, -0.05489862, 0.04986788, 0.25749603, 0.00341895, 0.04647334, -0.07663339, 0.00846191, -0.08884394, 0.00857180, -0.13109244, 0.05631505, 0.13675813, 0.19908077, 0.04447081, 0.11737280, -0.31013054, 0.25815573, -0.27834430, -0.33912474, 0.27147159, -0.07468691, -0.14357497, -0.07683463, -0.17944187, -0.21240935, -0.04875321, -0.19780485, -0.08590873, -0.36704507, -0.08832492, -0.13766874, -0.14239372, -0.05659238, 0.16795157, 0.02240339, 0.06169321, -0.09519762, -0.06341138, 0.00341856, 0.21638812, 0.13972567, -0.01545748, 0.22518764, 0.36104685, 0.07292933, -0.24078679, -0.23718698, 0.03256488, -0.27571821, -0.31438273, 0.17759025, -0.07832903, 0.04106441, 0.01571580, -0.36158016, -0.25638592, -0.20985515, -0.02934839, -0.25451937, -0.32984856, -0.15865795, -0.24798639, -0.07169094, 0.10594849, -0.17035058, -0.07106618, 0.09090224, 0.01460371, 0.05372916, 0.16587315, 0.05357297, 0.03100360, -0.06023705, -0.15754305, 0.16108334, 0.04316034, 0.10370976, -0.20106784, -0.00171320, -0.00982692, 0.09194350, -0.00502735, 0.07288839, 0.16139573, 0.03191470, -0.10110661, -0.02470205, 0.51075768, -0.18000403, -0.19597454, 0.07447928, 0.00869889, 0.08007642, 0.32090271, 0.18791465, 0.38000852, -0.18627283, 0.16985455, -0.18851168, -0.38926244, 0.01833063, -0.07235236, 0.12313709, 0.31941015, -0.25060263, -0.29433495, 0.07918087, 0.17015307, -0.25119966, -0.11433092, -0.06781553, -0.11744788, 0.11362728, -0.07209601, 0.07457232, -0.20631205, -0.21848135, -0.29545924, 0.62318128, -0.08214276, 0.04450284, -0.16909663, 0.24805558, 0.52044976, -0.19117118, -0.12296651, -0.10959443, -0.37611622, -0.15791787, -0.21734932, -0.05748578, 0.26220593, 0.00481112, 0.20362349, -0.07089535, -0.06490167, 0.09724069, 0.16120306, -0.15431480, -0.08256960, 0.03504511, 0.05313797, -0.02022866, -0.05689520, 0.16594432, -0.02286766, 0.04495257, 0.08364309, -0.08954731, -0.02087723, -0.05125935, -0.12658286, 0.11146449, 0.06194957, -0.00176260, -0.00495652, 0.01468227, -0.10547081, 0.08113605, -0.13279179, -0.08413626, 0.26336604, 0.02188195, -0.48368564, -0.30497763, -0.07252675, 0.29219413, -0.05537340, 0.38350478, -0.42811656, 0.22775488, -0.08400581, -0.30262962, -0.49490380, 0.09078889, -0.08583202, -0.07285286, 0.20584032, -0.07970116, 0.01455264, -0.27836707, -0.27001867, -0.07361926, -0.07486266, 0.04364830, -0.20422740, 0.21065161, -0.16267733, -0.09838352, -0.11449583, 0.13718776, 0.02411666, 0.04499531, -0.06491551, -0.08361822, 0.07268672, -0.07128790, 0.31271350, -0.12858762, 0.16133033, 0.06403477, 0.19718151, 0.07066620, 0.02751008, -0.10164743, 0.04660136, -0.36603975, -0.04237308, -0.30520996, -0.16339166, 0.08567452, -0.32855162, -0.38018623, -0.24720946, -0.57470012, -0.38124719, -0.29919770, -0.56019998, 0.28858787, -0.05154618, 0.18514185, -0.22209948, 0.21308111, -0.28098413, 0.15914772, 0.14694640, 0.61466384, -0.38513747, -0.20070295, -0.08731021, 0.08445073, -0.35941648, 0.03700411, 0.21856408, -0.00384574, -0.34630263, -0.04170931, 0.39487243, -0.02408758, -0.12257802, -0.12427796, -0.13247411, 0.38685840, -0.19792190, -0.23434925, -0.08311506, -0.07510104, 0.25523427, 0.07977588, 0.05864803, -0.62412184, 0.08554355, -0.04878229, 0.03387743, 0.02430228, 0.02640882, -0.04648089, 0.05435900, -0.31896096, 0.28991470, 0.23072605, 0.01151746, 0.00429015, 0.18400539, -0.13420200, -0.10364861, 0.03610232, 0.11577406, 0.08802938, -0.11200626, 0.06165482, -0.21647693, 0.05134477, -0.11830876, -0.00726585, -0.19661038, 0.23415132, 0.01022443, 0.02331444, 0.09632202, -0.03425618, 0.28491890, 0.20860134, 0.19264404, -0.12303317, 0.21426734, -0.05333557, -0.06284636, 0.26873034, -0.03272405, -0.25508568, 0.00896876, -0.00906994, 0.05212143, -0.23473433, -0.19541922, 0.28214374, 0.28006235, 0.02756394, -0.10620862, 0.00237770, -0.29671344, -0.36676747, 0.05454662, 0.12620778, -0.10469509, -0.02660403, 0.28970423, 0.03451592, 0.20365347, -0.00271000, -0.09876715, 0.37422520, -0.03167146, -0.00396192, -0.03468323, -0.12783319, 0.05449881, 0.08686346, -0.23195460, 0.29735318, 0.21952505, -0.15680361, 0.11817638, -0.11224844, -0.09542073, -0.09312240, 0.01764820, -0.05172015, -0.09390604, -0.07522932, -0.06102587, -0.03230877, 0.17357597, -0.02533765, 0.07372734, -0.14497316, 0.20622759, 0.10637896, -0.12290067, 0.10585653, -0.19760756, 0.15894805, 0.04120633, -0.11819884, -0.14510377, 0.12485977, 0.06347474, 0.09514680, 0.18689783, 0.40831694, 0.01612872, -0.10467447, -0.52969408, 0.34336951, -0.13947724, 0.09981672, -0.23277260, 0.24674694, -0.08936924, 0.10008290, -0.29998252, -0.10347667, 0.08870380, -0.42508614, 0.09149867, -0.33884451, -0.08970197, 0.01994671, 0.30051488, -0.10474101, 0.53927648, 0.08298097, -0.16609503, 0.13723378, 0.10197686, -0.07476559, -0.07247619, 0.12133873, 0.03869103, -0.03349080, 0.00557635, -0.11008792, -0.06377643, -0.18027470, -0.16025871, 0.25196594, -0.03587833, -0.06593501, -0.04879714, 0.00074253, -0.27106616, -0.00730567, -0.11774109, -0.12500179, 0.12120792, 0.05775855, -0.16195941, -0.07773372, 0.14441833, 0.08481815, 0.25243959, 0.04075171, 0.01635430, -0.11036108, 0.04065422, -0.24282037, -0.03984178, 0.11335084, -0.28311712, 0.18796481, -0.02502298, -0.01584247, -0.16092700, 0.08904281, -0.00907489, 0.31379464, 0.14272846, 0.11751051, -0.06346737, -0.07272912, -0.57559347, -0.35686937, 0.10514599, 0.42973444, -0.60393280, -0.08574355, -0.25672227, -0.16589512, 0.50022715, -0.00497770, -0.35449705, 0.06358748, 0.05142918, 0.21080033, -0.39279357, 0.16572566, -0.16742021, 0.03257746, -0.40194404, 0.26739785, 0.37212020, 0.00492475, 0.21571450, 0.14615378, -0.00596265, -0.18703249, -0.08003471, 0.11582723, -0.09778856, 0.04177375, 0.15370843, -0.06484426, -0.09133261, 0.02002055, 0.50622195, -0.03363262, -0.24380681, -0.07623710, 0.00131656, -0.03242213, 0.18788695, 0.00539380, 0.09579481, -0.00659835, 0.21608423, -0.02059019, -0.05648951, -0.10538378, -0.19709615, -0.11913808, 0.35533407, 0.15487951, -0.00552550, -0.15251566, 0.18230018, -0.04791526, -0.07663605, -0.23449402, -0.09441221, -0.38256565, -0.03415764, 0.24130191, -0.53328478, 0.01938358, -0.15554139, 0.34568956, 0.00038006, -0.15251566, -0.34228560, 0.01280025, 0.10344212, -0.12131283, 0.29671058, -0.14241554, 0.03463601, -0.01795749, 0.06374132, -0.08586413, -0.02647823, -0.01180459, 0.12022360, 0.08766160, 0.05022568, 0.00005509, 0.06958313, 0.28980869, 0.04158396, 0.06557336, -0.06038833, 0.03413479, -0.10570551, 0.03729766, -0.13785271, 0.05368236, 0.16840982, 0.26685628, 0.04576655, -0.02890774, 0.05737749, 0.02667396, 0.01661465, -0.02156401, -0.27120718, 0.05393192, 0.04566839, -0.05165434, -0.10389267, -0.10033030, -0.29923892, 0.37375665, 0.45434794, 0.10009670, 0.02096541, -0.17753442, -0.25649050, 0.21175650, 0.21537727, -0.07954009, 0.18804632, 0.24247463, -0.10313348, 
bias
0.59717429, 0.64605033, 1.50100851, 0.90742588, 0.78582191, 0.04050463, 0.12188751, 1.12095344, 1.10339737, 0.61074048, 1.59733653, 1.02526677, 1.02761853, -0.07293722, 0.17795970, 0.54584521, 0.08695956, 1.11649954, 0.70177406, 0.52115166, 0.82065594, 0.19570310, 0.37679484, -0.03629190, 
layer17
kernel
-0.50092024, -0.10199928, -0.61113131, -0.26645151, -0.02884937, -0.29800215, 0.36175171, 0.71010518, 0.42009875, 0.16271301, -0.49893856, 0.35746464, 4.17294073, -2.38741732, -1.50041544, 0.68505055, -1.32978284, 0.21833061, 0.08297110, -0.45406637, 0.15366623, 0.18500605, 0.64932644, 0.27714801, 0.12550372, 0.14059593, 0.10196274, -0.13522354, -0.27094376, 0.01715129, -0.36630800, -0.42069542, -0.17644870, -0.30993381, -0.26523182, -0.34743384, -0.26918235, -0.38231698, -0.24093233, -0.64517671, 3.12956429, -0.38124079, 0.05179171, -0.49047419, 0.17501561, 0.41527683, -0.03503139, 0.43786204, 0.11177260, -1.93990123, 0.01122431, 0.36039227, 0.71981317, 0.37520623, -0.18537894, -0.02251406, -0.19216681, 0.16443019, 0.50511080, 0.08543348, 0.21849905, 0.08391206, 0.20831725, 0.40096024, 1.77030456, 0.39118955, -0.68032962, 0.56163383, -0.74763882, -0.35771587, -0.25602829, -0.28914011, 0.00006603, 0.16506131, 0.00256717, 0.22004546, 0.29615223, 0.25325370, 0.01448097, 0.05759725, 0.01535201, 0.84652561, -0.56285810, -0.54088104, 2.11631393, -1.01583076, -1.02559829, 0.19484332, -0.58727711, 0.53640419, -0.17863299, -0.15913953, -0.22833559, -0.35156614, -0.40332067, -0.23460542, -0.27678424, -0.17281915, -0.14694187, -0.04060399, -0.71242511, 0.09180955, -0.28645426, -0.42215428, -0.24192770, -0.16177987, -0.09870056, -0.15891744, 0.01911818, 0.30822831, -0.06166904, -0.03289924, 1.31643724, 0.02748421, -0.06525309, -0.08516015, -0.13572642, 0.29148909, 1.04262364, 0.35967529, -0.05881397, -0.25019708, -0.06560542, -0.14112636, -0.79867470, -0.17141624, -0.26718405, 0.15278484, -0.23199725, -0.05690499, 1.54889309, -0.18805583, 0.03891173, -0.30556968, 0.11288400, -0.18860295, -0.07606855, -0.07989158, -0.13851142, 2.15815091, -0.13508049, -0.24996753, -0.10008503, -0.21193326, -0.13238941, 0.05320005, -0.25025740, -0.30970031, 0.22976452, -0.48314333, -0.75131506, 0.17371446, -0.86531514, -0.13801830, -0.45707655, -0.08778844, 0.37422004, -0.84677529, 0.41124749, -0.35783085, -0.97728187, -0.33294353, -0.02202574, -0.22077431, -0.13761063, -0.40502092, -0.15461095, -0.34574959, -0.05194859, -0.43994048, -0.19561845, 0.61435938, 0.12203163, 0.66438359, -0.01613328, -0.58582997, 0.09980409, 0.00377380, -0.74997181, 0.09096193, -0.03318328, -0.51173061, -0.04629458, -0.05364530, 2.10068774, 0.03699366, -0.47212666, 0.18193799, -0.54341370, -0.46048510, 0.24072082, -0.43841088, 0.18567498, 0.61640179, -0.02872793, -0.77064198, -0.45713207, -0.43869030, 0.01051636, -0.18070771, 0.17440395, -1.19092524, -1.89435983, 3.30769467, -0.19509320, -0.48490441, 0.48458114, 0.10810554, 0.43648627, 0.13079686, 0.19440031, 0.31835592, 0.27636003, 0.01687456, 0.00310947, -0.00289357, 
bias
0.21226251, -0.04729623, -0.11461365, 1.27120936, -0.13357282, 0.20857882, 0.14919993, 0.17519116, -0.14610487, -0.28628883, 0.99971497, 1.47585309, 0.02192044, 0.68369317, 0.08919668, -0.01581967, 1.23358428, 2.20048571, 1.19667745, 0.05564097, -0.06118619, 0.75764710, -0.16282855, -0.57319021, 
layer18
kernel
-0.01378235, 0.28285983, -0.31114581, 0.07410928, -0.07031895, 0.09504090, -0.20060420, 0.35187763, -0.12151659, 0.31883961, -0.04373013, -0.21927294, 0.06816922, 0.35210392, 0.05722255, 0.23828113, -0.18781893, -0.22368556, 0.18815836, -0.27878666, -0.38582081, -0.14063790, 0.16688730, 0.15908037, -0.07423319, -0.17712578, -0.18548794, -0.40807348, -0.28933078, 0.25527397, -0.14458938, -0.07734999, 0.10437497, 0.12216358, 0.09859748, -0.31061628, -0.13903993, 0.02605573, -0.01375005, -0.09213582, -0.03934017, 0.31289688, -0.04006236, -0.00347315, 0.29647663, 0.06016955, 0.69998890, -0.31046423, 0.10678993, -0.33284101, 0.25603154, 0.11389274, 0.27767035, 0.16435574, 0.17790063, 0.02793634, -0.50413436, -0.04278205, 0.23422757, 0.22844622, 0.61844009, 0.18698561, -0.06755929, 0.25140646, -0.14535984, 0.02669748, 0.31351477, -0.12809837, -0.26759425, 0.29418850, -0.30773339, 0.35249764, -0.04038620, 0.13836011, 0.39900067, -0.36104512, -0.05641915, 0.12433714, 0.01721321, 0.28251642, -0.10816396, 0.02610612, 0.05908351, -0.27653328, 0.34702215, -0.22698538, 0.18781452, -0.15939459, 0.27129802, 0.35450107, -0.16827582, -0.07553715, 0.23390339, 0.09619768, 0.14387582, -0.20080915, 0.12230868, -0.18529713, -0.18005683, 0.16077250, -0.06770471, -0.16014367, -0.05732892, -0.15710430, 0.12681533, -0.17240597, -0.06251682, 0.15804754, -0.30959710, 0.07373106, -0.25195378, 0.60200602, 0.07996703, 0.22700994, 0.05973946, 0.03938088, -0.18278179, 0.31106439, -0.20185648, 0.01078847, -0.19714524, -0.08682338, 0.12017047, -0.47480726, -0.05287155, -0.02876834, 0.95929039, 0.34418344, 0.41433328, -0.31567428, -0.30910853, -0.28267273, -0.14747016, -0.43057486, -0.11507338, -0.30392504, 0.24051373, -0.25796479, -0.12552674, 0.39774612, 0.04634900, -0.34642962, 0.01153325, -0.54806721, 0.32501176, 0.64773816, 0.29073125, 0.37480009, -0.31325844, -0.10937111, 0.29269016, 0.18576765, 0.46229699, 0.03752490, 0.35488477, -0.09467947, -0.24045320, -0.27571315, -0.33692831, -0.05505285, -0.29677117, -0.13801982, 0.16177130, -0.01540582, -0.00343570, -0.06880585, 0.60137784, 0.60398972, 0.10878279, 0.07077735, 0.03355071, 0.09040311, 0.46080041, 0.05946917, 0.20821998, -0.50516087, 0.07177421, -0.03831696, 0.17270669, -0.08554339, 0.06429773, -0.78702414, 0.21644410, -0.32447925, 0.05027933, -0.00839546, 0.26242447, -0.13495047, 0.22080539, 0.22915412, -0.07520093, 0.45282549, -0.28740191, -0.06781056, -0.04410524, 0.07765995, -0.39611250, -0.23638541, -0.33414480, 0.01045872, 0.27217710, 0.02929777, -0.26122591, -0.36993647, 0.01509962, -0.26549953, -0.40092033, 0.21675339, 0.04938051, -0.01632662, 0.30449644, -0.01287933, -0.11231645, -0.00515841, -0.13321720, -0.55931193, 0.29025248, -0.27894396, -0.19776480, -0.16720481, -0.08124647, 0.35998848, -0.40172237, 0.02340800, -0.09995940, -0.15858878, 0.20597695, -0.00379896, -0.09861315, 0.24676846, 0.34060240, -0.36725825, 0.33306339, 0.33225563, -0.28055945, -0.03769513, 0.36752748, 0.15104976, -0.17905186, 0.00816167, -0.07945947, 0.01652641, 0.28665125, -0.12930825, 0.30655760, -0.11802799, 0.04026886, -0.47742033, -0.03821602, 0.18214299, 0.21449079, 0.24999042, 0.72392714, 0.21963325, -0.30970943, 0.29942450, 0.18114766, -0.15344468, 0.14747278, -0.04582605, -0.10069289, 0.19375502, 0.01765651, -0.34039837, 0.06800607, -0.09505034, 0.13292815, 0.10888879, -0.08366328, 0.11141925, 0.09908326, 0.32231712, 0.16874994, -0.00776930, 0.05025332, 0.04341318, -0.23422556, 0.12565307, 0.58738267, -0.03799642, -0.11505678, 0.09030573, -0.03208542, -0.00772482, 0.06088915, 0.10912602, -0.09852973, 0.08911958, 0.02595478, -0.05209775, 0.04689111, 0.09459771, 0.39093697, -0.18756443, -0.21642050, -0.07803684, -0.01091512, -0.19584486, -0.00185447, 0.04121399, -0.85865617, 0.10174900, -0.01618449, 0.30211046, 0.00837453, 0.15506999, -0.11498515, 0.28580052, 0.22093710, -0.04350366, -0.07314385, 0.30236140, -0.35773781, -0.24311055, -0.00777653, 0.10839903, 0.09258355, 0.03593474, 0.00786838, 0.29811484, 0.71995431, -0.52736932, -0.40476435, -0.23821194, -0.30007428, -0.18698658, -0.17327049, -0.12064553, 0.82576406, 0.26004571, -0.35717797, -0.46494716, -0.33730364, -0.14443873, -0.10615967, -0.08537561, 0.21587625, -0.14804386, 0.38956252, 0.09139056, -0.28699288, 0.56539619, -0.07389561, 0.68059754, 0.00332175, 0.10136963, -0.10029593, 0.03498989, -0.04010574, 0.45954230, -0.18556009, 0.15057021, -0.01848969, -0.05355853, 0.06303233, 0.36101481, -0.11090658, -0.18316007, -0.08936948, 0.18758118, -0.01657048, 0.04278060, -0.28664872, -0.24151427, 0.38827601, 0.09333271, -0.01723367, 0.04651690, 0.09968442, 0.05006639, -0.10865153, -0.41726968, -0.12098131, 0.03654099, -0.10095476, 0.18292911, 0.12299891, -0.18248077, -0.20415129, 0.10222510, -0.09041840, 0.05933240, -0.04139818, 0.02195075, 0.00510624, 0.18618284, -0.27034968, 0.21360962, 0.07237622, 0.03555323, 0.06138374, 0.08779471, -0.01673360, 0.12937023, -0.22783092, 0.13161951, 0.24292290, -0.07085251, -0.06976415, 0.14025387, -0.04480433, -0.06236327, -0.00482962, -0.10963456, -0.03078257, -0.02452447, 0.17907220, 0.19387396, 0.06616472, -0.16239433, 0.10036262, 0.04974241, -0.22691317, -0.07293115, -0.45411894, 0.77305555, -0.20087154, -0.13364615, 0.32537386, -0.02538326, -0.28075200, 0.13730368, -0.32157004, 0.39237982, -0.08821963, -0.10175248, 0.16429625, -0.02973572, -0.17746335, -0.07907580, -0.05058364, 0.01575481, -0.34329119, 0.00675715, 0.11714841, -0.11814567, 0.44278225, -0.00367189, 0.06775483, -0.10136828, -0.04417263, 0.09614734, 0.00428967, -0.02680862, 0.62651229, -0.09192366, -0.24849306, 0.23593935, 0.14290111, 0.12565443, -0.14430900, 0.22714002, -0.05135875, 0.08570547, -0.04308739, -0.04379133, -0.09084862, 0.55293626, -0.04348967, 0.01735876, -0.32353556, 0.12784530, 0.10150239, -0.06254455, 0.00732778, -0.13346373, 0.04428472, -0.04158153, -0.14904685, 0.08014183, 0.03196133, -0.10886993, -0.06567178, 0.22918870, 0.18996583, 0.00668180, 0.13240364, -0.09763311, -0.37547934, -0.26120302, 0.02166566, 0.22583608, -0.02630477, 0.02655153, 0.03094389, -0.32533029, 1.38581228, -0.16325738, 0.08320796, -0.23136353, -0.06361510, -0.16700815, -0.03726098, 0.37566963, -0.08394825, -0.00415176, 0.27933395, -0.12160404, 0.64434350, 0.01914869, -0.03610120, -0.08414565, 0.30874792, -0.45206696, 0.00552451, 0.06525557, -0.10597390, 0.39143685, 0.10220636, -0.07786231, -0.32651940, 0.23223449, 0.40032437, 0.21948285, -0.04803602, 0.13640396, 0.39510778, -0.07317705, -0.09882525, 0.98071742, -0.63680941, -0.43973854, 0.04917112, 0.42389560, 0.20847008, 0.20074180, -0.00232603, -0.91502714, 0.27524334, -0.06728896, -0.14385416, -0.06797743, 0.43192479, 0.16392851, 0.10790873, 0.61629003, 0.60933286, 0.02650612, 0.26408288, 0.04217789, -0.39279068, -0.05504142, 0.24987864, -0.27727252, -0.13718686, -0.24958876, -0.17421933, -0.03960519, -0.15552191, -0.14610074, -0.03319154, 0.05525884, 0.06835318, 0.10074887, 0.22795703, 0.19512036, -0.27789047, -0.29173073, 0.16499747, -0.02223599, -0.37504360, 0.03934972, 0.26120076, 0.29498726, 0.44044554, -0.20475426, -0.05240976, -0.33487973, 0.02757873, 0.06543588, 0.29770103, -0.07008322, 0.37531495, 0.25482339, 0.12483361, -0.32103947, 
bias
0.52562118, 0.78446662, -1.91417897, -0.44106925, 0.56980956, 1.01552081, -0.58362556, 0.18383104, 1.63742495, -0.12894948, -1.27133906, -0.14217114, 0.82811821, 0.86639017, -1.09519637, 1.00697899, 0.43844214, 0.25208706, -0.43853289, 0.89267898, -0.59596920, -1.11742914, -0.44796216, -0.06619680, 
layer19
kernel
0.19787876, 0.14514016, 0.16048229, -0.32514882, -0.12779307, -0.24024400, -0.23658280, -0.76083076, -0.26238549, -0.18554972, 0.02116896, -0.21784875, 0.65568012, -0.37168139, -0.54588282, 0.24520110, -0.22968203, -0.48535848, -0.16313267, -0.30144963, -0.10343262, 0.21723901, 0.39705107, 0.23941040, 0.21866286, 0.56099737, 0.33602887, -0.11415988, 0.34746239, -0.00838067, 0.14283825, 0.47878501, 0.16465154, -0.00407615, 0.41899222, -0.07988977, -0.13304143, -0.11412596, -0.00129599, 0.41408253, 0.82499927, 0.26608285, 0.03442773, 0.18203169, 0.05520309, -0.18935910, -0.19339445, -0.09982463, -0.36580506, -0.25120094, -0.38013056, -0.13861449, -0.17906894, -0.15324266, 0.06833183, 0.22468433, 0.09051987, 0.36378625, 0.16128995, 0.29429623, 0.11459754, -0.01188645, 0.08363182, -0.07280915, -0.59353006, 0.01885188, 0.16452546, -0.54178411, 0.16552058, -0.38566184, -0.84827912, -0.37548956, -0.36509702, -0.25549811, -0.24712113, -0.46980935, 0.35602194, -0.44048992, -0.26992515, -0.17812732, -0.40791273, 0.27374092, 0.56397605, 0.40981838, -0.20253021, 0.60394287, -0.10515077, -0.37587830, -0.33147076, -0.21299770, 0.58943599, 0.49021670, 0.51643020, 0.20382823, 0.11244851, 0.15826087, -0.67567098, -0.57375687, -0.48752186, -0.12745944, -0.58579433, -0.13722724, 0.06178299, 1.17158866, 0.19289681, 0.00708250, 0.33797926, 0.13715893, 0.01664605, 0.03137617, -0.09791528, 1.37983012, -2.86496878, 1.55510390, 0.21422349, -0.35487530, 0.20971543, 0.10907105, 0.36397931, 0.12686832, 0.07392284, 0.22494859, 0.13601802, 0.05601398, 0.30975065, 0.05590240, -0.07314970, -0.38731149, -0.07943646, 0.19894367, -1.25030160, 0.08360805, -0.16686356, -0.52315253, -0.15146981, 0.02177983, -0.17523602, -0.02705337, 0.13434429, 1.66120160, 0.45599264, -0.36802557, -0.26529756, -0.37420920, 0.51477021, 1.12950933, 0.70498878, -0.40299949, -0.15672202, -0.30580753, -0.26033559, 0.01539234, -0.32524592, -0.13826154, -0.31485116, -0.16266064, 0.15022738, -0.03699595, 0.06553167, 0.33336082, 0.72505510, 0.30961612, -0.66703886, -0.89529473, -0.57359433, 0.07691631, 0.63453645, 0.04252096, 0.19464535, 0.35124806, 0.19316795, 0.06666386, 0.23858006, -0.14754772, -0.80507094, 0.10847310, 1.54208040, -0.05681925, 0.05791309, 0.11734542, -0.00726164, 0.05256810, -0.07085965, -0.03709269, -0.03194316, 0.02376292, 0.22722290, 0.48705950, 0.20565926, -0.12498701, -0.45568618, -0.18779667, -0.35641319, -0.33723307, -0.40383661, -0.05271901, -0.34861469, -0.09964183, 0.12379447, 0.34185809, 0.13226810, 0.34715411, 0.10327239, 0.39826071, -0.00314037, -0.12875949, 0.01511848, 0.48420510, 0.90334409, 0.36954987, -1.14844728, -1.21035480, -1.08717144, 0.11181252, 0.86101961, 0.11560278, 
bias
1.81168377, 1.14147437, -0.61579251, -0.00563788, -0.49361962, 1.48964441, -0.03598377, 1.61866975, 1.64283741, 0.51950520, 0.08916607, -0.01954800, -0.14682852, -0.30223852, 1.75906372, -0.30375326, 0.01731253, -0.23273629, 0.74437070, -0.84104198, -0.04004064, 1.37374234, -0.43155429, 0.19284225, 
layer20
kernel
0.01777974, 0.04203737, -0.16263638, -0.31093872, 0.24932985, -0.02746212, 0.16814949, 0.14065291, -0.13293457, -0.04944560, -0.06460661, -0.45620885, 0.04289879, -0.17393824, 0.08207624, 0.06581260, 0.51740426, -0.17228431, -0.08221407, -0.09413615, 0.07401334, 0.07601184, -0.00901047, -0.03268233, -0.18603231, 0.03947090, 0.10506994, 0.12374284, -0.02384628, -0.32078379, 0.16150670, 0.14130095, 0.13558759, 0.42975554, -0.14826845, 0.04915573, -0.03776386, 0.37680250, -0.30824229, 0.11524249, -0.07092917, 0.19495071, 0.15300635, 0.12896846, -0.07406455, -0.05378912, 0.11405801, 0.07044145, -0.05580382, 0.15038492, 0.04195949, 0.02386671, -0.29447097, 0.13463780, 0.20694329, 0.06863116, 0.15340310, -0.39315286, 0.09100518, -0.10629300, 0.15405923, 0.07086200, 0.05668960, 0.68027520, 0.04176265, -0.03295411, 0.00575754, -0.10484952, -0.23581299, 0.10727719, 0.16298260, 0.32229087, -0.00642121, 0.04856602, -0.17669433, 0.55625075, -0.01043593, 0.06641614, -0.15987223, 0.01138607, -0.05679016, 0.00474679, -0.13432758, 0.59163946, 0.10815986, -0.11962381, -0.13906269, 0.08062147, 0.08118220, 0.20647569, 0.17993414, -0.04978095, -0.11918768, 0.04311442, 0.00498043, 0.01777223, -0.22639415, 0.19555959, 0.10716720, -0.20542665, 0.20172650, -0.00481790, -0.24366149, -0.18226647, 0.25681758, 0.13861844, 0.00135436, 0.06982313, -0.02572972, 0.10641347, -0.10922284, 0.33849487, -0.53857684, 0.28504831, 0.40180850, 0.11497862, -0.11114144, -0.06156632, -0.00249246, 0.20898975, -0.00654417, 0.04377087, 0.24470493, -0.15187635, -0.10635464, 0.08575658, -0.34192777, 0.11184745, 0.27216899, -0.15709452, -0.43915060, -0.15173903, -0.08712979, -0.05674765, -0.18236147, 0.67836273, -0.10505009, -0.17219976, 0.31446368, -0.03728249, -0.02506097, 0.10113646, 0.16039021, 0.48144528, 0.02748864, -0.10325455, -0.35346258, 0.02264974, -0.37639150, -0.24060468, -0.20070243, -0.24149802, 0.11509123, -0.06945674, 0.25087804, 0.27276471, 0.32189810, 0.09983010, 0.27440250, -0.01299987, 0.14464571, -0.22124912, -0.34006256, -0.29107806, 0.07552397, 0.15469572, -0.06711174, 0.11777123, 0.26644886, -0.12880307, -0.30131912, -0.21389320, 0.06048072, 0.00254697, -0.31183025, -0.19687517, -0.11086742, -0.30015123, 0.36305118, 0.04613219, -0.37239441, -0.27796105, -0.21723007, 0.26444674, 0.53323138, 0.04204453, -0.02533934, -0.11553903, -0.39341667, 0.02350406, 0.23441494, 0.18185927, -0.06271700, 0.23064123, 0.10457515, -0.19440162, 0.24019276, -0.12957767, 0.13828641, -0.08526140, -0.02315894, -0.37138575, -0.01382689, -0.33346057, -0.10345144, -0.08940508, 0.11363505, -0.20844798, -0.25466052, -0.07068831, -0.02751331, -0.03300894, 0.18794030, 0.02893550, -0.52617663, -0.13217625, 0.34288681, 0.12718973, -0.34491271, 0.05947972, -0.28742728, -0.13168474, -0.38669729, -0.38163251, 0.11104569, -0.14877842, 0.13814235, 0.11142555, -0.23652604, -0.01052528, 0.28616107, 0.33680904, 0.01149867, -0.42822865, 0.13826898, -0.15751520, 0.13143149, 0.06444955, -0.03339601, -0.08027704, -0.26389644, 0.39812902, 0.22647667, 0.11835092, -0.31567496, 0.05058197, -0.00812439, -0.15044056, -0.11954748, 0.03002284, -0.01808441, 0.00973567, 0.12944631, 0.01146932, -0.00017581, 0.42662895, 0.18437941, -0.02244915, 0.32394212, -0.00578565, -0.03682150, -0.09376699, -0.07505711, -0.01378766, 0.13248800, 0.18143560, 0.11742719, -0.24450271, 0.15978570, 0.07377440, -0.25438637, 0.01517846, -0.23273645, 0.09813054, -0.14107735, 0.17872936, -0.09295338, 0.24944453, 0.07653946, -0.21485175, -0.43864587, 0.06800894, -0.03032751, -0.33675012, -0.18249457, 0.29086173, -0.06083152, -0.09983665, 0.22075340, -0.08236352, -0.03097611, -0.18543763, -0.10283469, -0.08242338, 0.14138274, -0.16352990, 0.09589125, 0.18483907, 0.04408484, 0.64502132, -0.10516912, 0.29114547, 0.01203878, 0.03992476, 0.01879516, -0.11564413, 0.03836847, -0.10199669, 0.07284623, 0.08224381, -0.01244282, 0.01283937, 0.07541576, -0.29595673, -0.11266097, -0.03994413, 0.00090607, 0.16995536, 0.41887364, -0.04002125, -0.42751020, 0.02868575, 0.21606846, 0.45465371, 0.07472175, -0.30798623, 0.00559546, 0.24629647, 0.59160501, -0.15314488, -0.22038674, -0.00445564, -0.12893164, 0.00660273, 0.09916633, 0.12669539, 0.07260939, -0.07173598, 0.08233334, -0.38872516, 0.69593215, 0.08576874, -0.01912765, -0.06864993, 0.04923115, -0.03685785, -0.08780670, -0.01241696, -0.19902076, -0.01329765, 0.00569899, 0.09758888, 0.13788214, -0.20495994, -0.01260620, -0.07505493, -0.04597042, 0.09776356, -0.13019614, -0.03470344, 0.02219966, 0.09645569, 0.23359647, -0.18056871, 0.37233725, 0.02851386, -0.07445602, 0.05565630, 0.04845641, 0.46239302, -0.13656937, -0.26376745, -0.21965383, 0.06405617, -0.22856799, 0.18022585, -0.09062720, 0.06639900, 0.28913850, -0.02569961, 0.09554142, -0.23085366, 0.02545676, 0.07497030, 0.18141986, -0.06294929, -0.24008861, -0.35855916, 0.17751701, 0.23908141, 0.07956791, -0.08693297, 0.16908181, 0.07245464, -0.10298505, -0.16870411, -0.21402760, -0.20848806, 0.27244455, -0.22938722, -0.25381154, -0.20294853, -0.23769653, -0.12117739, -0.17109618, 0.01379376, -0.16366816, -0.08265242, 0.01818207, 0.39080161, -0.21842271, 0.31127140, 0.06397616, 0.10664280, -0.34418702, -0.08504787, 0.23117039, -0.03869488, -0.11472900, -0.07677140, -0.04418874, -0.12005638, 0.05194199, 0.27987787, 0.01106502, -0.14593224, 0.30556348, 1.14843166, -0.04440279, -0.07458337, -0.03638793, -0.17903812, 0.00207732, 0.20824236, -0.09440839, 0.76645625, -0.19378972, 0.22222880, -0.31174192, -0.02000836, 0.01166507, 0.12875283, -0.06410446, 0.14988787, 0.46155211, -0.36240387, 0.15392840, -0.03892889, 0.17343169, -0.22720174, 0.09899282, -0.09790500, 0.15664798, -0.22378284, -0.12362447, 0.10311105, -0.06488296, -0.00374002, -0.15137757, 0.30160251, -0.27048174, -0.04043779, -0.07881047, -0.07429603, -0.05220413, 0.12669227, 0.11670288, 0.49293762, 0.00949712, -0.16578533, 0.00962319, -0.19786662, -0.01243870, -0.19267982, 0.01575249, 0.03172109, 0.07055002, 0.09619583, 0.00038571, 0.03294575, -0.18444055, 0.14136526, 0.00286557, -0.36914217, 0.12615839, 0.06513505, 0.25323048, -0.23926364, -0.03468866, -0.11258314, -0.32528368, -0.26784998, 0.43284136, -0.13614401, -0.16812415, -0.06330762, -0.37775722, -0.10481653, 0.01806225, 0.13072698, 0.00854163, -0.30022171, 0.59052300, -0.15663742, -0.05670379, -0.21911347, -0.12524895, 0.04972412, -0.07157771, -0.34850210, 0.03521123, 0.07870179, -0.59957761, 0.23509450, 0.18060495, 0.37256992, 0.07730585, -0.00407649, 0.07696890, -0.00953688, 0.32770750, 0.34522885, 0.03174546, 0.70124012, 0.58340406, -0.40241402, 0.04009699, 0.15663339, -0.30517024, 0.17477533, -0.11908011, 0.27243420, -0.31242052, 0.15313439, -0.17774135, 0.40425721, 0.13434961, 0.26013073, -0.05739793, 0.13094418, 0.01009956, -0.17049108, -0.02706491, -0.23552376, -0.32340577, -0.18784778, -0.00598353, -0.03215932, 0.45874405, 0.08354283, 0.14808117, -0.07920366, 0.12554629, -0.05714021, -0.02592433, 0.17547463, 0.09157795, 0.03712620, -0.07416704, 0.02827139, 0.05355561, 0.17974201, -0.11837709, 0.56431818, -0.10975698, 0.02180631, -0.11402436, -0.05513453, 0.06029807, 0.14645645, -0.04723988, -0.13066715, -0.09260213, 0.03117320, 0.08108020, -0.02123021, 
bias
0.10455897, -0.57444400, -0.54631507, -0.79942816, -0.14498104, 0.10310328, 0.46656236, 0.42237315, 1.25545812, 0.31403121, 0.33186671, 0.47877005, 0.00197017, -0.82062590, 0.31421548, -0.56816506, 0.57897145, -0.71248263, -0.99650240, 0.36776102, 1.14324963, -0.25504693, 0.15985928, -0.06300366, 
layer21
kernel
-0.45931002, -0.71735930, -0.05182318, -0.28953305, -0.43959588, 0.33396342, -0.25157595, -0.36397597, 0.22921365, -0.21374685, -0.88011688, 0.22163634, -0.27730110, -0.59580290, 0.33807942, -0.32872891, -0.38541639, 0.33983263, -0.14907096, 0.32521108, -0.17747451, -0.22989717, 0.47008824, -0.14497247, 0.26706961, 0.52689534, 0.30500454, 0.32804620, -0.26886106, -0.23257671, 0.72628176, -0.16179250, -0.48210597, 0.61861837, -0.06505902, 0.13733031, -0.09075483, 0.08484869, 0.10930508, 0.06155690, -0.07141432, -0.06363653, 0.24888951, 0.61656719, 0.32408875, -0.21677883, 0.79782099, 0.32337347, 0.30870304, -0.03897805, -0.16387169, -0.11939223, 0.06453423, -0.12188932, -0.05474914, 0.08901558, -0.32239214, -0.31004637, -0.27960292, 0.08733207, -0.32042804, -0.59371781, -0.47138274, -0.41082734, -0.15112677, -0.37887725, 0.24132217, 0.19876918, 0.05601870, -0.53721398, -0.40008307, -0.50724310, -0.46687242, -0.63348645, -0.44950452, -0.17706417, -0.13747126, -0.32645744, -0.12312067, -0.06851485, -0.08919442, -0.06866005, 0.41110525, 0.15014575, -0.08657323, 0.50139791, 0.31995755, -0.05027660, 0.25736830, -0.13313039, -0.13233633, -0.27739212, 0.13287759, -1.26653183, -0.13213336, 1.51983809, -0.35776818, -0.23192687, 0.34937873, 0.13655362, -1.17928660, 0.02297226, -0.55610073, -0.46394688, 0.06192137, -0.16153401, -0.24380161, 0.31229910, 0.27417684, 0.06427898, -0.63149583, 0.24113625, 0.78480422, -1.15053356, 0.48179191, 0.15210688, -0.85352862, 0.11514315, 0.51105577, 0.06816094, 0.05644780, 0.40040770, -0.09016089, 0.31465545, 0.11151250, 0.22527255, 0.31407842, 0.06261690, -0.18155587, -0.67420840, 0.20193121, 0.86073387, -0.41115117, 0.07984482, 0.21236736, 0.09830343, 0.22497411, 0.45125747, 0.03314058, 0.64197266, 0.63411713, 0.05217937, -0.03783209, -0.25399598, 0.57000804, 1.33890641, 0.91878670, 0.05832494, -0.39093474, -0.18276650, -0.27437493, -0.79628181, -0.37724301, -0.23814899, 0.55650908, 0.16645585, -0.68002003, 0.35964873, 0.76094103, 0.36414436, -0.27281249, -0.51817811, 0.58348304, 0.16064927, 0.29725474, 0.10176495, -0.33324385, -0.32956839, -0.38408804, -0.91825837, -0.83801031, -0.00470647, -0.38505450, 0.56216431, -0.55553859, -0.96276367, 2.11818194, 0.09868455, -0.60242808, 0.16997442, -0.27556497, 0.27346140, 0.02775251, 0.43180129, -0.07945679, 0.36563510, 0.42912406, 0.12104970, 0.37290192, -0.36089164, 0.60775083, -0.31591219, -0.31189993, 0.33153886, -0.38580984, 0.15658347, 0.61408597, 0.14000653, -0.23475379, 0.90538085, -0.06353625, 0.24264756, 0.52922565, 0.06919917, -0.01122931, -0.14543410, -0.23629822, -0.14203306, -0.30989030, 0.15354925, -0.55940783, -0.71400398, 1.24095714, 0.01138533, -0.24637675, 0.98480904, 
bias
1.15332997, 1.14210057, -0.45440108, 0.29349536, -0.23530820, 0.32212028, 1.25330496, 0.98103458, 1.25410712, -0.35857403, -0.03603831, 1.43390918, 0.77093732, -0.24119079, 0.74063128, -0.62381846, -0.32614744, -0.17918937, 0.97933912, 0.13392957, -0.53154874, -0.26003206, -0.10351092, 0.62729776, 
layer22
kernel
-0.13905124, -0.21752749, 0.19257422, -0.23018496, -0.18425646, -0.10315830, -0.48026022, 0.33180627, 0.11427879, -0.45711514, 0.19709474, 0.39672098, 0.04782712, 0.25097936, -0.03709088, -0.39816755, -0.37936217, -0.36706635, -0.70990270, -0.00809173, 0.11021031, -0.08096254, -0.34645277, -0.04441413, 0.17237560, -0.03328152, 0.16051288, -0.13656776, 0.17867309, 0.94843191, 0.36525467, -0.24999587, 0.30579460, 0.13246706, 0.12280114, 0.20181273, 0.23740089, 0.00995883, -0.11950594, -0.22363427, -0.07783996, -0.03218313, -0.33713561, 0.08999559, -0.15201858, -0.21557935, -0.29979002, 0.12770733, 0.05696025, -0.01346716, 0.54112238, -0.19823667, 0.05934921, 0.12872268, 0.12235212, -0.14258800, -0.41296184, 0.23102629, 0.19224085, 0.23833369, 0.11897948, -0.45343360, -0.21528727, -0.67153138, -0.00734253, 0.26456538, 0.10417730, 0.40059546, 0.00080657, -0.24620320, 0.75772125, -0.32115090, -0.08186948, 0.15939575, -0.11625321, -0.11495025, -0.13587004, -0.02093788, 0.10908692, 0.09012157, -0.17720291, -0.13543572, -0.01394351, 0.11806288, -0.02243991, 0.14745192, 0.05222708, 0.00656458, 0.08382392, -0.10995556, -0.02513632, -0.10800111, 0.03800307, -0.05190134, 0.12428815, -0.09345137, -0.35580227, -0.00576418, -0.08100358, 0.13140425, 0.02136626, 0.31118757, 0.24119826, 0.14332475, -0.60062546, -0.20787664, -0.11878666, -0.09940714, -0.03171827, -0.23980404, 0.07981849, 0.24914524, -0.01726206, 0.10784211, 0.38452300, -0.20578533, 0.14653142, 0.10184701, -0.30170694, -0.07086070, 0.07404629, -0.72413123, 0.00505176, -0.20465381, -0.32940221, 0.00491047, 0.34933242, 0.12917733, 0.39823526, -0.58314341, 0.08585680, 0.12668605, -0.17438941, -0.33161667, -0.06957122, -0.46282393, 0.12447159, -0.10555634, -0.01611257, -0.06966349, -0.17309763, -0.15658139, 0.62817091, -0.22790572, -0.30612445, 0.49876568, 0.54780161, 0.06719093, 0.14897589, -0.04112599, -0.03126042, 0.09783839, 0.17302686, 0.44295809, -0.08511240, 0.26105806, -0.13811792, -0.82193595, -0.20104741, 0.28113946, 0.02657573, -0.12889449, 0.42614576, 0.16356993, 0.77616906, -0.26035756, 0.27810389, -0.04068816, -0.15725724, -0.05123447, 0.15325919, -0.04205373, 0.19783022, 0.08492187, 0.16925144, -0.10150644, -0.30503759, -0.13971019, 0.01751005, -0.18168987, 0.03949941, 0.02811603, 0.18983407, 0.41550267, -0.01301222, 0.26061466, 0.21648785, -0.31214526, -0.11305641, -0.27201656, 0.02049009, -0.31658757, 0.31944737, 0.21382812, 0.13290268, -0.14825539, 0.07657858, -0.04957261, 0.02446260, 0.02003483, 0.23232536, -0.12707606, -0.10173483, 0.08037052, 0.07833582, 0.15657915, 1.28000915, 0.10811638, -0.05988482, -0.02302907, 0.24360868, -0.21438304, 0.14825539, -0.13983916, 0.03412741, 0.37197953, -0.36726096, -0.07493421, -0.12759425, 0.65033603, -0.16942412, -0.01437080, -0.10523237, 0.17600113, 0.32166028, 0.48652431, -0.05007307, 0.02692195, 0.21783100, -0.31096163, 0.24308677, -0.40760005, 0.06037707, -0.26343170, -0.57597184, -0.14785148, 0.23782516, 0.14776379, -0.38865820, 0.45284995, -0.29457772, -0.43541169, -0.02564352, 0.25162336, 0.15526944, -0.09347855, -0.18097165, 0.40912268, 0.17463411, 0.25444004, -0.50841063, 0.63563067, -0.57694983, -0.19881062, -0.10744458, -0.30819166, 0.19974951, -0.11172828, 0.14482427, -0.50183839, 0.31124306, -0.04512555, -0.14564580, 0.30138469, -0.00365339, -0.03046311, -0.01324942, -0.20077617, -0.04190374, 0.06837243, -0.18558231, 0.03536193, 0.03798468, 0.15483280, -0.08428982, -0.09146471, -0.13529782, -0.06186077, -0.35066494, -0.12733912, -0.07548702, -0.10111161, -0.02979989, 0.38274089, 0.17376485, -0.03367372, -0.07747670, 0.44158700, 0.11593439, -0.10466952, 0.26738447, 0.24329013, 0.47781870, -0.07001437, -0.11335286, -0.04717169, -0.01178314, 0.24767092, 0.15207589, -0.07122690, 0.17523147, 0.19995163, 0.33700767, -0.02303825, 0.45372435, 0.20198557, 0.03555478, 0.15223235, 0.63020748, -0.01771872, -0.13502212, 0.23468502, -0.02507104, 0.06129375, -0.45447075, -0.02905089, -0.16460827, -0.04165712, 0.22852832, -0.41762176, -0.14836563, 0.27507439, 0.05717248, -0.20444718, -0.02523266, 0.53172427, 0.00963144, -0.12468854, 0.59216958, 0.11345607, -0.19426523, 0.09091031, -0.44380394, -0.17874987, -0.39531842, 0.06008161, -0.25583476, 0.13469745, -0.03396494, 0.01435115, -0.14838673, 0.26552057, -0.32337719, -0.30839646, -0.11455095, 0.46233639, -0.09782676, 0.37219372, -0.05046311, 0.23672140, -0.07206249, -0.01156648, -0.33086756, 0.16827495, -0.15639368, -0.18713002, -0.22419441, -0.13508488, -0.35075578, 0.01124362, -0.14671928, 0.15092288, 0.14780408, -0.20190851, -0.14671928, -0.01382273, -0.02735731, 0.05213823, 0.01856026, -0.24340212, -0.29018414, -0.00306795, 0.01028018, -0.06410494, -0.35147539, -0.05793513, 0.14671928, 0.87163728, 0.07715644, 0.54240030, 0.22062132, 0.07898704, -0.11580246, 0.14902449, 0.25493017, -0.10546561, 0.83120084, 0.06937660, 0.34177449, -0.08692674, -0.28689942, -0.42548785, -0.09508384, -0.03137190, 0.05829447, 0.00935183, 0.23235393, 0.30865172, -0.05767651, 0.16363649, -0.03213405, 0.13636374, 0.22197215, 0.10422969, -0.59983569, 0.25493017, 0.16470763, 0.14756946, -0.02816169, 0.38608041, 0.06354740, -0.50118512, -0.16078690, -0.13440874, 0.12385747, 0.17325658, -0.02726243, -0.07140090, 0.24495722, -0.04727087, -0.37073311, -0.16306502, -0.18860388, -0.00561660, -0.15539137, -0.12529628, -0.13033211, 0.28032795, -0.05542412, 0.21630095, -0.20407107, 0.36425847, -0.03539914, 0.09786822, -0.14298476, 0.39063993, -0.03248392, -0.13583553, -0.02078832, -0.06694602, 0.10467041, 0.01529625, 0.90455216, -0.41174060, -0.05202286, 0.16741712, -0.02811108, -0.00522311, 0.01282351, 0.05497279, 0.01667577, -0.25181979, -0.00510598, -0.07013889, 0.19809638, -0.24196355, 0.37307227, 0.06389963, 0.06423817, 0.02685054, -0.18298146, -0.16343071, -0.16664685, 0.11468079, 0.26033810, -0.11002585, 0.06034495, -0.14624974, -0.26524693, 0.50036371, -0.18518198, 0.18196583, 0.09259099, -0.17502575, -0.33566350, -0.12229796, 0.66421759, 0.43502530, 0.34937438, -0.00413919, -0.29902178, 0.16488709, 0.22159810, 0.49637976, -0.07737844, -0.00180190, 0.21182971, 0.01420037, 0.10781426, -0.23661251, 0.40846410, 0.73480123, 0.26374698, -0.46128586, 0.02634304, -0.28871068, -0.13892844, 0.33013597, 0.05558042, 0.10772382, 0.22413066, 0.35509968, 0.18360986, 0.44030187, -0.02350707, -0.12935604, -0.02176083, -0.28154752, 0.80488205, 0.01610234, 0.09731927, -0.13781859, -0.00286912, -0.05342821, -0.03227185, -0.21881723, -0.32130805, 0.26059264, -0.16857927, -0.27751774, 0.27751774, -0.18456407, -0.06592054, 0.06978241, -0.12646803, -0.00060604, 0.36805356, 0.39303818, 0.41672364, -0.07638396, 0.27750844, 0.47646630, -0.09058207, 0.28635919, -0.17858267, -0.14566888, 0.04199505, 0.16825677, -0.14105910, -0.22790726, -0.44032568, 0.05333509, 0.31530857, 0.15700893, -0.10316676, -0.16567530, 0.26036006, -0.45433939, 0.00532717, -0.04692750, 0.04093480, -0.29520997, 0.22344348, -0.01929051, -0.01006332, 0.04399591, 0.03262864, 0.00467332, -0.15193519, -0.01438328, 0.14787403, -0.10136976, -0.02233638, 0.06561562, 0.27424780, -0.00803274, -0.09189372, -0.42172369, -0.08910665, 0.06270910, -0.10479388, -0.11411066, 0.05152100, 0.27122185, 0.07791854, -0.37139714, 
bias
1.35466766, -0.36639130, -0.36107543, 1.01075542, 0.22711343, 0.90496171, -1.30151784, 0.51147288, -1.69656014, -0.28526744, 0.57376778, 0.71517259, -1.52662647, 0.49328983, 0.80956751, -0.01839723, -0.48677528, 0.65410078, 0.68806767, 0.28900728, -1.38985753, 0.34073126, 0.14044684, 1.10942078, 
layer23
kernel
